%YAML:1.0
opencv_ml_ann_mlp:
   format: 3
   layer_sizes: [ 48, 100, 8 ]
   activation_function: SIGMOID_SYM
   f_param1: 6.6666666666666663e-001
   f_param2: 1.7159000000000000e+000
   min_val: -9.4999999999999996e-001
   max_val: 9.4999999999999996e-001
   min_val1: -9.7999999999999998e-001
   max_val1: 9.7999999999999998e-001
   training_params:
      train_method: BACKPROP
      dw_scale: 1.0000000000000000e-003
      moment_scale: 1.0000000000000001e-001
      term_criteria:
         epsilon: 1.0000000000000000e-008
         iterations: 10000
   input_scale:
      - 1.8554524767211685e+001
      - -9.3749165886628454e+000
      - 1.8772820510838319e+001
      - -9.4736976125952115e+000
      - 2.0488207390831761e+001
      - -9.5734561686631761e+000
      - 2.2243834562582020e+001
      - -9.1678763663738909e+000
      - 2.3392016341599263e+001
      - -8.1871054007566926e+000
      - 2.2684588059933990e+001
      - -7.8891856758182701e+000
      - 2.1100331925644330e+001
      - -8.5788505735764939e+000
      - 1.8657727181007647e+001
      - -8.5572587218960994e+000
      - 1.6405734329096060e+001
      - -8.0997110962595933e+000
      - 1.5733773237645087e+001
      - -7.7543592989829904e+000
      - 1.
      - 0.
      - 6.8562223081948076e+001
      - -8.2951768751142101e+000
      - 6.7777908484258617e+001
      - -6.7742087699586140e+000
      - 6.4904842623147161e+001
      - -6.3509634442389133e+000
      - 6.4599484278212500e+001
      - -6.4470927073884203e+000
      - 6.4628030382201004e+001
      - -7.7592261704450012e+000
      - 2.1249026010806087e+001
      - -7.8690188109849490e+000
      - 2.0854209913414511e+001
      - -7.3210148072598136e+000
      - 2.1227667957601255e+001
      - -6.5383528235878137e+000
      - 2.2775115047952369e+001
      - -5.4992228646163417e+000
      - 2.3607090505647637e+001
      - -6.3266294790089876e+000
      - 2.3456940510367346e+001
      - -7.4115571914683169e+000
      - 2.0554036528084954e+001
      - -4.8464809974265144e+000
      - 1.8725693957674672e+001
      - -5.6470152139599161e+000
      - 1.8003016992419461e+001
      - -6.1732147183001063e+000
      - 1.8060484151703431e+001
      - -6.5292508302290795e+000
      - 1.9766952380752112e+001
      - -6.0957784943030253e+000
      - 2.0349871086039109e+001
      - -5.3109396584230391e+000
      - 2.7145775438072878e+001
      - -8.5822662273137311e+000
      - 3.3558523130032107e+001
      - -8.0533953777291689e+000
      - 3.4247609125710930e+001
      - -6.5002894069175143e+000
      - 3.0689138791906274e+001
      - -5.9957935617070772e+000
      - 3.2704827278242064e+001
      - -6.2269924413928415e+000
      - 3.0795217185197568e+001
      - -7.4266564972239859e+000
      - 2.5224476190154100e+001
      - -7.9809345285370750e+000
      - 1.8608299054368658e+001
      - -6.2937745516426542e+000
      - 1.5857045077088337e+001
      - -5.4975418505169351e+000
      - 1.5614425147045203e+001
      - -5.4277657622183391e+000
      - 1.5837191983777320e+001
      - -5.4836251279172767e+000
      - 1.8679749007302306e+001
      - -6.3162845502953608e+000
      - 2.7606021597502025e+001
      - -8.2955778778485172e+000
      - 2.8706129908377456e+001
      - -6.8368041923992822e+000
      - 2.7336892681796350e+001
      - -6.5185837939366804e+000
      - 2.7764981021850186e+001
      - -6.6263823677412566e+000
      - 2.5887321829785382e+001
      - -7.7799331025773384e+000
      - 1.7009602575178125e+001
      - -4.7190799385864306e+000
      - 1.6808018266790292e+001
      - -4.6920304373028143e+000
      - 1.7002851161214839e+001
      - -4.7172978878898268e+000
   output_scale:
      - 5.2631578947368418e-001
      - 4.9999999999999994e-001
      - 5.2631578947368418e-001
      - 4.9999999999999994e-001
      - 5.2631578947368418e-001
      - 4.9999999999999994e-001
      - 5.2631578947368418e-001
      - 4.9999999999999994e-001
      - 5.2631578947368418e-001
      - 4.9999999999999994e-001
      - 5.2631578947368418e-001
      - 4.9999999999999994e-001
      - 5.2631578947368418e-001
      - 4.9999999999999994e-001
      - 5.2631578947368418e-001
      - 4.9999999999999994e-001
   inv_output_scale:
      - 1.8999999999999999e+000
      - -9.4999999999999996e-001
      - 1.8999999999999999e+000
      - -9.4999999999999996e-001
      - 1.8999999999999999e+000
      - -9.4999999999999996e-001
      - 1.8999999999999999e+000
      - -9.4999999999999996e-001
      - 1.8999999999999999e+000
      - -9.4999999999999996e-001
      - 1.8999999999999999e+000
      - -9.4999999999999996e-001
      - 1.8999999999999999e+000
      - -9.4999999999999996e-001
      - 1.8999999999999999e+000
      - -9.4999999999999996e-001
   weights:
      -
         - 3.0021554521742499e-001
         - -5.8929405354480345e-002
         - -3.4840304811637535e-001
         - -1.4991583362174252e-001
         - 2.4115298760728762e-001
         - -9.4060775581372019e-002
         - 4.1463790214597779e-001
         - -7.6691266770472577e-001
         - -8.2382286768392543e-001
         - -7.6283930114775544e-001
         - -1.4867710762841517e+000
         - -8.6002772658737503e-001
         - 1.4595189062727736e+000
         - -1.1176116961303133e-001
         - 5.5139426236478106e-002
         - -4.4485476033816229e-001
         - -4.2314935501338591e-001
         - -1.0689330944110806e+000
         - 1.0894995072647888e+000
         - -1.2413555118272939e+000
         - -5.5394089471825880e-001
         - -8.8824981365436831e-002
         - -1.3965782362189505e-001
         - 6.5285209466490224e-001
         - -1.4752651631900218e-001
         - -7.3263372406663885e-001
         - -3.4369957014038673e-002
         - -4.5404070456672041e-001
         - 1.8046449202364900e-001
         - -5.0387338214881017e-001
         - 2.1624838595983498e-001
         - -1.5586384532557560e+000
         - -3.5139126060989567e-001
         - 2.3235338130076233e-001
         - -9.4342179452843955e-001
         - 6.0621327136892722e-001
         - 9.2498541959697186e-002
         - -8.8184643261051598e-001
         - -4.4731533595120854e-001
         - -3.0899118008831977e-001
         - 2.0497307090976968e-001
         - -8.4903927876425714e-002
         - 4.8316037850748222e-001
         - 6.9911522067422360e-001
         - 6.4521939740486456e-001
         - -7.2739049292080846e-002
         - 3.3240462189968262e-001
         - 1.3001365458060068e-001
         - -9.2335822492296415e-001
         - 7.5981301806179480e-001
         - 6.4019042938254667e-001
         - 6.0479194307996320e-001
         - -4.9088006623355823e-001
         - -3.2734221571146593e-001
         - 2.9957844756727925e-001
         - -3.4021910061298472e-001
         - 9.7038632943923986e-001
         - 8.0147946619329435e-001
         - -4.4389064877746354e-001
         - 1.3101727212185843e+000
         - 9.1792443927137757e-001
         - 2.9536046488158718e-001
         - -5.8003111036919097e-001
         - 6.1716587257923750e-001
         - -1.1060475773880776e+000
         - 1.8250993677794423e+000
         - 6.1547469397169230e-001
         - -4.0493958863558555e-001
         - -1.4538941096295335e+000
         - -3.5314729971534331e-001
         - -4.4975208476228018e-001
         - 1.3309857388684896e+000
         - 2.9340746155111574e-001
         - -2.9017109693760273e-001
         - 2.4789198840541266e-001
         - 2.4634984894237083e-001
         - -1.2345649923047342e-001
         - 8.1468162953389836e-003
         - 1.8179282172647052e-001
         - -4.0935490786137625e-002
         - 3.8250263420625896e-001
         - -4.2432342767772380e-001
         - -5.7639239607691295e-001
         - -7.2438201821569670e-001
         - -1.5360624667218084e+000
         - 7.9965755235497904e-001
         - 8.4956303634471514e-002
         - -1.1273335380266207e+000
         - -5.3749207976411473e-001
         - -4.5356326937622449e-001
         - -5.7607223476934932e-001
         - -4.8442639520140490e-001
         - 5.7225554188948946e-001
         - 6.0020757735915520e-001
         - 2.5676498518004309e-002
         - 3.2376217498381205e-001
         - 2.3179743676000433e-001
         - 3.9963935927657801e-001
         - 1.7854845162455715e-001
         - -1.8878433784262047e-001
         - -9.6377534218917468e-002
         - -4.1672739061739794e-001
         - 1.2675699048650921e+000
         - 9.8840485644181264e-001
         - 9.5526816428810904e-002
         - 2.7821267262628674e-001
         - 3.0469509064193523e-001
         - -7.1489254668322288e-001
         - -4.4195350422414353e-001
         - 7.0232033083470413e-001
         - -3.9891916804583882e-001
         - 6.9973517169714017e-001
         - 1.4128270163508364e-001
         - -7.9006284866076815e-001
         - 9.7384502366256775e-001
         - 5.7415115675045991e-001
         - -5.6293153394125017e-001
         - -5.8197179165873569e-001
         - 1.7851944957624608e-001
         - -2.0479281950761186e-001
         - 8.0102415095095170e-001
         - 5.4675355714856733e-001
         - 1.0430130638177626e+000
         - -1.0902590662925351e+000
         - -5.2592229468455076e-001
         - -9.7257866901222534e-001
         - -6.8948481232893211e-001
         - 3.9708219262511679e-001
         - 4.7604260937541587e-001
         - -3.0842836582354177e-001
         - 2.7387803477545619e-001
         - 7.1915074337578166e-001
         - -7.2025100299774480e-001
         - -9.6898130498055367e-003
         - 1.0516440185640359e+000
         - -6.3598578439636044e-001
         - -1.4936107814347979e-001
         - 1.7265171040812062e+000
         - 1.7004265973267938e+000
         - -2.9331428613016941e-001
         - -2.0483876468421255e-001
         - 6.7645560491996481e-001
         - -6.3052167639731405e-001
         - -4.9137174264848155e-001
         - 6.9650434378966097e-001
         - -2.5003218872016070e-001
         - -9.4125635429430898e-001
         - -2.6477764328413561e-001
         - -4.7339826457686213e-001
         - 1.4809277585527036e-001
         - 3.5166791540679815e-001
         - 3.0458970577642311e-002
         - 9.1577266013144565e-001
         - -1.3728845793328698e-001
         - 1.5759931182650561e-001
         - 8.5928530739617748e-001
         - -5.3322481048999215e-001
         - -1.0303690029437524e+000
         - 3.0394028897545838e-001
         - 4.4757102419389339e-001
         - -3.4569304153472680e-001
         - -2.6516378755995884e-001
         - 6.3131279596591161e-001
         - -4.1795823035121471e-002
         - 6.9787134406864704e-001
         - 8.9674684030437724e-001
         - -3.9297613436749751e-001
         - 7.5663542665182948e-001
         - 3.6362988506351707e-001
         - -6.5508199854024773e-001
         - 4.4740810678632052e-002
         - 3.4873666084138677e-001
         - -4.8988133955091168e-001
         - -7.8584062374211908e-002
         - -9.1805455995788876e-001
         - 7.0618045050130551e-001
         - -3.2918860810280703e-001
         - 8.2940656508087995e-001
         - 1.7037190577185397e+000
         - 1.9985017975486469e-001
         - -8.4110141522584794e-002
         - 2.3813992166855530e-001
         - 5.5174433844086890e-001
         - -8.1642601302038587e-001
         - -5.3374936916127547e-001
         - -3.2439018507379480e-001
         - 2.2496532611140752e-001
         - -2.6010809689830366e-001
         - 7.0813408576166847e-001
         - 8.7031275634373226e-002
         - 1.1381906293188702e-001
         - 1.3637261889342700e-002
         - 4.4144579522121868e-001
         - -1.6684163351205365e-002
         - 1.9040969044167216e-001
         - 2.9392284985263184e-001
         - -7.3678042415938461e-001
         - 1.8904327009958272e-002
         - 4.8430166931116164e-001
         - 4.0524760760688289e-001
         - 2.3772765903717177e-001
         - 3.9416828293787870e-002
         - 9.6925936672204738e-001
         - 6.0037570868850781e-002
         - 9.9496993682204091e-002
         - -4.0795693486125711e-001
         - 1.7044293816283382e-001
         - 4.3992340340474922e-001
         - -9.5134372871432324e-002
         - 1.0301518519815365e+000
         - -6.1717582194426668e-001
         - 1.5294210593123544e-001
         - -6.8978280815306914e-001
         - 1.2127140592852337e-001
         - 5.4021654637623484e-001
         - -2.2271494407599182e-001
         - -6.9625965070054929e-001
         - -7.3945185916858461e-002
         - 1.5265051215295303e-001
         - 6.4394990855738654e-001
         - -1.0965776411247952e-001
         - 7.7217166784062111e-002
         - -1.5718053613419223e+000
         - -5.7481067218191995e-001
         - 2.6281359860723669e-001
         - 9.2651903555916715e-001
         - 1.3688106818111676e+000
         - -1.2220225623753017e-001
         - 4.0718536023772428e-001
         - 8.2369238236157782e-001
         - -1.8458071628665995e-001
         - 3.5644042021879907e-001
         - 5.9376837442673724e-001
         - -7.5239684727151790e-001
         - 4.2537456161420978e-001
         - -7.7984649385574437e-002
         - -4.8366134111731650e-002
         - 3.0500750577637997e-001
         - 1.1006338825878921e+000
         - 2.1592373531027534e-001
         - -7.6336648863869394e-001
         - -9.3798540502989303e-001
         - 1.3775102398042771e+000
         - -9.6929848455034096e-001
         - 7.1377446621063856e-001
         - -3.2987392522843009e-002
         - -6.5826390162563986e-001
         - -3.5095206953244534e-001
         - 2.4766295866314836e-001
         - 3.4861430620452072e-001
         - -7.1389372239176907e-002
         - 4.3299434539919512e-001
         - -6.2029826387037346e-001
         - 1.1911308791485804e+000
         - -4.7299239134695636e-001
         - 1.3840861616976754e+000
         - 2.9348160071102830e-001
         - 7.0708292091285618e-001
         - -4.7500375399912309e-001
         - -9.5518143785252929e-001
         - -3.4095494510455782e-001
         - -3.4679442516588999e-002
         - 9.2346089049619481e-002
         - 1.0934691034631780e-001
         - 6.7871389974542440e-001
         - 3.4441609097068682e-001
         - -2.8594968762419481e-001
         - 2.8851568876355427e-001
         - -4.6293723239455237e-001
         - -1.2423674226263564e+000
         - -4.8345891077436731e-001
         - -1.1584248430965667e+000
         - -1.0136842329882343e+000
         - 5.2310774119560655e-001
         - -3.3938826789733090e-001
         - -3.0446772654831827e-001
         - 2.5427393746266774e-002
         - 3.5655004363545362e-001
         - -3.8091602502133598e-001
         - -4.2813739650072991e-001
         - -1.0173125156262315e-002
         - 2.2381646157648052e-001
         - -4.5340814273385327e-001
         - -3.0548478232752357e-001
         - 9.8916453145923877e-001
         - 1.0692320651369311e+000
         - -4.4946268615328105e-001
         - -4.8339815772575878e-001
         - 1.1938384310456855e+000
         - 2.2204439257038205e-001
         - 2.0924417151403713e-001
         - -2.7581825820694513e-002
         - -8.4450394896316699e-002
         - -9.2424692532974817e-001
         - -6.9220035966760324e-002
         - -7.3920638099045965e-001
         - -4.8782780048353769e-001
         - 1.0696146079595090e+000
         - 8.5709512288783629e-001
         - 1.1275648354866788e-002
         - -5.6288655868648474e-001
         - -4.5324952587910494e-001
         - 4.3856176691650935e-002
         - -2.9223229667930745e-001
         - 2.8857747664356032e-001
         - -1.0751202996476408e+000
         - -8.0578368713858106e-001
         - -6.0523339552311539e-001
         - -1.0756188943399536e+000
         - -8.8932761370128044e-001
         - -6.4780572066167885e-001
         - 1.1141905876888525e+000
         - 4.3908364078455836e-001
         - 1.8965909831096994e+000
         - -7.6457073162290801e-001
         - -1.6644534994528448e-001
         - -4.5931301788103795e-001
         - 3.7587321756946679e-001
         - -2.1265683853430678e-001
         - 9.6327263538852215e-001
         - -3.3913673158180441e-001
         - -1.4117870313801413e+000
         - 9.8733039982133619e-001
         - 4.6818860870381890e-001
         - -8.1223291762102232e-002
         - -6.2835256145329657e-002
         - 1.1796184876664173e-001
         - -8.1689361352694989e-001
         - 1.6766279614897845e+000
         - 2.1895683905818045e-001
         - 7.3946682097184621e-002
         - -5.8321708264239813e-001
         - 5.0550044682098105e-001
         - -1.8751617376113590e-002
         - -2.3578662742541953e-001
         - -4.8681694770606643e-001
         - 5.3566150272928248e-001
         - -9.7588910337871565e-002
         - -5.3596915321631466e-001
         - 6.3808413289851218e-001
         - -1.6142888762108363e+000
         - -1.6774263206024074e-002
         - -1.4540899443556543e-001
         - -8.5422809310916692e-001
         - 1.9152820597706044e-001
         - 5.8098386640746802e-001
         - 3.1695448653917345e-002
         - 1.5105102467331220e+000
         - 1.5381885186313160e+000
         - -8.3963359675710461e-002
         - -1.8206225889936906e-001
         - 4.5856328124492168e-001
         - 2.6681214592573510e-001
         - 4.0601090586949512e-001
         - -3.0791179233137823e-002
         - -8.5314691184849090e-001
         - -8.2914827430356897e-001
         - -3.9276635008432381e-001
         - 7.9825076718695209e-001
         - -5.9999140766703618e-001
         - -1.0102835417653546e+000
         - 2.3223679620900578e-001
         - 1.9156286201031261e-001
         - -4.8963668917618958e-001
         - -6.9478404499024804e-001
         - -2.2050163753723256e-001
         - 7.6904856541811895e-001
         - -1.0152127934975540e-002
         - -1.2944400738787706e-001
         - -1.7931348076430045e-001
         - 4.1250599111250952e-001
         - -2.1235935522640897e-001
         - -9.8205803319703255e-001
         - 3.8997851526238136e-001
         - 4.2711476275114774e-001
         - 8.4178941413661668e-002
         - 5.8118477129863610e-001
         - -1.3375373780546673e+000
         - 3.1372354220250148e-001
         - -7.7884454857964414e-001
         - 5.3899930532990514e-001
         - 1.5336991928983734e-001
         - 1.3588876509760073e-001
         - -5.1997952285020424e-002
         - 1.6442070616157337e-001
         - 9.5239220477401043e-001
         - 4.8217351841061146e-001
         - -2.0644228995199748e-001
         - -1.4378522689303728e+000
         - -5.1771093265130730e-001
         - 6.6164331793598241e-001
         - 3.5452811284818719e-001
         - 2.7982813528336159e-001
         - -7.0788970757475933e-001
         - 7.6706388492916511e-001
         - 8.3371304320888695e-001
         - 2.9786454915106647e-001
         - 7.9520571126136308e-001
         - -2.9665309234361259e-001
         - 2.9752259710717871e-001
         - 7.1507688683419990e-001
         - -1.0564967062398383e+000
         - -8.3081229014863167e-001
         - 4.3089880965204630e-001
         - -8.3507365383339838e-001
         - -2.7388536413550235e-001
         - 4.7165784107326264e-001
         - -3.8660509076153976e-001
         - -4.7884692661751838e-001
         - 1.8718298867418501e+000
         - -3.9423293410401788e-001
         - 5.6658719368655919e-001
         - 4.5384458516441856e-001
         - 3.9477861867351954e-001
         - -6.8147732907622716e-001
         - 8.2006329552575774e-001
         - -1.8067757363619696e-001
         - -1.3259250156854001e+000
         - 3.9821492022718907e-001
         - -3.3419266935825989e-002
         - 1.4795645590307213e-001
         - 6.9720653239714070e-001
         - 2.6826385356753024e-001
         - 9.4421680665801433e-001
         - -1.7936054103192975e-001
         - 3.5347591980917019e-002
         - -9.6488163975475161e-002
         - -3.3369046040112221e-001
         - -1.2766283381457955e-001
         - 3.9120479497314653e-001
         - 9.8540120660041197e-001
         - 5.1927361289345841e-001
         - -6.9980713834166944e-002
         - -1.0754962123340845e+000
         - -8.7289245631392898e-001
         - -1.1850051021779808e+000
         - 3.2920472368590900e-002
         - -7.7938421987596251e-001
         - -7.0406675258914397e-001
         - -3.8367018405307074e-001
         - -7.8438775135714200e-001
         - -5.2345985760051172e-001
         - 2.3187278425234284e-001
         - -9.8189504643803083e-001
         - 2.6173543339346117e-001
         - 1.9840972495240290e+000
         - -1.3544231002300061e-001
         - 2.5515400667658139e-001
         - 3.7040519026543534e-001
         - -6.7049902247923832e-001
         - -5.0327898924270487e-001
         - -2.4034660353619527e-001
         - 5.9353823649314730e-001
         - -5.3088024173443515e-001
         - 1.1763951463084630e+000
         - -8.1382931590070162e-001
         - -8.9680392122667729e-001
         - -2.0431593319256974e-001
         - -1.1622882735672480e+000
         - -8.1954205287420701e-001
         - 5.6546234226642245e-001
         - -2.2080246592976283e-001
         - -1.1193993379427059e+000
         - -1.4542545712501578e+000
         - -7.5638577263592066e-001
         - -1.4831815067746670e-001
         - 1.2397881090095979e+000
         - 6.4197669044873495e-001
         - 3.9486804888187027e-001
         - 1.6782449833872073e-001
         - -9.4298976433450213e-002
         - 4.3865987972145670e-001
         - 1.1135966130724035e+000
         - -8.3638268248657321e-001
         - 7.4921029323319044e-001
         - -4.9632923361738296e-001
         - 3.1857056262897371e-001
         - 1.4310638695673489e-001
         - 9.7645093365235403e-001
         - -5.9347215337241332e-001
         - -3.7390538804505391e-001
         - 1.8190116483971699e-001
         - 4.9245133987257295e-001
         - 1.3471727408568596e-001
         - 7.6011466981619757e-001
         - 2.4550097311103594e-001
         - -7.3725286244404620e-001
         - 9.4417333566816841e-001
         - 3.3179896872593823e-001
         - 3.7715247451661199e-001
         - 5.0877773409995475e-001
         - -1.3500673343445817e+000
         - -1.5363609411587198e-001
         - -3.1883416011073029e-001
         - 1.9958203108334888e-001
         - 2.8127260818894217e-001
         - 2.1893263239929941e-001
         - 1.3805032165881923e+000
         - 8.1476870545549779e-002
         - 1.9418174447034775e-001
         - -3.9842179297612362e-001
         - -5.4254799826896305e-001
         - -3.0133446822047516e-001
         - 3.3603213739427346e-001
         - -1.7068211247556830e+000
         - -4.2485696114218169e-001
         - 9.6493315560015136e-001
         - 9.6177774353314638e-001
         - 5.5438100161286574e-001
         - -7.0478122031355436e-002
         - -8.8909109409255138e-001
         - -4.3449241329227745e-001
         - 7.2811460481619994e-001
         - -1.1431914678329758e+000
         - -2.4476484365137960e-001
         - 1.4993550770852226e+000
         - 1.0492503488536089e+000
         - -6.6593212708386884e-001
         - -1.2694283224601260e-001
         - 6.0657098781354835e-001
         - -3.1013843545108638e-001
         - 1.0714313911741595e+000
         - -2.7256908970501109e-001
         - 5.3947120950966831e-001
         - -1.7984376186509923e-001
         - 1.0558633769257093e+000
         - -5.1918396735621604e-002
         - 3.6533867106712836e-001
         - -6.1320316564544530e-001
         - 2.0196017019379159e-001
         - 1.7488122272916795e-002
         - 7.9900230618136905e-002
         - -8.9116220011349645e-001
         - -2.0488173827385450e-001
         - 5.9497746876551683e-001
         - -1.0549150981253199e+000
         - 2.4015309298527129e-001
         - -2.8494030342541099e-001
         - -1.3317158062444117e+000
         - -1.1454841420081475e-002
         - 6.4917757489202277e-001
         - -1.0170984303736990e+000
         - -6.0765467512919358e-001
         - -1.1550145779958469e+000
         - 2.0036472844046185e-001
         - -5.5776444183586005e-001
         - 2.7020513076679242e-002
         - 8.9561391523298295e-001
         - 8.8281510051819900e-001
         - -8.2531632745501182e-002
         - -1.0325747571723913e+000
         - 2.7612283065926718e-001
         - -7.7964820653411052e-002
         - 6.4205173894332793e-002
         - 1.3786220215931458e-001
         - -2.3579950350142993e+000
         - 6.4181279613546971e-001
         - 5.7500906039634980e-001
         - -1.7946931143076963e-001
         - 4.7225288721380199e-001
         - -5.7247607835795400e-001
         - -1.0804182314246948e+000
         - -9.5233969284783712e-002
         - -4.3802467261135386e-001
         - -2.5652974686447111e-001
         - 7.0550237247081793e-001
         - 4.0506956169754715e-001
         - -5.8855323683610905e-001
         - -1.9073142113867331e-001
         - 1.5390785503620086e-001
         - -5.7101813610606822e-001
         - 8.2526031849359727e-001
         - 2.3241475494477176e-001
         - 1.5661033261202727e-002
         - 9.3920774132635876e-001
         - 5.0229256211548778e-001
         - 1.1299710704615731e+000
         - -1.6038649272955650e+000
         - 1.0672758015102703e+000
         - -4.9833604502111534e-001
         - -1.2883504998564046e+000
         - -1.8424590473682567e-001
         - -1.5595287076136075e+000
         - -5.2063433862962638e-001
         - 1.2530323551644482e-001
         - -1.0408871980160468e+000
         - -5.6316890732884506e-001
         - 5.1995467043803623e-001
         - -2.6514769059223281e-001
         - 1.1811794098782749e+000
         - -5.7215296210977651e-001
         - -3.3025756350964347e-001
         - -6.7548277602879558e-001
         - 6.1854867807500435e-001
         - 6.2227925802038231e-001
         - -5.4659157917997958e-001
         - -2.4261785769726754e-001
         - 1.9594701043071189e-001
         - -8.9980801006559019e-001
         - -1.5898665674791099e-001
         - -8.2483199862118717e-001
         - 3.7379930176052167e-001
         - 9.2643427528433561e-002
         - -2.5158263438399758e-001
         - 1.1288095461766887e+000
         - 3.4387917294864151e-001
         - -6.0682688937334395e-001
         - -7.4737630634819385e-001
         - 2.2243108677521131e-001
         - -6.3043389301985520e-001
         - -6.2473445327506971e-001
         - 2.3825419775919809e+000
         - -7.5474295658712651e-002
         - 2.0129532775813823e+000
         - 1.0056406804668279e-002
         - -2.5890982562677056e-001
         - -4.4078471537457364e-001
         - -4.6395316989866692e-001
         - 1.3206821504269450e+000
         - 5.8086402835805540e-001
         - -5.9555100092436730e-001
         - 3.0580700136003497e-001
         - 2.9149520562209214e-001
         - 2.1243874800305804e-001
         - 4.0257030219886197e-001
         - -2.4173284103083054e-001
         - -6.7648128490510528e-001
         - 1.9391895371452095e-001
         - 2.7898846946133288e-001
         - -8.8597546910295283e-002
         - -1.5403927110369159e-001
         - 2.8754093995058100e-001
         - 9.1600950736777520e-001
         - -6.9792272792892962e-001
         - -1.5234669202817208e-001
         - -7.6086011739599502e-001
         - -3.8039668829911943e-001
         - -7.4690142073291277e-001
         - -3.2811615388888660e-001
         - -1.8460594064859759e-001
         - -5.2226865614816831e-001
         - -5.8756750351894364e-002
         - 1.9892248314545252e-002
         - -4.3874471921077418e-001
         - 5.9092018283204185e-002
         - -6.7028165124315253e-002
         - 2.2038936608479490e-001
         - 6.5509759191662575e-001
         - -2.9983517827997458e-001
         - 3.5193527289814697e-001
         - -9.6719301227136090e-001
         - 2.7212513557102347e-001
         - 3.0242474628894611e-001
         - -8.9593673304540522e-001
         - 1.4065059323225740e-001
         - -2.0458981713869884e-001
         - -5.9155452596984492e-001
         - 3.1101505257840922e-001
         - -4.4241433049510670e-001
         - 3.7225197717104119e-001
         - -7.0890959327899206e-001
         - 5.1999793765423519e-002
         - 7.5911346503773358e-001
         - -5.2865623527638739e-001
         - -5.7180773928762174e-001
         - -8.7476034404314465e-002
         - -7.4341831657191904e-001
         - -3.2084238746981647e-001
         - -4.0733818468451349e-001
         - -3.6609990605140615e-003
         - 4.3763015509570413e-001
         - -2.1309563669236514e-001
         - 8.4106836690033493e-002
         - -3.9918205768177134e-001
         - 4.7832433385511924e-001
         - -5.7524783217721431e-001
         - 6.6883490399351486e-001
         - -6.5613040017564850e-001
         - 3.8002949707222544e-001
         - -8.7772796341134429e-001
         - -1.1740206812835208e+000
         - 2.1958093251477084e-001
         - -1.1052853438793697e-001
         - -2.7079812196535291e-001
         - -4.7633162846750637e-001
         - 5.6777603768687290e-001
         - -6.2460027620236669e-001
         - -8.8610335480190164e-002
         - -1.6208182457815763e+000
         - -1.9571349581831893e-001
         - 4.2987945445952208e-001
         - 7.9441758348737812e-001
         - -1.2770851938848609e+000
         - -2.0321868223609330e-001
         - -1.0437148591234895e-001
         - 1.0822447669010413e+000
         - -3.7637797728343392e-001
         - 7.8871198881153526e-001
         - 1.9672745314879364e-001
         - -1.7547619399000539e-001
         - -5.9510255140314416e-001
         - -1.9063852727500753e-002
         - -1.2942772662427438e-001
         - 7.6317837023112081e-002
         - 1.3966845244048403e+000
         - 4.1703173396648197e-001
         - 3.4924990492775770e-001
         - -3.0177663466202881e-001
         - 1.0092507858606155e-001
         - 2.1732263880694566e-001
         - 2.9176766457944686e-001
         - 8.4007957850476866e-001
         - -1.0297921259058882e+000
         - 6.2097417519221243e-001
         - 9.8093758451932023e-001
         - -1.0307478731235444e-001
         - -1.8751315110491068e-001
         - 1.0385271592776035e+000
         - 6.4356693627510053e-001
         - -1.4577248394789041e-001
         - 3.6835723610386478e-001
         - -2.2905347538418494e-001
         - 2.3452416358371561e-001
         - 1.7028412656664291e-001
         - -9.1668057789734012e-002
         - -1.1693819085212286e-001
         - 8.9208848508536165e-001
         - 1.1886274899405747e+000
         - -1.4109619426558176e-001
         - 3.5149425946490437e-001
         - -2.0037420344957221e-001
         - 4.6716743549485401e-001
         - -1.2594419817618269e-001
         - 8.6071744163816924e-002
         - 6.3260568421671204e-001
         - -9.9555353237812183e-001
         - 2.9221253137668751e-001
         - -6.1288501753067792e-001
         - 4.7908556034806726e-001
         - 4.8943657203261499e-002
         - 3.7497215802200473e-001
         - -8.5215819444640428e-001
         - 4.5361757327306962e-001
         - -2.8388945677373939e-001
         - 5.4292117197161838e-001
         - -4.8781465757304965e-001
         - -5.0473232202028817e-002
         - -4.8886054910745147e-001
         - -7.3086394119144238e-001
         - -6.4957291397772643e-001
         - -5.1007741564932696e-001
         - 6.8536732925100530e-001
         - -3.2026554842991595e-001
         - 7.0684293636765438e-001
         - -4.5536733044741079e-001
         - 1.4224799540531999e-001
         - 2.2300610444076802e-001
         - 1.3925852020156453e+000
         - 1.5991232534348168e-001
         - 2.5181230965873252e-001
         - -4.6110606226637579e-001
         - 1.8800608787075912e-001
         - -5.6899177805314438e-001
         - -2.5106698429481246e-002
         - 3.7029345879989373e-001
         - 1.0296486526340372e+000
         - -1.5077848682555670e+000
         - -3.3638106288936614e-001
         - 1.1231477742007563e+000
         - -2.8410217276678013e-001
         - 1.6093015565252675e-001
         - 5.9343089643006897e-001
         - -9.9368597650606061e-001
         - 7.4000405899481189e-002
         - -2.9399007579961256e-001
         - 1.8591284893611013e-001
         - 1.1333547465715421e+000
         - -3.8955817088317962e-001
         - 2.6975533451336831e-001
         - -3.3047468319110068e-001
         - -2.7355931138822082e-001
         - -5.1131704359323549e-001
         - -3.0060373130245521e-001
         - 5.9086105332447059e-001
         - 5.1564979432849212e-001
         - -2.9502374105229701e-001
         - -5.9991781624454688e-001
         - -2.2612660909871568e-001
         - -6.3100159155968460e-001
         - -8.7483077576305512e-001
         - -4.3084478750693195e-001
         - 1.4079363805991690e-001
         - 1.6896689857830763e-001
         - -8.3624861017407015e-001
         - -4.5282032889715257e-001
         - 1.0249530948328909e+000
         - -6.5549397481152261e-001
         - 5.0092471158618083e-002
         - 6.8825421873461734e-001
         - 3.2099311633005306e-001
         - -1.2179201360576548e+000
         - 6.0644640967799102e-001
         - 5.3847661456357843e-001
         - 2.2264126966174039e-001
         - -1.8339789959493136e-001
         - 3.1872958244547611e-001
         - 4.6550513507718005e-001
         - -4.5528190497417381e-001
         - -1.6392889825085794e-001
         - -1.0050544844298992e+000
         - 7.4593112529466626e-002
         - -3.8186093702705631e-001
         - -6.0086398892392689e-001
         - -2.4730147759698564e+000
         - 4.8378011390833420e-001
         - -8.1649493755431990e-001
         - -1.8150088585203028e-001
         - 5.7063122929767740e-001
         - -9.3252343729242085e-002
         - 6.4336020180792142e-001
         - -1.2032609737702009e+000
         - -3.7506618887673016e-001
         - 9.3634901617111421e-001
         - 3.1664874810431864e-001
         - -4.5368889966643644e-001
         - -3.5507758320986721e-001
         - -6.6544370393206631e-001
         - -3.3671584193909632e-001
         - -4.4038402244336722e-002
         - 4.5325384079063341e-001
         - 9.6244841159144601e-001
         - 1.1641896174467350e+000
         - -5.2826305196525392e-001
         - 6.3975153624249970e-001
         - -6.8596299127790616e-001
         - 2.5758378875578691e-001
         - 4.3905865710440217e-001
         - -8.7527229924546535e-002
         - 4.6353271340742175e-001
         - -3.8011937401578960e-001
         - 4.9461196609892488e-001
         - 2.9621212155327664e-001
         - -8.6606704691281600e-001
         - 4.3890286298765346e-001
         - 5.7093496264058441e-001
         - -6.5664046973907897e-001
         - -1.1669220023938123e+000
         - -5.3370665591787347e-001
         - -3.8803857481846166e-001
         - -8.8629302440408630e-001
         - -8.1977543601507319e-001
         - 1.0626417147967262e+000
         - 1.5064536326979401e+000
         - -1.0722773647602033e+000
         - -9.4807519658991501e-001
         - 1.1629462753853763e+000
         - -7.3038096560349397e-001
         - -9.2525633601958623e-001
         - 4.9498936780145764e-001
         - 6.4858824709799298e-002
         - -3.5702776691429888e-001
         - -2.0335854459938077e-001
         - -4.8059969218807352e-001
         - 4.2804393026847981e-001
         - 2.0408672711226791e-001
         - 3.2033563925244746e-001
         - -1.5231759362669754e+000
         - -6.0332879121860683e-001
         - 6.3556622439036969e-001
         - 1.0162798011277228e+000
         - -7.2640533701423515e-001
         - -8.7441493837735784e-001
         - -1.1900345517828013e+000
         - -7.8496847392305136e-001
         - 6.7543264093883476e-002
         - 4.2450676731999559e-001
         - 3.3695067821198510e-001
         - 8.6610137709117885e-001
         - -7.4761703022117354e-001
         - 5.4306715528301708e-001
         - 6.0481660879561505e-001
         - -3.5386961241716702e-001
         - -1.1684264716599434e-001
         - -1.4336032046713135e-001
         - 6.6967165449641319e-001
         - 8.6287328086617365e-001
         - 5.0617595294377282e-001
         - -3.8272207929040358e-001
         - -5.4508810760425463e-001
         - -4.2704522778097065e-001
         - 2.8562778149859391e-001
         - -1.1286082083775291e+000
         - -5.0509738859639197e-001
         - -4.2573292312430268e-002
         - -5.2081474578271547e-001
         - 8.1731073587105237e-004
         - -1.0382789924789471e+000
         - 9.2103971991150224e-001
         - 4.2119388554333770e-001
         - -3.8437967881023555e-001
         - -2.6639177688839072e-001
         - 1.0854135882153648e-001
         - -3.5855786778095800e-001
         - 2.9360568658301889e-001
         - 6.8179190229236475e-001
         - 5.4475079179937880e-002
         - -7.4709208450066833e-001
         - 3.7099826921780765e-002
         - 1.9606152170238780e-001
         - 3.7112825049577408e-001
         - 4.3297609838806644e-001
         - -5.1631343016886522e-001
         - 8.2528422356044184e-002
         - -4.7287875266915767e-002
         - -5.4767026383608186e-001
         - 1.0193560459930581e-001
         - -3.3398122859558854e-001
         - -1.5220448623578229e+000
         - 2.7820071743479635e-001
         - 1.8599888997201681e-002
         - 6.5438551457529581e-001
         - 4.8331444289010050e-001
         - -4.9492846970713877e-001
         - 5.4850962249330160e-001
         - -3.5856291181000849e-001
         - 1.0879272703008596e-002
         - -1.0983315890355760e+000
         - -3.4757184428989507e-001
         - 1.0214959896141294e+000
         - 8.0975277365173404e-001
         - 7.1277484374371214e-001
         - -5.3549559231650135e-001
         - -5.2907267830059980e-002
         - 7.0604784008334787e-001
         - 1.0286546057645081e-001
         - 1.6645856779819059e+000
         - -6.7180285641348636e-001
         - 1.2845095342414381e-001
         - -1.0996642413124231e+000
         - -6.1506037599261321e-001
         - 1.0294932266549142e+000
         - 1.1738706306083677e+000
         - 1.2137520865717433e+000
         - -2.5539544290146327e-001
         - 1.0633521201162763e+000
         - -6.2870836161542432e-001
         - -6.9316548026441027e-001
         - -8.2830551450255963e-001
         - -1.1426381147036038e+000
         - -3.0495172995485637e-001
         - 5.4448672255249031e-001
         - -2.7258437893684068e-001
         - 1.0894417076005372e+000
         - -8.0853400148150334e-001
         - -6.4456127543882480e-001
         - -2.7170377880967977e-001
         - -2.0391733258022943e-001
         - 4.4636124542550920e-001
         - 1.1159912401507077e+000
         - -3.8453932828298326e-001
         - 2.5357521829968138e-001
         - -2.8437273659370393e-001
         - -4.2352845438955172e-001
         - -7.7267177831423761e-001
         - -5.9088460488840408e-002
         - -1.5793373309451939e-001
         - -4.9478305003557793e-002
         - 7.6262634953018452e-002
         - -1.1430159364619439e+000
         - -5.3276591301283538e-001
         - 3.4283051371711670e-001
         - -1.3730880163102802e-001
         - 1.6721931720158331e-001
         - -1.5490317162304532e-001
         - 4.8639034242165557e-001
         - -6.5757590225621043e-001
         - -1.5669921719124733e+000
         - -1.6510399414497856e-001
         - 4.6018114334617322e-001
         - 1.0056114502478219e+000
         - 5.0392999545427575e-001
         - -6.1213212909080905e-001
         - -6.4732181742184605e-002
         - -3.2765321743091269e-001
         - -1.2546954120385398e+000
         - 8.2395344498377732e-001
         - -1.1070683854669374e+000
         - 3.5155823472977871e-001
         - 4.2843291942654066e-001
         - -9.7265954578596259e-001
         - 3.5128527923538433e-001
         - -6.7614957235323125e-001
         - -7.5207005737035471e-001
         - 2.1439952830179332e-001
         - -3.5447837399396170e-001
         - -2.4110070343549683e-001
         - 6.2792445552349785e-001
         - 5.2729641996229967e-003
         - 3.6513804144531919e-001
         - 4.1183102224349261e-001
         - 2.6964905991217911e-002
         - 8.9844826850967990e-003
         - 4.0909302779307440e-003
         - -1.8111590132136059e-002
         - -1.1349901630312464e-002
         - -7.5669769697397039e-003
         - -2.6943232323670012e-002
         - 2.9750801575629926e-002
         - 3.2951907680807531e-002
         - -3.4550887605297516e-002
         - -2.9029136688854845e-002
         - -1.4791101524483461e-002
         - -1.0878325698710872e-002
         - -3.5737831491202472e-002
         - 1.6134555469409395e-002
         - 3.6162299545059694e-002
         - 2.5192895537286323e-002
         - -1.2273365903895200e-002
         - 2.7460661134738377e-002
         - 3.1989086822510761e-002
         - -8.6505180163006165e-003
         - -3.4275949589611970e-002
         - 9.5372849807721944e-003
         - 9.8524199312511745e-003
         - 3.7931288581945909e-002
         - -4.7621757408124214e-003
         - 1.9511325700462778e-002
         - 3.9014824049005026e-002
         - -1.3185909912273593e-002
         - 1.3642591449242851e-003
         - 1.0526148623012528e-002
         - -1.0784957214228048e-002
         - 6.9193635393767017e-003
         - 3.2748811911589466e-002
         - 2.7508964756942846e-002
         - 4.1621334045337695e-002
         - 3.5667644512614123e-002
         - -3.6465341938804248e-002
         - 3.4088260872609508e-002
         - -2.6561165395732705e-002
         - -1.6931812929552637e-002
         - -4.6558693507911478e-003
         - 3.0662289257430260e-002
         - -7.3494177358621399e-003
         - -4.5887170756370946e-003
         - -3.8063688322874508e-003
         - 9.9338525672941005e-003
         - -3.3406898888702023e-003
         - -1.6387091825290124e-002
         - -2.5346278594816134e-002
         - -1.8316828625421382e-002
         - 6.5437375775720917e-003
         - -3.4233633695203408e-002
         - -3.7795067902203668e-002
         - -1.1791616572289254e-002
         - -1.9131937298791032e-002
         - 1.4410812713436021e-002
         - -3.4653102238993858e-002
         - -2.9275512835068029e-002
         - -2.3158321488630656e-002
         - 2.1248694337375657e-002
         - -4.5244744965796946e-002
         - -1.3200577046255612e-002
         - 2.8655687315152157e-002
         - -3.7822638688995124e-002
         - -2.7103503689333865e-002
         - -3.8278726816136290e-002
         - 2.4293054389476605e-002
         - -3.7989404668034251e-003
         - 8.1136823556818439e-003
         - 1.1384262033342992e-002
         - -3.3478053418709630e-002
         - -1.4389717224829755e-002
         - 3.3186747013956491e-002
         - -7.2284639355075135e-003
         - 1.9302375220101954e-002
         - -8.0520519613108913e-003
         - 3.2472617104943646e-002
         - -2.3113709036417282e-002
         - -6.5139987358544893e-003
         - -9.5900961837999659e-003
         - -1.9666034285750342e-002
         - 1.1576046995592764e-002
         - 3.3783642677462984e-002
         - 2.6604012590064282e-002
         - -2.5766133993167925e-003
         - -3.4589136385988845e-002
         - -3.3451926882952223e-003
         - 4.1741491531793469e-002
         - -1.5992290040310830e-002
         - -2.4538408598197746e-002
         - -3.0822433213707565e-002
         - 3.6479067012235210e-002
         - 4.0259563791422599e-003
         - 3.7463680019677065e-002
         - 3.6744873358483025e-002
         - -1.4144179042794308e-002
         - -2.9497078501322247e-002
         - 3.8487134239668722e-002
         - 3.7408953631112907e-002
         - 1.4012425584800831e-001
         - 6.8555240649243632e-001
         - -5.7134011508078586e-001
         - -1.4040228401518369e+000
         - 1.2067504400603604e+000
         - -3.4577224467463635e-001
         - 7.6905432004828023e-001
         - 3.7589593709951369e-001
         - 7.5091191621755024e-002
         - 7.0264917438886798e-001
         - -4.3693810405564426e-001
         - -5.4515211671090880e-001
         - 1.3312366314700743e+000
         - -2.5356089434737539e-001
         - -3.2100872747880382e-001
         - -2.0763543253239383e-001
         - 1.1095627434774224e-002
         - 4.8897819430547022e-003
         - -6.9536165626292112e-001
         - 2.8647964897712325e-001
         - -5.8966020455529644e-001
         - -2.6700110451649622e-001
         - 5.0706506547425567e-001
         - 4.0178825811966956e-001
         - -3.0788748771883861e-001
         - -5.7310970877254119e-001
         - -3.5552004574873169e-001
         - 4.4482256734637815e-001
         - 3.2987455807280125e-001
         - 1.7942543580385522e+000
         - -7.3264304225532539e-001
         - -1.4304237127301261e-001
         - -7.1436868155110489e-001
         - -5.0070671564843650e-001
         - 2.7276435675368627e-001
         - 4.6772912311585757e-001
         - -4.3931730583712908e-001
         - 2.8125841679933328e-001
         - -2.6654923793355084e-001
         - -1.8100806737561503e-001
         - 2.0342493518303817e+000
         - -3.5625415455668846e-001
         - 8.8267666791655841e-001
         - -1.9869326100284093e-001
         - -9.5181052454101744e-001
         - -3.6600803551220101e-001
         - 3.7401956076213477e-001
         - 5.3824869868611513e-001
         - 3.7502842206597439e-003
         - -1.6515746710823478e-001
         - -4.0714141345147364e-001
         - -2.6357816887536406e-001
         - 1.3662229678825460e-001
         - 3.6795045998834625e-001
         - -7.2497838187344354e-001
         - -4.6262463749592847e-001
         - 1.0945343088227932e-001
         - 1.0067807938652702e+000
         - -2.1826256806508398e-001
         - 1.0014707375821587e-001
         - -3.9355887886709157e-001
         - -1.5896768924740529e-002
         - 2.4494144893207501e-001
         - -1.7220891854998310e-001
         - 1.5227327545506070e-001
         - -5.1419660207786577e-001
         - -1.1146331607801376e+000
         - 1.0956675585736153e+000
         - -7.7165948995870537e-002
         - 3.3419568267365940e-001
         - -1.8168787919612310e+000
         - -1.1653203827115564e+000
         - -2.1780089646693268e-001
         - -2.2239395972923726e+000
         - -8.1890404721138244e-001
         - 5.0288676049876031e-002
         - 3.0987744021703756e-001
         - 1.0519499454033132e+000
         - -4.1042712971733691e-001
         - 9.7731520539386760e-002
         - -6.4257613667657060e-002
         - 5.3848985348608358e-001
         - 8.5406031968370921e-001
         - -7.1077341586821374e-001
         - -2.5399972789486186e-001
         - -5.2517063103563522e-001
         - -2.9676325511455798e-001
         - 6.1084244882303784e-001
         - 9.3817707135355610e-001
         - -1.0649824825028329e+000
         - 5.5493142050929234e-001
         - 2.8822369229938150e-001
         - 1.5048994057253090e-001
         - -7.0116975289847749e-001
         - -1.2202114251890521e+000
         - 4.5586138009683391e-002
         - 1.7983749824713344e-001
         - -5.4559778158896240e-002
         - -3.3522253047367188e-002
         - 1.8340248126643992e+000
         - -2.8346835873504678e-001
         - 1.8087165451948312e-001
         - 3.7824381597018542e-001
         - 1.2901740449528358e+000
         - -6.2475833994057284e-001
         - 1.7236062817088502e-001
         - -2.9804405160815883e-001
         - -6.1634171221673695e-001
         - -4.1656630558063451e-001
         - -1.0473724138339338e+000
         - -1.6662631919265133e-001
         - -3.3874953908601506e-002
         - -3.4979575755425145e-002
         - -3.8269008881247990e-001
         - 5.8555895173151462e-001
         - 8.1639504568652876e-001
         - -3.3017640103709922e-001
         - 8.4825037226981759e-001
         - 2.2050238475794037e-001
         - 5.1373719763779035e-001
         - 2.3132615832077558e-002
         - -1.1511995221845188e-001
         - -1.0208283688022617e-001
         - -2.2880289737038911e-002
         - -9.3468089269346011e-001
         - 5.2047081201277634e-001
         - -7.2927595888262009e-001
         - 9.7783992972526901e-001
         - 3.6004707926858992e-001
         - -1.1457736266265475e+000
         - 1.4637157994240674e-001
         - 1.2777124188504150e+000
         - 2.9766378945013655e-001
         - -2.7975999052950257e-001
         - -5.5665884061677962e-001
         - -8.0953451393843867e-001
         - -3.6984609956018055e-001
         - 2.1577640382963761e-001
         - 4.2360517604482062e-001
         - 7.1536359468650812e-001
         - -9.5207936335462290e-002
         - -1.4283276535882123e+000
         - -3.5171557783979024e-001
         - 3.2970761314057501e-001
         - 1.1443469114970555e+000
         - 4.8070659317698133e-001
         - -4.1460370026492560e-001
         - -7.8228394990672112e-001
         - -4.6412732122038425e-001
         - -3.2153633856846608e-001
         - -8.1919783598601414e-002
         - -9.6911352608729640e-001
         - 6.3671375880116912e-002
         - 1.7836224791886959e-001
         - -2.7346713629870445e-001
         - 5.8763831003524246e-002
         - -3.3544333544160371e-001
         - -7.2612153192430431e-002
         - -9.0351597472350120e-001
         - 1.2622139185191164e+000
         - 4.6888208274550003e-001
         - -6.2411927013224477e-001
         - 2.2479657386232066e-001
         - -7.4134037797628993e-001
         - -1.3362216814953174e+000
         - 1.7123589307363632e-001
         - 9.9769854181867590e-001
         - -2.1821773717184467e-001
         - 6.6696698463457860e-001
         - 1.5343047552410680e-001
         - 1.5038661644424084e-001
         - -6.5520967453904799e-001
         - 2.4114765707227342e-001
         - 2.1151581139416181e-001
         - 1.2450961533975666e-001
         - 1.5227192642758131e-001
         - 4.6614376496429988e-001
         - -9.6683433703997579e-001
         - 1.7787582576312666e-001
         - -2.5448351776695227e-001
         - -6.3071111770396082e-001
         - -8.4517290159571057e-001
         - -4.2868226492158396e-001
         - -6.2977916266984380e-001
         - -2.1315552402737556e-001
         - 1.2239669072200570e+000
         - 1.4717777898650339e-001
         - -3.4522215216981728e-001
         - -2.9503649484325034e-001
         - -7.3486665832202883e-002
         - 3.6052779624638676e-001
         - -3.8500219759577115e-001
         - 4.4222398385884640e-002
         - 8.1042728570983574e-002
         - 7.8870856586194293e-001
         - -1.0121791363543797e+000
         - -5.6239456626449025e-001
         - -1.0142713209944720e-001
         - 9.4062202308850436e-003
         - -1.2693253832385398e+000
         - 4.1166867841558491e-001
         - 1.7533979488763733e+000
         - 7.2615772376905974e-001
         - -6.3814133259011763e-001
         - 7.2379065703057677e-001
         - 5.0367008341012409e-001
         - 8.5176330708526926e-001
         - -2.3188978655661763e-001
         - -2.3501175943193604e+000
         - -1.0082946424981636e+000
         - 5.7209959611189176e-001
         - 3.1628347761845810e-001
         - 2.7827297117368938e-001
         - -1.6937713460847610e+000
         - -3.8119998512498959e-001
         - -1.4076161232256135e-002
         - -7.7901639789045396e-001
         - -2.7187710248070796e-001
         - -5.3567051705933677e-001
         - 1.2149142945097791e+000
         - -5.0675862201464375e-002
         - 3.9553762667912767e-001
         - -1.2509569358824792e+000
         - -1.9799967488410233e-001
         - 8.1638830201379220e-001
         - -4.0954419366855815e-001
         - 7.5228042520359684e-001
         - -5.5045170801710876e-002
         - 1.2439584228973477e+000
         - -1.6067326385744813e+000
         - -5.5791346857473445e-001
         - -9.9014717695655552e-001
         - 3.8112924500585149e-001
         - -1.2484508403713981e+000
         - 3.8389900353936540e-001
         - 2.5754223424712430e-001
         - -1.0117626876120675e-001
         - 3.0929020308364508e-001
         - -1.3699546196724002e+000
         - -1.1097649947561936e+000
         - -1.1271345030877262e+000
         - 3.9957342097483450e-001
         - -1.6595045473540770e+000
         - -2.0424250323544330e-001
         - 5.0422205926123242e-001
         - 7.7488137879664049e-002
         - -2.5124004611410428e-001
         - 1.6509328031590496e+000
         - 1.3731836439871203e+000
         - 7.8552349979531833e-001
         - 3.3220945135574537e-001
         - 1.3708767330573524e+000
         - 9.5016531900577150e-001
         - 8.2160920534030646e-001
         - -1.9943211898309560e-001
         - 3.2198268873820218e-001
         - -2.2114906586016594e+000
         - 4.1519447355184130e-001
         - -4.4358442952225671e-002
         - 1.6003387700504847e+000
         - -4.1211144553836992e-001
         - -1.2348484768893209e-001
         - 6.1387650327736565e-001
         - -1.3121486626717276e+000
         - -3.5469883621323894e-001
         - -1.5203480669861802e+000
         - -1.0577021553660063e-001
         - -6.4443263158692188e-001
         - 7.8771435298421899e-001
         - -2.1961070053936314e+000
         - 6.2225309369997095e-001
         - -1.3960227444234543e+000
         - 7.1449595843606761e-001
         - -1.8294608275610411e+000
         - 9.5217143786682179e-001
         - -1.2923298102968432e+000
         - 6.0014580919460148e-001
         - -7.9954048682993928e-001
         - 1.7781265065587322e+000
         - -7.3374152781926816e-001
         - 5.5645459930384267e-001
         - -1.3610552587500463e-001
         - 2.2861019911829675e-001
         - 3.2417997957093447e-001
         - -1.2448427817978713e+000
         - -2.6437768464947597e-001
         - -2.1813255145212321e-001
         - -1.0850820064882243e+000
         - 5.2347888788864638e-001
         - 7.9744911486200187e-001
         - 1.0101309450895815e+000
         - 5.5619165607875221e-002
         - 1.5785803301223218e-002
         - -8.2384451463467634e-001
         - -3.2799134449222006e-001
         - 6.2813174251830542e-002
         - -2.5454837650602707e-001
         - -4.2648474124225239e-001
         - 1.0832736491495079e+000
         - 1.5038416521302453e+000
         - -9.7929059413874653e-001
         - -2.9012449484598508e+000
         - 1.4867799679852547e-001
         - -6.4609250948420771e-001
         - -3.1618570418300368e-001
         - 6.5520882426011118e-002
         - -1.2992804008400230e-001
         - -5.8977132308980473e-001
         - 1.5288480347905435e+000
         - 1.0935252636315735e+000
         - 6.2095958090809651e-002
         - -8.4212936934192029e-001
         - -5.5415895251227265e-001
         - -2.5160527625964879e-001
         - 5.9264506237809855e-001
         - 9.7804664905083483e-001
         - -6.4671497989625593e-001
         - 7.2296313259023437e-001
         - -6.1622701320863982e-001
         - 4.6902526134742090e-001
         - -3.2051761236283965e-001
         - -3.1497007106770653e-001
         - -2.2840633806027291e-001
         - 1.6687123701864669e-002
         - -5.1185604409643748e-001
         - 7.5994297434218927e-002
         - 8.0950029225462172e-001
         - 3.6173367829096070e-001
         - -4.4733302336571934e-001
         - 2.5090451708495165e-001
         - 5.3515043207704915e-001
         - 7.3674821828568340e-002
         - -1.6802299865360981e-001
         - -9.7791299465551274e-001
         - -2.4992485033859473e-002
         - -4.6945915297249996e-001
         - 2.0481882074335128e-001
         - -1.5061480465917423e+000
         - -2.7462269009852236e-001
         - 3.1781390036700630e-001
         - -4.6251707679763854e-001
         - -1.5771675043434081e+000
         - 5.8927560658909894e-001
         - -1.1057583311829286e-001
         - 5.6860269121993379e-001
         - 6.0383290991900807e-001
         - -7.1486661338031188e-001
         - -8.0904309897700311e-001
         - -6.1400520562418970e-001
         - 2.3388450823609511e-001
         - -5.3918903607116964e-001
         - -4.1202925652247102e-001
         - 2.4821700722294973e-001
         - -3.4257457578311973e-001
         - -1.7974348702575718e-001
         - -1.0120072213257219e+000
         - -2.6588495351878372e-001
         - -1.0746312718670701e+000
         - -5.2984858678777558e-001
         - 3.0227277031803934e-001
         - 7.1496559153007122e-001
         - -6.3573290833482521e-001
         - -5.3665703128325914e-001
         - -1.4691696614539069e+000
         - -1.0965690881862244e+000
         - 2.1528471418555997e-001
         - -1.2999454141055952e-001
         - 4.4947767702288893e-002
         - -3.8462218819947680e-001
         - -1.1931441098482125e-001
         - 8.0880967053019059e-002
         - 8.0652104871276020e-001
         - 8.2918354204823475e-001
         - 1.3671489032152289e+000
         - 1.0667683414488376e+000
         - -8.7528609185182016e-002
         - 5.1044587596141805e-002
         - -9.1607015098676292e-001
         - -8.7578765586900731e-001
         - 1.5718563713695155e-001
         - -1.7370809738986781e+000
         - 7.4670891160439901e-001
         - 7.1826255025063002e-001
         - -9.8714246738626027e-002
         - 3.7710115502859615e-001
         - 7.3979812330647154e-001
         - 7.2861496462397757e-002
         - 8.1069944019191043e-001
         - -1.4424320694266636e-002
         - 1.1531665342475464e-001
         - 5.8201015992391625e-001
         - 1.9563868441477872e-001
         - -1.8157763543466932e-001
         - -6.1239628849728600e-001
         - 7.6520602649542102e-001
         - 1.3693652610345817e+000
         - -6.0275765282779037e-001
         - -1.1244022922374684e-001
         - -5.8884538856725821e-001
         - -8.8097653516893193e-001
         - 8.6414665970419413e-001
         - 2.6913522934427625e-001
         - 5.4842339059459122e-001
         - 7.3693211110214818e-001
         - 1.1250945684366399e-001
         - -2.0715668110096935e-001
         - 1.2808184017742201e+000
         - -1.3413668145608432e-001
         - 3.5757896707763498e-001
         - 2.2041591882103865e-002
         - -2.9462068534942026e-001
         - -1.7070210411657927e-001
         - -1.5892574764499248e-002
         - 6.1457985374528568e-001
         - -3.6713027972703155e-001
         - 4.4554672995728056e-001
         - 5.6654766002120771e-001
         - -3.9132825671851934e-001
         - -9.7808010612179391e-002
         - -4.3196374804884813e-001
         - -1.6723130257942727e+000
         - 2.9851558413242346e-001
         - 1.5447392323324141e+000
         - 1.3765796706923036e-001
         - -7.6072881567269346e-001
         - 5.7898264467072758e-001
         - 1.8574501002822028e-001
         - 9.6085807033301684e-001
         - -9.2757388439207167e-001
         - 1.2930999800735490e+000
         - 4.4533670112696383e-001
         - -6.6709472905584766e-001
         - -1.1506239378847010e+000
         - -3.9556224290922387e-001
         - -9.1846755011173919e-001
         - -2.6271211120040044e-001
         - 6.1991669607718937e-002
         - 7.2140282444155190e-001
         - 1.0302776614693339e+000
         - -1.2649281950666702e+000
         - 1.2048431023390225e+000
         - 9.6375270670841590e-002
         - 1.7530580636383213e+000
         - -1.9801111612995281e-001
         - -2.9027037227440200e-001
         - -3.4448154234551182e-001
         - -5.5276981503713518e-001
         - 1.6212323390410999e-001
         - -1.4586774435884267e-001
         - -3.5245859628513160e-001
         - 3.2201321999027938e-001
         - 5.1696786836158348e-001
         - 5.7738539080929496e-001
         - 1.0429592751614157e-001
         - 3.4867579769826046e-002
         - -3.7841904327103804e-001
         - -1.4671131815725025e+000
         - 6.7550860657273906e-002
         - -6.3519093698254847e-001
         - -1.1210605871824733e+000
         - -1.3586225409331216e+000
         - 6.1930642996708907e-001
         - 4.4030291252946302e-001
         - -4.5340819764120599e-001
         - -6.9680959018934763e-001
         - 5.3443875729220403e-001
         - -2.6661106987480077e-001
         - -5.3808547727749911e-001
         - -7.7829607906202525e-001
         - -6.4742440088042386e-001
         - -8.2156915438601763e-001
         - 1.8542624868885176e-002
         - -6.8834261652205520e-001
         - -1.4137439261518288e+000
         - -1.4545088202149523e+000
         - -2.8396590392173104e-001
         - 8.9012589468320802e-001
         - 4.3017321652664003e-001
         - 8.7072612898451252e-001
         - 3.2392723326034689e-001
         - 2.3475237151327144e-001
         - -2.7515707626336045e-001
         - -4.3670522276799129e-001
         - -5.3566519031248405e-001
         - -5.9759289155434055e-002
         - -6.2235959578543976e-001
         - -4.4916441002644508e-003
         - 3.6584752790858954e-001
         - -3.9773386668142008e-001
         - -3.4491696359969043e-001
         - -5.9560010796242724e-001
         - -5.7850521279661671e-001
         - -5.7680738594665260e-001
         - -4.8057847382169799e-001
         - -1.9957372486768838e-002
         - -1.6361509788994344e-001
         - 2.8384415426723481e-001
         - -9.4172615399468862e-002
         - -2.1608670621753229e-001
         - 8.1040551321813326e-001
         - -1.0823118452896979e-001
         - 8.8169142542198564e-001
         - -6.6949806781278287e-001
         - 1.2386963208023043e+000
         - 8.2809815498427319e-001
         - 7.2176195781614394e-001
         - -6.8456230074492985e-001
         - 6.7732689217158404e-001
         - -5.8598057603931719e-001
         - -4.8257263185690199e-003
         - 2.6633985486395007e-001
         - 6.0637684526510194e-001
         - 5.7452165312561843e-001
         - 1.0011930124958811e-001
         - 9.9140083010228286e-001
         - 3.7969805700916703e-001
         - 1.5022804296067478e+000
         - -2.7234642333524112e-001
         - 2.3031028673899542e-001
         - -4.9934669938406828e-001
         - -4.4917820435345444e-002
         - 2.2838585279745929e-001
         - 6.7511056525995794e-001
         - 6.3485816292426578e-001
         - 6.5475882803722818e-001
         - 1.6568613830392356e+000
         - 1.3291397456044654e+000
         - 9.3850655660416782e-002
         - -1.0116450216045418e+000
         - 4.9085792737609352e-001
         - 7.7154378882624608e-001
         - -3.9296834572143996e-001
         - 3.9149455499159791e-001
         - 2.5894616119491631e-001
         - -7.9567520502834310e-001
         - -9.5862998220054549e-002
         - -2.9519083367714932e-001
         - 8.2231756373143383e-001
         - -4.2243977616340284e-001
         - 6.1229852517015924e-002
         - 4.3474011896326953e-001
         - -7.2389621970633200e-001
         - 2.1702971158917450e-001
         - 2.1754247482984931e-001
         - 7.5475130570932814e-001
         - 7.0433579605954699e-001
         - 3.6369180946816293e-002
         - 5.1658012054312863e-001
         - -3.0743286793551100e-001
         - -1.1097296612519616e+000
         - -1.0504101208824360e-001
         - 3.1512799621159293e-001
         - 1.7944888645489480e-002
         - -6.0871163748644630e-001
         - -5.0863704501456164e-001
         - -2.9011434956360371e-001
         - -8.6668762028167923e-001
         - -4.5959846404174588e-002
         - 7.1925849937874275e-001
         - -9.7547796806060494e-001
         - -7.5359723534643951e-003
         - 8.2817049744477023e-001
         - -3.3093878193343701e-001
         - 6.5227791532764268e-001
         - 8.2505551268697941e-001
         - 8.0523573748991084e-001
         - -1.0663711692567941e+000
         - -6.4824602745895721e-001
         - -1.1897386235902103e-001
         - -2.0284890655632867e-001
         - -4.4804140059743394e-003
         - 1.1064316345308383e+000
         - -4.4247663599058745e-001
         - 1.8392000917185889e+000
         - -6.1359625608838309e-001
         - -1.1900604091124074e+000
         - -1.0219986790082070e+000
         - 1.2059132805459140e-001
         - 9.2873348344790041e-001
         - -9.4903094592074844e-001
         - -4.8913701588750891e-001
         - -2.4181051540109533e-001
         - 1.7296467527203574e-001
         - 1.0156688945650043e+000
         - 6.9916099772775098e-001
         - 1.4290811927916208e-001
         - 5.1703230184848448e-001
         - -2.0121371076859126e-001
         - 6.5012561552466774e-001
         - -4.5843939062615574e-001
         - -5.9103158163013786e-002
         - 6.8147619315971475e-001
         - 1.1778853950060242e-001
         - -1.4428570665599201e+000
         - -4.7881175030674232e-002
         - 1.3484656040939860e-001
         - 1.4555746517139795e-001
         - -1.7766255081886662e+000
         - 6.7512092670724211e-001
         - 7.2428987279608087e-002
         - -7.8907998301005353e-002
         - -1.9846539355583792e-001
         - 1.2721117208925077e+000
         - 4.2753875100384205e-002
         - -6.0177539602910668e-001
         - -3.1658800704835605e-001
         - 2.8319913788007917e-001
         - -6.8159162591095390e-001
         - -3.1750538364357389e-001
         - -2.4011796835044957e-001
         - 1.2053772231127942e-001
         - -5.9460886638728305e-001
         - 4.6789343323761312e-001
         - 4.4181121555429498e-001
         - -1.3277232293922120e-001
         - 8.6971730978071660e-001
         - -4.1719953463426074e-001
         - -1.2576005622026565e+000
         - 5.8747333009815006e-001
         - -3.4022913977427967e-002
         - 4.3901638859967401e-001
         - 5.2836250430451848e-001
         - -1.4410992155453128e+000
         - -6.8230633742933378e-001
         - -1.3283683844489175e-001
         - 4.8168207486636255e-001
         - -9.2599176191890820e-001
         - -3.1090301116355795e-001
         - -2.0399234087643076e-001
         - -5.5419711145884487e-001
         - 1.3608072762748086e-001
         - 1.3106352943589032e+000
         - 9.6716332403087801e-001
         - 3.5197901731659031e-001
         - 3.3839979615633203e-001
         - -1.3813158617137460e+000
         - 3.9034164054755777e-001
         - -1.2207505841112668e-003
         - 1.0898767551074970e+000
         - 8.2332705775192727e-001
         - -1.9781362706758101e+000
         - -4.5150392868605449e-001
         - -6.9481241011542660e-001
         - 1.8053103519161201e-001
         - -3.1831276836318623e-001
         - 7.7596055708958778e-001
         - 7.9652117337939066e-001
         - 1.0761595876055934e+000
         - 7.1179127159567701e-001
         - -2.6624270147779694e-001
         - 5.9290435751421200e-001
         - 2.4904703443418064e-001
         - 5.9857150911055090e-001
         - -6.6607045045691970e-001
         - -2.5343311338311125e-001
         - -7.7815305453991512e-001
         - -1.0007073556572299e+000
         - -4.2226825118051931e-001
         - -9.4921846300521195e-001
         - -5.5644918363155138e-001
         - -2.2294444257031540e-001
         - -5.7751193717246885e-001
         - 1.0154057928270861e+000
         - -1.8825736065943357e+000
         - 5.3072397659916071e-001
         - -2.7376800168322024e-001
         - 6.3315603178320889e-001
         - -3.4928882869378713e-001
         - -9.6170842587546124e-001
         - 8.8565762234668377e-001
         - -3.2946484409861126e-001
         - 4.0750252621379685e-001
         - -8.9886273770291025e-001
         - 2.9451860996599100e-001
         - 5.0079374479451355e-001
         - -1.1285420551600202e-003
         - 6.3470715441077752e-001
         - 6.4069024312700695e-001
         - 1.3042038921866490e+000
         - -4.5230065320889862e-001
         - -1.2037770370511136e+000
         - -8.1008844417652104e-001
         - -4.9127186383116855e-001
         - 6.2814571869665459e-001
         - -1.7763400275068153e-001
         - 8.1904661922178779e-001
         - -7.1579922363596477e-002
         - -1.6172279430114028e-001
         - -7.7072962243908627e-001
         - 4.3661965697646965e-001
         - 1.5232591953659477e-001
         - -1.3255528262509528e+000
         - -4.5482700028997780e-001
         - 1.6972975010421129e-001
         - -3.9183669050020481e-001
         - -7.1561053412522346e-001
         - -5.0378669108494822e-001
         - -2.1045332323666352e-001
         - 1.0993818625239600e+000
         - -8.2674246176302135e-001
         - -3.5871645338254388e-001
         - -2.3687059494542813e+000
         - 1.8780614374347602e+000
         - 3.4919114746111124e-001
         - -2.4918539042539625e-001
         - -6.7962593671604388e-001
         - 3.3618701165598265e-002
         - -7.4401549737149775e-001
         - 6.3551563534295841e-001
         - 9.8019614975706260e-001
         - -1.3891933542180614e+000
         - 3.6150015280202491e-001
         - -7.3308692197823555e-001
         - -3.6664228453357989e-001
         - -3.3352556575061326e-001
         - 9.7245001300333622e-001
         - 1.0575531606955363e-001
         - 6.7473306132495736e-001
         - -2.8235115381670012e-001
         - 4.8163330025114237e-001
         - 7.3407549796587301e-001
         - 2.2920754590795837e-002
         - -6.7697961949313579e-001
         - -8.2301879316074877e-001
         - -3.8923505941005332e-001
         - -7.1347419354047925e-001
         - 3.2072371726379989e-001
         - -5.5827648188276047e-001
         - 1.1590716944141723e+000
         - -1.2118957267769255e+000
         - -2.1670274160721867e-001
         - 4.9551980371987231e-001
         - 5.5833488250053138e-002
         - -1.7551871201552691e-001
         - 1.0288495388389014e+000
         - 2.7357852575293468e-001
         - 3.2793266263235143e-001
         - -9.6511185089621698e-002
         - 9.4493774421266952e-001
         - 2.1875716643280493e-001
         - -1.7121778455139971e+000
         - 2.0060120583500385e-001
         - -9.7862683704726594e-001
         - -1.8038794571080621e-001
         - 8.7772447025579436e-001
         - 7.6943670589616286e-001
         - 6.8455957249723351e-002
         - -1.1578364501044391e+000
         - 4.9141580119801759e-001
         - 1.6802968334295904e-001
         - 5.9241668646785595e-001
         - 6.2760424734055009e-001
         - 1.1498100730570633e+000
         - -3.8498529659025932e-001
         - 8.9129633114710349e-001
         - 1.6729662490642663e-001
         - -2.9240267016040528e-001
         - 8.2886569205817573e-001
         - -6.0545897618326605e-001
         - 5.6580777742339172e-001
         - 4.9726986949553198e-001
         - 4.2864449191663401e-001
         - -9.8921232707168150e-001
         - -8.8626942442581369e-001
         - -4.1592335704222155e-001
         - 4.6506000444783169e-001
         - 5.8517722121525184e-001
         - 7.8156869429477568e-002
         - -7.6159294365041347e-002
         - 1.1379446087322298e-001
         - -1.3801269057808324e-001
         - -1.5335199282191259e-001
         - -8.5277600554746258e-001
         - -3.9432240386668399e-001
         - -5.3268623621980271e-001
         - 1.0985289294721743e+000
         - 1.1217887363906860e+000
         - -6.7452133749130977e-002
         - 1.0250253735205186e-001
         - -4.5667651463781227e-003
         - -1.6061501770655602e+000
         - -7.9757151112683167e-001
         - -1.4516892181525617e-001
         - 2.2591721958758783e-002
         - 6.6714928457802025e-001
         - 5.8932771736722478e-001
         - 1.6720588925022633e-002
         - -6.8530518560627474e-002
         - 8.0441038073644444e-001
         - 9.5941801438974594e-001
         - 5.5966659829183130e-001
         - -1.1937833196678700e+000
         - -1.3999486163680197e-001
         - 7.0407036470523443e-001
         - 9.6383967286853900e-001
         - -3.2859089113242435e-001
         - 2.1858025085732272e-001
         - -2.2390422315916414e-001
         - -4.9549497390749964e-001
         - -2.2029961124897368e-001
         - 2.5369168235359935e-001
         - -1.9147911044068664e+000
         - 4.9691724676621668e-001
         - 4.9328192397022502e-001
         - -1.8652942323922556e-001
         - -4.4624858176883697e-001
         - -6.9193558789503495e-001
         - 2.7840075487082544e-001
         - -1.6770388625984745e-001
         - 1.2055688016616000e+000
         - -6.5967975057631778e-001
         - -1.9944705671546498e-001
         - 3.8571758450359578e-001
         - -6.3353349658577207e-001
         - 3.7259664921227581e-001
         - 9.8769857457563351e-002
         - -1.2156522550316837e-001
         - 6.6310300390545995e-001
         - -4.0470837360421907e-001
         - -6.5224564350758629e-001
         - 8.9638897438475723e-002
         - -6.3710318450958181e-001
         - -1.0944364113961236e+000
         - -1.5639337191432277e+000
         - -3.0157913682758719e-001
         - -6.7040629812521646e-001
         - -2.4352381718860322e-001
         - -5.2398457048562763e-001
         - 2.8726830997681296e-001
         - 4.0554917093486881e-001
         - -3.9949470879562776e-001
         - 1.1603278150285774e+000
         - -1.2533019161099338e-002
         - -6.0688203109830408e-001
         - 8.3783800838582764e-002
         - 2.3717192732492114e-002
         - -6.3049993688353734e-002
         - 9.4379059475671212e-001
         - 1.9177114028642006e-001
         - 4.1531023808877153e-002
         - 5.5880882637219298e-001
         - 3.1406549657887828e-001
         - -1.4958116630140172e-001
         - 1.7959462094745390e-001
         - 1.3981250017428977e+000
         - 2.4269436320258306e-001
         - -1.5553215083350649e-001
         - -6.2061873031008619e-001
         - 1.6973630486071151e-001
         - -2.0572922129386786e-001
         - -5.5208223590475292e-001
         - 7.1716605625317909e-001
         - 3.8046985901702135e-001
         - -4.3526356169816954e-001
         - 2.3744547214123582e-001
         - 1.0850417072070708e+000
         - -3.5526179054452267e-002
         - 4.6511269440265662e-001
         - 1.9974784119150038e-001
         - 7.8722610143089500e-001
         - 2.0036905819394430e+000
         - -2.2690811682451978e-001
         - -2.1325244743916816e-001
         - -7.5570096283163457e-001
         - 2.8414314848411565e-001
         - 4.0627949639024896e-001
         - -1.5918438109877805e-001
         - 2.3840968513084493e-001
         - 1.7117504218630581e+000
         - 7.0605644856407512e-001
         - -2.0450156573860323e-001
         - -3.1537648264530355e-001
         - 8.4480302572088262e-001
         - 1.2001929541892896e-001
         - 1.9026163272734586e-001
         - -1.9462203984530629e-001
         - -1.9676667337639775e-001
         - 3.3305161333740819e-002
         - 1.5775378478780258e+000
         - 7.7789987240884068e-002
         - -1.8056339353716218e+000
         - -1.7686774022778365e-001
         - 1.5288424805329583e+000
         - -9.1025223266986011e-001
         - 4.1379679141295628e-001
         - 4.8218462351329217e-001
         - -4.2317767330350081e-001
         - -6.0862319937355747e-002
         - 6.6715318921122979e-001
         - 1.5884640901156550e+000
         - 1.3366580599438691e+000
         - 3.0392397803608179e-001
         - -4.4254821533628953e-002
         - 1.8019916303466246e-001
         - 8.6219865590998812e-001
         - -5.5631636906562376e-001
         - 3.8492325354950246e-001
         - -4.8604509940694851e-001
         - 8.3891383095037755e-002
         - -2.3126371347300337e-001
         - 2.7469627715591627e-001
         - 1.2795908823555970e+000
         - -1.2815087651752965e+000
         - -1.8210922725479398e-001
         - 4.9680236584063325e-001
         - 2.4089944342079223e-001
         - 4.5269433470883641e-001
         - -1.9874575780076675e-003
         - 1.1810119860258481e+000
         - -1.2193618208175783e-001
         - -2.6893630220458548e-001
         - -9.0406357836055451e-001
         - 2.6890748780280593e-001
         - 1.1152717239267329e+000
         - 2.0874016169384797e-002
         - -2.5656208508844436e-001
         - 1.1503413131109848e+000
         - 3.2761137793163958e-001
         - -4.7787486003780094e-001
         - 5.7516517161257086e-001
         - 1.9545391006676549e-001
         - -1.6630138799050478e-001
         - 6.6914920268959543e-001
         - 3.8216997214447213e-001
         - 3.6044000857539588e-001
         - 5.8348135287596381e-001
         - -1.5623111226052129e+000
         - -1.3816863824214984e+000
         - -8.9010789718828076e-001
         - -2.1335549128801333e-002
         - -2.1086756736627563e-002
         - -9.4257049496557788e-001
         - -5.6570362659556250e-001
         - -6.5618555660057021e-001
         - -4.3532738494276718e-001
         - 1.3177444330284200e+000
         - -7.3809464147870729e-001
         - -1.7975837663690151e+000
         - 6.1396285269076249e-002
         - -1.1041968687585624e+000
         - 4.6821383369784253e-001
         - -1.0869982737961810e+000
         - -9.9051721947991545e-001
         - 7.2758994257266152e-001
         - 1.4154335398011164e+000
         - -5.0085818001457061e-001
         - -1.0072639316923686e-001
         - -1.8478835177818245e+000
         - -9.5632788485240272e-001
         - -2.6392133788086984e-003
         - 6.6642495903126997e-001
         - -3.6709113520098013e-001
         - -6.2054018324596338e-001
         - -1.3258848114696193e+000
         - -2.1503510187605565e-001
         - 7.7450322713756781e-001
         - -6.1286985991302900e-001
         - -2.8233865845866785e-001
         - -1.1595488606652413e-001
         - 5.2124068815325741e-001
         - 1.9605548989981603e-001
         - 9.9010414204152353e-001
         - -5.4089643143339039e-001
         - 1.4191022179880359e+000
         - -6.0195520921491641e-001
         - -3.7863502950743744e-001
         - -9.1456109773374794e-001
         - -2.9219200521100758e-001
         - -9.4488213260275955e-001
         - -9.6409927250840993e-002
         - 6.5292427104652961e-001
         - 7.3456955951413705e-001
         - -7.0312390773165506e-002
         - -1.1871429621689071e+000
         - -7.4351882528220814e-001
         - 1.8702359830429774e-001
         - 2.0254560347343034e-001
         - 1.0619941100029747e-002
         - 1.1792378679729754e+000
         - 1.3006608096465084e+000
         - 7.3206711304502270e-001
         - 5.4848837576097631e-001
         - 8.8506338429187159e-001
         - 1.2122887232035914e-001
         - 4.2231650302490702e-002
         - -1.7095898681324226e-001
         - 2.3865437067818715e-001
         - 8.5767330427068056e-001
         - 1.8703567040933273e+000
         - -1.5745162843669118e+000
         - 3.3029589938641502e-001
         - -2.2599524059431231e-001
         - -1.8856366929036597e-001
         - 1.2021317718534952e-001
         - 2.7619894098124870e-001
         - 3.9512708469225155e-001
         - 6.7324745492013371e-001
         - 8.2849801498656628e-001
         - -3.7049780627880435e-001
         - -4.4068330925624850e-002
         - -1.5673088995621795e-001
         - 1.5457066795735426e+000
         - -1.2027770156858673e+000
         - -5.4478809704039222e-001
         - 9.0745003258254062e-002
         - 1.4368675686803145e-001
         - 1.0128423341632444e+000
         - 5.9561091143666756e-001
         - 4.1997943857519526e-001
         - -2.0960849043100294e+000
         - -7.9959636508744336e-001
         - 8.4250221094862199e-001
         - 1.7356512337584726e-001
         - -4.0287364625973354e-001
         - 4.1109675612923730e-001
         - -9.0014259690294163e-001
         - 1.2948217390647837e-001
         - 3.5010080060545332e-002
         - -1.2848876334891051e-002
         - 8.6710809395068600e-001
         - 1.2668372297498351e+000
         - -9.7072651028466309e-002
         - -4.6600142463200978e-001
         - 2.2012535018122800e-001
         - 3.8750234774396386e-001
         - 8.2340931103903525e-001
         - 1.9528724023679464e-001
         - 3.2891961369627171e-001
         - -1.3975124175375653e+000
         - 5.4736571403945511e-001
         - 7.3202998256567231e-001
         - -1.0321593132027301e-002
         - -1.4628346036341258e+000
         - 1.2178449565566267e-001
         - -3.4927967203501720e-001
         - -3.9040603661168138e-001
         - 5.8692359101319613e-001
         - 4.3739678979570690e-001
         - -4.8534798517664651e-002
         - -1.0313279594316511e+000
         - -4.5880603491246097e-001
         - 4.8265191414717418e-001
         - 1.4211850984300339e-001
         - 6.4021570021113083e-002
         - 2.2230857397898179e-001
         - -1.8071656313680498e+000
         - 3.4091319324528913e-001
         - 1.2430876927542647e+000
         - 4.0342673055557760e-001
         - -4.2616579076540584e-001
         - -2.0758464125283865e-001
         - 1.0958446159243707e+000
         - -5.9202910179376722e-001
         - -1.1422112565430862e+000
         - -1.3854640956874789e+000
         - -1.0412107745308719e+000
         - -8.9036541453815413e-002
         - -5.7881273357879626e-001
         - -2.3812565468847000e-001
         - -8.4582459939269761e-001
         - -2.2656796571959420e-001
         - 5.4912654311307874e-001
         - -1.1277126492347387e+000
         - -4.4468144556982669e-001
         - -4.9143000750622196e-001
         - -5.0489957001271046e-001
         - -5.9905917022584465e-001
         - -1.1557448603545128e-001
         - 4.1699521828077979e-001
         - -2.4911936100997695e-002
         - 1.2837644080764996e+000
         - 9.6608125719141158e-001
         - 4.7342259957891597e-001
         - 1.1789965742123623e+000
         - 2.8239376390847687e-001
         - -1.1737087537904167e+000
         - 4.8130730776214020e-001
         - -2.2298588131400982e-001
         - 8.1702045533143519e-001
         - 4.9176382738508007e-001
         - 2.1846087426537536e-001
         - -2.5240351450757870e-001
         - 4.4973922873840788e-001
         - 2.9644115707114210e-001
         - -4.1202729213594391e-001
         - -9.9167130143419366e-002
         - -7.8808863129027629e-001
         - -8.6149364514288262e-001
         - -2.0925646787995524e+000
         - -7.1526694732563711e-001
         - -1.9223738528355618e+000
         - 4.1714410360904630e-001
         - 6.3479790383140966e-001
         - -3.6881982576751965e-001
         - 2.7127526619809683e-001
         - -1.7462363056240285e-001
         - 2.0597901808056718e-001
         - 1.0559964759510491e-001
         - -8.6115404979747090e-001
         - -5.1358014614234149e-001
         - 2.9247328183748353e-002
         - -3.6454534697441803e+000
         - 8.6571694823250767e-001
         - 5.4177480932902922e-001
         - -9.1046270375980087e-001
         - -3.7411158154335745e-002
         - -9.5354938210024720e-001
         - 8.4109530500752441e-002
         - -6.4103715924235671e-001
         - 1.9752625624086591e+000
         - -1.0576623995031840e+000
         - -7.1699978092928696e-001
         - -2.6254221614737150e-001
         - -3.1199637994940582e-001
         - 2.6434179587381579e-001
         - 3.9495903478572392e-001
         - 5.7631602883246646e-001
         - -3.9556764143733114e-001
         - -1.4284374830247903e-001
         - -3.2398905732628669e-001
         - 8.1534954874175025e-001
         - -7.2551782411257160e-001
         - -7.5941057455940000e-002
         - 4.4699163669295833e-001
         - -1.8744423287887876e-001
         - 4.4499685005923784e-001
         - -2.6739183870581418e-001
         - -1.5295334710060196e-001
         - 1.2590532099066071e-001
         - -2.5390665253364209e-001
         - -3.4856566648065607e-001
         - -2.8184032361023442e-001
         - -6.6524188159218622e-001
         - -3.2848919554251171e-001
         - -5.7405130070793065e-001
         - -8.9448884790182270e-001
         - -5.1242231096453350e-001
         - -8.0009166664151854e-001
         - -1.1123705476023853e+000
         - -9.7400295392653921e-002
         - -6.5049838160946905e-001
         - 4.0531803348491807e-001
         - -1.3705839270770741e+000
         - 4.2375401859501022e-001
         - 5.4533580644856317e-001
         - 6.0702690486493860e-001
         - -4.5071534362090260e-001
         - -1.3150128731097430e+000
         - -1.0940208542711490e-001
         - -1.0051026329481929e+000
         - 1.1553355704284596e+000
         - -3.1459003811506325e-001
         - 3.4825451506083338e-001
         - -5.7824115953549866e-002
         - -4.9286244170502042e-001
         - -3.9665803004051384e-002
         - 2.8181723173001272e-001
         - -6.1583785240350575e-001
         - -4.3727290508397654e-001
         - 8.2891257161637821e-001
         - -3.9349963109838160e-001
         - -7.7330219367723441e-001
         - -7.5864501445105717e-003
         - -8.0819824628010373e-001
         - -1.7039391077010294e-001
         - -4.5249844124316541e-002
         - -1.5365683741148850e+000
         - 4.3758131814140416e-001
         - 9.7684505659820198e-001
         - 2.4631911919874611e-001
         - 1.6183434611217964e-001
         - -4.6447593657174663e-001
         - 1.6491191703274926e+000
         - 6.0657699535438447e-001
         - -7.2350546728745369e-001
         - -4.9999229953116042e-001
         - -5.4633745544141188e-001
         - -3.6098174424342273e-002
         - 1.4504712294489147e-001
         - -1.1742544079536361e+000
         - -1.1247640668893997e+000
         - 6.5836411636609904e-001
         - 1.2091926185060551e+000
         - -6.8341843766028909e-001
         - 2.9977132875948442e-001
         - 5.8527364551809724e-001
         - -3.3638079867809145e-001
         - -6.7589152331895008e-001
         - 1.6695655487499772e+000
         - 7.7104342363660150e-001
         - 8.2538893582910444e-001
         - -6.4598545920023079e-002
         - 5.1994586888398242e-001
         - 4.0745771157203126e-001
         - 2.6195496365826643e-001
         - -1.2243676926469274e+000
         - 5.0870780038546415e-001
         - -1.5934956227414898e-001
         - 2.0486981932556053e-001
         - 2.4091890108224848e-001
         - -1.2837600829533349e-001
         - -2.6954859261603253e-001
         - 1.4377481093399729e+000
         - -6.4793601179494298e-001
         - -8.1813494201088588e-001
         - -8.2770468716198198e-001
         - 7.7109916797074984e-001
         - -1.2022778696406458e+000
         - 1.3524112134045463e-001
         - 1.9277054626577189e-001
         - 4.3382532915623401e-001
         - -2.3857586399822536e-001
         - 6.0909336608830834e-002
         - -1.2120327797246924e+000
         - 2.6250896089868697e-001
         - 1.7457723289324332e+000
         - -1.3768834364648246e+000
         - -3.1130495209300446e-001
         - 2.1891658933765662e-001
         - 2.3891594202240188e-001
         - 8.8193747684166923e-001
         - 2.7148651000579510e-001
         - -6.7841229888921079e-002
         - -3.3651528742809529e-002
         - -3.3550254773443122e-001
         - -3.7977288721271907e-001
         - 8.8355857931855741e-002
         - -4.5876859743592779e-001
         - 2.2615925744497223e-001
         - -9.3609172567544507e-001
         - -5.2019055114434920e-001
         - 7.6788213809514852e-002
         - 2.8266587030251494e-001
         - -3.0121182574764976e-001
         - 8.2948983493993234e-001
         - -1.1894086248664821e+000
         - 2.8749745589138903e-001
         - -1.4722793280204702e-001
         - 5.7744480217577798e-001
         - -4.3729535231427197e-001
         - -8.9237648806141390e-001
         - -1.6378907393053102e+000
         - -1.2500652979827018e+000
         - -2.1632764425439918e-002
         - 3.3632529368605402e-001
         - 8.6702467237945180e-001
         - 5.6522497331980515e-001
         - -3.3148133947903952e-001
         - 1.5955951905545981e-001
         - -3.7384280510707235e-001
         - 2.6285624921172213e-001
         - 6.6837892235941110e-001
         - -3.8207320596851008e-001
         - 5.6443572208416370e-001
         - -1.8746466767331584e-002
         - 9.5653193743028386e-001
         - -2.0296760491063159e-001
         - 8.2923395024731283e-001
         - -5.0437382601068736e-001
         - 5.4120165791500630e-001
         - -1.6998651516217891e-001
         - 6.6917898142118917e-002
         - -4.4953295416485373e-001
         - -9.2560172306842814e-001
         - 6.7293811696474054e-002
         - 1.8742287220775117e-001
         - 9.1518412441027575e-001
         - 5.2792358364000569e-001
         - -3.3092622844423791e-001
         - -1.8190903281105258e-001
         - -3.6201601140852657e-001
         - 1.0876878437202502e-001
         - -5.0415365347008878e-001
         - -2.7380451246044391e-001
         - -8.0298602315210563e-002
         - 1.4511264576619010e+000
         - 8.9040777427034390e-001
         - -2.6368947755332250e-001
         - 9.7538746741364324e-001
         - 4.2784518060202059e-001
         - -1.5071253244714033e+000
         - 5.5948419739700617e-001
         - 4.5388469533088166e-001
         - 7.5222746641303584e-001
         - -8.6022287119159591e-001
         - 4.9503291582343489e-001
         - -2.5886213725330282e-001
         - -8.6544802061438508e-001
         - 1.8246743760543152e+000
         - 1.9784717011248501e-001
         - 9.5872171149483076e-001
         - -1.7008940713060414e-001
         - -2.0913591567864098e-001
         - -3.4793738651161099e-001
         - 7.7982416890782469e-001
         - -3.4926832185986817e-001
         - 1.9513824984846848e-001
         - -2.0666989827802011e-002
         - 7.3741223056941863e-001
         - 6.8670622203449494e-002
         - 6.3121043149402437e-002
         - 1.6254959531900988e+000
         - 1.1316763906574703e+000
         - 1.0769049142921733e-002
         - 3.9140166465188177e-002
         - -1.2688173861105414e+000
         - 9.0399294275176589e-001
         - 1.4699599899254936e-001
         - -5.8755193877547451e-001
         - -3.1203164170321396e-001
         - 6.6063604715893154e-001
         - -6.9964644559584244e-001
         - 2.2219897945303943e-001
         - -4.1381824474063106e-001
         - 5.3108769088536967e-001
         - 8.6520994379237826e-001
         - -2.2115762489928001e-001
         - -1.1780190303359739e+000
         - 4.7103222979520237e-001
         - 1.4921949053467913e+000
         - -9.2598742700571057e-002
         - -5.1891597236459686e-001
         - -1.3282979236481220e+000
         - -5.4162903095893999e-001
         - 8.6528920997434899e-001
         - -3.7347572907636808e-002
         - -5.1397585073490915e-001
         - -3.9147730766373978e-001
         - -1.1370844705123200e-001
         - -7.7948360212555179e-001
         - -3.7034017863028879e-001
         - 1.4904651402741664e+000
         - -3.7984478713224823e-001
         - 1.6383954541598689e-001
         - 4.2979190578113818e-001
         - -8.8558241101718060e-001
         - 1.3963166660333912e-001
         - 7.1251263804296117e-001
         - 5.8644288074081152e-001
         - -5.8982179834468884e-001
         - -1.5985571290556495e+000
         - -5.3993894031541911e-001
         - -4.5952076540878783e-001
         - 2.3117319241567111e-001
         - 6.8033648169756333e-001
         - -6.7790626029718096e-002
         - 2.0260732181348506e-001
         - 8.0130914043779911e-001
         - 1.2854239073898790e+000
         - -6.4882030253161860e-002
         - -2.7700889759535730e-001
         - -8.1337543218927041e-002
         - 4.2736330413409485e-001
         - -5.9067760874520547e-001
         - -1.9426269348995734e-001
         - -5.3960369497091876e-001
         - -3.6244155689563129e-001
         - -6.0916681165027264e-001
         - -8.9282647208288168e-001
         - -4.2888502608417672e-001
         - -6.3225981049194868e-001
         - -5.2916956398287041e-001
         - 2.2996542647927398e-001
         - -2.0099158137995254e+000
         - 5.7647260468873751e-002
         - 4.6751538403357357e-002
         - 9.0944912524863641e-001
         - 4.7729576251239397e-001
         - -3.8819275130880966e-002
         - 1.4169176100293153e+000
         - 9.5885003389595616e-002
         - 4.9088896521897019e-001
         - -8.9883650830270800e-001
         - 6.5836118896908080e-001
         - -3.0153799254896391e-001
         - 6.3394634951377216e-001
         - 5.8954378313854638e-001
         - 3.7582047940236851e-001
         - 2.1987249533111544e-001
         - -5.2241900123541143e-002
         - -1.1677283328546799e+000
         - 8.3706522033910391e-001
         - 1.6614087592865937e-001
         - 5.4835285966593694e-001
         - -1.1877623513612057e+000
         - -1.9887495477057002e-001
         - -3.2074003457944748e-002
         - 1.6149150327034671e-003
         - -1.1627271436608815e+000
         - 2.9467149040764007e-001
         - 2.8482713450886454e-001
         - -8.2841532881613933e-001
         - 4.1862338051187314e-001
         - 3.8909841838612835e-001
         - 6.1843920178719702e-001
         - -3.0080458085516425e-002
         - -1.6347113641433603e-001
         - 4.0306769623429478e-001
         - 3.6640936058097606e-001
         - -2.8430302777698102e-001
         - 3.4788936633055700e-001
         - 2.3382780987970783e-001
         - -1.7305574658952945e+000
         - 7.1253470053535839e-001
         - 8.3460761685434226e-001
         - -1.7216030530279719e-001
         - -5.0900437304964841e-001
         - 6.9366882294305610e-001
         - 7.9952232703465784e-002
         - -9.3530599360039335e-001
         - 2.9310195355315760e-001
         - 2.8655449803944355e-001
         - 1.4181157145820913e+000
         - 6.3923988298636519e-002
         - 8.6055718828996139e-002
         - 1.1311185091338267e-001
         - 1.2283362318280178e+000
         - -1.9790053940511571e-001
         - 2.9173875574840419e-001
         - 3.5157245571019527e-002
         - 9.7464225468462529e-001
         - 4.9917599548401199e-002
         - 2.7975432390524446e-001
         - -9.3005847825726395e-001
         - 1.2772822901579448e+000
         - 6.5796375579724398e-001
         - 1.2378209839192615e+000
         - 6.0753450797791364e-001
         - 2.9484108866494725e-002
         - 4.8079473969787323e-001
         - -5.5199400213269419e-002
         - 4.0513148374470115e-001
         - -3.8577381404981664e-001
         - 6.2391252687256343e-002
         - -1.0478621732921669e+000
         - -3.1066852262711558e-001
         - -1.0248753723747524e-001
         - 1.2279691145801646e+000
         - 3.3263742637235655e-001
         - -5.9155198211985460e-001
         - 3.2301205629107771e-001
         - 1.4799931231569624e-001
         - 7.2998294892755847e-002
         - 1.3234515417623779e-001
         - 4.4788552008173788e-001
         - 9.3083263527713356e-001
         - 9.4421014172085885e-002
         - 3.6603423412370267e-001
         - 9.1347214791246389e-001
         - -5.2465322754910934e-002
         - -3.1509679966942139e-001
         - -3.2286381473888637e-001
         - -2.7959150695145507e-001
         - -3.3685723826451430e-001
         - -1.2897284609469577e+000
         - 4.7442468305459416e-002
         - -1.2827623921931139e+000
         - 2.3633335253097540e-001
         - -7.8603279860533626e-001
         - -4.4449424949140764e-001
         - -1.9380553199736444e-001
         - 7.9329149259582055e-001
         - -3.2898103910764354e-001
         - -7.1936471357221043e-001
         - -1.7440629233491786e-001
         - -3.5471730327007865e-002
         - -2.1035117918832860e-002
         - 4.3534210709225524e-001
         - 2.3156707610926769e-001
         - 2.7296159570711805e-003
         - -2.9218707841308683e-001
         - 1.1264990111504547e-001
         - -5.5379967098713057e-001
         - 7.8383442295847916e-001
         - 1.3531465203465129e-001
         - -5.3756545945360679e-001
         - -2.0851201905851324e-001
         - 1.0255605761178612e+000
         - -1.8635894238616058e-001
         - -2.2397556721996684e-001
         - -8.6250442303231101e-001
         - 1.9740303940919447e-002
         - -2.2731312176683388e-001
         - 2.9694969989231903e-002
         - 1.0164667227515345e-001
         - 6.7214010377609834e-001
         - -1.0138000450020587e-001
         - 2.7366972139261675e-001
         - 1.0982371127588519e+000
         - -8.6855978112348031e-001
         - 5.4691737211142533e-001
         - -2.3144934715555707e-001
         - 7.8064438217652155e-001
         - -2.3749079554533301e-002
         - 6.0828791272033877e-001
         - 2.6975868879502796e-001
         - 3.9398594225081907e-001
         - -1.1947293727822141e+000
         - -7.1199271290530541e-001
         - -5.3793404005821144e-001
         - 3.9451884185389130e-001
         - 1.2153282076339786e+000
         - -1.6659383971297494e+000
         - -1.7106436987569701e-001
         - 7.2947663127173323e-001
         - -4.4935979639223400e-001
         - 4.7892681516232005e-001
         - -2.5106823528947836e-001
         - 9.7045374132477069e-001
         - -1.4031627412860497e+000
         - -3.1435976855809200e-001
         - 3.7131256811915708e-001
         - 1.4364436894675474e+000
         - 5.9073460560559690e-002
         - -1.4171374411845411e-001
         - -1.2341664879662257e+000
         - -1.0979823569847998e-001
         - 1.3775681390917835e-001
         - -2.3290072941194948e-001
         - 6.4671493456298468e-001
         - -5.7474048705020819e-001
         - -5.6620021325254500e-003
         - -6.6892915696538380e-001
         - -7.4055804502495659e-002
         - 1.3959874435881168e+000
         - 2.9119669544359711e-001
         - 5.4497448262195558e-001
         - -6.9174852543738341e-001
         - -1.1084892850561416e+000
         - 8.2379220548539717e-002
         - -4.8411598364899261e-001
         - 2.0195212111344957e-001
         - -2.3517041469335248e-001
         - -5.4061450009417789e-001
         - -8.7423092840407635e-001
         - 4.1682027054845217e-001
         - -6.5761055233631815e-001
         - 2.4644711846962800e-001
         - 5.9518860416387043e-001
         - 2.6635704955099776e-001
         - -1.3246652268000132e+000
         - -3.7171473294888069e-001
         - 5.1673853982840112e-001
         - 2.5501777675668136e-001
         - 3.5892644818030139e-001
         - 2.4981647328255963e-002
         - 6.6305751022876303e-001
         - 1.0134990743665406e+000
         - 5.0199046567175487e-001
         - 1.1734012060823326e-001
         - -2.5138201048777842e-001
         - 4.8796977835543393e-001
         - -1.5615824681200734e+000
         - 2.0783260491961771e-002
         - -3.4522078316509629e-002
         - -3.4849332172241204e-002
         - -5.5184354476929132e-001
         - -4.3476417607097737e-002
         - -2.8904890022914342e-001
         - 7.9936894915620268e-002
         - -1.6999493128692963e-001
         - 2.1649844353115594e-001
         - 1.5188800223032145e-001
         - 9.3544858824431421e-001
         - -6.7233286082535748e-001
         - -4.8207333472886096e-002
         - 2.2870995678441741e-001
         - -1.1816155388208721e-001
         - -1.4738353664182041e-001
         - -4.9983237497905880e-001
         - 6.6263407403086338e-001
         - 8.9177489207800886e-001
         - 3.0343037718292371e-001
         - 3.7478632933680628e-001
         - 8.4182628089367176e-002
         - -1.2631524967802077e+000
         - 6.1947515862248348e-001
         - -1.7368866050753093e-001
         - -9.1325443875532786e-001
         - 4.6318415442691491e-001
         - 9.2301169860015830e-001
         - 4.4419126866146541e-001
