%YAML:1.0
opencv_ml_ann_mlp:
   format: 3
   layer_sizes: [ 48, 96, 96, 8 ]
   activation_function: SIGMOID_SYM
   f_param1: 6.6666666666666663e-001
   f_param2: 1.7159000000000000e+000
   min_val: -9.4999999999999996e-001
   max_val: 9.4999999999999996e-001
   min_val1: -9.7999999999999998e-001
   max_val1: 9.7999999999999998e-001
   training_params:
      train_method: BACKPROP
      dw_scale: 1.0000000000000000e-003
      moment_scale: 1.0000000000000001e-001
      term_criteria:
         epsilon: 1.0000000000000000e-008
         iterations: 10000
   input_scale:
      - 1.8554524767211685e+001
      - -9.3749165886628454e+000
      - 1.8772820510838319e+001
      - -9.4736976125952115e+000
      - 2.0488207390831761e+001
      - -9.5734561686631761e+000
      - 2.2243834562582020e+001
      - -9.1678763663738909e+000
      - 2.3392016341599263e+001
      - -8.1871054007566926e+000
      - 2.2684588059933990e+001
      - -7.8891856758182701e+000
      - 2.1100331925644330e+001
      - -8.5788505735764939e+000
      - 1.8657727181007647e+001
      - -8.5572587218960994e+000
      - 1.6405734329096060e+001
      - -8.0997110962595933e+000
      - 1.5733773237645087e+001
      - -7.7543592989829904e+000
      - 1.
      - 0.
      - 6.8562223081948076e+001
      - -8.2951768751142101e+000
      - 6.7777908484258617e+001
      - -6.7742087699586140e+000
      - 6.4904842623147161e+001
      - -6.3509634442389133e+000
      - 6.4599484278212500e+001
      - -6.4470927073884203e+000
      - 6.4628030382201004e+001
      - -7.7592261704450012e+000
      - 2.1249026010806087e+001
      - -7.8690188109849490e+000
      - 2.0854209913414511e+001
      - -7.3210148072598136e+000
      - 2.1227667957601255e+001
      - -6.5383528235878137e+000
      - 2.2775115047952369e+001
      - -5.4992228646163417e+000
      - 2.3607090505647637e+001
      - -6.3266294790089876e+000
      - 2.3456940510367346e+001
      - -7.4115571914683169e+000
      - 2.0554036528084954e+001
      - -4.8464809974265144e+000
      - 1.8725693957674672e+001
      - -5.6470152139599161e+000
      - 1.8003016992419461e+001
      - -6.1732147183001063e+000
      - 1.8060484151703431e+001
      - -6.5292508302290795e+000
      - 1.9766952380752112e+001
      - -6.0957784943030253e+000
      - 2.0349871086039109e+001
      - -5.3109396584230391e+000
      - 2.7145775438072878e+001
      - -8.5822662273137311e+000
      - 3.3558523130032107e+001
      - -8.0533953777291689e+000
      - 3.4247609125710930e+001
      - -6.5002894069175143e+000
      - 3.0689138791906274e+001
      - -5.9957935617070772e+000
      - 3.2704827278242064e+001
      - -6.2269924413928415e+000
      - 3.0795217185197568e+001
      - -7.4266564972239859e+000
      - 2.5224476190154100e+001
      - -7.9809345285370750e+000
      - 1.8608299054368658e+001
      - -6.2937745516426542e+000
      - 1.5857045077088337e+001
      - -5.4975418505169351e+000
      - 1.5614425147045203e+001
      - -5.4277657622183391e+000
      - 1.5837191983777320e+001
      - -5.4836251279172767e+000
      - 1.8679749007302306e+001
      - -6.3162845502953608e+000
      - 2.7606021597502025e+001
      - -8.2955778778485172e+000
      - 2.8706129908377456e+001
      - -6.8368041923992822e+000
      - 2.7336892681796350e+001
      - -6.5185837939366804e+000
      - 2.7764981021850186e+001
      - -6.6263823677412566e+000
      - 2.5887321829785382e+001
      - -7.7799331025773384e+000
      - 1.7009602575178125e+001
      - -4.7190799385864306e+000
      - 1.6808018266790292e+001
      - -4.6920304373028143e+000
      - 1.7002851161214839e+001
      - -4.7172978878898268e+000
   output_scale:
      - 5.2631578947368418e-001
      - 4.9999999999999994e-001
      - 5.2631578947368418e-001
      - 4.9999999999999994e-001
      - 5.2631578947368418e-001
      - 4.9999999999999994e-001
      - 5.2631578947368418e-001
      - 4.9999999999999994e-001
      - 5.2631578947368418e-001
      - 4.9999999999999994e-001
      - 5.2631578947368418e-001
      - 4.9999999999999994e-001
      - 5.2631578947368418e-001
      - 4.9999999999999994e-001
      - 5.2631578947368418e-001
      - 4.9999999999999994e-001
   inv_output_scale:
      - 1.8999999999999999e+000
      - -9.4999999999999996e-001
      - 1.8999999999999999e+000
      - -9.4999999999999996e-001
      - 1.8999999999999999e+000
      - -9.4999999999999996e-001
      - 1.8999999999999999e+000
      - -9.4999999999999996e-001
      - 1.8999999999999999e+000
      - -9.4999999999999996e-001
      - 1.8999999999999999e+000
      - -9.4999999999999996e-001
      - 1.8999999999999999e+000
      - -9.4999999999999996e-001
      - 1.8999999999999999e+000
      - -9.4999999999999996e-001
   weights:
      -
         - -7.9893053388219937e-001
         - 3.7922692748323628e-001
         - -4.2899070330400385e-001
         - -2.9597773782019737e-001
         - -2.0398970985835221e-001
         - -5.6414680115066296e-001
         - 4.8978522797898100e-001
         - 4.6798253799003592e-001
         - 8.1997995431265014e-002
         - -6.2813750258189882e-001
         - 2.0611277803105976e-001
         - 1.9390823761049523e-002
         - 9.3983225985540597e-001
         - -1.8272539455919770e-001
         - 3.9525878103131562e-001
         - -8.2634533999985660e-001
         - -5.2238663520043249e-002
         - -2.9267009035742525e-001
         - -4.6855349569363680e-001
         - 1.0345881246606123e+000
         - 4.8172563854706699e-003
         - -4.1534446462624780e-001
         - 6.2887301555083341e-001
         - -1.9527719789052791e-002
         - 2.5022431822050922e-001
         - 2.2199687324854092e-001
         - -2.6425850192587996e-001
         - -3.2046015094670904e-001
         - 2.4381104381314181e-001
         - 6.5566231828828286e-002
         - -2.3941730476825779e-001
         - 1.0291423911148233e-001
         - -4.0868639347597679e-001
         - 7.2371814376717442e-002
         - -1.3131568977359327e+000
         - -5.6122436259517638e-003
         - -3.7409240969246488e-001
         - -3.0051790998231215e-002
         - -3.9386914151120656e-001
         - 1.8673114225364443e-001
         - 4.3894810617945984e-001
         - -8.1865531391410262e-001
         - 1.5781259595379233e+000
         - 7.9783195924530415e-001
         - 2.0009507048874861e-001
         - 8.1212880940774679e-001
         - -1.9744069164280229e-001
         - 2.3086957152268500e-001
         - -3.8434991958254139e-001
         - -1.3200611189913081e-001
         - 2.2612283637616454e-001
         - -1.5639812647773008e-002
         - 1.2579543572338411e-001
         - 3.5115480543032013e-001
         - 1.7608163323743048e-001
         - 5.2432150198449823e-001
         - -1.8503453815854679e-001
         - 1.2787168276241460e-002
         - -2.7911607497302003e-002
         - -1.5554004237658195e-001
         - 6.3784066953796836e-001
         - 2.5738409068464363e-001
         - 4.7003818106048567e-001
         - -2.5987908107612984e-001
         - -2.6425032759250561e-001
         - 9.1124046606539866e-001
         - -7.3728158300177138e-001
         - 5.7195254581818111e-001
         - -5.1805318010750623e-001
         - 7.5606013714674825e-001
         - -8.4940745063508194e-001
         - 4.8113189685852870e-001
         - -4.9734780098075210e-001
         - 4.6551244367843070e-001
         - -3.4789799025514495e-001
         - 2.6427142646325650e-002
         - 9.1251983946659543e-001
         - 2.9242936126077629e-001
         - 2.2744097513302763e-001
         - 2.7867147970172600e-002
         - 3.0013556526837432e-001
         - -1.1017586060894316e-001
         - 1.2699990949040623e+000
         - -4.2527615266765351e-002
         - -1.1460376511840793e+000
         - 1.6925168768422988e-001
         - 2.7932347485623215e-002
         - -1.0242764544539471e+000
         - 3.8075265771742711e-001
         - -8.2210239179189915e-001
         - -1.5997299533560654e+000
         - -1.7623951299944279e-001
         - 7.3423733739225694e-001
         - 1.7050561101220039e-003
         - 5.1307268704006620e-002
         - 3.5226925898997158e-001
         - -4.6216582632882214e-001
         - 2.4712735617227508e-001
         - 8.1124919526206241e-001
         - 2.2508462847071184e-002
         - 2.4268684208038752e-001
         - 7.0526553682313053e-001
         - -3.3893976601281217e-001
         - -1.4292575864366555e-001
         - 2.7618306651846819e-001
         - -2.0896224742599925e-001
         - 4.8488344691501839e-001
         - -2.7189501021485318e-001
         - 6.5880038011157871e-001
         - -4.2330902938008197e-001
         - 3.8150998871196518e-001
         - 5.5642788485526590e-002
         - 1.4612563745010038e-001
         - -1.1671132358139315e-001
         - -2.6142538589779807e-001
         - -7.1197337065877864e-001
         - -2.0876327222944642e-002
         - 2.5897367649977913e-002
         - -4.7331689668700372e-001
         - -7.2229771734389422e-002
         - -4.8825675922453216e-001
         - 2.7315402414653273e-001
         - -2.7138543712017138e-001
         - -6.8801829652242560e-002
         - 5.4533727858377345e-001
         - 4.9343598599746608e-001
         - 6.7560532264220330e-001
         - -3.7030556746118914e-001
         - 5.4798287370813425e-001
         - -1.0137876113385461e-001
         - -4.1533143920290949e-001
         - -3.3637856980802905e-002
         - -5.1154216284313270e-001
         - 4.3084613934333432e-001
         - -4.4855125128668538e-001
         - -4.3063764743942232e-002
         - -4.8209348582573919e-002
         - -7.0619809289617541e-001
         - 9.1445824770485984e-001
         - -4.5457498965944293e-001
         - -2.6346934628186830e-001
         - 6.4916162802296218e-001
         - 3.2271696664458716e-001
         - 1.0300998246153341e-001
         - -5.4347370630944714e-001
         - 1.9425685828606501e-001
         - 3.1865414302899264e-001
         - 1.5612695472936677e-001
         - -5.8905928690136222e-001
         - 2.2183089063735345e-001
         - 1.4522344935373516e-001
         - 3.7510482600371703e-001
         - -2.3577041917600539e-001
         - 3.4309047728123293e-002
         - -9.4940715840156475e-001
         - 2.6236630734022015e-001
         - 9.3729559772988169e-001
         - 3.7057888746740675e-001
         - 5.8360346490133974e-001
         - 2.7890694408101319e-001
         - -2.1299714918098558e-001
         - 3.1834957233432726e-001
         - -9.4848280991359102e-001
         - 8.8057263428883226e-001
         - -5.3090848065399521e-001
         - 1.0784957575385576e-001
         - -4.7698574590985837e-001
         - 1.3962787046071931e-001
         - 6.1205649966272391e-001
         - -4.7423933640392590e-001
         - 4.7009000110267685e-001
         - 3.0508467054443300e-001
         - 2.2068585413948155e-001
         - 4.9470170463302231e-002
         - 1.2145218967721758e-002
         - -5.2891231085686485e-001
         - 7.5626345895183422e-001
         - 3.0615771816011911e-001
         - 8.2654239045026959e-002
         - -5.3021409813128351e-001
         - 8.1730325381200467e-002
         - 2.0210194614174851e-001
         - -2.7448926692091064e-002
         - -3.4117565583825910e-001
         - 1.0993873876857521e+000
         - -5.0893757662262356e-004
         - -5.1106767194410418e-001
         - 1.2666369405823169e-001
         - 1.8159220877993337e-001
         - -2.6692130135136917e-002
         - 2.4320154177227263e-001
         - -4.9696704153591048e-001
         - 4.4326360867651665e-001
         - 1.9781443289997419e-001
         - -9.9468990650539019e-002
         - 4.0080713536558565e-002
         - 8.5391853512687285e-002
         - 1.4596475510166333e+000
         - -7.1739400917523488e-001
         - -1.8573530513267747e-001
         - 2.3945706180860032e-001
         - 3.6740926427689091e-001
         - 6.4657829960024127e-001
         - -4.1110843955791343e-001
         - 9.7868342210721646e-002
         - -5.6316179266746458e-001
         - 3.8851360043407768e-001
         - 8.2676172110094359e-001
         - 5.3412279120016237e-001
         - 5.1908090775630425e-002
         - -5.8450364215083560e-002
         - -3.7163076589667186e-002
         - -3.3851582804515501e-001
         - 1.4691512473713836e-001
         - -4.0125958370643772e-001
         - -1.4144395624717362e-001
         - -1.3734228229534473e-001
         - 8.3541774090481091e-001
         - 2.9950402530483616e-001
         - 4.9594173364914590e-001
         - -3.4995391286181776e-001
         - 2.7497222767743124e-001
         - 5.6922502883044146e-001
         - -4.9725139144896618e-001
         - 7.1655638599188987e-001
         - -1.2624887866717549e-001
         - 9.7070331055564774e-001
         - -7.0451814287037284e-002
         - -5.0547500064009543e-001
         - -1.3764894818134385e-001
         - 9.2195836824558064e-002
         - 2.1913375161927286e-002
         - -4.6493270535971404e-001
         - -3.6555369529105008e-001
         - 4.3934134870259389e-001
         - -4.9288907601340476e-001
         - -9.8527341983769756e-001
         - 3.2557863674101822e-001
         - -6.1819503427230904e-001
         - 4.8280765726622277e-001
         - -5.2712096376338036e-001
         - 5.4911770870156840e-001
         - -2.4496706168422581e-002
         - 1.2284420173988497e+000
         - 3.8843454909925856e-001
         - 2.2430202981709985e-001
         - -7.5568886040564609e-002
         - 2.4515364397133813e-001
         - 7.2940911680350384e-002
         - 2.1953016891494156e-001
         - -4.5649154090100136e-001
         - -2.9286407403182052e-001
         - 2.6499659941578169e-001
         - 4.0895677150383225e-001
         - 1.7406126336365157e-001
         - 5.4640384688615518e-001
         - -5.5921928091770004e-002
         - 2.1156274578771922e-001
         - -4.7615223808770990e-001
         - 1.0305076878762878e+000
         - -4.5700971868006690e-001
         - 1.0325702133380750e-001
         - -9.0288584625404955e-002
         - -2.5045861011057069e-001
         - 4.8136029800336039e-001
         - -4.4138638679459319e-001
         - 4.8326479982598675e-001
         - 7.2063988571586979e-001
         - 1.5124824326786948e-001
         - 2.9753999464091917e-002
         - 9.1355412372545380e-002
         - 6.9808970569370599e-001
         - 3.3913191287065275e-001
         - 2.5911875801647022e-001
         - 2.6508960469344456e-001
         - -7.3051629684135178e-001
         - -4.2677142489493232e-002
         - 4.8520695495908139e-001
         - 6.5805974125581826e-002
         - -2.7490508879271702e-001
         - 1.1490333345162289e+000
         - 2.6664014989306384e-001
         - 5.2436137430892404e-001
         - -6.5837200463981638e-001
         - 1.9632198867368905e-001
         - -6.4675664071632621e-001
         - 6.1053971424951026e-001
         - -7.0013774539830875e-001
         - -8.4771068695076701e-001
         - -1.1119878200333282e+000
         - -4.9016452948082689e-001
         - 6.2185787835027784e-001
         - 3.8754538834696811e-001
         - -2.0953168086239055e-001
         - -6.2995644553012820e-001
         - 3.9594598060434349e-001
         - 2.4743722875801202e-001
         - -4.9151183822477867e-001
         - -5.5195817587162144e-001
         - -1.1978865579499526e-002
         - -2.7260282628671267e-001
         - -3.8187489473065878e-001
         - -2.0551416425965016e-002
         - 1.3568813827277296e-001
         - 2.7767646086473691e-001
         - 2.6447150642045045e-002
         - -9.1444482426740553e-002
         - -3.3448852680971142e-001
         - -6.2058883799692710e-001
         - 1.4180349683158658e-001
         - 3.4944983081377728e-001
         - 8.9202540171975619e-001
         - -6.9812954255269288e-001
         - 7.3671712134860468e-001
         - 8.9967991859629226e-001
         - 7.9946630459613061e-002
         - 8.7127302774402532e-002
         - -7.9961793219376701e-002
         - 2.7091265704715739e-001
         - -8.6496870257809388e-001
         - 1.6243590852199584e-002
         - 2.8778549802066755e-001
         - 7.1454572467960820e-001
         - 6.2322411840564873e-001
         - 3.0176750479209791e-001
         - -2.3342695382476517e-001
         - 1.2102584266574808e-001
         - -4.9807047505769592e-001
         - 5.8808548655924953e-001
         - -5.9127856721412475e-001
         - -8.5784115726132493e-001
         - -5.7419304154783350e-002
         - -6.1888528447235125e-001
         - 4.9941089674118189e-001
         - -3.2007934475033561e-001
         - 4.9992308537657398e-001
         - 1.1016650343124836e+000
         - -5.5513387845906970e-001
         - 6.6555086347601655e-001
         - 4.8423630943924967e-001
         - 3.6303020287028298e-001
         - -3.6793518154619947e-001
         - 4.1392334760877247e-001
         - 1.0142572539288144e+000
         - 5.6172045268053805e-001
         - 5.4865909130572088e-001
         - -6.6131982213138318e-001
         - 2.7788686734707579e-001
         - -1.3803622701674234e-002
         - 2.5798782236884826e-001
         - 4.7780521129290549e-001
         - 6.5789794424013046e-002
         - 2.9884786805592062e-001
         - 8.3815792435966929e-001
         - -1.1001766260661171e-001
         - 4.4613480365348807e-001
         - -4.1415410072580933e-001
         - -2.7227409931048607e-001
         - 4.9313535327250702e-001
         - 4.4400790444602617e-001
         - -7.9489934670901186e-001
         - -1.3875044013479390e+000
         - -5.9159277427964896e-001
         - 3.7266602159781767e-002
         - 7.5492847341237235e-002
         - -5.1414098904922478e-001
         - 3.3279086738856273e-001
         - -2.1783797279869968e-001
         - -7.3351677180815855e-001
         - 4.6789678861117667e-001
         - 1.6116142345260948e-001
         - 2.3662571698157230e-002
         - -6.2782149814687260e-001
         - 1.7670423263703844e-001
         - 1.3012793680677556e-001
         - -4.0988472552700078e-001
         - 6.3101151514916665e-001
         - 2.9536505922700024e-001
         - 2.4039109132739468e-002
         - -3.1988415793261843e-001
         - -5.8552930719220327e-003
         - -1.7002047799484157e-001
         - 4.4468721224547431e-001
         - -2.7498863633299470e-001
         - -1.1549893659435608e+000
         - -1.4858442143501021e+000
         - 5.0421435481265008e-002
         - 1.0059959624283026e+000
         - 5.0831191690814881e-001
         - -2.9028619853218929e-001
         - -6.9486314273124838e-001
         - -3.1883285818769730e-001
         - -1.0561604129862813e-001
         - 2.8604911840771848e-002
         - 5.8625473318748920e-002
         - -4.6587974239959751e-002
         - 1.3658035054613149e-001
         - -4.6093689609401534e-001
         - 4.7864588314856599e-002
         - 6.3804591766590868e-001
         - -4.3401386561495053e-001
         - -4.2122730930955266e-001
         - 6.8460452055893117e-001
         - -1.7161689228553315e-001
         - -5.6762606513606373e-002
         - -8.8263750227048521e-002
         - 8.5713197203510127e-001
         - 4.4392774185087863e-004
         - -4.3387460292123542e-001
         - -2.7193585252518010e-001
         - 6.7272158460287701e-001
         - -7.8774771199617100e-001
         - -1.0168991107994940e+000
         - -6.0767214525207602e-001
         - 3.9141234574172717e-001
         - 6.2018939506478243e-001
         - 6.6976750876195854e-002
         - -1.3008513639656361e-001
         - 1.1748721627808327e+000
         - 3.6852603302003045e-002
         - 2.8552914728057294e-001
         - -2.6263888323733223e-002
         - -9.6486577880966568e-002
         - 3.5691998421244903e-001
         - -2.0465621131956244e-001
         - -3.7258348078282899e-001
         - -2.0752981036267864e+000
         - -3.7666213251376662e-001
         - 1.3937714912195473e-001
         - 1.3348497479099906e+000
         - -1.0154588326932384e-001
         - 8.7285009624793108e-001
         - 5.3675437493254385e-001
         - 6.7485657469923729e-002
         - -9.1787974155320196e-002
         - -1.6706394478140735e-001
         - 1.6106751355196396e-002
         - -7.5920668394203472e-003
         - -1.6306127969025766e-001
         - 2.4555061165239905e-001
         - 3.3365439664609454e-002
         - 7.7305706410321163e-003
         - -7.9101238609555857e-001
         - -1.4225923715351621e-002
         - -3.1009932036726384e-001
         - -2.8485011372388724e-001
         - 1.4546131267405296e-001
         - 2.7441872605955780e-001
         - 5.7453594254138637e-002
         - 9.6504676933713007e-001
         - -1.8726062892925863e-001
         - 7.7314401191270710e-001
         - 4.6213888796022284e-001
         - 4.8659618235570418e-001
         - -3.5342382003640610e-001
         - 2.2001288601229130e-001
         - 6.5454155733411590e-001
         - -7.3877537984736796e-001
         - -3.6453114751742882e-001
         - 5.5464269384007647e-001
         - 2.7628668694798497e-001
         - -5.3692839713044982e-001
         - 1.7446492363262772e-001
         - -2.5488828936512636e-002
         - -1.6289543590894533e+000
         - 1.3519409756628895e-001
         - 9.7911399006750138e-002
         - -5.1344576339225667e-001
         - -7.3215575730548155e-002
         - 1.1262857275684532e+000
         - 3.1931260505237680e-001
         - -8.7588726144620455e-001
         - 2.6936663110860964e-001
         - -8.1324103582019325e-001
         - 3.5739215097833738e-001
         - 1.3360475632643065e-001
         - -2.9074024917621427e-001
         - -9.1238300997482347e-001
         - -3.8125117723001439e-001
         - -1.3585875374631255e+000
         - -8.1146708281602475e-001
         - 2.0462522960948629e-001
         - -3.2515464009479833e-001
         - 7.7205384281832223e-001
         - -2.1349098895331561e-001
         - -2.4259157292741600e-003
         - 5.8265596389797926e-002
         - 1.3251356802387113e-001
         - 1.2039850782530413e-001
         - -2.2157512853493100e-001
         - -4.6674870558914022e-001
         - 1.5706245325305423e+000
         - 1.7351305831529548e-001
         - 9.6011544423020886e-002
         - 2.6916403677659856e-001
         - 6.2287913361525449e-001
         - -6.9755367606278107e-001
         - -7.0979722616937158e-001
         - 8.7293903058688849e-001
         - -4.4319178889016861e-002
         - 2.8345761130665073e-002
         - -3.8276732038174149e-001
         - 9.5521306315164478e-001
         - -1.8456989697195156e-001
         - -1.9012041208993316e-001
         - -3.9337441068481988e-001
         - 2.8053407962279703e-001
         - 2.4875263497801151e-001
         - -1.4445351276862120e+000
         - -2.4407337910712640e-001
         - -2.7256541366463771e-001
         - 8.4230053016623918e-001
         - 4.8146430558933812e-001
         - -2.5178760079009493e-001
         - 4.3673284783328131e-001
         - 4.6276954861673998e-002
         - 2.0422601633116943e-002
         - -4.3201913568893513e-001
         - 8.5050371209959355e-002
         - -2.1377098096987809e-001
         - -8.9967381821025635e-002
         - -4.2278229161503683e-001
         - -1.1069501339064676e+000
         - 7.5182069970060139e-001
         - 2.1267320627927799e-001
         - 6.8360064026053635e-001
         - -3.2935956230057073e-001
         - 3.7158131525143662e-001
         - 1.3136836586635465e+000
         - 3.5081196282942534e-001
         - -6.5128128874602687e-001
         - -4.4104050741297268e-001
         - 4.5988185712238283e-001
         - -5.8950704951708466e-001
         - -7.5950780121767547e-001
         - 2.6038886409138812e-001
         - 9.8063085426325233e-002
         - -1.3068334732482459e-001
         - -6.5623747794452103e-001
         - -3.9108749284495842e-001
         - 6.6938926464535808e-002
         - 4.2627421593859877e-002
         - -4.4016511419355636e-001
         - 4.0874085234973367e-001
         - -6.9904193749782928e-001
         - 1.2762229834026282e+000
         - -4.4911810597681284e-001
         - 1.0002278570103273e-002
         - 3.4326735576657291e-001
         - 6.4660723117975671e-001
         - 4.9761975861603119e-001
         - -1.8548450278007170e-001
         - -3.4698996820188072e-001
         - 5.8286276411177458e-002
         - -7.3257176345126407e-001
         - 7.0187802673788702e-001
         - -1.1756768176469951e-001
         - -4.0759664487366937e-001
         - 2.0812569900687306e-001
         - 2.6703054723266295e-001
         - -6.6124805859783142e-001
         - 1.3851085024224949e-001
         - 8.0622079304359051e-001
         - -8.6693104869689430e-001
         - -8.8198588942735925e-002
         - -8.6917598368135510e-003
         - 1.7551540735096774e-001
         - -1.4636435880668957e+000
         - -5.0245766393685509e-001
         - -2.2728499665000157e-001
         - 4.8256458496650084e-001
         - -5.2555860355150719e-001
         - -4.4272324070708385e-001
         - 3.1769484262365710e-001
         - -5.2379264289897109e-001
         - -1.6013436671323893e+000
         - -8.9300718600018048e-001
         - -8.4681562756969850e-002
         - -1.8537771530215283e-001
         - 3.3022995169954156e-001
         - 3.3063483798496446e-001
         - 1.6837320191458252e-001
         - 1.9380149814130082e-001
         - -3.3893757718698431e-001
         - 3.4329673345952066e-001
         - -2.5596959816008102e-001
         - -6.8743269098933590e-001
         - 8.3045640873732074e-001
         - -7.7071983714251666e-004
         - -1.8284666238278866e-001
         - 3.7636886653853160e-002
         - 6.1055460689743414e-002
         - 3.2353774425201504e-001
         - -3.5055722549140500e-001
         - 7.3025183659083365e-002
         - -7.8927689468211959e-001
         - 2.7201169421200122e-001
         - 1.6644705145504274e-001
         - 3.9913203074346931e-001
         - 2.7126789588212269e-001
         - 2.8474777259258743e-001
         - -2.2008702709538381e-002
         - 3.7721250967905917e-001
         - 2.4034166588499822e-003
         - -2.2408239840131602e-001
         - -2.2879884810883164e-001
         - -4.2652240709836736e-001
         - 4.9868381333387023e-002
         - -1.4597161503203773e-001
         - 1.0602561016805501e-001
         - 4.5193471628111975e-001
         - -8.0537504754005215e-002
         - -1.5433394361820607e-001
         - -4.7062212664124936e-001
         - 4.5418820043822516e-001
         - -4.0551216984960736e-001
         - 4.1897245504247954e-001
         - -8.1459286206985471e-001
         - -7.2162880704432031e-001
         - 2.0826785597125411e-001
         - -5.2147617930475933e-002
         - -2.0588416944447342e-002
         - 6.5224514628721392e-002
         - -1.9005308566620556e-003
         - 1.0089087475069425e+000
         - -2.0655719648962470e-001
         - -2.6033675577728534e-002
         - 4.4064291910713910e-001
         - 1.6420007364073677e-001
         - -5.0226259342235002e-001
         - -6.0787582627464964e-001
         - 8.6575629707188584e-001
         - 4.8746615101282198e-001
         - 2.4066978977335532e-001
         - -3.8740374618604201e-001
         - -5.9606525461365856e-001
         - -3.3478749212972156e-002
         - 5.1752050332373256e-001
         - -6.3814092124769739e-001
         - -5.6686841332994564e-001
         - -1.2131674833859242e-001
         - 1.3670983142617843e+000
         - -1.6278312510810297e-001
         - 2.9186222290264258e-001
         - 6.7072811302336821e-001
         - -9.3229692257560753e-002
         - -3.0704110132539486e-001
         - 4.2458264745850560e-001
         - -1.0282033253879457e+000
         - -8.2998142799777852e-001
         - -7.5392481322624116e-001
         - 1.6369847145424313e-001
         - 1.4924594232928098e-001
         - -7.0120882665907047e-001
         - 1.1863990816097229e-001
         - -7.2016251072863702e-001
         - -1.3941379292661258e+000
         - 2.8073995487455095e-001
         - -2.0328030236579370e-001
         - -7.0696394932897241e-002
         - -8.9348098203953852e-001
         - 5.6739397021990756e-001
         - -1.4468209977064470e-001
         - -9.8028140168199074e-001
         - 2.7531302482111969e-001
         - 2.4686847412967822e-001
         - 2.5560904274158286e-001
         - -2.9264937212796333e-001
         - -1.3922488988624795e-001
         - -5.1093139882746330e-002
         - 7.7168661310302367e-002
         - -1.9617153234567589e-001
         - -2.5292887912381173e-001
         - 4.5059093392256933e-001
         - -4.1119382510426739e-001
         - -2.5041325703592993e-001
         - -2.7980828114851553e-001
         - 4.5982869661653020e-001
         - 9.3245409898473380e-002
         - -3.3325677346953697e-001
         - 2.8075803053483811e-001
         - -8.1794476814906661e-002
         - -3.7132365562489572e-001
         - -8.5390164656799006e-001
         - 2.4852295188953302e-001
         - -3.5513387108332445e-001
         - 4.3739938447603760e-001
         - 3.7845483340513980e-001
         - 1.2863894107655431e+000
         - -3.1888885838394043e-001
         - 2.4564158362308522e-001
         - -6.7707282172020700e-001
         - 3.1630190801855534e-001
         - 7.3394121419589775e-001
         - -4.5571519780340758e-001
         - -6.2953661509048986e-001
         - 9.8447867990940130e-002
         - -1.1521806596380225e-001
         - 1.3798804603356740e-001
         - 1.8198642419512845e-001
         - 2.5430580198206454e-001
         - 3.8978400107718658e-001
         - -3.5852295668193168e-001
         - -1.4450320756204085e-001
         - 7.9538443506160503e-002
         - 2.0320408018832833e-001
         - 5.4058120627347284e-001
         - -1.4475035895578439e-001
         - -2.0760357742757959e-001
         - 1.4415874069168434e-002
         - 8.6610647117532902e-001
         - -1.1740104085087576e-001
         - -2.3291544665098193e-001
         - -9.8310578300783436e-001
         - 1.9524958146011359e-001
         - -4.9629870215585792e-001
         - -5.2549016920278147e-001
         - -6.2862727744908753e-001
         - -4.3995135138954611e-001
         - 3.7613638396380622e-001
         - 4.7035245444184826e-001
         - -1.8243018092222066e-001
         - -1.2199357380159616e-001
         - 8.7310184542159153e-001
         - 8.7087673360153633e-002
         - 3.6879010600859402e-001
         - 2.9899163308096752e-002
         - 2.6845080116744086e-001
         - 2.2444319250150119e-001
         - 5.6243886965960233e-001
         - -1.2150652997592953e-001
         - -6.3382382359882494e-001
         - -5.5895679011497734e-001
         - 1.1868829398514451e-001
         - -8.5630596294263839e-001
         - -4.1300453159381095e-001
         - 1.7115691952034406e-001
         - 2.7272971666428464e-001
         - -2.7242180672396826e-001
         - 7.9612984444231494e-001
         - 2.8593382837693720e-001
         - -1.2678304067383650e-001
         - -4.3432693320125376e-001
         - 4.0080719814764210e-001
         - 3.6014650428045819e-001
         - -1.1319925469980301e-001
         - -1.5747541580292435e-001
         - 2.7408530055653885e-001
         - 1.4467303897080397e-001
         - 2.0531216035459007e-001
         - -2.6377963374154007e-002
         - -7.3715828543749928e-001
         - -3.6792445543549657e-001
         - 2.6335724698211055e-001
         - -1.6504469587835938e-001
         - -4.0660539393811562e-001
         - -6.2571091567350232e-002
         - 7.9418285133545574e-001
         - 1.1280970041194945e-001
         - -1.6276139442228826e-001
         - 6.8163484909361127e-001
         - 5.7145051790713530e-001
         - 5.4640422759953089e-001
         - -4.2577547964689416e-001
         - 6.7351102278554037e-002
         - -2.2733589360974468e-001
         - 4.1956479866314983e-001
         - -3.5498696388468337e-002
         - 9.2183973720746312e-002
         - -3.6725814294989539e-001
         - -7.8523110937939969e-002
         - -1.8766261120866337e-001
         - 8.5274468943326673e-002
         - 5.8571205658258607e-001
         - 5.1662720359250021e-002
         - -2.4765368895897262e-002
         - 2.5415451023851199e-001
         - 1.0308675708959257e-001
         - 3.9952554906501840e-002
         - -3.1884271290777111e-001
         - 1.5792509645333475e-001
         - -1.7766656379055709e-001
         - 3.8989282421022164e-001
         - -7.0741272862049076e-001
         - 6.3511786291891259e-001
         - -2.3341371490510976e-001
         - 2.1417052075963505e-001
         - -6.5918808388360195e-001
         - 1.8650800130690232e-001
         - 6.2657337965110349e-001
         - -9.4146632202698299e-001
         - -6.2856272629019472e-001
         - -7.3074825262043508e-001
         - 4.3572639164299654e-002
         - -6.3748776603047133e-002
         - 1.4889294759204155e-001
         - 5.1940382128538132e-001
         - -1.7402557831155793e-001
         - 1.0296587636852939e+000
         - 7.7179382723048445e-002
         - -8.5400195137377266e-001
         - 1.4860445676235945e-001
         - -8.0107179765961201e-001
         - 1.6968602799185237e-001
         - -4.0873464021189559e-001
         - 1.0144088921828869e+000
         - 1.1764395255237767e+000
         - 4.1487161789265559e-001
         - 5.7561923461400577e-001
         - -4.2396717770979170e-001
         - 5.9424920952809812e-001
         - -9.1663985495042943e-001
         - 5.8403045056915170e-001
         - -5.4557288253511260e-001
         - 2.7898759628062891e-001
         - -5.0684152691187889e-001
         - -5.5279333594866795e-002
         - -2.2182152423333745e-001
         - -3.2450392321816018e-001
         - 5.8923992944658621e-001
         - -6.2519291134154120e-001
         - 7.4325647712471443e-001
         - -5.0058301538564776e-001
         - -1.9179870062462714e-001
         - -1.2976016736770280e-002
         - -2.3475743987032516e-001
         - 1.3122975587210112e-001
         - -3.7795118065095507e-001
         - -2.3817903170579108e-001
         - 3.1756906099967958e-001
         - -1.1102978276047960e-001
         - 4.5867169573835936e-001
         - -1.6816590864506539e-001
         - 1.4663004254432629e-001
         - -2.7603452724465255e-001
         - 1.0970487984215267e+000
         - 9.9092934725923509e-001
         - -2.2895481468303178e-001
         - -6.3975951281979349e-001
         - 7.2870018553073590e-001
         - 1.0083305580172593e-001
         - 4.5139228068966164e-001
         - 1.9891261837545307e-001
         - -1.1501492852097747e-001
         - 4.1650737206351340e-001
         - 2.6100594904524893e-001
         - 2.6792866909342289e-001
         - -1.3250533493560950e+000
         - -2.8476766333689135e-001
         - 4.5659414819904753e-001
         - 3.7506353203598669e-001
         - -5.3110672254351099e-001
         - 8.1382512973508614e-001
         - 1.1348346014147921e+000
         - -4.1438797307974284e-001
         - -1.7198114336290610e-001
         - 1.5296002579491205e-001
         - 3.4304791374832172e-001
         - 7.0853074027152274e-001
         - -1.6513735084464337e-001
         - -1.3399875528385838e-001
         - 2.6856359580859406e-002
         - 5.7246787007046451e-001
         - 1.1271315940739696e-001
         - -2.6861111395904547e-001
         - 6.8934039717309181e-001
         - -3.8718546251306452e-001
         - -9.1296748482261181e-001
         - 3.3821910065796190e-001
         - 6.3139643109068527e-002
         - 3.5013289831024758e-001
         - 8.4826293718980261e-001
         - -3.6641141087183976e-003
         - 3.0565512598502687e-001
         - 7.2219356834363133e-002
         - 4.1586126241275101e-001
         - -1.3365426674850620e-001
         - 6.9947449468770448e-002
         - 2.4966398998118897e-001
         - -7.8440769915988851e-001
         - 2.2107150618932692e-002
         - -2.8237471143133758e-001
         - -9.1677625240358357e-002
         - -3.4125076294146454e-002
         - 1.0061538988204590e+000
         - 6.5461487953677155e-001
         - -4.2675597142719718e-001
         - -2.2407177109135967e-001
         - -4.9135648731302495e-001
         - 3.2881692504105209e-001
         - -3.3003330460742539e-002
         - 7.7280563489190740e-002
         - -1.5407139832813024e-001
         - 3.0156717978834052e-002
         - -5.4111910951110598e-001
         - 1.2974969878783454e-001
         - -2.2239236163882661e-001
         - 2.7664416091578226e-001
         - -1.1786175329201574e+000
         - -4.0540404133109303e-002
         - 4.0154965638947143e-001
         - -7.7950938384256869e-003
         - 6.5314976904583577e-001
         - 1.3454892513622135e-001
         - 7.0799445894456914e-002
         - -6.1168196978383260e-001
         - 7.5154308458612196e-001
         - 8.0031973703987902e-002
         - 9.4852529963260457e-001
         - -1.2554634867572059e-001
         - 1.8739069518889906e-001
         - -7.9736261640205286e-001
         - -1.8775987631927499e-001
         - -6.9053568704151316e-002
         - 1.4935465395987380e-001
         - -4.3864689161879289e-001
         - -4.1569125351370473e-001
         - 1.0331633163984983e+000
         - -4.7586880843821699e-001
         - -4.9437028372676835e-002
         - -1.7447169368805551e-001
         - 7.3339453748070590e-002
         - 6.7519576536754533e-001
         - 8.8139292923061408e-001
         - 7.1641595025477456e-002
         - 3.6197680864599624e-001
         - -1.3446723915125088e-002
         - -1.8427239384802360e-001
         - -2.5828139882842710e-001
         - 5.0791744705702702e-001
         - -3.0514422505467842e-001
         - 1.0246911309152856e-001
         - 3.1540900749489069e-003
         - -2.0416095764723256e-002
         - -9.1516769268303166e-001
         - -3.7570147367965717e-001
         - 1.7988215300770036e-002
         - 1.1909417414580610e+000
         - -3.7614783954553288e-001
         - 3.8921478402109083e-001
         - 4.6345213692428611e-001
         - 1.0923943978821034e+000
         - 1.5877808950757169e-001
         - -4.0205587604900322e-001
         - -3.8075066483603030e-002
         - 1.5022028173941016e-001
         - 3.0266923886916863e-001
         - -2.8593512040671265e-001
         - 4.3552529721472211e-001
         - 1.0384905892108938e-001
         - -5.2338250498604089e-001
         - -5.4669108716918091e-001
         - 5.4017844748063248e-001
         - -1.0631814736426548e+000
         - 1.7522205257490261e-001
         - -3.7511669990107521e-001
         - 7.3260886148733741e-003
         - 6.6476100489139767e-001
         - -5.2879046828031007e-001
         - 7.7721483328610785e-003
         - 2.6964905991217911e-002
         - 8.9844826850967990e-003
         - 4.0909302779307440e-003
         - -1.8111590132136059e-002
         - -1.1349901630312464e-002
         - -7.5669769697397039e-003
         - -2.6943232323670012e-002
         - 2.9750801575629926e-002
         - 3.2951907680807531e-002
         - -3.4550887605297516e-002
         - -2.9029136688854845e-002
         - -1.4791101524483461e-002
         - -1.0878325698710872e-002
         - -3.5737831491202472e-002
         - 1.6134555469409395e-002
         - 3.6162299545059694e-002
         - 2.5192895537286323e-002
         - -1.2273365903895200e-002
         - 2.7460661134738377e-002
         - 3.1989086822510761e-002
         - -8.6505180163006165e-003
         - -3.4275949589611970e-002
         - 9.5372849807721944e-003
         - 9.8524199312511745e-003
         - 3.7931288581945909e-002
         - -4.7621757408124214e-003
         - 1.9511325700462778e-002
         - 3.9014824049005026e-002
         - -1.3185909912273593e-002
         - 1.3642591449242851e-003
         - 1.0526148623012528e-002
         - -1.0784957214228048e-002
         - 6.9193635393767017e-003
         - 3.2748811911589466e-002
         - 2.7508964756942846e-002
         - 4.1621334045337695e-002
         - 3.5667644512614123e-002
         - -3.6465341938804248e-002
         - 3.4088260872609508e-002
         - -2.6561165395732705e-002
         - -1.6931812929552637e-002
         - -4.6558693507911478e-003
         - 3.0662289257430260e-002
         - -7.3494177358621399e-003
         - -4.5887170756370946e-003
         - -3.8063688322874508e-003
         - 9.9338525672941005e-003
         - -3.3406898888702023e-003
         - -1.6387091825290124e-002
         - -2.5346278594816134e-002
         - -1.8316828625421382e-002
         - 6.5437375775720917e-003
         - -3.4233633695203408e-002
         - -3.7795067902203668e-002
         - -1.1791616572289254e-002
         - -1.9131937298791032e-002
         - 1.4410812713436021e-002
         - -3.4653102238993858e-002
         - -2.9275512835068029e-002
         - -2.3158321488630656e-002
         - 2.1248694337375657e-002
         - -4.5244744965796946e-002
         - -1.3200577046255612e-002
         - 2.8655687315152157e-002
         - -3.7822638688995124e-002
         - -2.7103503689333865e-002
         - -3.8278726816136290e-002
         - 2.4293054389476605e-002
         - -3.7989404668034251e-003
         - 8.1136823556818439e-003
         - 1.1384262033342992e-002
         - -3.3478053418709630e-002
         - -1.4389717224829755e-002
         - 3.3186747013956491e-002
         - -7.2284639355075135e-003
         - 1.9302375220101954e-002
         - -8.0520519613108913e-003
         - 3.2472617104943646e-002
         - -2.3113709036417282e-002
         - -6.5139987358544893e-003
         - -9.5900961837999659e-003
         - -1.9666034285750342e-002
         - 1.1576046995592764e-002
         - 3.3783642677462984e-002
         - 2.6604012590064282e-002
         - -2.5766133993167925e-003
         - -3.4589136385988845e-002
         - -3.3451926882952223e-003
         - 4.1741491531793469e-002
         - -1.5992290040310830e-002
         - -2.4538408598197746e-002
         - -3.0822433213707565e-002
         - 3.6479067012235210e-002
         - 4.0259563791422599e-003
         - 3.7463680019677065e-002
         - 3.6744873358483025e-002
         - 2.2494860430740124e-001
         - 1.3115947449279441e+000
         - -4.4478761740519018e-001
         - 1.0840093567367248e+000
         - 2.1621404020201790e-001
         - 5.6927382645641755e-001
         - -6.8762588752884901e-001
         - 1.0509391114518041e+000
         - -7.8123340145659770e-001
         - 1.0250433076092198e+000
         - 2.4988135858242105e-001
         - -1.1074019087007949e+000
         - -7.0552201762442290e-001
         - 1.3899847737845342e-001
         - 7.9232116173692441e-002
         - 8.4842394344244787e-001
         - 6.4846109012316999e-001
         - -9.5411499762800750e-002
         - -1.9514970307464569e-001
         - -8.7010857745600312e-001
         - 8.7340268876951521e-001
         - 5.4729983633975708e-002
         - 6.2325071140813282e-001
         - 7.0297531720459799e-002
         - 6.8038556754698221e-001
         - -8.2361601302030940e-001
         - 5.7263132259472305e-001
         - -3.5612723791637185e-002
         - 6.1942096016288961e-001
         - 2.9691799877782649e-001
         - 4.0905755683004524e-001
         - -2.0545842652227411e-001
         - -7.5057169214621766e-001
         - -1.8889479012394936e-001
         - -1.5427727332582797e+000
         - -7.5118454949210400e-001
         - -7.3288677355823284e-001
         - -4.7510053267100077e-001
         - 5.1481670836321480e-001
         - 1.6997606272120727e-002
         - -1.1340873733387755e+000
         - 4.1309558868234557e-002
         - 5.5465230587808856e-001
         - 3.3430797726944800e-001
         - -1.5302730156773217e+000
         - -4.8106065343751121e-002
         - -5.6369994792837741e-001
         - -5.9680408155513420e-001
         - 1.6434357493118454e-001
         - 5.4131537446203581e-001
         - -8.6763519568117797e-001
         - 2.7901678607826691e-001
         - -1.1918797707375079e+000
         - -7.2989449837002551e-001
         - 8.5181757085747190e-001
         - 6.1389347710850661e-001
         - -7.1858896780711912e-001
         - -1.0224941118752577e+000
         - 1.1504585545589920e-001
         - 2.3752138403882372e-001
         - -2.1645033952533577e-001
         - -1.1474196769914735e-001
         - 3.1671614697802819e-001
         - -1.9415157764973792e-001
         - -9.0483739907434380e-001
         - -5.3515495684842662e-001
         - 2.5070737013747635e-001
         - 2.5172181272267175e-001
         - 5.8854906269139784e-001
         - 1.9105580979183392e-001
         - -1.5755383618079566e-001
         - -4.3543274033165401e-002
         - 9.1955263299137358e-001
         - 8.3589072841566092e-001
         - -3.4706629207273430e-002
         - -1.0596649443963818e-001
         - -6.8554916389855214e-001
         - 3.9116635253119625e-001
         - -2.5321327566586671e-001
         - 7.8768088384800983e-002
         - -8.5036070433809852e-001
         - 2.2857083813966464e-001
         - 7.5805301761369315e-001
         - -7.9541933941755982e-001
         - 2.0190307761459669e+000
         - -6.5459902867771247e-001
         - -5.0802604833956722e-001
         - 9.0144318219904054e-002
         - -2.3698077451687560e-002
         - 1.7291305728812759e-001
         - 9.6046556998520205e-001
         - 1.2720321199626966e-001
         - 1.0330758604400223e+000
         - -1.6649209348650243e-001
         - 3.6956263904871173e-001
         - -1.4275996062144420e+000
         - -5.7468804836613430e-001
         - 2.6205387410945374e-001
         - 1.3612214648488646e-001
         - -1.3225400028105846e-001
         - -1.0485335127336906e+000
         - -3.4213208829921571e-002
         - -4.5050874806756697e-001
         - 9.5429415716707400e-001
         - -7.6262009962399213e-001
         - -2.5844370687424301e-001
         - 1.3542069630095660e-001
         - 2.6548099318493373e-001
         - 2.3983879277133111e-001
         - 8.3007840052630433e-001
         - -4.9524854004390478e-001
         - 1.4180772364176902e-001
         - -9.4551187759043553e-001
         - -3.0215604879521962e-001
         - 1.6797048357688302e-001
         - 1.3684440982555493e-001
         - 2.3069345786242396e-001
         - 6.8386733947186606e-001
         - 3.7383356501506354e-001
         - -7.4423107957897749e-001
         - -3.7319772569358056e-001
         - 2.9606125485294729e-002
         - -1.1887434601903640e-001
         - -1.5745715325920506e-001
         - 2.9882456193277923e-001
         - 7.9703691802995946e-001
         - -5.4176484946598991e-001
         - 5.3725797805590801e-002
         - -9.6822404622882408e-001
         - -5.3788024254259714e-001
         - 4.0493222225709768e-001
         - -6.8996768544427614e-002
         - -4.7583610162792689e-001
         - 3.7216185231873498e-002
         - 1.0685790919223941e+000
         - 7.6788646876595190e-001
         - -6.7776663913149654e-002
         - -1.0989127502546183e+000
         - -2.3582821839830392e-001
         - -3.1448904878098199e-001
         - -7.3484288668437636e-001
         - 4.8855477414845438e-001
         - 1.2139684181811750e+000
         - 4.8450325976661313e-001
         - 5.4310363806084339e-001
         - 5.9808439396322377e-001
         - -8.9834786222731680e-002
         - -8.3198393447173236e-001
         - -2.1394099900399990e-001
         - -3.9485625842427478e-002
         - 1.0597410606457582e+000
         - 7.2557692636003712e-001
         - 3.0828122531172020e-001
         - -1.4333343166234530e-001
         - -7.8843996045782613e-002
         - -5.2151322372903341e-001
         - 3.8593486935372950e-001
         - -3.6909292890377754e-001
         - 9.7918526028942610e-001
         - -5.1944281752384414e-001
         - -4.8141647467251358e-001
         - -3.1577849755500637e-001
         - 8.2965015465679873e-002
         - 4.0746598736923245e-001
         - -3.5971626593771971e-001
         - 2.2595638365717416e-002
         - -2.3677397570755820e-001
         - 4.5962102516629449e-001
         - 4.6223810452714675e-002
         - -6.1256060132123513e-001
         - 5.0206593519131137e-001
         - -6.5098973811911243e-001
         - -9.5339932342151501e-001
         - -1.4734409997399603e-001
         - -1.1208206861279095e-001
         - -6.6232340765770448e-001
         - -1.9528238826126756e-001
         - -8.1543418506437537e-002
         - 8.2182071459763406e-001
         - -2.3426750043064740e-001
         - -3.5907117958144316e-002
         - 1.9103393670779334e-001
         - -2.6160159930812921e-001
         - 9.9293197053765461e-003
         - -1.1331947919600109e-001
         - -4.6564191809841216e-001
         - 6.7527591297952660e-001
         - 3.5473768628408908e-001
         - 1.2497229387470689e-001
         - 2.1803990059597678e-001
         - 5.7355603393042520e-001
         - 2.8670045435675595e-001
         - -1.5281254571783587e+000
         - 1.2254829316457534e-001
         - 4.1941327881442253e-001
         - 6.5874520795318303e-001
         - -1.4022214912860216e+000
         - 3.6087174754772483e-001
         - 5.9867221044342112e-001
         - 2.9843618383775977e-001
         - 2.2152821106172910e-001
         - 1.3919346224275211e+000
         - 1.3490919431741921e-001
         - 3.4258242173330444e-001
         - 5.5383303666601114e-001
         - 2.8700073716114471e-001
         - -1.1316188540828489e+000
         - -5.4152130049146652e-002
         - -4.2619838409003596e-001
         - 7.9743867274527069e-001
         - -7.5977679343696058e-001
         - -1.3847369497861417e-001
         - -5.9567536196522405e-003
         - -5.8176470237033517e-001
         - 1.3980641168439700e+000
         - -1.5445891047956561e-001
         - 6.9707093827633271e-001
         - 6.5869556822033570e-001
         - 9.1905682371065300e-001
         - 3.7525813252957518e-001
         - -9.6194190860529594e-001
         - -5.1951764653323895e-001
         - -9.2388504933826443e-001
         - 4.5473862753540178e-001
         - -6.1612968339648111e-001
         - -8.7788709000218945e-001
         - -3.2525577056799954e-001
         - -4.5829053752614612e-001
         - -8.4614979100778376e-001
         - -1.2744713341626452e+000
         - 9.9886358723161428e-001
         - -1.4418368279300420e-001
         - 3.2676491436378352e-001
         - -6.1016569847313717e-001
         - -3.0763740075217699e-001
         - 7.3231607314610281e-001
         - -2.3552928039118362e-001
         - -3.2792900775798404e-003
         - 3.9225555496883757e-001
         - 3.5148786870447102e-001
         - 6.4953182683379318e-001
         - 5.0256431558676495e-001
         - -5.5289529766910162e-001
         - -1.2665190386553220e+000
         - 4.2647043515255262e-001
         - -3.3817528801085789e-001
         - 3.8304856752667782e-001
         - 5.2612646690014131e-001
         - 4.6309331283734800e-001
         - -4.0309312204670371e-002
         - -8.7655836987410474e-002
         - -1.4132449059509158e-001
         - 1.3677170191058625e+000
         - 4.8400471735320638e-001
         - -5.6223201625687602e-001
         - -6.1363812362971526e-001
         - 5.6468981301660470e-001
         - 3.6141266310855999e-002
         - -3.0837475815046306e-001
         - -5.6283986286065790e-001
         - -3.5812414273163401e-001
         - -1.4163342552808000e+000
         - 2.9250883354839124e-001
         - -3.0654869738876217e-001
         - -1.5306128581367204e-001
         - -1.7797166693549576e-001
         - 3.9097086205948911e-001
         - -3.4709025920409303e-001
         - -1.1388279388655425e+000
         - -8.8420929117564828e-001
         - 4.1911664954122430e-001
         - -6.2738684705961500e-001
         - 1.4027836192457505e-001
         - 1.1463971569362190e-001
         - -1.3608135870865332e-001
         - 4.5089698928828048e-001
         - -7.4086901196726807e-001
         - -3.0348422437954725e-001
         - -2.2257484479623257e-001
         - -2.8404968279970472e-001
         - -6.3248866853715846e-001
         - -8.9139350493184621e-001
         - 4.9585553639409941e-001
         - 5.1455703005819420e-001
         - 4.8447784437229496e-001
         - -9.2911271041510132e-002
         - 6.2033564870041369e-001
         - 2.3711886961072901e-001
         - -7.0384620540350118e-001
         - -5.3629403142070028e-002
         - 8.6450147646415887e-001
         - -2.1642938548263616e-001
         - -4.0718905700255631e-001
         - 2.9038174277668899e-001
         - -3.3474984117213523e-002
         - 3.2897987706463494e-001
         - -5.7872078334450683e-001
         - -4.5022050225364352e-001
         - 3.3082729518253834e-001
         - 4.5469835154275579e-001
         - 5.5522396242389360e-001
         - 4.4149768246569293e-001
         - -7.3950511213405468e-001
         - 7.6127532391617417e-002
         - -5.3164636682954215e-002
         - -2.5072391886367645e-001
         - 8.2913415548056069e-001
         - 2.7322800330226577e-001
         - -9.4634241512444750e-001
         - 8.9452408158325925e-001
         - 5.0997601097473177e-001
         - -7.8363535250849950e-002
         - 1.0155634693399707e-001
         - -9.2074797176281614e-002
         - 2.6895735195055620e-001
         - -9.2040771901136798e-002
         - -6.8893117213659605e-001
         - -3.9984939477035358e-001
         - -5.4440617511049383e-001
         - -2.2973522100108298e-001
         - -7.9751192737068002e-002
         - -3.6303997528816823e-001
         - -4.7268736447477910e-001
         - -2.6363861189419341e-001
         - -5.1445765606456584e-001
         - 3.0721212762338437e-002
         - 5.1466515285774195e-001
         - 2.4438116324556133e-001
         - 3.2016645191823689e-001
         - -9.0100396099540037e-001
         - 1.2628026146447982e-001
         - 5.7653000037175794e-001
         - 6.5101708310930673e-001
         - -2.3066895737450502e-001
         - 6.7920592806735447e-001
         - 8.4554594998689925e-001
         - 3.8966282993634277e-001
         - 2.4910101629775949e-001
         - 4.1592618250215443e-002
         - -1.0333017683117167e+000
         - 2.1653348032522529e-001
         - 6.0711664452291558e-001
         - 1.1783744865970491e+000
         - 3.1993830955729402e-001
         - 4.6537113616094827e-001
         - -1.4283893987225185e-001
         - 5.6203001764236642e-002
         - -4.0271920609414003e-001
         - 1.4229629024491319e+000
         - -6.7063428648124035e-002
         - -4.4153960676718146e-001
         - -3.7820980647028846e-001
         - -4.4793071837974903e-003
         - 1.4387810024244879e-001
         - -1.2831706776484597e-001
         - 7.6243442205707468e-001
         - -4.7618362692788946e-001
         - -9.0030405615188727e-002
         - -4.3613823597903528e-001
         - -6.2804934430294457e-001
         - -3.3175829859722122e-001
         - -9.3155859845624223e-001
         - -5.5176962275848906e-001
         - -2.2345112492938243e-001
         - -6.8850624300222973e-001
         - -8.4482566664554593e-001
         - -5.8976923428904282e-001
         - 3.3938575201788335e-001
         - -3.6932192012414877e-001
         - -2.1270634526205340e-001
         - 4.1588996945389872e-001
         - 2.1512897710423731e-001
         - -2.1507225028125472e-002
         - 3.5510874519939067e-001
         - -2.3950445576164023e-001
         - -2.3855079485078770e-001
         - -2.1432619786682333e-001
         - -7.5485067316268983e-001
         - 1.2596357744746636e+000
         - -5.3373407541120343e-001
         - 1.5883778380302083e-001
         - -5.0230132347568479e-001
         - 3.1377593612895571e-001
         - 9.3486612182796386e-002
         - -3.5452820276467256e-001
         - 2.6157684506275859e-002
         - -6.8777175142952662e-001
         - 9.5893669784029453e-002
         - -9.1711652497608931e-001
         - 3.2984426875812944e-001
         - -5.2037479324514267e-002
         - 4.2790213228843166e-001
         - -6.2669274507530237e-001
         - 3.5897938416998210e-001
         - 4.9933601417298379e-001
         - -3.6922626300238554e-001
         - 3.7554860630058451e-001
         - 2.3288295639794465e-001
         - 4.7397320058676007e-001
         - 9.1376012005389784e-001
         - 4.0965672538077247e-001
         - 1.7469949066876128e-001
         - -1.8445064269447295e-001
         - -9.4675236899678739e-001
         - 6.6632449556358803e-002
         - -1.4947199315475465e-001
         - 1.0076678555750529e+000
         - 8.7915948256466170e-001
         - 4.6289782469271989e-001
         - 2.6159090858500011e-001
         - 8.8869262894788126e-001
         - 1.2940766579889347e+000
         - 1.4721585147404850e-001
         - -6.2382920700247924e-001
         - 4.3575289113419913e-001
         - -1.5753832431653638e+000
         - -2.6521401264587158e-001
         - -7.2427171156583758e-001
         - -7.7801540989441709e-001
         - 2.1144090357699012e-003
         - -2.5741786032070957e-001
         - 6.4334298161418835e-002
         - 2.5417640013727139e-001
         - 1.0332202401270715e-001
         - 6.2631505503986634e-002
         - -2.0138924789150425e-001
         - 9.3362920884520834e-002
         - -3.4992413023520758e-001
         - 4.9949964240595716e-002
         - 7.2791548621167579e-001
         - -3.0552937678935765e-001
         - -3.2050054808870665e-001
         - 5.6395556103269351e-001
         - 5.1467821598004937e-001
         - 1.5424469846355401e-001
         - 2.9862548535952604e-001
         - -1.2910135749482363e+000
         - 1.5306562608201374e-001
         - 7.4126005399188699e-001
         - 2.0319465696492151e-001
         - -5.2184244904554400e-001
         - -2.8732289449399451e-001
         - 6.1540833655200655e-001
         - 1.2501243611288318e-001
         - 7.9003455171095394e-001
         - -1.1132336083786940e-001
         - 1.7256460775406426e-001
         - 4.0324393342857479e-001
         - -1.6472625389447091e+000
         - -3.9658921448107114e-002
         - 3.6092934732505466e-001
         - -1.2766383048677671e-001
         - 1.5279751073175402e-001
         - 6.5148489742716498e-001
         - -1.2517421590179931e+000
         - -1.0118161761009435e-001
         - 7.1625668536117837e-001
         - 4.6260993353441909e-001
         - -1.0096066989115204e+000
         - -7.1993139025579311e-001
         - -5.5644288620187632e-001
         - 1.2706744293698149e+000
         - -9.4081253333830828e-001
         - 1.1424193772820181e-001
         - -7.2103790493504338e-001
         - -4.6487170335684064e-001
         - 2.0259669809090833e-001
         - -4.1408369331030864e-001
         - 6.5744273979173495e-001
         - -6.9899631525722727e-001
         - -1.8567858434461862e-001
         - 2.3908382004676465e-001
         - 1.7966643879027100e-001
         - 3.5821382781234373e-001
         - 2.4782088342652536e-002
         - 3.6438570318652379e-002
         - -3.6663312241967914e-002
         - 5.5528161407967747e-001
         - -4.1598790538625469e-001
         - -2.0618024337537308e+000
         - 8.2858568065648786e-001
         - -7.4000554719534400e-002
         - 2.5937943097494026e-001
         - 7.8226226907580410e-001
         - -2.4979045938673405e-001
         - -2.5768028603850024e-001
         - 2.3524266413057071e-001
         - -6.3066632882865081e-001
         - -2.6237425924059108e-004
         - 6.6162696757109907e-001
         - -2.8590972267205728e-001
         - 1.5497078954257993e-002
         - 6.3555891261767272e-001
         - 2.7942719473705868e-001
         - 2.9340265495880413e-001
         - -2.7680668547695264e-001
         - 1.5690027701440537e-001
         - -7.3032012925981805e-003
         - -6.1768188097550103e-001
         - -6.0891322629638667e-001
         - 7.0846640303173825e-001
         - 1.7368706299291800e-001
         - 1.7046281494725637e-001
         - -2.5519191517905981e-001
         - 1.1641997128002648e-002
         - -2.9494008258309817e-001
         - -4.1083823309830148e-001
         - -7.6505356895443605e-002
         - -5.8468980985137831e-001
         - -5.4817487155050570e-001
         - 2.2830077219260628e-001
         - 6.1308734907631246e-001
         - -3.9738454908276355e-001
         - 3.4862728508401447e-001
         - -5.8176115615271529e-001
         - -6.0794410479753302e-001
         - -3.4712410105501013e-001
         - -1.8649921444971476e-001
         - -5.3206548710703183e-001
         - 6.3389258848225261e-001
         - -5.4928190665842969e-001
         - 1.1757294340398808e-001
         - 3.8574220662548536e-001
         - -5.3107314709750345e-002
         - -5.2435715870713173e-001
         - 1.4753575706707547e+000
         - 6.2388525580472998e-001
         - 1.9062645943179643e-001
         - -6.8682571035904050e-001
         - 1.2184546941094349e-002
         - -3.0587261828051382e-001
         - 1.7328801689197709e-001
         - 2.1873411998949976e-001
         - -3.5514822108330946e-001
         - 1.9673363938445421e-002
         - 1.2663462293575509e-001
         - -7.1023007666153726e-001
         - 3.0078271801498568e-001
         - 1.4478856916428565e-001
         - -8.7124505290254306e-001
         - 5.2582185194233089e-001
         - 2.3804858744967294e-001
         - -3.5702796684628757e-001
         - 4.5962274717245322e-001
         - -3.0285663954667941e-001
         - -8.6965636862025242e-002
         - -1.3969548885228758e-001
         - 3.1374795880044470e-001
         - 6.2098917119678321e-001
         - 2.2884200420108775e-001
         - -5.3281130136147759e-001
         - 4.5759856869456417e-001
         - -4.2580466289909874e-001
         - 1.3254634868154966e+000
         - 1.8231745238794067e-001
         - -3.9977287757455876e-001
         - 1.1509889897242619e-001
         - 1.4550596848576633e+000
         - 1.2593832382885287e-001
         - -2.3789373805129124e-001
         - -2.8821722569768338e-001
         - -1.2054543040589614e+000
         - -3.1762004304143115e-001
         - -1.9751351534506911e-001
         - 5.2767248143566481e-001
         - 5.7512639462646953e-001
         - -6.0464226623258199e-001
         - -5.7753340261353747e-001
         - 4.2389214721054652e-001
         - -8.4099032954386976e-001
         - -6.9274469731958499e-001
         - -6.6958785403318493e-003
         - -3.2646733955430252e-001
         - 3.3343213239357367e-001
         - -8.9432337182547325e-002
         - -3.3232799571827459e-001
         - -4.8070859066834393e-001
         - -6.5692688529032628e-001
         - 5.0084023500013974e-001
         - 1.3623529686906264e+000
         - 3.8320549006694143e-001
         - -1.0477978134342387e+000
         - 3.6271531986923605e-001
         - -1.4759674232669491e+000
         - 9.0953573575003749e-002
         - -2.2261551707895619e-001
         - -2.1893368118185264e-002
         - 3.9870375425830362e-001
         - 4.5517005054187826e-001
         - 2.6593002592020959e-001
         - 7.0078443648503030e-001
         - 1.6260560580543641e-002
         - -1.0980550054769889e-001
         - -9.8542632597037882e-002
         - -2.8279646357186888e-001
         - -8.8177983286260919e-001
         - 1.8395052906285481e-001
         - 6.9233299881636921e-003
         - 8.3924016071557994e-001
         - 4.3687717241271393e-002
         - 2.8654179262376339e-001
         - 5.6043317236568857e-001
         - 3.1991986817056184e-001
         - -4.2238212763571065e-001
         - -7.9804169307147144e-001
         - -1.7175443875407634e-001
         - -1.9088718935888125e-003
         - 5.7720100590539003e-001
         - -5.2832475669455725e-001
         - 3.3990527490350253e-001
         - -2.5365397144220386e-001
         - 2.5281678286235071e-001
         - 5.4373828897804448e-002
         - -2.5123246561041218e-003
         - -1.0046214391781243e-001
         - -2.6384276379856869e-001
         - 6.9378593865298255e-001
         - 1.4283080662287953e-001
         - -5.9918933290708444e-002
         - -1.7829561717326689e-001
         - -6.9972984536072858e-001
         - 8.5309152965949098e-001
         - 6.1771663151412504e-001
         - 1.4762687293230767e-001
         - 3.7494185956724990e-002
         - 9.9669860760572965e-002
         - 2.4120659278050982e-001
         - 4.0467920497249357e-002
         - 3.7474641555799260e-001
         - -2.9216381623419080e-001
         - -2.4827593124906747e-001
         - 2.4014117119638684e-001
         - -7.9540824248910258e-001
         - 2.3742364860342913e-001
         - -1.6487443876285393e-001
         - -1.7761055911676074e-001
         - 1.3605386846998055e+000
         - 4.7163033863037374e-001
         - -2.5587375911094479e-001
         - -4.3285912676073575e-002
         - 2.9932596654113536e-001
         - -3.6934914876630159e-001
         - 5.4934269721514528e-001
         - 1.7366404398289625e-001
         - -1.2795245394574684e-001
         - 4.1498202419155850e-001
         - -5.6195619102456107e-001
         - 3.3359540533588605e-001
         - -1.0473671642802291e+000
         - 2.4310941591637261e-001
         - 6.1628981080768841e-001
         - -8.1926308614815369e-001
         - -1.3946319265453769e-001
         - -7.4995301726578167e-001
         - 2.5334109879927297e-001
         - 3.5011698819904891e-001
         - -8.5712639298349014e-001
         - -5.6475227771928926e-001
         - -4.4586793193532764e-001
         - 2.9486807854226532e-001
         - -4.7474268676204384e-001
         - 1.0812491565012086e+000
         - -5.9524793619178407e-001
         - -3.1970133851468657e-001
         - 1.7694074807287233e-001
         - 1.0632710530368761e+000
         - -3.3542327041591730e-001
         - 3.7237375871470080e-001
         - -8.0993259097318249e-001
         - -3.0575439798378783e-002
         - 4.3054181095225248e-002
         - -7.2761485784026736e-001
         - -9.6041735974276976e-001
         - 2.4588148112642275e-001
         - 1.0056880203983514e+000
         - 8.0453459434703523e-001
         - -2.8256438140564333e-001
         - -9.5370566004782409e-001
         - 2.7875069299097310e-001
         - -8.1329976883213562e-001
         - 2.3137617013654240e-002
         - 7.8373021157107550e-002
         - 6.8058700753792123e-001
         - 9.7948212174198623e-001
         - 4.8112857975611606e-001
         - 1.7823645752922218e-001
         - 7.8090637076051117e-001
         - 3.2304310401583752e-001
         - 2.0035666707205060e-001
         - -4.4904298181729890e-001
         - -2.5947365113240978e-001
         - -3.3592285746763911e-001
         - 1.7260247033036166e-001
         - 5.1800200227310800e-001
         - 5.9275412554373652e-001
         - -1.2192947209630400e+000
         - -2.8348916416384468e-001
         - 3.5999393089319848e-001
         - -2.6452807871415512e-001
         - -6.3408735210281353e-001
         - -5.3701047725173234e-001
         - 2.4408755488124583e-002
         - -6.4750858020102076e-001
         - 1.9695784272363612e-001
         - 9.1556345617699808e-001
         - 6.5954436398411886e-001
         - -2.9482964347192198e-001
         - 5.4400757267125288e-001
         - -1.8265491097922143e-001
         - 4.1674701577936490e-001
         - -8.0143433984795426e-002
         - -6.7749571120011864e-001
         - -5.5599578419338380e-001
         - -1.7240218287376405e-001
         - -3.8609348826053491e-002
         - -2.1081177841190257e-001
         - -6.0577470517161192e-001
         - 1.0030951681482374e+000
         - 9.3538295002136215e-002
         - 2.2993536434101475e-001
         - -2.4227272653732457e-001
         - -3.5799796815670409e-001
         - 9.5470251891968713e-002
         - 2.3678099262095817e-001
         - 1.0308995124049274e-001
         - -1.4668120544446994e-001
         - -2.3117523438286355e-001
         - 2.4180260908373452e-001
         - -3.7219310752137991e-001
         - 8.1760785804484370e-001
         - -4.1895168443730435e-001
         - -1.3284883154186159e-002
         - 6.9947149131383313e-001
         - 4.3775921723812111e-001
         - -4.8324886725288785e-001
         - -3.0547668318364501e-001
         - -2.9354996604124571e-002
         - -1.5223496284826352e-001
         - 1.2765234869799605e-001
         - 1.2599694503145378e-001
         - -9.2523241101383846e-001
         - 3.3632356330766200e-001
         - -7.8280682972522786e-001
         - -3.6859380215792920e-001
         - 1.2046931358062776e+000
         - -6.0209291577737112e-001
         - 6.3795087534797656e-001
         - -5.1115194359984212e-002
         - 7.8654816366062336e-002
         - -1.7477278384734614e+000
         - 3.3754750738101980e-001
         - 4.0527197560859807e-001
         - -3.7613201408691904e-001
         - -4.8242658043975534e-001
         - 2.6900510087686635e-001
         - -1.9205562963097766e-001
         - -5.8031981559942658e-001
         - 2.1862796787804203e-001
         - -5.5238615601422536e-001
         - -2.7113852925921372e-001
         - 8.7781582431962407e-002
         - 1.1218058911287931e-001
         - -7.3324539491122265e-001
         - -2.6080813894906164e-002
         - -5.7236544421613966e-001
         - -2.9743219324603798e-001
         - 1.9127884007424545e-001
         - -3.4639989794293197e-001
         - -9.8129597406794902e-002
         - 9.9064823264862045e-001
         - 1.3288617983284026e+000
         - 9.9887615735408219e-001
         - 2.4829179102444929e-001
         - 3.2235341038124415e-001
         - 8.2924163141076845e-001
         - -1.8300838617276396e-002
         - 4.1869402580840515e-001
         - 4.9252487463430700e-001
         - 9.1359048861976910e-001
         - -1.0311536959600951e+000
         - -1.7587369700723346e-001
         - -5.4722215534156526e-001
         - 1.8007132636279513e-001
         - 2.8966805317168987e-001
         - 4.6380513606907647e-001
         - -6.0560368649460394e-001
         - 2.6848122370205857e-001
         - 5.8076064027478613e-001
         - 3.6573582095516693e-001
         - 8.5593659426114077e-001
         - -1.0329387108221773e+000
         - -4.8833002732716990e-001
         - -1.9789224900508662e-001
         - -2.3452573974304530e-001
         - -5.5847472569398338e-001
         - -9.8782306239393891e-001
         - -2.7001640196974801e-002
         - -5.0705568346414528e-002
         - -6.8249616284638159e-002
         - 1.2969660604968558e+000
         - 7.9720231441032141e-001
         - 6.6713839464474539e-002
         - -7.8158466433336862e-003
         - -1.0454356465540550e-001
         - 6.8966608510572291e-002
         - -2.8941125230213477e-001
         - 3.0931711546495644e-001
         - -5.1219006673291356e-001
         - -2.0838984862199872e-001
         - 9.0543029457338484e-002
         - -6.2116751539740012e-001
         - 7.7965096176545234e-001
         - -6.8957573330735364e-002
         - 6.3924680033848114e-001
         - 7.2360451959555627e-001
         - -2.8721710015296975e-001
         - -5.8863296149201716e-001
         - 5.2417866205248898e-001
         - 2.6241708152220350e-001
         - -4.8820682848137661e-003
         - -6.3671355288355302e-001
         - -5.2265170298590369e-001
         - -7.8716922552431012e-001
         - -3.6747285125789447e-001
         - 3.9155938224939713e-001
         - -6.0313843549466195e-001
         - -1.3276314396334155e-001
         - -4.2993751545367564e-001
         - 3.7163417724572045e-002
         - 6.4407276990431983e-001
         - -1.7518067380600608e-001
         - -1.2959063642074331e+000
         - 2.8463065745578797e-001
         - 7.8648280262811021e-001
         - -7.1469943939224745e-001
         - -9.1792104799332808e-002
         - -3.6306577353269914e-001
         - 4.2662840875606955e-001
         - -6.8222858633117822e-001
         - -1.1094503121643673e+000
         - 1.7229698028681337e+000
         - -6.3983003678286454e-001
         - 6.3167047590209779e-001
         - 5.3506903358676772e-001
         - 4.1143860269691890e-001
         - -1.6643281113889183e+000
         - 1.2343138982364804e-001
         - -8.1676822832994800e-001
         - 6.4586106178731606e-001
         - -6.4657040713083802e-001
         - 3.0335763824882539e-002
         - -3.6674608132769704e-001
         - 7.9003286371611436e-001
         - -1.8782690515431377e-001
         - -4.2678348264437610e-001
         - -3.8749279149491095e-001
         - -2.3769855255993261e-001
         - 5.0031876369036429e-002
         - -4.5779501671679623e-001
         - 5.5523923247331675e-001
         - -1.1782504768324996e-001
         - -9.1703346874247516e-001
         - 8.6268230116054856e-001
         - 4.2266217516281129e-001
         - 9.5435556315227343e-001
         - 2.1991539783735758e-001
         - -6.9878203627134805e-001
         - 3.2556945339922788e-001
         - -8.3871389435159094e-002
         - -6.6103464637483189e-001
         - 2.5975865920104846e-001
         - 1.8942515273205349e-001
         - 1.6456156144689912e-001
         - 1.1608006957553483e+000
         - -2.1581615013562236e-001
         - -1.7259647525720251e-001
         - -2.4660576441734897e-001
         - -3.3966930742793838e-001
         - 4.4079315328299196e-001
         - 4.2813742158891811e-002
         - 6.3807683046606345e-001
         - -4.7122095949320514e-001
         - -4.2443461526553490e-002
         - -3.7219259980753649e-001
         - 6.5978096014455057e-001
         - 2.2836036136309218e-001
         - -2.8109814170238079e-001
         - -5.0711822427517173e-001
         - -2.5982748089230223e-001
         - 5.4117665432883025e-003
         - -8.2857670504839676e-001
         - 1.0384443535833870e-001
         - 2.6285563135302364e-001
         - -9.2739470519835765e-001
         - 6.8394056080805052e-002
         - 2.2656365021432492e-002
         - -9.5512516088579469e-001
         - 6.0425403158152632e-002
         - -4.3288845315951086e-001
         - -1.0655731836188218e-003
         - 1.8944755920735604e-001
         - 7.3337767175920596e-002
         - -2.8241860176271999e-001
         - -7.3656075620573658e-001
         - -3.3429849945887696e-001
         - -6.3587178528319088e-001
         - -1.7586397782324378e-001
         - 1.0434078996485556e+000
         - -2.5628484006674379e-001
         - 6.0981060159081013e-001
         - -1.5047219920157984e-001
         - 2.7063354160026837e-001
         - 1.1075900134340390e-001
         - -2.6093569993056548e-001
         - -4.1618656347625110e-001
         - 9.6112231697030837e-001
         - 7.0406273405957309e-001
         - -7.1463792669581372e-001
         - -3.5066936696156992e-001
         - -6.0535338788792548e-001
         - 1.6330645942247288e-001
         - -1.8364938335181913e-001
         - 4.1637399305905393e-001
         - -9.6725362748766905e-002
         - -4.4113352339865092e-001
         - 9.1604833910713238e-002
         - -8.3643285872375545e-002
         - -5.8758818030844351e-001
         - -9.0479513125216748e-001
         - 1.3291984172832055e-001
         - -2.2740702835520268e-001
         - -7.9123334651167854e-001
         - -1.6734812295140072e-001
         - -6.9169846275421859e-002
         - 5.5890440201542879e-002
         - 1.4448907457356255e-001
         - 8.6308051745388426e-001
         - 2.6972898359401515e-001
         - 4.5175780189006848e-001
         - -3.0178366346599661e-001
         - 7.8013558772070291e-001
         - 1.5393718662854698e+000
         - 5.7905755283549287e-001
         - -6.1578953933627195e-002
         - 1.1946224176535059e+000
         - -5.7569897277804871e-001
         - 7.4148172912718909e-003
         - -4.1574694823288644e-001
         - 1.1230850454649466e+000
         - -8.5056090487120606e-001
         - 5.2990569561212914e-003
         - -5.4117230492244961e-001
         - 2.6662288102482967e-001
         - -1.0341891789337507e+000
         - -7.1688060579579094e-001
         - 2.4467614702172377e-001
         - -1.4148678428956865e-001
         - -1.6594205138617574e-001
         - 6.1688936440653275e-001
         - 2.4657750309133805e-001
         - 4.9641480409143490e-001
         - -1.1222777864865368e+000
         - -1.2947066212871963e+000
         - 5.9802695310755349e-001
         - -1.6403391585636426e-001
         - -5.1585252639707702e-001
         - 4.4871382161822643e-001
         - -4.1555213797974966e-001
         - -5.7784395962831342e-004
         - -6.7168582259423026e-001
         - -8.5489941411608061e-001
         - -4.1256417665097095e-001
         - 6.7674293605197733e-001
         - 6.8092534970135821e-001
         - 4.4514840513353210e-001
         - -5.6452354396552595e-001
         - 2.2454268874744104e-001
         - -4.1285259344445424e-001
         - -1.6248683025728686e-002
         - 4.1598737806350927e-001
         - 7.7839395467555450e-001
         - -2.3368119519507156e-002
         - 1.4484152648361337e-001
         - 1.6720904764846420e-001
         - 1.6348149892562761e-001
         - 2.2963591157844726e-001
         - 3.3000769737820235e-001
         - 2.9047869158743916e-001
         - 3.7498985950317143e-001
         - -7.0032800531869044e-001
         - 3.7316805281228194e-001
         - 8.6529401649184201e-001
         - -1.9118989304069314e+000
         - -1.7820575641324701e-001
         - -2.0975747823284321e-001
         - -1.4289240265525932e-001
         - 5.6993099385401613e-001
         - 8.1553419389092927e-002
         - -1.1799980692777648e-001
         - -5.9211908931780322e-001
         - 1.4539097807907853e-001
         - -2.3110217847144926e-001
         - 2.5161025924125811e-002
         - -2.6447729946788245e-001
         - -1.4943588780007680e-001
         - 3.1870154642174625e-001
         - 9.8529360878933259e-001
         - 7.6365295237991196e-002
         - 1.1779350329754816e+000
         - -1.3479160252062367e-001
         - 4.2300402695893624e-001
         - 3.7473282340273750e-001
         - 4.4534633776018201e-001
         - -3.0736128608221919e-001
         - 1.0862333563810679e-001
         - -5.5760444223970584e-001
         - -7.8789642380232205e-001
         - -2.1957557708749972e-001
         - -3.0724330985331239e-001
         - -3.2818969998742714e-001
         - 6.5421930668514883e-001
         - -1.2588250164465531e-001
         - -1.5849559572054669e-001
         - -2.9644886821526321e-002
         - -1.0092969950743584e+000
         - -1.9577090088408456e-002
         - -5.7147827728828748e-001
         - -4.4252678287925151e-001
         - -6.6777610533883414e-001
         - 5.0163266645429927e-001
         - 6.9702331439742726e-001
         - 5.1504870754272858e-001
         - -2.3267338448692709e+000
         - -1.9835674736710912e-002
         - 3.6764787928329329e-001
         - -7.7915478840238561e-001
         - 3.5419027314297323e-002
         - 8.4532886093420545e-001
         - -1.0336784871806921e-001
         - -3.4705372260944900e-001
         - -5.8974911784133832e-002
         - -3.0743163879665425e-001
         - 2.4660243997550407e-001
         - -2.9266153325354022e-001
         - 2.8315817938325000e-001
         - 5.6321030343063039e-001
         - 6.0643952572163297e-002
         - -3.0855850620593128e-001
         - 3.4512121663559786e-001
         - -4.4851705588371267e-002
         - -7.9324556444085959e-001
         - 5.3635456789607894e-001
         - 2.0118742871815996e-002
         - 8.7357348190695094e-001
         - 3.3135895567259360e-001
         - -2.1165656211204156e-001
         - -4.8138891814645002e-001
         - 3.5294524062393878e-001
         - 1.8425207501189738e+000
         - 9.4107807510748565e-001
         - 6.6829051653671118e-002
         - -3.2569915470400806e-002
         - 6.5742121825342870e-001
         - -2.4689203791945788e-001
         - 2.7189043836642746e-001
         - 6.2223252102003246e-001
         - 3.3085637924164968e-001
         - -3.2638634860101812e-001
         - -1.6145923427122477e-001
         - -1.8498047657498243e-001
         - 5.4567846402630493e-001
         - 1.1393819884166263e-001
         - 1.2730361682890536e+000
         - -3.1052220454897178e-001
         - 3.4514866364404873e-001
         - 9.2377912275666219e-001
         - 3.7605744391925899e-001
         - 1.1269288129843791e+000
         - -3.9181139898377604e-001
         - 3.5514015291475104e-001
         - -5.8152487094142946e-002
         - 1.0000970160373836e-001
         - -8.2066040910562010e-001
         - 2.6440186350590694e-001
         - -1.8516715162292668e-001
         - 5.5182245013424690e-002
         - 3.9602014495084159e-001
         - 8.9148358619188006e-001
         - 9.7721583685711100e-001
         - 3.5076876194220791e-001
         - -5.4872687257338504e-001
         - 2.4677772737384265e-001
         - 6.7397996542150584e-001
         - -2.1164991564215166e-001
         - 6.6765114916609081e-001
         - -2.3752096363750314e-001
         - -3.1529875981274091e-001
         - -1.7414377564889663e-001
         - -9.8835243297363340e-001
         - 4.3357699283545909e-001
         - 2.3883505682971951e-001
         - 3.7400598986449912e-001
         - 7.2688466798021412e-001
         - -2.1314578493953831e-001
         - -8.8450469766221129e-001
         - 1.9585934812061379e-001
         - -5.3403508550040735e-001
         - -5.9733082093890472e-002
         - -6.8757349085790420e-001
         - 1.4587286487946088e-002
         - -1.1282947067902647e+000
         - -4.1372589193346959e-001
         - 8.1222166471937818e-001
         - 5.2959260519426801e-002
         - -6.6022615345649030e-002
         - -3.2619176396949434e-001
         - -4.9556703589573570e-001
         - 1.0015474503679718e-001
         - -3.4105961697788656e-001
         - -7.9895296943811001e-001
         - -4.8927661945664852e-001
         - 1.3251601685726064e+000
         - -2.3665866158370888e-001
         - -2.3976167575109342e-002
         - 1.4245746129112719e-001
         - -2.9359774074705824e-001
         - -7.8185758451025447e-002
         - -9.0656605666971324e-001
         - 1.6716270604630963e+000
         - -8.4154648466229076e-001
         - 5.6501812861286704e-001
         - 3.2282253822296142e-001
         - 6.7081937246668555e-001
         - -1.6094366330045513e+000
         - -1.2737398944429451e-001
         - -5.2924676591886333e-001
         - -1.1440056966003506e-001
         - -3.3178949094225568e-001
         - -3.4057453501642333e-002
         - -1.9171174556273624e-001
         - 7.4737350812168368e-001
         - -2.8865585798103016e-001
         - -4.7243915945151710e-001
         - -3.5926009455598618e-001
         - -3.3813859931522322e-001
         - -3.5747115349824882e-001
         - -2.5739340464997729e-001
         - -1.9968438897935020e-002
         - -1.5199945277489808e-002
         - -1.4765637248372032e-001
         - 1.3562142366861540e-001
         - -8.7930627179317739e-002
         - -1.4808788545250109e+000
         - 4.2433635877127474e-001
         - 2.0509757448180674e+000
         - 5.3031954932614100e-001
         - 6.4685702237465267e-002
         - -2.5505186964210075e-001
         - 5.5828297646488578e-001
         - -4.9798060971218855e-001
         - 2.3845330695414182e-001
         - 4.0196328167388079e-001
         - 5.1955533964516987e-001
         - 9.8229462458556188e-005
         - 1.0101720124430220e-001
         - 5.4666286873321668e-001
         - 5.5441231426190052e-001
         - 2.2185356432290568e-001
         - 4.7553238822581734e-001
         - -4.6887410195661346e-002
         - -6.6203179787182806e-002
         - -3.0401017014871040e-001
         - 4.9512289651926045e-001
         - 8.0017398220857550e-001
         - 3.5583625059841928e-001
         - -3.5012820727464938e-001
         - -6.9126322756231395e-001
         - -1.2675644460943217e-001
         - 3.1027956306318293e-002
         - 2.5962055028689446e-001
         - -9.4417619732357372e-001
         - 3.4921383584651972e-001
         - -4.7152257442064405e-001
         - 3.9079587074707856e-001
         - 5.2439470059999727e-001
         - 4.4088604642975432e-001
         - -6.3672380885654786e-002
         - 4.5377103373933753e-001
         - 5.5684817069880288e-001
         - -1.4077067729742281e-002
         - 1.8486518737478991e-001
         - -5.5874062736067598e-001
         - -1.5398709794514384e-001
         - -3.5001610626900032e-001
         - 8.7332292357836891e-002
         - -9.4930610425434853e-002
         - 1.9269117432118374e-001
         - -2.2346330165228584e-001
         - -1.1081798406644254e-001
         - 2.4847971377054143e-001
         - -4.4803135703403579e-002
         - -2.7866973867243561e-001
         - -3.6511555816748897e-001
         - -6.4698712938234232e-002
         - -5.0875289092137448e-002
         - -2.9129669224092064e-001
         - -7.3931168166141470e-001
         - 1.5418659152557454e-001
         - -3.6270962325095474e-001
         - 4.4774835803027463e-001
         - -3.7489284431437236e-001
         - -1.7210293975652488e-001
         - 8.4473740346392212e-002
         - 3.7799496048507802e-001
         - -2.7002444771688944e-001
         - -1.0717070570558289e+000
         - 1.2874212932539109e-001
         - 7.8220711806670826e-002
         - 3.3524102175943309e-002
         - -3.4500653645660656e-001
         - 1.8840336248215811e-001
         - -4.3680773601009648e-001
         - -6.5482188890140647e-001
         - -2.2622123870810609e-001
         - 4.5813791108021384e-001
         - 7.2425745933165489e-002
         - 1.9108561444728570e-001
         - 5.0902639274609675e-002
         - 3.0692538578039880e-001
         - -1.1741971126147188e+000
         - 4.4920024262190200e-001
         - 7.2960471768192037e-001
         - -3.4546626872462483e-001
         - -4.0277898130166662e-001
         - -1.2473037284356792e-001
         - 3.1924352514322529e-001
         - -3.2028831254479628e-001
         - 3.6274766627891275e-001
         - -4.9466152394646745e-001
         - -5.6742129458594588e-002
         - 2.2382604546531654e-001
         - 3.7985277370675957e-001
         - -3.4802874531735258e-002
         - -2.4441780364129770e-001
         - -6.4875112536143520e-001
         - -9.8173191530872506e-002
         - 1.9421838751109317e-002
         - -6.8319717228462662e-001
         - -1.0297164858490753e+000
         - -1.2155084354476346e+000
         - 3.2045376008117699e-001
         - -5.3049435945683697e-002
         - 2.4669804010731866e-001
         - -4.8450098108159217e-001
         - 4.8782719836426530e-001
         - -6.2123111400687470e-001
         - 2.9618132436328815e-001
         - -5.5806671871591529e-001
         - -1.9174100831071708e-001
         - -2.3546317221822552e-001
         - 5.0224037422171386e-001
         - 1.0396960581143089e+000
         - 8.8890827110278847e-001
         - 1.3739857444584344e-001
         - 2.5809187317049015e-001
         - -5.7445646948701815e-002
         - 1.3949440394034819e-002
         - -5.9670412751699931e-001
         - 1.0421374411547157e+000
         - 7.9682364910937609e-001
         - 2.8677064924231893e-001
         - 2.6134263588462958e-001
         - 2.9716163542067719e-001
         - -7.1616833784278244e-002
         - -1.5673172649654293e-001
         - 6.6332647397533540e-001
         - -9.1360760399876129e-001
         - 7.5666226600695455e-002
         - -6.7848889415893543e-001
         - 5.1781277110894053e-001
         - -7.2425223855712886e-002
         - 3.3579724213310225e-001
         - -3.3579211178244633e-001
         - 3.3594674361326177e-001
         - 8.6580953498797120e-001
         - -3.0454057583538058e-001
         - 2.7101584988039829e-001
         - -7.5523278977461994e-001
         - 1.8404722517824165e-001
         - -6.9117968415996667e-001
         - 7.9886725928160318e-001
         - -1.1584798992471534e+000
         - 1.6560094782853985e-001
         - -1.3328032638164344e-001
         - 4.2848793517634937e-001
         - 1.3835661907869709e-001
         - -1.8928921330896634e-001
         - -5.3822971786417062e-001
         - 1.5299026548698805e-001
         - 1.6234458061204010e-001
         - 7.3333371952577486e-001
         - -2.4406459128258126e-001
         - -2.9414110875484306e-001
         - -1.6594200180293597e-001
         - -9.3591428809817512e-001
         - 5.1320618015090269e-001
         - -1.4721387861285706e-001
         - -5.1728550331299750e-001
         - 6.3993950134650424e-001
         - 2.3318199093132230e-003
         - -3.5140181836463313e-001
         - -5.3397609913588051e-001
         - -3.0088592921179691e-001
         - -5.0026787462827571e-001
         - 1.4702182048833357e-001
         - 5.3243638065300407e-002
         - 2.5300980310618892e-001
         - 3.7417921185677321e-002
         - -4.5643347290341535e-001
         - 2.5912319217463414e-001
         - -9.1491815299999046e-001
         - 8.5497584711953123e-001
         - 1.2038205396540234e-001
         - -3.4743921732430738e-001
         - -2.8615859163606933e-001
         - -8.5245786924440325e-001
         - -9.0048367449978212e-002
         - 3.8816089947647309e-001
         - -1.0749665077704049e+000
         - -3.7389059188136603e-001
         - -2.4190487963786983e-001
         - -5.3562676518262792e-003
         - -3.6857467963723811e-001
         - 9.6451989512273628e-001
         - -2.1737892283914040e-001
         - 3.1645944882258636e-002
         - 3.8790101243804120e-001
         - 4.9744089921706380e-001
         - 4.3013393171552133e-001
         - -4.1952551051409137e-001
         - -4.6947306998806421e-001
         - 4.1450948069298182e-001
         - -2.0125172105144604e-001
         - -1.1735850413323055e+000
         - 4.2258734516670976e-001
         - -1.1452015189722173e+000
         - 3.2553662172808340e-001
         - 6.2495902661466096e-001
         - 1.4555427245319422e-001
         - -3.8025895472105348e-001
         - 1.9560541039799623e-001
         - 7.0647804796659525e-002
         - -1.2644263924615312e-001
         - -1.5414404110770292e-002
         - -2.2355528165506902e-001
         - -8.6626719158255905e-001
         - 1.5486747681329098e+000
         - 8.8126361432065647e-001
         - 7.3101877091745704e-001
         - -3.4356032134161035e-001
         - -3.1639931956571371e-001
         - -1.8747480291379161e-002
         - -5.4875623360908191e-004
         - 4.8225215295807790e-002
         - 1.2330086149198545e+000
         - 8.5665975253738991e-001
         - 4.7634305242710717e-001
         - 6.9595995945997347e-001
         - 5.9418583458814966e-001
         - -4.5553198435346964e-001
         - -5.7857415558879588e-001
         - 8.2647652409339334e-001
         - 1.6363605987690361e-001
         - 1.2108929852688241e-001
         - -8.5343122577307040e-001
         - -8.1294980966200814e-001
         - -9.1158447871096782e-001
         - 6.4887097563549823e-001
         - -1.1392332739777314e-001
         - 1.3779354003877121e-002
         - -1.7222428692653027e-001
         - -1.3577117343347669e-002
         - -1.5480714257973363e-002
         - -1.2814358214589885e-002
         - 5.4042470054627076e-002
         - 9.3027268384423517e-002
         - 1.7617678067042802e-001
         - -1.9718538080870707e-001
         - 1.1961002038906499e+000
         - 2.9524353596542519e-001
         - 4.3051617655354202e-001
         - 5.2589665468097596e-002
         - -1.9344589711380777e-001
         - -7.4759928088404581e-001
         - 3.1589663489702449e-002
         - 3.1244564656114798e-001
         - -3.5079215183680706e-001
         - -7.4716730517343677e-002
         - 3.9178928645372751e-001
         - -4.9534069802515518e-001
         - -3.3316786710065138e-001
         - 4.7290942664790220e-001
         - -2.4612734110913392e-001
         - -3.6961728290183255e-003
         - 1.8719148945282613e-001
         - -6.0867760113561967e-003
         - -1.9840050776399121e-001
         - 2.9369091477338560e-001
         - -4.6036771865003656e-001
         - 2.5807451468379206e-001
         - -2.3459064268288560e-001
         - 3.8918271923363099e-002
         - 1.2232376855047635e+000
         - 3.0429624484608164e-001
         - -7.8411313294197005e-001
         - -1.4036387461551500e-001
         - -6.2631464012131632e-001
         - 5.9413503549668600e-001
         - -3.6967370562248070e-001
         - -2.4851073808321678e-001
         - 7.4440717374539306e-002
         - 1.6146337026258488e+000
         - 5.0470821564426976e-002
         - 9.3508877635758686e-002
         - -4.0264013581334640e-001
         - -1.0427226611320830e+000
         - -2.3848804945779045e-001
         - -3.4697200386578986e-001
         - 5.5258922597852356e-001
         - 1.5352488619185762e+000
         - 1.9256745968379191e-001
         - -3.8153925382901099e-001
         - 7.6976230352438824e-001
         - -3.9438951535814137e-001
         - 1.0945749325411816e-001
         - -1.5599770511247754e-001
         - -4.3632485128226955e-001
         - 6.7847857083888585e-001
         - -3.8499214304405499e-001
         - -1.0858806011138809e+000
         - 6.1416702756194297e-001
         - -8.3777167763415716e-001
         - -7.2055599839274020e-001
         - 3.8215929111779912e-001
         - -5.4484865024691562e-002
         - -1.1169899132470750e-002
         - 6.5998012036296183e-001
         - -8.2761093964033843e-003
         - 2.6540159144239978e-001
         - 1.9606300906074492e-001
         - -7.2573271645139534e-002
         - -5.1994221640845650e-001
         - 9.7689445989711066e-001
         - 8.1042595694554198e-001
         - 3.2238342036101608e-001
         - 4.4076523883444726e-002
         - 3.7955727979427711e-001
         - -3.9186334646457771e-001
         - 2.8702622451730353e-001
         - -2.4730018793261113e-001
         - 1.0869016761852168e+000
         - 7.3705849166392212e-001
         - -2.4710122404768065e-001
         - 5.7149908698489427e-001
         - 6.5637763483577560e-001
         - 2.0831184960320576e-001
         - -3.8150462810406238e-001
         - 8.7153773553017500e-001
         - 3.8382273016236718e-001
         - 5.9883755882660698e-002
         - -7.9102524721607587e-002
         - 1.6310493820263947e-001
         - -9.7756577220955299e-001
         - 3.3911628835743363e-001
         - -3.3401103467034912e-002
         - 3.5412814124697478e-001
         - 5.2114702106618982e-001
         - -3.6667368107951992e-001
         - -5.9357286866941403e-002
         - -5.2495536674437560e-001
         - 5.0436020156809214e-001
         - 3.4495234382630247e-002
         - 5.2387663723814382e-001
         - -2.1061638483754346e-002
         - 9.3957459082198158e-001
         - -6.4338109955408707e-001
         - 1.4161796097733323e-001
         - -1.9291784507322396e-001
         - 4.5835251368426877e-001
         - -5.0103651714455377e-001
         - 9.9824359797495946e-002
         - -5.6289582434064192e-002
         - -5.4442464134608903e-001
         - -2.7172328381590560e-001
         - -9.8079752317632163e-002
         - -6.8391689087082830e-001
         - -2.1806242181372695e-001
         - -1.5199899716956017e-001
         - -4.6485424549907012e-001
         - -6.3881939428701753e-002
         - 3.7742507940311348e-001
         - -9.8202795304789245e-002
         - -1.2755011950909248e-001
         - -2.1111134774484047e-001
         - -6.1907139591573535e-001
         - 3.1098212534232045e-001
         - -5.5399694796662147e-001
         - -6.6533750074868148e-001
         - 2.9225423398122574e-001
         - -9.4759494297798341e-002
         - -2.3517841399705874e-001
         - 4.1299873344185567e-001
         - -2.0039288781382640e+000
         - 4.4478580168480675e-001
         - -2.8726392590354710e-001
         - -5.6202132474872679e-001
         - 5.6970846110023077e-001
         - 1.0396242726262546e+000
         - -9.5614316709686405e-003
         - 2.0090798741706682e-004
         - 4.0143417568030937e-001
         - -7.5298294009817368e-001
         - -2.5190054491530728e-001
         - -4.6263452176899095e-001
         - 3.7606940464924338e-001
         - 3.4954572907512821e-001
         - 2.5302967141815441e-001
         - -1.9693871751218006e-001
         - 2.7758025029869487e-001
         - 2.1001556084029815e-001
         - 2.9996474813785962e-001
         - -4.6536679881045068e-001
         - -6.6409444308559451e-001
         - 4.6833657818383057e-001
         - 6.3452629938743885e-002
         - -3.3202437406994006e-001
         - 2.9566758883219185e-001
         - 7.5403947069398247e-001
         - 8.5659180980880226e-003
         - 7.6951743707682929e-001
         - 4.0773971574605050e-001
         - 1.7555909282172589e-002
         - 2.8574499022496785e-001
         - 6.2879553370325036e-001
         - 1.9832007323305328e-001
         - 1.3491306793299673e+000
         - 3.0863923737680754e-001
         - -5.7765726611818757e-001
         - 1.9513599939439466e-001
         - -3.5386686448026794e-001
         - 2.8674116720888415e-001
         - 1.6401875913706265e-001
         - 1.4036371851914824e+000
         - -1.8256207669630561e-001
         - 8.0486674123150345e-002
         - -1.3977397732505034e-001
         - 4.2182142465796668e-001
         - 8.1951615662306077e-001
         - -1.8167695106122650e-001
         - -1.9308338039055978e-001
         - -4.0517703304113151e-001
         - 2.1536589787669719e-001
         - -1.0332115758467149e+000
         - 9.0491644462947152e-001
         - -1.5559101514233672e-001
         - -3.1287469621511971e-001
         - -2.1627058440173377e-001
         - -1.4444145990623297e-001
         - -3.0382578946427113e-001
         - 3.7539868887594124e-001
         - -2.6937165282569359e-001
         - 3.2510315535947565e-001
         - 7.1149447094822527e-001
         - -5.7762555715818742e-001
         - -5.2765485728748250e-002
         - -7.7147135125475386e-001
         - -4.5517160371011195e-001
         - -1.5214460950166175e-001
         - 6.6704276647365071e-002
         - 3.6839035803118203e-001
         - 4.4451035459211169e-001
         - -3.9429621574130258e-001
         - -6.1008553946563582e-001
         - -5.8433645679513639e-002
         - -1.8010506685114808e-001
         - -3.3918844122533831e-001
         - -3.2705344490957960e-001
         - 2.6034113236067963e-001
         - -1.1493568720363194e-001
         - -2.6184414985239773e-001
         - -6.7491075653728005e-001
         - -4.5551899925007888e-001
         - 6.7321744636943515e-001
         - -2.0848208750943253e-001
         - 7.6100011138410745e-003
         - 6.7915890846708085e-002
         - -5.0830209914277713e-001
         - 2.4187117216954468e-001
         - -1.7604497572646757e-001
         - -6.5516484948309950e-001
         - -3.2039940400170169e-001
         - 8.3353640814601626e-001
         - -2.5364108699557852e-001
         - -9.4086530254273093e-001
         - 1.4352002446864323e-001
         - -3.0963798184786401e-001
         - -2.0994083939038011e-001
         - -8.8107359441590080e-002
         - 3.9218003454957878e-002
         - -2.4721571450867490e-002
         - -5.3506210846973490e-002
         - -4.5726886328383218e-002
         - 8.5670836234468761e-001
         - 1.2769720861515610e+000
         - 4.8556312671616510e-002
         - 7.3429492174174438e-001
         - 8.9843034326780102e-001
         - -4.1337246713653875e-001
         - -1.9914960865897852e-001
         - 1.3601432414815281e-002
         - 7.3955815605398534e-001
         - -6.5583268012945384e-001
         - 1.6177297497253601e-001
         - -3.8300977125636637e-001
         - 1.7644508441077802e-001
         - -3.9898515711565968e-001
         - 1.3160384301230904e-001
