%YAML:1.0
opencv_ml_ann_mlp:
   format: 3
   layer_sizes: [ 48, 96, 8 ]
   activation_function: SIGMOID_SYM
   f_param1: 6.6666666666666663e-001
   f_param2: 1.7159000000000000e+000
   min_val: -9.4999999999999996e-001
   max_val: 9.4999999999999996e-001
   min_val1: -9.7999999999999998e-001
   max_val1: 9.7999999999999998e-001
   training_params:
      train_method: BACKPROP
      dw_scale: 1.0000000000000000e-003
      moment_scale: 1.0000000000000001e-001
      term_criteria:
         epsilon: 1.0000000000000000e-008
         iterations: 10000
   input_scale:
      - 1.8554524767211685e+001
      - -9.3749165886628454e+000
      - 1.8772820510838319e+001
      - -9.4736976125952115e+000
      - 2.0488207390831761e+001
      - -9.5734561686631761e+000
      - 2.2243834562582020e+001
      - -9.1678763663738909e+000
      - 2.3392016341599263e+001
      - -8.1871054007566926e+000
      - 2.2684588059933990e+001
      - -7.8891856758182701e+000
      - 2.1100331925644330e+001
      - -8.5788505735764939e+000
      - 1.8657727181007647e+001
      - -8.5572587218960994e+000
      - 1.6405734329096060e+001
      - -8.0997110962595933e+000
      - 1.5733773237645087e+001
      - -7.7543592989829904e+000
      - 1.
      - 0.
      - 6.8562223081948076e+001
      - -8.2951768751142101e+000
      - 6.7777908484258617e+001
      - -6.7742087699586140e+000
      - 6.4904842623147161e+001
      - -6.3509634442389133e+000
      - 6.4599484278212500e+001
      - -6.4470927073884203e+000
      - 6.4628030382201004e+001
      - -7.7592261704450012e+000
      - 2.1249026010806087e+001
      - -7.8690188109849490e+000
      - 2.0854209913414511e+001
      - -7.3210148072598136e+000
      - 2.1227667957601255e+001
      - -6.5383528235878137e+000
      - 2.2775115047952369e+001
      - -5.4992228646163417e+000
      - 2.3607090505647637e+001
      - -6.3266294790089876e+000
      - 2.3456940510367346e+001
      - -7.4115571914683169e+000
      - 2.0554036528084954e+001
      - -4.8464809974265144e+000
      - 1.8725693957674672e+001
      - -5.6470152139599161e+000
      - 1.8003016992419461e+001
      - -6.1732147183001063e+000
      - 1.8060484151703431e+001
      - -6.5292508302290795e+000
      - 1.9766952380752112e+001
      - -6.0957784943030253e+000
      - 2.0349871086039109e+001
      - -5.3109396584230391e+000
      - 2.7145775438072878e+001
      - -8.5822662273137311e+000
      - 3.3558523130032107e+001
      - -8.0533953777291689e+000
      - 3.4247609125710930e+001
      - -6.5002894069175143e+000
      - 3.0689138791906274e+001
      - -5.9957935617070772e+000
      - 3.2704827278242064e+001
      - -6.2269924413928415e+000
      - 3.0795217185197568e+001
      - -7.4266564972239859e+000
      - 2.5224476190154100e+001
      - -7.9809345285370750e+000
      - 1.8608299054368658e+001
      - -6.2937745516426542e+000
      - 1.5857045077088337e+001
      - -5.4975418505169351e+000
      - 1.5614425147045203e+001
      - -5.4277657622183391e+000
      - 1.5837191983777320e+001
      - -5.4836251279172767e+000
      - 1.8679749007302306e+001
      - -6.3162845502953608e+000
      - 2.7606021597502025e+001
      - -8.2955778778485172e+000
      - 2.8706129908377456e+001
      - -6.8368041923992822e+000
      - 2.7336892681796350e+001
      - -6.5185837939366804e+000
      - 2.7764981021850186e+001
      - -6.6263823677412566e+000
      - 2.5887321829785382e+001
      - -7.7799331025773384e+000
      - 1.7009602575178125e+001
      - -4.7190799385864306e+000
      - 1.6808018266790292e+001
      - -4.6920304373028143e+000
      - 1.7002851161214839e+001
      - -4.7172978878898268e+000
   output_scale:
      - 5.2631578947368418e-001
      - 4.9999999999999994e-001
      - 5.2631578947368418e-001
      - 4.9999999999999994e-001
      - 5.2631578947368418e-001
      - 4.9999999999999994e-001
      - 5.2631578947368418e-001
      - 4.9999999999999994e-001
      - 5.2631578947368418e-001
      - 4.9999999999999994e-001
      - 5.2631578947368418e-001
      - 4.9999999999999994e-001
      - 5.2631578947368418e-001
      - 4.9999999999999994e-001
      - 5.2631578947368418e-001
      - 4.9999999999999994e-001
   inv_output_scale:
      - 1.8999999999999999e+000
      - -9.4999999999999996e-001
      - 1.8999999999999999e+000
      - -9.4999999999999996e-001
      - 1.8999999999999999e+000
      - -9.4999999999999996e-001
      - 1.8999999999999999e+000
      - -9.4999999999999996e-001
      - 1.8999999999999999e+000
      - -9.4999999999999996e-001
      - 1.8999999999999999e+000
      - -9.4999999999999996e-001
      - 1.8999999999999999e+000
      - -9.4999999999999996e-001
      - 1.8999999999999999e+000
      - -9.4999999999999996e-001
   weights:
      -
         - -9.7137421378861291e-002
         - 3.7432272888700929e-001
         - 5.9081746928266773e-002
         - -6.1932501773559308e-002
         - 6.0825125511988154e-001
         - -3.6443269091042307e-001
         - 4.8354913427801416e-001
         - -4.3556094080817170e-001
         - 4.2859884220256372e-001
         - -2.9264868233273361e-001
         - -1.3527185932516463e+000
         - -2.1477333609538990e-001
         - 8.0411050940327611e-001
         - 4.1007383218238597e-001
         - -6.0165598765954342e-001
         - -6.7544105601842619e-001
         - -2.7651210433465762e-001
         - 5.2979869289216282e-002
         - 1.5592777265192675e-001
         - 1.3442545862238539e-001
         - -7.9342313000618625e-001
         - -2.6314310693696813e-001
         - -3.0499226295298704e-001
         - -6.0796428891265208e-001
         - 1.3887190310499964e-001
         - 2.2140391294293371e-001
         - -5.3310663407085102e-001
         - -7.3468192695207080e-001
         - 1.4372322663869511e-001
         - -2.6136926576359625e-002
         - 7.2347917343291912e-001
         - 1.0741988679662959e-001
         - -5.5663684276829162e-001
         - 5.9945877753818633e-001
         - 3.1808441625582155e-002
         - -1.0136928044427872e-001
         - -5.5464769274691539e-001
         - 7.6192866549504534e-001
         - -7.0510153076660698e-001
         - -5.3725757754771497e-001
         - 4.4822844719146304e-001
         - 6.6698081125434405e-001
         - 5.4321872683955341e-001
         - 1.0812400705922671e-001
         - 4.2408415397128130e-001
         - -1.4567138193315403e+000
         - -5.4749545580612222e-002
         - -2.9028539963770250e-001
         - -1.4799854952450091e+000
         - 2.0557345771813171e-001
         - 1.0378531103520761e-001
         - 1.2939405473336190e+000
         - 9.0819813623267653e-001
         - 2.4291706484556116e-001
         - -7.0546004088367442e-001
         - -4.9847504272362875e-001
         - 1.5285920098554062e+000
         - 1.4090317524832701e+000
         - -4.7286401464273214e-001
         - 4.7579722676699354e-001
         - -8.0511140898830880e-002
         - 1.3877777154298962e-001
         - -7.1580795300787620e-002
         - 3.6253986989647197e-001
         - -9.5786621074208345e-001
         - 1.0013065934532793e-001
         - -4.2486441688675719e-001
         - -6.6630605940076956e-002
         - 2.1994501473408423e-001
         - -9.8043644554566056e-001
         - -5.9933334343664924e-001
         - 1.1726062822082737e+000
         - 1.4098873941053559e-002
         - -2.9948975825634327e-001
         - 8.9378706558839449e-001
         - 2.3110847409894553e-001
         - -6.0680234664635548e-002
         - 4.6382742144836087e-001
         - 2.4765697119192792e-001
         - 1.0715632413539400e+000
         - -7.2660347836104378e-001
         - -5.9761750133342528e-001
         - 7.6123154050749736e-002
         - -5.0752324002892357e-001
         - 5.9178300027481923e-001
         - 5.6739595103087948e-001
         - -1.6380616688808597e-001
         - -2.9325450366157791e-002
         - -2.6440427910434389e-001
         - -6.8093100139699259e-001
         - -2.9900564962047754e-001
         - -1.1133734296243492e+000
         - -1.6038982613907074e-001
         - -1.8841304333098601e-003
         - 3.5856326637159802e-001
         - 2.6467740652563010e-001
         - -9.7783035511400296e-001
         - -6.9374725029445006e-001
         - 5.1412922588492294e-001
         - 1.3402912445984830e-001
         - 3.5106872723671839e-001
         - 5.6701327358024911e-001
         - 8.9644686237770766e-003
         - -1.4837995176286025e-002
         - 6.3172124844825683e-001
         - 3.3566873212940679e-001
         - -1.3047384435563186e-001
         - -5.3270009248455341e-001
         - 7.6605264709230833e-002
         - -4.0484722571299564e-002
         - -5.4653871202378468e-001
         - 2.0918445182967621e-001
         - -3.1204059787442773e-001
         - -1.0984438129313077e+000
         - -2.6817188327956631e-001
         - -1.7322881972330625e-001
         - 3.3664773404474951e-001
         - -8.2626405009814485e-001
         - 2.9844384558881332e-001
         - 4.1711339586057444e-001
         - -8.2982956203403879e-001
         - 6.0112773192649049e-001
         - 2.6009958811861794e-001
         - -4.7810138887732795e-001
         - -2.7254699593960391e-001
         - 3.3895461489289613e-001
         - 3.1511847480640454e-001
         - 1.3864567610290137e+000
         - -3.3920253064915179e-001
         - 4.1089478958555048e-001
         - 2.1680000012033387e-001
         - -7.7951074285647889e-002
         - -9.3268479899495174e-002
         - -6.8236158727093404e-002
         - -2.7032401610123422e-002
         - 3.8971594114856345e-001
         - 1.7729870500236342e-001
         - 1.1219975360891552e+000
         - -7.6888814440393236e-002
         - 1.0613868861473719e-001
         - 7.5727660852556847e-002
         - 8.0311544556932801e-001
         - 8.6678788686374764e-001
         - -5.8496138419298349e-001
         - 1.3543210543432471e-001
         - -5.6115326329605075e-001
         - -2.9831059308471036e-001
         - -7.8291979945156742e-001
         - 3.7998469191051826e-001
         - 2.7822061086154072e-002
         - 5.3629910283519100e-001
         - 5.1598701832941762e-001
         - 7.9675160814890473e-003
         - 1.7617508643957450e-001
         - 2.0160298841015733e-002
         - -7.0351484885485360e-001
         - -2.3257634906014263e-001
         - 4.0674503531483697e-001
         - 1.3159079286016986e+000
         - -3.3548546045002614e-001
         - -1.7069857819213491e-001
         - -4.9183424765144751e-001
         - 6.0817289385822326e-001
         - -8.1458532960943575e-002
         - 4.3863381042375749e-001
         - 4.3935338383329936e-001
         - 4.2773623145335760e-001
         - -2.5054006500927667e-001
         - 3.7995912782858088e-001
         - 8.5449039124499870e-001
         - -4.1312801445185754e-001
         - 3.3754650285096560e-001
         - -1.4760127562854636e-001
         - 4.3730101005106670e-001
         - 2.2893376493961928e-001
         - 1.2473570932789529e-001
         - 8.0000172667951119e-001
         - 3.8108901996997052e-001
         - 1.5399874190429647e-001
         - -2.0514572422488050e-001
         - -8.9457721514948518e-001
         - -8.0200855700771571e-003
         - 9.8620913232118114e-003
         - -9.3959355392787020e-002
         - 9.3762556019723686e-001
         - 3.1215803383856011e-001
         - -2.9919882179296614e-001
         - -1.0523548931858366e+000
         - 2.7017177659022723e-001
         - 1.4298815954828439e-001
         - -4.2586423812681479e-001
         - 7.5720995355821963e-001
         - -2.5228614009639738e-001
         - 1.3673776390323826e+000
         - 5.7576056288286148e-001
         - -5.7534044098859413e-002
         - -2.1008365509705175e-002
         - 1.7477597770173911e-001
         - -2.9594877023389965e-001
         - 4.6075839892215659e-001
         - -2.8045436486782732e-001
         - 1.1881422176449229e-001
         - 2.0551166801840226e-001
         - -1.7709625347994654e-001
         - -7.1350328570192845e-001
         - 1.3513398644203034e-001
         - -1.6484733978240246e-001
         - 2.3226512931336282e-001
         - -3.0876975038915681e-002
         - 9.6088427698126144e-002
         - 4.9540200721993603e-002
         - -7.6760307963516086e-002
         - 2.1958913370967292e-001
         - -3.6262644627817125e-001
         - -2.4014014047177962e-001
         - 5.0680679236093884e-001
         - -1.4129658945116050e+000
         - 2.9480259642950056e-002
         - -1.9704424044497501e-002
         - 3.3505091822270838e-001
         - 2.7412944697732594e-001
         - 2.9363607947107123e-001
         - -5.1118120887472085e-001
         - 1.1363470448824768e+000
         - 2.1167629614629424e-001
         - 3.2755681698151540e-001
         - -1.0056064075164060e+000
         - -1.4758576770393939e-002
         - 8.5663115662531386e-001
         - 7.1814483189640010e-002
         - -1.5281726950784535e-001
         - -3.1302738201310187e-002
         - -5.5267283187293859e-001
         - 2.1320089666954761e-001
         - -2.2056642540949706e-001
         - 5.4254194084176990e-002
         - 2.5247224598837703e-001
         - 4.4377454313016840e-001
         - 7.1771233244125809e-001
         - 4.2484218660537632e-001
         - -1.0125711576859049e-001
         - -4.8054880169632941e-001
         - -1.2740399747973261e-001
         - -5.7076259728599288e-001
         - -2.7601841403811816e-001
         - 6.5706392464671914e-002
         - -1.6153747903445306e-001
         - 3.1567211778324017e-001
         - -5.8919580691693829e-001
         - -8.4080847108747947e-001
         - -7.7249131316478259e-001
         - -3.2498832649063847e-001
         - 6.6668201044117648e-001
         - 2.3731052470516939e-001
         - 1.2221452721796444e+000
         - -9.0166078947515060e-001
         - 2.8219814798991250e-001
         - -2.7909748275421686e-001
         - -2.0005999777885128e-001
         - 6.3245034003227274e-001
         - -1.1954037588441607e-001
         - 6.9144892838873306e-001
         - 4.3408930544999774e-001
         - -1.0187578968014934e+000
         - 6.4025433601849285e-002
         - 6.7338162124535916e-001
         - 4.9826373179948175e-001
         - -2.9589658041247202e-001
         - 3.3191931380154582e-002
         - 1.9875783167087280e-001
         - 6.0536007463122388e-001
         - -4.4228571536058858e-001
         - 7.6166604401824856e-001
         - -1.9928520314292594e-001
         - -2.8749559989330497e-002
         - -6.7339252958519988e-002
         - 1.3108822685783261e-001
         - 7.3979576241195533e-001
         - 1.0694105194206799e-001
         - 2.4853127444234160e-001
         - -1.7884621788995611e-001
         - 1.5574613698125286e-001
         - 1.5977079537826708e-001
         - 1.0312744101450043e-001
         - 6.3058846000335145e-001
         - 9.2477746019746388e-003
         - -5.9959207558139625e-002
         - -2.4180279757414486e-001
         - 5.5562446684951350e-001
         - 1.2029220663058804e-001
         - -8.2298417488342268e-002
         - -1.4402875757600547e-001
         - 4.5420791172005925e-001
         - 1.6591118849670398e-002
         - -8.5053469419527433e-002
         - -1.9090071564320862e-001
         - -1.0118151610409498e-001
         - 8.6981084131902575e-001
         - -1.8071112278885609e-001
         - 2.2521645627980039e-001
         - -3.3979363750978664e-001
         - -2.5406335634812316e-001
         - 4.9291993263923006e-001
         - 3.9907067479857111e-001
         - 1.2732616806795063e+000
         - 4.3378826545338089e-001
         - -6.5420703685942005e-001
         - 6.0366459830682317e-001
         - 1.2140844394551115e-001
         - -1.5689359601193331e-001
         - 5.8658551570221773e-001
         - 5.4870653497754451e-001
         - -4.4800933866738513e-001
         - -2.1647279325440119e-001
         - 6.3519229281019074e-001
         - 8.7197827795771288e-001
         - 3.8480332694856512e-001
         - -1.6252803236957139e-001
         - -4.5277148744955814e-001
         - 4.0023462883466138e-001
         - -3.3116194485632994e-001
         - -4.1606279056385276e-001
         - 1.0655195144554874e+000
         - 8.7495546417892456e-001
         - -8.5035803392222636e-002
         - 7.7556917316256513e-001
         - -4.6219474394502708e-001
         - -6.3811748938600610e-001
         - 8.3627280463085249e-002
         - -9.9434285510794340e-001
         - 1.0536121383644750e+000
         - -9.2331739261768442e-001
         - 1.6932579347227802e-001
         - 1.0513631574468625e-001
         - 1.3558587012038737e-002
         - 3.4222498203009094e-001
         - -5.3607144211045055e-001
         - -2.2097660935847374e-001
         - 1.3031937307969957e-001
         - -6.3474797855430365e-001
         - 8.3172882097335657e-002
         - 1.8344276070990320e-001
         - -1.5810948119208168e-001
         - 2.5809283592139609e-001
         - 5.0314283928149538e-002
         - -2.6934009394442371e-001
         - -1.7675721484083423e-001
         - -5.9369525401297710e-002
         - 4.2073856958037947e-001
         - 6.1263075310709694e-002
         - 8.9072101896490508e-002
         - -4.5783555465337888e-001
         - 9.4232790647576703e-001
         - 6.3113572230660364e-001
         - 5.0093924753714236e-001
         - 5.7582225956587507e-001
         - -2.6223148005503011e-001
         - 4.5016899431751162e-001
         - -7.2533189629647021e-001
         - 6.0670949110623196e-001
         - -3.7560382467375630e-001
         - 1.2907979803005537e-001
         - -1.2125928006911877e+000
         - 5.8617426285363497e-002
         - -1.5212197806480702e-002
         - -2.4397456277443269e-001
         - 6.8941716328466207e-001
         - 3.3739789368458761e-001
         - 2.6039754666567211e-001
         - 9.1482306636127275e-003
         - -2.0485727885441915e-001
         - -1.7900804902036227e-001
         - 1.0171507397567341e+000
         - -1.1046886902993520e+000
         - -3.8681359123368168e-002
         - -5.8785616277057851e-001
         - -5.4350697851222418e-001
         - 1.6249657479105331e-001
         - 4.9579681873084636e-001
         - 6.1863054037333942e-001
         - 6.2109084758475375e-002
         - 1.6734631807114002e+000
         - 2.8411218865344307e-001
         - -1.3105550163881277e-001
         - 5.3625433938363820e-001
         - -2.2685876450466630e-001
         - -1.5769503282720096e+000
         - 2.8582193264318424e-002
         - -4.2744543119519907e-001
         - -3.9995854873383846e-001
         - -7.7541463112895792e-001
         - -2.5256096810776973e-001
         - -1.6304970419616635e-001
         - 6.0919980876575663e-001
         - 4.0939872827682028e-001
         - -8.4394459273204724e-003
         - 3.3534831767347417e-001
         - -3.8859769843669711e-001
         - 7.0262110927608568e-001
         - 1.3630553081554893e+000
         - 6.9619703469539840e-001
         - 1.2811866197880358e-002
         - -4.7722654109202850e-001
         - 5.1057203303731213e-001
         - -2.3363811991765990e-001
         - 4.1989843385339592e-001
         - 3.9389110821641438e-001
         - 2.6801970864751765e-002
         - 4.1025026846030273e-002
         - 5.9727219368574136e-001
         - 1.8485377130412114e-001
         - 7.7134270855696307e-001
         - -6.2197824940347546e-001
         - -4.1351461221212127e-001
         - 4.9080709804301742e-001
         - -7.8363734118567874e-001
         - 4.7924429701950509e-002
         - 6.3157359958567327e-001
         - 2.6713320978482119e-001
         - -2.7895724896693558e-001
         - 1.2922957553087311e-001
         - -2.0033626508608868e-001
         - 8.3245176009743782e-001
         - -2.0341313546808779e-001
         - -3.3672845339296889e-002
         - -1.3143272435842719e+000
         - 2.4671786107819085e-001
         - -7.0988439476227494e-001
         - 5.7388661745356029e-001
         - -9.0929787121846128e-002
         - 1.5169560820524602e-001
         - 1.1557475293057327e+000
         - 1.4908575654073821e+000
         - 3.1734724107132611e-001
         - 2.4601073054694240e-002
         - 1.2184828563266610e+000
         - -6.6724731619584310e-001
         - 1.5889696694856124e+000
         - -9.3496445405092929e-002
         - 4.6076292290903631e-001
         - -3.9818681564554154e-001
         - 6.0657827781634388e-001
         - -2.9892073565349647e-001
         - 3.1155428158606396e-001
         - 6.6795210674992100e-001
         - 3.9428537456443491e-001
         - -1.1696171409350846e+000
         - 9.3543814925292912e-001
         - 3.3092555459853304e-002
         - 6.3847264656586500e-001
         - 7.3434483263202052e-002
         - -8.6768432293104047e-001
         - 4.7632310995193383e-001
         - 9.7427322330403604e-002
         - -6.8600305037261222e-002
         - -1.3847043758104749e+000
         - -3.3510313818783038e-001
         - 5.0601583055279764e-001
         - -2.3023733487058895e-001
         - 5.6786934298145497e-001
         - -5.2515217234094649e-002
         - -1.0565685949328343e+000
         - 2.3065269042374184e-001
         - -1.0257750923304527e+000
         - -3.5357042184424825e-001
         - -2.5604675498230955e-001
         - 7.7412723566907989e-003
         - -5.8208586144049190e-001
         - 7.7709064165207287e-001
         - 9.7752002518364054e-003
         - 2.2471652766376415e-002
         - -9.7898055011852736e-001
         - 2.9864252476928316e-001
         - -3.3053162809572911e-001
         - 5.2587343759964633e-001
         - 1.0785629497565556e+000
         - -1.7385094421797402e+000
         - -2.3503945714319077e-001
         - -5.8026294931995938e-002
         - -2.2427160822458903e-001
         - 4.9710580543877636e-001
         - -5.3568479382262613e-001
         - -9.6980253365014568e-001
         - 7.3890026481726004e-002
         - -1.7695260683920025e-001
         - -1.3628007392931190e+000
         - 4.2963440959441729e-001
         - 5.4659381316978550e-001
         - 2.7840756751390588e-001
         - 7.1830532736695363e-001
         - -1.0276498226428783e+000
         - 3.6167171409828253e-001
         - 9.0148041278127455e-001
         - -3.2004041779958670e-001
         - -6.3121557553948882e-001
         - 1.5273265334059244e-001
         - 2.8575188162197862e-001
         - -6.3699393139459703e-001
         - -8.3298982406824418e-001
         - 5.9577462247317592e-001
         - -4.5137504153371311e-001
         - 4.7167503581702541e-001
         - 9.0056919977501271e-001
         - 2.0405220139792157e-001
         - 9.8938124647665715e-001
         - 4.2841587080865895e-001
         - 1.5199228185320104e-001
         - -7.1129003445163108e-001
         - 6.2998755689930241e-001
         - -8.4966189191755803e-001
         - 1.4596066619376666e-001
         - -3.1405458943458109e-001
         - -2.4644401152255926e-001
         - 4.3554420595483873e-001
         - 6.1992449212750667e-001
         - 2.7750049409088179e-001
         - 6.2007536650665718e-001
         - -5.4365521771198533e-001
         - 9.6937406928174208e-001
         - -1.8826061556815310e-001
         - -5.3794516793612268e-001
         - -7.9124815833611806e-001
         - 1.0061392706545423e-001
         - 2.4581201617567539e-002
         - 3.5473126703862856e-001
         - 1.1482496528866626e+000
         - 1.6732988554673217e-001
         - 4.0140704312479208e-001
         - 8.8522850614987481e-001
         - 1.4836307259762711e+000
         - 2.4932847451554752e-003
         - 9.3083205851603723e-001
         - -3.9965686751496321e-001
         - 1.4267571122884998e-001
         - -8.5096892409031866e-001
         - 2.4018653265106549e-001
         - 4.3284303356535664e-001
         - 8.4304650539809156e-001
         - 1.5654921703088207e-001
         - 1.1059614078544440e-001
         - -7.4953154380989276e-002
         - -6.8158897735426216e-001
         - -8.9384670023151169e-001
         - 4.5474447706146365e-002
         - 2.4399681596214893e-002
         - 3.7190356820651921e-001
         - -1.5876922128934532e+000
         - -8.7639552185283043e-001
         - -2.7781413046439207e-001
         - -3.7396052144030073e-001
         - -4.6227046946321004e-001
         - -3.9538002241183262e-001
         - -1.2494708624741081e-001
         - 1.6162278879886488e-001
         - -1.2346745455873485e-001
         - 5.5132410337712912e-001
         - 6.5160857048811061e-001
         - -6.9292010002822713e-001
         - -3.3756983752814612e-001
         - -3.0614422230123300e-001
         - -7.1808776964871324e-001
         - -3.4395351104262534e-001
         - 4.0872825263759016e-001
         - 7.4980886213842135e-002
         - 3.4977804372987048e-001
         - 9.6041724544724338e-001
         - -1.5528261070673673e-003
         - -2.7105712735125409e-001
         - 5.9335094368981200e-001
         - 2.0034350028961204e-001
         - 2.7028737446061718e-001
         - 6.7564133198099408e-001
         - -2.2659472266556813e-001
         - -9.7985082157261638e-001
         - 5.2684691506991022e-001
         - -4.4391113457399894e-001
         - 4.5389316033824767e-001
         - -6.9904986604454344e-001
         - 8.5856189146063133e-002
         - 1.1014894485348689e-001
         - 8.8713413137001895e-001
         - 7.6156592802881354e-002
         - 5.6177432847181652e-001
         - -3.9243044940135902e-001
         - -5.4657404723975922e-001
         - 1.0279336520831883e+000
         - 1.8926997815329052e-001
         - 2.1438307983292340e-001
         - -6.5216979274801712e-001
         - -2.3099463354719679e-001
         - -1.9656597710466243e-002
         - 3.3525873871087364e-001
         - 1.5281253838267095e+000
         - -1.2329733465821320e-002
         - -3.2933619051841273e-001
         - -1.5831313564459187e-002
         - -2.7428929605743102e-001
         - -1.6569266663129956e-002
         - 1.0600116793065457e+000
         - 1.3985708721874719e+000
         - 5.9699360031086524e-001
         - 4.3833732348748083e-001
         - -6.2278763845632990e-001
         - 2.1912179757119174e-001
         - -9.2482066829138204e-002
         - -4.2994094163249336e-001
         - 4.3915962570003686e-002
         - -3.6051468024421503e-002
         - -9.4005914261540302e-001
         - -3.4770741948171013e-001
         - 2.3858250222826167e+000
         - 6.5919677954491096e-001
         - 3.7012200351310996e-002
         - 1.2834794870949198e-001
         - 6.4461887443297416e-001
         - -1.2287705289572060e+000
         - -2.4143445706649186e-001
         - 1.7394042836026183e-001
         - 5.9723285399999759e-001
         - -7.0988048942873055e-002
         - -3.2575698250282709e-001
         - -3.3552602164645012e-001
         - -8.7702548714534778e-001
         - 5.4229387482270443e-002
         - 6.8094565781990724e-001
         - 5.4475636220664037e-001
         - 4.8339832126372793e-002
         - 1.1583675707248358e+000
         - -2.1040069504848252e-001
         - 4.0980918094530627e-001
         - 2.9489177138373129e-001
         - -1.1387945584237263e-001
         - -1.3764180300359227e-001
         - -1.2945681427498534e-001
         - 2.4578193345185642e-001
         - -1.0974552649748739e-001
         - -3.8382556530261125e-001
         - 5.1386514404927452e-001
         - -1.5348194772077667e-001
         - 1.8887380316291758e-001
         - -2.4301878765202425e-002
         - 7.9483595774673432e-001
         - -3.4912172802752284e-001
         - 8.9717106477302702e-002
         - -5.6701905774417949e-001
         - -3.5372822628650580e-001
         - -9.5420603640496182e-001
         - 4.5576615644357216e-001
         - -1.3643963894696245e-001
         - -2.1626015330615098e-001
         - -8.0465610453998937e-001
         - -6.3889255436520631e-001
         - 3.6762423720094967e-001
         - 6.8171493257723026e-001
         - -3.7449131383431555e-001
         - 5.9285262541355521e-001
         - -7.1818659537923180e-001
         - -2.2718846690703001e-001
         - -1.2931125837966331e-001
         - 3.6546073851732780e-001
         - 1.9727206766754404e-001
         - 4.6450435345904637e-002
         - 6.9058735382545700e-002
         - -1.2828022261941154e+000
         - 1.4407846733680932e-001
         - 6.7718614447995137e-002
         - 1.6869212103131431e-001
         - 1.0537618200234971e+000
         - -4.6825116595061433e-001
         - 7.6931323770677285e-001
         - 6.3074368058866814e-001
         - -2.9641303222087617e-001
         - -4.2408307983437782e-001
         - -8.0113053409683721e-001
         - 9.5343214148683142e-001
         - -2.5948624951531563e-001
         - 1.7774086002843702e-002
         - 8.0842591408398445e-001
         - 3.6152614839038408e-002
         - -2.7400879524660837e-001
         - -5.9594396322567500e-001
         - -1.8687685936986109e-001
         - -7.5502507755391612e-001
         - -9.4903456894318644e-002
         - -8.0620034280099284e-001
         - -1.3460427984236728e-001
         - -1.6462935031005757e-001
         - 5.8275376510909349e-001
         - 5.9949634596608381e-001
         - -1.4572331494164651e-002
         - -5.5783034068762935e-002
         - -2.2889157617986958e-001
         - 8.0646596776194834e-001
         - 5.1091706639026613e-001
         - 1.2375020983874718e-001
         - 2.3180261960106763e-001
         - 1.5097906903774272e-002
         - 8.0444033945962390e-001
         - 3.6029606925851437e-001
         - -1.3675238575904661e-001
         - 3.0403624497420245e-001
         - -4.0239620112336144e-001
         - -1.3657257945612369e-001
         - 4.0220901830720335e-001
         - -2.6085189230813788e-001
         - -4.0173689642484883e-001
         - -1.1799738170225131e+000
         - -2.7529062052708470e-001
         - -5.0671759737275202e-001
         - -7.0239286886389840e-001
         - -4.0145225139538732e-001
         - -6.6870794006618217e-001
         - -3.2944505327300727e-001
         - -8.1657983304809567e-001
         - 2.3509704790631025e-001
         - -5.8223475163394955e-001
         - -6.7982019493824897e-001
         - -4.6526177898266813e-001
         - -6.9069918994526514e-001
         - -3.0564560566603716e-001
         - -3.6317680834921867e-001
         - 3.3581921238273349e-001
         - 1.9443174565728694e-001
         - 2.7273514516581432e-001
         - -1.5429833184049097e-001
         - -2.2373497074527529e-001
         - -2.8547034869333937e-002
         - -2.1347195274854550e-001
         - -1.1917108736004450e-001
         - -1.0807631491364329e+000
         - -1.0804343641261192e+000
         - -1.5979500510174383e-001
         - -5.3975514889162838e-003
         - 6.5994802351241333e-001
         - 1.0537730115217525e+000
         - -6.5118004982602695e-001
         - 3.8287712122447609e-001
         - 5.5148987906816793e-001
         - 5.3362596349578739e-002
         - 3.5252392750001543e-001
         - -1.9846236560428104e-001
         - 1.3382379377866143e-002
         - -2.4445734172418204e-001
         - -2.3516436118977024e-001
         - 8.3817582626282569e-002
         - 2.5141240967542455e-001
         - -4.9318457121752241e-001
         - -4.9234271378752892e-001
         - 1.3062249092127445e-001
         - 1.4144838349826705e-001
         - -4.4604982853668484e-002
         - 3.6830348711066224e-001
         - -7.5259301953267133e-001
         - 1.8232005749837613e-001
         - -5.6458368050289742e-001
         - 8.5234865714579022e-001
         - -3.2882384974232637e-001
         - 5.4786338681733526e-001
         - 3.5896978702865801e-001
         - 4.6440060484707885e-001
         - 5.7957716439824414e-001
         - -4.4127237315499640e-001
         - 4.3057226189459480e-001
         - 3.3054651969148285e-001
         - -7.0716741430266739e-002
         - 4.6976774440594915e-001
         - 4.1605483422185191e-001
         - -4.1403550875235801e-001
         - -8.4246097257930552e-001
         - -4.1254777145341576e-001
         - 8.7916542344454152e-001
         - -3.6689738984614267e-001
         - -4.0506821572478491e-001
         - 1.5912416248814460e+000
         - 2.6777110607733789e-001
         - 8.5720506633148494e-002
         - 8.7935192877315160e-001
         - -2.4767892040494008e-001
         - 3.2468876711252892e-001
         - -1.3917787645985891e-001
         - -2.2161144364962285e-001
         - -7.9273966354783731e-001
         - -1.0077524898962751e-002
         - -9.6928884246013214e-001
         - 2.2298864436579047e-001
         - 5.9361597850649772e-001
         - -4.8083197018592477e-001
         - 5.7038327470480454e-001
         - 6.3282735751007124e-001
         - -4.3142045666348494e-001
         - -5.3158506517652848e-001
         - -1.3296996413053719e-001
         - 5.6721986379343969e-001
         - 8.6309781284791942e-001
         - 4.8793236229999254e-001
         - -3.9838349242751853e-001
         - 3.0940880262261411e-001
         - -4.8774981338210666e-001
         - -6.0153133332284714e-001
         - 3.5018459713079336e-001
         - 8.4042367238779114e-002
         - -5.9832442803361674e-001
         - -4.8560087106471733e-001
         - -1.8850243251229784e-001
         - -4.9006972762287415e-001
         - -1.0992114286402930e+000
         - -4.6309632876414647e-001
         - 5.4598670774301250e-001
         - 1.1624638521787887e+000
         - -8.0352657995349575e-001
         - -3.6751928812884471e-001
         - -4.3919381686307818e-001
         - 1.0379112183640151e+000
         - -5.4329752585507918e-001
         - 2.1899690980606615e-001
         - -1.1044741050690386e-001
         - -8.0963003284291901e-001
         - -6.3876698836900035e-003
         - -9.4077788478290458e-002
         - -7.3148277785369376e-001
         - 1.6922442925780854e-002
         - -6.9367537308444727e-001
         - 1.4247612425694745e-002
         - -1.0366474465281079e+000
         - -5.8488062777293015e-001
         - -1.7709814750891070e-001
         - -2.9944997323143624e-001
         - -5.4893863439898438e-001
         - 8.1088054951705646e-001
         - 1.2903451078538881e+000
         - 1.0255116699813598e+000
         - -3.4099838826043377e-001
         - -2.0743269624610611e-001
         - -2.0908647681153439e-001
         - 6.5679767965591745e-002
         - 2.7268808263895994e-001
         - 8.5610903523404269e-001
         - 4.7949974624442887e-001
         - 7.8462184518004929e-001
         - 5.1280866556758309e-001
         - -8.2314177479122522e-002
         - -2.3971478286517175e-001
         - -6.4833291313385943e-001
         - 2.2005773570019295e-002
         - -6.5120470768875027e-001
         - -5.9460857123736681e-003
         - 6.1095836818437188e-001
         - -4.4121709272166726e-001
         - -5.3684755285741492e-001
         - 4.7414591701042474e-001
         - -1.1166187869336669e-001
         - 5.4820611403762121e-001
         - -1.2061508669216385e+000
         - 2.1253322594488702e-001
         - -6.6818674879399909e-002
         - 6.9990610648721518e-001
         - 9.6847297556479006e-001
         - -2.8893534878929955e-001
         - -2.4736198540867679e-001
         - -3.2262735757028110e-001
         - -5.9562591148527633e-001
         - 6.2641098009414409e-001
         - 7.9346498342587923e-001
         - 8.6436223819023339e-001
         - -5.1456490193144122e-001
         - -1.5901234593538235e-001
         - -3.4557243181716157e-001
         - 8.7037716296163622e-002
         - 5.9667436309652278e-001
         - -4.4587290993488390e-002
         - -4.6445028660782817e-001
         - 3.7090033258465321e-001
         - 4.0909623194193012e-001
         - -2.9082620124593572e-001
         - -2.5036683311484031e-001
         - 1.8400372094868361e-002
         - 1.0912216204833005e+000
         - -2.2993591307817970e-001
         - 2.8387794751183839e-004
         - -1.0910120713586697e+000
         - -5.7849160658438048e-001
         - -3.4148653885544072e-001
         - 8.7677151976180159e-002
         - 2.4144994685309992e-001
         - 5.7370604198998243e-001
         - 3.2848001592401632e-001
         - -4.7401730272677001e-001
         - 1.1924502716072551e-001
         - 1.0829389268654022e+000
         - 1.2638248800153384e+000
         - 6.5793115519684064e-001
         - -2.5257349138411234e-001
         - -1.8186256000332640e-001
         - -6.7687250948333333e-002
         - 1.0922259511669157e+000
         - 3.5821182956842518e-001
         - -8.2512013818434871e-001
         - 3.5053938013299824e-001
         - -3.3925985033146799e-001
         - -2.8541183194269415e-001
         - -6.4120302418176373e-002
         - 2.7263343191797129e-002
         - 2.5717528037974441e-001
         - 7.6203836402363712e-001
         - 5.8162954327963390e-001
         - 1.0984399905162718e+000
         - -2.5048725760962159e-001
         - 1.4201017724950324e+000
         - 1.0885007426021931e+000
         - -2.3532939300051695e-001
         - 1.3140283357820709e-001
         - 3.9514846757377986e-001
         - 2.8016325604088238e-001
         - 3.6408339999488948e-001
         - 7.6642301240382793e-001
         - 7.3245061553799751e-001
         - 1.6745625065159156e-001
         - 1.6714162717578995e-001
         - 3.1423858395741794e-001
         - -2.6319450291491042e-001
         - -6.9087545346458210e-002
         - 5.9732916143707893e-001
         - 3.6579693262062611e-002
         - -7.3832024801330942e-002
         - 6.6601140373259637e-001
         - 1.1784423184166207e-001
         - -3.8699432390810740e-001
         - 1.8954207496985132e-003
         - -6.4351579244713053e-001
         - -5.0430662300699192e-001
         - -7.4350627314111328e-001
         - 2.9844998426806629e-001
         - 7.1179991880031612e-001
         - 9.6383293883143414e-002
         - -9.4852760934013380e-001
         - 7.2849989095709167e-001
         - 9.1070191241486231e-001
         - -3.0983997977488276e-001
         - -3.7145097391252940e-001
         - -1.3428653142832916e-001
         - -6.6654373193141059e-001
         - 6.5750577391191178e-001
         - 8.5457691422091767e-002
         - -2.5254531288255366e-001
         - -1.1870235935688531e+000
         - 1.2127005770978177e-002
         - 5.7614143808712048e-001
         - 4.5398588747685553e-001
         - -3.0862856791915777e-001
         - -1.4289821647878154e-001
         - 6.9550076997021004e-001
         - -1.1662015902649119e+000
         - -7.4031010723970669e-001
         - -3.8347039728797405e-001
         - -3.7702847966793968e-001
         - -5.7324898484099041e-001
         - 3.8977157695992254e-001
         - -1.1122112293770117e+000
         - 6.0153118118686100e-001
         - 1.5811024600844015e+000
         - 2.6964905991217911e-002
         - 8.9844826850967990e-003
         - 4.0909302779307440e-003
         - -1.8111590132136059e-002
         - -1.1349901630312464e-002
         - -7.5669769697397039e-003
         - -2.6943232323670012e-002
         - 2.9750801575629926e-002
         - 3.2951907680807531e-002
         - -3.4550887605297516e-002
         - -2.9029136688854845e-002
         - -1.4791101524483461e-002
         - -1.0878325698710872e-002
         - -3.5737831491202472e-002
         - 1.6134555469409395e-002
         - 3.6162299545059694e-002
         - 2.5192895537286323e-002
         - -1.2273365903895200e-002
         - 2.7460661134738377e-002
         - 3.1989086822510761e-002
         - -8.6505180163006165e-003
         - -3.4275949589611970e-002
         - 9.5372849807721944e-003
         - 9.8524199312511745e-003
         - 3.7931288581945909e-002
         - -4.7621757408124214e-003
         - 1.9511325700462778e-002
         - 3.9014824049005026e-002
         - -1.3185909912273593e-002
         - 1.3642591449242851e-003
         - 1.0526148623012528e-002
         - -1.0784957214228048e-002
         - 6.9193635393767017e-003
         - 3.2748811911589466e-002
         - 2.7508964756942846e-002
         - 4.1621334045337695e-002
         - 3.5667644512614123e-002
         - -3.6465341938804248e-002
         - 3.4088260872609508e-002
         - -2.6561165395732705e-002
         - -1.6931812929552637e-002
         - -4.6558693507911478e-003
         - 3.0662289257430260e-002
         - -7.3494177358621399e-003
         - -4.5887170756370946e-003
         - -3.8063688322874508e-003
         - 9.9338525672941005e-003
         - -3.3406898888702023e-003
         - -1.6387091825290124e-002
         - -2.5346278594816134e-002
         - -1.8316828625421382e-002
         - 6.5437375775720917e-003
         - -3.4233633695203408e-002
         - -3.7795067902203668e-002
         - -1.1791616572289254e-002
         - -1.9131937298791032e-002
         - 1.4410812713436021e-002
         - -3.4653102238993858e-002
         - -2.9275512835068029e-002
         - -2.3158321488630656e-002
         - 2.1248694337375657e-002
         - -4.5244744965796946e-002
         - -1.3200577046255612e-002
         - 2.8655687315152157e-002
         - -3.7822638688995124e-002
         - -2.7103503689333865e-002
         - -3.8278726816136290e-002
         - 2.4293054389476605e-002
         - -3.7989404668034251e-003
         - 8.1136823556818439e-003
         - 1.1384262033342992e-002
         - -3.3478053418709630e-002
         - -1.4389717224829755e-002
         - 3.3186747013956491e-002
         - -7.2284639355075135e-003
         - 1.9302375220101954e-002
         - -8.0520519613108913e-003
         - 3.2472617104943646e-002
         - -2.3113709036417282e-002
         - -6.5139987358544893e-003
         - -9.5900961837999659e-003
         - -1.9666034285750342e-002
         - 1.1576046995592764e-002
         - 3.3783642677462984e-002
         - 2.6604012590064282e-002
         - -2.5766133993167925e-003
         - -3.4589136385988845e-002
         - -3.3451926882952223e-003
         - 4.1741491531793469e-002
         - -1.5992290040310830e-002
         - -2.4538408598197746e-002
         - -3.0822433213707565e-002
         - 3.6479067012235210e-002
         - 4.0259563791422599e-003
         - 3.7463680019677065e-002
         - 3.6744873358483025e-002
         - 1.1395290128478992e-001
         - 4.0259149775041481e-001
         - 2.5764307963037775e-001
         - 1.6845860405053545e-001
         - -9.6840747440884944e-001
         - 1.4021327299023527e+000
         - 6.7216431777832875e-002
         - -4.0799839916035074e-001
         - 2.0679034594547802e-001
         - 3.5417355365796582e-001
         - 1.1550582014252442e+000
         - -3.5984895373150233e-001
         - -1.8495812018476960e+000
         - -5.7200780566463494e-001
         - 3.2160341392366953e-001
         - -1.2187212862762090e-001
         - 5.9771572667506745e-001
         - -2.4456806114468449e-001
         - -6.2410890015822196e-001
         - -4.4340991553400266e-001
         - -7.1144922628987667e-002
         - -1.1541682860016102e-001
         - -2.8138832985692358e-001
         - 5.1646325484546973e-001
         - 7.4777061516404064e-001
         - 1.0514274129628957e-002
         - -2.8895008826207952e-001
         - -8.7420270702584268e-001
         - -6.9323897534515211e-001
         - -7.4475150978781479e-001
         - -3.9007109271574830e-001
         - -3.6229780217780613e-003
         - -4.8807714874855390e-001
         - 1.6336282307991790e+000
         - -5.3391254860952286e-001
         - 3.2373299427293523e-001
         - -1.1613470067144540e+000
         - 7.5013109065928674e-001
         - -4.9692565535227878e-001
         - 1.0079673847761346e-001
         - 3.2834400045834336e-002
         - 3.6624332343901472e-001
         - -1.6992512366355172e-001
         - 7.2914555537145570e-002
         - -4.4740617751129491e-001
         - 3.5527508770349625e-001
         - -3.8692482927730831e-001
         - -3.9346542663260120e-001
         - -9.4150024660394771e-001
         - 2.0917803847498068e-001
         - -5.6875174758564317e-001
         - -1.6958781725731842e-001
         - -8.8261699396158377e-001
         - 4.2280628642340407e-001
         - -2.3682604572576868e-001
         - -5.3506723157274216e-001
         - 9.6036816522508714e-002
         - 1.7718294282896103e+000
         - 5.4253824630458158e-001
         - 3.8940525815288347e-002
         - -1.3806884656517302e+000
         - -8.5949633729934555e-002
         - 9.2645182657926783e-001
         - 7.1931793071201497e-002
         - -5.0825556731974648e-002
         - 7.4766234596636105e-001
         - -8.3707859991122693e-002
         - 1.0212939925992055e+000
         - 5.3231230703292309e-001
         - 5.5803103877451254e-001
         - 1.0716000784351079e-001
         - -3.9611879741961625e-001
         - 4.8119364407454968e-001
         - 1.6698417198759369e-001
         - 6.5147077674281861e-001
         - 6.2760257880511383e-001
         - -3.2766047344459265e-001
         - 2.0620083797589093e+000
         - -2.3581853503309322e-001
         - 6.8823884852513173e-002
         - 3.2328215691450168e-001
         - 2.1418732282045042e-001
         - 9.1615910100792883e-002
         - 4.9209009273184023e-001
         - -4.2636947779839951e-001
         - -2.0922538130436322e-002
         - 5.9804172501993103e-001
         - 1.8018927345100227e-001
         - -1.9078876240530529e-001
         - -3.5738828447923049e-001
         - -3.1336226039789689e-001
         - -7.6307420272413862e-001
         - -1.3552518867147792e-001
         - -6.8085133929590824e-001
         - 5.5939573233838880e-001
         - 2.5857963357641939e-001
         - -1.1526826231431806e+000
         - -2.1741032404259281e-001
         - 5.3379036926437595e-001
         - -2.4024192098234359e-001
         - 1.4000919413457888e+000
         - -7.1627983246846461e-001
         - -7.3525485208234070e-002
         - 2.4013441122444751e-001
         - 8.9432371460138105e-002
         - 1.7493770117953233e-002
         - -9.9733977175345367e-001
         - -3.8239569384654987e-001
         - 9.3628725748736186e-001
         - 8.0633947187122051e-002
         - 6.6261046363551390e-001
         - -1.9868332292581894e-001
         - -1.1077144263467925e-001
         - 1.4469785913515490e-001
         - -1.0969023968727107e-001
         - -2.0473418346478017e-002
         - 2.5632859001037223e-001
         - 1.7442919998405984e-001
         - 5.3903709624732406e-002
         - -3.5025897681844591e-003
         - -5.2101203073032461e-002
         - 1.1334962396194556e-001
         - -6.4648249857459084e-001
         - -3.7459800785810560e-001
         - 4.9521267989550859e-002
         - 4.2030726851976313e-002
         - 1.8667111868824784e-001
         - -4.6527712542784178e-001
         - 4.9709523630270402e-001
         - -4.6823128558230609e-001
         - -2.9428472466766703e-001
         - -1.4923018524248841e+000
         - 3.2632377390450856e-001
         - -8.3155239002608283e-001
         - 3.8033505918766272e-003
         - -4.7173535844642911e-001
         - -1.2511412241312522e-001
         - -3.5623945969903154e-001
         - -3.2950099428643886e-001
         - 1.1092778615997011e-001
         - 4.4355663076612029e-001
         - 2.1736392644483107e-001
         - 1.4556103054539585e-001
         - 1.9714509058339141e-001
         - 5.3151926104631986e-001
         - 2.4538971153115274e-001
         - 2.8503300972361978e-001
         - 1.9539089966910653e-001
         - -2.9862267092754163e-001
         - 3.6582166691640305e-001
         - 6.7658140553655155e-001
         - 7.3029034307935670e-002
         - 1.5343729220579605e+000
         - 4.0920095280484470e-001
         - 3.0009220067413089e-001
         - 3.7452140087732910e-001
         - 1.0233853377697943e+000
         - -2.1607605235621657e-001
         - 4.6034757581406210e-001
         - -1.2633757047802346e-001
         - 1.0318551115949277e+000
         - -1.2774019778845085e+000
         - 3.6047811533199403e-001
         - -5.6248042891647387e-001
         - 4.7120175202147063e-001
         - -6.7357455576855618e-001
         - 5.7108519792413492e-001
         - 7.6654768900609793e-001
         - -9.5968181970550834e-002
         - 9.8465793649861610e-001
         - -3.9224708319234108e-001
         - -4.1615502129687826e-001
         - 3.9297336210064551e-002
         - -1.0569817368138459e+000
         - 6.0218030753644469e-001
         - -1.1738497775891685e+000
         - -3.6070266282458258e-001
         - -6.7916477965449118e-001
         - -6.6298694515005818e-001
         - -8.6386295590692042e-001
         - 4.5160694793000222e-001
         - -3.9119563782715427e-001
         - -1.9921254651224010e-001
         - 6.4636985660278679e-001
         - -5.0406793341116363e-002
         - 5.3907638057079643e-001
         - 1.7358768241034347e-001
         - 1.7177514741444430e-001
         - -3.3803098321614966e-001
         - -6.3616336331817225e-001
         - -8.3250466830477243e-001
         - 2.9866905379735709e-001
         - -7.6734290735273381e-001
         - 4.6466573392084881e-001
         - -3.6107710674926513e-001
         - 6.3352070397266300e-002
         - -2.7611701820132706e-001
         - -5.0647341122228862e-001
         - 9.4918299157180519e-001
         - -6.4936276530629478e-001
         - -2.2122486898166957e-001
         - 8.4874043890670892e-001
         - 2.9124683218300684e-001
         - -4.4367794887046952e-001
         - 2.9767914628069103e-001
         - -8.9453796044618561e-001
         - 8.7846209157627964e-001
         - -5.0741068117410459e-001
         - -1.2934904352225196e-001
         - -4.4388621082953528e-001
         - -1.3861187759172944e+000
         - -1.3025289843527843e+000
         - -7.7335476989744967e-001
         - -2.5164106158061345e-001
         - 5.6554543782941014e-001
         - 1.0545034060149661e+000
         - 1.5332105750418046e-001
         - -3.9681868521864283e-001
         - -9.5846348384427231e-003
         - 8.9241302918029097e-001
         - -1.9990126911824921e+000
         - -4.6830492023666698e-001
         - -4.2218580738238976e-001
         - -5.2628712756046858e-001
         - 3.1297307486996867e-001
         - 3.2866323916401891e-001
         - 1.6626362646380128e+000
         - 1.6987868692706778e-001
         - -5.2229633412696974e-001
         - -1.4329539240008654e-001
         - 4.0577077670359862e-001
         - -1.5159373156005998e-001
         - -2.4465419091534255e-001
         - 3.0347425021239910e-001
         - -1.7152338936074946e-001
         - -4.1473544354178354e-001
         - -2.1107381826468841e-001
         - 6.5027176302581491e-001
         - 2.0427062332958928e-001
         - 8.3144113312418699e-001
         - -1.4809525045488439e-001
         - 3.5965061791415343e-002
         - 1.0234934191941121e+000
         - -1.1858769664215184e-001
         - -3.3494784796304655e-001
         - -1.1997186073428474e-001
         - -6.0985776099631928e-001
         - 2.5509513151646795e-001
         - 3.8887529389773862e-001
         - -4.4417289578961699e-001
         - 1.6404652772376298e+000
         - 3.6880347191111645e-001
         - -1.6145238683221899e-001
         - -6.1178926493601493e-001
         - -1.3059164911811416e+000
         - -2.2908064883193946e-001
         - 2.7342991500277353e-001
         - 1.6377267305199494e-001
         - -6.5838882160299017e-001
         - 4.6408393278151111e-001
         - -5.9414096008819084e-001
         - 3.9731290852748807e-001
         - 6.1008113921190454e-001
         - 8.4239912660878033e-002
         - 7.2150575565448505e-001
         - -4.0321541654298138e-001
         - -1.6153250908583303e-001
         - 6.2192013661461543e-001
         - -2.9346609570801996e-001
         - -1.6905272365940943e-001
         - -1.2736000548344799e-002
         - 1.0888835142441626e+000
         - 4.0035574181568823e-001
         - 2.4605062957315721e-001
         - -6.8124152112568714e-001
         - -1.1130877815446992e-001
         - 7.4499782154360450e-001
         - 1.9366410271609363e-001
         - 7.0751333242308034e-001
         - 3.0419955457375913e-001
         - -3.8791006723283050e-001
         - -3.1558336364895667e-001
         - 4.9300333714614308e-001
         - 1.9385383485675606e-001
         - -5.0269222696532545e-001
         - 1.3688980672504811e+000
         - -1.6608689161113570e-002
         - 1.9071001330106601e+000
         - -9.4755725421383930e-001
         - -7.0431971864203552e-002
         - -8.1272083364016728e-002
         - -6.1236018865714045e-002
         - 8.9541468837658944e-001
         - 1.5251963297994642e-001
         - -1.3751364377686859e-001
         - 2.7462124057670995e-001
         - 4.3320159733022251e-001
         - 7.9630079804672027e-001
         - -3.5931771479051738e-001
         - -1.1542653463627700e-001
         - 8.8539459178828450e-001
         - 1.0502676096283423e-001
         - -2.9445145346814855e-001
         - 1.3118542368110409e+000
         - -7.5337063978206265e-001
         - -3.6475411176699203e-002
         - -8.3711764999350985e-002
         - -1.3931402309456784e+000
         - 3.0664632638094319e-001
         - 2.9013118013689337e-001
         - 1.1881012766450840e+000
         - -6.4178706915872941e-001
         - -2.2997771505825418e-001
         - -2.6413173529576556e-001
         - -6.4802669035293425e-001
         - -3.1443774490083842e-001
         - 9.3939052851665406e-001
         - -5.2695802159319904e-001
         - 1.1576915701296839e-001
         - -3.0677790861554727e-001
         - -1.8428836914262950e-001
         - -9.4036367781450425e-001
         - -2.2444102691549900e-001
         - -9.9409616183186333e-001
         - 1.5745792985848708e-001
         - -8.7174050691997040e-001
         - -2.4542024448776215e-001
         - -1.4359395131322067e-001
         - -6.6570761629388742e-001
         - -4.0231201635659564e-001
         - -4.0366333881301752e-001
         - -9.4198858226236215e-001
         - 2.2213616945502532e-002
         - 4.9464781563710641e-001
         - -3.2615687998358617e-001
         - 1.9843467794764036e-001
         - 9.2394643360982309e-001
         - 6.1548993823998666e-001
         - -2.2686629959535482e-002
         - 6.0548455477511720e-001
         - -9.9682984836680344e-001
         - 4.9732863200916039e-001
         - 1.3017857423227533e-001
         - 3.8712861779430169e-001
         - 7.5796207416197536e-001
         - -7.6818714646064679e-001
         - -2.0282956624794199e-001
         - 4.6219408144219531e-001
         - -1.9848609558087613e-001
         - -4.9421334623601487e-001
         - -7.0677755402473630e-001
         - 1.8736163818877510e-001
         - 2.2933846343466924e-001
         - -2.6598510857886948e-001
         - 2.0361917916351446e-001
         - -2.6737888419696637e-001
         - -4.0269582161583362e-001
         - 8.4737261604713965e-001
         - 3.9036975731773632e-001
         - 1.2788240064652892e-001
         - -6.0501699366156222e-002
         - -7.0747641364767036e-002
         - 4.9025722452320758e-001
         - 5.2401692895514507e-001
         - 5.6679109896144741e-001
         - -6.8440808453806179e-002
         - 1.3996266556483128e+000
         - 7.4989251618236025e-002
         - -3.1647183625299163e-001
         - -5.0198735342088807e-001
         - -4.5012408074340082e-001
         - -4.3502634586470822e-003
         - 5.2497197680863761e-001
         - 7.6103561119446472e-001
         - -7.5999024589056796e-001
         - 1.2622227440713798e+000
         - -2.4798862830929336e-001
         - 5.7339095870209722e-001
         - 5.8950892655904065e-002
         - 5.5428059165138988e-001
         - 1.2339179666976174e-001
         - 5.1888518931711369e-001
         - 6.8063654448911326e-001
         - 1.1264428325322024e-002
         - 4.4491327078847842e-001
         - 3.8525800066308552e-001
         - -3.1444155237908916e-001
         - -4.4346592670357317e-003
         - -4.2364693994361080e-001
         - 1.4986988550057245e+000
         - 1.3477017323399212e+000
         - -3.6011156046826109e-001
         - 2.0690091475501443e-001
         - 1.1448120200464569e+000
         - 7.0876639965209509e-001
         - -2.4875546984078270e-001
         - -7.3223051340314160e-001
         - 8.3911769201180630e-001
         - 8.9680564313680278e-001
         - -7.8074354502645993e-001
         - -1.3344023710441810e-001
         - -8.3063375005009321e-001
         - -9.2424933801690290e-001
         - -1.2512217172635334e-001
         - -7.4830397003493732e-001
         - -1.8126121263773987e-001
         - 7.9430718001296963e-001
         - 4.0693191202605401e-002
         - 8.3236674724979198e-001
         - 9.7972642182090153e-001
         - -2.0808333954470340e-001
         - -1.0621483804800449e+000
         - -2.0123526977793721e-001
         - -8.9586775593260715e-001
         - 7.5098519075162328e-003
         - 1.2820597345794582e+000
         - -9.6797155939360413e-001
         - 1.1170342517661997e+000
         - -1.3975603713541293e-001
         - 3.3830538814965305e-001
         - -7.8823159369084228e-001
         - 1.3568883298372916e-001
         - 1.6771450753982270e-001
         - 3.6936620775235252e-001
         - -1.1685589201634818e+000
         - 1.9074111719648301e-001
         - 9.0283336658219870e-001
         - -3.0142025657300153e-001
         - 2.7222186874884704e-003
         - -4.2265003493420811e-001
         - 6.3537824845082636e-002
         - 2.2088084285172035e-001
         - 2.1351520312076488e-001
         - 5.3275339451911152e-001
         - -4.0452013214967864e-001
         - 7.9647503116379303e-002
         - 2.4479830871717897e-002
         - 1.0395336232538568e+000
         - 4.2060240031290463e-001
         - -8.1139822091002045e-001
         - -8.3622902991656989e-001
         - 1.2571299838983012e+000
         - 5.0247530536002183e-001
         - 4.4067297683684212e-002
         - -2.9095927471413385e-001
         - -1.6587247577740225e-001
         - 1.3752451846768916e+000
         - 6.4170549947388122e-001
         - 1.4740919497603150e-001
         - -3.8514767467792360e-001
         - 7.6989050812693438e-001
         - 1.0016683529932240e+000
         - 7.2233007043396313e-001
         - -1.5756958908137830e-001
         - -1.3066317718638087e-001
         - 1.9075915531884799e-001
         - 2.5397874477674093e-001
         - 1.3157149976410594e+000
         - 2.7428833644409290e-001
         - 1.8557110860707265e-001
         - 2.2129079464383644e-001
         - 1.3748134213227208e+000
         - -9.1113076551737074e-002
         - 3.5261930428021099e-001
         - -1.0300523710463664e-002
         - -1.2689697672461953e+000
         - 3.5777474043153085e-001
         - 5.1699361639265390e-002
         - 6.5451431895954426e-001
         - -3.6752986140815469e-001
         - 3.0594324367439624e-001
         - 4.6086376928524109e-001
         - -3.0024911164734691e-001
         - -9.7589225234415433e-001
         - -1.6684711781292735e-001
         - -9.4122982015911238e-002
         - -8.3706384358056907e-001
         - -1.3490910607469062e+000
         - -1.1810297900009332e+000
         - 4.2532474941370912e-001
         - -4.4337835489993910e-001
         - -1.8246013894496826e-001
         - 3.8174553014041968e-001
         - -1.7294914877235115e-001
         - -1.5668473620044548e-001
         - 1.2561361253091035e+000
         - 1.4415530396637399e-001
         - 4.5881030721110399e-003
         - -1.4434361947924936e+000
         - -2.8791402141610101e-001
         - 2.9279555582701577e-001
         - 4.0862280944759494e-001
         - 2.5441940751232328e-001
         - 3.6255730285494081e-001
         - -7.9141049337945213e-001
         - -9.7875596671258031e-002
         - 5.9812280236296833e-001
         - -6.9959528817168792e-001
         - -2.0954643582574517e-001
         - -3.2177758653687177e-001
         - -2.0350252275140343e-001
         - 6.0634882308245996e-001
         - -1.1545094893470496e-001
         - 6.9420952996324281e-002
         - 1.7893764408173318e+000
         - 3.6368908268868039e-001
         - -6.0362047297940724e-001
         - 6.4614340403571516e-002
         - -5.6307089821408796e-001
         - 5.5119992269229645e-001
         - 6.9705706634907350e-001
         - -1.2858498100372670e-001
         - -1.0287654415262546e+000
         - -5.3435271026988718e-001
         - 4.8240605090324773e-001
         - 1.7820614283317457e-001
         - 1.9300046631148954e-002
         - -9.7576167558803062e-001
         - 1.0471505056996522e+000
         - 5.0228738911076953e-001
         - 4.8676803093365889e-001
         - 8.6856138417029438e-002
         - 4.7081472212859804e-001
         - 2.1393246286345780e-001
         - 1.0066693459274136e+000
         - 4.4443946643197829e-001
         - -8.4947273175440818e-003
         - 3.1106267429045048e-001
         - -2.7654789287792619e-001
         - -5.2816283534720354e-001
         - 5.6902850455878584e-001
         - 1.6340455919937684e+000
         - 3.0716192684437454e-001
         - -5.9860871398229920e-001
         - 2.4790573736353280e-001
         - -1.8292696823094514e+000
         - 2.7986870609198511e-001
         - 6.2616203816130511e-001
         - -9.4962411206724529e-001
         - -7.4114201795839418e-001
         - 3.1489055056906434e-001
         - -4.4783728982221332e-001
         - -4.3789131534787820e-002
         - -2.2198622323224043e-001
         - -5.9855330918052407e-001
         - 2.2459657250466067e-001
         - -1.8094317793011519e-001
         - -1.1634697346810575e-001
         - 9.5494619949991522e-001
         - -4.6380569259136872e-001
         - 5.6103444891035559e-001
         - -1.2519095237673397e-001
         - -1.9565529285057805e-002
         - -4.3183105952406214e-001
         - 1.9557201286426804e-001
         - -2.6464469843945682e-001
         - 3.9183402021429092e-001
         - 8.4488405657781196e-001
         - 1.6901724882891320e-001
         - -1.0202832590749904e+000
         - -3.5594262469142240e-001
         - 3.6533985547088137e-002
         - -1.5669250181776850e-001
         - -3.4365425880460540e-003
         - -6.0217956247858972e-001
         - 1.8524846645004536e-001
         - 1.6852522415902324e-001
         - -5.3573900632599902e-001
         - -3.8021210549856244e-001
         - -7.4700210646629198e-002
         - 2.1683585689312285e-001
         - -5.7543880755942167e-001
         - 1.0200567302203440e-002
         - 2.7652831728621774e-001
         - -4.3901976944610988e-001
         - -4.4826915054247835e-001
         - 7.9946834216790574e-001
         - -6.3244442179482674e-001
         - -1.8670657324188070e-001
         - 8.2547446874325719e-004
         - 8.0244629344819490e-002
         - 5.7275641679377065e-001
         - 2.0624553311221944e-001
         - -1.0370041838919659e-001
         - 1.1923134838422944e-001
         - 3.0885881537671483e-001
         - -3.0710651117131693e-001
         - -3.2969670645686283e-001
         - -4.2696196266772141e-001
         - 2.4136649706590554e-001
         - -6.1790907639762516e-001
         - 6.4090992114891798e-001
         - 5.9087114984942268e-001
         - 1.2169473356420832e+000
         - -2.1251073390800759e-001
         - 4.1382864714265094e-001
         - 6.3760044490066514e-001
         - -5.9232990031528798e-001
         - 1.8763062603090395e+000
         - 4.7533269921642624e-001
         - -8.3154555466102931e-001
         - 7.4123395730749930e-001
         - 6.9188688619328897e-001
         - 7.4829679491564738e-001
         - -6.3433038696850097e-001
         - -8.3327919000798695e-002
         - -7.1210837763022572e-001
         - 3.2035252111069085e-001
         - -5.9505572280150332e-001
         - 9.7049971539558044e-001
         - 9.7286967116793643e-001
         - 9.5367400473838175e-003
         - 4.6928837931863415e-001
         - -1.0730910962115141e+000
         - 1.1120311755988579e+000
         - 6.1562469869375824e-001
         - -1.6437164311724911e-001
         - -9.9805164140910907e-001
         - 2.7778119410749930e-001
         - 1.0105678921457389e-001
         - 7.0171446470156783e-003
         - 6.5589174684408680e-001
         - -4.8041085943967066e-001
         - 2.9213206331345276e-001
         - 1.0937219699871958e+000
         - -3.8730396305488696e-001
         - -6.7791122029103534e-001
         - -6.2130452585032844e-002
         - 6.9138437042126966e-001
         - -1.3633021667415661e+000
         - 6.2640623239151627e-001
         - -4.5896908037723672e-001
         - -3.8482324183426425e-001
         - -2.1991617825521059e-001
         - -6.3051767949165782e-001
         - -1.4572490122574178e-001
         - 1.3587635760112469e+000
         - 4.8260718211860471e-001
         - -3.3152105313979874e-001
         - -2.2043226381157083e-001
         - -6.4194973336881012e-001
         - 1.3281192122388137e+000
         - 6.1069917939509007e-002
         - 3.4065495878902521e-003
         - 4.9627838427386955e-001
         - -1.1019206732724121e+000
         - 4.8242828581790742e-001
         - 6.4587964932526309e-001
         - -1.0315621772514783e+000
         - 2.4783315326959157e-001
         - 9.4911061815217113e-001
         - -3.2536974563042786e-001
         - -3.3309022815546668e-001
         - -5.6068581548819041e-001
         - 3.8557960982788392e-001
         - -2.8547256615083000e-001
         - -8.3053295861349560e-002
         - 2.7707722963389847e-001
         - -7.6792255930402609e-001
         - -2.4870710745416388e-001
         - -3.0268792967869584e-001
         - -2.7386878538985066e-001
         - 5.9402059349790197e-002
         - -7.0491066992442397e-001
         - -4.0025781158881557e-001
         - -9.0626862622720204e-003
         - 2.1222742769171993e-001
         - 3.0090613582201171e-002
         - -2.1474099167119136e+000
         - 1.0245148256099235e+000
         - 5.4473119214181333e-002
         - -4.2002136490734981e-001
         - -7.5334798447411655e-001
         - 4.9067782131500376e-001
         - 3.5457690638408984e-001
         - 4.1662938968866921e-002
         - -1.2968522919209916e-001
         - -1.1737964215909700e+000
         - -1.0937367002717995e+000
         - -4.3002068518013492e-001
         - 8.3296807202578893e-001
         - -4.5483393499787222e-002
         - -4.6057162984394490e-001
         - -8.4329789106703790e-001
         - 6.4915397136738462e-001
         - 5.6627675473235772e-001
         - -1.2933328983450840e-001
         - 1.1652403658096850e+000
         - 3.0134267687055205e-001
         - -4.3381731310254423e-001
         - 3.4819637643873674e-001
         - 1.0666509104266930e+000
         - 1.2069942656986612e+000
         - 3.9011719602255368e-001
         - -4.7719894713860962e-002
         - -2.9423356166478110e-001
         - -9.1318548005304634e-001
         - 8.8947577535148870e-001
         - 3.9780472231617592e-001
         - 2.1315285337383386e-001
         - 3.0099310258335643e-001
         - -2.0400142837546995e-001
         - -2.7598096804078814e-001
         - -1.0198016539127918e-002
         - 4.0097563705712053e-001
         - 1.0970595866101307e-001
         - -1.8244726541133929e-001
         - -2.1891472607738177e-001
         - -1.7473731106516285e-001
         - -6.0920161278681340e-001
         - 2.6051939832166410e-001
         - 3.6509089756727447e-001
         - 3.4224134045483284e-001
         - -1.2355668423453401e+000
         - -1.9584213255729888e-001
         - -3.0244038722161498e-001
         - -4.8648876073998162e-002
         - 3.3925789038061177e-001
         - -6.1787788459566084e-001
         - 4.2104229656344067e-001
         - 1.3009436990445771e+000
         - 1.2665301080686092e-001
         - -3.9099083339529572e-001
         - -5.6129320279313701e-002
         - 1.1380807325530966e+000
         - -1.4921513474285317e-001
         - -4.2501979683022262e-001
         - 3.8878092358464617e-001
         - 3.6710226215649172e-001
         - -1.4082642896389681e+000
         - -7.5648535216145218e-001
         - -7.9710676735608499e-001
         - -1.2693470885188518e-001
         - -8.8767365255992869e-001
         - -3.3178308480437790e-001
         - 4.6564645078299727e-001
         - -3.8438509791039632e-001
         - 2.4457928176340293e-001
         - 2.1056913404121291e-001
         - -5.8541901679109748e-002
         - 5.1333735068345054e-001
         - 1.3637793539979401e-001
         - 1.6235300752939108e-001
         - -1.3951573507797181e+000
         - -1.1895470033909726e-001
         - 5.9281634840685360e-001
         - -4.9962255354504526e-001
         - -8.1848829598660322e-001
         - -4.1138033134245428e-001
         - -1.2146785751112588e+000
         - 1.7509411175508680e-001
         - -1.2597529956244662e+000
         - 4.3385612735965962e-001
         - -2.0219615525789583e-001
         - 2.3960360332574138e-001
         - -7.1788613955310887e-002
         - 1.3825402622682278e-001
         - 1.3365841540583336e+000
         - -3.2043538108511921e-001
         - -4.2813536424386794e-001
         - 9.4346698224975389e-001
         - -3.5386889352547701e-001
         - -3.9662172292195963e-001
         - 4.9608621463122140e-003
         - 2.7394145458770286e-001
         - 6.9454155535459783e-001
         - -4.4336591094498440e-001
         - 5.5050262446697695e-001
         - -1.0089220856905612e+000
         - -3.7622173359268002e-001
         - 1.6803560590536784e-001
         - 2.1067038506325818e-002
         - 3.6358829397867505e-002
         - -1.0787769407587633e+000
         - -9.3434978966035712e-002
         - -1.0888544873366741e+000
         - -1.0551350512386765e-003
         - -1.0516547992106073e+000
         - 1.8362293907266627e+000
         - 1.5203983464365446e-002
         - 5.1062009382515439e-001
         - -4.2622903062342510e-001
         - -1.0630135434041423e-001
         - 3.6659088573234416e-001
         - 4.8174466859520559e-001
         - -5.5154204163684561e-001
         - 1.1878544399825692e+000
         - 1.2691744688748261e+000
         - -3.3599741998422333e-001
         - -1.3262729382075311e-001
         - 5.6719241574944168e-001
         - -7.6472565966349260e-001
         - -1.2617426334523882e+000
         - -1.3800032988090054e-002
         - -3.2784786836939545e-001
         - -1.0446887029980410e+000
         - -5.4224785223581617e-001
         - 4.9892875962537148e-001
         - 8.4818203626491673e-001
         - -3.8890940677468133e-001
         - -7.1545171184013334e-001
         - -4.6271548068823401e-002
         - -6.7964253908887828e-001
         - -1.5658619026586416e+000
         - 4.2275821572280486e-001
         - 2.8242227396864783e-001
         - -9.3058628030922208e-001
         - -1.8647081629239184e-001
         - -2.2501392197071435e-001
         - -8.9567299236519154e-002
         - -1.0679969722109151e+000
         - -8.9005183861915707e-002
         - 1.2121840948389522e+000
         - 2.7965759002808449e-001
         - -4.8325466262306577e-002
         - 4.6457777305486045e-002
         - 1.6355707716598582e+000
         - 4.3785198228273219e-003
         - -4.0817242478389087e-001
         - -5.9447197785077832e-001
         - 2.4734534116424503e-001
         - 4.8502544827225831e-002
         - -2.9034608359846792e-001
         - 9.6629368326945547e-002
         - 1.8107531943831404e-001
         - -3.6982238253533528e-001
         - -2.3576305129663006e-001
         - -5.6750956298273231e-002
         - -1.6059795302153519e+000
         - 3.4766780324804003e-001
         - -5.9373167562428786e-001
         - 6.5550167829477451e-002
         - -7.5600126449485294e-001
         - -3.9309794954045940e-001
         - -5.1506315331921437e-001
         - -7.6614323152529515e-002
         - 3.7709980607337955e-002
         - 1.4148417923562349e+000
         - -2.0352491427177979e-001
         - -1.3465559363509854e+000
         - -1.2582595293210935e-001
         - 3.7131817964917718e-001
         - 8.0316964820426262e-001
         - 4.8958843867924867e-001
         - -5.1951440110090852e-001
         - -5.7519322654985183e-001
         - 5.5405364670951818e-001
         - -5.2899600959924009e-001
         - 7.3004540130892137e-002
         - 4.2297362333418126e-001
         - -1.8122389369431635e-001
         - -4.6062892395343424e-001
         - -1.0914096521742617e-001
         - 8.5130446780510083e-001
         - -5.9740948089558865e-001
         - -9.7699020818727633e-001
         - -7.9235634290521606e-001
         - -8.9281242453665713e-002
         - -3.2382174817957976e-001
         - -5.5289916743756229e-001
         - 9.8472646394245889e-001
         - -8.5899816630937520e-001
         - -3.0384850798001573e-001
         - 2.2453328210511109e-001
         - -5.3007799645266940e-001
         - 1.6562136243641271e-001
         - 6.9363245784474628e-002
         - -7.8179483384704495e-003
         - -5.0075986394557703e-001
         - -9.0399476334152051e-001
         - 1.0832227228086782e+000
         - -2.7345330347794966e-001
         - 2.3793662882144953e-001
         - 3.6104740966781351e-001
         - 6.4644489529785509e-001
         - 2.8632109504800746e-002
         - 1.5610989567749070e-001
         - 1.0504762126357907e+000
         - 6.9572411322458405e-001
         - -1.0866644702649504e+000
         - -7.3769870614166788e-001
         - -7.9452156902181814e-001
         - -8.0982622103299429e-002
         - 9.3261984286930777e-001
         - -2.2218754782168858e-002
         - 2.7127336299066040e-001
         - -1.8709325853837375e+000
         - -1.3900535959154550e+000
         - 1.7843070804431003e+000
         - 5.4294229831472718e-001
         - -1.3026863069660251e+000
         - -6.8351540783729392e-001
         - 2.9192204270639087e-002
         - 4.7874675319606141e-001
         - 1.2311329530273363e+000
         - 3.4898419407867837e-002
         - -5.6513455169990345e-001
         - -8.5117710985318473e-001
         - -1.5201911708442259e+000
         - -6.6027607113520315e-001
         - -2.2682762728440936e-001
         - -2.8725727825836694e-001
         - -6.3868657629935188e-001
         - 8.6188303947575806e-001
         - 7.9859643085854887e-002
         - 5.8065123498623605e-001
         - -5.8359982642263564e-001
         - -5.7693082423560937e-001
         - -2.4120383907478105e-002
         - 4.8084357248000115e-001
         - -4.8176833986290379e-001
         - 4.4776191979103974e-001
         - -1.4262238660190341e+000
         - -1.0058202877517743e+000
         - 3.1357373585608200e-001
         - -7.2851694953434609e-001
         - 4.7924761800031446e-001
         - 6.8866721247444107e-001
         - 7.5745179444840841e-002
         - -6.4446846125915513e-001
         - 4.3869328282370107e-001
         - 2.0570654472964400e-001
         - -1.7831963206861440e-001
         - 4.4082219555579324e-002
         - -1.0159755488123823e+000
         - 5.8148114182456925e-002
         - -3.2982752581703823e-001
         - -1.0676117672502761e-001
         - 4.3517460507025801e-001
         - -2.9712500946190123e-001
         - 1.7897679214912623e-001
         - 9.0311862989594621e-002
         - -7.8005717512342487e-001
         - -9.4129803832120357e-002
         - -7.6478511592049292e-001
         - 6.2639329345325756e-001
         - 6.1454149386890922e-001
         - -6.3762983926652872e-001
         - 7.0762720076645580e-003
         - 4.5230709883654208e-001
         - 6.6953895472559233e-001
         - 3.8901742156574098e-001
         - -2.8646938406970346e-001
         - 5.0380073047228247e-001
         - 1.0721925787511863e-001
         - -5.0302189774291217e-001
         - -3.5389351066080699e-001
         - 2.9353717414553909e-001
         - -4.7312605175236222e-001
         - -1.9568208062082387e-001
         - 3.1300948670494494e-001
         - -7.2516799670233845e-001
         - 1.8905640307707944e-001
         - 1.8397360472517782e-001
         - 6.3094251023334180e-001
         - -2.4482790927923551e-001
         - 4.2621513563012092e-001
         - -1.0664562286818944e+000
         - 6.3680135727500675e-001
         - 9.9802826085775831e-001
         - 9.0311591034967864e-001
         - -9.3206305467680994e-001
         - -1.5271956171518236e-001
         - 4.5900824238339966e-002
         - 7.5782628975613264e-001
         - 2.5591379151275384e-001
         - 1.6628021198362928e+000
         - 1.4256575753745986e+000
         - 1.0928565774845294e+000
         - 3.6749444064724701e-001
         - -8.5361879424390175e-001
         - 5.0018782373667292e-001
         - -1.4654836648551548e+000
         - -8.9179918838011393e-002
         - -9.6878504920815167e-001
         - -4.5021887586955772e-001
         - 1.4901321910063528e-001
         - 4.3888696493538160e-001
         - -3.2430129846336014e-001
         - 4.1654858355633717e-001
         - 2.5799971017592399e-001
         - 3.8334279243408032e-001
         - 6.6512053868466769e-001
         - 5.4035789966206327e-001
         - 1.1685023774133645e+000
         - 6.1592930068340435e-002
         - -5.9545760950148174e-001
         - -1.5535088081806812e+000
         - -1.0626315684754462e+000
         - 8.7070601600300737e-002
         - 6.7180753157934092e-001
         - 9.9915021426105491e-002
         - -4.2721863879670877e-002
         - 3.2475115915413344e-001
         - 9.2122938160699486e-001
         - -9.3198363834362488e-002
         - -1.3500255447551199e-001
         - 7.5100805763288303e-001
         - 7.5524751540616464e-001
         - -2.3782382597279911e-001
         - -4.4364862469864508e-001
         - 9.4656387705921341e-001
         - -9.0614082653075592e-002
         - -2.4553230509451901e-001
         - -5.7289763693751850e-001
         - 1.1839318586069394e-001
         - -1.2247773091251977e-001
         - -3.6633150725667440e-001
         - -4.0366389460919899e-001
         - -9.9738887308767155e-001
         - 6.8641363959932544e-001
         - 2.5541445260738271e-001
         - 5.4023304463429689e-001
         - -4.1878712210324487e-001
         - 3.7204555329545613e-001
         - -1.6122343418388801e-001
         - -1.9100481692066809e-001
         - 6.5087879221691769e-001
         - -6.5238550380365135e-002
         - -6.2249798369330952e-003
         - 4.5376645992221365e-001
         - -1.7987570949446260e-001
         - -6.8194585277474462e-001
         - -7.9487828897894885e-001
         - -1.5887584899320578e-001
         - -1.5146553133678545e-001
         - 2.1187098888272535e-001
         - 1.2093643621062629e-001
         - 3.8071997447242789e-001
         - -1.1583643616971476e-001
         - -9.5273728887846111e-003
         - 1.6417054642453948e+000
         - 4.6905373600953143e-001
         - -3.1825758983062297e-001
         - -5.7564010558981449e-001
         - -1.7872463883403270e-001
         - 6.7777531889262510e-001
         - -1.1383775695947755e-001
         - -5.2498110516159724e-001
         - 1.2420205047977233e+000
         - 6.1303157658252383e-001
         - -5.9860270512269920e-001
         - -5.4739002908354739e-001
         - -3.1710597020280140e-001
         - 4.0741696241989867e-001
         - 6.0190227149066966e-001
         - 9.2760927792137815e-001
         - 2.9114807255215697e-001
         - 1.2048458645983695e-001
         - -1.3262692374324284e-001
         - 6.8193938935069531e-001
         - -6.8144079989132827e-002
         - -4.2161385597231360e-001
         - -1.4912280030047717e-001
         - 7.0203360536556958e-001
         - 1.9112410820553893e-001
         - -6.3510977719007466e-001
         - -2.5253452455767794e-001
         - 5.7109360144137811e-001
         - 9.6230188475345341e-002
         - 9.0298092233953839e-002
         - -3.8877206916662556e-002
         - -8.7298594724371426e-001
         - -1.2197624109073786e+000
         - -1.2086797901935196e-001
         - -4.7609939113726801e-001
         - 1.9482653499263829e+000
         - 2.0210025357363304e-001
         - 1.4030769355074504e+000
         - -2.2047429371012192e-001
         - -6.6298629957587618e-001
         - 2.0389606573793069e+000
         - 2.0780239519655466e-001
         - -1.0618031587617203e+000
         - -8.6199148507215451e-001
         - 7.7726623227959180e-001
         - -5.6508402854300428e-002
         - -1.5348606664237166e-001
         - 3.7085279846989105e-001
         - -1.2806102813271436e+000
         - -4.6020847425777545e-001
         - -6.2496396262756071e-001
         - -9.4152323839430174e-001
         - -1.8382891295285599e+000
         - -8.3106607333441662e-002
         - 1.8481512672855835e-001
         - -1.1630375636133891e-001
         - -2.8218807063913937e-001
         - -1.0046947793710899e+000
         - 3.4539953855365252e-001
         - -6.1724639080476151e-001
         - -1.2110450051514738e+000
         - 3.6506763791617430e-001
         - -8.0142212973372914e-002
         - -1.4911095774539640e-001
         - -3.5398895282847614e-001
         - -3.7789000258084920e-001
         - 2.6594314534985608e-001
         - 1.6922658159955709e-002
         - -3.5334984138251196e-001
         - 8.2270863831551622e-001
         - 7.9830698123621771e-002
         - -2.1529581867366129e-001
         - -4.0282062512656719e-001
         - 1.0629126891651073e+000
         - -6.4794034614844634e-002
         - 3.9842272871625867e-002
         - -1.1362434731389219e-001
         - 3.6297455316139271e-001
         - 8.4419255067791032e-001
         - -6.4197047456760248e-001
         - 3.0503329300320697e-001
         - -1.8560357195224225e-001
         - -8.4430332682975090e-002
         - -2.5401621586312573e-001
         - 7.8616121992565002e-001
         - -8.5257346625028607e-001
         - 2.4364175746368069e-001
         - -5.5640817619928640e-001
         - 3.1170738751482696e-001
         - -3.1191110929250304e-001
         - 1.1922863047208263e+000
         - -5.1665052523100652e-001
         - 3.5339915853293347e-001
         - 8.2048500835302429e-001
         - 2.3044535172007075e-001
         - 2.0691590691066569e-001
         - -9.8069874043208227e-001
         - -1.8567260706249483e-001
         - 2.9667165919284333e-001
         - 5.3388865749975511e-001
         - -2.2361685944220216e-001
         - -8.8732188798362088e-002
         - -1.8817568203643711e+000
         - 1.2299060424788260e-003
         - -9.7942659180571795e-002
         - 6.6677507709986261e-001
         - -9.5336112841825593e-001
         - -7.5781055673823667e-003
         - 7.8779094937133654e-001
         - -8.6355117904942447e-001
         - 1.3787055918402140e+000
         - -1.2331593107311849e+000
         - -1.1023326550685759e+000
         - 2.0464218299776574e-003
         - 7.0405186209739823e-001
         - -1.2735327299772274e+000
         - -2.4086715105152279e-001
         - -3.6669699297171794e-002
         - -2.8270945578926743e-001
         - -5.4376454811654443e-002
         - 5.0489858614237648e-001
         - -4.1040747124118393e-001
         - 6.0908781993120398e-001
         - 2.0793020915350036e-001
         - -4.6568003564261701e-001
         - 2.5286613905345839e-001
         - -1.0708699359226672e+000
         - -5.6444919778001290e-001
         - -9.2190026781411338e-001
         - 7.8506254332563330e-001
         - 1.0065021758629824e+000
         - 1.9870897764727419e-001
         - -6.1090064011743705e-001
         - 3.9654280232503580e-001
         - 4.3883214248829455e-001
         - -3.8100530238616653e-001
         - 1.8937660112797802e-001
         - 7.3604593859013223e-001
         - 3.7458873518764019e-001
         - 2.8168468198025931e-001
         - 6.2444773005678356e-001
         - 5.0515962924987401e-001
         - 1.2401224724153599e-002
         - 5.3912638020002446e-001
         - -3.4686271647492301e-001
         - -9.3974147454791979e-001
         - 2.2575794482119677e-001
         - 4.8651696811071099e-001
         - 5.9371095149098074e-001
         - 2.0166254984957305e-001
         - 9.7199569664563903e-002
         - 2.3377736090864378e-002
         - 6.6824289403888448e-001
         - -2.5325391276360221e-001
         - 7.1064988430133624e-001
         - -4.2326058031693992e-001
         - 5.8891862395749373e-001
         - -4.4731827012492575e-001
         - -1.0205680332147096e+000
         - 6.6974520814331334e-002
         - 2.1099076066846381e-001
         - -3.0952772595600309e-002
         - -7.0437663694202390e-001
         - 4.5668229550768202e-001
         - 5.7633819090939453e-001
         - 2.7355140787319315e-001
         - 6.3102696955931126e-001
         - -1.5783180825572446e-001
         - 2.4938835956235095e-001
         - 1.5898868705785352e+000
         - -4.5485062528207360e-001
         - -3.3850481157405166e-001
         - 4.2483806528880036e-001
         - 5.2951397752660478e-001
         - 2.4449632111694025e-001
         - -2.5443764606865021e-001
         - -1.7839543298332761e-001
         - 6.5241923673697189e-001
         - -6.8535113164315575e-001
         - -4.6433053476388479e-002
         - -4.8204438548886791e-001
         - -3.4679351128875019e-001
         - 4.2608623212129423e-002
         - -4.3428668429406353e-001
         - 4.9595694045476979e-001
         - -4.9660161464294555e-002
         - 4.2585818460713060e-001
         - -2.5292711210051255e-001
         - 1.2295795232090953e-001
         - 4.2066904741864403e-001
         - -4.4106982865445560e-001
         - 2.9412766611689894e-001
         - -6.1805431838871794e-001
         - -9.7874841691115835e-002
         - 7.4631918601831959e-001
         - -3.2373987953258278e-002
         - -2.1234687076727249e-001
         - -6.6950762014146081e-001
         - -5.9948565698038532e-002
         - -1.4235872494100271e-001
         - -2.1864471601030139e-001
         - -3.8330931238635724e-001
         - -6.5229345179964660e-001
         - -6.6926639106633579e-001
         - 3.6633794409418596e-001
         - 2.5902353973029446e-001
         - 1.0311548389996177e+000
         - -9.0859198524785656e-001
         - -6.3733830471548500e-002
         - -2.1896219744250150e-001
         - 3.5508912081815341e-001
         - -4.3686044527820195e-001
         - 2.3195265507933557e-001
         - -9.6011734943551086e-002
         - 1.0529496654673520e+000
         - 3.8048755016923064e-001
         - 2.3536851069496614e-001
         - 6.7002770721844740e-001
         - -4.5907638223373348e-001
         - 8.5049799413913538e-002
         - -7.1401951842356121e-002
         - 3.2254692466716645e-001
         - -3.1602839798347943e-001
         - 2.9536419189472407e-001
         - 6.4757949902029699e-001
         - 3.1997611320627517e-001
         - 7.3334963310259249e-001
         - -7.9097442939146267e-001
         - -1.1963871884409283e-001
         - -8.0202297049025728e-001
         - 1.7513544784640794e-001
         - -5.4998960863087720e-001
         - -4.5758332303963384e-001
         - 2.3509804457397984e-001
         - 9.2683126220799650e-001
         - -4.2184902535130120e-001
         - 7.3290930649983987e-001
         - 5.8240787549315187e-001
         - -4.5819233453056341e-001
         - 6.4095009064289210e-001
         - 1.0830584214391772e+000
         - -9.5381338082286193e-001
         - 9.5766738237798399e-001
         - 5.4819973312427106e-001
         - -4.9628903836658805e-001
         - -1.2805709816677180e-001
         - -1.1005785578978236e-001
         - 3.7168787833104228e-001
         - 9.2992890465401357e-001
         - -1.0647304332521017e-001
         - 9.3797539377312211e-001
         - 1.0540146810739655e+000
         - 4.3671484906166036e-001
         - 5.9995008208520451e-001
         - -4.4286738357951599e-001
         - 1.7756105642407150e-001
         - -3.9977031476819830e-001
         - -1.5515762103119675e-002
         - -1.3239703155038447e+000
         - 7.2303069646459228e-001
         - -1.0140884548150517e-001
         - -5.2475530383161106e-001
         - -1.7395171458753411e-001
         - 3.6644726806861913e-002
         - -3.2412573959097213e-001
         - 1.0513709405368905e+000
         - -9.1340891069540986e-001
         - 1.5854902690744485e-001
         - 3.5850667817667714e-001
         - -3.4430309572494788e-001
         - -1.3711172419800162e+000
         - 4.1992229622885374e-001
         - -1.7356707591967918e-001
         - 1.2835953280172241e-001
         - 2.4125249959420763e-002
         - 3.0549972049789864e-001
         - -2.7319707674711530e-001
         - 1.1930944497172431e+000
         - 1.6785099129147243e-001
         - -3.9558627113565298e-001
         - 2.8172956573320762e-001
         - 7.3054773046892618e-002
         - 1.3692333732758650e+000
         - 8.5339534834285324e-001
         - -8.9514259756136194e-002
         - -7.2666268815117091e-002
         - -4.6007857917701317e-001
         - 1.2815751249923660e-001
         - -4.7820866960397163e-001
         - -2.0471529302505678e-001
         - 5.5089871959534975e-001
         - 2.4262442403971723e-001
         - 3.7658189389228319e-001
         - -1.4379497563241647e-001
         - 1.6498560851320032e-001
         - 2.7713206390446245e-002
         - 3.3177659367635548e-001
         - 5.6685185829554685e-001
         - 1.2750229406849195e-001
         - -6.0359478865686689e-001
         - 3.1555655340750549e-001
         - 1.6847715838078747e-001
         - 3.7254141364542931e-001
         - -4.0347577062979534e-001
         - 1.7532214541109670e-001
         - -5.6722735833070093e-001
         - 2.2899779142570784e-001
         - 1.7723849451299586e-001
         - -2.5422910006141752e-001
         - -1.2338872972600703e+000
         - 2.0106581616632107e+000
         - 3.3253463250507881e-001
         - -3.8496455102863547e-001
         - -7.4321018213391085e-002
         - 1.9240299066515062e-001
         - 1.5346644735339496e-001
         - 2.6116070977733058e-001
         - 1.8142490102035624e-001
         - 1.2572277880687277e+000
         - 5.9978748500941197e-002
         - 1.5584726691456077e-001
         - -2.9114526512458350e-001
         - 2.2361411711357032e-001
         - 6.5852759995629367e-002
         - -1.1923951721656283e-001
         - -4.8595257060157893e-001
         - 4.8013668807965149e-001
         - 4.4264669862411637e-001
         - 2.1898310991473000e-001
         - 1.3855893977694167e-001
         - 1.9953271436427572e-001
         - -1.0482085860243419e-001
         - -1.1485216580230319e-001
         - 4.2457886853957494e-001
         - -2.7702900774061560e-002
         - 2.0018730997415984e-001
         - -9.2126672999540624e-003
         - 7.7342733391233387e-001
         - 5.8098735364955834e-001
         - -4.6429374738113915e-001
         - 1.6105738012049033e-002
         - -2.6168870797233718e-001
         - 1.9587989347185153e-001
         - 7.9032959297034278e-001
         - 2.4572824940478680e-001
         - -8.4533381023249921e-001
         - 8.3040205778487053e-001
         - -7.1569034489587535e-001
         - -4.7591477967692214e-001
         - -3.6677706077827117e-002
         - 7.1285215873944807e-001
         - 6.8748584850492123e-001
         - 6.1817066277368403e-002
         - 1.0238316513654879e+000
         - 5.9645288851986511e-001
         - 2.7812407030146863e-001
         - -5.8705779035101291e-001
         - 6.2034858243241953e-001
         - 2.8177935577121382e-001
         - 3.8899225477849342e-001
         - -5.4419398417847265e-001
         - 8.4640738113056668e-001
         - -7.0985266296008875e-001
         - 3.1017709599330279e-001
         - 9.0650329245562666e-001
         - -5.7477241465061235e-001
         - 4.5797837525207150e-002
         - -3.3082574091501221e-001
         - -8.0424150531362948e-001
         - 1.6391876293640911e-001
         - 8.1456869998217363e-001
         - -6.0273923247019856e-001
         - 1.0245948956652894e-001
         - -2.2656673621651877e-001
         - -1.6232811312868014e+000
         - 5.4849137874123999e-001
         - -1.9114710124204928e-001
         - -3.3264997144988778e-001
         - 6.1001631634530588e-002
         - 8.2358198864082199e-001
         - 8.5230990211469404e-002
         - 8.9433752006671287e-003
         - -4.2345410330703237e-001
         - 1.5413181104209164e-001
         - 5.2701039707563924e-001
         - 1.4803324109285651e-001
         - -2.4794412732347528e-002
         - -6.0163110485461835e-001
         - 3.1886261038297059e-002
         - -2.8000999156602796e-001
         - 9.9592725129389581e-001
         - -4.4486996093511047e-003
         - -5.3310176825639188e-001
         - 1.0932361844335993e-001
         - 4.5404195022119070e-001
         - 2.7665971349378687e-001
         - 1.0102079023077610e+000
         - -2.9437911801625538e-001
         - 5.5192967727524644e-001
         - -1.4107857823304140e-001
         - -5.0139056670731741e-001
         - -2.9909358365613131e-001
         - -2.2081650809719100e-001
         - 1.7193033403805725e-002
         - -1.1947422553844698e+000
         - -1.2888128473101179e+000
         - -2.3932614019702297e-001
         - -7.7920714997774754e-002
         - -9.1972362949345743e-001
         - 4.6842522548761684e-001
         - -5.2233407330763504e-001
         - -3.2679664733469310e-002
         - 2.4506252484886601e-001
         - 4.5729243487985266e-001
         - -1.4545582792820549e-001
         - 1.3333029043174434e+000
         - 6.1911347811305295e-001
         - 5.3090355327309080e-001
         - 9.9923249106333278e-003
         - -2.7708883163357895e-001
         - 6.1345990189002986e-001
         - -9.0380555591314182e-001
         - 1.3039151487312892e-001
         - 2.4440377039335837e-001
         - -5.9966801956807414e-001
         - 4.3216060980314519e-001
         - 3.7484089593920067e-001
         - -1.7887241445223120e-001
         - 8.6196814078055695e-001
         - -2.7746422675669213e-001
         - -1.1340723936964327e-001
         - 4.6816803194157058e-001
         - 8.8317723605108345e-001
         - -3.6868765512295321e-001
         - 4.3415947468133431e-002
         - -4.2306242427732393e-001
         - 4.1330568985280562e-003
         - -7.7216006464039019e-002
         - 1.7469773942340069e-001
         - 5.8674994700618621e-001
         - -4.3850569687756691e-002
         - -5.5145286166300000e-001
         - 6.8774078994016874e-001
         - -2.2409011596116626e-001
         - -2.6216942786902436e-001
         - -4.7029234615439652e-001
         - 1.5888676502278831e+000
         - 7.2810008982373930e-001
         - -2.7003605377977258e-001
         - -1.0515661284687050e-001
         - -4.1590320090642691e-001
         - -5.4319033912880477e-001
         - -7.2001446290133253e-001
         - 6.6851934053655371e-001
         - 1.2221518332559643e-001
         - -1.0480954696707016e-001
         - -7.4534738576006887e-001
         - -1.2170981289942353e+000
         - -2.6087981920398157e-001
         - -1.9568218530780250e-003
         - 3.9860062277986658e-001
         - 2.4292410423736494e-001
         - -4.6506479066083839e-001
         - -3.1210320883008602e-001
         - -6.8906691068742021e-001
         - -6.1452908746218407e-002
         - 6.9214205002020257e-001
         - 2.8178439735920419e-001
         - -4.8117858710873840e-001
         - 3.2892238670802160e-001
         - -1.0667858738691598e-001
         - 3.3712502093169866e-001
         - -4.4041735507165819e-001
         - -2.8459948474745661e-001
         - 1.0840716988115544e-002
         - 2.9913255718883208e-001
         - 2.8774575792122098e-001
         - 1.7170020711271250e-001
         - 7.9242795541815889e-002
         - 3.8317520990367199e-001
         - 6.8607141265243266e-001
         - 4.0593267882553091e-001
         - -2.8038003695651076e-001
         - -2.0784427138305198e-001
         - -3.7064477898761705e-001
         - 5.6280786037100938e-001
         - -3.2553384816707415e-002
         - -4.1233869949898211e-001
         - 4.6352204474344483e-001
         - 6.4687141834077100e-001
         - -1.2633922699294237e-001
         - -1.5554627700938051e-001
         - 6.0424619875476282e-001
         - 5.1490624757367834e-002
         - -3.0332973222718462e-001
         - 4.9036946804976356e-001
         - 7.4345721075011262e-001
         - -3.7661525421630582e-001
         - -1.7686227356391835e-002
         - 4.6532016477801358e-001
         - -7.1248444967139346e-001
         - 4.1942469984727032e-001
         - 7.9345973635921829e-001
         - 6.0990980477228174e-001
         - 1.1464998718756969e-002
         - -8.0425397741810245e-001
         - 1.4078596664949570e+000
         - 4.8405129618484991e-002
         - 1.3761737990454553e-001
         - -5.7283288519234965e-001
         - -5.5954995822270048e-001
         - 7.4335512018321559e-002
         - -2.0563380719948152e-001
         - 6.6873332610825265e-001
         - -1.1508137912409566e-002
         - 7.3580090537218490e-001
         - 1.4780162673255601e-001
         - -1.5093918213500307e-001
         - 6.4408832302712893e-001
         - 4.7691173849638974e-001
         - -1.0893543780703590e+000
         - 1.8603351711512253e-001
         - -6.5380590802340843e-001
         - 1.5183697404401378e-001
         - -6.4060619946880559e-001
         - -1.8549547113380821e-001
         - 1.7482723198479994e-001
         - -8.6312337716690868e-001
         - -3.8707371232911730e-001
         - -4.8331703249530109e-002
         - -3.0253794142611884e-001
         - -9.9861110557201294e-001
         - 4.4419341645524940e-001
         - 2.6436349277113769e-001
         - 2.8736351243960673e-001
         - 9.0003019903865666e-001
         - 3.0152645780368459e-001
         - -5.1446448213599560e-001
         - -8.3742321621863999e-002
         - -3.2539588205165981e-001
         - 2.8574762849045809e-001
         - 1.4619433024400261e-001
         - -4.6816396835513904e-002
         - -8.5552206467414338e-001
         - -2.6491552356281944e-001
         - -1.5305042614214326e-001
         - -7.8617165148800439e-001
         - -8.9759189358384639e-001
         - 1.4802309587020657e-001
         - 4.5066224718612957e-001
         - 8.5872483255187460e-001
         - 2.1457218302748685e-001
         - -2.8599086304309845e-001
         - -1.9963469198896122e+000
         - -4.1114857966498253e-001
         - 1.8468451854409565e-001
         - -4.8733959232116925e-001
         - -2.3724210917630148e-001
         - 9.6823266556202048e-001
         - -2.6122614226929480e-001
         - -6.4450920136525525e-001
         - -2.6845178360171845e-001
         - 1.1083327858052718e+000
         - -1.0642126195379642e+000
         - -2.4493454569408771e-002
         - -8.7560891905252181e-001
         - -3.1686281026648097e-002
         - 2.0848868238942467e-001
         - 1.8442015359445374e-001
         - -1.7051531507542411e-001
         - 2.3787965590347207e-001
         - 5.3978899803314540e-001
         - 2.4252104187498053e-001
         - 5.4204810686302451e-001
         - 2.4314061009884824e-001
         - -1.9193172889193594e-001
         - 6.2243074150073130e-001
         - 2.7228293022865913e-001
         - -2.0510932048838357e-001
         - 2.2843204896818678e-001
         - -1.1769202700027497e-001
         - 2.1684418596007821e-001
         - 5.6432762408760451e-001
         - 2.4443709135811838e-002
         - 2.0150728811790579e-002
         - -2.0875076686663707e-001
         - -7.2024301436035321e-001
         - -3.9541751528587332e-001
         - 9.4091154853132708e-001
         - -1.5774351529330735e-001
         - 5.9722195853898874e-001
         - -3.3853090441403326e-002
         - -9.2245416648519984e-001
         - 1.9267136182186503e-001
         - 9.0221193363197325e-002
         - -5.9994371363078691e-001
         - -3.3863801272208155e-001
