%YAML:1.0
opencv_ml_ann_mlp:
   format: 3
   layer_sizes: [ 85, 50, 50, 7 ]
   activation_function: SIGMOID_SYM
   f_param1: 6.6666666666666663e-001
   f_param2: 1.7159000000000000e+000
   min_val: -9.4999999999999996e-001
   max_val: 9.4999999999999996e-001
   min_val1: -9.7999999999999998e-001
   max_val1: 9.7999999999999998e-001
   training_params:
      train_method: BACKPROP
      dw_scale: 1.0000000000000000e-003
      moment_scale: 1.0000000000000001e-001
      term_criteria:
         epsilon: 1.0000000000000000e-008
         iterations: 10000
   input_scale:
      - 1.7182381929132148e+001
      - -8.5138467995701319e+000
      - 1.7588069263300284e+001
      - -8.7227732051839286e+000
      - 1.9601426364934650e+001
      - -9.0194967218294391e+000
      - 2.1624602344019955e+001
      - -8.7825007778121496e+000
      - 2.3118257031036137e+001
      - -7.9491404218918182e+000
      - 2.2612664302066019e+001
      - -7.7163938955723204e+000
      - 2.0732774275563539e+001
      - -8.2666830992728997e+000
      - 1.7769142293449878e+001
      - -7.9703119746422670e+000
      - 1.4979444223693006e+001
      - -7.2020476117011620e+000
      - 1.3949151592272644e+001
      - -6.6955207089209106e+000
      - 1.
      - 0.
      - 6.2919829554748041e+001
      - -7.5536871390632871e+000
      - 6.1134174771151145e+001
      - -6.0866113551424581e+000
      - 5.8128363889263710e+001
      - -5.6879421481021311e+000
      - 5.9149305266999725e+001
      - -5.9525283806982729e+000
      - 5.7965182243464483e+001
      - -7.0340802197646823e+000
      - 1.9701625737388472e+001
      - -7.1167585573975831e+000
      - 1.9725002769555992e+001
      - -6.7257428307153813e+000
      - 2.0195542095425527e+001
      - -6.0027753937291264e+000
      - 2.1391416222478039e+001
      - -4.9525255997012749e+000
      - 2.2180226401545116e+001
      - -5.7590401078879196e+000
      - 2.1923032347014157e+001
      - -6.7568005879876800e+000
      - 1.9523423116222695e+001
      - -4.4104799533073082e+000
      - 1.7721700525014757e+001
      - -5.1398736358865698e+000
      - 1.6598719349672887e+001
      - -5.5059535319255923e+000
      - 1.5950043085149517e+001
      - -5.6028001220362231e+000
      - 1.7791780958727664e+001
      - -5.3244718971569283e+000
      - 1.8844700362774191e+001
      - -4.7384978818558832e+000
      - 2.4691702821050207e+001
      - -7.7784474070742800e+000
      - 3.0640626503845628e+001
      - -7.2664644195206218e+000
      - 3.1104439267485542e+001
      - -5.8191236384496010e+000
      - 2.7800165980147021e+001
      - -5.3495387636163185e+000
      - 2.9542232785605670e+001
      - -5.5772818558115445e+000
      - 2.7126698514747218e+001
      - -6.5341544385234043e+000
      - 2.1440564918996142e+001
      - -6.8423847774477604e+000
      - 1.5552114969993175e+001
      - -5.3228608331491785e+000
      - 1.3079658496467287e+001
      - -4.5934493981375990e+000
      - 1.2862462686457528e+001
      - -4.5193238969480438e+000
      - 1.3074095133931111e+001
      - -4.5702675355571643e+000
      - 1.5789311961178345e+001
      - -5.3661397719235673e+000
      - 2.4788907364337657e+001
      - -7.4229974259249181e+000
      - 2.6358324321222668e+001
      - -6.1847753244836987e+000
      - 2.5081733948061721e+001
      - -5.8875718244375328e+000
      - 2.5360862174756278e+001
      - -5.9926612859875350e+000
      - 2.2163861877933680e+001
      - -6.7006938216036618e+000
      - 1.4055627327316740e+001
      - -4.0042876191368926e+000
      - 1.3829037236918181e+001
      - -3.9533710885129176e+000
      - 1.4051453373240085e+001
      - -3.9844782675712191e+000
      - 1.
      - -1.9483709335327148e-001
      - 1.
      - -4.6100005507469177e-002
      - 1.
      - -4.1909009218215942e-002
      - 1.
      - -1.9893598556518555e-001
      - 1.
      - -4.1909009218215942e-002
      - 1.
      - -4.1908994317054749e-002
      - 1.
      - -1.3945524394512177e-001
      - 1.
      - -1.1121339350938797e-001
      - 1.
      - -1.6753171384334564e-001
      - 1.
      - -1.2160603702068329e-001
      - 1.
      - -1.1741758137941360e-001
      - 1.
      - -1.5469169616699219e-001
      - 1.
      - -1.1811520904302597e-001
      - 1.
      - -1.4164678752422333e-001
      - 1.
      - -1.4446802437305450e-001
      - 1.
      - -2.9402595758438110e-001
      - 1.
      - -1.3279519975185394e-001
      - 1.
      - -1.7501577734947205e-001
      - 1.
      - -1.5744909644126892e-001
      - 1.
      - -1.7501577734947205e-001
      - 1.
      - -4.1449964046478271e-003
      - 1.
      - -5.8945794589817524e-003
      - 1.
      - -4.1910409927368164e-003
      - 1.
      - 0.
      - 1.
      - -6.2862992286682129e-002
      - 1.
      - -1.1995882540941238e-001
      - 1.
      - -9.2199981212615967e-002
      - 1.
      - -9.7461581230163574e-002
      - 1.
      - -8.8105544447898865e-002
      - 1.
      - -9.6745759248733521e-002
      - 1.
      - -9.7188673913478851e-002
      - 1.
      - -1.0102000832557678e-001
      - 1.
      - -6.7564420402050018e-002
      - 1.
      - -1.3197888433933258e-001
      - 1.
      - 0.
      - 1.
      - -4.2591878771781921e-001
      - 1.
      - -3.2741501927375793e-001
   output_scale:
      - 5.2631578947368418e-001
      - 4.9999999999999994e-001
      - 5.2631578947368418e-001
      - 4.9999999999999994e-001
      - 5.2631578947368418e-001
      - 4.9999999999999994e-001
      - 5.2631578947368418e-001
      - 4.9999999999999994e-001
      - 5.2631578947368418e-001
      - 4.9999999999999994e-001
      - 5.2631578947368418e-001
      - 4.9999999999999994e-001
      - 5.2631578947368418e-001
      - 4.9999999999999994e-001
   inv_output_scale:
      - 1.8999999999999999e+000
      - -9.4999999999999996e-001
      - 1.8999999999999999e+000
      - -9.4999999999999996e-001
      - 1.8999999999999999e+000
      - -9.4999999999999996e-001
      - 1.8999999999999999e+000
      - -9.4999999999999996e-001
      - 1.8999999999999999e+000
      - -9.4999999999999996e-001
      - 1.8999999999999999e+000
      - -9.4999999999999996e-001
      - 1.8999999999999999e+000
      - -9.4999999999999996e-001
   weights:
      -
         - -1.6928711395491849e-001
         - -1.7572013096414610e-001
         - 1.1540421078273894e-001
         - -5.6891744452845117e-001
         - -2.5483867349950749e-002
         - 1.5138348835272958e-001
         - 2.0731393311625438e-002
         - -2.0346462965880364e-002
         - -3.0268719430446112e-001
         - -3.3857338484232280e-001
         - 1.2085458158250902e-001
         - -1.6950753603092519e-001
         - 2.1177149111849256e-001
         - -1.5748756639618089e-001
         - -4.4765189165942465e-001
         - 2.8045640286693756e-002
         - -6.0228859741310405e-002
         - 3.8168628749645489e-001
         - 1.6840418164457152e-001
         - -2.5497451002720622e-001
         - 6.0086167623820141e-001
         - 3.3144265861044014e-001
         - -1.6806344957227479e-001
         - -2.4553654556867899e-001
         - -2.0420821790698274e-001
         - -1.7714112280473693e-002
         - -4.5783821745232167e-001
         - 1.8589808428299374e-002
         - 8.6669607375161856e-002
         - 2.9150930525978458e-001
         - -1.3457773177786049e-002
         - -3.7604004393102863e-001
         - 4.2421009213287192e-001
         - -2.0698651329004503e-001
         - -2.4270326051820876e-001
         - 8.1991823296528277e-001
         - -3.6808402988469935e-001
         - 2.2017676666980596e-001
         - -1.9079062509352365e-001
         - 9.8820011738009320e-002
         - -4.2740665506060449e-001
         - -4.2304570303956499e-002
         - 1.4349201033334757e-001
         - -3.5516874287759892e-001
         - 3.8426142202787339e-001
         - -3.1852445529125993e-002
         - -1.2183144310323543e-002
         - 3.4285433446448865e-001
         - -5.4911790179833678e-002
         - -5.2785204114764961e-001
         - -2.1106424021064613e-001
         - 9.4033151311536015e-002
         - -2.3478137906854535e-001
         - -6.9785964790056054e-002
         - -1.5198259941921491e-001
         - 1.7533683888869727e-003
         - -1.1302276369530762e-001
         - -8.2641848038829979e-001
         - -9.8918402949170453e-002
         - 1.5636483283701716e-001
         - -2.5524685663127249e-002
         - -3.3905239873641402e-001
         - -1.7129713630972163e-001
         - -4.5754214071659827e-001
         - -4.7062330197713970e-001
         - -2.9841568133720971e-003
         - 2.9431361035239639e-001
         - -9.6938949387990303e-002
         - 2.3589200085806555e-001
         - -3.8038877514568262e-002
         - 9.0031380790601953e-002
         - 8.1995048802403464e-002
         - 6.9031382346935411e-003
         - -1.4990634275891504e-001
         - -6.0165490436582036e-001
         - 3.8267759274342056e-001
         - -4.3059864619282828e-001
         - 1.1166560843819169e-001
         - -5.8751223491271850e-004
         - -2.1223437525021541e-001
         - -4.6083724191401866e-002
         - -3.7408040674082010e-001
         - 6.1601764653651081e-001
         - -2.7658539294161910e-001
         - 3.2379711592827320e-001
         - 3.6061169733300363e-001
         - 1.9253544941792791e-001
         - -1.6366787399145219e-001
         - -1.0802673717606465e-001
         - 3.9513539411369952e-001
         - -7.4530467144707246e-001
         - 2.5019823662898971e-001
         - 1.6140588777766812e-001
         - 3.4705273108403293e-003
         - -3.6873343101656431e-001
         - 2.0586434474619172e-001
         - -3.9102171644458444e-001
         - 7.5383665083781504e-001
         - 8.3245708294634491e-001
         - -6.2872662665186652e-001
         - -4.2462019393000822e-001
         - -1.3584596671605634e-001
         - -2.5217763735454923e-001
         - -1.8894021243988651e-001
         - -4.5537115589515342e-001
         - -1.2450778760540421e-001
         - 1.1820014885930633e-001
         - 2.8355841237228169e-001
         - 3.3998025626278716e-001
         - 5.3194807606602550e-002
         - -2.7031612655135456e-001
         - 2.1713792866389782e-002
         - 2.4363946740756623e-001
         - -4.9421123044527210e-001
         - -7.5216595551198639e-001
         - 4.5995701445264731e-001
         - 3.8348657721918539e-001
         - 1.0891702936697441e-001
         - 1.9385923829768623e-001
         - -5.4689153371808172e-002
         - 2.5150870268838688e-001
         - 4.4875448736559402e-002
         - 8.0281118477032606e-002
         - 4.2110660396714801e-002
         - 1.2685104821416787e-001
         - 2.8408303263454476e-001
         - -2.4182428459312150e-001
         - 3.8180591288668486e-001
         - -1.1584293301123604e-001
         - -3.2777768280398684e-001
         - -4.8145176687659302e-002
         - 2.0217397050355430e-002
         - 3.8171312893537168e-001
         - -2.9998015413038631e-001
         - -6.4181327286105372e-002
         - 6.2007352945610372e-001
         - -1.0828927515048939e-001
         - -2.4993428307902602e-001
         - -1.0523803848159233e-001
         - 2.5314636513421829e-001
         - -1.5841480896883905e-001
         - -1.7680263883092576e-001
         - 3.7687617108092036e-001
         - -7.9543617414321824e-002
         - -1.4680367462328553e-001
         - 3.2022983214058616e-002
         - -7.6958677021756378e-002
         - 4.6972617762243313e-001
         - 3.0686027480143779e-001
         - -4.7703417948624999e-001
         - 9.8437090158803919e-002
         - -9.9006137850668946e-002
         - -1.7793762821844306e-002
         - 1.7765894104129834e-001
         - -3.1692300729974882e-001
         - 8.9067621074246747e-002
         - 1.6108060460725612e-001
         - 4.7843819439723528e-001
         - 1.5910642456264570e-001
         - 2.0132074678918749e-001
         - -2.0739528914377497e-001
         - -2.3259338638238758e-001
         - 1.3738177271544685e-001
         - -1.5461378175715049e-001
         - 1.5946650043390914e-001
         - 3.2286074139701422e-002
         - 2.7740976144102442e-001
         - 2.1883188400029502e-001
         - 3.8449580287200469e-001
         - 1.3313420576474305e-002
         - 1.2977029502950782e-001
         - -6.1160284103351326e-001
         - -3.8080402959587388e-002
         - -2.9867506585618514e-001
         - 3.8055491521129153e-001
         - -4.7517141885063181e-002
         - -2.0593558796282457e-001
         - 2.5374977058972525e-001
         - -8.5240818302521212e-002
         - -2.6511134121775953e-002
         - 6.5400624547997263e-002
         - -6.8820193392050935e-002
         - 5.1396960458536735e-002
         - -3.5592025026905455e-001
         - -2.0362689778320409e-001
         - -2.9808314902851307e-001
         - 5.1036326695638379e-001
         - -8.4355585088851914e-001
         - -3.9984062137657123e-001
         - 2.8341358898467056e-001
         - 4.0854373259563137e-001
         - -2.7882331630328072e-001
         - 6.6887931662409716e-001
         - 3.4899902378584008e-002
         - -1.4968409085253098e-002
         - 1.2047587508891951e-001
         - 1.5696656046111774e-002
         - 3.7179314656381712e-001
         - 1.4678848666966537e-001
         - -1.1208493916770490e-001
         - -1.4108776653965289e+000
         - -1.6902585880929608e-001
         - -2.9913094698014214e-001
         - -1.1926659739809911e-001
         - 2.2489383279870553e-003
         - 8.0415982401797190e-002
         - -2.1234491795262517e-001
         - 9.7702805544405114e-001
         - -1.9728575559847811e-001
         - 2.8227387596232545e-001
         - -7.8609141972994689e-001
         - -5.5987429194592271e-002
         - -3.8981503778162307e-001
         - -2.6514044540036558e-001
         - 1.0390293217081591e-001
         - 2.3274941735042287e-001
         - -4.0123136727668857e-001
         - -1.2947309856813974e-001
         - 3.0433164656451051e-001
         - 2.2352550746849834e-001
         - 7.0423325905472856e-001
         - -2.5575910650159711e-001
         - 2.4395665695798341e-001
         - 6.5521290374153551e-002
         - -1.7079409938203285e-001
         - -5.1828960265518031e-001
         - 5.5531452313190066e-002
         - 1.1956269832129394e-001
         - -2.5100425040928304e-001
         - -5.5568846096557156e-002
         - -1.8181450857898365e-001
         - 3.7938099723794465e-002
         - -3.3530763678530678e-001
         - -1.4793187376205424e-004
         - -3.3054249165189349e-002
         - -3.6215024933194906e-001
         - 4.3544091305399868e-001
         - -5.6201291431950284e-001
         - -8.3851993964074098e-002
         - 4.0208201205387245e-001
         - 4.7402458665637470e-001
         - -4.6855218592256148e-001
         - 4.1054832698898464e-001
         - -1.8500987319678566e-001
         - -2.1528397969730656e-001
         - -2.3419713639643774e-001
         - -3.3929366630742375e-001
         - -1.2005111777468315e-001
         - 2.6400607107268037e-001
         - 9.0816380995591861e-001
         - -7.4000513581752680e-001
         - -3.9622239834852850e-002
         - -3.6061085812056987e-001
         - -2.0854404366948814e-001
         - 1.1783023816052039e-001
         - 3.1891861005857386e-001
         - -6.4895057876315554e-001
         - 1.0647614439493323e+000
         - -5.1530956908070125e-001
         - 2.8863902757040488e-001
         - -5.6956770383609201e-001
         - -1.3026476781984604e-002
         - 2.4438975027382911e-001
         - 3.3359782564190632e-001
         - 5.3488155849548458e-001
         - -1.8840848151296230e-001
         - -3.0680012395868927e-001
         - 3.0947308562444997e-001
         - 3.5873234579297097e-001
         - 5.2448809839070749e-002
         - 5.7771536325916695e-001
         - -5.3862703973234327e-001
         - -1.8300984557138247e-001
         - -2.9837312840529195e-001
         - 1.0524397117011873e-001
         - -4.9160047318338262e-001
         - -2.9888892850678300e-001
         - 4.6058337886267404e-002
         - -1.8975396211957105e-001
         - 1.5401793323529296e-002
         - 1.5289609325199191e-001
         - 1.0293616826958896e-001
         - -2.5572200563092895e-001
         - -3.6706438499001215e-001
         - -2.1698337663064041e-001
         - -3.0701320453934006e-001
         - 2.4643714099218159e-002
         - 4.6392273085838542e-001
         - 3.5238948543514331e-001
         - 3.2400248486781219e-001
         - 5.6762191508573090e-001
         - -4.7976944216913275e-001
         - 4.2964220636680306e-001
         - 5.2163991647500123e-002
         - 2.3765733765089814e-001
         - 2.3358899350465723e-001
         - -3.6835459406273241e-001
         - -2.0933396137348242e-001
         - -3.5002500549595034e-001
         - -3.9446682808818030e-002
         - 1.4553247708660147e-001
         - -7.0725938109700168e-002
         - -7.4073957449249855e-002
         - 4.7865223777922301e-002
         - 1.4387946430082618e-001
         - -1.4064074499154620e-003
         - -3.8325811908213381e-001
         - 8.4132852801069840e-003
         - -2.5315085123543984e-001
         - 2.3994641228287317e-001
         - 1.0242293770484201e-001
         - 6.0660548991635466e-001
         - 2.2976489777161263e-001
         - 1.7790341196985655e-002
         - 8.7982120810891817e-001
         - -1.1814569207469043e-001
         - -7.0147051690504114e-002
         - 5.4796463492171166e-001
         - 2.5745345210282784e-002
         - -1.6224347366009947e-001
         - 4.6675680530168395e-001
         - -3.9746246602805672e-002
         - -1.5293283359219543e-002
         - -2.9443517369837280e-001
         - -5.4569824190849592e-001
         - -1.1406411125125082e-002
         - 6.0695601594136769e-002
         - 3.4537144402718177e-002
         - -1.7995014501990084e-001
         - 3.2173881774155044e-001
         - 1.4332824666958791e-001
         - -1.8506793493709645e-001
         - -3.4862790761768625e-001
         - -4.2758258002446155e-002
         - -2.1117388656053190e-001
         - 7.3940152281215992e-003
         - 1.7887525285090902e-001
         - 1.6979851376501343e-001
         - -1.0749206574039787e-002
         - 1.2140766643145881e-001
         - 2.1070895932269909e-001
         - -1.9618755222001691e-001
         - 8.1281714740407918e-001
         - -9.4615574621993895e-002
         - 6.3591112372548408e-001
         - -1.5580070440823782e-001
         - -4.5629099999106054e-001
         - -1.9251475777969290e-001
         - -1.9531204066972016e-001
         - -2.1771388428453572e-001
         - -2.1519331937685673e-001
         - 1.1173584101615758e-001
         - -8.7229815552915604e-002
         - 2.8676941779734916e-002
         - 1.6440078830707746e-002
         - -3.5628846590709556e-001
         - 1.0650842705477642e-001
         - -4.6141299458799595e-001
         - 8.4014397583951891e-002
         - 2.1053906104993511e-001
         - -2.3499734718280658e-002
         - 3.5192669335723259e-001
         - -1.9783060116210269e-002
         - -2.3253680418815972e-001
         - 3.1633954089057692e-001
         - 3.1227772857266033e-002
         - 3.1094666349058515e-002
         - -1.2052998453075886e-002
         - -1.9664041130021684e-001
         - -1.1792455104165972e-001
         - 4.4591424102205995e-001
         - 5.2796741325303542e-001
         - 1.8497509241156287e-001
         - 3.1358897818428377e-002
         - -4.4890257786847182e-001
         - -1.8021742705113314e-001
         - 9.2202302741854356e-002
         - -5.6563765985503861e-002
         - -1.0934970801292117e-001
         - -8.9515339447717002e-002
         - -4.2537254821078388e-003
         - -2.7487755360992927e-001
         - -1.1939505893720515e-001
         - -6.2053167939380482e-002
         - 2.2780022521825472e-002
         - 7.1075687109811658e-001
         - -1.2288601403574720e-001
         - -1.3263850785350445e-001
         - -1.7172725111846332e-001
         - -1.3507655234204802e-001
         - -1.6039838388769129e-001
         - 3.3055545949616350e-002
         - 2.4033261290585087e-001
         - -8.7879454894006170e-002
         - 6.9692364235959670e-001
         - -4.1006880257453870e-001
         - -4.6090840823285373e-001
         - -7.3704380623550142e-002
         - 5.5180407377630601e-002
         - -3.0580010060693719e-001
         - -2.6821798772723168e-002
         - 1.0569711512945584e-001
         - -1.4261646553408003e-001
         - -5.8988121849147401e-001
         - -4.0540466268668124e-001
         - -1.8014215522136726e-002
         - 9.0351519970790370e-002
         - -2.7164925787651328e-001
         - -2.9198010161863125e-001
         - 1.1195095908989029e-001
         - -4.5551628664539524e-002
         - -2.3158794784147474e-001
         - 7.3232415228485004e-001
         - -9.1506671278698271e-003
         - 5.0827494274502671e-001
         - 2.4215447716129671e-001
         - 3.1603123014921786e-001
         - -2.7671727254049838e-001
         - -4.1566751952605424e-001
         - 1.3904117695226953e-001
         - -2.9855230914908340e-002
         - -2.2612448510280522e-001
         - 2.7514373268562442e-001
         - 1.9881539014416313e-003
         - -1.2538065029042700e-001
         - -5.3043435648553172e-001
         - -5.9991426163552651e-002
         - -2.1199785081684208e-001
         - -3.1207012900354027e-002
         - -4.6643503047579637e-001
         - 2.0931542192092915e-002
         - 1.6698333194865328e-001
         - 4.5236480230984094e-001
         - -3.6423330786516517e-001
         - 8.0656283013514435e-002
         - -4.8015991102949289e-002
         - 3.6267659561132465e-001
         - -3.6392782208747465e-001
         - -5.3302164164431698e-001
         - 3.3187319641405416e-001
         - 3.1370720815559860e-001
         - -1.1942041796511159e-001
         - -3.2060512185580975e-001
         - -1.3931197330525977e-001
         - -9.2057203720801506e-002
         - -5.4026515597690628e-001
         - -2.3317356401390349e-002
         - 1.7121414405660695e-001
         - 6.9994399901857463e-001
         - -2.7927844796010165e-001
         - -2.0014079782679414e-001
         - 2.7285446742752084e-001
         - -7.1038515436701574e-002
         - -1.6773813516537467e-001
         - 3.0203210896553062e-001
         - 1.2437643195570618e-001
         - -5.2272605584007126e-001
         - -7.2275725302837449e-002
         - 4.2551441014370484e-001
         - 9.9355288259708699e-002
         - -2.9704707674704602e-002
         - -7.0354340380947678e-002
         - 1.0411511184536083e-002
         - -1.3929991500943448e-001
         - 2.7098918036195208e-001
         - 2.2117351107704193e-002
         - 4.5169151955753678e-001
         - -2.2841892595666838e-002
         - -9.5268865586062706e-002
         - 7.4250709819326771e-002
         - -4.1085433555264395e-001
         - -2.7424162881500114e-001
         - 1.4334344403616806e-001
         - 1.0095057343350500e-001
         - -3.9679345864274390e-001
         - -4.2444555963572139e-001
         - -5.2090391554363036e-001
         - -2.1823558632813728e-001
         - -2.0453653897644497e-001
         - -6.0657004628318655e-002
         - 7.0241567494714205e-002
         - -3.7012631573846233e-001
         - -1.5955943104343751e-001
         - -2.4649037478970119e-002
         - 3.5061517537785281e-001
         - 5.4001682536759188e-001
         - 1.7183415324569051e-001
         - -4.1661101068984147e-001
         - -2.4411089840959480e-001
         - 3.3723503783836878e-001
         - -1.8117140988414016e-001
         - 7.6777796900305104e-002
         - -1.1826419468816041e-001
         - 9.8399806998246908e-002
         - 4.3167314066153023e-001
         - -4.3113785433716845e-001
         - 1.0585868339538876e-001
         - 6.7793305646583021e-002
         - 3.8285425365857240e-001
         - -2.8048709495250990e-001
         - 1.6432938149262909e-002
         - -1.2145171575236166e-002
         - 2.1387921954426676e-005
         - -1.8539947656676693e-002
         - 2.1955288786278615e-002
         - -1.5645396220421916e-002
         - -2.4634748759224508e-002
         - 1.7361849798862135e-002
         - 1.6366181050872532e-002
         - 1.1427828242143643e-002
         - 2.1638120574111609e-002
         - 2.1635810790730434e-002
         - 7.5727568498807135e-003
         - -8.3879324337364849e-003
         - -2.2436570534312646e-002
         - -2.8839553246727892e-003
         - 4.6793925621840052e-003
         - -1.9166583310828447e-002
         - 1.5258072970837526e-002
         - 2.3023109948430791e-003
         - 5.8993540585114759e-003
         - -3.2859411055328508e-003
         - -1.2378949459671735e-002
         - -1.4124789583946329e-004
         - 1.8013070631962346e-002
         - 1.7930923213206707e-002
         - 2.2678099966304089e-002
         - 1.7721430555200524e-002
         - 2.1723971174583447e-002
         - -1.7908316684080623e-002
         - -1.4494242785428121e-002
         - -9.5834908626464786e-003
         - 1.6383235736670016e-002
         - -1.6594537329097228e-002
         - -1.3505404269492718e-002
         - 7.5385633649893260e-003
         - -1.0216298977955793e-002
         - 2.9260914151926242e-003
         - 6.6738115150201784e-003
         - 6.4958789589013152e-003
         - -1.5975278098781737e-003
         - -1.3993379414907709e-002
         - 1.4618554021535621e-002
         - -1.2456654820166200e-002
         - 1.3607117280963433e-002
         - -6.3446795764467443e-003
         - -5.2663904148082434e-003
         - -4.0430336262712072e-004
         - -8.9450764186025560e-004
         - -2.0744777011222466e-002
         - -6.2470654268764458e-001
         - 7.4751862449532538e-002
         - 2.1159635564684920e-001
         - 3.1785475324662076e-002
         - 1.5020553148322410e-001
         - 1.2328488103365225e-001
         - 1.2210306713593149e+000
         - -4.6175171506171697e-001
         - -2.6142751375604240e-001
         - -2.0699033675382947e-001
         - 2.0380882838094305e-001
         - -2.7855801007986181e-001
         - 7.5529928971533467e-001
         - -2.5726036490068344e-001
         - 3.4253433102272655e-002
         - -1.8017617060454030e-001
         - 2.7857383963282473e-001
         - -6.2006487423160304e-002
         - 3.2733403760915269e-002
         - 2.9741094378552219e-001
         - 1.0912159149338110e-001
         - 1.0615508761885545e-001
         - 2.4107897205748068e-002
         - 3.5204434560095071e-001
         - -6.4600571196337431e-001
         - 8.2511575353595801e-001
         - -3.9852426329049973e-001
         - -2.5395319522344351e-001
         - 6.2280102404624914e-002
         - -2.0523187195382089e-001
         - 9.7184786139416293e-002
         - -1.1244472523885365e-001
         - 3.8964144639526266e-001
         - -5.2882065262807210e-001
         - 1.2257188893897904e-001
         - 5.7695209371745282e-001
         - 1.5092876392627083e-001
         - 8.0880420596882863e-001
         - 9.4647409515968992e-002
         - 3.1187526894033873e-001
         - -3.8473527714422612e-001
         - 1.0554559701701029e-001
         - -3.8296720328403733e-001
         - -3.7678694709657445e-001
         - 4.6978134085965062e-001
         - 1.8405598171085993e-001
         - -4.9168344556533750e-001
         - 6.5922762078584149e-002
         - 3.0636702015359002e-001
         - -1.9176713468214771e-001
         - -1.4463414222485632e-001
         - -5.0056651866121724e-002
         - -1.2638271682424575e-002
         - 1.9241958760940647e-001
         - 1.7379458375235424e-001
         - 3.3781046805069284e-002
         - -1.4603166141126117e-001
         - 3.6198131883428364e-001
         - 2.1163450511992110e-001
         - -7.8501300356264803e-001
         - -7.3461051202834263e-002
         - -4.7650379547401522e-001
         - 6.4098807179953865e-001
         - -1.0162677464017238e-001
         - 6.6341186574737407e-002
         - -3.7005946411444268e-001
         - -3.1598768581109360e-001
         - -1.1055649618417715e-001
         - -8.8945772498006379e-002
         - 1.5546826025175003e-001
         - 7.4062297930684551e-001
         - 2.1861699157353803e-001
         - 5.9688053628322045e-002
         - -1.5626983332081196e-002
         - -5.2900808729738243e-002
         - 1.7397338711452925e-001
         - -4.0482907608944985e-001
         - 2.4455698003084703e-001
         - -2.9756972048171897e-002
         - -1.3066901773222558e-001
         - 1.5279727489331321e-001
         - -1.4363637843027707e-001
         - -1.5439468636485457e-001
         - -1.1093645661977859e-001
         - 2.8697303527704410e-001
         - 2.8300981865611841e-001
         - -6.4325308205916620e-001
         - 4.8664970554536955e-003
         - -4.5389498379727042e-002
         - 2.6231559676265115e-001
         - 1.8373703249403098e-001
         - -5.6374791358285374e-002
         - 2.0341613491137023e-001
         - -1.9338492193235732e-001
         - 3.4648644462717798e-001
         - -1.0418353085991076e-001
         - -1.1611637289818752e-001
         - 2.6920515643338278e-001
         - -2.8488086541162161e-001
         - 6.1042706070520003e-001
         - -1.2214389897417031e-001
         - 9.6478142636304956e-002
         - 2.9681554905840102e-001
         - -2.1863515026996699e-001
         - 2.1686195254936264e-001
         - 3.4394707724870910e-002
         - 1.7366613834391378e-001
         - -3.1879506020975629e-001
         - 3.5432898214762676e-001
         - -8.8753954098008903e-001
         - -2.4872123269394553e-001
         - 2.2010148106692117e-002
         - 3.1718897270775537e-001
         - 3.6681393428668385e-002
         - 3.8564914918634308e-001
         - -2.8578938949479793e-001
         - -3.8747363122864170e-002
         - 4.4543955126347928e-001
         - 7.8536710806894594e-001
         - -6.0457841882744945e-002
         - 8.6022946921013501e-003
         - -1.8061880473673696e-002
         - -5.4129496116005982e-002
         - -1.6015440718386759e-001
         - 4.3215911067783652e-001
         - -3.5178160647859746e-001
         - -8.9914032497740715e-002
         - -1.9791431282635025e-001
         - 3.4258144088182889e-005
         - -2.3761365977781693e-001
         - 1.4102466801951444e-001
         - -3.7624002715351340e-001
         - -2.9598897505266819e-001
         - 1.0579441169274703e-001
         - -2.2657863005496850e-002
         - -4.6352300945438629e-001
         - 1.6960905951019789e-001
         - -1.7767315291541335e-002
         - 5.2516216517546965e-001
         - 7.8962876513595048e-001
         - 5.2655893486586858e-001
         - -1.5067637476061363e-001
         - 2.6303070047912436e-001
         - -5.5731951457384499e-001
         - -3.1759501646422295e-001
         - 5.9812359196196235e-002
         - 3.9109143979062944e-001
         - -1.9127564893096977e-001
         - 4.1226225660346326e-003
         - 7.7609236574954343e-001
         - -1.0003826988729765e+000
         - 2.3782890510705146e-001
         - 1.4472682787400508e-002
         - 1.1948657625966808e-001
         - 2.8158952437103418e-001
         - 3.9366040077763292e-001
         - -6.4885816465655044e-001
         - 4.8145185700960230e-001
         - 1.8649086791686420e-001
         - -8.5775600091455129e-002
         - -5.8282424936760846e-001
         - -9.0958772293240786e-002
         - -3.6876642054807335e-001
         - -1.1586982753995358e-001
         - -8.8411152260116990e-002
         - -4.2974553393141063e-001
         - -8.2393259315189982e-002
         - -1.7546557746487401e-001
         - -2.2845918230031592e-001
         - 4.8095011842008248e-002
         - -7.5220578046637709e-001
         - -4.8283520448514228e-001
         - -1.1520301461003561e-001
         - 1.1325263437709158e-001
         - -1.6154501640782631e-001
         - -5.5548286191893870e-001
         - -2.0889887821557715e-001
         - -5.3163304728270869e-002
         - -2.8810706649847578e-001
         - -4.2446802503772657e-001
         - -5.9467901863617584e-002
         - -1.2114353998710005e-001
         - -1.2400640207780786e-001
         - -2.2756760189842028e-002
         - 1.1313423760910180e-001
         - 3.4364947793441144e-003
         - 1.0280245294697805e-001
         - -4.7525741945266353e-001
         - 6.6482294053073487e-001
         - -1.1253413883219976e-001
         - -3.5239719802899877e-001
         - -3.1021654754618860e-001
         - 2.3295474489759840e-001
         - -3.8595426948050782e-001
         - -2.4541380306106117e-001
         - -1.2314588415587802e-001
         - -3.4297793282482898e-002
         - -4.8485010975096798e-001
         - 2.1899436481797288e-001
         - 4.2864395922210358e-001
         - 4.3054567300658519e-001
         - 1.8241380303535698e-001
         - 6.6083800444169366e-002
         - 3.6858774194697219e-001
         - -3.3532982076255008e-001
         - 3.1152946835967410e-001
         - 1.6851828285168186e-001
         - -2.1732633150190947e-001
         - 1.9982089112774291e-002
         - 3.8188199144262069e-001
         - 4.9811875116797466e-001
         - 8.7367618756070894e-002
         - -4.0740832239060734e-002
         - 6.9518054713050880e-003
         - 5.8460730057329280e-001
         - 2.2566322359891852e-001
         - 8.2868992068718297e-002
         - 3.6282565310802012e-002
         - 1.2369377635774928e-002
         - 2.3996084081739774e-001
         - -4.0206818532201388e-001
         - 3.3293737781213284e-001
         - -2.6225903529307724e-002
         - 4.0972494141697746e-001
         - 1.3000563147729707e-001
         - -5.0755866257297333e-001
         - 5.4392769809520336e-001
         - -1.0242795033435048e-001
         - -1.8790810499920149e-001
         - -5.2480297439209778e-001
         - -9.2542776876943067e-002
         - -3.9286992616524613e-001
         - 5.3998514565889166e-001
         - -9.1546947046060603e-002
         - -1.0423027350838673e-001
         - 7.2114118258710369e-001
         - 1.4901859921086144e-001
         - 6.3005982261250859e-001
         - 3.4596566619656760e-001
         - 1.1124387703780892e-002
         - -3.9578964715151893e-001
         - -4.4001052583665595e-001
         - 4.1590589975658571e-001
         - -5.0919587726967808e-001
         - -2.7925025216730398e-001
         - 1.9230021325885999e-002
         - 4.3868242314112521e-001
         - 1.3799069118748810e-002
         - 2.5712061331898728e-001
         - -7.0581539681287842e-001
         - 4.2358127532828432e-001
         - 1.3504106764787700e-002
         - 3.9410507725350474e-001
         - -5.5300474754829443e-001
         - 3.0328828833481097e-001
         - 4.7882245532126017e-001
         - 3.9473739828251886e-001
         - 4.6856835670513286e-001
         - 5.6496064256561396e-001
         - 2.5816147078220369e-001
         - 6.9152896929854699e-002
         - -2.7603660775123356e-002
         - 2.8100832654159713e-001
         - 1.3540710474593015e-001
         - 3.7054530064093666e-001
         - 6.1523721739892998e-002
         - 4.5007539471879848e-001
         - 5.1698301523975698e-001
         - -2.6690528849010849e-002
         - 3.2901109016009546e-002
         - 2.0909663203679912e-001
         - 8.6603720267880199e-002
         - -2.3651005909971021e-001
         - 1.2297264051868446e-001
         - 7.8972388899268983e-002
         - 2.6296540497175946e-001
         - -8.7541635693326558e-001
         - -5.7100800304027910e-001
         - 1.6345382681417675e-001
         - 8.1454632630252621e-001
         - 1.0077089166660676e-001
         - -6.6448135010112500e-002
         - -7.9548106969128091e-002
         - -2.0197893811734496e-001
         - -3.5713485763080893e-001
         - -2.2339983353116474e-002
         - 9.8409651050152619e-002
         - 1.8793125767132521e-001
         - 1.3662044450579439e-001
         - 3.9014298341876030e-001
         - -3.4731462901700688e-001
         - -6.3728373809049713e-004
         - 2.0395711948380321e-001
         - 4.0341557221703350e-002
         - 1.0094420416079253e-001
         - -1.5490516204083493e-001
         - -1.5051062092697032e-001
         - 4.2258960600058577e-002
         - -3.5852860310504345e-002
         - -1.7067693623207436e-001
         - -4.7380600644024895e-001
         - 5.2509701601828010e-002
         - -2.3931378323012611e-001
         - -4.1005432125493507e-001
         - 7.3688192565942834e-002
         - 8.0935327787931485e-002
         - 3.0890823119747651e-001
         - 5.7606915081415455e-001
         - -2.0043913941675107e-001
         - 4.9915059858848054e-001
         - 2.6841948805363020e-001
         - -3.7735778720557861e-002
         - -3.2531304807757722e-001
         - -1.6825610720155926e-001
         - 5.7772950767942385e-003
         - 9.4253042722927449e-002
         - 3.4660492649931701e-001
         - 5.4737294781095536e-001
         - 4.6187463839706781e-002
         - -2.2879649063581715e-002
         - 6.8668126426401674e-002
         - -8.2636402556437866e-002
         - 2.3383998501080746e-002
         - -9.0769519547335267e-002
         - 4.5496405348467522e-001
         - -3.9307158944458825e-001
         - -5.3579500178350481e-001
         - 1.6255295139484580e-001
         - -1.0458314666296130e-001
         - 1.4393772356447276e-001
         - -8.3880200086873358e-002
         - -1.9793363793714941e-001
         - -5.0588979921457064e-003
         - -1.0867851872357205e-002
         - 5.6218495330359004e-002
         - -2.8265728748334934e-001
         - 5.9396540738744695e-002
         - 8.1119585325773944e-002
         - 1.4141108874933303e-001
         - 5.6913690060112010e-001
         - 4.5145048073973609e-001
         - 2.7382199477962338e-001
         - -3.0827170172659058e-002
         - -1.0978235331867045e-001
         - 1.6826743412466216e-001
         - 3.0027952770498040e-001
         - -2.1216824229662623e-001
         - 1.8619614429229189e-001
         - -1.4446250127190191e-001
         - -4.3286572461900930e-001
         - -3.3712149529029778e-001
         - 3.2693243385903725e-001
         - 2.9373587380623761e-001
         - 7.7724788218787422e-001
         - 1.0022694995764510e-001
         - -1.5761416969421801e-001
         - 3.6741281123151504e-001
         - -3.1961956561657240e-001
         - 1.4614377523995628e-001
         - 4.2104106215631754e-001
         - 1.0736158460306645e-001
         - -7.8953571196826333e-002
         - 2.5855499053815972e-001
         - -2.5372889704092339e-002
         - 2.8004978882027454e-001
         - -3.0570805846941751e-001
         - -3.2062911700978136e-001
         - -1.6618457731654288e-001
         - 4.0739494791575115e-001
         - 2.6888501907981210e-001
         - 4.8624206480027049e-001
         - -6.3181911653925451e-003
         - 1.4429086173855232e-001
         - -7.0398842847388496e-002
         - -5.3973807846813515e-001
         - -2.8406797670957679e-001
         - -7.7259410101747250e-001
         - -3.4800750354497687e-002
         - 8.6846598998034708e-002
         - 4.0468224621498433e-001
         - 2.6987890857874758e-001
         - 6.6517733812043248e-002
         - -1.1646924355474270e-001
         - 2.3502855384096583e-001
         - 3.7447844528196633e-001
         - -2.5176098874413122e-001
         - -4.1429729467701976e-001
         - -5.4387017571809726e-001
         - 2.2724485051632112e-001
         - 3.1691703396295268e-001
         - 1.3864491449822631e+000
         - 5.4818428751600290e-001
         - -7.9917445939555451e-002
         - 2.2037704139378886e-001
         - 8.2558796373463902e-002
         - 2.4815161701081256e-001
         - -1.9654175523771938e-002
         - 1.8230037115126960e-001
         - 2.1585880115848111e-001
         - -5.3284049320737636e-001
         - 1.5547801320346552e-001
         - 1.1862616492987313e-001
         - 3.2227985784646973e-001
         - 9.4569894188067616e-001
         - 1.0130974617072069e-001
         - -5.2232533106150691e-001
         - -6.4367907569240101e-001
         - 1.8263458495365700e-001
         - -1.7400094720423837e-001
         - -1.6194797047770035e-001
         - -2.1025578808452162e-002
         - -8.7386710969783815e-002
         - -3.2352908595984234e-002
         - -4.4908309378240052e-001
         - 3.7202061062013431e-001
         - -3.0857091824897176e-001
         - -5.6371978990868787e-001
         - -1.4597729312798244e-001
         - -5.8609871833611182e-001
         - -1.0364205121499363e-001
         - 6.4116512279346594e-001
         - -3.0781636114867483e-001
         - 3.0524379744442338e-002
         - -4.4483270202234380e-002
         - -1.0568831364581222e+000
         - -2.4667849086841141e-002
         - 3.9271945570793981e-001
         - 2.4799620411227480e-001
         - 2.7068802440538373e-002
         - -6.0941773320283776e-002
         - 5.0769782340356701e-002
         - -1.5942993815850920e-001
         - -3.4532065299037012e-001
         - 8.8764412435878626e-002
         - 5.2463555382825511e-001
         - 4.1626853552291737e-001
         - -1.0660475745656485e-001
         - 4.5820402668470935e-002
         - -1.9095362267960864e-001
         - -7.0115382800848156e-002
         - 1.2065107818093153e+000
         - 4.6222508800753137e-001
         - -4.5905719470157025e-001
         - 8.6265881174357559e-002
         - 3.7192300626474917e-001
         - -1.0631774780403645e-002
         - -2.1402689215441889e-001
         - 5.1294840484358983e-001
         - -3.0673633082289025e-002
         - -1.2071029666719751e-001
         - 1.0714756096307858e-001
         - 1.0584049030580932e-001
         - 5.1646605761206399e-001
         - 3.6915847441096999e-001
         - 8.3371996491146808e-002
         - -1.3460863575148774e-001
         - -3.4016163894665474e-001
         - -4.4322035961361883e-001
         - 1.7893758964676415e-001
         - -2.0706748918757747e-001
         - -6.0180053148617640e-001
         - 1.7137451178120686e-001
         - 9.8091779788134137e-001
         - -3.0837507118056068e-001
         - -1.5965452039058486e-001
         - 6.4207757721631946e-003
         - 1.5149645426797588e-002
         - -1.2716144711307484e-001
         - -1.6856966038142027e-001
         - -3.9749352838819745e-002
         - 2.2075225325092759e-002
         - -4.8578627785372330e-001
         - 4.4665847354047994e-002
         - 1.3354033847489197e-001
         - 2.1815935644922410e-001
         - -3.6489547213793558e-003
         - -1.4486455807776366e-001
         - -3.2389304824400944e-001
         - 1.1320021756722606e-001
         - 4.7933095479049209e-001
         - -3.5635316207257420e-002
         - 3.1131295502140932e-001
         - 5.2215925240193972e-002
         - 1.2527737366442072e-002
         - -3.6485791126307898e-001
         - 3.3401774061996742e-001
         - -1.9419289544882773e-001
         - -2.9154889429186120e-001
         - 1.1548406659714548e-001
         - 2.6172156842840028e-001
         - -4.5762743598959615e-001
         - 2.6472789275524169e-002
         - -3.2468482608978028e-001
         - -3.2212798030702522e-001
         - 2.5051303691120708e-001
         - -5.3886394336216920e-002
         - 4.7594344447192038e-001
         - -1.1761357024861316e-001
         - -3.6099443721776164e-001
         - -1.3535906212553783e-001
         - 7.9586443700237819e-001
         - 1.3536177162958241e-002
         - -6.2847849688506596e-002
         - -7.0315724386875755e-001
         - 7.0425594744644243e-002
         - -4.6095824829161844e-002
         - -3.0106279389631152e-001
         - 7.3912143064553737e-001
         - -5.6388374958195531e-001
         - -1.4061881424278789e-002
         - 1.8617377873446944e-002
         - 3.0363050157019161e-001
         - -5.5504020957149103e-001
         - -4.3738058690561527e-001
         - 2.6463909409604253e-001
         - -4.0765917573685629e-003
         - 4.2219064598546283e-002
         - 9.1071475763954790e-001
         - -2.5186681301675873e-001
         - -1.5513157694841317e-001
         - -3.7187054665982272e-001
         - -3.0034242791721699e-001
         - -4.5333431764370484e-002
         - 2.6941662937679256e-001
         - 3.0971836814012199e-001
         - 1.1163246412839641e-002
         - -2.4933047777476552e-001
         - -9.0505013602147452e-002
         - 5.5996539519495556e-002
         - 6.3106472667359026e-002
         - -2.9658775273925714e-001
         - -4.2897185246479091e-001
         - 3.0521307230333616e-001
         - -2.9590822558323016e-001
         - -2.7101022027834865e-001
         - 5.7603580074657587e-002
         - 2.7710580576051774e-001
         - -3.8387151813913702e-002
         - 1.0661017351135632e-001
         - 5.1439273758558235e-001
         - -4.2046048522965013e-001
         - 4.5582843803435198e-002
         - -2.3073550634123180e-001
         - -2.9801757936243795e-001
         - -5.3670213538210033e-003
         - 5.6569892937059850e-002
         - -3.9437424618081529e-002
         - 1.4061780176656055e-001
         - -9.4331693632728905e-002
         - -7.5729670817166431e-002
         - -4.6520689132967746e-001
         - 1.0609164814885820e-001
         - 2.2596616755215665e-001
         - -1.4499350536727201e-001
         - -1.8812673252331313e-001
         - -2.2113373800389580e-001
         - -8.8081681437492665e-001
         - 1.2314247233005907e-001
         - 3.0705625699736849e-001
         - -2.8798043498966491e-001
         - -3.7101168605672857e-001
         - -5.6096164424177426e-002
         - 7.6467778011812348e-001
         - 1.6202800127745426e-001
         - -1.2461267671249616e-001
         - 1.7839920096926812e-001
         - 2.1601392363026578e-001
         - -6.4162370782099354e-001
         - -3.8877043246705928e-001
         - 5.2093020672523881e-002
         - -1.8055056434984212e-002
         - -4.5787766023667908e-001
         - -1.3797489461870562e-002
         - 1.6953665646990326e-002
         - -5.9071444448006694e-001
         - -3.4450208260031195e-001
         - 4.4840878116403959e-001
         - 2.2287025914713879e-001
         - -1.9753962206400424e-001
         - -3.7233305703826103e-001
         - 2.6593180326829507e-001
         - 6.1664706553290975e-002
         - -2.5060285322942216e-001
         - -2.7810073928383774e-002
         - 3.6427672956779383e-001
         - 4.6745940976478179e-001
         - -5.4808833780797428e-001
         - -1.5990661007846371e-001
         - -3.3623723928420185e-001
         - 1.4322596136089411e-001
         - 3.6429004693328437e-001
         - -1.0164792475444549e-001
         - -5.7719170709878587e-001
         - 2.5258024489411851e-001
         - 7.5801564145154862e-002
         - -2.2641690064061457e-001
         - -6.0651278611170346e-002
         - 8.9008774909991997e-002
         - 1.1913917295289171e-001
         - 1.1131542075902148e-001
         - -5.5849590218139311e-001
         - 1.0459795697409144e-001
         - 2.9879046015316890e-001
         - 1.3471520730210848e-001
         - -1.1929686832447541e-001
         - -2.9502599362468618e-001
         - -4.7854303106576901e-002
         - 1.3245933787660608e-001
         - -1.2700348544971823e-001
         - -2.9480862374139438e-001
         - -2.6502304826732342e-001
         - 3.0916464687796197e-001
         - 5.9950775385213684e-001
         - 2.6383034460226074e-001
         - -6.7430661198021158e-002
         - -2.5518792286265048e-003
         - -3.2777009403975155e-002
         - 3.5270491897061601e-001
         - -1.2998337362848103e-001
         - -8.1462490501473857e-003
         - 4.7362768279266498e-001
         - 3.3120187470911461e-001
         - -2.1689468023845392e-003
         - -3.5790102568527593e-001
         - -2.4384632300751405e-001
         - -1.6241630231068205e-001
         - 7.0650611055048371e-002
         - -1.5767299132665072e-001
         - -7.2087475573110862e-002
         - -1.1530787137662814e-001
         - 2.3938925472040171e-001
         - 4.1693699772801719e-002
         - 1.0827404082643791e-001
         - 1.6061116620562299e-001
         - -9.8829888283131564e-002
         - 1.8388459773341387e-002
         - 1.3850225295102425e-001
         - -2.7372600311180045e-001
         - -3.2958315497282153e-001
         - 3.1507799116041157e-001
         - 6.3921827802683129e-001
         - 1.4357252362699710e-001
         - -5.2431589801088940e-001
         - -1.3284061463594687e-001
         - 4.8227803507785383e-001
         - -6.3013804259013673e-001
         - 1.4293894171162527e-001
         - -7.1953296992129656e-002
         - 4.5355412969001935e-001
         - 3.0558191035513821e-001
         - -7.6206262660430457e-001
         - 5.8364309113163246e-002
         - -2.8474481737544877e-001
         - -5.5120971803150998e-001
         - 2.2579302936957493e-001
         - 3.0501084119575736e-002
         - -2.3935654089237707e-001
         - 5.5364740692632619e-001
         - -5.4436322939153314e-001
         - -3.0897290014648915e-002
         - 1.0191767019176201e-001
         - 4.7270892828537928e-002
         - -2.6172905091323340e-001
         - 2.9997473721434659e-001
         - -5.7734848767119007e-001
         - 1.8314654992326973e-001
         - 5.5354068075342155e-001
         - 3.0381811557507565e-001
         - -1.5625578128976386e-001
         - -1.5009132886003235e-001
         - -9.1413525411709648e-002
         - -1.6452679587064678e-001
         - -1.0642301323508073e-001
         - 1.2760881697295590e-001
         - -2.7421170537082001e-001
         - -3.7712172550149947e-001
         - -1.2464049109381298e-001
         - -5.1454266149143030e-002
         - -2.9346053606350087e-001
         - -1.0145604642959984e-003
         - -1.1621566502300078e-001
         - -2.5069769792612845e-001
         - -1.8877249254429504e-001
         - -2.1381498110150870e-002
         - -3.6230120745593349e-002
         - -2.4345003513234023e-001
         - 3.6194965033781984e-001
         - -2.9615808063536325e-001
         - -1.8496426027122659e-001
         - 1.3830252250213504e-001
         - -2.7986368615637094e-003
         - -9.3880140584775271e-002
         - -3.8295535327926331e-002
         - -1.7890557548928787e-001
         - -9.7563812248266032e-002
         - -2.9892290214701139e-001
         - -3.4503693043067624e-001
         - -5.7175875673618115e-001
         - 7.4250091507216023e-002
         - 1.2792328120072782e-001
         - -1.3771059344638384e-001
         - 4.7653584390782752e-002
         - 3.6115238804261807e-001
         - 1.6749300773274683e-001
         - 3.0353302972553259e-001
         - -2.7704151874492999e-001
         - 2.3589241149235429e-001
         - 6.2811907197576056e-001
         - -5.6955526325190997e-001
         - 3.0538829913150223e-001
         - -1.0946452793818796e-001
         - 2.4069812685994324e-001
         - -4.6759800032639104e-002
         - 1.7085395664136829e-001
         - -5.0155152090616861e-001
         - 1.3883501761423112e-001
         - 3.7044659625653689e-002
         - 8.8247854243855450e-001
         - -4.1462481160078568e-001
         - -4.2539045647169910e-001
         - 1.9707742131410702e-001
         - 2.3400000176678343e-001
         - -3.0588740543159515e-001
         - -1.4599715417265383e-001
         - -2.8900027717289316e-003
         - -2.6521217157080951e-001
         - 2.6077399890574232e-001
         - -5.5879649271531473e-001
         - 1.4684723278783179e-002
         - 1.9699447593345298e-001
         - -9.5360420481669872e-002
         - -2.0127680689303518e-001
         - -5.3092141928858368e-002
         - 3.7422090224343944e-002
         - -4.8388783510462996e-001
         - 2.9564245109449155e-001
         - 6.8241490931501858e-001
         - -9.7902996756671676e-002
         - -2.3191158695741809e-001
         - -8.2470786399788346e-002
         - -1.1962279522353936e-001
         - 5.7826194620646254e-002
         - -4.1385264179793022e-003
         - -5.1093817342491321e-001
         - 1.1168856106371283e+000
         - -3.0987925841216019e-001
         - -9.0957109851049073e-002
         - -6.1561416293139049e-001
         - 2.3882463202488435e-001
         - 1.7957979491087925e-001
         - 2.5151293938412894e-001
         - 6.3876461033724380e-002
         - -5.3230719582773443e-002
         - -9.3985527073290687e-001
         - -1.3852206823114380e-003
         - 7.3221870412271253e-002
         - -3.2375484015399109e-001
         - 6.0979807871660296e-001
         - -6.7682876381391555e-001
         - 1.2594602452902248e-001
         - -2.4387322441906223e-001
         - 3.4998526357345472e-001
         - -9.0252584790535856e-002
         - 1.1198918744637013e-001
         - 2.2912076467484532e-001
         - 2.2335238084585379e-001
         - 4.3767678768391283e-001
         - 5.3090652510130920e-001
         - -2.3358118122756077e-001
         - 1.5426045574131125e-001
         - -5.7857763042911092e-001
         - -2.7761503135070198e-001
         - 1.0180396082765938e-001
         - 4.1834840977273019e-001
         - 5.4169372933655785e-002
         - -3.8173624951637580e-001
         - 9.2586059517664382e-002
         - -1.1866498308141085e-001
         - -1.2306921581394201e-001
         - -2.5249775194392593e-001
         - 1.0682950178471521e-002
         - -7.4888572040715617e-001
         - -1.1868686594363730e-001
         - -8.8839943666704058e-002
         - 2.5036210541845266e-001
         - 9.0858959202596970e-002
         - -6.2149224047992897e-002
         - -1.8348033658557147e-001
         - -7.3495326351947346e-002
         - 4.7922758418562451e-002
         - -5.9591285611949307e-001
         - -1.4177863956069087e-001
         - -3.2009146113521908e-001
         - 1.3068209207952194e-001
         - -3.6453688604093593e-001
         - -1.6422316907896094e-002
         - 6.3131512459174949e-002
         - -4.0372447295115482e-001
         - 2.6227365994566798e-001
         - -7.5158733781626297e-002
         - 1.6291603524318959e-001
         - 2.8824776946634373e-001
         - 4.4889255611862511e-001
         - -1.1238645917824014e-001
         - 4.3544187946092307e-002
         - -1.3555323314603487e-002
         - -5.0865434647726893e-001
         - -8.7112162126956805e-001
         - 4.0970533883551269e-001
         - 1.9425401147178142e-001
         - -3.7064194207618617e-001
         - 2.4974008673289205e-001
         - 7.7888566081294253e-001
         - 2.9757720068829285e-001
         - 4.1503431573461830e-001
         - 1.8023881829124925e-003
         - 2.5557890014228329e-001
         - 2.2189999977670358e-001
         - 4.8607484473415570e-002
         - 1.5181679812785615e-001
         - -1.7424716918460220e-001
         - -3.0827285724488940e-002
         - -9.8039553166965193e-002
         - -1.0130768230026428e-001
         - 1.7897342402372238e-001
         - -2.2707578438601278e-001
         - 3.2671283242764515e-001
         - -1.2423668302240504e-001
         - -4.9642444505858467e-002
         - -5.6616482614039391e-002
         - 4.3663069948185362e-001
         - -2.3489832560026233e-001
         - -4.4086761658718748e-001
         - 1.2102510200181686e-002
         - 2.8956859365182663e-001
         - 9.0213940332784048e-001
         - -2.2766233829535115e-001
         - -2.5856949358921799e-001
         - -1.7092409649858048e-001
         - 6.0407766395628483e-002
         - -6.4429636686331471e-001
         - -5.1664147399991471e-002
         - -3.7173521017511707e-001
         - 4.4312846284502977e-001
         - -1.0526986581595990e-001
         - 2.3749622490184204e-002
         - 2.3665993138190192e-001
         - -2.6334657025552510e-001
         - 4.0486899379464419e-001
         - 6.4577564223326972e-002
         - -2.4990949653164984e-001
         - -1.6521726821301055e-001
         - 2.7200893942507293e-001
         - -6.9147346830079282e-001
         - 4.3620415581999500e-001
         - 8.0287976735276836e-002
         - -5.9119678634851014e-001
         - 1.1383221745137249e+000
         - 1.4563660873574573e-002
         - -1.6626346489021709e-001
         - -9.6778451050162084e-001
         - 1.4778898140819835e-001
         - 5.5772068785783246e-001
         - -2.0458221787179298e-001
         - 5.7885265904651706e-001
         - -2.9588850374156611e-001
         - 7.2436373451523706e-002
         - 3.2651050308618840e-001
         - -1.7532789539967455e-001
         - -4.6490891894105607e-001
         - -4.0768511916000888e-001
         - 8.0258310864388371e-001
         - -1.4973185007613907e-001
         - -1.3593251694321004e-001
         - -2.4087451187638151e-002
         - 7.0002947876270516e-001
         - 3.7548896797052583e-001
         - 3.0551178400350276e-001
         - -4.2013269492807515e-001
         - 1.1719465200280244e-001
         - 2.3741830664228150e-001
         - -9.1812906324602761e-001
         - -7.3054767520461716e-001
         - 2.7881717203909312e-001
         - -1.3394415009258834e-001
         - 3.6486175193754738e-001
         - -6.4228229779389093e-002
         - 4.7121436044129855e-001
         - 1.2382107041258456e-001
         - -7.8818484801276345e-001
         - 1.3827956228449290e-001
         - 2.1644698343997473e-002
         - -5.3487091743696071e-002
         - -5.0325326557181395e-002
         - 1.1980425422254271e+000
         - 4.1771990919556179e-001
         - -3.4192285629420549e-001
         - -2.1389557749438795e-001
         - -4.4668132848312181e-001
         - 9.7806742524207180e-002
         - -8.9567843335435160e-001
         - -2.3725432713665340e-001
         - 1.3151791771287494e-001
         - -3.2632360543448119e-001
         - 2.2855362276031923e-003
         - 3.4915977038948648e-001
         - 2.0267821578320436e-001
         - 2.2709625499219521e-001
         - -6.9017797234695408e-002
         - -3.0620230081504392e-002
         - -7.8616244645675148e-001
         - -1.7421973368769616e-002
         - 3.3614015148816956e-001
         - 7.0528194037499228e-002
         - 3.7928352528003473e-001
         - 2.8970869374040065e-001
         - -3.6944330356037652e-001
         - -4.6754745737948239e-001
         - -1.6324190574245381e-001
         - 1.3368084828483753e-001
         - -4.8375144468244186e-001
         - -9.3561762009438665e-002
         - 8.8167545439590114e-002
         - 2.1899720617007484e-001
         - -4.1218647509073458e-001
         - 3.3782965359374084e-001
         - -6.5406672269020283e-001
         - -3.7391086300254783e-001
         - -5.6647784357527009e-001
         - 1.9785937951249552e-001
         - 1.0562251502247540e-001
         - -2.5125891689881680e-001
         - 8.0947532530992752e-002
         - -1.1323386675009307e-001
         - -3.0797803843902405e-001
         - 1.2554571395719491e-001
         - -2.4220852495216421e-002
         - -1.6983921071778496e-001
         - 1.4992358772044867e-001
         - -4.3742097797753121e-001
         - 3.0045590061951166e-001
         - -4.0436735738939134e-001
         - -5.5098383019773378e-001
         - -7.6061230110940056e-002
         - -5.7320537854852949e-001
         - -2.1000489910779166e-001
         - -5.1410359250950388e-001
         - -2.6460449552655024e-001
         - -1.2516936220644212e-001
         - 6.6086297677067296e-001
         - -2.7199043316539523e-001
         - -1.8099888534919994e-001
         - 1.4410471125568264e-001
         - 5.6653872995618471e-001
         - 7.3702004920845443e-002
         - -1.1171903299351461e-001
         - 7.8143153385359931e-002
         - -7.9719543452582697e-001
         - -1.4371318224216184e-001
         - -2.8898912185378819e-002
         - -8.9053901603531227e-001
         - -7.9905343818167371e-002
         - -1.4846609668636557e-001
         - -2.6111201654354133e-001
         - 4.0668752964964155e-001
         - -2.2430998942828967e-001
         - -3.9426585311667312e-001
         - -3.9247572543150572e-001
         - -5.6788234446424957e-001
         - 1.0152893027608535e-002
         - -8.0898204486350522e-001
         - -6.6864881722911873e-001
         - 1.1473508363616801e-001
         - -2.1375183837873132e-001
         - -9.7852450116213463e-002
         - 2.2282743294986587e-001
         - -3.8851290478768674e-001
         - -5.1844868553954715e-001
         - -3.9067455227663972e-002
         - 3.2145983138880208e-001
         - -2.0998280855533395e-002
         - 1.0477465383779902e-001
         - 3.3247107666928277e-001
         - -1.5162093019139294e-001
         - 9.5873451602608711e-003
         - 5.4205006013342949e-001
         - 2.3756538280426440e-001
         - -3.2204636815885074e-001
         - 5.1703041021706686e-001
         - 9.3967440616985254e-002
         - -4.2520461092275780e-002
         - 2.2879332636595323e-001
         - -3.1459331035867183e-001
         - -1.0506876386157998e-001
         - -9.2022373858581286e-001
         - -2.9630956666112126e-003
         - -4.4142691143230656e-001
         - 7.9199538948197978e-002
         - 5.3461613756962434e-001
         - 5.0164179599736847e-002
         - 8.7187868887850495e-001
         - -2.8744487234625632e-001
         - 2.2903320971240879e-001
         - 1.1618200770399470e-001
         - -1.0618888143159592e-001
         - -2.3558488347172882e-001
         - -4.0768407012074398e-001
         - 4.7708617749216731e-001
         - 6.4536455041198104e-001
         - 4.4656083272142100e-001
         - -6.0674582152230239e-001
         - 2.5844633809800704e-001
         - -6.3123984698535041e-001
         - -4.7004725474797948e-001
         - 4.9461170631643209e-001
         - 5.1240958962700800e-001
         - -5.1010645393312370e-001
         - 1.4928652945694990e-001
         - -7.2995270807638912e-001
         - 1.0987485681625186e-001
         - -3.7647295614225473e-001
         - -2.0003844322450287e-001
         - 3.5900434437555723e-001
         - -2.8398518752826818e-001
         - -5.0167176336984205e-002
         - 1.1142984400203176e-001
         - 1.5647575141572853e-001
         - -9.9948592370857584e-002
         - -1.9596356674760868e-001
         - 9.0539300517780641e-002
         - 1.7421194906699847e-001
         - -1.9794801772450146e-001
         - -7.2840566444798546e-003
         - 2.1838087729268701e-001
         - 3.4169481992288298e-001
         - 7.0760818521729629e-001
         - -7.6295443270758656e-001
         - 1.8551348107293067e-001
         - 3.0912593169256930e-001
         - 1.7770334318804276e-001
         - 8.7465922090302972e-001
         - 1.5644092832005738e-001
         - -2.1541140555097915e-001
         - -1.6199878465951220e-001
         - -3.0255864426713819e-001
         - -2.4344731108960424e-001
         - -3.1727777197728207e-001
         - 2.6284860921505682e-001
         - 1.4699579679150521e-001
         - 4.4911266181356851e-001
         - -2.7376764818891003e-001
         - -2.8507819578586707e-001
         - 1.6274870341579709e-001
         - 2.2312525429132621e-001
         - -1.7706062186082702e-001
         - -1.9973012119751452e-001
         - -5.4813884656357795e-002
         - -1.8999193526199817e-001
         - 2.5405290540893403e-002
         - 1.9339974132379995e-001
         - -8.3453787361439635e-001
         - 8.6564977387066006e-002
         - 1.4784309290251132e-001
         - -1.9126006794725076e-001
         - -2.3483986264237389e-001
         - 2.0835414789542106e-001
         - -1.3453744434669510e-001
         - -4.9509956830228535e-001
         - -4.4141450517980529e-001
         - -1.3693647488698757e-001
         - -3.4628442125150727e-001
         - -2.1300159704943139e-001
         - 2.5623095579804224e-002
         - -2.0505199933748386e-001
         - 1.3604152824630295e-001
         - -1.8176026475502732e-001
         - -1.5933355938880771e-003
         - -3.2389475985186489e-001
         - -5.2968800396996831e-003
         - 4.8977462366312091e-001
         - -4.7313897405096263e-002
         - 3.0759144612663730e-001
         - 3.1790592514286437e-001
         - -1.7128071006725842e-001
         - -1.2563497810329222e-001
         - 2.9266302612289369e-001
         - -9.0845486085478336e-002
         - -1.3219869523989841e-001
         - 1.5822756775568061e-001
         - 1.3000701853114324e-001
         - -4.0438313335927856e-001
         - -2.8617709337681180e-002
         - -5.0312334925546498e-001
         - -3.4574542893865567e-001
         - -5.9345527245238250e-001
         - 1.2760688781642809e-002
         - -4.2565734682077822e-001
         - -7.6377411636914163e-003
         - -4.9735007418845006e-001
         - 1.6936268738730600e-001
         - -7.5063785400338368e-001
         - -9.1441791078043996e-002
         - -3.0655734817267544e-001
         - 3.0938676673010218e-001
         - 1.8655964450204221e-001
         - 2.5186383185308964e-001
         - 1.1115773698722212e-001
         - 9.5802968517954959e-002
         - -2.1532118864803076e-001
         - 3.8711757418853743e-001
         - -4.0038787584512575e-001
         - -2.0667604943956511e-001
         - 3.2159779093265844e-001
         - 6.6360727184545457e-003
         - -1.6731980404465083e-001
         - -9.6341435532493802e-002
         - -5.2603209039430820e-001
         - -1.1865830646105889e-001
         - -1.9505531765573478e-001
         - 7.1440599354636508e-002
         - 1.2124757978654500e-001
         - 1.1405783118980992e-001
         - -2.9980217493499550e-002
         - -2.9034078978675687e-001
         - -3.9174021876349718e-001
         - 2.5146043338255397e-001
         - 8.2489018696555755e-002
         - -3.8838355822152265e-001
         - -1.2123806313120652e-001
         - 8.5516925547820477e-001
         - -3.4360471536643056e-001
         - 1.6012475509635560e-001
         - -3.4027200497687496e-002
         - -2.6685264082750593e-001
         - 1.2985894053740940e-001
         - -9.1745966296775983e-001
         - -2.9377939314457077e-002
         - 3.0852331649943154e-001
         - -9.3502357823594492e-002
         - -2.9503502695975992e-001
         - -5.5373495237958015e-001
         - 8.1422467405068269e-002
         - -9.0445333544988890e-002
         - 2.4358274045895045e-001
         - -4.7579642026258767e-001
         - -2.5027435346932425e-001
         - -4.0379149852566415e-001
         - -9.5437106949770173e-002
         - -2.8604902520845193e-001
         - 5.6548904474146211e-001
         - -3.0782745292993502e-001
         - 6.0501631228554252e-002
         - -2.6949090637959144e-001
         - 4.3834129658530492e-003
         - -3.8132806132976604e-001
         - 8.1929795771169781e-002
         - -2.6137940834008450e-001
         - -4.8932920121670198e-001
         - -3.4134133163664232e-001
         - 5.3698052106023586e-001
         - 1.5405175749906821e-002
         - -9.2463917713640875e-002
         - 4.8885771048496640e-001
         - -3.1788891598576746e-001
         - 7.2439041363778711e-002
         - 8.0323948545827570e-002
         - -1.1128772153329321e-001
         - 6.2762263232388671e-001
         - -4.2523548972361719e-001
         - 4.2912093756747066e-001
         - -4.8474145378929218e-001
         - 8.9344239949859061e-001
         - 5.6054527311897406e-001
         - -2.5864551050168810e-001
         - 2.8137914402012443e-001
         - 3.2340408320393416e-001
         - 3.4654395201682570e-001
         - 1.0665005338534143e-001
         - -2.4093950214772317e-001
         - -5.2777151719149368e-003
         - -3.9232992359050853e-002
         - 1.0948327275447123e-001
         - -2.0087154961970743e-001
         - 5.8021139683746925e-001
         - 1.5282128462224373e-001
         - -9.0133746376794333e-001
         - 3.9262199963765156e-002
         - -4.6371178064676763e-002
         - -2.2465949012131389e-001
         - -1.1109036595000456e-001
         - 7.5137660085123736e-001
         - -2.6466336087522146e-002
         - 5.1040024106691821e-006
         - 3.2322904916812756e-001
         - 5.9255196988873682e-001
         - -1.9197610000656568e-001
         - -3.6845749131681865e-001
         - 2.0358757844055581e-001
         - -3.8115463128488361e-002
         - -1.6142847398827190e-001
         - -4.5955023056480854e-001
         - 1.3697432638766804e-001
         - -7.3138146230342788e-002
         - -7.8644592511561229e-001
         - -3.9898698383810077e-002
         - 3.0530805555480228e-001
         - 3.2041563883003797e-002
         - 4.8984933146139642e-001
         - 2.6012337977232936e-001
         - -2.3460932815353896e-002
         - 1.2975980064746881e-001
         - -5.3235804947330920e-002
         - 7.8495362483464740e-002
         - 2.7577103709031137e-001
         - -9.4974910874334975e-002
         - 4.2384977822314046e-001
         - -5.9103793938076754e-001
         - -4.7382123397359965e-001
         - -2.0130186842201950e-001
         - 9.4473192388486921e-002
         - 4.6772344046454986e-002
         - 2.6146245010845387e-001
         - 6.8889343451540325e-002
         - -5.1940777111495584e-002
         - -4.5332802612900325e-001
         - 1.9926501728883447e-001
         - -6.7874829303600270e-001
         - 8.9662376868135496e-002
         - -6.2039236806610873e-002
         - 2.3769395491206552e-001
         - -1.0035444335411477e-001
         - 8.8593051531313627e-001
         - -2.5116509977498973e-002
         - -1.7293305339945175e-002
         - -2.0728285232266175e-001
         - -9.3835777915598573e-001
         - 1.1034671945208846e-001
         - -1.5599601053900086e-001
         - 1.5858138285750709e-001
         - -4.1841098216041089e-001
         - 1.2835566976006335e-001
         - -2.6340960942268449e-001
         - 6.6753944682344479e-001
         - 7.4414942971489900e-002
         - 3.7155005590729917e-001
         - -1.3364595907619548e-001
         - 2.5279360046131200e-001
         - -2.7533864136292630e-001
         - -3.5941199858448591e-001
         - 4.0135711798274826e-002
         - 7.5832574321443901e-004
         - 2.4704540512095896e-001
         - -1.6494079323450973e-002
         - 9.9701087738749000e-002
         - 1.1031800839216303e-001
         - 3.8694876406873152e-001
         - 2.7631912126337571e-001
         - -5.3729127575275670e-001
         - -8.5370701224034978e-002
         - 1.8911320936561352e-001
         - 8.0632783485461013e-001
         - -4.5571959876620766e-001
         - -1.0341737916513603e-001
         - 4.2984603436695529e-001
         - 4.2001258165111238e-001
         - 2.9216932791711869e-001
         - -3.3847401917266623e-001
         - -2.2442182136737596e-001
         - 2.3854163344847618e-001
         - 1.7173295873993835e-001
         - -3.7385309580627230e-001
         - 2.8288079758435503e-001
         - -4.4646328508370269e-002
         - -1.0326965205879929e-001
         - -3.8131003333522634e-001
         - 2.8535168840209790e-001
         - -9.6989897814911197e-001
         - 2.7987613822620050e-001
         - -8.7168757164953325e-003
         - 1.3551239147412600e-001
         - 1.2859964903042057e-001
         - 1.5676441022742485e-001
         - -1.9230298691094613e-001
         - -4.8287262566993450e-002
         - -2.8013986794631129e-002
         - -6.7698442731828690e-001
         - 6.3371556496856729e-001
         - -7.8584224514711298e-001
         - 2.4782574101885907e-001
         - -3.2087584225140103e-001
         - -4.4200536033759497e-001
         - -4.5627808931507946e-002
         - 5.3766486379291911e-001
         - 6.3201845391630596e-001
         - 3.6135369382321375e-001
         - 1.5958485632348332e-001
         - 1.1233048818776241e-001
         - -2.2933911373035368e-001
         - -4.3526598364139085e-001
         - 2.3792758939968714e-001
         - -2.3608301100923815e-001
         - 7.4955441643742418e-002
         - -1.5281995013711983e-001
         - -2.3970670521448334e-001
         - -5.0990417760406193e-002
         - 8.0214813368110302e-002
         - 1.1826542585704948e-001
         - -4.1970250946718685e-003
         - -2.4105683983996287e-001
         - -1.2338095409546870e-001
         - 7.6569049171403025e-001
         - -2.6969184797165729e-001
         - -4.9064158225068577e-001
         - 3.4452162779767641e-002
         - 6.0274673941146557e-004
         - 5.9492575067593645e-001
         - -2.3738067779979127e-001
         - 2.2977471267004604e-001
         - -1.6286051505797583e-001
         - -6.4493355705186078e-002
         - -1.5475576916644757e-001
         - 7.6872373798551330e-001
         - 3.0667644049127838e-002
         - -4.1079696068098415e-002
         - -4.3790586459930941e-001
         - 4.5575364209325336e-001
         - -3.1122288247145002e-001
         - 5.0145534786023094e-001
         - -1.5196108592006075e-001
         - -1.5116956623250041e-001
         - -3.4872560027058720e-002
         - 3.6084993717280073e-001
         - -2.2796159748898936e-001
         - 2.0476272144402816e-001
         - -5.1149827410994123e-002
         - -8.5204671438215238e-002
         - 5.9215997641130247e-001
         - -2.7696613777103707e-001
         - 2.7821115609705199e-001
         - -3.3542520234602474e-001
         - -3.8631457898474081e-001
         - -6.1661653838715830e-002
         - 6.0728483565480418e-001
         - 2.0449219464178758e-001
         - 7.0528017848127378e-001
         - -9.7347885021730307e-002
         - 2.2850687209400974e-001
         - 1.2074712317096092e-002
         - -7.6259057610741576e-001
         - 3.3770504047394045e-001
         - -2.0276499676020168e-001
         - 2.1070595410147705e-002
         - -2.3293314075665253e-001
         - -6.4010278320613434e-001
         - -1.7753179749749293e-001
         - 2.2280946959130793e-001
         - -1.5749373484639634e-001
         - -2.6639568205249823e-002
         - -2.9389078622890374e-001
         - -8.2166148113797313e-002
         - 6.7604721844664872e-001
         - -3.3391773875559821e-001
         - -3.8720244906480372e-001
         - 1.3431867276662968e-001
         - 4.0896218841107235e-001
         - 5.1635256514705530e-001
         - -2.3244409247478204e-001
         - 3.9098086162175756e-002
         - -4.9025279122052616e-002
         - -3.3088637438837804e-002
         - -4.3991205996267341e-001
         - 4.7325075556804153e-001
         - -1.2177895438222362e-002
         - -2.4823639196006374e-003
         - -5.6545871365717801e-002
         - 3.7553243774560091e-001
         - -5.0044059555453790e-001
         - 4.5656033643596855e-001
         - -1.7992847780322641e-001
         - -4.6682210104200295e-001
         - 2.1214689512683623e-002
         - 3.2952601800989145e-001
         - -7.6181254292352783e-003
         - -5.9936833333947087e-002
         - -1.0151027009109231e-001
         - -4.5639981156618753e-001
         - 7.3960176341056361e-001
         - -3.7773854980839361e-001
         - 2.3646753678736127e-001
         - 1.1377569265313426e-002
         - 3.0048372051017670e-002
         - -1.7689958879399037e-001
         - -1.0825068552064410e-002
         - 2.7713066441657391e-001
         - 5.2664426164721900e-001
         - 7.6549787956695078e-002
         - 1.8113556904711786e-001
         - 4.3162387605114164e-002
         - -3.0817802903891878e-001
         - 4.9193773588632095e-001
         - -2.3140025496530559e-001
         - 1.5164936833507292e-001
         - 3.0353381337288859e-002
         - 1.6654455961789386e-001
         - 2.5668916393129787e-001
         - -2.6170739625167555e-001
         - 2.5985460528614285e-001
         - 8.6890082743880337e-001
         - -8.4345847950311525e-001
         - -1.5413691096973484e-001
         - -1.9113949041250902e-001
         - 4.9159255855726565e-002
         - -4.4959366298534070e-001
         - -3.6299001993863672e-001
         - 4.4678862952909659e-001
         - 9.0591704244097029e-002
         - -9.1491015318650415e-001
         - -1.0514803473869895e-001
         - -6.6120752644172456e-002
         - -9.4047866642078676e-002
         - -3.1597840455528958e-001
         - 7.1068100322370709e-001
         - 3.2797874694367424e-001
         - -6.9603056795168421e-003
         - -1.2145671166939354e+000
         - 4.3745168670452217e-001
         - -2.6061475509399651e-001
         - 5.1268339484223691e-001
         - -2.4787877789332222e-001
         - -6.5222018626251554e-001
         - -7.8237916634364794e-003
         - -5.1453776588084171e-002
         - -2.2387815796710017e-001
         - 4.0066792797173323e-001
         - 3.9036877797174180e-001
         - -6.3750332177697111e-001
         - 4.0571639831877665e-001
         - -2.8657775840424154e-001
         - 7.9282908144651568e-002
         - -3.7116763340940312e-001
         - -1.5090259803112628e-002
         - 5.2705680336495686e-001
         - 1.8458760933034987e-001
         - -3.1581341007807316e-002
         - 5.2506632579448576e-001
         - 9.0072635746481396e-003
         - 2.5651768605443881e-001
         - -2.3604833595929294e-002
         - 3.2966716424345904e-001
         - 3.4997383076392363e-001
         - -2.4752806012956871e-001
         - -1.2219850896793431e-001
         - -9.3813657022174465e-003
         - -9.9152061759832744e-001
         - -1.1163650383652850e-002
         - 5.4197825902753272e-001
         - 7.5306982655915225e-003
         - 3.5289628014130259e-001
         - -1.7811976031017251e-001
         - -2.4656755523654500e-001
         - -6.2503545591882259e-001
         - -5.2880407962543530e-001
         - 1.3866709941040831e+000
         - 5.7268871936096655e-001
         - 6.5524877161922124e-001
         - -3.4648410196016827e-001
         - 4.3751607456826003e-001
         - -4.1121681154288886e-001
         - 4.4644296486514723e-001
         - -4.1591700841505597e-001
         - -6.8894122731728868e-001
         - -1.7705363183925985e-001
         - -4.8239865084778549e-001
         - -2.5994115068006529e-001
         - 4.9038888210130327e-001
         - 2.2796784171179194e-001
         - 1.6543032570022226e-001
         - 1.1414745537795654e-001
         - -1.7238305073012353e-001
         - 1.1559329965982462e-001
         - 2.6533373359479950e-001
         - -4.2174878635561597e-001
         - -1.1281355194764636e-001
         - -1.9238038935698695e-001
         - -3.9290833972466271e-001
         - -7.1902676650569952e-001
         - 4.4429159400197989e-002
         - -3.8948908362877382e-001
         - -3.2270375017792680e-001
         - -7.1683060910507879e-001
         - 5.1418952910011950e-001
         - -1.3821503298716881e-001
         - -2.8577771361508553e-001
         - 1.0285520464789374e-001
         - 6.2533816981185752e-001
         - 5.4438672169677293e-001
         - -2.7145260227842677e-001
         - -1.4509645238785096e-001
         - -4.2528642917667708e-001
         - 2.4379022183287322e-001
         - 3.5595818406620139e-001
         - 1.8412132875418735e-002
         - -5.2004316018055580e-002
         - 2.4867226710624446e-001
         - 2.9969164716138652e-001
         - 1.4743839450568250e-001
         - 1.6988987779811152e-001
         - 6.3961603539658862e-001
         - 3.6313789887137182e-001
         - 7.2663667910443125e-002
         - -1.0923690984292449e+000
         - -5.5508073092861687e-001
         - 7.0699694090787607e-002
         - 9.2508435037857675e-002
         - -3.6607760814788830e-002
         - -6.2858626093774483e-001
         - 1.3358973292103216e-001
         - 1.1323759816387892e-001
         - -2.5605408793064227e-001
         - -5.6770176379157787e-002
         - -1.7850824160598758e-001
         - -4.0032950951444790e-001
         - -2.4553169501677291e-001
         - -1.9253333051741897e-001
         - 7.0343019908471893e-001
         - -5.3468575692107036e-002
         - -1.6845857393935665e-001
         - -1.6979279277823431e-001
         - -7.6561887819947688e-002
         - 2.4575252002587814e-001
         - 5.5529039863636120e-003
         - 1.5064724404985179e-002
         - 1.8558443670457705e-001
         - -2.3849609948016881e-001
         - -7.6536531764116206e-002
         - 1.8426588028304505e-001
         - -4.7588479568812569e-001
         - -4.3893756340464346e-001
         - 1.3275503073366501e+000
         - -1.2745787804368416e-001
         - 1.0514575695824573e+000
         - 1.0772128490754537e-003
         - 1.1872669785297790e-001
         - 1.4545295393048538e-001
         - -2.2148276582955462e-001
         - -6.2806132551089119e-002
         - -3.7782239795186329e-001
         - -4.2907026465304388e-001
         - -2.3629834021064952e-001
         - -3.3249466276968848e-001
         - 6.2941526400565206e-001
         - -6.8782906215196643e-002
         - -6.4771933331253223e-002
         - 7.1191962150260502e-001
         - 2.6275466875351494e-001
         - -2.3860240992398640e-001
         - -2.8977205854056698e-001
         - 2.3643489174763064e-003
         - 4.7828420831809193e-001
         - 3.1568493249798907e-001
         - -7.6800722517606890e-001
         - -6.6326426055047516e-001
         - -1.2702379516603013e-001
         - -1.2540616958924672e-001
         - -1.0530824410965684e-002
         - -2.0897677351944347e-001
         - -1.1768643069104022e-001
         - 4.6936499259141445e-001
         - -2.8134446793301171e-001
         - -1.0808801809760551e-001
         - 3.6745026523107788e-001
         - 1.7597053401363727e-001
         - -1.4773042337782505e-001
         - -1.3864088119406734e-001
         - 6.7739118083496586e-001
         - -1.3167893906540842e-001
         - 1.2101347199675361e-001
         - 1.6058894946399685e-001
         - -3.7344560278853536e-002
         - 3.2128830671584901e-001
         - 8.6481147769843942e-005
         - -2.4622556954488345e-001
         - 4.7028064161701424e-002
         - 8.7210815592890525e-002
         - 5.4830500784745780e-002
         - 2.8201496348898497e-001
         - -6.4833983567894193e-001
         - -3.4158854606668876e-001
         - 8.3124296824512744e-001
         - 2.5960448898940081e-001
         - 8.2703025999182289e-001
         - 1.7143678407271587e-002
         - -6.8036253000788253e-004
         - 1.8578785929105337e-003
         - 1.5344437157076682e-001
         - 1.0000496741601375e-001
         - -6.3196902451616910e-001
         - -3.7052085345743679e-001
         - -5.1639035261729394e-001
         - 4.8223756263069922e-001
         - 6.9688254237832659e-001
         - -2.0693719567950483e-001
         - -3.0877903085515612e-001
         - 2.1149628470370599e-001
         - 7.6775781332164519e-002
         - -3.8490690047970638e-001
         - -8.2057421830879690e-002
         - 7.2859709471581569e-001
         - 2.4863576929367523e-001
         - 1.8205278420201219e-002
         - -4.6847411491753949e-001
         - -2.0479867130755003e-001
         - -3.6424421688011832e-001
         - -4.3728100262011782e-001
         - -1.8225323100587269e-002
         - -3.2874571169492922e-001
         - -2.2642821789720100e-001
         - 9.4775580923531855e-001
         - -4.3633855426965662e-001
         - 3.0356767498153126e-002
         - 2.9871978367100832e-001
         - 2.1036413848812652e-001
         - 1.6429147149572687e-001
         - 9.6704182379129377e-003
         - 7.3825159762972836e-001
         - -2.8684182753133280e-001
         - 1.1814881778818771e-001
         - 4.1947575957421229e-001
         - 1.4045655311313850e-002
         - -1.1807571351214222e-001
         - -2.1253774165864700e-001
         - -2.5633884612125307e-001
         - 1.1122982642748858e-001
         - 1.5456926660934250e-001
         - 3.5086975003181892e-001
         - 5.1942063966749656e-002
         - -9.6469526021299956e-001
         - 3.8568034591970994e-002
         - 9.5664277462005176e-001
         - -9.0205826385750407e-002
         - 1.5528017260142277e+000
         - 3.1438694408360274e-001
         - -1.0467302260221407e-001
         - 7.0822572575289497e-002
         - 2.6194418284779691e-001
         - 2.2429376774112816e-001
         - -3.9679924060241645e-001
         - -2.1708571404777702e-001
         - -6.2545134484023868e-001
         - 2.2179148023938317e-001
         - -4.5546765245612503e-001
         - 1.1348493100677715e-001
         - -3.0706871581718070e-001
         - 3.7580793508931859e-001
         - -3.7589135770351889e-002
         - -1.5735920018410815e-002
         - 2.3340435104633162e-001
         - -1.6722990161078069e-001
         - -4.8810983660848900e-001
         - 4.5192193868426012e-001
         - 2.4035172225416335e-001
         - -6.0946539074797668e-001
         - 3.3408224009124038e-001
         - -2.0227411439064913e-001
         - 4.7494769556808161e-002
         - -1.2174476750506089e-001
         - 3.8268320788547778e-003
         - 2.9747628774873203e-001
         - -2.1203080413395162e-001
         - 2.3335979513833455e-001
         - -1.7378371611554669e-003
         - 5.0242944662618483e-001
         - 3.5887460055332820e-001
         - -2.5769646197197976e-001
         - -2.8975724536288799e-001
         - -5.0955052129867551e-003
         - 4.6280217738471552e-001
         - 5.9796066743046938e-002
         - -2.9546168437967679e-001
         - 1.3913357504957435e-001
         - -1.7128616266889185e-001
         - 3.4025034272259602e-001
         - -2.0686030322215304e-001
         - 3.6754426714070970e-001
         - 2.6654953758766375e-001
         - -8.0582158036059126e-001
         - 1.5869898776951558e-001
         - 1.6930026929184944e-001
         - -2.2336448993620497e-001
         - -7.4474842232748062e-001
         - 5.7523151509591830e-001
         - 2.2728415493683080e-001
         - 1.7812413571715438e-001
         - 3.3914999735705137e-002
         - 8.6710402748091586e-001
         - -1.6308407073984438e-001
         - -5.5987619008936573e-001
         - 1.2592404870495827e-001
         - -6.6174326257650351e-001
         - -1.4712462432186768e-001
         - 1.0895256989815820e-002
         - -9.3127001297620676e-003
         - -4.8265771890701470e-001
         - -5.3239382806329605e-001
         - -3.2493895137824275e-001
         - 2.0195901779610076e-001
         - 2.7956077277726959e-001
         - 3.7739249618624826e-001
         - -7.6438982780940390e-001
         - -2.6057541216409896e-001
         - 7.9723152997117064e-001
         - -1.1269372899858342e-001
         - -1.2828998150720941e-001
         - 7.8502518800580484e-002
         - 4.5321475802311439e-001
         - 6.6094845927897078e-002
         - -2.6144077923954195e-001
         - -2.1836786361503313e-001
         - 2.4111348123635920e-001
         - 2.4447488276693453e-002
         - -5.2432043827772790e-001
         - 9.5148574233802533e-002
         - 7.6792480047684575e-002
         - 3.0041631470019448e-001
         - -9.5586900683322096e-002
         - -1.7564713737550995e-002
         - -5.4879932816455756e-001
         - 4.1193223927536426e-001
         - 9.1300923565345415e-002
         - -3.8182845431276841e-001
         - -1.9346278890853405e-001
         - 3.5457027799212609e-001
         - 1.3568015033654654e-001
         - -4.4855628552019661e-001
         - -1.5761336771005358e-001
         - -7.4841967488166561e-001
         - 7.7785838083325043e-001
         - -9.3563742955199991e-001
         - 7.5174512519743053e-002
         - 7.6817770924323250e-002
         - -3.9011094973964705e-001
         - -1.5397784247746088e-001
         - 3.0960251953773804e-001
         - 2.0454290072504810e-001
         - -3.4166837935785854e-001
         - 4.8640840881128550e-001
         - 5.5160158126364178e-001
         - 1.7666529353691846e-001
         - -4.1549368432079820e-001
         - -4.6847875182532733e-001
         - 3.2504171939144400e-002
         - -1.1661712166304904e-001
         - -2.6669634663534447e-001
         - -9.5682966351774379e-001
         - -5.5115853871695109e-001
         - 7.3926298319262340e-002
         - 1.3840670025320306e-001
         - 1.7234595872709571e-001
         - 2.4053521268688360e-001
         - 8.9157296938475669e-002
         - 1.2172763978347330e+000
         - -2.1073268774081930e-001
         - -7.4633850911289845e-001
         - 1.5014504738991091e-001
         - 5.1878037076411743e-001
         - 5.2906374131647138e-001
         - -5.2888514678327836e-001
         - 5.1886051123831767e-001
         - -8.1232088862209756e-002
         - -4.0102433320692682e-001
         - -2.7149541543421557e-001
         - 6.1082634414306214e-001
         - -3.1586377456594972e-001
         - -8.4327732757623688e-002
         - 6.1764904093400608e-001
         - -3.7185401555239687e-002
         - -4.9778511409777154e-002
         - 5.3147935248148170e-001
         - 7.2532945238230374e-003
         - -4.6911612634193678e-001
         - 1.2444937716858971e-001
         - 2.8139765371170322e-001
         - -2.0821369902080156e-001
         - -2.2839017960953159e-001
         - -3.7526796453147981e-001
         - 1.6107756881116084e-001
         - 1.4372591475331882e+000
         - -4.2845828083444265e-001
         - -2.6203170655494678e-003
         - 5.8512220953186762e-002
         - -8.4705387529120446e-001
         - -5.0032362737349645e-001
         - 2.8597353559373238e-002
         - 2.9821629573771147e-001
         - 3.5259985071007044e-001
         - 7.8142483697555809e-001
         - 1.2173222711451942e-001
         - 5.6611363789625557e-001
         - -4.9593504548427830e-001
         - 1.5888558493492727e-001
         - -6.3631735010089430e-001
         - -4.4980616678670399e-004
         - 9.4073961618862556e-002
         - 1.4691842382879447e-001
         - 1.6486176407854458e-001
         - -7.3401436977959547e-002
         - 6.1504782541521885e-001
         - 9.7139276478643166e-001
         - -7.7571188220493048e-001
         - -2.2630495384867705e-001
         - 2.4041378387039536e-001
         - 2.4213496824464867e-001
         - -6.2342384317171051e-001
         - -2.7784513362214164e-001
         - 1.5813174217416296e-002
         - 3.6223286865647014e-001
         - -5.7679363970271225e-001
         - -4.5951404637825100e-001
         - 2.1147135117144306e-001
         - -1.7337412043724273e-001
         - -2.6400152866436943e-001
         - 3.7836971444905504e-001
         - 1.2587497286289348e-001
         - 2.5278444498327879e-001
         - -7.9589271001596984e-001
         - 2.5204857701395506e-001
         - -4.8003574643774016e-001
         - 1.8587303855903081e-001
         - -1.7305687966416974e-001
         - -1.3583893774218569e-002
         - -1.0717680506875073e-001
         - 3.5277997562303404e-001
         - -2.8675755527305796e-001
         - -1.0003778547742549e-002
         - -3.1148869546943170e-001
         - -3.3432839224175770e-001
         - 5.9021825650718140e-001
         - -5.2837117216714569e-001
         - 5.0816489550691357e-001
         - -3.5663183409355143e-001
         - -8.2961182096332142e-001
         - -5.3901914353859909e-002
         - 7.1160157394339119e-001
         - -2.1157459875970280e-001
         - 7.5434550293308344e-001
         - -2.5474003159717840e-001
         - 6.2622149746633948e-001
         - -2.5328340760153345e-001
         - -3.1558473029801698e-001
         - -5.8103775308165462e-001
         - 8.1391555740610560e-003
         - -1.5497664079305044e-003
         - 1.1744122539991663e-002
         - 1.5852644865674531e-002
         - -2.2445443149875819e-002
         - 1.7916650852044809e-002
         - 1.8160076662885567e-002
         - 1.7231594233791097e-002
         - 3.5416487137976660e-003
         - -1.9965514517063743e-002
         - 1.7753434223358722e-002
         - 6.9012843286691194e-003
         - -2.1694091265613776e-002
         - -1.7793063359122140e-002
         - -8.6638963017920765e-003
         - 2.1210042013620915e-002
         - -1.2624384358645191e-002
         - 3.2275263060035394e-003
         - 1.5287222575195412e-002
         - -1.6402851637221716e-002
         - 1.6899697864417682e-002
         - 1.4561184131906487e-003
         - 1.9027309994934495e-002
         - -8.9408485770543621e-003
         - -1.7283212614658993e-002
         - -2.2117293547045595e-003
         - 2.5629481465192549e-003
         - 1.4028986494945318e-002
         - -2.1402140577942663e-002
         - -1.6469058715096029e-002
         - 2.4889851070610518e-003
         - 1.3466389277540717e-002
         - 2.0763442265925275e-002
         - -2.1453360121028671e-002
         - -2.0765883870733571e-002
         - 3.0514202294487079e-003
         - -1.8905072500690710e-002
         - 1.1953388724447834e-002
         - 4.5025798677411537e-003
         - -1.4463207346042443e-002
         - 2.0009190062165769e-002
         - -1.3777981610162917e-002
         - 6.7723414551806955e-003
         - 7.7743805313122076e-004
         - -1.3559233452706671e-002
         - -4.7231756755108413e-003
         - -7.5434811639598720e-003
         - -8.7455612292711843e-003
         - 6.6974692563283962e-003
         - -1.8444169855571645e-002
         - 1.1963726095249684e-002
         - 2.1511460434759593e-002
         - 1.6893080387312031e-002
         - 1.5975714467784504e-002
         - 9.5834824308281032e-003
         - 4.8852714944354041e-003
         - 1.7382696131566233e-002
         - 1.0436353701932417e-002
         - 2.3959483069376529e-002
         - 8.6805774261524034e-003
         - -3.6810883169423078e-003
         - -2.1779927865493470e-002
         - 4.0177180908799277e-003
         - 2.1254351734989275e-002
         - -2.3483599643762613e-002
         - 1.6977761659242162e-002
         - -1.5709555530091020e-002
         - 9.5943529770525192e-003
         - 2.0679995140541214e-002
         - -8.6221102386942351e-003
         - 1.3692201627840831e-002
         - -1.3098883030380650e-002
         - -3.3964545075855818e-003
         - -1.3561888395158248e-002
         - 1.3514531591005794e-003
         - -1.9285536349999799e-002
         - 1.2954385253535277e-002
         - -1.3466949821557146e-002
         - -2.3240786858310495e-002
         - 8.3474453952084287e-003
         - 1.2804153601270315e-002
         - 6.2527158908617835e-003
         - -1.1971244745759807e-002
         - 8.2212870922421331e-003
         - 1.5689813080828695e-002
         - -6.6747088971824374e-003
         - 6.8949000674950424e-003
         - -2.0679501903349842e-002
         - -4.5229113565245895e-003
         - -2.5329803043495774e-003
         - -1.9484802364722848e-002
         - 1.7343660645355370e-002
         - -7.6188689409091691e-003
         - -3.4744478124385213e-003
         - 8.8680910707682001e-003
         - -3.5969652402867741e-003
         - -7.0683403571114396e-003
         - 6.7220777067688708e-003
         - -1.8588180120351908e-002
         - -2.1025126747636971e-002
         - -7.9628133986061351e-003
         - 8.7592922934071858e-003
         - -1.4828868284881468e-002
         - -2.3959054163639748e-003
         - -1.6255892656759054e-002
         - -1.5241370603697778e-002
         - 2.0776953297588156e-002
         - -8.8315124520899450e-003
         - -1.3252093980361425e-002
         - 1.7137858100688554e-002
         - -5.1737964966220079e-003
         - -1.2697061372669559e-002
         - 7.9845244592041016e-003
         - -5.5361693881822516e-003
         - -1.6028741519661174e-002
         - 1.5253580318347749e-003
         - 3.6210531191813726e-003
         - -2.2706076856399082e-002
         - -4.1062278037327119e-003
         - -5.7434416748112817e-003
         - 8.9466138108999782e-003
         - -9.7020623796525065e-003
         - -4.5834947363922350e-003
         - 2.5538645656524002e-003
         - -1.5413985552499924e-002
         - -9.3617609171889517e-003
         - 1.2320516116463922e-002
         - -1.0407598435999171e-002
         - -6.6128601679734233e-003
         - -1.3174700665992647e-002
         - 1.6937140570067542e-002
         - -1.7228169327632829e-003
         - 2.0368782819423774e-002
         - -6.6640991011812749e-003
         - -2.1117369842800601e-002
         - 5.5440889671893364e-004
         - -2.1719297450838160e-002
         - -8.6097976484351968e-003
         - -6.7155805086597780e-003
         - 2.0778414471333332e-002
         - -1.5010975431613558e-002
         - 1.1411885458176630e-003
         - -1.2145534209701133e-003
         - 1.8565703905307488e-002
         - 1.0818336774233864e-002
         - -4.5048792723583857e-003
         - 1.2159488531877094e-002
         - 2.2934299053126519e-002
         - -1.4827954984259109e-002
         - -1.0417392835724111e-002
         - 1.1073374781959648e-002
         - 1.4285893029606757e-002
         - 1.2854786097657445e-002
         - 1.4400061971693625e-002
         - 8.2615349321479015e-003
         - -1.8072993602806325e-002
         - -8.4238859601236012e-003
         - -1.8420779196888282e-002
         - 2.5922235918097447e-002
         - -2.1507449579659676e-002
         - -2.4453845316562972e-003
         - -1.3316404110065209e-002
         - 1.4692749339972425e-002
         - -7.6952784622914185e-003
         - -2.0155323338131376e-002
         - -8.0585660244584262e-003
         - -8.1119197032322177e-003
         - 1.0984458580040612e-002
         - 2.3259924214563663e-002
         - 4.3415464021862686e-003
         - -1.7319943802113946e-002
         - 1.8997407994570869e-003
         - 1.3064542321858816e-002
         - 1.7775311510038347e-002
         - 1.0175277891445872e-002
         - 1.0449148673127679e-003
         - -1.5843938091298852e-003
         - 2.4495777191218756e-002
         - 2.1006950946919845e-002
         - 2.1002888299955745e-002
         - 1.7756592489191301e-003
         - -2.5366983117561291e-003
         - -2.0732946969669919e-002
         - 3.2830191779481526e-003
         - -1.3270662412514690e-002
         - -2.0100585665737625e-002
         - 1.4421372072802844e-002
         - 1.5042565386562696e-002
         - 1.8222640083285883e-002
         - -2.4876906418524258e-002
         - 1.2077188044860066e-002
         - 7.6813333576056433e-003
         - -2.3464135332587760e-002
         - 2.4281760047919737e-002
         - 1.5635420959690581e-002
         - 1.6025657007299930e-002
         - 1.6881905982360893e-002
         - 1.0016750214555795e-002
         - -1.7609664874615787e-002
         - -1.4322782021230797e-003
         - -3.4853660535370968e-003
         - 1.6552701165239030e-002
         - 7.7681829313561383e-003
         - 2.1174204869298059e-002
         - -1.4763548708111158e-002
         - 3.6380979599767030e-003
         - -1.9628405852421149e-002
         - 1.7601964593052698e-002
         - 5.5179793646804812e-003
         - 1.4104378451759955e-002
         - -1.8093654778634123e-002
         - -1.7223783258751787e-002
         - 6.9387592380015708e-003
         - 5.7092228495079153e-003
         - 1.1774986123333464e-002
         - -7.1076158354558029e-003
         - -3.1820552148946056e-003
         - -9.0156322947732934e-003
         - -7.1358100368165084e-003
         - -1.2025338966299030e-002
         - -4.4460522788226106e-003
         - 1.0164187945625335e-002
         - 9.6975684858629455e-003
         - 5.2268023500687093e-003
         - -2.1519445035856722e-002
         - 2.3588644481180768e-002
         - 1.5157861880351124e-002
         - -1.1893241500194215e-002
         - -1.0444337584491115e-002
         - 1.3323331025342937e-002
         - -8.7795069500017069e-003
         - -1.6118066959894633e-002
         - -1.6175370522682978e-003
         - -9.1439730034245589e-003
         - 9.2585264537921631e-003
         - -1.7206092694157817e-002
         - 7.1557426819697512e-003
         - -1.7302305090859716e-002
         - -2.2462868724094875e-002
         - -1.1710333660700898e-002
