%YAML:1.0
opencv_ml_ann_mlp:
   format: 3
   layer_sizes: [ 144, 50, 50, 7 ]
   activation_function: SIGMOID_SYM
   f_param1: 6.6666666666666663e-001
   f_param2: 1.7159000000000000e+000
   min_val: -9.4999999999999996e-001
   max_val: 9.4999999999999996e-001
   min_val1: -9.7999999999999998e-001
   max_val1: 9.7999999999999998e-001
   training_params:
      train_method: BACKPROP
      dw_scale: 1.0000000000000000e-003
      moment_scale: 1.0000000000000001e-001
      term_criteria:
         epsilon: 1.0000000000000000e-008
         iterations: 10000
   input_scale:
      - 1.7182381929132148e+001
      - -8.5138467995701319e+000
      - 1.7588069263300284e+001
      - -8.7227732051839286e+000
      - 1.9601426364934650e+001
      - -9.0194967218294391e+000
      - 2.1624602344019955e+001
      - -8.7825007778121496e+000
      - 2.3118257031036137e+001
      - -7.9491404218918182e+000
      - 2.2612664302066019e+001
      - -7.7163938955723204e+000
      - 2.0732774275563539e+001
      - -8.2666830992728997e+000
      - 1.7769142293449878e+001
      - -7.9703119746422670e+000
      - 1.4979444223693006e+001
      - -7.2020476117011620e+000
      - 1.3949151592272644e+001
      - -6.6955207089209106e+000
      - 1.
      - 0.
      - 6.2919829554748041e+001
      - -7.5536871390632871e+000
      - 6.1134174771151145e+001
      - -6.0866113551424581e+000
      - 5.8128363889263710e+001
      - -5.6879421481021311e+000
      - 5.9149305266999725e+001
      - -5.9525283806982729e+000
      - 5.7965182243464483e+001
      - -7.0340802197646823e+000
      - 1.9701625737388472e+001
      - -7.1167585573975831e+000
      - 1.9725002769555992e+001
      - -6.7257428307153813e+000
      - 2.0195542095425527e+001
      - -6.0027753937291264e+000
      - 2.1391416222478039e+001
      - -4.9525255997012749e+000
      - 2.2180226401545116e+001
      - -5.7590401078879196e+000
      - 2.1923032347014157e+001
      - -6.7568005879876800e+000
      - 1.9523423116222695e+001
      - -4.4104799533073082e+000
      - 1.7721700525014757e+001
      - -5.1398736358865698e+000
      - 1.6598719349672887e+001
      - -5.5059535319255923e+000
      - 1.5950043085149517e+001
      - -5.6028001220362231e+000
      - 1.7791780958727664e+001
      - -5.3244718971569283e+000
      - 1.8844700362774191e+001
      - -4.7384978818558832e+000
      - 2.4691702821050207e+001
      - -7.7784474070742800e+000
      - 3.0640626503845628e+001
      - -7.2664644195206218e+000
      - 3.1104439267485542e+001
      - -5.8191236384496010e+000
      - 2.7800165980147021e+001
      - -5.3495387636163185e+000
      - 2.9542232785605670e+001
      - -5.5772818558115445e+000
      - 2.7126698514747218e+001
      - -6.5341544385234043e+000
      - 2.1440564918996142e+001
      - -6.8423847774477604e+000
      - 1.5552114969993175e+001
      - -5.3228608331491785e+000
      - 1.3079658496467287e+001
      - -4.5934493981375990e+000
      - 1.2862462686457528e+001
      - -4.5193238969480438e+000
      - 1.3074095133931111e+001
      - -4.5702675355571643e+000
      - 1.5789311961178345e+001
      - -5.3661397719235673e+000
      - 2.4788907364337657e+001
      - -7.4229974259249181e+000
      - 2.6358324321222668e+001
      - -6.1847753244836987e+000
      - 2.5081733948061721e+001
      - -5.8875718244375328e+000
      - 2.5360862174756278e+001
      - -5.9926612859875350e+000
      - 2.2163861877933680e+001
      - -6.7006938216036618e+000
      - 1.4055627327316740e+001
      - -4.0042876191368926e+000
      - 1.3829037236918181e+001
      - -3.9533710885129176e+000
      - 1.4051453373240085e+001
      - -3.9844782675712191e+000
      - 2.2047784787960246e+001
      - -2.2889478212983194e+000
      - 1.3495957139071933e+001
      - -1.5610434931641741e+000
      - 2.2192380271909251e+001
      - -3.5886129191591181e+000
      - 1.2820443976097712e+001
      - -6.5159112359205873e-001
      - 2.4785934116408662e+001
      - -6.1150575555186659e+000
      - 1.3194826545341469e+001
      - -3.8325639622759394e-001
      - 2.7282436966412362e+001
      - -9.1618771760764321e+000
      - 1.3765753602021489e+001
      - -5.7273842612118508e-001
      - 2.8279493543205170e+001
      - -1.1802818326301317e+001
      - 1.3727017274110141e+001
      - -1.0929935950282501e+000
      - 2.2669322512942305e+001
      - -1.2978557989239293e+001
      - 1.3060016589722617e+001
      - -1.0773446383351075e+000
      - 1.9841215386302199e+001
      - -1.2953440010957854e+001
      - 1.2363150636546473e+001
      - -6.0979935077463610e-001
      - 1.6406053420112254e+001
      - -1.2144228505864364e+001
      - 1.1504327284512161e+001
      - -4.7382537146242210e-001
      - 1.3752413267718389e+001
      - -1.1307911396556726e+001
      - 1.0968476867195880e+001
      - -7.2655982497347915e-001
      - 1.2410871808341664e+001
      - -1.0885350019812853e+001
      - 1.1483777176813964e+001
      - -1.4958037809838214e+000
      - 2.4480643548447567e+001
      - -1.2093142639587514e+001
      - 1.4422497000352381e+001
      - -5.9617185480964707e+000
      - 2.8410215525452742e+001
      - -1.1353346717655899e+001
      - 1.5716382817072098e+001
      - -7.5984366041562206e+000
      - 2.6888350884300383e+001
      - -1.1955407398530179e+001
      - 1.5601486768282600e+001
      - -7.7744149438882237e+000
      - 2.4771074731912407e+001
      - -1.2224084313162287e+001
      - 1.5333532518795661e+001
      - -7.8295154828173175e+000
      - 2.2965265326860916e+001
      - -1.2445972359938391e+001
      - 1.4931406508071403e+001
      - -7.4595203220704143e+000
      - 2.1347396702051302e+001
      - -1.2509209373635887e+001
      - 1.4364236758920111e+001
      - -6.9935488943650119e+000
      - 2.7885129103182127e+001
      - -5.6662421836216605e+000
      - 1.2285395650451472e+001
      - -2.5344992122692402e+000
      - 2.9288585342735225e+001
      - -7.4862080019209625e+000
      - 1.2027162759494473e+001
      - -2.0976686825675945e+000
      - 3.2549106228039484e+001
      - -1.0390742176328953e+001
      - 1.2043471148598211e+001
      - -2.1230086742907690e+000
      - 3.4246490675523575e+001
      - -1.2817424734252509e+001
      - 1.2356990446034848e+001
      - -2.6949384710978288e+000
      - 3.3589339055918536e+001
      - -1.0583828095067798e+001
      - 1.2556501841692979e+001
      - -2.8875470704890356e+000
      - 2.9799045019451643e+001
      - -7.5150406580821807e+000
      - 1.2715178229593196e+001
      - -2.9098781776055254e+000
      - 2.2067377199668993e+001
      - -1.3512137683127600e+001
      - 1.1484291842466229e+001
      - -2.5717855331650314e+000
      - 1.9135249467015040e+001
      - -1.2784751532605158e+001
      - 1.0861921553304972e+001
      - -2.0067997637074098e+000
      - 1.6488449815080884e+001
      - -1.2056054790698802e+001
      - 1.0580234709691553e+001
      - -1.9701698769676210e+000
      - 1.4883123491138416e+001
      - -1.1642940485555000e+001
      - 1.0635740596244030e+001
      - -2.3388092411876373e+000
      - 1.6390124828073496e+001
      - -1.2012365793088291e+001
      - 1.1006436190238437e+001
      - -2.6447663348782147e+000
      - 1.8993803292007421e+001
      - -1.2729523844508067e+001
      - 1.1221576117908958e+001
      - -2.6817617664917601e+000
      - 2.1294736521101694e+001
      - -6.7624906025209839e+000
      - 1.6090106861184903e+001
      - -1.0728187551056841e+001
      - 2.5353700913027247e+001
      - -9.5725444764267067e+000
      - 1.5232940124173020e+001
      - -9.3876278053473001e+000
      - 2.6142134111602125e+001
      - -1.1602346461286135e+001
      - 1.4579613845401786e+001
      - -8.6350124201198639e+000
      - 2.4125852600886851e+001
      - -1.1847264468767275e+001
      - 1.4196103220228681e+001
      - -8.5880259777666375e+000
      - 2.1371964630342958e+001
      - -1.1509659061805413e+001
      - 1.3886294206685603e+001
      - -8.2585008298204912e+000
      - 1.6981292319395706e+001
      - -1.0267274357859051e+001
      - 1.3444298802870348e+001
      - -8.3576835431447414e+000
      - 1.4290343645567244e+001
      - -9.4879780628326831e+000
      - 1.3262065360273224e+001
      - -8.9411067494114267e+000
      - 1.5748752838667663e+001
      - -9.5571211348522151e+000
      - 1.8373114556615281e+001
      - -1.3461082353725383e+001
      - 1.8994745388617446e+001
      - -1.0291706118377531e+001
      - 1.8125663130801026e+001
      - -1.3765986829208853e+001
      - 2.1752459583466035e+001
      - -1.0670365246238321e+001
      - 1.8313895738125950e+001
      - -1.3981330985385780e+001
      - 2.3585071364495150e+001
      - -1.0355914826738104e+001
      - 1.8681103278923700e+001
      - -1.4145225123807670e+001
      - 2.3735025990885077e+001
      - -8.8759759482989189e+000
      - 2.0660839032536295e+001
      - -1.5055691502834565e+001
      - 2.1283364019272078e+001
      - -7.3503767029306610e+000
      - 1.6829854710762042e+001
      - -1.1221339053629645e+001
      - 2.5501738051011284e+001
      - -1.1307540204081297e+001
      - 1.4404664964532008e+001
      - -9.2380103360984194e+000
      - 2.3549802992729131e+001
      - -1.1560498600765346e+001
      - 1.4112595849090372e+001
      - -9.1341594763186222e+000
      - 2.0768225334080100e+001
      - -1.1181334839049532e+001
      - 1.3712378851019643e+001
      - -8.8245790252791476e+000
      - 1.4703064889756364e+001
      - -9.3451308527475820e+000
      - 1.4238221212914883e+001
      - -9.5735939043035767e+000
      - 2.0111917962056484e+001
      - -1.0844413332296201e+001
      - 1.8366332056409206e+001
      - -1.2725284841843973e+001
      - 2.3054232807495350e+001
      - -1.1319213899096432e+001
      - 1.8817264289968232e+001
      - -1.3135736264102270e+001
      - 2.5022059295523736e+001
      - -1.1073788433192119e+001
      - 1.8723288578855492e+001
      - -1.2933537435858021e+001
   output_scale:
      - 5.2631578947368418e-001
      - 4.9999999999999994e-001
      - 5.2631578947368418e-001
      - 4.9999999999999994e-001
      - 5.2631578947368418e-001
      - 4.9999999999999994e-001
      - 5.2631578947368418e-001
      - 4.9999999999999994e-001
      - 5.2631578947368418e-001
      - 4.9999999999999994e-001
      - 5.2631578947368418e-001
      - 4.9999999999999994e-001
      - 5.2631578947368418e-001
      - 4.9999999999999994e-001
   inv_output_scale:
      - 1.8999999999999999e+000
      - -9.4999999999999996e-001
      - 1.8999999999999999e+000
      - -9.4999999999999996e-001
      - 1.8999999999999999e+000
      - -9.4999999999999996e-001
      - 1.8999999999999999e+000
      - -9.4999999999999996e-001
      - 1.8999999999999999e+000
      - -9.4999999999999996e-001
      - 1.8999999999999999e+000
      - -9.4999999999999996e-001
      - 1.8999999999999999e+000
      - -9.4999999999999996e-001
   weights:
      -
         - -3.0077838641202486e-002
         - 1.9861593831147639e-001
         - 1.8389269589824855e-001
         - -3.3830814626058531e-001
         - 3.9850580069717798e-002
         - -3.9958553651998976e-003
         - 1.8919489341564197e-001
         - 1.9748173651237208e-001
         - 4.6048129884515468e-002
         - 3.4103525028154230e-001
         - 1.0342927432980388e-001
         - -8.1162522029584308e-002
         - -4.1450185866831767e-002
         - -5.6950308890298937e-002
         - -6.4488036956766984e-002
         - -1.0294736671044771e-001
         - -1.9330275679470968e-001
         - 2.0394395015714156e-001
         - 1.5628265169468705e-001
         - 1.5605706233489930e-001
         - -8.5993185599152103e-002
         - -1.4604527556057638e-002
         - 1.9301589590528193e-001
         - -5.2106005079822347e-002
         - -1.1862290386933072e-001
         - 2.7649750297016737e-003
         - 2.6935359560085453e-002
         - -3.8967664203092946e-003
         - 6.4156434499272635e-002
         - 4.7721489614715416e-002
         - -3.1568520875075567e-001
         - 2.0394888825938945e-001
         - 6.1632908301153699e-002
         - 8.0089532296710494e-002
         - -4.9201639109441531e-002
         - -2.9532906769318262e-001
         - 3.3388773785117294e-002
         - 9.4188247114787380e-003
         - -1.3147640966421245e-001
         - 9.7427835502985990e-002
         - -7.1081759616536316e-002
         - 1.1316747450140345e-002
         - 6.9430760408194972e-002
         - 1.2440914101806687e-001
         - -1.4202407747268761e-001
         - 2.0043346570425447e-001
         - -5.9473276681126222e-003
         - -9.0062679735584947e-002
         - -2.2284879184713825e-002
         - -5.6036905969518831e-002
         - -2.1088472233145825e-001
         - 1.5673616367317202e-002
         - 2.7778167016775474e-001
         - -2.3385595598264215e-002
         - 3.8931307919911166e-003
         - -1.6159788885170023e-001
         - 3.8258438819922130e-001
         - 1.2642531527925482e-001
         - 5.3727454590610972e-004
         - 2.5797763521430417e-001
         - 6.4496382945207695e-003
         - -1.3857341119192523e-001
         - -1.2806026368532433e-001
         - -8.9221975468131112e-002
         - 4.1662862641785522e-003
         - -1.3468162212944421e-001
         - -7.5959451450028470e-002
         - -2.8800529019275112e-001
         - 7.7139932342808318e-002
         - 1.3440651253272881e-001
         - 2.1151046144753341e-001
         - -5.2726232077245874e-002
         - 2.9225233183316154e-002
         - -7.1936713616901016e-002
         - -1.3416186261759983e-001
         - -2.8849004021809455e-002
         - 8.7015916245995389e-002
         - -1.4343064710204773e-001
         - 3.0333400679367052e-002
         - 8.8597412996357525e-002
         - -3.7781203649552353e-001
         - 8.7562896582705121e-002
         - 2.1452714253603955e-001
         - 2.0337353861110405e-001
         - -1.5192637305495577e-001
         - -1.2114853986043661e-001
         - 8.2356851668958189e-002
         - 7.8618231772381683e-002
         - -1.3570580039968866e-001
         - 3.3794525146290483e-001
         - -1.1658063985727010e-001
         - -2.1148093093894840e-001
         - 4.4385265003047354e-002
         - -2.8392647784041766e-002
         - -6.2006818129323668e-002
         - -7.1631443695060429e-002
         - -5.0823506887885436e-002
         - 1.6826040091663155e-001
         - -7.5190069398521922e-002
         - -2.3585539172902140e-001
         - 8.8851306267265381e-004
         - -1.4749230647099808e-002
         - 2.7428056656050365e-001
         - -5.5478102270569297e-002
         - 1.9182111254058223e-001
         - -6.7845308551481076e-002
         - 1.1746283068249667e-001
         - 1.9683723038861486e-001
         - 2.6137557881328266e-002
         - -2.4963621153765773e-002
         - 1.8240987760702351e-001
         - -7.9769001304252990e-002
         - 7.6374352477362378e-002
         - -3.5211760388805628e-002
         - 6.5442902266601530e-002
         - 1.2610492669813647e-001
         - -1.4130920018801743e-001
         - -2.6425426195050500e-001
         - 5.0651884352187967e-002
         - 1.0494833719743980e-003
         - 2.1840777689480267e-001
         - -1.6550107247919520e-002
         - 5.3267884441522842e-003
         - -1.2047503598357658e-001
         - -6.4961651258532080e-002
         - 1.4782735441571491e-002
         - 2.3601031589208676e-002
         - -9.6414585666759131e-002
         - 1.7827241203357877e-001
         - -3.6147327351365839e-002
         - -5.3648745725313383e-002
         - 2.9796573750832350e-001
         - 1.4862343361020711e-001
         - 1.8061757676189685e-001
         - -1.5577792580720212e-002
         - -5.6424089027964197e-002
         - -1.4311030484078083e-001
         - 9.1968588431094959e-003
         - 4.8317031126283515e-002
         - 2.6337664450672338e-001
         - -1.2164707712707699e-001
         - 1.1673240982552773e-002
         - 9.5266872891451554e-002
         - -1.4154105184799898e-001
         - -8.4260900369484859e-002
         - -1.5053047567378716e-001
         - -7.3084985297528215e-002
         - -8.2316118147106307e-002
         - 1.1483700971809471e-002
         - -7.9443691583709883e-002
         - -2.4329759289602026e-001
         - 1.7062372623663176e-002
         - 3.0415590499917311e-001
         - 3.0145643776578712e-001
         - -5.6257296992620304e-002
         - -2.5339186750608800e-002
         - 9.7479966622119274e-002
         - 1.4057684731705430e-001
         - 6.0833015236499886e-002
         - 1.7020212270137058e-001
         - 7.8752158995451640e-002
         - -1.6732644538192137e-001
         - 4.8960826730069108e-002
         - 8.4268120268904567e-002
         - 9.9684516936969905e-002
         - 9.4798495916085995e-002
         - -5.8215428284626128e-002
         - -2.0921899607071883e-002
         - -3.6165516598874542e-002
         - -7.3250526877324765e-002
         - 8.9420124013281199e-002
         - 1.6854065960561823e-001
         - -1.0390784552585197e-001
         - -1.8935348887948883e-001
         - -7.7515128506177255e-002
         - -4.4101377115127731e-002
         - 3.6839333204919722e-002
         - -1.0794759819347075e-001
         - 5.6969170857152675e-002
         - -4.7650678567411155e-002
         - 2.4879416279361860e-001
         - -7.2050974396847198e-003
         - 3.1897665685184221e-002
         - 2.3566845627336502e-001
         - -7.2717157240623026e-002
         - 8.2514052720920425e-002
         - -2.1599227295396553e-002
         - -6.1423870455154392e-002
         - 2.0741557887678186e-001
         - 2.8148393865047371e-002
         - 5.9850687840364306e-002
         - -1.6393657676359183e-001
         - -3.2746337588394556e-002
         - -1.2046406978304264e-001
         - -2.9332796318251180e-002
         - -1.1920546211097634e-001
         - -1.7739815560965419e-001
         - -2.9745353097163030e-001
         - -5.6265012699596904e-002
         - -4.9730829848854703e-003
         - -2.5952910809420363e-002
         - -7.6721855582416232e-002
         - 1.6676532207514375e-001
         - 1.0881365739942198e-001
         - -1.1721895111300881e-001
         - 2.3089553878678090e-001
         - -4.6047607115725270e-001
         - 1.4040740283369851e-001
         - -1.0759271796085150e-001
         - 2.1466324757241181e-001
         - 1.0653592100629991e-001
         - -9.6577629345488789e-002
         - 1.5286522804337474e-001
         - -1.0318695996409669e-001
         - -1.1136097732821530e-001
         - 3.9251632306029249e-001
         - 2.4803919359724816e-001
         - 5.3842397737562298e-001
         - -1.4858079005970634e-001
         - 7.5342961494967123e-002
         - 1.9878601426345927e-001
         - 2.2568391828415113e-001
         - -3.2139299297858059e-001
         - 2.2429941258590734e-002
         - 1.4975791410504258e-001
         - 2.7698897730778414e-002
         - 2.3124295764777678e-002
         - -6.3402598626819226e-002
         - -1.1148993200783266e-001
         - -2.3755349386012252e-002
         - 1.7108956495653735e-001
         - -1.6568218759612943e-001
         - -5.5745412567928636e-002
         - 3.4172013813685023e-002
         - -5.6357303182392654e-002
         - -3.7332705559685896e-002
         - 1.0568394012606692e-001
         - -2.0869465245232208e-001
         - 2.1926514861536481e-001
         - 1.9589427300428858e-001
         - 1.4813215475709114e-002
         - -4.2737630062952038e-002
         - -1.0908106427285963e-001
         - -3.4108673345068688e-002
         - 1.8274293090547941e-001
         - -1.9992146174680309e-001
         - -2.1669507348695158e-001
         - -3.3377115026324933e-001
         - -7.4225549015032283e-002
         - 3.4575181491055103e-002
         - -7.5676164644577396e-002
         - 3.7348603714242215e-002
         - 2.9349962041335342e-002
         - 1.3010832075475882e-002
         - -3.1746473997114333e-001
         - 1.1891744679906951e-001
         - -5.6922323469363822e-001
         - 7.6582644006410835e-002
         - -7.0995184135168782e-002
         - -1.5795182269739003e-002
         - -1.3013329491983106e-001
         - 7.7229166648162040e-002
         - 1.6663911343563878e-001
         - -1.2803674567208870e-001
         - -3.0521046935270596e-001
         - 2.9912449911661970e-001
         - 3.0715586298495573e-001
         - 3.4257334217895025e-001
         - -1.7587688541764332e-001
         - 1.6341101798529645e-001
         - 1.0400733970747650e-001
         - 3.7984737236212840e-001
         - -8.6493028491915230e-002
         - 1.1930418216083620e-001
         - 2.1719301472101968e-001
         - 1.9491009765643483e-002
         - -5.0633009435445901e-002
         - -1.0341676810086321e-001
         - -1.2542367284036937e-001
         - -7.3774355023380478e-002
         - 4.4693186523393857e-001
         - -1.8162261522634510e-001
         - -1.7495770766109465e-002
         - -1.6745669402207019e-002
         - -1.0291906198795664e-001
         - 6.1339009653053986e-002
         - 3.1329563375919461e-001
         - -1.7684300007559131e-001
         - 1.4213438079432383e-001
         - 1.4464785195042579e-001
         - -2.6493310587517995e-002
         - -6.7994475195229429e-002
         - -9.4806106387286232e-002
         - -2.5561684502516263e-001
         - 3.0167691146317160e-001
         - -1.1456994408699682e-001
         - -1.4028244914682439e-001
         - -1.2398168191905820e-001
         - -1.3848169330685989e-001
         - 6.7433591764457942e-002
         - -1.9182169841013794e-001
         - 2.4471678571841207e-001
         - -1.1102537994993254e-002
         - 2.7787987286563942e-001
         - -6.2226229600209362e-002
         - -1.2291119972395192e-001
         - -2.7682871018064675e-001
         - -1.9490121835840059e-002
         - 1.1411145864662280e-001
         - -4.9427089685727857e-002
         - -6.0717848137783387e-002
         - 6.2024771383609262e-002
         - 9.4733469525027703e-002
         - -8.2628433273540126e-003
         - 1.0298074525990850e-001
         - 2.2117433048250304e-001
         - -1.0364452141738406e-001
         - 1.2938877604662740e-003
         - -2.1484544374674883e-001
         - -1.8179846464978244e-001
         - 2.6802239918984855e-001
         - 5.1585341995704415e-002
         - 7.3391415760893058e-002
         - 7.8546785007859419e-005
         - 9.6067866282380024e-002
         - -1.3716185562922517e-001
         - -3.0766686070848731e-003
         - 1.0344166838025123e-001
         - 4.6097100350356170e-002
         - 7.4920571405651462e-002
         - 1.6193809148161842e-001
         - -4.5899906324091425e-002
         - 7.2207449661009698e-002
         - -8.6093265178573269e-002
         - -2.6687667751512276e-004
         - 1.0803067917364540e-002
         - 2.5318224252191223e-002
         - -1.9181883866707253e-001
         - 9.5932333613480927e-002
         - 4.4734741558360635e-003
         - -1.4486583036414230e-001
         - -1.4893966237256723e-001
         - -1.0341086265003989e-001
         - -2.8871968415736382e-001
         - 1.0883138532986692e-002
         - -1.8669357733198601e-003
         - -1.2291836240229689e-001
         - -2.0274275557708152e-001
         - -5.6501888194299889e-002
         - 2.0525646872782050e-002
         - -1.1698129718480106e-001
         - 1.3831775778572763e-002
         - -7.7445383841742724e-002
         - -2.8705238629446222e-002
         - 6.9856551485907498e-002
         - -3.5577049225045793e-003
         - -1.8477583716864032e-001
         - 4.9304544615979988e-002
         - 7.0238281117741150e-002
         - -1.5862606946028776e-001
         - -5.0692086319392274e-002
         - 3.6795937853270309e-003
         - 1.2956090490314107e-001
         - -7.9816471041187192e-002
         - 1.1076279303541495e-001
         - 1.7662495949361315e-001
         - -3.4393701520139802e-001
         - 1.6820053822395661e-001
         - -1.6683313909039316e-001
         - -6.1592676360434861e-002
         - 2.6551524692328154e-001
         - -1.6268296783210498e-001
         - -1.2641672839183779e-001
         - 8.0933051209159695e-002
         - 8.9086277871153571e-002
         - -2.6414513813511592e-002
         - 1.5759940027471592e-001
         - 1.0752980609661379e-001
         - 1.3072091825986865e-001
         - -1.9885252567845228e-002
         - -1.1545454158396017e-001
         - 1.1089076899603502e-001
         - 1.9077232297067750e-001
         - -1.0971091567670600e-001
         - 1.8340290323405832e-002
         - -1.3812201703467969e-001
         - -1.0463685858900318e-001
         - -1.0155273388876054e-001
         - 6.7191520998375496e-003
         - 2.1405593263762276e-001
         - -1.6890341882239301e-001
         - 7.9523962457802536e-002
         - 2.7957414362097276e-002
         - -2.5106609910584510e-001
         - -8.3444769448857439e-002
         - 8.2213213138057475e-002
         - 1.8492201294550072e-002
         - -1.0599746753638523e-001
         - -1.4529830335510721e-001
         - -1.3560571054307266e-001
         - 1.7145816112820653e-002
         - -7.1793953181615716e-002
         - -1.2036548075922467e-002
         - 9.7794004799619735e-002
         - 1.8009603646775044e-001
         - 5.0419155495855732e-002
         - 9.3139718529656038e-002
         - 2.4726981940459167e-001
         - 1.3414032173408053e-001
         - -2.6255330383669456e-001
         - 6.9191702601527127e-002
         - -7.7144446210837464e-002
         - 2.8542729521565939e-002
         - 1.9262166475652334e-002
         - 1.7892007659963717e-002
         - 3.9726998505055539e-001
         - -7.1269882033331913e-003
         - 5.8067255585194121e-002
         - -1.2192046641922270e-001
         - -2.6706699417331788e-002
         - 1.4548361674398580e-001
         - -1.6937449823573161e-001
         - -7.5948180823369196e-002
         - -9.5501284780214010e-002
         - -4.6378599214090405e-002
         - -5.9755624356179968e-002
         - 6.0424577275455464e-002
         - 1.0900263288932449e-001
         - -1.4795193537011739e-002
         - -1.4538887261252906e-001
         - -6.6661383179654352e-002
         - 1.7375010173128136e-001
         - -1.9093025038258292e-002
         - -1.1922479471903975e-001
         - -5.1673313352694761e-002
         - -1.0654440129883873e-001
         - 2.7006319608677925e-002
         - -4.9039808082787198e-002
         - 1.1255252972764671e-001
         - -1.2065276111491970e-001
         - -4.7446252706969241e-002
         - -1.6063868020272831e-001
         - -9.2877939732489909e-003
         - -6.6174163941552216e-003
         - -1.8930888783513397e-001
         - 1.9611612157208386e-001
         - -8.6493609186108864e-002
         - -1.1623967080188791e-001
         - -2.9729092703649129e-001
         - 5.7203306860820327e-002
         - -7.8844021364521899e-002
         - 1.0775235510994302e-001
         - 9.4821654596291188e-002
         - 1.8448239767241542e-001
         - 6.3452437146769292e-002
         - -1.2024024380744779e-002
         - 6.7150016285617620e-002
         - 6.6117732042106081e-002
         - -1.3055350774887796e-004
         - 1.0167207750590580e-001
         - -6.7858623940891594e-002
         - 1.9040770902460820e-002
         - -2.4131970459162825e-002
         - 1.9445363935785547e-002
         - 1.4995109291991866e-002
         - 6.3818575579557946e-002
         - 2.9209524159382122e-001
         - 1.0425513324268919e-001
         - -3.7279686895061578e-003
         - -9.1976193616495699e-002
         - 1.8915556693136798e-001
         - 3.1532653969262164e-002
         - -8.1057111383906297e-002
         - -2.4059107348083177e-002
         - 1.2533537184925947e-001
         - 7.3819307563349590e-002
         - -4.4738600275162485e-003
         - 1.4642113900218101e-001
         - -6.8562005668039439e-002
         - -1.7193893340799590e-001
         - -1.9275393544016103e-001
         - 1.8910740623927499e-001
         - -1.5106984897275669e-002
         - -1.2360739906993248e-001
         - -2.5797379984405382e-002
         - -6.6523188372069997e-002
         - 3.4695351424850425e-002
         - 1.6765031577153370e-002
         - -7.2926553742411235e-002
         - -2.1777230531182117e-002
         - -8.9074789295974607e-002
         - -1.7536267751758833e-001
         - -5.7262610026739227e-002
         - -5.6212393178929974e-002
         - -1.8368702726578615e-001
         - 1.3678628282808514e-001
         - -1.0940790077912090e-001
         - -9.0063302915442730e-003
         - -1.1852787821569397e-001
         - -1.5371747861192844e-002
         - 1.0225965151715486e-002
         - -5.8767528275563993e-004
         - -3.1280786148937447e-003
         - 1.0533110772923583e-002
         - 9.3645401692848268e-003
         - 9.3858041371899445e-005
         - 8.7311049358950489e-003
         - -5.2919108205661891e-003
         - 3.6868275150356454e-003
         - -1.1822266908440375e-002
         - -1.0842818911204258e-002
         - 9.7705907801259803e-003
         - 7.3156336513325575e-003
         - 1.2001758905719410e-002
         - -9.6851319291213697e-003
         - -3.1172676675398465e-004
         - 3.6873488744296671e-003
         - 4.2931791126064054e-003
         - 1.0868332266994822e-002
         - -3.1258930057498287e-004
         - -1.2125247861264739e-002
         - 1.0957328596463600e-002
         - -6.3372575873747979e-003
         - -1.0514412602494560e-002
         - -8.3006902044267597e-003
         - 2.0266681074543472e-003
         - -8.3218678406682556e-003
         - -8.7246868066080951e-003
         - -9.2409151551724287e-004
         - 5.5965687868870352e-003
         - 6.8918766264186651e-003
         - -7.1991588748610783e-004
         - -2.9189754916125882e-003
         - 5.6967336457774955e-003
         - -2.5838700042167375e-003
         - -9.3749115243645410e-003
         - 9.6403622501769516e-003
         - -1.2411837199927749e-003
         - 1.1165882995634847e-002
         - -9.3791431486824131e-003
         - 4.3005765253668693e-003
         - 1.4710594674434002e-003
         - 8.1387505367775306e-003
         - -9.1809379646237040e-003
         - -4.4691670493897185e-003
         - 7.1435584899666137e-003
         - 8.4320892553963888e-004
         - -4.0240314626053281e-003
         - -1.2892591853744240e-002
         - -6.3401661375695481e-003
         - 1.1504620274835646e-001
         - -4.7694152317060806e-001
         - 2.2132323915902488e-001
         - -1.7656638995910043e-001
         - -1.8918334165980685e-001
         - 2.2341721863488975e-001
         - 6.6383792639154324e-002
         - 1.5896364144024633e-001
         - -1.1454447801067207e-001
         - 2.9160917036597689e-001
         - 1.1771840556566383e-001
         - 2.6609578670714301e-001
         - -1.8237308547321951e-001
         - 3.8343644934764715e-001
         - -1.4627351411598483e-001
         - 1.4190210088160204e-001
         - -2.4560521668068203e-001
         - -2.8767921766999938e-001
         - -1.3895275486160574e-001
         - -9.0162012895006680e-002
         - 2.9602339108680632e-002
         - -1.6648869571784636e-001
         - -2.6238293192193018e-001
         - -1.6682486351816386e-001
         - -4.5549467849329256e-002
         - -3.5132526627954846e-001
         - 3.4526537400084029e-001
         - 5.0345331990611246e-002
         - 1.4443515791389547e-001
         - -9.4769732354763755e-002
         - 6.8626104822977083e-002
         - 2.0274484948047333e-001
         - 7.6402032064355710e-002
         - 2.3547799985016146e-001
         - -1.2793941833605646e-001
         - 5.8293248437640346e-002
         - 9.2397167225666613e-002
         - 8.9405787441625528e-002
         - -3.0914644255314677e-001
         - -5.3812538594043412e-002
         - 1.8236685828727056e-001
         - 4.0501236890842740e-001
         - -3.6017766245348637e-002
         - 1.9300658715266154e-002
         - -1.6642172362097307e-001
         - 2.1230642317189252e-002
         - 2.1085737649815123e-001
         - 1.3886563720425302e-002
         - 1.8188460754643368e-001
         - -1.1903394434889986e-001
         - -5.3333309039863247e-002
         - -4.0519642094893650e-002
         - 7.1035534859701571e-002
         - -2.5770397616631685e-001
         - -4.6524730858430709e-002
         - 1.6504493053908736e-001
         - 1.9624925949398733e-001
         - 1.6993143020732621e-001
         - -3.0455631119730216e-002
         - 3.3913592731204678e-001
         - 9.8526971473127098e-002
         - 1.0080753748211954e-002
         - -1.0951742286764006e-001
         - -2.3551411376156552e-002
         - -1.3586165098003888e-001
         - -7.0114133836517462e-002
         - -1.0368138686209187e-001
         - -1.0165091506953054e-001
         - -3.1984915640606917e-002
         - 1.8837495025244003e-001
         - 7.7471938393712539e-002
         - 8.7106638324833480e-002
         - 2.6990551473580016e-001
         - -1.3288057946775306e-001
         - 2.3509750094095554e-002
         - -2.4891518801200010e-001
         - 1.0259271839089507e-001
         - 9.5802095924655828e-002
         - 1.5170439350741866e-001
         - -2.1878491221426616e-001
         - -4.1463290620043947e-002
         - 2.8287788933139385e-001
         - -1.3685686425755247e-001
         - -4.7336529291545928e-002
         - -2.3520302674410321e-001
         - -6.0412521348065719e-002
         - 7.8438994319003294e-002
         - -5.9447924919205552e-004
         - -1.3011289462467077e-001
         - 1.3696943249570315e-001
         - -7.2091889709100854e-002
         - 5.0641766847262591e-002
         - 2.7236609335722039e-002
         - -1.6727995206870572e-001
         - 8.3058586070449511e-002
         - -1.5113715347512185e-001
         - -3.4341185513822918e-002
         - -3.1375545049559438e-002
         - 1.0758266735196299e-001
         - -1.5944096840026167e-001
         - 1.1149505605454804e-001
         - 4.6195241532040193e-001
         - -2.6146411757685201e-002
         - 1.0577146299754966e-001
         - -3.1031236888817154e-001
         - -5.9245154343386217e-002
         - 4.4607597557675172e-001
         - 1.2994764472451342e-001
         - 2.6364584469760369e-002
         - 2.4740429945820475e-001
         - 9.1758425745338667e-004
         - -3.1362551061718275e-001
         - -2.0238775470060474e-002
         - -1.4672375594122344e-001
         - -1.2165627105804673e-001
         - 3.6093858200119505e-001
         - -6.2848291072594742e-001
         - 2.4124220977097874e-001
         - -4.2472864797834263e-002
         - 1.8466400024396004e-001
         - 2.1461533312418296e-001
         - 8.9481242618973583e-002
         - -3.7108387512687288e-002
         - -6.9312857582739598e-002
         - -1.5786913064582474e-002
         - -1.9888735512156991e-001
         - -5.7699105122699157e-002
         - 1.0905660400775571e-001
         - 3.3697091438969651e-002
         - -8.2243152478431211e-002
         - 1.6042548302679246e-001
         - 2.0645774738195991e-001
         - -8.4657264739849691e-002
         - 9.8896612462017336e-003
         - -3.6803758854833857e-001
         - -5.7491559129506202e-002
         - -1.1138357523026482e-001
         - -2.3582132799040564e-001
         - 1.2372352829656853e-001
         - -1.6071623429797319e-001
         - -2.2248827982246930e-001
         - -2.0048923821301501e-001
         - 3.8109645854340096e-002
         - -1.8668801504018659e-001
         - 1.3020711886004319e-001
         - -4.1618429174507254e-001
         - -1.4630555713863677e-001
         - -1.2953291588787400e-001
         - 1.8175553358555030e-002
         - -1.4142576518154512e-001
         - 1.0363284740181260e-001
         - -1.5545205704069415e-001
         - 1.5313346238470035e-001
         - 1.3211614196368978e-002
         - -1.5422103846411215e-002
         - 2.8848745064207587e-001
         - -2.2732094241005510e-001
         - 1.5045199307865714e-001
         - -2.0744874993880527e-001
         - 1.6518572557275393e-001
         - 6.4971717725981426e-002
         - -6.0393401097002017e-002
         - -1.9351509708338654e-001
         - -1.7559441381365176e-001
         - 3.4229561382247159e-001
         - -4.6992737823623773e-002
         - 4.3106567117726302e-001
         - -2.5316091983915535e-002
         - 3.2490857069267741e-003
         - 1.0296066071912710e-002
         - 1.7082093286832786e-001
         - 2.1789417150141269e-001
         - 6.9529961855550626e-001
         - -1.0707931185636625e-001
         - 1.1348661889540794e-001
         - -1.0946497349929865e-001
         - -2.4969290714607559e-001
         - -1.1816378730331531e-001
         - -2.1504920584469078e-001
         - -1.2349304357858394e-001
         - -2.1743720871495575e-002
         - -2.6557962134752638e-001
         - -2.7912382847986461e-001
         - -1.5069371553608031e-002
         - -3.2779440581200059e-001
         - -1.5875762570651920e-002
         - 5.2258153295890938e-002
         - 1.5666155037415024e-002
         - 1.5136940666568446e-001
         - -8.7928285372225246e-002
         - 7.1846933660146186e-003
         - 3.9498498405748879e-002
         - -1.5645350794977372e-001
         - -3.6437511883671553e-001
         - 1.1497749340359878e-001
         - -4.8209703367423674e-002
         - -3.1947286195391550e-001
         - 2.1199444538691523e-002
         - 6.8310746783435711e-002
         - -1.0545432254536023e-002
         - 1.3233748708596391e-001
         - -7.8524921464234912e-002
         - -2.3728804679214278e-002
         - 6.1328272634422913e-002
         - -2.8658258608424126e-002
         - 4.4477845957035474e-002
         - 2.4432850585565122e-001
         - -1.3778263021592896e-001
         - 1.0058979914678172e-001
         - -7.5005676135391469e-002
         - 3.3735979441673258e-001
         - 3.3185756239248965e-002
         - -6.1652113488454466e-002
         - 1.1639981227347429e-001
         - 2.5431470614016055e-001
         - 3.5382532598200817e-001
         - -3.2092633964332762e-001
         - -2.1193506589975600e-001
         - 1.4268842736832263e-001
         - -2.1832564664258025e-001
         - 3.1868535218950350e-001
         - -4.6648164927279356e-002
         - -9.4334738377982688e-002
         - -7.3128388159994645e-002
         - 5.1017604190200426e-002
         - -4.8337779802591113e-001
         - -3.0901242129514495e-001
         - -1.0650824718464569e-001
         - -3.3380951634012229e-001
         - 5.1456297528874879e-002
         - 1.4394167452393114e-001
         - -1.2238980039343067e-001
         - -2.1141143347987076e-001
         - 1.8524576379460780e-001
         - 2.7258702534306695e-002
         - -8.6877722027501922e-002
         - -2.3799839207401011e-001
         - 2.5502154062468807e-001
         - 7.9230013451118575e-002
         - -1.1191170757952994e-001
         - 1.6966749645393778e-001
         - -1.1918300680366534e-002
         - -2.3990471598105279e-001
         - 1.5753981081831167e-001
         - 4.0921039278694188e-001
         - -2.9603716676470732e-001
         - 6.6335458888934981e-002
         - 2.5760680338959380e-001
         - 1.7165105172180870e-001
         - 1.6348918194160669e-001
         - 1.7132169859421945e-001
         - 6.3250761642911196e-003
         - 3.0662743558203215e-001
         - -4.8383915832741681e-002
         - 1.9361754809311259e-002
         - 1.2813308938247944e-001
         - 3.2060776041073974e-001
         - 1.0114697726698370e-001
         - 4.1227069363750077e-002
         - 1.3091965327906849e-001
         - 9.2610791789963870e-002
         - 5.4895940745748467e-002
         - -1.1319499922943135e-001
         - -4.5844688207861278e-002
         - -1.1222268430776328e-001
         - 2.4937941977394260e-001
         - 8.7681853420675492e-003
         - 1.0669176281999487e-001
         - 8.4950172773987972e-003
         - -5.4770609592669696e-002
         - -1.6630694914583254e-002
         - -2.0473053500743303e-003
         - 2.4844687701958040e-001
         - 6.2485407681909383e-002
         - 5.4752402443981600e-002
         - -5.2354342458966710e-002
         - -2.6194276813296186e-002
         - 1.3128419521139467e-001
         - 6.7954892812534723e-002
         - 2.0941291338746001e-001
         - -5.8135878188995252e-002
         - 5.3741499827340673e-002
         - 3.1223353924957807e-002
         - -8.3091594399914120e-002
         - 1.1061862284888074e-001
         - -3.1088440784870675e-001
         - -6.4886608976466101e-002
         - -1.1374063468025436e-001
         - -1.7604051813858171e-001
         - 9.1242010891697908e-002
         - -2.1892336081210237e-001
         - 3.5693605208528228e-001
         - -3.7723663684245533e-002
         - -5.4220875948898024e-002
         - -1.2628738097685946e-001
         - 4.4879954646199392e-002
         - -9.9709563554105554e-002
         - -1.4099019433625246e-001
         - 1.2701467290816207e-001
         - -5.9394265123629240e-003
         - -5.5302217851109871e-002
         - -5.9046260987372631e-002
         - 1.6838142965085245e-002
         - 3.1133357842007853e-002
         - -3.6817924013001400e-002
         - 2.9105012948440308e-002
         - 1.7514630432672748e-001
         - -4.9529496848099423e-002
         - -1.7176180625974272e-001
         - 2.4224296096323061e-001
         - -1.0055715145807974e-001
         - 4.6245819340560240e-002
         - -2.6804817545912987e-002
         - -5.4045173159589698e-002
         - -1.5072600133576916e-001
         - 2.3660140896135209e-001
         - -2.0898038395246864e-002
         - -2.2270008784840437e-002
         - -2.1019946961665643e-004
         - -8.3655822362364338e-002
         - -1.2276005137040565e-001
         - -1.9005856280228584e-001
         - 3.3106523676631028e-002
         - 1.1950985037787210e-001
         - 4.3152242657933923e-002
         - -1.4792224120783903e-001
         - -1.5833362003822288e-001
         - -1.6307237722797197e-001
         - -3.8852904640783933e-002
         - 1.2108855785934923e-001
         - 1.3668857599201192e-001
         - -1.2548696325750353e-001
         - 6.9157665127153753e-002
         - 1.2480456239068025e-001
         - 1.0591345359112171e-002
         - -2.5803929155280197e-001
         - 1.3532335526980033e-001
         - 5.6349532463871463e-002
         - 1.0845010472119214e-002
         - -3.8805276193890605e-002
         - 7.6583802064224280e-003
         - -1.1566039661721648e-001
         - -6.6363755801769161e-002
         - 5.0686400062328225e-002
         - -3.5474445094859308e-001
         - -1.0185922820295999e-001
         - 2.9038293588630616e-002
         - 1.0535859660695189e-002
         - 9.1854962263825210e-002
         - -1.7277269327801343e-002
         - -2.6641416021925921e-002
         - -1.7206153900668633e-001
         - 5.1552996750677399e-002
         - -1.5405048999134197e-001
         - -6.5652172424051067e-002
         - 8.1800953602404955e-002
         - -6.1801395008737506e-002
         - 6.3042095991285518e-002
         - 2.1438372171931230e-002
         - 4.2916697336376521e-002
         - -7.0017579371330768e-002
         - 8.8008872599196014e-002
         - -6.0050141259603368e-002
         - 5.7191874354218563e-003
         - -7.6200335968215779e-002
         - 3.0386108945644619e-001
         - 1.9760148725454152e-001
         - -2.5981256906012340e-001
         - 3.4927761460673036e-002
         - -3.9943450783896378e-001
         - -1.5503079342772695e-002
         - -8.7797037698051483e-003
         - 1.0716601679979686e-001
         - 5.9585129393429588e-002
         - 1.1139235951521144e-001
         - 4.0626321752538748e-003
         - 1.5524847990359273e-002
         - 1.0996525458724223e-001
         - 7.6795164733919841e-002
         - 1.1060465519442203e-001
         - 9.4306326486659417e-002
         - -1.9523506733854092e-002
         - -7.9287782830636290e-003
         - 4.9511316200818674e-002
         - -3.6384243198335331e-002
         - -3.2337863111040061e-002
         - -2.6681872167909986e-003
         - -1.1440805942166520e-001
         - -2.6440108351583663e-001
         - 4.2067579992909510e-001
         - 2.4701865287140745e-002
         - 1.8558136456414637e-001
         - 1.3399311607607657e-002
         - -3.7771416259911681e-003
         - -3.7479666557339913e-001
         - 2.6530327474939192e-002
         - 9.2346696444895168e-002
         - 2.8070413775859737e-001
         - 2.1080779144258655e-002
         - -7.1087081285333194e-003
         - -1.6290692118556022e-001
         - 3.2830455828415317e-002
         - -1.3030399616565150e-001
         - -3.1110740198824499e-001
         - -8.0578506391038918e-002
         - 4.2883647443175292e-002
         - 1.1278588488488431e-001
         - 4.7989039724532181e-002
         - -1.1725915463925009e-001
         - -2.3724660537001403e-002
         - 7.8076631569079782e-003
         - -1.3438196799430516e-002
         - -3.8314727524398899e-002
         - -1.2842578219854403e-001
         - -1.4890100717929913e-001
         - 3.5799055360563509e-001
         - 2.1336980415601736e-001
         - 5.1193637454667672e-002
         - 7.3803499503876879e-002
         - -2.3160554386370030e-001
         - -1.4748981013249882e-001
         - -8.6487262836144524e-002
         - 4.4814883704506125e-001
         - -4.4024872450592986e-002
         - 2.1361237496838804e-002
         - -5.7854648193069833e-002
         - 2.5991816694452657e-001
         - -9.5022039930139607e-002
         - 4.4395430937016450e-002
         - 2.4831532677353854e-001
         - -1.6978973951330428e-001
         - 1.2914889300333304e-001
         - -4.3634009345150965e-002
         - -2.6388285531529926e-001
         - 1.1387072834688303e-002
         - -1.1260834363292898e-002
         - 1.8547316432233583e-002
         - 4.1261771983795478e-002
         - -1.2592385500179479e-001
         - 3.9680863188012566e-001
         - -7.8501994726247696e-003
         - 7.9386806965976928e-002
         - 3.5135002720732937e-002
         - 1.1273977591624346e-001
         - 5.7057564414807437e-002
         - -7.2818015040558626e-002
         - 3.7117494111619481e-001
         - -1.1127966605392148e-001
         - -2.6497686420493532e-002
         - -3.8894982129650472e-002
         - 1.3294369220119709e-001
         - 4.3707143046658459e-002
         - -1.1304537001113689e-002
         - -2.1534782101732494e-001
         - 1.6906089238593919e-001
         - 1.2211975509878172e-001
         - 6.7707650504281375e-002
         - 8.9954622265174353e-002
         - 1.4469144362523643e-002
         - 8.2788671218461202e-002
         - 1.4141081135756997e-001
         - 1.1160870514838861e-001
         - -7.3824122021368718e-002
         - -6.2658101362723234e-002
         - 5.6561251741535028e-002
         - 8.8385801504296355e-002
         - 4.0728771964417348e-001
         - 5.2299228596402736e-002
         - 1.5085069880676100e-001
         - -2.9310310747097251e-001
         - 2.3737775401880701e-002
         - 1.7444800790586679e-001
         - 5.2026199168858767e-001
         - -1.5025114739901310e-001
         - 6.2089431830395767e-002
         - 1.9387262347569320e-001
         - 2.4339708490879586e-001
         - 6.5372474469289985e-003
         - 9.3010555247067028e-002
         - 1.3770564047690845e-001
         - -1.6130002307738292e-001
         - 7.1235603001636116e-002
         - -1.7524199031282586e-001
         - -1.8313285756854719e-001
         - 9.4777833384920740e-002
         - -5.6865208292956361e-002
         - -4.2575039921660195e-002
         - -1.5547023420078862e-001
         - -9.6898206015964050e-002
         - 2.3599069517857954e-001
         - -3.1677655098102317e-002
         - 2.9340390498374697e-001
         - 8.6561045622708360e-002
         - -1.0432026249096863e-002
         - -2.7093307563816900e-002
         - 1.5014143047145570e-001
         - 2.2741315717406016e-001
         - 3.2161290754288079e-002
         - 5.7139126590730602e-002
         - 7.7288790331848767e-002
         - -7.5090236032106114e-002
         - -2.5752368689682566e-002
         - 7.5071111042602320e-002
         - 1.5680309279799812e-002
         - -7.1787693471398351e-002
         - 4.0413358224176653e-002
         - 4.1888135319898306e-001
         - 6.4735828638817022e-002
         - -1.1868546991935894e-001
         - 2.7089135116456753e-001
         - -4.9303771968185937e-002
         - 1.4173848398645569e-001
         - 4.2871753272773878e-002
         - -3.3640910199162169e-002
         - -4.8795421464701623e-002
         - -1.4199120363285958e-001
         - 1.8265905498265367e-001
         - 1.6236264398914482e-001
         - 5.9879589114620387e-002
         - -5.6316312992251746e-002
         - -3.0980245640820549e-003
         - 1.7617580291069187e-002
         - 1.1206834964083728e-001
         - -7.3695167930133490e-002
         - -5.1129994335345659e-002
         - 1.8238810035808743e-002
         - -1.3360032686306855e-001
         - -1.2653130277870198e-001
         - 1.5125062688030631e-002
         - 1.6939304193258703e-001
         - 5.8205042231189719e-002
         - -1.3082966452886222e-001
         - -2.7870677398479506e-002
         - 5.5324370219929760e-002
         - 6.3417026247877192e-002
         - -3.0575343962194923e-001
         - 1.2108274366041664e-001
         - -2.1888176366972528e-002
         - -7.5175625059227284e-003
         - -1.2368487235401252e-002
         - 8.4146034902405811e-002
         - 2.8852314862303635e-001
         - 4.7559606929647939e-002
         - -8.9277436308075428e-002
         - -1.4584209513034543e-001
         - -1.4903714969716698e-002
         - 3.3111145992135566e-001
         - 8.5322898849204565e-003
         - -7.3102797178470194e-002
         - -6.3181286210859500e-002
         - -3.8238659087030037e-002
         - 2.6907032790861745e-002
         - -8.5216698886862619e-002
         - 1.4886626605508824e-001
         - 2.2742502371553768e-002
         - 1.1164846633878588e-001
         - -1.3182962821784724e-001
         - 7.8515249965227588e-002
         - -1.3001412767788573e-002
         - -1.1348849975418983e-001
         - 6.6045787497213140e-002
         - -7.0622633527486961e-002
         - -2.6277076501685015e-003
         - -1.1912135301279896e-001
         - -8.5349273561007494e-002
         - 1.5483490089217100e-001
         - 2.9515287426165560e-001
         - 9.6979843131286603e-002
         - 7.5954762105676629e-002
         - -1.1426313204840031e-001
         - -1.1769464006470333e-002
         - 6.7117744283658340e-002
         - 2.6935002454521362e-001
         - -1.0019264856487924e-001
         - 6.0734416778386723e-002
         - 9.0920415481442182e-002
         - -1.7830145309542236e-001
         - 1.1427868881463724e-001
         - -1.0916192227342465e-001
         - 7.1066647821480585e-003
         - 3.5840048096107986e-003
         - 8.8841197811761849e-002
         - -2.2755919667694829e-001
         - -3.5348706269862357e-001
         - -5.0027823785477515e-002
         - 5.0566671837121185e-002
         - 1.9520713539109627e-002
         - 9.3204176890894830e-002
         - 2.5146175698094308e-002
         - 1.2499790251613643e-001
         - 5.8370967215819747e-002
         - -1.8410190657540425e-002
         - 4.4656233710686187e-002
         - 4.2630380915994803e-002
         - 2.0253405243712935e-001
         - 8.1292770251109855e-002
         - 3.4199095117190159e-001
         - -2.0802638268685658e-001
         - -1.0606328191993621e-001
         - 1.9506625251336718e-002
         - 1.0754702399440931e-001
         - -1.5989226082440502e-001
         - -1.7131181582232999e-001
         - -5.8108027399860950e-002
         - 2.7238236169106922e-001
         - 2.2243230301602829e-001
         - -4.1855571518959822e-001
         - 5.7038391837024499e-002
         - 1.2391062728098300e-001
         - -8.3414704327373062e-003
         - 1.1553160682973879e-001
         - -3.1717077891736771e-002
         - -1.7848039047940668e-002
         - -6.8525662155799472e-003
         - -1.0839098338114111e-001
         - 1.9967238107994056e-001
         - 1.6848252802403452e-001
         - 1.7959220092009262e-001
         - 3.4518159335441924e-002
         - -1.5353934538411257e-001
         - -1.4514934616042863e-001
         - 3.7323284372133364e-002
         - -9.4826158343157718e-002
         - -9.6197290713210634e-002
         - 1.3032313735587658e-001
         - 7.2142157057807188e-002
         - -9.1566629063708244e-002
         - 1.0378217841966905e-001
         - -6.2279116897396118e-002
         - -1.8014390375724165e-001
         - 2.9669855606114170e-001
         - 1.4628069040076558e-001
         - -1.5739083830720846e-001
         - -2.0779431567123935e-001
         - -5.6270371220620091e-002
         - 6.3126609569158193e-002
         - -8.4323117693085467e-002
         - 1.8884197798735274e-002
         - -1.0719003272698575e-002
         - 2.2573796304637903e-001
         - -2.7018751690656051e-003
         - -2.0355181546750516e-002
         - -9.2723601472549308e-002
         - 2.3479279058326592e-002
         - -6.7839817434111938e-002
         - 2.0066049686485493e-001
         - 4.9479685190175635e-002
         - 5.5918246115353967e-002
         - -1.8613041569376799e-002
         - 1.9281133869676625e-001
         - 1.3909212200980017e-001
         - -2.5399205104674039e-001
         - -1.6036921745501803e-001
         - -8.4640742308348914e-003
         - 2.3091594539252433e-001
         - 1.8663714564220757e-001
         - -4.8381549123054302e-001
         - -7.5293516929395607e-002
         - -1.0023057654244072e-001
         - 1.1182476902950496e-001
         - 4.9894320405290057e-002
         - -5.5400419840017076e-002
         - -5.5406418597771866e-002
         - -5.1092716994926967e-003
         - -1.2604084775099333e-001
         - 1.1725892500760857e-001
         - 2.0871057063981188e-001
         - 1.9053183423914111e-001
         - -5.0557107457006728e-003
         - -2.5822476781481220e-002
         - -1.2590387063928624e-001
         - -5.8754650385444473e-002
         - -8.4030990226137192e-002
         - -2.9467937911436832e-002
         - 1.3394191473792516e-001
         - 2.4043324940640463e-002
         - -1.9557063636789085e-001
         - -3.5122882727199781e-002
         - -1.1962806242481455e-001
         - -2.0078432436487414e-001
         - 2.7824076534125353e-001
         - -5.4540508398271299e-002
         - -1.2756016571005041e-001
         - -1.3840219451903518e-001
         - 4.6511368355629690e-002
         - 3.6860875351092293e-003
         - -2.6506627066162865e-002
         - 3.8813464157936982e-002
         - 1.7789430081355354e-001
         - 1.6433525908357460e-003
         - -8.3661037633611397e-003
         - -3.1848756346575180e-001
         - -1.6268184069084288e-001
         - 5.4374040908111515e-002
         - -5.5405785529357510e-003
         - 1.6819853056890705e-001
         - -4.2218214663024632e-002
         - 1.1193620205737042e-002
         - 8.4644698470534532e-002
         - 1.1688666201466770e-001
         - -3.6740222599591366e-002
         - -7.2699649953684980e-003
         - -1.6065058714981545e-001
         - -2.6312414980380899e-001
         - 2.7167156378961216e-001
         - -2.5663292166100426e-002
         - -3.3659754748121085e-001
         - -1.3158487779727068e-001
         - -6.1835246038094413e-002
         - 2.0134170645496141e-001
         - 5.0920339852963625e-002
         - 1.0352088909495008e-001
         - -5.9987066283443503e-002
         - 2.9160282763993260e-002
         - -5.9812850619611280e-002
         - -2.1740738968135321e-002
         - -5.1590153570757184e-002
         - 2.7775284319211496e-001
         - 8.3387051039617507e-003
         - -3.9516051902591101e-003
         - 1.0990950725773101e-001
         - -1.2100806510130907e-001
         - -2.2731945296349232e-001
         - 1.1191013276626145e-001
         - 7.5233730574422453e-002
         - -6.6933196114992197e-002
         - -6.0877574329111749e-003
         - 9.9450812208436865e-002
         - -9.0525795409386142e-002
         - 5.2050018558242143e-003
         - 1.3810560012104300e-001
         - 1.3854236365158559e-001
         - 1.6713088047795178e-002
         - -1.3935992415218329e-001
         - 9.2573950765478377e-002
         - -1.1293508478303332e-001
         - -3.2407618983391240e-001
         - 9.2232630847619290e-002
         - 9.5943484332263199e-002
         - -1.3575366523861851e-001
         - -9.7963993500601101e-003
         - -1.6954215469850786e-001
         - -2.1519125703706202e-001
         - 4.7855493203346096e-003
         - 2.1975159788683057e-001
         - 1.1404277221848939e-001
         - -1.4082191458352378e-002
         - -1.8410706139410474e-001
         - 1.0124973142471380e-001
         - 3.3484478858639101e-004
         - -1.4247379889025422e-001
         - 5.7846533184041302e-002
         - -1.0986279601027801e-001
         - 1.7010722880049980e-001
         - 4.6466476922473153e-003
         - -1.2268794000601943e-002
         - 1.5488891265412572e-002
         - -1.3743041237690079e-001
         - -1.2848855200717166e-001
         - 8.5673777340418603e-002
         - 3.4616427331538207e-003
         - 4.4094556877786510e-002
         - -8.6892496400294457e-003
         - -1.4277078128051552e-002
         - -8.7526083348040948e-002
         - -2.8329908767778628e-001
         - 1.3318309730587879e-001
         - 1.8535156253995207e-002
         - 6.7610092971386070e-004
         - -6.5349180296521037e-002
         - 1.8562566355207183e-001
         - -1.4766918095381315e-001
         - -1.2285956251231121e-001
         - 1.7114972027185346e-001
         - 1.4466012387949720e-001
         - 1.1362900230714415e-002
         - -3.8130168327816949e-001
         - 1.6408559367498174e-001
         - -3.0726900196473058e-002
         - 1.0446676234560187e-001
         - 1.8450269974468168e-002
         - -9.8683821587859419e-002
         - -2.0039617700849284e-002
         - -8.1956077390528626e-002
         - 7.9981555800825235e-002
         - -4.5322557065114594e-002
         - -1.0163213662288678e-001
         - 1.0509899592616648e-001
         - -1.6821397881303740e-002
         - -2.1564773747516613e-001
         - 6.4297204149712031e-002
         - 4.2459825145441478e-002
         - -5.6607039348867266e-002
         - -1.5600223431216509e-001
         - 1.1663739784792064e-001
         - -2.2385232765049532e-002
         - 3.3076660196166657e-001
         - -1.0766511475927693e-001
         - 4.8176266813409795e-003
         - -1.6182149760811967e-001
         - -2.0799737197230914e-001
         - 2.7849489004032829e-001
         - -2.5125856685786280e-001
         - 5.0227965425895596e-002
         - -4.9500129147000034e-002
         - -5.8015488979321836e-002
         - 1.2747947975555146e-002
         - -8.5142218260529048e-002
         - -1.3407653634548418e-002
         - 1.0124583711263230e-001
         - 1.6817868444574308e-002
         - -6.9190841794774097e-002
         - -2.7622294599501895e-001
         - 5.6069378318113663e-002
         - -7.6315173457292537e-002
         - -2.6836561025895911e-001
         - 8.9667134605727519e-002
         - -1.7905092040002579e-001
         - -2.6902399261649300e-002
         - -1.9030106255655185e-001
         - 1.8997231785457019e-001
         - -1.2420616347011625e-001
         - 1.2525374166076514e-001
         - 1.4859070397422042e-001
         - 2.3335708223004872e-002
         - 1.3545087845989512e-002
         - -3.5475422705393306e-002
         - 1.1118670807238946e-001
         - -1.5289541820739186e-001
         - 1.6643367876032120e-001
         - -5.2013691887425065e-002
         - -1.7449771740287226e-001
         - 4.6058985840266610e-002
         - -1.6088274080665854e-001
         - 3.0811585649466938e-002
         - -2.4507025841273105e-002
         - -1.3545217007677129e-001
         - 3.3518804630447478e-002
         - -8.6846475642663248e-002
         - -1.1158810772999199e-001
         - 8.7704048776958213e-002
         - -2.1017295961209681e-001
         - -1.5180686765192117e-001
         - 8.9953922337618591e-002
         - 4.9117436371121856e-002
         - -6.4089437687716950e-003
         - 1.3587196167135845e-001
         - -1.6807602128290208e-001
         - -5.8583021755893964e-002
         - -6.1627490853847701e-002
         - -7.8960862825852046e-002
         - 9.6437977476645689e-002
         - -4.8826547157054645e-002
         - -1.9030240200416765e-001
         - 2.2905142168106599e-001
         - 2.1759295643300919e-001
         - -7.5285069256465798e-001
         - -1.4676436137721677e-001
         - -3.1024631415829545e-002
         - 2.4812923332187242e-001
         - 1.4412028096962651e-001
         - -4.1313076981460764e-002
         - 6.2228592302008404e-002
         - 1.9297367870434190e-001
         - 1.5668115605662322e-001
         - 5.7795242484353049e-001
         - 1.4173630125276621e-001
         - 5.4429093086916769e-001
         - -1.3722902490334343e-001
         - 4.4455875698574385e-002
         - 1.3416561509663855e-001
         - -1.5345712459238153e-001
         - 6.1189476849017016e-002
         - 2.2439704606693925e-001
         - 1.8221852068222896e-001
         - -2.1784167937767632e-001
         - 1.0989571051157754e-001
         - 1.7521325332894126e-002
         - -1.3033090016522139e-001
         - -2.5845815259507108e-002
         - 3.7133081644470711e-001
         - -2.0671280994103057e-002
         - 1.2750526004764173e-001
         - 1.1836106931722815e-001
         - 5.6455426206863869e-002
         - 1.7435607628071201e-001
         - 1.7020924769883310e-002
         - -1.8069924457615852e-001
         - 2.8815829288808215e-002
         - 1.1879564171569011e-001
         - 1.5983682296795115e-001
         - -3.4532561143110757e-001
         - -2.1430322643806424e-001
         - 3.8416329800694017e-002
         - 9.5257670426180024e-002
         - 2.7513667547286708e-001
         - -3.2716860810521504e-002
         - -2.4499593153331001e-001
         - -3.2753936714488771e-002
         - 1.5901978939766932e-002
         - -2.0109654927366979e-001
         - 4.5710107086278366e-002
         - -1.9055872483179668e-002
         - 2.5429282903029410e-001
         - -1.2937066344560386e-003
         - 1.3201601267119550e-001
         - 4.0363910569741670e-003
         - 1.9237922036836858e-002
         - 1.2719254409699396e-001
         - -5.1657124691621169e-002
         - -3.4716577549884921e-002
         - -1.2186040101604918e-001
         - 1.4692977975747991e-002
         - 1.4427591003643656e-001
         - 3.0369043569791415e-001
         - 1.8669634653065864e-001
         - 3.0554185373597215e-001
         - -1.7390482271783347e-001
         - -1.6174319544806390e-001
         - 2.0814102926113293e-001
         - 3.3319598175548576e-001
         - -8.2319432290974076e-002
         - 1.1900582435139319e-002
         - 2.0615262081637310e-002
         - 1.6134007539923537e-001
         - -1.2029117719967453e-001
         - 9.1833525828291976e-002
         - 2.2583436438024929e-001
         - 7.9031951700852213e-002
         - -7.5671343285908688e-002
         - 2.0699746524050924e-001
         - -2.1499373083593190e-001
         - -1.8746091186237195e-002
         - 4.7809340288354228e-002
         - -8.3489008268042467e-002
         - 1.6516963428139183e-002
         - 7.3205105964725015e-002
         - -3.2038455173921071e-001
         - -1.9119136988158592e-002
         - -4.7060433973218369e-001
         - 8.2375715327898724e-002
         - 1.4043623646078127e-001
         - -8.6506974541219556e-002
         - 2.5502134824849088e-002
         - 7.8592439630620209e-002
         - 7.4504143778322790e-002
         - -1.6530946351560377e-001
         - 2.1587141952257360e-001
         - -1.6882883313474864e-001
         - 4.9445390593540930e-002
         - -2.4282154498189787e-001
         - 3.4423761013948589e-001
         - -5.9977988221857806e-002
         - 4.3015129255255689e-003
         - -2.3643823536118994e-002
         - 4.9188654417864783e-002
         - 1.6120190622707903e-001
         - -2.7163782524887721e-002
         - -1.9525089478221000e-001
         - 1.3320900495046498e-001
         - 4.1044492767732768e-002
         - -1.3841032026009478e-001
         - 2.1453321763811185e-002
         - -2.9735300465020709e-001
         - 1.3912127799572147e-001
         - 1.3768479154535324e-001
         - 2.2536593320872561e-001
         - -1.0890713062673181e-001
         - 7.9011288370967099e-006
         - 4.4894017695899713e-001
         - -1.5905493950051569e-001
         - -7.7752349536526461e-002
         - -3.1556043724688732e-002
         - -1.0990551355780136e-001
         - 2.5146353661175297e-001
         - 5.6509678943588722e-002
         - 1.3891114377673525e-001
         - -1.1003547866546429e-001
         - 7.7450376194207429e-002
         - -1.3051496307479610e-001
         - -3.2848260754500608e-001
         - -1.1928670467034372e-001
         - -2.6406013418436097e-001
         - -1.4442718603064866e-001
         - 5.5274850688261871e-002
         - 1.5455555008757210e-001
         - 5.9741251324214803e-002
         - -2.4643900491582871e-001
         - 1.1374202035449098e-001
         - -6.1734317298380559e-001
         - 9.0705627556935273e-002
         - -5.4988478954016790e-002
         - 5.7463883007245899e-002
         - 9.7306322901651338e-002
         - 1.0898228126192189e-001
         - -2.1636954259294369e-001
         - -3.7204496332867938e-002
         - 4.3258786708968261e-001
         - 2.3737067209534066e-001
         - -6.2441564432471411e-002
         - -2.0575133375427274e-001
         - 2.2334134924073770e-001
         - -3.1320854249078939e-001
         - -2.0577908714019857e-001
         - -8.7506430954432751e-002
         - -9.8655267249040418e-002
         - 4.0670179789435816e-002
         - 1.2491723785016209e-001
         - 1.0391293035631143e-001
         - -1.9699696482928414e-001
         - 1.8830472579775707e-002
         - 6.4767513636962412e-002
         - 1.6118070204762755e-001
         - -1.4843607386737245e-001
         - 1.2463873501777711e-001
         - 1.0014469234459943e-001
         - 6.0568195851819412e-002
         - 4.6220676213193437e-002
         - 3.1329483746220965e-002
         - 2.7818005075699903e-001
         - 1.0375613400123955e-001
         - -1.1543290870283883e-001
         - 4.9090593752571415e-001
         - 1.0018996990282936e-001
         - 2.9789739255611236e-001
         - -4.2749828494688648e-002
         - 7.0788241802268323e-002
         - 2.3846769629121217e-001
         - 2.4710461261247871e-001
         - 6.1574539463206665e-002
         - -9.4401586169012133e-002
         - 4.9892153460250038e-003
         - -1.2247785931668417e-001
         - -2.4700164844077538e-001
         - 1.0022551148346061e-001
         - -5.0867256292644707e-002
         - -1.7155765292594718e-001
         - -1.7517838109727832e-001
         - -1.5098209550305119e-001
         - -4.6311833704809496e-001
         - 5.8523653786907465e-002
         - 5.0504968161175678e-001
         - 3.4457078415490089e-002
         - -1.4339264509897523e-001
         - 1.4964250221528000e-001
         - -3.0666154002115709e-001
         - 2.4708704449901803e-001
         - 2.5316838362687033e-001
         - 1.3058619990152009e-001
         - -1.1523222147018318e-001
         - -1.9346926280559043e-001
         - 1.0651823189809785e-001
         - -1.9223112521750210e-001
         - -1.9714613514794163e-001
         - -1.0488012270577637e-003
         - 7.6444138879064039e-002
         - -4.2692900194706118e-002
         - 7.4429022443933832e-002
         - 1.1163952590703564e-001
         - -3.1737696074398594e-002
         - -1.7094722422418579e-002
         - 7.0575232674128380e-002
         - 6.3214736135085103e-002
         - -1.2904338012021430e-001
         - 3.5792433225857984e-001
         - 1.6383634489615923e-001
         - 4.2061502167694625e-001
         - -9.1941718489075605e-002
         - 8.1054901768213714e-002
         - 9.2767114280932220e-002
         - -1.5987831553752158e-001
         - 1.8081036363210790e-001
         - 8.7997688697775522e-002
         - -1.3706313194415537e-001
         - 1.6125794487860293e-001
         - 1.0374962300858495e-001
         - 2.2295502669389239e-001
         - 7.5461627378394042e-002
         - 1.6389010722592917e-001
         - -2.0949899148519710e-001
         - -4.5309436167912429e-002
         - -1.2834452744844124e-001
         - -2.2399042026806365e-001
         - -2.2771935478041797e-002
         - -8.4076429547768228e-002
         - 1.8615644684450389e-001
         - -5.2468668735115187e-002
         - -3.3567161911127213e-001
         - -1.0190227914866214e-002
         - -2.0278147302457245e-001
         - 4.5688081111544349e-002
         - 2.7357987070448514e-001
         - -6.6501620184510113e-002
         - 8.3816092400635728e-002
         - 1.3977464423634325e-001
         - -3.7354036567929565e-002
         - -7.7491850725892450e-003
         - 7.8798038863398645e-001
         - 1.0006339242699799e-001
         - 3.7149567025798483e-002
         - -9.5713315529632095e-002
         - -9.2732661242778944e-002
         - -1.0981405046102176e-001
         - -2.4436145157491046e-001
         - 1.8400711482575310e-001
         - 9.3944860195473615e-002
         - -3.9978895358326011e-001
         - -8.1604486895659967e-002
         - 4.3502461256684388e-002
         - 2.6273999239117951e-001
         - -1.2982554640862837e-001
         - -1.7173149555942308e-002
         - 5.7519762573791128e-002
         - -2.7128943603031093e-002
         - 1.5208091398335488e-001
         - 5.6897528281282944e-003
         - -1.4394135686240742e-001
         - -3.9569379902123986e-001
         - 7.7078566638429172e-002
         - 5.0794250765771431e-002
         - 2.7454575725526909e-001
         - 5.9520770047209730e-002
         - -1.6034636018821029e-002
         - 1.5062775222662991e-002
         - 2.6081634248552965e-001
         - -1.0351485922943218e-001
         - 1.1365731241399187e-001
         - 1.8057834537876283e-002
         - 9.5323706876275643e-003
         - -1.0965662516971576e-001
         - -1.4415042687449283e-002
         - 5.2760421467539557e-002
         - 7.1877525860183089e-002
         - 1.1434220688867457e-001
         - -5.3057537664610507e-002
         - 1.7373305347103823e-001
         - -3.9995865939311051e-002
         - -1.6475124988240206e-001
         - -1.8283720486971789e-002
         - 2.6795010096527411e-001
         - 1.5917415961228549e-002
         - -1.4322087378911644e-001
         - -1.5536335385336861e-001
         - -4.8741667282354413e-002
         - 2.5409676193068487e-001
         - -1.0074567780912090e-001
         - -2.1335194998304101e-002
         - 4.6551381917388962e-001
         - 1.3436492334439698e-001
         - 4.1858454673741427e-002
         - -5.7248442158311687e-002
         - -1.4329234125574766e-001
         - 3.7198037485419090e-002
         - 3.6045072284439073e-001
         - -6.0831649682195052e-002
         - -4.2938997116746924e-002
         - -2.4338763644577335e-001
         - -1.2480819234256209e-001
         - 1.3883240653576862e-001
         - 2.8147309578113922e-001
         - 2.0207756151159665e-002
         - -5.0873988072712005e-002
         - 2.0909002742503093e-002
         - 4.4048450917616208e-002
         - -1.6504162109311402e-001
         - 1.6654386359270826e-001
         - -2.4516934048891029e-001
         - 1.0572914998559586e-001
         - 2.4220891524516581e-002
         - 4.2689336514998753e-002
         - 1.6216711202531386e-001
         - -1.1267649893966104e-001
         - -5.4970421182583029e-001
         - 1.5242987085388551e-001
         - 5.9355708609234663e-002
         - -3.4665960327311651e-001
         - -1.5500311740166756e-001
         - 2.1236877777719267e-003
         - -2.4275420075034498e-001
         - 3.7964954671334344e-003
         - 3.5558326326810735e-001
         - -1.6286361784506243e-001
         - 1.1536450129560534e-001
         - 7.1926708138897996e-002
         - 1.4407881262060296e-001
         - 8.3636841401013212e-002
         - -3.4970547901860063e-002
         - -2.5670664991447011e-004
         - -2.5401494357839072e-001
         - 1.2118501224640443e-001
         - 2.5427174534554120e-001
         - 1.1733624257475378e-002
         - -4.0310218547648692e-002
         - -1.3083693872742599e-001
         - -1.8814575976192460e-001
         - -3.7032883217731438e-001
         - -8.4109898145271283e-002
         - 2.4849738866192742e-001
         - -1.5388766460203224e-001
         - 1.0027751533192793e-001
         - 2.1417860694293961e-001
         - -3.4113089112485750e-001
         - 3.4065175935743819e-001
         - 9.4121141178659717e-002
         - 3.7745478334951170e-002
         - 6.5327494783313969e-002
         - -2.2066024279514376e-001
         - 2.2741395602851787e-002
         - -4.4853479453409182e-003
         - -4.7749811965876569e-003
         - 1.0672137614683409e-001
         - -2.1196401252679006e-001
         - 4.2756960597443314e-002
         - 2.2333341738267985e-002
         - 1.9298643618218378e-001
         - 1.5690683263202290e-001
         - 2.9661939783285030e-001
         - 2.9305797142044293e-001
         - 8.7540237825575698e-002
         - -2.3706160073149540e-001
         - 2.5350978626794513e-001
         - 1.1260666306589810e-001
         - -1.7448918950168940e-001
         - -6.0296324401160305e-003
         - 1.3045873988633777e-001
         - -8.2719900165668575e-002
         - 2.4454342404941792e-002
         - 7.5779594620214316e-002
         - -1.7080970581509911e-001
         - -2.0198939890921769e-001
         - 8.9891433312725495e-004
         - 1.2052377313872487e-001
         - 1.2272698561791516e-002
         - -3.1376053336819254e-002
         - 1.2943177920472948e-001
         - -1.0870561644177622e-002
         - 8.3711323080343843e-003
         - -6.7046337208901824e-002
         - 8.3783938452218348e-003
         - 3.3243723338720138e-001
         - 5.5797059147629002e-002
         - 7.2599472698780587e-002
         - -1.7708599940059319e-001
         - -1.3302459230906724e-001
         - 1.4075392973715223e-001
         - 1.0857915771542268e-001
         - -3.2343480032969801e-001
         - -1.1227726182940793e-001
         - -2.1493278599490188e-002
         - 1.6991879580810021e-001
         - -9.7817163433925247e-004
         - -1.5370344972133590e-001
         - 3.1231235874404384e-001
         - 2.8638714073469801e-001
         - -1.2660456333302900e-001
         - -4.4185329971939163e-002
         - -4.3795589901010963e-002
         - 3.7309155808530385e-002
         - -7.9354646931118437e-003
         - -7.2870696745123364e-002
         - 6.3487468049620743e-002
         - -1.2940583990425092e-001
         - 6.2329523932243011e-003
         - 8.0553693388280737e-002
         - 1.2563929858057118e-001
         - -3.4754515746571360e-002
         - 1.7491698802362030e-001
         - 1.0587156754415393e-001
         - -1.4388365424870559e-002
         - -5.6481221887286166e-002
         - 3.4967621856153602e-001
         - -4.4077979727251880e-002
         - -2.1213952653340526e-001
         - 1.3820888298858253e-001
         - -5.3130346238463903e-002
         - -1.2668460354181862e-001
         - 3.4319940824342456e-002
         - 1.3557441512860150e-002
         - -1.7652432552695702e-001
         - -7.9646697891920817e-002
         - -5.5300722246224412e-002
         - 2.5386578242779366e-002
         - 5.6392629788883430e-002
         - 4.7468497897280033e-002
         - 2.0671576011468668e-001
         - -2.1388115646467945e-001
         - 4.8450892948703549e-002
         - -1.7604130954167414e-002
         - -9.1279718519075466e-003
         - 4.8008139043030286e-002
         - 1.5851258250869990e-001
         - 6.8484058260271687e-003
         - -1.8466367196508443e-001
         - 7.4385876847264639e-003
         - 4.8699965335476880e-002
         - -6.7146464769983455e-002
         - -2.5616573415309607e-001
         - -1.3631045072907921e-001
         - -1.1596915273775059e-001
         - 8.9638672019396778e-002
         - -6.0832571990504070e-002
         - -2.5402060962866030e-001
         - 1.9863973562856629e-001
         - 3.7983648808415232e-002
         - -4.6809177103174456e-002
         - -2.0312064432956613e-002
         - -1.8779964754446302e-001
         - -4.1284312219650017e-002
         - -2.6216045313208219e-001
         - -2.9074974709317379e-002
         - 5.8408612925839071e-002
         - -3.9159857016497712e-002
         - 2.1230065971923398e-001
         - -8.1630117145187669e-002
         - -9.7388496210142807e-003
         - -1.6843718543777794e-001
         - 5.0154960624650934e-002
         - 1.6240349854269079e-001
         - 5.2632042239443677e-002
         - 5.8836306548376113e-002
         - 3.4816553338296408e-001
         - -1.2167845328214329e-001
         - -1.6488263687237872e-001
         - 2.3307051925102970e-001
         - 1.1523136836094670e-001
         - -9.8291245537493369e-002
         - -1.5413092263670553e-001
         - -6.5115283490936607e-002
         - -1.1479666584436560e-001
         - -5.7314249959865046e-002
         - -1.5336492484608544e-001
         - 1.8089646414787539e-001
         - 5.8285348469234242e-002
         - -4.6838461502698263e-003
         - 2.5556299576370445e-001
         - -2.0469846242867490e-001
         - 8.6583602548292060e-002
         - 1.7309484934894556e-001
         - -5.4830379767604388e-002
         - 2.7934530260611740e-001
         - 9.0955233357240969e-002
         - -7.1200462343184473e-002
         - -1.9564132145758008e-002
         - -1.3828825405280301e-001
         - 2.5447373096619974e-001
         - -1.0622690087433231e-001
         - 9.8621255010698350e-002
         - -1.8841846653409372e-001
         - 1.1492950974016496e-002
         - -3.4262612454441448e-002
         - 5.9755149507010240e-002
         - -2.4038796462602130e-001
         - 1.3381768622032986e-001
         - 1.6722091669924086e-001
         - -2.0405433319392499e-002
         - -1.9130921351833443e-002
         - -9.3271167184803244e-002
         - 3.0601249030824937e-002
         - -7.9466449796475880e-002
         - -1.6438447309093315e-001
         - 1.6331007025756472e-001
         - -1.1897202587975690e-001
         - 2.0013113450473927e-001
         - -1.3699846347166341e-002
         - -1.5309130597547649e-002
         - -9.6842012096498929e-003
         - 1.0525213797426108e-001
         - 2.8935331556792226e-001
         - -4.1270576723361818e-002
         - 8.2282485210207035e-002
         - 3.3096684162146417e-001
         - -1.5567785367613760e-001
         - -2.3059928756758361e-001
         - 1.2819759795135507e-001
         - 2.5029946661657393e-002
         - -1.6630408662586549e-001
         - -4.6508606105957702e-002
         - -3.2557274978721976e-002
         - -1.1977742279986442e-001
         - -5.7861848470141752e-002
         - 7.6662151211376775e-002
         - 9.2354742629307110e-002
         - 4.9014029047148629e-004
         - 2.3433189333033719e-002
         - 2.4105850784396646e-001
         - -2.9572966771129211e-001
         - 1.0207646413594848e-001
         - 8.2609331263579069e-002
         - 6.9902306995495322e-002
         - 8.6759501860488211e-002
         - 1.6793920518408892e-001
         - 3.4753571520537124e-002
         - -9.1727570247591289e-002
         - -1.0668725396525540e-002
         - 1.1596970721969127e-001
         - -8.4377205704254415e-002
         - -5.8102100637819176e-002
         - -2.4278520327735953e-001
         - -1.2002121059326029e-001
         - 9.6861400467090797e-002
         - 3.1221483713205024e-002
         - -2.9469966882156751e-001
         - 1.2727446510208099e-001
         - 2.1151840369901692e-001
         - -1.7571565000155248e-002
         - 5.3164368191925687e-002
         - -1.7791374997334627e-001
         - 1.7941391880972791e-004
         - -1.2428954171652921e-001
         - -1.3891270943225881e-001
         - 1.3191642392548289e-001
         - -1.2329001470172833e-001
         - 1.9763324764116758e-001
         - 2.4179521311005429e-002
         - 3.8145330246898185e-003
         - 2.7581021931955295e-002
         - 5.5385459600253961e-001
         - 3.4703542158085010e-001
         - -6.2588828896012444e-002
         - -7.1466008244102236e-002
         - 2.0031253244528716e-001
         - -1.0846727330457769e-001
         - -1.7474543934986594e-001
         - 1.6398670602351659e-001
         - 2.5351529947059237e-001
         - -1.0182071248240737e-001
         - -6.8568858915712044e-002
         - -3.7748382810803359e-002
         - -1.2565328398945447e-001
         - -1.4590695877580739e-001
         - 1.5073812703766262e-001
         - -4.7800301631442485e-002
         - 4.3219362610235769e-002
         - 1.5230758972509720e-001
         - 9.3887889267282240e-002
         - -2.2895188141436141e-002
         - 1.7986388675392065e-001
         - 3.4205778498300816e-002
         - 6.1283302903382124e-002
         - 2.2157049756902988e-001
         - 1.2434563455233884e-001
         - -2.2482372758127055e-002
         - -9.6648191329180302e-002
         - -1.5672862596829007e-001
         - 1.2806332280514313e-001
         - 7.5103022468591589e-003
         - -3.7212964335224218e-002
         - -1.8369624870786044e-001
         - -5.8483821558396619e-002
         - -8.5363285814145651e-003
         - -1.5376071286808152e-001
         - 2.1128415333572004e-001
         - 5.8960463411635494e-002
         - 2.1751654327441985e-001
         - 5.6536940773445989e-002
         - 2.1409289755481159e-001
         - -5.3949734528913962e-001
         - -2.1386076313742376e-002
         - -2.0682321617315719e-001
         - 3.0261934490298870e-001
         - -6.1725464807669689e-003
         - -1.2075216254047733e-001
         - 1.2766133663760421e-002
         - 1.0444536761457153e-001
         - 2.5693767183774036e-001
         - 3.8356077060965393e-001
         - 4.2689109609174672e-002
         - 5.3506741507132805e-001
         - -1.3400199692461220e-001
         - -6.7901780410857910e-003
         - 5.4181256292798151e-002
         - -9.4373855741842497e-002
         - 8.0649288358366711e-002
         - 1.2063266940704610e-001
         - 1.0771583665676640e-001
         - -2.1379150602317698e-001
         - -1.2439007787280326e-002
         - -1.3088821121787722e-001
         - -9.8605017895271346e-002
         - -1.8412331094017190e-001
         - 1.7468978813031574e-001
         - -1.6006182872550923e-001
         - 5.4409348003717446e-002
         - 2.1433139577254887e-001
         - -9.0982743559514981e-002
         - 2.7950115914131279e-001
         - 1.7258645422074909e-001
         - -1.6610190656958720e-001
         - 1.8609161679150571e-001
         - -1.1609315379685077e-002
         - 1.2835802614331274e-001
         - -6.2089977391870121e-001
         - -1.5529961260813954e-001
         - -4.7675411466053211e-002
         - -1.8748536056749407e-002
         - 2.5563230517635943e-001
         - 1.5944394751970625e-002
         - -2.5729674793201840e-001
         - 1.8447862788692333e-002
         - -6.6633136520495156e-002
         - -8.2133016625482683e-002
         - -1.5771330174955830e-001
         - 4.0400726574962832e-002
         - -1.4997471484919181e-002
         - 2.6480218179817199e-002
         - 7.5999389612216431e-002
         - 3.0363434845524223e-001
         - 2.5162987134535625e-001
         - -2.1383156896898778e-001
         - 2.8728320143800140e-001
         - -1.0221570196716256e-001
         - -1.7128123717307316e-002
         - -3.4317575586781938e-002
         - -7.8448257073743755e-002
         - 3.0720017848364045e-001
         - 3.1065306032020057e-001
         - 7.9411866137161599e-002
         - 1.2567665176101084e-001
         - 5.6984394913254438e-002
         - 3.7503140573049493e-001
         - 1.1930004437022515e-001
         - 1.1349597518305812e-001
         - 3.0252573293109880e-001
         - -1.9075752510274122e-001
         - -1.6682251294170385e-002
         - -3.4773063957438070e-003
         - 2.7757947577753444e-002
         - -1.2972478309031502e-001
         - 1.5700086751601466e-001
         - -2.2663721251588262e-001
         - 1.8310547935595686e-001
         - -1.8814662627302805e-003
         - 5.8169453629754592e-002
         - -6.5664246230052126e-002
         - -4.4594459915423157e-001
         - 9.8186529726219496e-002
         - 1.0786595564051875e-001
         - -6.8564304502305657e-003
         - 1.9162410817965575e-001
         - -2.7839382889413627e-001
         - 9.8605449005760931e-002
         - -2.1271315808816044e-001
         - 2.3171161495555107e-002
         - -1.7832502451724113e-002
         - 1.8231190050146467e-001
         - -2.3528363206153063e-002
         - -6.3488549744465911e-002
         - 6.5167831418975766e-002
         - -2.5048868016116894e-002
         - -5.3522655469377942e-002
         - -3.3500522309146991e-002
         - -3.7309974249383850e-002
         - 1.0885352469850972e-002
         - -2.5994289741455617e-001
         - -1.7192072544247963e-001
         - -6.2003646445170951e-002
         - 1.8618102234091877e-001
         - 1.9732315999436537e-001
         - -1.1947206379335638e-001
         - 1.5913968163209710e-001
         - 4.8371649877415449e-002
         - 5.8045652732795338e-003
         - 2.5809418855057747e-002
         - -1.5175562561215861e-001
         - 4.0769890235484124e-001
         - 1.8963288029843189e-001
         - -1.3981821245614398e-001
         - 1.4218460955788323e-001
         - 8.8597665186719281e-003
         - 1.8376244546103687e-001
         - 3.1158647843256987e-001
         - -7.2927938626006342e-002
         - 4.9477211277812438e-001
         - 1.9384285822938255e-001
         - 1.0474828022287036e-001
         - -2.3135321002648496e-002
         - -6.2824511484481427e-002
         - 2.1372620493329511e-001
         - 1.6870866887719715e-001
         - 1.3113988379647382e-001
         - -1.2338583196119036e-001
         - 4.6860693327819329e-002
         - 7.5567690812119725e-002
         - -2.1470735518310130e-001
         - -1.7056300263729912e-001
         - 5.1087107127640814e-002
         - -1.8870964448798427e-001
         - -4.7923084506027815e-002
         - -1.6233167971609272e-001
         - -2.3654852850050909e-001
         - 1.1896205173293802e-001
         - 3.2393148584288001e-001
         - 6.8586407385730505e-002
         - -1.7080815255313525e-001
         - 1.2708769016460561e-001
         - -1.2495198029977174e-001
         - 1.4159511400056521e-001
         - -8.7987905639146602e-002
         - 4.5359038732732233e-002
         - -2.6893247285692190e-001
         - 1.9943375371765017e-002
         - -1.7234472969109724e-001
         - 1.4004247301117363e-002
         - -1.7537374255302721e-001
         - -4.4999059512477674e-003
         - 1.0618910598971838e-001
         - 2.4524583170838238e-003
         - 2.4095162955929786e-001
         - -4.8842969967143449e-002
         - 1.1822603227019489e-001
         - -3.5177140104624291e-002
         - 8.6532421715188074e-002
         - -1.3802173455523580e-002
         - -4.8285555498912343e-002
         - 2.4915617069682408e-001
         - 4.2389019767893649e-001
         - -1.2032492279723254e-001
         - 2.4953500347188757e-002
         - 1.1651335041256736e-001
         - 2.6718310888213254e-001
         - 1.6602123718765494e-001
         - -2.6103316365059002e-002
         - 3.7167992391922655e-001
         - -1.2108398514908993e-001
         - -3.4748342206598504e-002
         - -8.2389716286422349e-003
         - 2.8770903750913390e-001
         - -8.4923471956100338e-002
         - 7.7989829023853860e-002
         - -1.0767031469002881e-001
         - 1.6861141892632681e-001
         - 1.9066500571844332e-002
         - 3.6148263191269708e-002
         - -7.3367803468529141e-002
         - -2.7280632721581949e-001
         - -1.5293123974405054e-002
         - -2.1019663260003918e-001
         - -7.7335617323879335e-002
         - 1.0776057492233056e-001
         - -6.7972824747914398e-002
         - 1.3901487300569854e-001
         - 1.2466203939535760e-001
         - -8.5144454556640048e-002
         - 1.1971514981919539e-001
         - 1.4913508135023840e-001
         - -1.5323662283396772e-001
         - -1.2207557523791732e-001
         - 1.2220624459549059e-001
         - 4.4901728168254620e-002
         - -7.8303436318324805e-003
         - 1.1321378105709855e-001
         - -2.3897241610325407e-001
         - 1.6665827988626200e-001
         - 2.7669531846902656e-001
         - -1.7811441804293247e-002
         - 2.2843020920425122e-001
         - -3.8587333636518051e-001
         - 2.8316493160348198e-002
         - 1.2602507918473293e-002
         - 1.3496402588717021e-001
         - 1.2334206139850032e-001
         - -8.0563321660005807e-002
         - 7.9098308972873274e-002
         - -4.0465021404215581e-002
         - -5.3971020539362292e-002
         - 2.4147834090685971e-001
         - 1.2767207589810378e-001
         - 5.3097091635594174e-002
         - 3.8649745915661733e-002
         - -4.9283400817894160e-002
         - 2.1000276448704949e-001
         - -5.9506869041030162e-002
         - -3.0819889975135206e-001
         - 6.5155793344140442e-002
         - 2.1909871696298805e-001
         - -2.2865966920200445e-001
         - -1.5447976661125895e-001
         - 2.8455172200773718e-003
         - -2.2315273791916784e-001
         - -2.1573031693211769e-002
         - 1.4707375391737482e-001
         - -1.7246508496438502e-002
         - -1.3096764958186696e-003
         - -3.6821297571759594e-002
         - 1.0918735569975281e-001
         - 3.0715237911248588e-001
         - 2.6657708602438528e-002
         - -1.3146874123567084e-001
         - -1.3353753934727913e-001
         - 1.4336394519313478e-001
         - 7.5337491841522053e-002
         - -7.7058153056710960e-002
         - -1.2116556980849501e-002
         - -2.2307948104363870e-001
         - -4.5521606108519755e-002
         - -1.1517027505612493e-001
         - 2.9939678309744730e-003
         - 2.3733699664617119e-001
         - 9.8154400461404973e-002
         - 1.2052201124232768e-001
         - -7.0523617084007938e-003
         - -2.1308607567001231e-001
         - 1.7568836613136007e-001
         - 3.7766359908034930e-001
         - -1.0057695935967607e-001
         - -4.3528724218817899e-002
         - -1.9989383173503561e-001
         - 6.6925391010504792e-002
         - -1.8255321256281995e-001
         - -1.8260369294303760e-002
         - -6.1588345885372604e-002
         - 1.3700234418861087e-002
         - 1.4687538312283013e-001
         - -3.8950905055061033e-002
         - -9.6008535907988718e-002
         - -2.2529961643452390e-001
         - 4.5695976711822273e-001
         - 2.6573073338681755e-002
         - 2.0781650688574852e-002
         - -1.3849085273465218e-002
         - 1.5148589798767040e-001
         - -1.0689377826754086e-001
         - -4.1487535881625082e-001
         - 3.7079815743905814e-002
         - 9.4722517061697098e-002
         - -5.2706398188310563e-002
         - -1.1514726279588688e-001
         - -1.0572417526834277e-001
         - -1.5408466334375956e-001
         - -2.4567655092138108e-001
         - 8.1921496563101992e-002
         - -3.1353050310920631e-003
         - -4.7402896053261707e-002
         - 2.5687368942057992e-001
         - 9.9720453971721565e-002
         - -9.0246903006356155e-002
         - 2.1240479844913970e-001
         - 5.2865756075147097e-002
         - -1.7030241974257544e-003
         - 5.3634520560412596e-002
         - 7.3098755799610990e-002
         - -2.9083364628048797e-001
         - -4.1214879302313850e-002
         - -1.7974437000070989e-001
         - 7.9009862810880918e-002
         - -5.7993113702298552e-002
         - -2.3540236420352206e-001
         - -1.0612084564298763e-002
         - -9.7093674623571949e-002
         - 1.2773496886834884e-001
         - -7.3169007405993650e-002
         - -4.7172598074322301e-002
         - 1.5816352066658995e-001
         - 4.5224702805171574e-001
         - -1.5154002113466347e-001
         - -8.7524505842159220e-002
         - -3.8019284440704668e-002
         - 3.0010848374987097e-002
         - -1.4243546792440251e-001
         - -2.6114783133774550e-002
         - 4.3688185518396996e-002
         - -7.1817745096961275e-002
         - 1.4095908136216509e-001
         - -1.6587949634060344e-002
         - -7.2242697864809802e-002
         - -2.7185263827282186e-001
         - 4.3327577991934832e-002
         - 1.5061129898910680e-001
         - -7.1948335352576331e-002
         - -1.1670184207701422e-002
         - 2.4154506773229878e-001
         - -2.8011302437260732e-001
         - -4.3058358544720160e-001
         - 2.5658326820042271e-001
         - 9.1641045180877748e-002
         - -6.7460168047973876e-002
         - -1.4294624085453386e-001
         - 5.7980916319885160e-002
         - -9.5408229872392558e-002
         - -5.3720009584794705e-002
         - -1.8783527165764688e-002
         - 2.6619248102655486e-002
         - 3.8895684724466154e-002
         - 1.4873006635325417e-001
         - 2.4309989157588435e-001
         - -1.5094936104821693e-001
         - 1.3978624542070489e-001
         - 3.7255742322331267e-002
         - -1.2795368280939348e-001
         - -6.3400516613825272e-002
         - 5.5937008206277970e-002
         - -2.6502139890120752e-001
         - -1.4634649288134471e-002
         - -1.8368243155603650e-001
         - 1.1188822635666114e-001
         - -4.5363696786643176e-002
         - -1.3577916515012955e-001
         - -8.7867644223336996e-002
         - -8.3162135719898361e-002
         - 5.9171772861946600e-003
         - 1.9149873741963641e-001
         - -2.7818165241663101e-001
         - 1.6481009433122795e-001
         - 1.8253144064374283e-001
         - 1.2996621244830533e-001
         - 1.5329928686462910e-002
         - -3.6856043801909766e-001
         - 1.6492575708227025e-001
         - 2.4893566377315731e-003
         - -9.9403725818731789e-002
         - 1.7997267494154476e-001
         - 1.6285145497882576e-002
         - 2.4157122787251373e-001
         - -1.3905365590619672e-003
         - -1.1521448821875259e-002
         - 1.5440066439113701e-002
         - 3.0182850882771312e-001
         - 2.4294367799994285e-001
         - -3.2271442811700621e-002
         - -2.5291468394689027e-003
         - 1.2232252144211708e-001
         - -1.9233792357911025e-001
         - -4.4062183131024907e-001
         - 5.7822497755323950e-003
         - 1.4126377176428243e-001
         - 9.8312569314285524e-003
         - 7.0405644164755213e-002
         - 6.8423864093895915e-003
         - -3.3756940572017086e-002
         - -2.0348409779419555e-001
         - 2.0720218065685397e-001
         - 1.7749321759211584e-001
         - -1.7805884748041395e-001
         - 1.3295289439863187e-001
         - 2.2092497866679875e-001
         - -1.5345642669807380e-001
         - 4.7929203980051238e-002
         - -5.8374166780839638e-003
         - 9.4069358263251121e-002
         - -3.3649121839126439e-002
         - -1.2804421375096684e-002
         - -2.2816982160903213e-001
         - -4.7211763026357599e-003
         - -8.3671026190658387e-002
         - 1.3578704476750539e-001
         - 2.0034459439744898e-001
         - -1.4063190512671467e-001
         - -1.3173777774542086e-001
         - -3.3235888727934995e-002
         - 2.6486586677333407e-001
         - -3.8195883924367277e-002
         - -2.0261014162338564e-001
         - -7.0830152800731225e-002
         - 8.8288681183645148e-002
         - 2.4819191518058873e-003
         - 1.3881167314881857e-001
         - -1.9233621551730112e-002
         - -1.8294520954421609e-001
         - -1.4238906653999814e-001
         - -7.8081294900490303e-002
         - -1.3863195553157334e-001
         - -1.2233201629806767e-001
         - 4.2526251710397998e-003
         - -1.0603254333458151e-001
         - -1.4789840568554419e-001
         - 2.0642284612792552e-001
         - 2.0899411251160707e-001
         - -3.4811401429097938e-001
         - -7.2971312240194359e-003
         - -1.7684039382850905e-001
         - -1.2322225137792019e-001
         - -4.9944695954829137e-002
         - -1.6128983765107111e-001
         - 1.5010325733216923e-001
         - 1.7963254403365664e-001
         - 1.5124761710096540e-001
         - -2.7196451171085806e-001
         - 1.6978953657549117e-001
         - -1.8567559255013988e-001
         - 2.1253893722606945e-001
         - -1.9813804506332251e-002
         - -2.1140678393537043e-002
         - 1.8797182580295058e-002
         - -8.4302879372817621e-002
         - -1.4831836928064383e-002
         - 1.8016665061932538e-001
         - 1.7543749900946512e-001
         - 1.3541266291783094e-001
         - 3.6448245283639942e-002
         - 5.9186876779846569e-002
         - 1.1377843673338622e-001
         - 3.9060953216184975e-002
         - 1.3585303655057915e-001
         - 1.1070443273647032e-001
         - 1.0695875862475195e-001
         - -2.8787935840296142e-002
         - 4.0800660001257217e-003
         - 1.7517413756618919e-001
         - 8.3983034463219516e-002
         - -1.3357980321518231e-001
         - 7.2072794880012059e-002
         - -7.6873825498650090e-003
         - -4.7686001651622893e-002
         - 2.4651302081362375e-001
         - 1.3749007830302828e-001
         - -5.3680083309792959e-002
         - -5.7722562347462918e-002
         - -1.3841963880076089e-001
         - 9.0306806683689844e-003
         - -1.1291989269572399e-001
         - -5.4125124443209258e-002
         - 4.1385676603643458e-002
         - -1.0446954443109865e-001
         - 1.7672653044828454e-001
         - 1.1793473316638829e-001
         - -1.5199949020241696e-001
         - -3.4932753637945652e-002
         - 8.7571743752166142e-003
         - -1.7867209650162674e-001
         - -8.7004131642617666e-002
         - 2.2248439521660293e-001
         - 9.9126818094372890e-002
         - 5.7678165480294016e-003
         - -7.3486671794744815e-002
         - 1.5792427707690581e-002
         - 4.4500365000969336e-002
         - 1.0942972972256104e-001
         - -1.2567546163234991e-001
         - -9.9487885643942967e-002
         - -2.2128119412951446e-003
         - 1.6042262751279066e-001
         - -2.2087774308554881e-001
         - -2.9878298624289281e-002
         - -1.6342538104091628e-001
         - 1.9868680342485418e-002
         - 1.3215890198606553e-001
         - -2.2603049822856278e-001
         - -1.1920662782047521e-001
         - 5.1304690352815541e-002
         - -7.6401859236251937e-002
         - -4.9511295129121224e-002
         - -1.0932551030450867e-001
         - -1.4145424831655040e-001
         - -2.2200849683052074e-001
         - 5.9096912793505076e-002
         - -8.2654479790427227e-002
         - 1.8411363149994274e-002
         - 1.4725753359304758e-001
         - 1.1211158074874789e-001
         - 1.7447755634234538e-001
         - 1.6837589235542308e-001
         - 2.5821657034843087e-001
         - -1.1127349248835314e-001
         - -1.1253838379900050e-001
         - -1.2013682036483830e-001
         - 1.0609820001809081e-001
         - 2.1533201446625627e-002
         - -4.0697634339082085e-002
         - 2.0962759898200908e-001
         - 2.2673266188228923e-002
         - -1.8247763438051949e-002
