%YAML:1.0
opencv_ml_ann_mlp:
   format: 3
   layer_sizes: [ 96, 50, 50, 8 ]
   activation_function: SIGMOID_SYM
   f_param1: 6.6666666666666663e-001
   f_param2: 1.7159000000000000e+000
   min_val: -9.4999999999999996e-001
   max_val: 9.4999999999999996e-001
   min_val1: -9.7999999999999998e-001
   max_val1: 9.7999999999999998e-001
   training_params:
      train_method: BACKPROP
      dw_scale: 1.0000000000000000e-003
      moment_scale: 1.0000000000000001e-001
      term_criteria:
         epsilon: 1.0000000000000000e-008
         iterations: 10000
   input_scale:
      - 2.6129970128042391e+001
      - -2.6022290178500360e+000
      - 1.5474710807716814e+001
      - -1.6282623834099184e+000
      - 2.6366472276887848e+001
      - -4.2109450279095348e+000
      - 1.4839638107151927e+001
      - -5.9157798918915738e-001
      - 2.9302463177924245e+001
      - -7.2290944182561683e+000
      - 1.5582861770564820e+001
      - -2.9612038245424105e-001
      - 3.1691936634485547e+001
      - -1.0685329744322587e+001
      - 1.6573011307742938e+001
      - -5.3771554277208611e-001
      - 3.1731336670965486e+001
      - -1.3335579303599721e+001
      - 1.6801375959310025e+001
      - -1.1785510905826808e+000
      - 2.8092029435915716e+001
      - -1.6152853093396612e+001
      - 1.5978431076245201e+001
      - -1.1539298791739223e+000
      - 2.5188569704395679e+001
      - -1.6575423061343550e+001
      - 1.5080259227522570e+001
      - -5.7212387490796446e-001
      - 2.1100969518955303e+001
      - -1.5768867455046372e+001
      - 1.3880140009017060e+001
      - -3.8261674943384233e-001
      - 1.7710348838224927e+001
      - -1.4742141695453691e+001
      - 1.3055778822708259e+001
      - -6.6099149359266163e-001
      - 1.6123394707001825e+001
      - -1.4340977018695487e+001
      - 1.3461620500646294e+001
      - -1.5645091760430327e+000
      - 2.6303875780314577e+001
      - -1.3095180241017829e+001
      - 1.7905043428115835e+001
      - -7.3458205769941465e+000
      - 3.1192649916596519e+001
      - -1.2548793497340183e+001
      - 1.9745269979094115e+001
      - -9.5001716181146705e+000
      - 2.9541290629253947e+001
      - -1.3229056012628970e+001
      - 1.9686207207934441e+001
      - -9.7560879053616372e+000
      - 2.7582256033930598e+001
      - -1.3700819810272593e+001
      - 1.9354501496331334e+001
      - -9.8263971337084772e+000
      - 2.6284818171358985e+001
      - -1.4327839607585483e+001
      - 1.9015639100364325e+001
      - -9.4401584984045801e+000
      - 2.4960257269073242e+001
      - -1.4705287666759496e+001
      - 1.8453164874588307e+001
      - -8.9236457381004026e+000
      - 3.2682783669874297e+001
      - -6.5715054321855497e+000
      - 1.4577552652999769e+001
      - -2.8353848442978768e+000
      - 3.4581676424465201e+001
      - -8.7897936328274238e+000
      - 1.4074190888773549e+001
      - -2.2748806494150844e+000
      - 3.8579503018614666e+001
      - -1.2282526724920633e+001
      - 1.4151440062600605e+001
      - -2.3069220088869717e+000
      - 4.1055099204384632e+001
      - -1.5375043418260717e+001
      - 1.4862990324930735e+001
      - -3.0536766956682762e+000
      - 3.9244210363268067e+001
      - -1.2362369569548440e+001
      - 1.4980587357137784e+001
      - -3.2716069524313514e+000
      - 3.4965148668796765e+001
      - -8.7818174565564142e+000
      - 1.5079936251603451e+001
      - -3.2900887509256438e+000
      - 2.8549588761593157e+001
      - -1.7621308436890342e+001
      - 1.3754708026352668e+001
      - -2.8845508146348235e+000
      - 2.4690341319909834e+001
      - -1.6642326558287795e+001
      - 1.2861612791462623e+001
      - -2.1676238506072765e+000
      - 2.1290410512364737e+001
      - -1.5709591663026712e+001
      - 1.2491368048484405e+001
      - -2.1184335127692764e+000
      - 1.9277902643362555e+001
      - -1.5229967920992964e+001
      - 1.2618028309749299e+001
      - -2.5707262840908065e+000
      - 2.0994620427854542e+001
      - -1.5538527793145706e+001
      - 1.3115687561159742e+001
      - -2.9588994325055520e+000
      - 2.4382098570446885e+001
      - -1.6499754213674137e+001
      - 1.3379659623599116e+001
      - -3.0062671477707825e+000
      - 2.4967555634346262e+001
      - -7.8950258460758453e+000
      - 1.9017179592647775e+001
      - -1.2618061965943143e+001
      - 2.8448853736592412e+001
      - -1.0804362851729902e+001
      - 1.8621949786694127e+001
      - -1.1477900399987290e+001
      - 2.9159281331112318e+001
      - -1.3024992223921993e+001
      - 1.8095218276392764e+001
      - -1.0713092945093257e+001
      - 2.7482048931615633e+001
      - -1.3590293864967229e+001
      - 1.7702986886499257e+001
      - -1.0711038451656593e+001
      - 2.4489892004485995e+001
      - -1.3302634924241531e+001
      - 1.7411318793548656e+001
      - -1.0336066866037873e+001
      - 2.0216389694099004e+001
      - -1.2320934219447423e+001
      - 1.6763877204769756e+001
      - -1.0389933400178828e+001
      - 1.7278907222719834e+001
      - -1.1597088632475272e+001
      - 1.6264197348752329e+001
      - -1.0858790182561188e+001
      - 1.8807753384822103e+001
      - -1.1498529178904443e+001
      - 2.2009317538611278e+001
      - -1.5980907485087791e+001
      - 2.1959975076853620e+001
      - -1.1983209625998759e+001
      - 2.1101221608648380e+001
      - -1.5876128375075865e+001
      - 2.4860952651699645e+001
      - -1.2263723063588078e+001
      - 2.1177881116115316e+001
      - -1.6031668559469139e+001
      - 2.6482595714297243e+001
      - -1.1691275255039356e+001
      - 2.1480610760939648e+001
      - -1.6131555230536293e+001
      - 2.6638082828356033e+001
      - -1.0007249006756686e+001
      - 2.3922446205026944e+001
      - -1.7314419817494034e+001
      - 2.4932625102492096e+001
      - -8.5798535080368268e+000
      - 2.0116952564972049e+001
      - -1.3351811548733497e+001
      - 2.8508380074653580e+001
      - -1.2708643942508726e+001
      - 1.7760206338882895e+001
      - -1.1398445233350037e+001
      - 2.6813959339563606e+001
      - -1.3248963057317450e+001
      - 1.7438393082946021e+001
      - -1.1301878915226331e+001
      - 2.3763461939455105e+001
      - -1.2910630161290609e+001
      - 1.7086543452170265e+001
      - -1.0989502931806198e+001
      - 1.7769287807729999e+001
      - -1.1419649792767222e+001
      - 1.7599174531809211e+001
      - -1.1745225942251775e+001
      - 2.3224364648307834e+001
      - -1.2622597426228376e+001
      - 2.1350568885776990e+001
      - -1.4574948112308153e+001
      - 2.6391748598244909e+001
      - -1.3035562236187811e+001
      - 2.1712918570874859e+001
      - -1.4952316926159220e+001
      - 2.8006009589255306e+001
      - -1.2459502455363685e+001
      - 2.1633514270856967e+001
      - -1.4746560833650500e+001
   output_scale:
      - 5.2631578947368418e-001
      - 4.9999999999999994e-001
      - 5.2631578947368418e-001
      - 4.9999999999999994e-001
      - 5.2631578947368418e-001
      - 4.9999999999999994e-001
      - 5.2631578947368418e-001
      - 4.9999999999999994e-001
      - 5.2631578947368418e-001
      - 4.9999999999999994e-001
      - 5.2631578947368418e-001
      - 4.9999999999999994e-001
      - 5.2631578947368418e-001
      - 4.9999999999999994e-001
      - 5.2631578936628998e-001
      - 5.0000000010202450e-001
   inv_output_scale:
      - 1.8999999999999999e+000
      - -9.4999999999999996e-001
      - 1.8999999999999999e+000
      - -9.4999999999999996e-001
      - 1.8999999999999999e+000
      - -9.4999999999999996e-001
      - 1.8999999999999999e+000
      - -9.4999999999999996e-001
      - 1.8999999999999999e+000
      - -9.4999999999999996e-001
      - 1.8999999999999999e+000
      - -9.4999999999999996e-001
      - 1.8999999999999999e+000
      - -9.4999999999999996e-001
      - 1.9000000003876931e+000
      - -9.5000000038769317e-001
   weights:
      -
         - -4.2341467938414196e-001
         - -2.0090097417084390e-001
         - 1.7092498190320229e-001
         - -2.6216484060278000e-001
         - -6.1461838241214883e-001
         - -4.5754124318224809e-001
         - -3.9440375369884884e-001
         - -5.2241467709928692e-003
         - 2.7715619465277064e-001
         - -1.1544650053275919e-001
         - -7.6017872927690092e-002
         - -1.2373979239614890e+000
         - -4.8346117856572451e-001
         - 5.4671030224558592e-001
         - -2.1559420326430001e-001
         - 2.9879770629027291e-001
         - -6.1921261769184355e-001
         - -6.2382275576060553e-001
         - -1.1194663687645710e-001
         - -6.0533021108353335e-001
         - -7.7469311745926350e-001
         - -4.2615672936653842e-001
         - -5.8977598705072243e-002
         - -2.9230666663183674e-001
         - -1.2106430873115526e+000
         - -5.7601424642872205e-002
         - -2.1238023260173164e-001
         - 2.9654844195456342e-001
         - -3.5290682524196515e-001
         - 3.5716474941558668e-001
         - 4.4973020850586432e-001
         - 1.2394770796842087e+000
         - -2.5555290192866398e-001
         - -6.5304612167334231e-001
         - 1.5057798341322555e+000
         - 4.8276041216748550e-001
         - 3.4983355206538519e-001
         - 2.7667282590900572e-001
         - -6.0206118612678672e-001
         - -9.7623535904683956e-001
         - -4.8527582056169105e-001
         - -6.4563379382544550e-001
         - -5.6526092836499231e-001
         - -9.1959295663943064e-001
         - -8.4426840858541330e-001
         - 9.3613094267703013e-003
         - 5.6459398054752408e-001
         - 3.2810032710855763e-001
         - -3.1858824351259257e-001
         - -3.7938552226612349e-001
         - 4.1120360889558094e-001
         - 3.1943670433297058e-002
         - 5.6192505663811532e-001
         - -1.3127495532530642e-001
         - 6.9478880823017330e-001
         - -1.9781879762005861e-001
         - -3.0730849384219272e-001
         - -2.8423871918275573e-001
         - -7.3948403937666740e-001
         - -9.0918991982080011e-001
         - -3.0473512954128822e-002
         - 2.4139529079760910e-001
         - 2.4378068168660608e-001
         - -7.7181405207107992e-002
         - -1.1152319372115029e+000
         - -7.5935607438634467e-001
         - 1.6169283988374436e-001
         - -2.1795044630357976e-001
         - 2.7848214519726233e-001
         - 5.1135687386504969e-001
         - -3.9738182164490293e-001
         - -6.1185617963944387e-002
         - 4.9496885864917650e-001
         - -9.3767004529858122e-001
         - 4.3799447292891180e-001
         - -5.9389857507247257e-001
         - 1.2621017929345812e-001
         - 6.9829639897805695e-001
         - -5.6916997205995667e-001
         - 3.2695786302663049e-001
         - 2.9408029730424246e-001
         - 1.7501239076319164e-001
         - -6.8430802768321281e-003
         - -3.8466382110094377e-001
         - -4.5068428495512636e-001
         - -7.0955816898244664e-002
         - -1.8444987757505688e-001
         - -1.1753163766039468e-001
         - -7.0106856071482537e-001
         - -3.5657468827808692e-001
         - -3.0875671979496772e-001
         - -2.7882581251170779e-001
         - 2.1325009521057203e-001
         - -3.6124596038008899e-001
         - -2.9300886570268109e-001
         - -5.3542193802512084e-001
         - 4.6079784332073953e-001
         - 1.0150371509259506e-001
         - -1.2728437869746670e-001
         - 4.1945575954073257e-002
         - -5.7451143181511920e-002
         - 1.6832397584778552e-001
         - 1.3316871124104795e-001
         - 1.7769023083140625e-001
         - -2.0487876474487890e-001
         - 5.6357357649667361e-001
         - 8.8406676374688811e-002
         - 8.8515332089556337e-002
         - -1.7965477926598927e-002
         - 2.7220417346827629e-002
         - 1.5914809086066681e-001
         - 7.2348357828007998e-002
         - 7.0437113149898445e-001
         - -7.3117092264509853e-001
         - 4.6981761116626086e-001
         - 2.8483059011645911e-001
         - -1.7744034927504440e-001
         - 2.3074285384198820e-001
         - -4.7527864405498932e-001
         - -3.2654602176161651e-001
         - -4.3925281319005399e-001
         - -5.3430047580781748e-001
         - -6.9867969041045430e-001
         - -2.0167839326141451e-001
         - -6.2084161778251268e-001
         - 5.5558736690378274e-001
         - -2.4052399960572957e-001
         - 2.0728388848343421e-001
         - -5.5512962509050823e-001
         - 2.1499362481613743e-002
         - -2.0695321651420237e-001
         - -1.9952647543900745e-001
         - -3.0382567412031702e-001
         - -7.8111740981111788e-002
         - -3.1994867454357401e-001
         - -5.6632012508290153e-001
         - 3.7509701346964547e-001
         - 7.9743178088788358e-001
         - 1.6650292228525918e-001
         - 3.3193528002887895e-003
         - -7.7856629200834693e-001
         - 3.7703800477864635e-001
         - 5.5284614901141693e-001
         - -2.6333890718060034e-002
         - 9.5123002593546419e-002
         - -3.0220817731196324e-003
         - -4.5160883893079828e-001
         - 1.9481378723831738e-001
         - 8.2085534696951887e-002
         - 7.4279563021559347e-001
         - -5.4086585244075158e-001
         - 1.3131701512083943e-001
         - -1.7411354295339113e-001
         - 3.4802723871495261e-001
         - 3.8074865935930319e-001
         - -1.5354318224612945e-001
         - -1.5947885289875552e-001
         - -4.2554124982022951e-001
         - -7.7851443868825421e-002
         - -4.4102837794391442e-001
         - -3.9263314687268197e-001
         - 2.3836534890108890e-001
         - -6.9101212519553556e-001
         - -8.0268937269435525e-001
         - -9.8228268346552983e-001
         - -2.1156254799916499e-001
         - 1.2643572255710994e-001
         - -5.9741601483302965e-002
         - 3.3834783208970270e-001
         - 1.0777212198722308e-001
         - -2.4159509264608681e-001
         - -5.1440853534320219e-001
         - 5.3706920661574853e-001
         - -3.8711846811351452e-001
         - -3.7329654609393148e-001
         - -3.8050885720456407e-001
         - -3.6527249622787840e-002
         - 9.4966527625147279e-001
         - 6.4442704576828169e-001
         - 3.3507103613476544e-002
         - -5.5093273029454803e-001
         - 3.5006950076976101e-001
         - -5.3029243612629329e-001
         - 9.9046484191531864e-002
         - 3.6606581821235652e-003
         - 1.7938649982890917e-001
         - -9.3555322307632804e-001
         - 5.1792656859597397e-001
         - -3.2736088759438731e-002
         - -4.8884316500600272e-001
         - -7.4506818187876900e-001
         - -3.7078659653049673e-001
         - 1.6102604116898894e-001
         - 1.7616090553558297e-001
         - 4.8381446961796287e-001
         - 5.7071081445211314e-001
         - -2.5405462562175324e-001
         - 2.1197609122926320e-001
         - 2.2406229221272278e-001
         - 8.6740679503699414e-001
         - -2.5133600382208110e-001
         - 6.9543135308077075e-001
         - -3.3262645318986450e-001
         - 2.6207956338058425e-001
         - -8.0863755060424248e-003
         - 3.9685832705089635e-001
         - -1.6500167020882928e-001
         - -1.4047891751763594e-001
         - -9.4318672866119516e-002
         - 1.7578739180599337e-001
         - -3.3653347666217953e-001
         - 4.4003311452513222e-001
         - 5.0185238507969288e-001
         - -1.3515761986232638e-001
         - 3.4289863769981797e-002
         - 4.7324561356654860e-001
         - -3.8115934916122757e-001
         - 3.6137567731005577e-001
         - -1.0450262545075538e-001
         - 2.5313509735605882e-001
         - -3.3781583444760549e-001
         - -3.4949102590105968e-001
         - 1.2822462532766150e-002
         - -2.5342253825589887e-002
         - -7.7480603970652384e-001
         - -5.0901972399046052e-003
         - 6.8215574537988344e-001
         - -9.2855839178775837e-002
         - -7.7016468372474434e-001
         - 1.1920018347694353e-001
         - -1.4995239212978856e-001
         - 1.2855259197223270e-001
         - 7.7254154825177279e-002
         - -4.6232054171387801e-002
         - -4.8541791057090206e-001
         - -3.7024319693683194e-001
         - -1.0830226021296332e-001
         - 3.9591310943934915e-001
         - -1.1930267784037513e-001
         - -4.3727445240380095e-002
         - -1.1427570417946213e+000
         - -1.5300808589041751e-001
         - 4.3224556436219058e-001
         - 1.8205484630388610e-002
         - 2.1577059172582830e-001
         - 8.9832157613377361e-001
         - -3.1711648446044471e-001
         - 3.9956351689070707e-001
         - -2.3347556051728166e-001
         - -4.3021395213156649e-001
         - -3.3793887614445356e-001
         - 3.2962710377021198e-001
         - -3.3618761765217314e-001
         - 6.0181904818143173e-001
         - -7.0616472714757672e-001
         - -5.9778740350791082e-001
         - 2.8102850398598700e-001
         - -6.4382778025182530e-001
         - -3.2280271780767272e-001
         - 7.5143237502942706e-001
         - 5.3651323275955021e-001
         - 5.8587339286227995e-002
         - -1.2293810887156700e+000
         - 3.6480679411643718e-001
         - -2.0427631086008903e-002
         - 1.4638068136350854e-001
         - 4.5577911557648024e-002
         - -4.8358892542900406e-002
         - 4.0787389137542665e-002
         - 1.6115242662495532e-001
         - 1.9055967666066428e-001
         - -1.0966925250067889e+000
         - 8.4026348310789900e-001
         - 2.3091300625855465e-001
         - -7.8788312864785026e-001
         - -1.8132801790474373e-001
         - 2.6253268105728123e-001
         - 4.2914162563772962e-001
         - 5.3079352603425800e-001
         - 1.4390849418271046e-001
         - -4.8509524217523214e-001
         - -3.8447978036161269e-002
         - -8.6378760112642075e-002
         - -7.7699559813316749e-002
         - -3.2923047883313039e-001
         - 5.6587093337505645e-001
         - -7.2481028120553392e-001
         - 1.0159615545441082e-001
         - 7.5600186760430099e-001
         - -2.4298386604405259e-001
         - -1.2275063751967454e+000
         - -2.8119208571624282e-001
         - 7.2295825828107799e-002
         - 3.8307254350046788e-001
         - 1.1845908489325201e+000
         - 6.2679288758517393e-001
         - -6.0039636736406277e-001
         - 4.4891502963062258e-001
         - 1.1434295339873159e+000
         - -6.9211650139484138e-001
         - 5.7842324591251626e-001
         - 4.9758489539300017e-002
         - 9.1870796990558320e-002
         - 1.2039836518786193e-001
         - -1.5609473607997024e-001
         - 8.2166175717804046e-002
         - -1.0984758730237409e+000
         - -5.9305354506427529e-002
         - 2.0698776045555264e-001
         - -4.2606515531999989e-001
         - -2.7037397430490134e-001
         - 5.4839733186510453e-001
         - -4.5476517241835429e-001
         - 1.0794289596223392e+000
         - -6.0345100535066143e-001
         - -4.7536657237946582e-002
         - -2.3103702816441835e-002
         - 8.1457852217587376e-002
         - -5.9063699930122437e-001
         - -4.2804588472686933e-001
         - 1.7864969677139523e-002
         - 1.2783258567167843e-001
         - 2.6227634245700898e-001
         - -1.8225101982821407e-001
         - -3.6084221027861879e-001
         - 5.1615138102300395e-002
         - 1.4975119414341675e-001
         - -1.1473687550195522e-001
         - 1.0853355244565661e-001
         - -2.7463434950171101e-001
         - 1.3936144653989889e-002
         - -1.5754921891587606e-001
         - -7.0934400856692870e-001
         - -3.0596626970091445e-001
         - -5.2508541949497811e-001
         - -3.0521186327655403e-001
         - 1.2801402664076886e-001
         - 2.5778754359956285e-001
         - -2.3035734485504275e-001
         - 6.3916906432866805e-001
         - -5.3947254004484180e-001
         - 4.8547548995989342e-002
         - 4.4590811141361963e-001
         - -2.6353313407694734e-001
         - -1.7728526845787293e-001
         - 1.8790432100416493e-001
         - 5.9316852476544679e-001
         - -3.3464400476177958e-001
         - -6.1557198490600862e-001
         - 1.0007865134426674e-001
         - -2.6676324487802355e-001
         - -1.2309226520919689e+000
         - 7.1166881094485590e-001
         - 7.2588648120690202e-001
         - -2.9551168970344455e-001
         - -4.6441774782711186e-002
         - -4.9312408276892855e-001
         - -5.9685739310709340e-001
         - -6.0388744539405681e-001
         - 4.9206552607730358e-001
         - -7.2015848480346478e-002
         - -9.7863159441282632e-001
         - -3.6433826698587640e-001
         - 1.5495296787844509e-001
         - 3.5832357574279265e-002
         - 8.6914498835186227e-001
         - -8.0537119420684672e-002
         - 1.4417820061940595e-001
         - 4.4378169657290273e-001
         - -2.9890626315734070e-001
         - 1.5181361188697173e-001
         - 5.0586067703613458e-002
         - 7.6604187641516064e-001
         - 4.5688431612806135e-001
         - 8.0286222716563924e-002
         - -8.5343586324719256e-001
         - 6.8199229162946640e-001
         - -4.0886519440283503e-001
         - -7.9487355983590011e-002
         - 1.7071371178932951e-001
         - 1.3749821041201596e-001
         - -4.7933539983096501e-001
         - -6.4035172238977833e-001
         - 2.8370497949952037e-003
         - 5.5031542271972633e-001
         - 7.6313015607815537e-001
         - -7.0748439893060333e-001
         - -3.3514446911049328e-001
         - -2.4837364170954562e-001
         - -5.1265376074702322e-002
         - -1.9275414911864877e-001
         - -5.4705723318399435e-001
         - 1.0874615607284266e-001
         - -1.5029068803361600e-001
         - 2.9914215314608900e-001
         - -4.4151287586452553e-001
         - -9.0386298220246830e-001
         - 2.4833074878155392e-001
         - 3.8453899212193104e-001
         - -7.2978535672260292e-001
         - 5.6574263558776994e-001
         - -9.5115631703871284e-001
         - 6.9852783513468253e-001
         - 6.8556737184513117e-001
         - -6.2172749412030903e-001
         - 4.8951822190134830e-002
         - -2.0151169945269403e+000
         - 1.2975013734064897e-001
         - -8.3433909683170726e-001
         - -6.8465820792369780e-001
         - 6.0796469133491515e-002
         - 1.8899016591274284e-001
         - -6.5451294186304465e-001
         - 1.7280654707545422e+000
         - -2.3648633959481236e-001
         - 3.8176867333960723e-001
         - 1.3818118793284012e-001
         - 3.9337261873499990e-001
         - -1.0334295656307408e+000
         - -3.1965303684650959e-001
         - 4.9934395504629142e-001
         - -9.7208539827658746e-001
         - 7.0274355536441857e-001
         - 2.1913301211827448e-002
         - 9.0814002489581713e-001
         - -4.0118150148475973e-001
         - 5.5234663563674424e-001
         - -6.0416838123846872e-001
         - 2.8608453179957255e-001
         - 7.5087483452484574e-002
         - 2.9330854472793472e-001
         - -3.3854465757976515e-001
         - -3.1054875370346141e-001
         - 8.8708719382870435e-002
         - -5.3395870015036562e-001
         - 5.8409990687005209e-001
         - 1.4829076107274701e-002
         - -3.3307846881952913e-001
         - -3.5931115864585739e-001
         - 6.6036212175111531e-001
         - -5.3318073005100365e-002
         - 1.4887194488363190e-001
         - 1.2813711117580573e+000
         - -7.9477966476059991e-001
         - 4.0611599767673112e-001
         - -9.6670403358074886e-001
         - 6.1596245605208499e-001
         - -6.2497311343244144e-001
         - -9.4210219002893392e-001
         - 1.1468128773791488e+000
         - -4.9606893871259250e-001
         - -3.9801657028243759e-001
         - 6.4725256241501627e-001
         - 5.1432778529577361e-001
         - 4.9310404141578035e-001
         - 3.6392018168468593e-001
         - 2.1317327301629857e-001
         - -9.8145536813586221e-001
         - 3.0096244297430085e-002
         - 4.8009075942349583e-001
         - -7.8239009428659845e-001
         - -3.7930388557050193e-001
         - -2.1152684887689716e-001
         - 3.4245037927782024e-001
         - 7.2573865817933381e-001
         - -2.9548593360592718e-001
         - 3.1530104788967683e-001
         - -2.2439209935039697e-001
         - 7.5980926399158122e-001
         - 6.2430084847567846e-001
         - -7.9134488548222071e-001
         - 7.8922441131424284e-002
         - 3.5540719883562205e-001
         - -2.3197340294655350e-001
         - 2.7635993211645454e-001
         - 3.6227589544693634e-001
         - 7.8971204285857921e-001
         - -7.5171181900719947e-002
         - 1.1767196159626918e-001
         - 4.8367709319104335e-001
         - 2.7563277182347734e-001
         - -3.6054312284739415e-001
         - -7.2454413412914143e-001
         - -1.2916059068969546e-001
         - 1.1931958719618369e-001
         - -9.0743338327448110e-003
         - -6.5222982808278462e-001
         - -5.0125934262417438e-001
         - -2.6400201305947352e-001
         - 8.8832790172866272e-001
         - -5.4985792636641544e-002
         - -1.1587481456307094e+000
         - -1.0626893208309862e+000
         - -4.8628610930905675e-001
         - -5.3970151759390261e-001
         - 3.1002358332947083e-001
         - 1.7341442014605096e-001
         - 3.8597891524469680e-001
         - -9.7876066993011701e-001
         - 2.2883952072140468e-001
         - -7.5062213838227976e-001
         - 4.9902487523241518e-001
         - -1.2385444348488037e+000
         - 3.6177638996317024e-001
         - -4.7165558145734920e-001
         - -2.9779224465963941e-002
         - 1.4398169515348460e+000
         - -2.1496136624439579e-002
         - 5.0273632662632484e-001
         - -1.6338662034808329e-001
         - 1.2008299916518925e+000
         - 3.5421709486245490e-001
         - 1.4863989751924289e+000
         - -1.5217235142735046e+000
         - 4.3993283737202343e-001
         - -7.5811895038564314e-001
         - 2.1329767086067558e-001
         - 5.7861842414979925e-001
         - 1.1170159700184397e+000
         - 2.9489260102378861e-001
         - 1.4603293128706529e-001
         - 1.0378124771726824e+000
         - 3.2024504728457032e-001
         - -5.7683551911931674e-001
         - 1.3201577910940064e-002
         - 4.3213504178197099e-001
         - 7.0872955245034647e-002
         - 4.3342475547004683e-002
         - -5.2506367261518472e-001
         - 2.5216803299374058e-001
         - 1.4127296312184874e-002
         - 4.2647795025256929e-001
         - 5.8555179028890980e-001
         - -3.4587742832990792e-001
         - 1.8980576970510457e-001
         - -7.3357248579579182e-001
         - 3.8516603119590898e-001
         - -8.2050284698880274e-003
         - -1.9806742870667013e-001
         - 1.5279707615062732e+000
         - -5.1750703098441231e-001
         - 2.2741610462574441e-001
         - -1.1218707560542349e+000
         - -1.4976168395686848e-003
         - -2.9059077650876325e-001
         - 8.4472073031724659e-001
         - 1.7940708676352374e-001
         - 3.8457508504951826e-001
         - -4.6035367349740069e-001
         - -1.0562013197804487e+000
         - 4.5562678678463547e-001
         - 5.7569986831420970e-002
         - 9.8187896315558898e-001
         - -5.8986509930962459e-002
         - 6.5983914369555630e-001
         - 2.6388953388682368e-001
         - -1.2999665247159282e+000
         - 2.1772224695252410e-001
         - 2.1283322922264231e-001
         - 4.3623371968052532e-001
         - -1.1405996297146079e+000
         - -4.6405439604478516e-001
         - 1.1798854357138553e+000
         - -1.9639423466677494e-001
         - -1.5633920121602651e-001
         - 5.2414831213171398e-001
         - -3.9418329389353796e-001
         - -7.5806060188499358e-001
         - 5.0023869463674886e-001
         - 1.5678352296320971e-001
         - 1.9899523749649917e-001
         - 4.3625633836896732e-001
         - 8.1421061042106480e-001
         - -2.2261086463547491e-002
         - 2.4578922561304443e-002
         - 1.9588177138350582e-001
         - 7.6265158393785371e-001
         - -4.2078957512662517e-002
         - -2.4480966869370385e-001
         - 6.7329287007956584e-001
         - 6.3898150342193349e-001
         - -3.7431972153062272e-002
         - 2.5264347775267107e-003
         - -2.4485990392188983e-001
         - 3.6574546360543303e-001
         - -4.9617812889315371e-001
         - -1.3346922557493397e+000
         - -3.6726704840941099e-001
         - -1.0047886515917233e+000
         - 1.5976300925525552e-001
         - 6.2092976461455662e-001
         - 2.8460493806186475e-002
         - -1.9971723518899091e-002
         - -9.5549562492682394e-001
         - -1.7121260465372753e-001
         - -1.3872980871742135e-001
         - 9.2909459732126520e-001
         - 6.7665190184019286e-001
         - 8.4851851561001876e-002
         - 2.8247876994879395e-001
         - 2.4379198498515506e-001
         - -9.1460624145630220e-001
         - -2.9310779594302971e-001
         - 7.8841241578302051e-002
         - -3.1124754515585051e-001
         - -1.7450495622163839e-001
         - 1.2207480791174315e-001
         - 3.6590926030097720e-001
         - 4.5980930665990738e-001
         - -1.3418672464402473e-001
         - 3.0696373302624436e-001
         - -4.2042173879561723e-001
         - 7.0333985303064617e-001
         - -6.7052146539153701e-001
         - 2.4894448626873850e-001
         - -3.0341897515438815e-001
         - -3.5133825854851947e-001
         - -2.1725562739352197e-001
         - 4.8229139749607408e-002
         - -5.7778188912419848e-001
         - 3.7518175080955718e-001
         - 6.8193434915655216e-001
         - 5.1554963039483948e-001
         - -3.5322994799215503e-002
         - 4.0267844261274771e-001
         - -4.7436728091955327e-001
         - -4.7877206207511441e-001
         - 3.5010554244413059e-002
         - -2.3496567038743726e-002
         - 1.9107691431263749e-001
         - -1.9470042656431336e-001
         - 4.5925798706319682e-001
         - -6.4738042209705235e-002
         - -2.9869575297650303e-001
         - 4.7271218637191786e-003
         - -6.2100140665121195e-001
         - 2.0955030741768124e-001
         - 5.6031505698409000e-002
         - -9.3577265404208104e-002
         - 2.6782814922305437e-001
         - 1.2706415666497325e-001
         - 8.7933953918872654e-001
         - 1.3408003972683991e-001
         - 6.6485202250084516e-002
         - 1.4018869712689824e-001
         - 1.7929248439112014e-001
         - 1.5824568398314615e-001
         - -1.1217016817148827e-001
         - 1.1170429574145528e+000
         - -2.8841786910167116e-001
         - -4.8280861676769532e-001
         - -1.4021279744892103e+000
         - 7.5340082283556120e-001
         - 3.4910353073786343e-001
         - 9.4262717890223904e-002
         - 8.5732030288413946e-002
         - 1.3357503179840277e-001
         - -3.0539897471619798e-001
         - -1.7510506760155967e-001
         - 2.5488912614069392e-001
         - 7.6603497277055829e-002
         - -5.8290920732726237e-001
         - 1.5785758199590008e+000
         - -1.3116097597450310e-001
         - 2.1814420423395742e-001
         - 3.3578483348603438e-001
         - -4.9575494399649245e-001
         - -1.7627012375491855e-001
         - -8.2975250955166682e-002
         - 1.5846102584015923e-002
         - 4.6295861388411957e-001
         - -8.9159315764425401e-002
         - 5.1610803144065009e-001
         - 4.2083813266570286e-001
         - 1.6636730706830244e-001
         - -3.1341939706325789e-001
         - 4.6945098241316680e-001
         - -3.5724193316325920e-001
         - -4.1072942885719904e-001
         - -1.6733247206954877e-001
         - 1.6592861634257475e-001
         - -8.6994737103337139e-001
         - 1.1158491353147344e-002
         - -3.6365620807948251e-001
         - -7.0766033278094526e-002
         - 2.7302105162471152e-001
         - -9.5104737020170749e-002
         - -1.9581200950909364e-001
         - 7.7905557951749721e-002
         - 9.1814552233933592e-003
         - -4.2847373785972048e-001
         - 5.1307059070065320e-001
         - -1.4608625864776553e-001
         - -1.2886044578020159e+000
         - 1.9149416710560821e-001
         - -5.3127430631072836e-001
         - 4.3973363698905227e-001
         - 5.3438887551577552e-002
         - -1.0626630642241092e-001
         - 3.9809395857087404e-001
         - -2.9526703083960187e-001
         - -1.0292194099135761e+000
         - -4.1220197258799945e-001
         - -3.2708569181548369e-001
         - -6.3290509145805396e-001
         - -3.6087894341676974e-001
         - -5.0184311980207152e-001
         - 1.1868369730215682e-001
         - 1.6085173906315292e-001
         - -1.0527422608547950e-001
         - -2.7021773905660978e-001
         - -5.6238645612756699e-001
         - -1.2378331060197081e+000
         - 9.2820232812344250e-002
         - 1.2468092833131411e-001
         - -5.8029679278286381e-002
         - -3.0899425891371857e-001
         - 3.4943765713993624e-001
         - -2.4159162514466426e-001
         - -2.6544377294418059e-001
         - -1.6896079561398025e-001
         - -4.3754161273404486e-002
         - 5.5418800092714804e-001
         - -3.9138257919477962e-002
         - -4.0251018032897636e-002
         - -2.2158109014331417e-001
         - -6.8304706233120727e-001
         - -2.6522168421489484e-001
         - 2.3222200148647318e-001
         - -1.3923552049634524e-002
         - -1.4391460396776776e-001
         - -1.6371797477547620e-001
         - -2.5223281359886585e-001
         - 1.2523261102823588e-001
         - 2.1942551861384434e-002
         - -2.0937652159351697e-001
         - -4.3857582937944484e-001
         - 5.7852058446589251e-003
         - 1.9603275941154494e-001
         - 6.6146676784024180e-002
         - -1.5187997134508389e-002
         - -1.8280970128650817e-001
         - -1.4867627544916295e-001
         - 3.1236074588694240e-001
         - 2.4019703726733432e-001
         - -3.2680875434475720e-001
         - -5.4429991587877513e-001
         - -9.5960822003959806e-002
         - 7.9856550755383693e-001
         - 1.1742278499821272e-001
         - -2.4208828782821654e-001
         - -5.4572058489116892e-001
         - -6.9845979384649159e-001
         - 1.5792623599303757e-001
         - -7.7876164859209318e-001
         - -5.3690327114074754e-001
         - 3.1055362814574644e-001
         - 1.9581040020788715e-001
         - 2.3354108451197819e-001
         - 2.6820040158224129e-001
         - 3.0600074414602052e-002
         - -5.6545473010289449e-002
         - -8.4613437086530578e-003
         - 4.4468275398118395e-001
         - -2.9313406052424112e-001
         - -5.2640536210707453e-002
         - -2.9098338527382733e-001
         - -3.0180653533161383e-001
         - 8.5305780269219089e-002
         - -1.8195085664284982e-001
         - 1.0964746353828081e-001
         - -1.0993882932998595e+000
         - 4.6637017656062973e-001
         - 2.4427514722448065e-001
         - -5.5034816742198700e-001
         - 1.9485571857009315e-001
         - 7.4964160676916206e-002
         - -4.9893049439626980e-001
         - 5.9460754283652650e-001
         - 9.4746704235305568e-002
         - -7.2437332383533407e-002
         - -4.3740611395919277e-001
         - 1.3879697077794270e-001
         - -4.9903047417292673e-001
         - 1.0946723798874408e-001
         - 1.9828471707186587e-001
         - -2.6590563772961384e-001
         - -1.4891159078772037e-001
         - 7.0922048087637435e-001
         - 2.5352859696047697e-001
         - -8.3529815634247873e-001
         - 3.1569314765765133e-001
         - -6.9711810551629103e-002
         - -4.3816794303552054e-001
         - 8.4366414272372381e-001
         - 6.0510336167848899e-001
         - 1.1615673171970289e-001
         - 1.7030415007453581e-001
         - -4.3136226229425001e-001
         - -3.2392673552665652e-001
         - 2.3814182243845761e-001
         - 1.0346617655021897e+000
         - 1.7217195295775273e-001
         - 9.7814139822894094e-002
         - -1.5667898610292944e-001
         - -1.1465154531593610e-001
         - -6.3377322073243847e-001
         - 5.4050924591794636e-001
         - 2.3170750338270782e-001
         - 3.3216385240809367e-002
         - 9.8724575791280036e-002
         - 2.6329048146894007e-001
         - -8.5222033814560105e-001
         - -2.4306103899261636e-001
         - 7.3023556434120651e-001
         - 1.8387646565556287e-001
         - -2.5008510044418630e-001
         - -1.7850820793850855e-001
         - 1.5821117088361844e-001
         - -2.4604043780379561e-001
         - -6.3561958507028993e-001
         - 3.5751175787472816e-001
         - 2.8198340671434363e-001
         - 1.5281738410671142e-002
         - -2.6748568410354590e-001
         - -5.7542024593885660e-002
         - 4.3944277425386763e-001
         - -7.1908768430051373e-001
         - 3.8208961310973916e-001
         - 8.9884409506862481e-002
         - -1.5152792674920837e-001
         - -4.9411744796838009e-001
         - -5.6114353375475845e-001
         - -1.1325687329162698e-001
         - 1.0260879434693024e-001
         - 9.5956673539544485e-002
         - -1.6845429184210747e-001
         - -3.8783457200542139e-002
         - 6.8413475364289134e-001
         - -3.5437262204376618e-001
         - 6.3512448800261745e-002
         - -5.2674619300166281e-001
         - -5.6443047009833502e-001
         - 8.2074680028454894e-001
         - 7.2282555901028833e-001
         - -1.0674707363054221e-001
         - 1.8143436336374683e-001
         - -2.9944732737634661e-001
         - -1.7260836749278813e-001
         - -3.5076182673253314e-001
         - -1.0732426979738194e+000
         - 2.0802881241860782e-001
         - 1.3091343685943324e-001
         - 2.5727112364178517e-001
         - -3.5391517224537733e-001
         - -9.5220725781650029e-002
         - 2.2236449225371997e-002
         - -6.7548947491416722e-001
         - 7.3404486188763918e-001
         - 3.7450016576154106e-002
         - -3.4303086927688320e-001
         - -2.3576738472409334e-001
         - 2.1869212984375078e-001
         - -6.5643312715024515e-001
         - -5.1556469793338977e-001
         - 3.8561043540532991e-001
         - -3.1423241505525956e-001
         - 1.4563416683989810e-002
         - 1.9960660091898802e-001
         - -2.6945033064440949e-001
         - 4.8242065697925753e-003
         - 1.2313927269503866e-001
         - 4.7867220761854185e-001
         - 1.9784710341271719e-001
         - -2.3176434346224774e-002
         - -4.0353845676398735e-002
         - 4.1688379693670313e-001
         - 2.8438533439037617e-001
         - -8.4780347672644210e-002
         - -1.5519631754293778e-001
         - -5.9605576175509456e-001
         - -2.6623458321183874e-001
         - -2.2459243410481861e-001
         - 2.3148930933460729e-001
         - -2.7049990854200007e-001
         - -2.6846631454401121e-001
         - 2.0331986848239231e-001
         - 4.0807814977355256e-001
         - 4.2682223993033780e-001
         - -3.0870178533580578e-001
         - -2.6145072121772073e-001
         - 3.7552531156385571e-001
         - 2.7034035367773596e-001
         - -1.0911128637262735e+000
         - 3.1282803614637605e-001
         - 1.7163372840068132e+000
         - -4.9547218488649469e-001
         - -4.3831625231820248e-001
         - 4.1426071064968130e-002
         - 8.5103816137986299e-001
         - 1.0661557702823845e+000
         - 1.4012591855298502e+000
         - -3.4625013156351014e-001
         - -6.3861221527083137e-002
         - 4.0437409908941457e-001
         - 9.8818438432014793e-002
         - -1.5558522280209888e-002
         - -2.8062992223973043e-001
         - 7.9450727024751852e-002
         - 6.1732978679548445e-001
         - -1.0319935040998553e-001
         - -4.9205046227906619e-002
         - -6.7516857302019251e-001
         - -8.8370946528398564e-001
         - 4.5192126409829392e-001
         - 4.8053754035785379e-001
         - -3.3340335775358176e-001
         - -5.9842967564031499e-002
         - -7.6732302652915130e-001
         - 3.0938475747577278e-002
         - -6.4562578402186199e-001
         - 7.3406024938767189e-001
         - 5.4024750184300557e-002
         - -2.4763148421759423e-001
         - 1.0432093905016939e+000
         - -1.0054997991057507e-001
         - -1.4613273328073892e-001
         - -5.6892324344643164e-001
         - 8.5496218051781903e-001
         - -4.9171863259739734e-001
         - 4.3806960035948900e-001
         - -2.8809096197729978e-001
         - 3.7612600803342555e-001
         - 1.6094832246787219e-001
         - -7.6073338095298959e-001
         - -8.4971712891911383e-002
         - -6.5281734360419774e-001
         - -9.1122114213972264e-003
         - 5.5833399183626764e-001
         - 6.0066551056407924e-001
         - 3.7043659877170509e-001
         - -6.4562353572792375e-001
         - -2.1321208409289555e-001
         - 5.7479441222683177e-002
         - 4.7684909458417174e-001
         - 2.1790376442655052e-001
         - -4.0956777202833985e-002
         - -6.7606871303841978e-002
         - -3.0796490666622783e-001
         - 6.7260514699422280e-001
         - -2.6110333609212555e-001
         - 1.2941509591300135e+000
         - 3.9888023219252927e-001
         - 3.5838796916582219e-002
         - -1.1076622096192733e-001
         - 2.7916890832184432e-002
         - -9.1355023989056960e-001
         - -1.9795407543801805e-001
         - 2.6783684781471917e-001
         - -7.1083716509591929e-002
         - -6.2947792534671876e-001
         - -1.5973103305226702e-001
         - 8.1991220680494892e-001
         - 4.2056577050458482e-001
         - -6.7897907517885006e-002
         - -2.2966131860466824e-001
         - -4.0543204302214464e-001
         - -3.6115619109995716e-002
         - 5.1215123102133175e-001
         - 4.9884859809937920e-001
         - -4.0969150140872934e-001
         - -2.8287189456797129e-001
         - 1.8669498458597094e-002
         - -5.9036868992003146e-002
         - 7.9911996074979202e-002
         - -2.1205564867562934e-001
         - 1.0917451266324643e+000
         - 2.3236915655043901e-002
         - -5.3135652202848616e-001
         - 9.1146683598089817e-001
         - -2.0568189967632167e-001
         - -3.6912783530105286e-001
         - 5.8177572020073420e-001
         - -4.0156590261816102e-002
         - -4.5927693670588499e-001
         - 1.6556951951677057e-001
         - 5.6611153237506007e-001
         - 8.0248536639897311e-002
         - 1.7645224906379528e-001
         - -1.0884787039811281e+000
         - 5.8621312981744091e-002
         - -1.1040199992386471e-001
         - -4.6561732204215146e-002
         - -8.5761697794632122e-002
         - 4.8872930689882232e-001
         - 3.2625288219904472e-002
         - -6.4225011304070068e-001
         - 1.8438713984580626e-001
         - -6.3885256714916527e-001
         - -4.1096023770550494e-001
         - 5.6656539366500475e-002
         - -1.9460879091278663e-001
         - -1.1940755755586667e-001
         - 1.9271162889905705e-001
         - -5.4555600179524677e-001
         - -5.4234262600159633e-001
         - 1.1746595563903734e+000
         - 5.3282630715142665e-001
         - -8.3358823090854239e-002
         - 1.0354168237817037e-001
         - 2.8126414037208558e-001
         - -6.2171418187793925e-001
         - 5.2190930013187031e-001
         - 8.8198876197126911e-003
         - 2.4072324740135753e-001
         - -2.2458937531297246e-001
         - 6.0380920370221872e-002
         - -4.2034267452533115e-002
         - -5.5165327312430168e-001
         - 4.7375722393447556e-001
         - 1.5183003127657704e-001
         - -5.0683470346765702e-001
         - -2.6698366113068916e-001
         - 2.5618161731903893e-001
         - 1.5333029011796376e-001
         - 1.5615438766681812e-002
         - 1.9206407610879184e-001
         - 2.4591057971970681e-001
         - -6.3015536582114451e-001
         - 8.9496748205418752e-001
         - 6.0124195398386027e-001
         - 2.3177189773530354e-001
         - -5.3918443806529714e-001
         - -5.3186743398403784e-002
         - -3.2526698415209448e-001
         - 1.0466450234561327e-002
         - 2.6549525799033052e-001
         - 8.1158497879815814e-002
         - -2.1713088768505923e-001
         - 1.8325404185824590e-001
         - -4.3104967885008366e-002
         - 2.9535737732248213e-001
         - 3.2951534482317074e-001
         - -7.4906487307816016e-001
         - -4.0960415966472757e-001
         - -3.5020464772989757e-002
         - 1.2735469588981307e-001
         - 1.5308883883158994e-001
         - 5.8899291219202554e-001
         - 2.4579816649798089e-001
         - 4.4732305586173099e-001
         - -7.5769308170553074e-001
         - 1.7952500893975032e-001
         - -9.3385172631464741e-001
         - -8.2771541939027005e-001
         - 3.2400325500657784e-001
         - 6.8709528235403616e-001
         - 3.1338824749490574e-001
         - 7.5947695119967262e-001
         - -1.6363903062529034e-001
         - -4.5265430774721804e-001
         - 9.3361114634768816e-002
         - -1.7363639296693492e+000
         - 1.0203458943159242e-001
         - -5.9408379592537985e-001
         - -7.4639163877883219e-001
         - 9.5915471076901491e-003
         - -4.6579296680079169e-001
         - -3.0551905776362881e-001
         - 5.5545707028192903e-001
         - -9.4431930463212743e-001
         - -2.9405685021616462e-001
         - -2.1128011728219656e-001
         - 1.4736436343222967e+000
         - 2.7348336126922929e-001
         - 8.0674229098965689e-001
         - -3.4472489107684406e-001
         - 5.4302164228778993e-001
         - 4.9588456123230079e-001
         - 3.6520834911286643e-001
         - -4.4208597750551644e-002
         - -7.5919424711754202e-001
         - -1.1324586457062840e+000
         - -1.2021583899655709e-001
         - -2.4248934258042851e-001
         - -1.5822287329789231e-001
         - 5.2995764377116295e-001
         - 7.0338610808146784e-001
         - 5.6124273378747780e-001
         - 1.6602530961822430e+000
         - -1.1002804556586748e-001
         - -1.9864189272218821e-001
         - -1.1293058477181515e+000
         - 3.0357206022005828e-001
         - 5.4779590017967716e-001
         - -1.6424021920243734e-001
         - -5.3022639622668244e-001
         - -8.3932696961777165e-001
         - 4.9612449977720446e-001
         - 2.1955670073973729e-001
         - -5.1950948605479075e-001
         - 4.3060491877160623e-001
         - -6.8610102984783539e-001
         - 2.6784372644904841e-001
         - -2.4336895292681704e-001
         - 5.3146440109244064e-001
         - -1.6262538762507600e-001
         - 4.5872204350760232e-001
         - 7.5541474739792294e-002
         - 5.9960147350949666e-001
         - -5.1900927764701961e-002
         - 8.8143889859028901e-001
         - -9.5606750024324139e-001
         - -8.2791592177888729e-002
         - -5.1845025836216174e-001
         - 1.2059873558596612e-001
         - 6.6995040683338447e-002
         - 1.1124491435296992e-001
         - -2.0676065529928341e-002
         - -3.3458049763660530e-001
         - 3.7778969333083218e-001
         - -9.4826015921068363e-001
         - -3.4305807844654407e-001
         - 1.5254805246062392e-001
         - 1.2200457172456352e+000
         - 3.9867715323436120e-001
         - -3.7472525800276285e-001
         - 8.0782141684811154e-002
         - -4.0654711154264495e-001
         - -4.8643638637371717e-001
         - 2.0787142099287234e-001
         - 1.1835166394923821e-001
         - 6.1247260846179430e-001
         - 3.4468529060773373e-001
         - -9.0346542186205092e-001
         - 6.5959476766080227e-001
         - -4.7660509037226761e-001
         - 1.2725587742325878e-001
         - 3.9435240677868211e-001
         - -3.5419866513345782e-001
         - -8.7516335764517883e-001
         - 3.3824105895140621e-001
         - -1.6148040039076869e-001
         - 5.3180175959557663e-001
         - 5.0502163611606921e-001
         - 6.8984883555342025e-001
         - -7.3116924637283101e-002
         - 3.4005738163328881e-003
         - -2.4066193557056290e-002
         - 6.7436230122958518e-001
         - 3.5150656785416146e-001
         - -3.5637312414889832e-001
         - 7.9628061808105000e-001
         - -1.1098170038119499e-001
         - 7.1249211952785496e-001
         - 1.7909563339770387e-001
         - -1.0074483519357960e+000
         - 6.4008472367783920e-001
         - -1.7489511242851952e-001
         - -5.1642460123038758e-001
         - -2.8279113926785682e-001
         - -8.3569966126157025e-002
         - -7.3278232993170833e-001
         - -4.5006440994263058e-001
         - -5.3006466483329173e-001
         - 1.2980188158990880e+000
         - -8.5202228852132700e-001
         - -1.0442287240786431e-001
         - 4.9749876809968419e-001
         - -5.9836516783477978e-001
         - 3.8869569372914370e-001
         - 9.7184134801679978e-001
         - -6.1264640758690359e-001
         - -2.6179006415639633e-001
         - 3.3165031232448405e-001
         - -8.4960627931736898e-001
         - 2.4178652552259303e-001
         - -8.6795199957937649e-002
         - -2.5905373287732353e-001
         - -1.5160147266983229e-001
         - -5.3312492525854327e-001
         - -4.8415673151639069e-003
         - 6.4887902393083854e-002
         - -2.2168451628150890e-001
         - 1.5647719881749957e+000
         - 5.1055771197156086e-001
         - -2.6450039625005184e-001
         - 8.3893973454619630e-001
         - -1.1815706483906636e+000
         - 2.2161651150955408e-001
         - 6.5056888154976222e-001
         - 1.6221399708623357e-001
         - 3.4615457430321045e-001
         - 2.3903616906109099e-001
         - -1.3037496358854561e-001
         - 2.6020480298546195e-001
         - -4.6829783964208248e-002
         - -3.9597161291664085e-001
         - 8.0523858241444535e-001
         - 3.2530216941637813e-001
         - 1.0279751942290731e+000
         - -4.5965192481028361e-001
         - 2.2995622098235530e-001
         - 5.4259384041058324e-002
         - 2.2165076807194670e-001
         - -2.8736998138007169e-001
         - -9.5492775904343885e-001
         - 1.1427912024837326e+000
         - -1.3856441246351636e-001
         - -1.6781491063979348e-001
         - 4.8585662842843164e-001
         - 1.5026165263545188e-001
         - -7.1410765379576902e-001
         - 2.8627511541420259e-001
         - -3.0043827833084374e-001
         - 4.9609025172826854e-001
         - -5.9273342755489275e-002
         - -9.3793860074157576e-002
         - 2.2531237621713812e-001
         - -5.9020035699237960e-001
         - 2.2215847391749299e-001
         - 4.1266599323893022e-001
         - -2.6212033518069211e-001
         - 1.1544282683542417e-002
         - 5.5992703859535564e-001
         - -4.6258894113456828e-001
         - 5.7453334366614962e-002
         - -2.7307534971144326e-001
         - 1.0511219135951999e-001
         - 2.1738157501443878e-001
         - 6.1351510128695597e-001
         - 3.1096902828003575e-001
         - -9.5456433536834084e-001
         - 5.7636078129109279e-002
         - -1.5013778580579934e-001
         - 9.9210641108368003e-001
         - -6.1518962684855912e-002
         - 3.0682134996237997e-001
         - -4.9457617812483079e-001
         - -2.1367952582743380e-001
         - 1.0274727493186935e-001
         - 7.1089328652347683e-001
         - 3.1285181304860599e-001
         - -8.8940377600130835e-002
         - 1.9150363128616818e-001
         - -1.2652678626257161e-001
         - 8.1025778033619808e-003
         - 2.9238881486910206e-001
         - 3.3615296413577078e-001
         - -3.3798819002841984e-001
         - 3.6475094867567442e-001
         - 3.6557387072665753e-001
         - 5.7654388848186555e-001
         - -1.9588133286253703e-001
         - 1.1330494732431382e-003
         - -6.0462827708034897e-003
         - -1.1250590212426274e-001
         - 5.1594805557013868e-001
         - 3.5207119506883372e-001
         - -6.5351085130070707e-001
         - 3.1416849512529788e-001
         - 4.9003567367044765e-001
         - 2.5876002381593410e-001
         - -4.9788210456210052e-001
         - 3.4181401952226137e-001
         - 3.6205495739068122e-001
         - -6.2383272908033460e-001
         - -5.0011809803301964e-002
         - 8.1316099061132918e-001
         - 1.6358327470439704e-001
         - -2.0802480253278945e-002
         - -8.2474341902010562e-001
         - -2.5737226567346544e-001
         - 4.4249540095637335e-001
         - 5.0241678972381199e-001
         - 3.2302797827045199e-001
         - 1.3154327037530106e-001
         - -1.5935614552567992e-001
         - 1.3051833296588626e-002
         - 1.0214607115398096e+000
         - -2.9076128308587251e-001
         - 1.9817780972835761e-001
         - 7.3908005043093716e-001
         - -1.8312232990102026e-001
         - 6.1292812361377047e-001
         - 3.7230025451368376e-001
         - 5.3903054748288624e-002
         - 4.7453600121030798e-001
         - -7.5190152792259979e-001
         - 4.2266960256815977e-001
         - 4.2349757080180178e-001
         - -3.7905130794308262e-001
         - 4.6738093130506203e-001
         - 6.6436954339783794e-001
         - 1.7843067897678654e-002
         - -5.5996527442373878e-002
         - 4.1511880894500995e-002
         - 2.6852246147605840e-001
         - 5.4489934507992233e-001
         - 1.1949286148533270e-001
         - -5.1157043711395100e-001
         - -4.4472550513997611e-001
         - 2.2966040551106087e-001
         - -9.3634497716130846e-002
         - -1.1137553425055441e-001
         - 8.5083422897800479e-002
         - 5.6751390410878966e-001
         - 5.5733343008203207e-001
         - -4.2161368917477510e-001
         - -2.4442615909856164e-001
         - 7.0547497633879519e-001
         - -1.5847630527485038e-001
         - 8.7252838318067572e-001
         - -2.4543703806451343e-002
         - 1.5898464634889298e-001
         - -3.6351554642547906e-001
         - 2.0028883495427915e-001
         - 3.6073601339615136e-001
         - 3.2920262266141664e-001
         - 5.5984506815138439e-002
         - -3.2251265173688792e-001
         - 3.9004748778924564e-001
         - -3.9643260480580989e-001
         - 1.5132149248166651e-001
         - 5.7944058489454282e-002
         - -5.9144482739138804e-002
         - 1.2000113072947113e-001
         - -4.6848926142540742e-003
         - -1.7050049950414531e-001
         - 4.2261209654793808e-001
         - 3.6771279142981436e-002
         - -3.0285269409629924e-002
         - -1.2112247234341332e-001
         - 1.6636772509288031e-001
         - 1.8292594312632010e-001
         - -2.9568982636221880e-001
         - 1.4344615413700265e-001
         - -1.9037963904981803e-001
         - -7.2814907858095324e-001
         - 4.9149027684631696e-002
         - -3.3809149694771320e-002
         - 3.9106561439412289e-002
         - -2.9514782603943218e-001
         - -1.1818570288619629e-002
         - -1.5822452361575498e-001
         - -7.2039169176951690e-001
         - 1.8764800294155334e-001
         - -8.0417084792418783e-002
         - -3.8530953794599299e-001
         - -3.6674135210081554e-001
         - -7.0024086513176176e-001
         - 4.3227350999355657e-001
         - -3.3795631226772010e-001
         - -3.6427425191132107e-001
         - -4.0925664545320767e-001
         - 3.1002874489164622e-001
         - 1.1766441653294404e+000
         - -1.5407417659027445e-001
         - -5.8717419385692382e-001
         - -2.3599876243479735e-002
         - -1.0870739971308672e-001
         - -7.8881316626961440e-001
         - 4.3894240349843766e-001
         - 5.7178982137379875e-001
         - -8.0592550916831998e-002
         - -2.1716697225706641e-001
         - -2.4767489393836389e-001
         - 7.2501424040772144e-001
         - 3.1799173910939460e-001
         - 3.3141979770424046e-001
         - -1.0749774314410632e+000
         - -1.7357337400677548e+000
         - -7.6362015980276599e-001
         - 7.0065834398321569e-001
         - 9.7788630472375049e-001
         - 4.4663834874825803e-001
         - 3.8104132455138252e-002
         - -4.2443021069615960e-001
         - -4.9434630834726344e-002
         - -2.6643965307080842e-002
         - -1.1981061268819108e-001
         - -2.5143130445253098e-002
         - 9.2025050849606838e-001
         - 4.4836326131810217e-001
         - 5.6470736269488930e-001
         - 8.5114144580641329e-002
         - -4.3991867744403174e-001
         - -3.0531709869405826e-001
         - 2.3519214907755501e-001
         - 6.2189781980092040e-001
         - -1.3058439484906292e-001
         - -1.5193748979773307e+000
         - -4.8170046358871571e-001
         - 6.2181264994313246e-001
         - -4.0141379219110224e-001
         - 1.0524231475032850e+000
         - -6.3526473480211143e-001
         - -3.0276536875604143e-001
         - -6.2621100697629573e-001
         - 3.8862171995258116e-001
         - -6.4169544568904535e-001
         - -1.6080168570790740e+000
         - -2.8642733654927222e-001
         - -1.9098986989376562e-001
         - 3.2329605578218767e-001
         - -1.7458024610235520e-001
         - 7.1937054990454452e-001
         - -4.2091166287798076e-002
         - -6.7834362072333987e-001
         - -3.8131616025819681e-001
         - -2.1307000592899977e-001
         - -2.1568122953734106e-001
         - 2.8588965717810827e-001
         - -4.7812897429733237e-001
         - -1.9699474639453612e-001
         - 1.5605450298750589e-001
         - 6.6954603489298742e-002
         - 6.5550136865464437e-001
         - -2.2260880383316153e-001
         - 5.1541221192208342e-001
         - -7.2730683142614849e-001
         - -2.5875644090975680e-001
         - -7.1425588458019418e-001
         - -3.0511788070117334e-002
         - -4.0029791105346002e-001
         - 2.9240614892398764e-001
         - -5.1633251667779756e-001
         - 3.3808765891847636e-001
         - 6.8653824430543153e-001
         - -2.2186757079713446e-001
         - -3.2945223822098114e-002
         - -3.4352167241197051e-002
         - -4.9504892067394191e-001
         - -1.7265369835048675e-004
         - 7.6120645517765859e-002
         - -1.5391622836366325e+000
         - -4.1926246170040005e-001
         - -4.6186399355361679e-001
         - -9.2744504869700872e-001
         - 1.3927978340885205e-001
         - 4.2509026342548724e-002
         - -1.0676188982982042e+000
         - 6.3589389048786735e-002
         - 3.7185837682602874e-001
         - -5.7724196907253722e-001
         - 4.2241071954478998e-001
         - -4.2550879027198241e-001
         - 9.6420816253876065e-002
         - -5.3807369606024125e-001
         - -1.3208808095066704e-001
         - -4.1810314568837564e-001
         - 3.3054237065732611e-001
         - 9.0623386503900050e-001
         - -1.9021385941999917e-002
         - -4.3709194914193472e-001
         - 2.0259428047462269e-001
         - -4.1873053781549069e-001
         - 1.5448411705405701e-001
         - 2.3590305908568851e-001
         - 1.7867194613927129e-001
         - 4.2418143680062531e-001
         - 2.8600353998430983e-001
         - 4.8100813584415258e-001
         - -3.2665221602279015e-001
         - 4.0820152446324964e-001
         - 3.2956429506012144e-002
         - -4.3114398154269812e-001
         - -1.3944939497718253e-001
         - 3.6331243555714038e-001
         - -8.6229127281796894e-002
         - -7.6019061798367404e-001
         - -1.5694488981106685e-002
         - -7.1958766739626845e-001
         - 4.6635178849595499e-001
         - 4.5843738323921235e-001
         - -9.9844941858474465e-002
         - 5.7420682515392299e-002
         - -3.6027637944812002e-001
         - -1.8008921970581213e-001
         - 3.0454749693020278e-001
         - -2.4688911621080117e-001
         - -2.6555696055792810e-001
         - 9.3442227587632343e-001
         - 2.5935048025112062e-001
         - 2.3361358957733799e-001
         - -4.0182967392143176e-003
         - 3.0094394258857393e-001
         - -2.5649372215595412e-001
         - -7.6791712074521470e-002
         - 5.9067132346506603e-002
         - 8.2249690712499768e-002
         - -8.7624264028333368e-004
         - 9.9254561857206058e-001
         - 2.8809537498987325e-001
         - -4.0254670156422623e-001
         - 8.6119764429255466e-002
         - -1.5636856627472492e-001
         - -1.6401566592293332e-001
         - 6.2213814904234854e-001
         - -3.2049717880270318e-001
         - -5.2455953786790588e-001
         - -4.8548662024109879e-001
         - 5.8309449320429607e-001
         - -1.5198410649630917e-001
         - 5.7595925822529266e-002
         - -1.1790759856191885e-001
         - 7.6561474838551802e-001
         - 2.7224870700011389e-001
         - -5.4281491424177208e-001
         - -2.1747423732172935e-001
         - 3.0598439239005976e-001
         - -4.0768477248593948e-001
         - 5.1611894620429732e-001
         - -3.6825383174884485e-002
         - 1.6144867942519892e-001
         - 1.7198436955794580e-001
         - -2.8369157440860654e-001
         - -4.5698399782503887e-003
         - -3.1473590094426707e-001
         - 1.9898563022174645e-001
         - 5.2479044346811637e-002
         - 6.4929293636479968e-001
         - -5.6497343989824908e-002
         - -6.3596922991589399e-003
         - -9.3846023247084431e-001
         - 5.4450669853456080e-001
         - -5.8229745773770547e-001
         - -1.2804362363680927e-001
         - 3.2347816442989380e-001
         - -2.7940624908400119e-001
         - -1.4348291768652549e-001
         - 1.5735069878196004e-001
         - 1.5255306680662664e-001
         - -1.5240331519407385e-001
         - 6.3517389381153333e-001
         - -9.4767200080386316e-001
         - 2.9253103839672295e-001
         - -7.3341925846534262e-001
         - -8.5704089864417976e-001
         - -7.6860760805140829e-002
         - -1.6596862486728600e-001
         - -1.0635391392336833e+000
         - 8.4866003440550308e-001
         - -2.4174979446427966e-001
         - -4.8469728511082005e-001
         - 7.9497363649960984e-001
         - 2.3067632607656111e-001
         - 1.1785032583660425e-001
         - -1.0278070721927059e-001
         - -2.6616580935678014e-001
         - 2.5798719908244150e-001
         - -6.4767659000649902e-001
         - 7.9587359864444973e-001
         - 1.7916909195213473e-001
         - 3.3129395050627569e-001
         - 8.3857715730729435e-002
         - -1.3835157301886383e+000
         - 4.8652555227963479e-001
         - 1.1731364116887673e-001
         - 1.5862082363598790e-001
         - 1.8088576281485810e-001
         - 8.3319902304062929e-002
         - -3.7903501000842704e-001
         - 1.8824217141028790e-001
         - -5.9471364466278420e-001
         - 5.6374011724082085e-001
         - -1.0213596566032626e+000
         - -5.7147447993572686e-001
         - 5.1994274986802935e-001
         - -3.0114976945068378e-001
         - -7.6921612588016675e-001
         - 4.8031726320486895e-001
         - -9.9611473287909036e-001
         - -2.4369478016775395e-001
         - 1.1655304843647030e-001
         - -1.3545734548960362e+000
         - 1.1029474614108010e-001
         - -2.8591218723541850e-001
         - -3.0338846792976126e-001
         - 3.1315091057798394e-001
         - -1.5283545742564757e-002
         - -4.1693948917614360e-001
         - 7.5914006851054108e-002
         - -1.0312534115950062e-001
         - 4.9926279436166149e-001
         - 3.4605111944857048e-001
         - -5.6072891643772171e-001
         - -2.6750413667195588e-001
         - -3.5927560525954960e-001
         - -1.5401919573465728e-001
         - 7.9002334490171577e-001
         - 3.5362598480512608e-001
         - 7.5353824093979282e-001
         - 9.0025581310408787e-001
         - -7.0793878096398666e-001
         - -2.3077676916957807e-001
         - 1.4802070514944307e-001
         - -5.2116790131839852e-001
         - 3.7017949647519027e-001
         - -6.0991096901991471e-001
         - -7.6592863675618306e-001
         - 1.0110432028279495e+000
         - -3.0770965543293594e-001
         - -7.7331613087395279e-001
         - -1.5710519387537261e-001
         - -7.8818762368928119e-001
         - -3.8806513456922254e-001
         - 2.9975493220355871e-002
         - -6.8119906727292248e-002
         - -7.5543290290289244e-001
         - -5.4535253311576248e-001
         - -7.9421223666124674e-001
         - -6.5899825863848094e-001
         - -3.9389816256920318e-001
         - -4.3211855855743060e-002
         - -4.7968488445577434e-001
         - 1.2615670579404374e-002
         - -7.4044309089514315e-001
         - 1.1725074073168549e+000
         - 1.1797460461754574e+000
         - 5.7915991184396519e-002
         - 2.5447024840955568e-001
         - -2.9784192478155380e-001
         - -9.6651005983622418e-001
         - -9.6837633037035065e-001
         - 2.2160747293163982e-001
         - 9.8743791847068219e-001
         - 2.6243187728289946e-001
         - 3.6419471304673751e-001
         - -2.4770971134313477e-001
         - 1.8314396472693711e-001
         - -2.6110337312524451e-001
         - 6.4729606390907923e-001
         - 2.0232435371308899e-001
         - 3.4268064826606137e-001
         - 2.2982170819682368e-001
         - -2.3701074841086567e-001
         - 4.9035165117336726e-001
         - -1.2550202140775091e-001
         - 1.8446882456290992e-001
         - 1.9778361357836005e-001
         - -9.1114324433592742e-002
         - -3.9463030621206396e-001
         - 2.4508279795342324e-002
         - -3.4033967242403868e-001
         - 1.9911399596458557e-001
         - 2.7349092752538512e-001
         - 3.2041360925679579e-001
         - -1.9007717178121875e-001
         - -5.4426658246031567e-001
         - -1.7824995573357164e-001
         - 7.8735024929959740e-001
         - 9.5729126598868997e-001
         - 4.9666841827538571e-001
         - 3.4422946838650775e-001
         - -5.1651728512994821e-001
         - -2.4235359799806724e-001
         - 2.0557299916444652e-001
         - -9.5112242438798400e-002
         - 5.7919342566893996e-002
         - 4.6201854364947176e-001
         - 1.1952335796402676e+000
         - 6.9928952631285901e-001
         - -1.3485636438594135e+000
         - 3.6201697406258426e-001
         - -4.0888452891597193e-001
         - 3.7908499859393940e-001
         - 2.4743759657076966e-002
         - 1.8697827141785928e-001
         - 9.6326051984265515e-001
         - 6.0272933135261875e-001
         - 2.0042614280341170e-001
         - 2.8386712563787314e-001
         - 1.8542380677073594e-001
         - -5.7531505633151436e-001
         - 6.4387571390575116e-001
         - 1.5963688885425925e-001
         - -8.2394970451532851e-002
         - -5.3950310411828994e-001
         - -2.6706638170461028e-001
         - -7.8010418119770752e-001
         - -4.0162255051069412e-001
         - 2.7725942719572572e-001
         - -2.0002028559997864e-001
         - 2.0003114449271628e-001
         - -3.1203405275251106e-001
         - 6.0853704662811658e-001
         - 5.5531662357221323e-001
         - -8.2123903274842402e-001
         - -5.3894559084693927e-001
         - -4.9584774085281136e-001
         - -1.3921055233753038e-001
         - 3.4963034138194521e-001
         - -1.7268044282207093e-001
         - -1.1444437098623980e-001
         - 1.0535668955433951e-001
         - 5.7916409865432020e-002
         - 1.7879782874803804e-001
         - 1.0892379439977455e-001
         - -4.2964164194487869e-001
         - -3.0745081305820632e-001
         - 3.4028381492153242e-001
         - 7.1072004519483423e-001
         - -7.4126211978828316e-001
         - 1.4361999467324865e-001
         - -1.5300333239750147e-001
         - 2.7244666874412743e-001
         - 3.8840831955607852e-001
         - -3.4002432437320312e-001
         - -6.6023935488859076e-001
         - -4.4013509227343695e-001
         - 2.5394556594789092e-001
         - 1.6185356398274775e+000
         - -3.2275087138901154e-001
         - 1.8518150186436497e-001
         - -2.5841469579864906e-001
         - 9.5759672953966632e-002
         - -7.2812507584375227e-002
         - 8.2698809947806651e-001
         - 9.3001006546008136e-001
         - 7.8236556538532537e-002
         - 6.1351250041654391e-002
         - -3.3239714816551258e-001
         - 4.8019303723999079e-001
         - -5.7355045860443377e-001
         - 3.7996418654277908e-001
         - 4.7644292419203066e-001
         - 4.2128629392421896e-001
         - -6.1762173508392171e-001
         - 9.4934666764327630e-002
         - -2.1261892504405802e-001
         - -3.4933865869279118e-001
         - -3.3619656055720853e-001
         - 3.0400911955793913e-001
         - -5.0774498251368915e-003
         - -3.4474950764174850e-001
         - 6.0540749098416247e-001
         - 7.9113447145148696e-001
         - 2.7299986105229163e-001
         - 1.8451901383902375e-001
         - 1.3075957191041951e-001
         - 8.8337770071929556e-001
         - 5.8595674386387708e-001
         - 1.2199327204443200e-001
         - 1.3769501463407349e-001
         - -8.2256201877072255e-001
         - 3.0756474065361328e-001
         - -2.9287229929473246e-001
         - 8.0236243930940310e-001
         - 2.7521396679659071e-001
         - 7.9568243512456660e-001
         - -6.6122036537645690e-001
         - 8.2268848454652455e-001
         - 7.0118935895237447e-002
         - 5.2901886589852294e-002
         - -2.1850761961973406e-001
         - -4.6714038024234572e-001
         - 8.0165445339413759e-003
         - -2.0490554352229814e-001
         - 1.8401836481171452e-001
         - -2.2885503323060399e-002
         - 1.4202991545402308e-001
         - 3.6359637921195918e-002
         - -4.0060402878946694e-001
         - 4.7784578351680838e-002
         - 3.4203076122748241e-002
         - -2.5185684976875469e-002
         - 8.4650224669182955e-002
         - -2.9605244555553817e-001
         - -3.7374505646767775e-001
         - 2.3686284159637500e-001
         - -7.3043765823297246e-001
         - 5.8902115228458518e-001
         - -1.1371424550487014e-001
         - -7.0453001947902105e-001
         - -2.5958819142175593e-001
         - -6.3865288282025290e-001
         - 6.3969185633272618e-001
         - 6.6984501209908856e-002
         - -3.8140695945496889e-001
         - -6.2410201572543489e-001
         - 4.9724917071935208e-002
         - -2.0312593888569394e-001
         - -3.6032917389179825e-002
         - 2.9340675409521477e-001
         - -8.5141967272919405e-001
         - 1.6020434406063319e-001
         - 6.9462225252079213e-001
         - -5.6751038891681138e-001
         - -8.2622361306655501e-001
         - -3.4330296272442085e-001
         - -3.1185382846488655e-002
         - 6.0746630589488937e-001
         - 2.3739144562939515e-001
         - -6.9598516928739795e-001
         - 6.0459068825825801e-001
         - -7.8991288129918416e-002
         - -3.5889055727154440e-001
         - 5.3535074081523526e-001
         - -2.6528871842311402e-001
         - -6.7099844020895216e-001
         - 7.5874327945945041e-001
         - -3.3420279838436617e-001
         - -8.8695006735709306e-002
         - 1.7557475977056750e-001
         - 1.0275320071629499e+000
         - 5.0084438835020462e-001
         - 1.9980100528575320e-001
         - -1.1924421829725819e-002
         - 9.9311042096677460e-002
         - 3.4431404673704674e-001
         - 2.6717492466943266e-001
         - 2.4850104338393847e-001
         - 2.7784002894004952e-002
         - -5.2850406709330755e-001
         - 4.5786048425360504e-001
         - -1.6696600782564078e-001
         - -6.4443316212492080e-002
         - 8.7718568911930439e-001
         - 2.9257035975576107e-001
         - -8.5049696656598700e-002
         - -2.9360170336783104e-001
         - -3.3938440563506850e-001
         - 7.0630735787279308e-001
         - -6.7962831108846178e-001
         - -1.0108066041694234e-001
         - -6.4801223303655475e-001
         - 4.8420449848270164e-001
         - -3.1946100859250134e-002
         - -8.7156142015999782e-001
         - 8.3721006935226749e-001
         - -2.8550950265832303e-001
         - -5.7395007727838820e-001
         - 1.7167541670357359e-001
         - 1.2073884678529022e-001
         - 6.0562445016422628e-001
         - -7.0573363320016880e-001
         - -3.1104142291214920e-001
         - 4.1966956606318323e-001
         - 2.2011548790462759e-001
         - -1.1751411643055518e-002
         - 1.0487208605599263e+000
         - -4.4717601089388259e-001
         - 6.8048807893655316e-001
         - 9.6205900598356819e-001
         - -7.2832820261156126e-003
         - -4.6703619184554318e-001
         - -2.0036373495463208e-002
         - 5.6072339895772749e-001
         - 2.0188390826156885e-001
         - 8.5484212265577086e-001
         - -4.0926820031512733e-002
         - -2.4785386368280768e-001
         - 3.2371962831117879e-001
         - -1.6308569670255718e-001
         - 2.0293624750695932e-001
         - 9.3076079833902936e-001
         - -7.2428586688055741e-001
         - -8.6367983432986961e-003
         - 2.8375267174307900e-001
         - 3.0976051767776824e-001
         - 9.2709975071167328e-001
         - 4.4930839873198630e-001
         - 1.4925281170006541e-001
         - 5.3604963317954735e-001
         - 9.2540521113152988e-002
         - 4.7814952755627421e-001
         - 1.8118871623555724e-001
         - 4.5497139250979335e-001
         - 2.5583035773562190e-001
         - -8.6556406355243798e-001
         - -1.0942468830253458e+000
         - 1.1111420086363762e-001
         - -2.0033525186012516e-001
         - -2.5945103764700594e-001
         - 2.5870377015695917e-001
         - -5.1280998282826917e-001
         - 3.4439386067377559e-001
         - -1.0048344205290525e-002
         - -2.5148921951042923e-002
         - -4.0101913539071588e-001
         - -6.3807747177152707e-001
         - 3.3808243899328433e-001
         - -4.3196025468717897e-001
         - 4.7852492095061842e-003
         - -5.4445366703332176e-001
         - 2.8203596836312556e-001
         - 4.3525668246063437e-002
         - 2.9807982626032442e-001
         - -3.3275508274853682e-001
         - -1.0101202943964767e+000
         - -8.2994898676173834e-001
         - -5.6709884170503932e-001
         - 1.7710855653867008e-001
         - -3.9433210310379002e-001
         - 2.6488890356419748e-001
         - 2.4369085713547688e-002
         - 3.5955181224688776e-001
         - -6.0654651921928737e-001
         - 1.9223900456532692e-002
         - -9.8345872596996520e-001
         - 6.0921372803369296e-002
         - 4.0639100920406956e-001
         - -2.0139758314666543e-002
         - 3.0832917932132531e-001
         - -4.9530220258349866e-001
         - 2.3348775278267633e-001
         - 5.9180571393509307e-001
         - 3.6965827999707557e-001
         - 4.3026986702148845e-001
         - -8.4156810328561726e-001
         - -2.7140516842315732e-001
         - -7.3372187449026760e-001
         - -5.8935191632308437e-001
         - -3.9410287158595431e-001
         - 2.7514014390558689e-001
         - -2.2243904859059702e-001
         - 3.7411938493498170e-001
         - -5.5354560340740644e-001
         - 1.2547624268642796e-001
         - -4.3397641985324131e-001
         - 3.6302324824124388e-001
         - 2.4910006257526751e-001
         - 7.1171775869854847e-001
         - 7.8950702549290308e-001
         - -4.2640684423876397e-002
         - -1.0599234529341089e-002
         - 1.0344479800537321e+000
         - 1.1690937438211974e-001
         - 4.9019789441961059e-002
         - -3.1981435939189207e-001
         - -6.0166600451842099e-002
         - 8.8241122619065482e-001
         - -5.1602798797765081e-001
         - 5.3129397302983250e-001
         - 6.2575776528771743e-001
         - 2.7147454223699180e-001
         - -5.3015586378919155e-001
         - -4.0699044422824388e-001
         - 3.4382413485895597e-001
         - 6.6194762691299447e-001
         - -9.5609283213172702e-001
         - -3.1896252835359606e-001
         - 1.2556732185878949e-001
         - 1.8272820614158042e-001
         - -6.7748002734908186e-001
         - -1.2609572721583875e-001
         - -5.8081763775957695e-001
         - 4.6194220357526139e-001
         - 7.4283361504807954e-001
         - -1.4543692089341380e+000
         - 6.3208585029117670e-001
         - 1.4402033017848800e-001
         - 2.6986252957574602e-001
         - 2.3898980703860134e-001
         - 3.1509368399322374e-001
         - 5.1390304581659407e-001
         - -3.8827117523621874e-001
         - 1.4784906905536208e-001
         - 3.8731403529888758e-001
         - -4.1768330426649181e-001
         - 7.7975086101958346e-001
         - 5.0261151853897568e-001
         - -4.4680640110671455e-001
         - 2.5357342959684909e-001
         - -2.3246746683843475e-001
         - 6.4125068334329871e-001
         - 1.7037769439482933e-001
         - -2.5176785574360083e-001
         - 4.4138000568913321e-001
         - -2.1938869858337962e-001
         - -3.5322976120646124e-002
         - -3.3202409292921570e-001
         - -3.5906033553937267e-001
         - 3.4513024989908819e-001
         - -5.9197452210171184e-002
         - -3.5570261495885974e-001
         - -1.8070576108171910e-001
         - -2.9391385441438422e-001
         - -2.0232753228205286e-001
         - -3.1942759675207477e-001
         - -3.4132755915800971e-002
         - -1.3674106772874435e-002
         - -2.4898402823568389e-001
         - 8.6147383959657442e-001
         - 7.8983495478484522e-001
         - -1.2412719875944141e-001
         - -1.8704978902524841e-001
         - 1.4514135761683841e-001
         - 2.3022325911099742e-001
         - -6.8790101436858420e-001
         - -2.9638901125019035e-001
         - -3.8851618025531937e-001
         - -4.5531532212732352e-002
         - -4.0600184158372432e-001
         - -5.0382057716603867e-001
         - 2.5601157899761279e-001
         - 6.9307808070778520e-001
         - -1.1332537789675443e-001
         - -2.5631320254771772e-001
         - 1.0247383493507993e+000
         - -7.2438629843052682e-001
         - 2.8947966682998078e-001
         - 1.2519231393593769e-001
         - 6.4628653690622995e-001
         - -6.0945571343562217e-002
         - 6.7806363175286322e-002
         - 4.2936622271120861e-001
         - -4.3390915755958498e-001
         - 2.4700363005743273e-001
         - -4.3410097801339781e-001
         - -3.9113386671255357e-001
         - -3.9254912715108287e-001
         - 9.6433619365756595e-001
         - 1.3337543686316006e-001
         - -8.5249831251320018e-002
         - -5.6565798304749622e-002
         - -9.0364663840212500e-001
         - -5.0931574390777623e-001
         - 4.2991584646742292e-001
         - -5.6863757332846598e-001
         - 1.7276141533084252e-001
         - -7.9288579926419123e-001
         - 3.0576297270263181e-001
         - 6.5767640621534618e-001
         - 9.5574462577988725e-002
         - -4.7870206172395909e-002
         - -4.9753790792382860e-002
         - 1.2855122679591838e-001
         - -2.4868825303663290e-002
         - 2.6365689528836411e-001
         - -3.5810577998468562e-001
         - 2.5734138354086888e-001
         - -1.9319340874473404e-001
         - 1.1221749863135726e+000
         - 3.3998358753288688e-001
         - -2.7624549799489723e-001
         - -9.0492137415866508e-002
         - 1.3299223519051101e-001
         - -2.4206692142504763e-001
         - 4.1744581667097180e-001
         - -6.4972925187631078e-002
         - -2.6811735172787558e-002
         - 3.6078741487759752e-001
         - -1.2292720705477105e-001
         - 1.1162990315216048e+000
         - -1.3142174052782812e-002
         - -1.7528701344673064e-001
         - -2.7048657841969682e-002
         - 3.5156835578425216e-001
         - -1.5265595266496517e+000
         - 1.0069048275240546e+000
         - 3.7940279525291519e-002
         - 3.7820530204240477e-002
         - -1.1314133286236504e-002
         - 4.8960325715655251e-001
         - 5.7334265389493966e-001
         - -1.2109454539292747e-001
         - 3.3738992458987582e-001
         - 1.9148429042411527e-002
         - 4.5777782734826750e-001
         - 9.4219846384809924e-001
         - -3.9326055277709965e-001
         - 1.4808529100721063e-001
         - -3.3882959474316388e-001
         - 6.2194002918238837e-002
         - 3.0921328799691161e-001
         - -2.7738488716791243e-001
         - 2.6651124059364639e-001
         - 3.4963955546390546e-001
         - 3.3102602953629839e-001
         - -7.4504380713608667e-002
         - -1.3086114922829981e-001
         - 1.5690502621041864e-003
         - -7.6559720492570621e-002
         - 6.6985724242229955e-002
         - -5.1119540410158959e-001
         - -3.1685325469235776e-001
         - -3.5540835743688037e-001
         - -3.3780040603611156e-001
         - -1.4163109396965989e-001
         - -2.2061066764231532e-001
         - -1.5174785928567394e-001
         - -2.4041008259250440e-001
         - 6.2601836440910363e-001
         - 1.3267793373236358e+000
         - 3.4314119522680164e-001
         - -2.0596953186863109e-001
         - -3.3773091329279092e-001
         - -4.0450974923127170e-001
         - -1.9366306401735223e-001
         - -2.0314368292123369e-001
         - -1.0301132384474438e+000
         - -9.2356777462913195e-002
         - 5.5269181252803845e-001
         - -8.7421355875214490e-001
         - -5.9916318535340074e-001
         - 5.7214616642241145e-001
         - 1.0788923886491436e-001
         - -6.8279636562708157e-001
         - 2.1365542050944120e+000
         - -7.1036921435942135e-001
         - 5.3821205059217470e-001
         - -5.1792261995171485e-001
         - 2.9938627190589573e-001
         - -1.8229374121867739e-001
         - 4.4179554899921652e-003
         - -3.0379424702955676e-001
         - -6.6228834508207979e-001
         - -7.3822966956684288e-001
         - -2.3059918533522045e-001
         - 6.3404090391595294e-002
         - -1.1584495959591844e-001
         - 1.0104535419578407e+000
         - -1.4629056745802446e-001
         - -4.0464645213799083e-001
         - 3.6361396228682469e-001
         - -9.3463084312543609e-001
         - -3.4124708434274575e-001
         - 9.4664475801946835e-001
         - -4.3971818562257059e-001
         - 3.2125235630878346e-001
         - -9.6700670263523067e-002
         - 7.0353301294779416e-002
         - 5.0049047989302886e-001
         - 2.3491899360482271e-001
         - 1.1964252409673412e-001
         - 5.4289848724565126e-001
         - 1.7293220739451709e-001
         - 7.5880717614723880e-001
         - 2.4792426749657218e-002
         - -6.9053010568329121e-001
         - -4.8841391443351506e-001
         - 2.8958647473276028e-001
         - -1.6756398177465923e-001
         - 2.0529562620826048e-002
         - -4.7841326185937165e-002
         - 5.8964489770304496e-001
         - 1.0372038066932955e-001
         - 4.5510513736439590e-001
         - 3.2784568635062311e-001
         - 1.5398265608177639e-001
         - -1.8131268894126598e-001
         - -8.1376242685893618e-001
         - -7.9438153095249475e-001
         - -9.5269754203399404e-001
         - 4.0996007225266667e-001
         - 2.7503716590857380e-001
         - -3.5784567885412810e-001
         - -7.4598962788417336e-002
         - -1.1237960512780998e+000
         - 4.1899247568176423e-001
         - -3.1715045034991890e-001
         - -1.6425788576590238e-002
         - 2.5571302962861359e-001
         - 4.5563605965164433e-001
         - -5.3383364023879964e-001
         - 7.1424031543671629e-001
         - 1.3927864071174825e-001
         - -1.5459206279154550e-001
         - -2.6069114289987522e-001
         - 1.6125408290240201e-001
         - -8.7764460366729047e-001
         - -3.7865032472449162e-001
         - -5.9610431890594240e-001
         - -5.4041524360962601e-002
         - -6.7577607284745600e-002
         - -2.0482549774984909e-002
         - 7.6798822139426917e-002
         - 2.9667124220675267e-001
         - 9.1431295616300612e-001
         - -7.4524750274409679e-001
         - 2.0845474767401170e-001
         - 1.5941828346930548e-001
         - -1.4280553535694632e-001
         - -5.7044334397220886e-001
         - -1.0031560866439475e+000
         - 1.7407860029004601e-002
         - -6.6053366585241580e-002
         - -4.0221367176749018e-001
         - -4.0249604959107210e-001
         - 2.7198581214837935e-002
         - 8.6239634863765680e-002
         - -9.8209301827130058e-002
         - 5.2858689055116181e-001
         - 5.7523066365835107e-001
         - -9.8139268854046252e-002
         - 3.0953659052846283e-001
         - -7.0531375041049993e-001
         - -9.2295793214065891e-001
         - 2.9386735895408828e-002
         - -4.3731045960957116e-002
         - -1.6300958552556596e-001
         - 8.5748281035554841e-001
         - 8.7206487329927040e-003
         - 2.2142814624537610e-001
         - -6.4402788459576699e-001
         - 5.1515710008839999e-001
         - 4.0067317141635106e-001
         - -3.0774814843460951e-001
         - -6.3589254864177686e-002
         - 3.7484684575408589e-001
         - -7.0190392164050908e-001
         - -2.3283665636544071e-001
         - -1.6864351418226273e-001
         - -2.0951739037748229e-001
         - -3.8467615904772839e-001
         - -1.4076116180079418e-001
         - -5.9630246061253100e-001
         - -3.9288814360758650e-001
         - -5.0298159285005160e-002
         - 1.0515150302560666e-001
         - -8.6068462836419846e-001
         - 2.5973586746267247e-001
         - 1.1828768160640564e-001
         - -4.5259103077542506e-001
         - -1.2776493411686568e-001
         - 1.4776850591512145e-001
         - 3.7401962472820161e-001
         - -2.1233611302159675e-001
         - 3.5694138132661507e-001
         - 3.0526678662794327e-001
         - -6.4953005745468251e-002
         - -1.6547277976278163e-001
         - -3.3015917392650057e-001
         - -9.2375077550293325e-002
         - -2.4506575260303268e-001
         - -9.6274259696355269e-001
         - 1.6847883496494526e-001
         - -2.8242264576373594e-001
         - 1.0939700118748941e-001
         - 7.8533321518841515e-001
         - 7.9993957078253897e-001
         - 5.7094482202012919e-001
         - 1.2063093581494724e-001
         - 4.4810119147322391e-001
         - 5.3295183097833632e-001
         - 7.2239035246772332e-001
         - -1.0628543080226596e-001
         - -4.0243143677848980e-001
         - -5.3913304000436280e-001
         - -3.6465890825786956e-001
         - -1.3038440784477842e-001
         - 1.9626445464314959e-001
         - -6.8473034059278659e-001
         - 8.5159444548513596e-001
         - -4.4244195306566558e-001
         - 1.5758702353834378e-001
         - -1.5675586917724096e-001
         - -5.6000100616725856e-001
         - -1.3100010216202649e+000
         - 4.6614165564769849e-001
         - 1.5852746561949804e-001
         - -1.0352111012100711e-001
         - -6.0995171196665157e-002
         - 5.0108350504922050e-001
         - 4.0206229865841053e-001
         - -2.5158908798287738e-001
         - 2.4131660850073497e-001
         - 8.0460008310664466e-001
         - 2.0043769512739124e-001
         - 4.7166163693598558e-002
         - 1.3924028780322797e+000
         - -6.9144539155838888e-002
         - 5.5183256328867480e-001
         - -2.6050906279065150e-001
         - 7.5579568014885590e-001
         - -1.0838821805092308e-001
         - -4.8517049088715664e-001
         - 8.0519561015065599e-001
         - -7.3232185162981300e-002
         - 4.4020299115796591e-001
         - -2.6918218358769852e-001
         - -6.0015774135751798e-001
         - 1.0444065560491456e+000
         - 1.3235037915235232e-001
         - -5.3354108259555021e-002
         - -4.6777604339786244e-001
         - -8.4796823271816057e-001
         - 2.5668365045218927e-001
         - 2.0649796961605310e-001
         - -6.9029839774494817e-001
         - 1.4972249807339813e-001
         - 6.7434930843354073e-003
         - 2.6940022866957031e-001
         - 6.2436854189559077e-001
         - -4.8985602601494621e-001
         - -5.5418515145956304e-001
         - 2.7864073685585100e-001
         - 2.0428753438281927e-001
         - -5.1309717616906469e-001
         - 8.3500052321255819e-002
         - -6.4924949203888915e-002
         - -6.1786202556760561e-001
         - -5.2668088117184952e-001
         - -2.0968399967474508e-001
         - 4.2288903246381315e-001
         - 2.1578405458818636e-001
         - -9.5796818794165850e-002
         - -3.6034397844016108e-001
         - 1.0900524099048057e+000
         - -5.9563824914401819e-001
         - 4.1908820462874746e-001
         - -2.5377235002342461e-002
         - -1.0586591676984655e-001
         - -3.0515973735246310e-001
         - -8.5481059255811964e-001
         - -5.5055891490882380e-001
         - -9.3530157538089121e-003
         - 3.9874006320176852e-001
         - 2.5436457479482683e-001
         - 2.8052548012255507e-001
         - 2.9667380112595315e-001
         - 6.5982839182678299e-001
         - 5.5401417952225129e-001
         - -4.0733235310231625e-001
         - -4.2806468609101933e-001
         - -6.9719589741276622e-001
         - -5.3616251557446593e-001
         - -1.1174517900070573e-001
         - -6.2503245382226402e-002
         - -3.3370890244634438e-001
         - 8.1588442137581086e-003
         - 1.8686467900216294e-001
         - 7.0070162442974426e-002
         - -2.7021223427549607e-001
         - -1.1437312658824721e-001
         - -2.4979024414414172e-001
         - 5.7019064326788238e-001
         - 7.4046455013494827e-001
         - -4.7167547136913479e-001
         - 8.6619396918082636e-001
         - 8.0850863733416867e-001
         - -1.5179131837659313e-001
         - 3.9776207953893583e-001
         - -4.4756042443014815e-001
         - 7.3794709469799311e-002
         - 5.7370794950683135e-001
         - -5.4761204865635016e-001
         - -4.7992769541519514e-001
         - -1.4287830042256169e-001
         - -1.3528200227981826e-001
         - 6.7888003047638767e-001
         - 6.1079547665706779e-001
         - -9.2219235918135223e-001
         - 7.8057065438862427e-001
         - -8.1511629578110506e-002
         - 3.1045932354878097e-001
         - 1.6908718617182300e-001
         - -8.5868337659804964e-002
         - 2.4654172749591191e-001
         - -1.4211275763497029e+000
         - 4.3801948400952984e-001
         - -1.1771896377517266e-001
         - -1.4653266236575058e-001
         - 1.8866066082531963e-001
         - 2.8322450261447352e-001
         - -1.9566579728148170e-001
         - -2.5892555966500481e-002
         - 6.8623832264512719e-001
         - -2.4425129130229571e-003
         - 6.5664345223069145e-002
         - 9.6328038867400534e-001
         - 1.0067855791330699e-001
         - 4.6832419590428270e-001
         - 9.2273240281320404e-002
         - 3.0089071176505161e-001
         - 1.0985852914017864e-001
         - -4.7072767543015787e-001
         - -2.3866198956060822e-001
         - -2.3773730921720312e-001
         - -2.2561615600341495e-001
         - -1.6404515145271617e-001
         - -1.1757171403886070e-001
         - -6.8418685214766586e-002
         - 1.7646622167497783e-001
         - -3.0717199536216516e-001
         - 4.6126233003986949e-001
         - -2.2967187641218365e-001
         - -3.8111365397593683e-001
         - -9.3820479033961873e-002
         - -3.6754449973354952e-001
         - -3.0108060464797104e-001
         - -8.0674800419342427e-002
         - 2.4579980761690823e-001
         - -1.0648650797223523e-001
         - -6.0678729617537031e-001
         - 2.2584664227972875e-001
         - 1.0500014026416578e-001
         - -2.3104190184828249e-001
         - -1.8777821005975365e-001
         - -2.2164397821004470e-001
         - -9.8424084278751114e-002
         - -9.9186176862626402e-002
         - -6.4671354657776092e-001
         - 3.6297458884322203e-001
         - -5.2345538005637515e-001
         - -6.4424025185920120e-001
         - 8.2937403613229807e-002
         - 2.5246791399885932e-001
         - -4.7946922617299326e-001
         - 8.5049630961550138e-001
         - 1.1585703119841960e-001
         - 7.5037060117006046e-002
         - -1.1669674898142503e-001
         - 1.8746025227979105e-001
         - 4.9284754790153863e-003
         - 2.4098351665000198e-001
         - 2.0638014148725442e-001
         - 1.4879778454756490e-001
         - 2.8120158373147935e-001
         - 2.3212919085307826e-001
         - -1.0015854196304965e+000
         - 1.6143832194242763e-001
         - -5.2033621688003231e-003
         - -7.5903342698174461e-002
         - -1.5900413929758642e-001
         - 3.0244487219246186e-001
         - -1.1524993082658871e-001
         - -5.9194896414211873e-001
         - -2.1265720641636943e-001
         - 6.6816316436236617e-003
         - -1.3576506804524352e-002
         - 2.2609687599317788e-001
         - 1.2904017550920906e-002
         - -3.6769371423940926e-002
         - -1.9229879767499009e-001
         - -3.2273192891519115e-001
         - 5.5344900869046670e-002
         - 2.7976506135741194e-002
         - -5.4958758977655009e-001
         - 1.9028177067264923e-001
         - 4.0553509030288892e-001
         - -2.3994951729663946e-001
         - 3.9983238179687908e-002
         - -2.1718416237178201e-001
         - 4.9509837160031100e-001
         - 1.0065029385172275e-001
         - -4.0597991746403328e-001
         - -3.9658810690906438e-001
         - 7.4114451942718873e-002
         - -1.6666550238563568e-001
         - 4.9583701497556509e-001
         - 7.8085312527415573e-001
         - 4.3073677011536493e-001
         - -5.1734978598009673e-001
         - -2.0946391346248810e-001
         - -2.8693123227216732e-001
         - 2.1225646907602999e-001
         - 7.0859922771764361e-001
         - 1.2058665748858162e+000
         - -1.2298349245082545e+000
         - -2.0048050777721599e-003
         - -3.0057308974117836e-001
         - -8.7978819688793675e-002
         - -2.0101784628381755e-001
         - 1.3693287495100681e-001
         - 4.1477567807488902e-001
         - -1.4967395883372812e-002
         - 7.1106154728924542e-001
         - -9.9639969921476529e-002
         - 8.2824720208463806e-002
         - 3.2755151265641552e-001
         - 3.8505637214698218e-001
         - -2.3577393266033012e-001
         - 4.0399407952057120e-001
         - 1.7747073062912736e-002
         - 8.1299734437790760e-002
         - -1.6106648050198236e-002
         - 7.5118910700793462e-002
         - 1.7156469122671666e-001
         - -7.6420453580894432e-001
         - -1.6233285840182932e-001
         - -1.7373760901051585e-001
         - -1.0827377459721736e-001
         - 1.1496388226013954e-001
         - -2.5461812677047929e-001
         - 3.0687163731217515e-001
         - 2.7651393277700145e-003
         - -4.8819764510154884e-001
         - -1.1005753870488987e-001
         - -2.8221045245511800e-001
         - -3.9677945434654732e-001
         - -5.8220852584100001e-002
         - 1.4355507388566260e-001
         - -8.9584550071811320e-001
         - -1.0999641700615876e+000
         - 4.1126136876201896e-001
         - -2.2450507387173266e-001
         - -3.2810079075759824e-001
         - 2.8126064843176823e-001
         - -1.0742102645170214e-001
         - 1.1003881608711606e-001
         - 1.7700672898649497e-001
         - -8.6459136748081189e-001
         - 1.4581000662820573e+000
         - -1.7219326596661258e-001
         - -6.4182829816354248e-001
         - 2.6530689291593457e-001
         - 5.7000932912342328e-001
         - 2.2016611140302828e-001
         - -4.3230516723472356e-001
         - -4.5361790047593054e-001
         - -4.2653324964271022e-001
         - -2.3776774421128868e-002
         - 1.4275447786373591e-001
         - -3.3085127085905985e-001
         - 5.0608024874036782e-002
         - 5.8125669504151156e-001
         - -4.2373523112182253e-002
         - -1.4857823106180948e-001
         - -1.7388986034056454e-002
         - -6.6434670218317948e-001
         - -4.3705108368914020e-001
         - -4.5427562484836448e-001
         - 3.0771124788022847e-001
         - -3.1349986321922202e-001
         - 3.5257042913363201e-001
         - -6.2381309297131693e-001
         - -6.8435099456025494e-001
         - -5.9542095139017981e-001
         - -1.7757537289338207e-001
         - 6.6855305652496644e-002
         - -1.3517503438423281e-001
         - 7.0504832629876613e-001
         - -1.2783679131864961e-001
         - -1.4088538986960844e+000
         - 8.4565093474158970e-002
         - 7.0487383955476623e-001
         - -1.7454671707668853e-001
         - -3.2091579405107329e-001
         - 4.5398165415674052e-001
         - 2.0474786457437039e-001
         - 1.8095314090722456e-001
         - -1.8036766209807747e-001
         - -1.3176443139619138e+000
         - 1.4352595235304802e-001
         - 2.7434226623252428e-001
         - -4.4399548706438313e-001
         - -1.6810618704343266e-001
         - -1.2139226395086855e-002
         - -1.7817237109872036e-001
         - 6.1018176665170720e-001
         - -5.8793554810238673e-002
         - -1.1651824991155736e-001
         - 1.4544323377061397e-001
         - -8.9393514937774698e-002
         - -3.4777945493237417e-001
         - 1.3099765670313074e-001
         - 5.7678804200329359e-001
         - -2.0899218669540620e-001
         - -9.4367744915084772e-001
         - -6.8116974722698259e-002
         - -1.2298554414266454e-001
         - 1.1501960430140205e-001
         - 4.6991656448999558e-001
         - 4.4472757607505020e-001
         - 1.3623039494868314e-001
         - 8.4526280360209219e-002
         - -4.6679030910193586e-001
         - -8.2561857504367753e-001
         - 6.1073867740497056e-001
         - 6.9522739103677689e-001
         - -2.0338662100745977e-001
         - -2.0102242132930104e-001
         - 6.8278271861309470e-002
         - 3.7767129527739313e-001
         - 1.1486896878515828e-002
         - -2.2166963317824914e-001
         - 4.9986444009390235e-001
         - -4.3358700284513751e-001
         - 4.6197407907632232e-001
         - -2.7695017886403028e-001
         - -4.7332879792664700e-001
         - 5.5831374464615380e-001
         - 6.2401030477477404e-001
         - -5.6305741579419955e-001
         - 1.2145139432572741e-001
         - 1.9875377891214643e-001
         - 2.3032727141752313e-001
         - -1.0998618194400912e-001
         - -5.6972379206817123e-002
         - -7.0051648940225320e-001
         - -8.7951429470732867e-002
         - 6.5557588003804934e-001
         - -1.8077081511786833e-001
         - -1.5947350083562445e-001
         - -1.6957142075215698e-001
         - -3.7875211396073644e-001
         - 2.6702639674301343e-001
         - 5.1130266121155643e-001
         - -3.4825093057742583e-002
         - 3.6045601370861585e-001
