%YAML:1.0
opencv_ml_ann_mlp:
   format: 3
   layer_sizes: [ 96, 50, 50, 7 ]
   activation_function: SIGMOID_SYM
   f_param1: 6.6666666666666663e-001
   f_param2: 1.7159000000000000e+000
   min_val: -9.4999999999999996e-001
   max_val: 9.4999999999999996e-001
   min_val1: -9.7999999999999998e-001
   max_val1: 9.7999999999999998e-001
   training_params:
      train_method: BACKPROP
      dw_scale: 1.0000000000000000e-003
      moment_scale: 1.0000000000000001e-001
      term_criteria:
         epsilon: 1.0000000000000000e-008
         iterations: 10000
   input_scale:
      - 2.2047784787960246e+001
      - -2.2889478212983194e+000
      - 1.3495957139071933e+001
      - -1.5610434931641741e+000
      - 2.2192380271909251e+001
      - -3.5886129191591181e+000
      - 1.2820443976097712e+001
      - -6.5159112359205873e-001
      - 2.4785934116408662e+001
      - -6.1150575555186659e+000
      - 1.3194826545341469e+001
      - -3.8325639622759394e-001
      - 2.7282436966412362e+001
      - -9.1618771760764321e+000
      - 1.3765753602021489e+001
      - -5.7273842612118508e-001
      - 2.8279493543205170e+001
      - -1.1802818326301317e+001
      - 1.3727017274110141e+001
      - -1.0929935950282501e+000
      - 2.2669322512942305e+001
      - -1.2978557989239293e+001
      - 1.3060016589722617e+001
      - -1.0773446383351075e+000
      - 1.9841215386302199e+001
      - -1.2953440010957854e+001
      - 1.2363150636546473e+001
      - -6.0979935077463610e-001
      - 1.6406053420112254e+001
      - -1.2144228505864364e+001
      - 1.1504327284512161e+001
      - -4.7382537146242210e-001
      - 1.3752413267718389e+001
      - -1.1307911396556726e+001
      - 1.0968476867195880e+001
      - -7.2655982497347915e-001
      - 1.2410871808341664e+001
      - -1.0885350019812853e+001
      - 1.1483777176813964e+001
      - -1.4958037809838214e+000
      - 2.4480643548447567e+001
      - -1.2093142639587514e+001
      - 1.4422497000352381e+001
      - -5.9617185480964707e+000
      - 2.8410215525452742e+001
      - -1.1353346717655899e+001
      - 1.5716382817072098e+001
      - -7.5984366041562206e+000
      - 2.6888350884300383e+001
      - -1.1955407398530179e+001
      - 1.5601486768282600e+001
      - -7.7744149438882237e+000
      - 2.4771074731912407e+001
      - -1.2224084313162287e+001
      - 1.5333532518795661e+001
      - -7.8295154828173175e+000
      - 2.2965265326860916e+001
      - -1.2445972359938391e+001
      - 1.4931406508071403e+001
      - -7.4595203220704143e+000
      - 2.1347396702051302e+001
      - -1.2509209373635887e+001
      - 1.4364236758920111e+001
      - -6.9935488943650119e+000
      - 2.7885129103182127e+001
      - -5.6662421836216605e+000
      - 1.2285395650451472e+001
      - -2.5344992122692402e+000
      - 2.9288585342735225e+001
      - -7.4862080019209625e+000
      - 1.2027162759494473e+001
      - -2.0976686825675945e+000
      - 3.2549106228039484e+001
      - -1.0390742176328953e+001
      - 1.2043471148598211e+001
      - -2.1230086742907690e+000
      - 3.4246490675523575e+001
      - -1.2817424734252509e+001
      - 1.2356990446034848e+001
      - -2.6949384710978288e+000
      - 3.3589339055918536e+001
      - -1.0583828095067798e+001
      - 1.2556501841692979e+001
      - -2.8875470704890356e+000
      - 2.9799045019451643e+001
      - -7.5150406580821807e+000
      - 1.2715178229593196e+001
      - -2.9098781776055254e+000
      - 2.2067377199668993e+001
      - -1.3512137683127600e+001
      - 1.1484291842466229e+001
      - -2.5717855331650314e+000
      - 1.9135249467015040e+001
      - -1.2784751532605158e+001
      - 1.0861921553304972e+001
      - -2.0067997637074098e+000
      - 1.6488449815080884e+001
      - -1.2056054790698802e+001
      - 1.0580234709691553e+001
      - -1.9701698769676210e+000
      - 1.4883123491138416e+001
      - -1.1642940485555000e+001
      - 1.0635740596244030e+001
      - -2.3388092411876373e+000
      - 1.6390124828073496e+001
      - -1.2012365793088291e+001
      - 1.1006436190238437e+001
      - -2.6447663348782147e+000
      - 1.8993803292007421e+001
      - -1.2729523844508067e+001
      - 1.1221576117908958e+001
      - -2.6817617664917601e+000
      - 2.1294736521101694e+001
      - -6.7624906025209839e+000
      - 1.6090106861184903e+001
      - -1.0728187551056841e+001
      - 2.5353700913027247e+001
      - -9.5725444764267067e+000
      - 1.5232940124173020e+001
      - -9.3876278053473001e+000
      - 2.6142134111602125e+001
      - -1.1602346461286135e+001
      - 1.4579613845401786e+001
      - -8.6350124201198639e+000
      - 2.4125852600886851e+001
      - -1.1847264468767275e+001
      - 1.4196103220228681e+001
      - -8.5880259777666375e+000
      - 2.1371964630342958e+001
      - -1.1509659061805413e+001
      - 1.3886294206685603e+001
      - -8.2585008298204912e+000
      - 1.6981292319395706e+001
      - -1.0267274357859051e+001
      - 1.3444298802870348e+001
      - -8.3576835431447414e+000
      - 1.4290343645567244e+001
      - -9.4879780628326831e+000
      - 1.3262065360273224e+001
      - -8.9411067494114267e+000
      - 1.5748752838667663e+001
      - -9.5571211348522151e+000
      - 1.8373114556615281e+001
      - -1.3461082353725383e+001
      - 1.8994745388617446e+001
      - -1.0291706118377531e+001
      - 1.8125663130801026e+001
      - -1.3765986829208853e+001
      - 2.1752459583466035e+001
      - -1.0670365246238321e+001
      - 1.8313895738125950e+001
      - -1.3981330985385780e+001
      - 2.3585071364495150e+001
      - -1.0355914826738104e+001
      - 1.8681103278923700e+001
      - -1.4145225123807670e+001
      - 2.3735025990885077e+001
      - -8.8759759482989189e+000
      - 2.0660839032536295e+001
      - -1.5055691502834565e+001
      - 2.1283364019272078e+001
      - -7.3503767029306610e+000
      - 1.6829854710762042e+001
      - -1.1221339053629645e+001
      - 2.5501738051011284e+001
      - -1.1307540204081297e+001
      - 1.4404664964532008e+001
      - -9.2380103360984194e+000
      - 2.3549802992729131e+001
      - -1.1560498600765346e+001
      - 1.4112595849090372e+001
      - -9.1341594763186222e+000
      - 2.0768225334080100e+001
      - -1.1181334839049532e+001
      - 1.3712378851019643e+001
      - -8.8245790252791476e+000
      - 1.4703064889756364e+001
      - -9.3451308527475820e+000
      - 1.4238221212914883e+001
      - -9.5735939043035767e+000
      - 2.0111917962056484e+001
      - -1.0844413332296201e+001
      - 1.8366332056409206e+001
      - -1.2725284841843973e+001
      - 2.3054232807495350e+001
      - -1.1319213899096432e+001
      - 1.8817264289968232e+001
      - -1.3135736264102270e+001
      - 2.5022059295523736e+001
      - -1.1073788433192119e+001
      - 1.8723288578855492e+001
      - -1.2933537435858021e+001
   output_scale:
      - 5.2631578947368418e-001
      - 4.9999999999999994e-001
      - 5.2631578947368418e-001
      - 4.9999999999999994e-001
      - 5.2631578947368418e-001
      - 4.9999999999999994e-001
      - 5.2631578947368418e-001
      - 4.9999999999999994e-001
      - 5.2631578947368418e-001
      - 4.9999999999999994e-001
      - 5.2631578947368418e-001
      - 4.9999999999999994e-001
      - 5.2631578947368418e-001
      - 4.9999999999999994e-001
   inv_output_scale:
      - 1.8999999999999999e+000
      - -9.4999999999999996e-001
      - 1.8999999999999999e+000
      - -9.4999999999999996e-001
      - 1.8999999999999999e+000
      - -9.4999999999999996e-001
      - 1.8999999999999999e+000
      - -9.4999999999999996e-001
      - 1.8999999999999999e+000
      - -9.4999999999999996e-001
      - 1.8999999999999999e+000
      - -9.4999999999999996e-001
      - 1.8999999999999999e+000
      - -9.4999999999999996e-001
   weights:
      -
         - -3.0629959086571545e-001
         - -1.3974398020341192e-001
         - -1.0531984590675478e-001
         - -1.5568242958266917e-001
         - 2.2505605821874432e-003
         - 2.7721911963369089e-001
         - -8.0210202494380545e-002
         - -5.0363446516421706e-001
         - -2.8668604223324724e-002
         - 1.0747045188250649e-001
         - -1.2961788401759200e-001
         - 1.3202014593277878e-001
         - -4.9114081830224976e-001
         - 2.1150021314901735e-001
         - -3.5923150710610426e-002
         - -1.8771864499925242e-001
         - -9.4071022263086473e-002
         - 7.6436119871995639e-002
         - 2.2798730019355090e-001
         - -9.1202345564148565e-002
         - -2.9101246439875600e-001
         - 2.6201234958005981e-001
         - -1.4862873763573417e-001
         - 2.0761251262370599e-002
         - 1.5926752674415154e-001
         - -7.2703637888586081e-002
         - 1.2669627946503059e-001
         - 2.9381160762861149e-002
         - -1.5490972714299278e-001
         - 4.5055839939605130e-001
         - -2.7549929123416933e-001
         - 2.8568654193496346e-002
         - 2.9249999370981332e-003
         - -7.5927791616613822e-003
         - -8.1597343388841642e-002
         - 4.3970659131588541e-002
         - -1.4082135072386495e-001
         - 1.1168979395198367e-001
         - -3.9968588120616072e-002
         - -5.3474575076765583e-002
         - 3.2745284890770565e-001
         - -1.5967852853771505e-001
         - 2.9345570263342547e-002
         - -2.5749835178806296e-001
         - -2.7540142859069466e-001
         - -4.9098899545981961e-001
         - -2.3765854841351294e-002
         - 1.6131946109002624e-002
         - 3.2893220601049283e-001
         - -1.9888290726323263e-001
         - 5.1750862235950568e-001
         - 3.7241094305666784e-003
         - 2.0306815073161708e-001
         - 4.7611093286573605e-002
         - 1.7624569909799714e-001
         - 2.6394084366004167e-001
         - -5.6990179283929195e-002
         - 1.3517757741211889e-001
         - -4.5503450749533360e-002
         - -7.7029807687204813e-002
         - 2.2636242625717107e-001
         - 2.7124191185821195e-001
         - 4.8751384742938386e-002
         - -6.1743025090560031e-004
         - -1.0116914901440605e-001
         - 2.2855849086864435e-001
         - -3.3113663435054612e-002
         - -2.2306023182793522e-001
         - -1.2333591846321604e-001
         - -2.1156714384675895e-001
         - 8.4694571251414205e-002
         - -7.0154706064468261e-002
         - 6.5825644374147882e-002
         - 3.6171402915230751e-002
         - 1.2963693621734812e-001
         - 7.7208563189291909e-002
         - -3.3361908762202047e-001
         - 2.9412668196475289e-001
         - -6.1646247626439421e-001
         - 3.2651805081198737e-001
         - -1.8732485004095012e-001
         - -1.2335647590098804e-001
         - -9.9265554834387770e-003
         - 5.1515025380489736e-002
         - 1.3191517394756341e-001
         - 6.4828403115934397e-001
         - -3.0495229490172454e-001
         - 3.3705071523769425e-001
         - -5.5225675519937556e-001
         - -1.8467149890819168e-001
         - -3.9847807783662675e-001
         - 1.2920042981983904e-001
         - 9.3344267114627219e-002
         - 2.3825194177184619e-002
         - 2.3016708419479506e-001
         - -7.4171609396586943e-002
         - -6.5677907563015711e-002
         - 8.2569419505146416e-002
         - 2.0996570114209925e-001
         - -2.7823752411389646e-001
         - -8.8313525032437321e-002
         - 6.4073610177597287e-002
         - 1.5126100338314799e-001
         - -1.7979834676593939e-001
         - 2.8551789800103949e-001
         - 1.9057815756904706e-001
         - -3.4810523365951934e-001
         - -1.4204712030607047e-001
         - -1.2269100876605352e-003
         - 1.5361370806046093e-001
         - 2.2981574219405537e-001
         - 1.3705949797303665e-001
         - -4.9081861730139446e-002
         - 7.1474489286296253e-002
         - -1.2887819336262266e-001
         - 1.9011053366720537e-001
         - 1.2393838393573127e-001
         - 7.3519338451620148e-002
         - 3.1104987539427026e-001
         - 1.1861827562813200e-001
         - -3.7534164423768768e-001
         - -4.2567329252305752e-001
         - 3.5346790862094435e-001
         - 2.2857231898187633e-001
         - 2.0689232482010331e-001
         - -2.3112722724546293e-002
         - 3.7738029650014010e-001
         - -2.9022196901380198e-001
         - -4.1832550663474427e-001
         - 2.3594344620053709e-001
         - 1.9156735555062768e-001
         - 8.2844304810566222e-003
         - 2.7483005943018002e-001
         - 6.1412652405307126e-002
         - -1.2880688843781798e-001
         - 5.3085932554889616e-002
         - 1.4971693454337097e-002
         - 8.9500573538580264e-002
         - 1.9158842889743025e-001
         - -3.0914798485463563e-001
         - -7.7687222710037418e-002
         - 2.5520933724347661e-001
         - -3.0520042539610520e-002
         - -1.1370106489853005e-001
         - 1.2846047869871738e-001
         - -2.6184018830998790e-001
         - -3.0772869545334336e-001
         - 3.5308053705678452e-002
         - -1.9850844415726013e-001
         - -3.4854880484234235e-001
         - -1.2987957417973134e-001
         - 7.3633649618309968e-002
         - 4.4337330942426117e-002
         - 6.0837711590741653e-002
         - 4.7624042591964233e-002
         - -1.9088168260883963e-002
         - -2.7135741918418849e-002
         - 6.3530035977562710e-002
         - 1.0003224085162304e-002
         - -1.2081674309196401e-001
         - -8.4424129512384302e-002
         - 2.5432102498666614e-001
         - -4.0628654561147753e-001
         - 4.7060794821266366e-001
         - -4.6600220675405660e-002
         - -4.8363117568069047e-002
         - 1.8734161093067733e-002
         - -3.4738858675215506e-002
         - -3.2765534321287780e-002
         - -7.5684300397978202e-002
         - 1.0793164142293009e-001
         - -2.5378415654142306e-001
         - -5.6161403177648707e-002
         - -3.5869714367575223e-001
         - -4.6523667885487077e-002
         - -2.0669804806827005e-001
         - -4.2136529754688579e-001
         - 6.3628618433265616e-002
         - 2.2085509384050447e-001
         - 5.0928640914659284e-001
         - -3.5460053709099731e-001
         - -1.2973918712172694e-001
         - -4.1668585347009829e-001
         - 2.5455462732492964e-002
         - 2.0185184723151950e-001
         - 3.4813560968788343e-001
         - -4.7964302092027766e-001
         - 1.3305749056895047e-001
         - -2.3259330681756524e-001
         - 2.0786782311806740e-002
         - -1.3707463991884883e-001
         - -1.0960616937806021e-001
         - 2.3689904165620965e-001
         - 1.8623090681790047e-001
         - 1.2196199870717266e-001
         - -2.1113440318381652e-001
         - 1.2328781717700740e-002
         - 9.3077205260159418e-002
         - 1.1199799368355864e-001
         - -4.8046834816311879e-001
         - -1.9062951366304058e-002
         - 4.5868376384008130e-001
         - -2.4476799201821528e-001
         - -4.1342564583264380e-002
         - -4.3350222657189935e-002
         - 2.1880879751473201e-001
         - -6.6572739240118292e-002
         - -4.0361154106946751e-001
         - -1.7773050536611351e-001
         - 4.7846448742735659e-001
         - 9.4091209204682738e-002
         - -9.0356091661120547e-002
         - -7.1900496654903168e-002
         - -1.3049913225060344e-001
         - 7.9313471279413669e-002
         - 8.9847755355310699e-002
         - 3.3731724401748113e-003
         - 9.7212607602121290e-002
         - 2.6616734799523956e-001
         - -8.5900909809751375e-002
         - -5.0478548571783177e-001
         - -4.3522944405008995e-001
         - 1.7315506551009074e-001
         - 2.2881315563749346e-001
         - -6.3520620636754607e-002
         - -8.1355171799554538e-002
         - 3.3726655330304883e-001
         - 6.3741129307654146e-002
         - -2.4523418012144960e-001
         - -4.0976847607430683e-001
         - -1.4715538647911783e-001
         - 6.0908765662750171e-002
         - 5.0729380298897737e-002
         - -1.3877434562611232e-001
         - -8.2949832039008159e-002
         - -3.7922731625621882e-002
         - -5.0106901003104665e-002
         - 1.5433027240248240e-001
         - 8.3848065986035364e-002
         - -1.5141873179245927e-001
         - 8.4058981168389571e-003
         - 4.2520076230583480e-002
         - -3.5594001464245212e-001
         - 1.3684375920815539e-001
         - 7.6713619638932196e-002
         - 3.6554289457802325e-001
         - 5.7207025464308968e-002
         - 7.3048440850019228e-002
         - -5.1811241744525383e-001
         - -2.1858340446885560e-001
         - -1.3032323085414041e-001
         - -4.4356382842186501e-002
         - 2.3633164148875230e-001
         - 2.2418304572410558e-001
         - 2.3476859462178545e-001
         - 1.2680213554798541e-002
         - -2.5903907685968968e-003
         - -1.8275019409364621e-001
         - 1.0765379695830597e-002
         - 2.1012045241567581e-001
         - -5.8665475908234142e-003
         - 3.2689123867610809e-001
         - -4.4689493279594941e-002
         - 2.0352330797343712e-001
         - 2.3171067283721286e-001
         - 5.1986227011504904e-002
         - 7.8180547963877342e-002
         - 4.2519225554724566e-002
         - -2.6659408612186870e-002
         - 1.6948166135945401e-002
         - 8.7582417931284740e-002
         - -2.2038679823855381e-001
         - -5.1574031009938195e-002
         - -2.8988397283243517e-001
         - 2.4089901332383157e-001
         - -1.4357027645319870e-001
         - -1.6479421824266377e-001
         - -2.8322045298422922e-002
         - 1.1284601239439737e-001
         - 3.3975427678508913e-001
         - -2.9354189377509576e-001
         - 6.6866587235714960e-003
         - -3.8648957771213849e-001
         - 1.5789914814446224e-001
         - -1.0260449475632596e-001
         - 2.7335496743290189e-001
         - -2.0949264388783204e-001
         - 1.9769039225131105e-001
         - -9.1860982083432890e-003
         - 3.8323141849649543e-002
         - 1.1107060557537511e-001
         - 7.8223849382631577e-002
         - 3.3738611431184534e-001
         - -6.3776167182071214e-002
         - 2.7169785380084823e-002
         - -2.0186418326105016e-001
         - 1.4145807788507820e-002
         - -1.0363268238195777e-001
         - -1.3192538029325931e-002
         - -9.4913729750112516e-002
         - 2.5314583161593440e-001
         - -1.3144223030302801e-001
         - -4.0659033283802920e-001
         - -7.0055085020024638e-002
         - -1.1076609707857552e-001
         - 5.7918754858439850e-002
         - -1.6545974170262825e-001
         - 1.5166123030218384e-001
         - 3.8088566413786877e-002
         - 2.1915994039817285e-001
         - -1.2123091761060546e-001
         - -7.9839366563817726e-001
         - -7.2475348472711377e-003
         - 1.3222405814447843e-001
         - -4.1694717492116264e-002
         - 1.1065239017649001e-002
         - -2.2285173480143441e-001
         - 1.4885394204764751e-001
         - 1.5767756755599699e-001
         - -4.7197681375890571e-001
         - -4.1835673155420097e-002
         - -4.5904192417995665e-001
         - 1.5707876543868327e-001
         - -4.2154788404911582e-002
         - -1.8268088208030656e-001
         - -1.2798027341710996e-001
         - 3.1672152132297349e-001
         - 1.5700096595374957e-001
         - 2.6497398288065244e-001
         - -3.4280849135020236e-001
         - -1.1459459587033223e-001
         - 1.9798822968304142e-001
         - -5.8639216224759416e-001
         - -1.3469517580851392e-001
         - -8.4144268155100399e-002
         - -7.7559449796096108e-002
         - -1.6167536360801860e-001
         - 1.0034739282730031e-001
         - -2.1014619152929476e-001
         - -1.6361251683671474e-001
         - -1.4619176334888935e-002
         - -1.3687700186896198e-001
         - -1.8308912087226065e-001
         - 2.9847958460845908e-001
         - 3.6667239147721875e-001
         - 5.7570391488536576e-001
         - -5.5418316628827242e-002
         - 1.6775716803795526e-001
         - -9.2289586456506512e-001
         - -2.4750322292085689e-001
         - -3.3250459452096487e-001
         - -8.6067691217185327e-002
         - 4.4363731720625556e-002
         - 1.2405038826394856e-001
         - 1.8850336514153149e-001
         - -4.5029710429004000e-003
         - 1.4136826024603974e-001
         - -1.7266290579836005e-001
         - -2.1153214678111901e-001
         - 3.6954262491242923e-001
         - 4.3127451010036517e-002
         - -5.2435255542983561e-002
         - 8.6828809206890317e-002
         - -3.6481341554531463e-002
         - 8.3213484399302845e-002
         - 8.8985143546039369e-002
         - -5.0975731622608152e-003
         - -8.1655055442024102e-002
         - -6.6568665117912609e-002
         - 1.2495021905871657e-001
         - -8.0561407926932727e-002
         - -2.3346402804448313e-001
         - 6.4223891302797820e-002
         - -1.2311898321554024e-001
         - 1.8722044056905210e-001
         - -2.1654552650602696e-001
         - 1.1691475638957335e-001
         - -1.5616591512098452e-001
         - 2.3810344130628991e-001
         - 1.1298363991243500e-001
         - -1.0642101203269419e-001
         - 1.4982315615317920e-001
         - -3.0968504398068136e-001
         - -3.1326556817737265e-002
         - 7.6778222865050025e-002
         - -3.9717107859406617e-002
         - -1.2891148091518453e-001
         - 2.2314597660830421e-001
         - -1.7884714422356401e-001
         - 1.9758666116432619e-001
         - 1.7216437792838371e-001
         - 1.3140524420094124e-001
         - -7.5971851296935941e-002
         - 1.4601959182647353e-001
         - -1.9341178291062047e-001
         - 1.5116965640058039e-001
         - 2.4569343549360814e-001
         - 1.2485789825192802e-001
         - -3.9194962035463292e-002
         - 6.2847480448145143e-002
         - 2.1345167377610874e-001
         - -9.1105199467498832e-001
         - 9.7616077106491547e-002
         - 6.1026409642300175e-002
         - -1.9772528367695136e-001
         - 2.1679041339438926e-001
         - -2.4841227300059734e-001
         - 9.5371011129314995e-002
         - 1.3683308185584281e-001
         - 1.5045660727976129e-001
         - -8.1500849920770002e-002
         - -6.1253399661434882e-001
         - -1.0565368009320866e-001
         - 1.2252498248976423e-001
         - 2.2537336417371903e-001
         - 1.8503073952381754e-001
         - -5.6944908999274062e-002
         - 2.9746057287068217e-001
         - 5.3242313205686675e-001
         - -5.5971736536650418e-001
         - 7.4998666371218811e-002
         - 3.3595072154606019e-002
         - 1.9814131609278776e-001
         - -1.9837039493442951e-001
         - 2.7462372064977616e-002
         - -2.1885515678590064e-002
         - 7.1223278503458179e-002
         - 4.5170866300762516e-002
         - -2.8876581396197198e-001
         - -2.2490332824510656e-001
         - 1.8535226956229342e-001
         - 1.8259488789175213e-001
         - -6.8020652736427711e-001
         - -8.3820629271747632e-003
         - -1.7805143982267546e-001
         - 2.1228719682197636e-001
         - 2.4822223219266912e-001
         - -6.2617331324994627e-002
         - -1.1562656709930837e-001
         - 9.5548468905398615e-002
         - -7.0433312612380214e-002
         - -2.1589050650144984e-001
         - 3.1320590863546338e-001
         - 1.2908108444161376e-001
         - 4.9554776854355392e-001
         - 8.5019516134601902e-001
         - 5.2617385862135269e-002
         - 1.6569136830073461e-001
         - -1.2420873082142423e+000
         - -1.6476532410143374e-001
         - -2.5114113198453081e-001
         - -6.6327820085788713e-001
         - -1.4341885440272416e-002
         - 1.7553273767072988e-001
         - 2.8149797773525143e-001
         - 8.9057761096808727e-002
         - 1.6906335139184919e-001
         - -1.6588437478617682e-001
         - -2.4653977228940815e-001
         - 5.1214689183784212e-001
         - 2.4963911895045869e-002
         - -3.7455802416805550e-001
         - 4.3345944575663287e-001
         - -5.5320658077341885e-002
         - -5.3022516031895610e-002
         - 1.9103190742698173e-001
         - -1.0014158020534046e-001
         - -2.0145471241954052e-001
         - -1.8808691838544467e-001
         - 2.3886892471378454e-001
         - -2.1689828576325965e-001
         - -1.6518335339108589e-001
         - 1.3448394250274251e-001
         - -1.3811600144344374e-001
         - 3.2272093925023876e-001
         - -1.5983554007104400e-001
         - 2.7490758411529098e-001
         - -5.3353611646799824e-002
         - -1.4794807402599587e-002
         - -1.6337090366571916e-001
         - 1.8568416106029018e-001
         - 1.3856226468619343e-001
         - -1.1038754071236426e-001
         - -7.2541541541635182e-002
         - 2.6072834562526964e-001
         - 1.6874905658981804e-001
         - 1.7059670542151906e-001
         - -5.9717892251390951e-002
         - -1.5379725905226671e-001
         - 1.6340016046115613e-001
         - 7.3168259866331835e-004
         - 3.5095656340344429e-002
         - -4.9394353996330070e-001
         - -1.4256039143200022e-001
         - -3.0814098875743612e-001
         - 1.6215443022536710e-001
         - 1.6767346271789330e-001
         - 1.9167459958743898e-002
         - -9.1246869471457062e-002
         - 3.0184120543353599e-001
         - 2.5501906518902887e-002
         - 1.6199912636928951e-001
         - 5.1748210849445009e-001
         - 1.2478919759028706e-001
         - -1.0176027911856270e-001
         - 2.3828066612980883e-001
         - 2.5606638228971712e-001
         - -1.3510016434566202e-001
         - -3.0955924078300390e-001
         - -1.6214054767192923e-001
         - 1.6073058874460436e-001
         - -3.3900322352359714e-002
         - 1.9347523214760173e-001
         - 1.8649424541363053e-002
         - 9.1822507918874779e-002
         - -1.7062389559207963e-001
         - -4.2828297518878629e-002
         - 1.6157769804406419e-001
         - 1.3556196635850632e-002
         - -1.8942795000406726e-001
         - -2.5987897632989798e-001
         - 7.3952693844760581e-002
         - 4.6760548171988691e-003
         - -2.0625384019649137e-001
         - -9.7328233353704385e-002
         - 1.3854976946783533e-002
         - -1.9697704575518300e-002
         - -8.6712011783825912e-002
         - 4.6119832617392509e-001
         - -1.3334577717218762e-001
         - -1.8232344178936169e-001
         - 3.1491306330645050e-002
         - 2.8084295091728301e-001
         - -2.4310305912585589e-001
         - 1.8158774520103445e-002
         - -1.3035135585362717e-001
         - 2.6888747462472251e-001
         - 6.6183285471866457e-002
         - -4.1822321979874527e-001
         - -2.6836056348592666e-002
         - -3.2671288398471687e-001
         - 4.5524543528321082e-002
         - 6.6538678449092531e-002
         - -5.1596001924145407e-001
         - 2.5004041893667212e-001
         - -7.9443350611127206e-001
         - 1.6185335956094188e-001
         - -2.3664740818094374e-001
         - 3.8413164124928356e-001
         - 2.4876727708124577e-001
         - -3.2364852103460462e-001
         - -7.9231852970569927e-001
         - 1.0417335114649653e-001
         - 4.3615045975872235e-002
         - 2.3623638979125117e-001
         - -1.0176133168262844e-001
         - -3.0710383779668469e-002
         - -1.6500428635135161e-001
         - -1.8653080553093504e-001
         - 1.8573188266786744e-001
         - -7.7599646772638420e-002
         - -3.1835681600707949e-001
         - 5.1283203132794852e-001
         - -4.4782879386305478e-002
         - -2.6404383160142830e-002
         - -3.8093543477176757e-002
         - -2.0839290776321082e-001
         - -1.0405919755081543e-001
         - 1.9636131074379995e-001
         - 2.3507151484266658e-001
         - -1.4326120644695092e-001
         - -1.9997377023120372e-001
         - 3.4099885584603751e-002
         - -3.0702909582199100e-001
         - 3.3711724185511965e-001
         - -3.8082863026773378e-001
         - 6.4968371423216265e-002
         - 8.8312284913604017e-002
         - -3.8381856453455654e-001
         - -3.1578393497622975e-001
         - -5.5367707531745705e-002
         - 3.9270447762242276e-002
         - 1.2749422556674192e-001
         - -1.7954145136891722e-001
         - 2.4496312933132650e-001
         - 4.2551606203062663e-002
         - 1.2752868338010501e-001
         - -1.5430069523844939e-001
         - -2.4415917188765143e-001
         - 1.6712735716238335e-002
         - 1.1224195967624580e-001
         - -1.1877733316902865e-001
         - -1.4653705579339540e-001
         - -4.2306347485786822e-001
         - -2.4053285531097598e-001
         - 1.2003468278691910e-002
         - 1.2865835975435388e-001
         - -4.4801579437543614e-002
         - 2.0617395938287750e-001
         - 9.2153032029845483e-002
         - -1.0236318499069311e-001
         - 3.6492184116221948e-001
         - 5.4284198988290699e-001
         - 5.3504724589558759e-002
         - -1.9365306294132986e-001
         - 1.3752152125251155e-001
         - 7.3590505265005851e-002
         - 1.2943851359546155e-001
         - -2.2763403433477633e-001
         - -6.3214784197689028e-002
         - -4.2814868198704406e-002
         - 2.3149044499823893e-001
         - 1.8636264649943329e-001
         - 6.5959979506576463e-002
         - -4.3452529295539832e-002
         - -3.2062744103488680e-002
         - 7.3422859924581721e-004
         - 4.1774364285054828e-002
         - 9.5845467674715260e-002
         - -4.0037783483486084e-001
         - -1.1273922003092715e-001
         - -4.9458584451914568e-002
         - -2.2659267908886727e-002
         - -1.2562092456464782e-001
         - -1.6301493659611879e-002
         - -1.7510514917885120e-001
         - -6.5886665958723847e-002
         - -2.1781060283183856e-001
         - 9.6978219336089258e-002
         - -4.8329445759454207e-002
         - 6.5400805876439691e-002
         - 2.3802410063595382e-002
         - 7.8898710054314522e-002
         - 1.3447086902756707e-002
         - -4.9833450065392616e-002
         - 2.5435749948648778e-002
         - 2.3364440060101360e-001
         - 1.8169204614837378e-001
         - -2.9988745359071112e-001
         - -5.6434217504881028e-002
         - -2.0506489214129325e-001
         - 7.7232705050297459e-002
         - 2.6467910628743591e-001
         - -2.4855993992457490e-001
         - 6.4722691825431111e-002
         - -2.1055607482219665e-001
         - 2.2114527988126617e-001
         - -8.2375222268285850e-002
         - 1.7389010175486963e-001
         - 2.0943661223965479e-001
         - -2.6621163820703037e-001
         - -5.9443369309469274e-001
         - 1.2273465486776458e-001
         - 1.0006082346713716e-001
         - 1.9117489211640853e-001
         - -1.3756600942471467e-001
         - -1.8034329806787982e-002
         - -1.7147230986029180e-001
         - -5.2430918831667825e-002
         - 1.9225407256893801e-001
         - 3.2121875481380090e-002
         - -2.1834320576168254e-001
         - 3.3636551600252979e-001
         - -1.1301755686454391e-001
         - 8.6231359991635198e-002
         - -9.4680809318212655e-002
         - -1.4202941221571225e-001
         - 4.5894332265514641e-002
         - 6.6340656864194852e-002
         - 2.7337434564737229e-001
         - -2.0383240761582488e-002
         - -2.1456967744005426e-001
         - -4.9868569039840466e-002
         - -2.3478470887867997e-001
         - 1.0625591548484446e-001
         - -3.7656000727437938e-001
         - 9.4922972906431632e-002
         - 9.3491421520702805e-002
         - -2.7698618957198939e-001
         - -5.7063302207388707e-002
         - -1.2077737585332637e-001
         - -1.2836489018520289e-001
         - -3.0977262755342849e-001
         - -1.3379020222460289e-001
         - 1.1238212967482537e-001
         - -1.2606877118430202e-002
         - 9.9754071450189316e-002
         - 2.5415863995081785e-002
         - -3.2587366379324294e-002
         - 3.9868967166850088e-002
         - 6.5906811770682194e-002
         - -8.5613902929681671e-002
         - -6.4886281468085130e-002
         - -2.2832128860620798e-001
         - -2.4232005564248831e-004
         - -1.4295930918336988e-002
         - 5.2243091677196839e-002
         - 1.7333223879001908e-002
         - -9.8475446507276895e-002
         - 1.8460758374996181e-002
         - -5.3711478360937211e-002
         - 4.1204922623412499e-001
         - 1.1791441468722837e-001
         - -6.1139515275887152e-002
         - -1.3310668140869397e-001
         - 1.2917495453287270e-001
         - 1.0391905122223648e-002
         - 3.5773549000886340e-001
         - -1.8471126656045209e-001
         - -3.2491697019375515e-001
         - -2.6134802080637448e-001
         - 1.5411585124969204e-001
         - -3.9004737787068117e-002
         - 2.1534861737392941e-001
         - -1.6567421051691669e-001
         - -9.1956133853511257e-002
         - 7.8965348209591696e-002
         - -5.6900205301824380e-002
         - -2.2097655426026283e-001
         - -3.3987973214821560e-001
         - 7.9002245498225425e-003
         - -3.8806984475685929e-001
         - 3.0742250844542671e-002
         - -2.0190496522905052e-001
         - -2.7266519649420551e-001
         - -1.5227023632399064e-001
         - -6.2298463218757205e-002
         - -1.0160826049171426e-001
         - 3.3456139687535308e-001
         - -2.1817972809843114e-002
         - 6.9897721297952050e-003
         - 1.5162838215261576e-001
         - -1.3544160401711411e-001
         - 1.1011698369592404e-001
         - 1.1872807212801181e-001
         - 5.0918213329868692e-002
         - 9.5681595259374072e-002
         - 2.6816919210745022e-001
         - -3.7765412827380873e-001
         - -2.1737985822771741e-001
         - 4.8076463660970584e-002
         - -5.8800175720033217e-002
         - 9.2012749355981222e-002
         - 9.9221187593774199e-002
         - 1.2204655426394510e-001
         - -1.7426609839775321e-002
         - 1.2299617646229848e-001
         - 2.6181876109760091e-003
         - -5.1823987350595277e-002
         - -1.2442207388151734e-001
         - -8.5171617455166423e-002
         - 3.5913797645855332e-002
         - -3.9148184690330927e-002
         - -5.3756723974165289e-002
         - 5.2006590264775568e-002
         - -2.3404755450519610e-001
         - -1.5186665211621284e-001
         - -1.6965047822227020e-001
         - -1.0627709911919755e-001
         - 3.3170247111407286e-001
         - 3.3256251101567319e-001
         - 1.0131635721471241e-001
         - 2.6951430200359222e-001
         - -2.2054036508970595e-001
         - -1.8270154929915929e-002
         - 2.5149757421951538e-002
         - -5.8520669477768100e-002
         - -1.3583033212302742e-001
         - 1.6193725739041362e-001
         - 1.7045609895851085e-001
         - -3.6761851771462919e-002
         - -3.5673552791929986e-001
         - 6.3423865073927194e-002
         - -4.0070081296468718e-002
         - -2.0766371674942508e-001
         - -2.7943269867411008e-001
         - 1.3322514933056581e-001
         - 2.8452186252405026e-001
         - -3.0098228118090387e-001
         - 4.7864085863965032e-002
         - -2.4342860465878213e-001
         - -2.0356379004640446e-001
         - -1.8187008213397357e-001
         - -6.5978974344581068e-002
         - -8.6666577268739040e-002
         - 1.5848771743962281e-001
         - 1.0206570667502182e-001
         - 4.0962450786316762e-001
         - -2.4013015588595320e-002
         - -1.0846210125227350e-001
         - -1.5784303933434882e-001
         - -4.1181915316085591e-004
         - -7.2937359635626753e-002
         - -9.9670715857741787e-002
         - 1.4518810496034093e-001
         - 1.0109868052639108e-001
         - 5.2088907009943203e-002
         - 6.2214704287166876e-002
         - 8.5009530987454632e-002
         - -1.1263398594554323e-001
         - -1.6001788613696907e-001
         - 3.0073588099006227e-001
         - 1.2972086862019319e-001
         - 6.4653901832930794e-002
         - -5.0847153512682833e-002
         - -1.7775366448961667e-002
         - -3.5919398243170746e-002
         - 3.5867017063869705e-001
         - -6.1886467785742520e-002
         - -3.8010997286869047e-001
         - -2.0277153244197330e-001
         - 2.0150426414211053e-001
         - -1.1326086116995489e-001
         - -2.3351576711828227e-002
         - -1.9178939695606440e-002
         - 2.0369586813539075e-003
         - 1.4275125854855911e-001
         - 1.2103092686832009e-001
         - -1.2334102607352769e-001
         - -1.1667943309509675e-001
         - 7.5573609242124201e-003
         - -2.5751490962498896e-001
         - 3.2179500134716446e-002
         - 7.4773380868762243e-002
         - -2.1180310965717469e-001
         - -8.9586794386765270e-002
         - -1.5916349826042794e-001
         - -7.6819730045026527e-002
         - -1.1248779682279050e-001
         - -1.0484462730898197e-001
         - -1.2626588104978846e-002
         - 8.3099462711872241e-002
         - -1.3715494904756896e-002
         - 6.8687746514036932e-002
         - 2.1386452595016681e-001
         - 3.4167549047652346e-001
         - 2.4264527548333578e-001
         - 1.8483121389408361e-001
         - -3.0802584801024302e-001
         - -1.7261830627579536e-001
         - 4.5665512436096949e-002
         - 1.8171944169326062e-001
         - -1.2222254176203426e-001
         - 1.1463334997265337e-001
         - 1.9498950839031207e-001
         - -1.6696837621049743e-001
         - 2.1824072002330861e-003
         - 2.2403204782991287e-001
         - 1.0302159122192374e-001
         - -3.2752812541791332e-001
         - -1.9707781441786668e-001
         - -1.2011193426809662e-001
         - -2.4498964549872951e-001
         - -4.1735911431402643e-002
         - -7.9318227696894159e-002
         - -1.8231834369466590e-001
         - -2.1874609466449729e-001
         - -1.7716126104590391e-001
         - 3.3168014403188728e-002
         - 7.2833592004359654e-002
         - 9.4086730610958458e-002
         - 9.3570027748782411e-002
         - 4.9763531897372877e-003
         - 1.0599811701260214e-001
         - 1.8998749505075831e-002
         - -1.6063010481776491e-001
         - -1.6502374384168145e-001
         - -5.4799567019597650e-002
         - 2.0322164149253963e-001
         - -1.3019308284031481e-001
         - -7.0102335043669098e-002
         - -2.1326139492577947e-001
         - -2.3107427023452234e-001
         - -3.3775449088010190e-001
         - -2.3839277278869414e-001
         - -1.6637201976245036e-001
         - 1.2667047902820242e-001
         - 3.3113135471164207e-001
         - -2.1703644011865098e-001
         - 1.2567354606516901e-001
         - -3.3121897117382670e-001
         - -1.1295419426543099e-002
         - -5.5063534111153556e-001
         - -4.0443561748848597e-002
         - 8.2071467272036860e-002
         - 2.6787110670416348e-001
         - -5.3222177158356559e-002
         - 2.3551759972549235e-001
         - -1.6415867956442803e-001
         - -1.7258092888527130e-002
         - -3.1413068122417087e-001
         - -2.2531834175581439e-001
         - 2.2833399535655753e-002
         - 4.2159667134689063e-002
         - 2.1378733833335986e-001
         - 3.1421743109284778e-002
         - 7.9553621494190749e-002
         - -3.6516567273769736e-002
         - -1.4391035794020599e-003
         - -6.2702806884176787e-002
         - -2.0254006481813316e-001
         - 1.2290125263943953e-001
         - 7.7626403131287736e-001
         - 8.8393437090658444e-002
         - -2.8768311663429809e-003
         - 1.2822914682744657e-002
         - -6.0690042635416774e-002
         - 1.0686855236187782e-001
         - 4.6428646052876367e-002
         - -3.3679877569167344e-001
         - -1.5537318326952784e-001
         - 7.0199443532447336e-002
         - 3.6627916395203665e-002
         - 7.2966176118015966e-002
         - 1.1833768559437019e-001
         - 1.4362930024774953e-001
         - 2.6419590211382654e-001
         - 1.4011510511354749e-001
         - -1.1422120407518933e-001
         - -2.2849931323299116e-001
         - 4.3098662655871998e-002
         - 1.2160087449873052e-002
         - 8.1479303477717910e-002
         - -1.6643183439297649e-002
         - 6.4867129357922729e-002
         - 1.1872501617006885e-001
         - -2.7658924334778628e-001
         - -9.0532598347683541e-002
         - -5.4534682393757128e-001
         - -1.9121015732440899e-001
         - 7.2070601246908395e-002
         - 3.9465710373082226e-002
         - -1.9457683634647974e-001
         - 2.5698673312660530e-001
         - 1.3442041475361599e-001
         - 4.7485591064794602e-001
         - 2.7256924203204957e-001
         - -6.7857388389605103e-002
         - -4.9461430827341467e-002
         - -1.2230716846624490e-001
         - -1.6720905134326235e-002
         - 1.5583049877451016e-001
         - 1.8651842478604019e-001
         - -2.5813155640627411e-001
         - 1.3219004239335461e-001
         - 4.1757505970929545e-002
         - 3.2741236573242807e-002
         - 1.8728555930268379e-001
         - 8.9817842122887501e-002
         - 2.3721087510859265e-001
         - -9.8915276407560287e-002
         - 7.7612240128049917e-002
         - -6.1572917806137573e-001
         - 4.5942508169049413e-002
         - -1.6663589428000242e-001
         - -1.4219251800061908e-001
         - -1.6830005771375642e-001
         - -1.6804795519192842e-001
         - 3.5621930407907253e-002
         - 2.0400989238841397e-001
         - 1.4751988903770873e-002
         - 4.8509513174247711e-002
         - 1.5780648869729147e-001
         - 3.2572550459462599e-002
         - 7.2122156667368667e-002
         - -1.8792786784185253e-001
         - -3.0280154120594660e-001
         - 4.5682126375853914e-002
         - 2.2242157506740798e-001
         - -2.3638816766921525e-001
         - -2.3513923871253742e-001
         - -4.0116093456793933e-001
         - -5.0746251393120290e-001
         - -2.1646637620205975e-001
         - -2.0473502728139176e-001
         - -1.4934877034092128e-001
         - 3.8828588776341481e-002
         - 4.5931755876933644e-001
         - -3.4463996519860046e-001
         - 9.0080708070217286e-002
         - -2.6907437821711644e-001
         - 9.1816690838178172e-002
         - -3.8902853393372816e-001
         - -9.4593473006924889e-002
         - 2.7837002516456177e-001
         - 3.1651385274961696e-001
         - -1.0969149589338457e-002
         - 2.7208323317312127e-001
         - -4.6055523793439590e-001
         - -4.8446518784321421e-002
         - -4.1509612438150706e-001
         - -2.1895882126301985e-001
         - -2.1356427537115721e-001
         - 2.7937098664709670e-001
         - 1.9556130166020785e-001
         - 2.2158325534052857e-002
         - 1.5403988849341063e-001
         - 5.3998736805220313e-002
         - 2.0578309043348435e-002
         - -3.3465181056390886e-001
         - 4.9939113460290641e-001
         - -4.4602279707882370e-001
         - -2.5946302999266996e-001
         - 1.3789827466952939e-001
         - -8.0712696369953332e-002
         - -2.5689538647442006e-001
         - 4.1431759550682651e-002
         - 1.5883838417722979e-001
         - 3.0676387754764105e-002
         - 1.1408841593132905e-001
         - 8.5470996162534993e-002
         - 2.2402941026455658e-001
         - 1.4742446162759162e-001
         - 3.3082702506492652e-002
         - -6.3516587767026414e-002
         - 1.3355383518138481e-001
         - -1.4281006978003505e-001
         - 1.3368026367149816e-001
         - 9.9477146475984241e-002
         - -2.5068793569457448e-001
         - -1.8578680427786057e-001
         - -1.1800422065250662e-003
         - 1.0110175388380295e-001
         - 1.5823910611677031e-001
         - 1.0481746361290767e-001
         - 3.5354952009199114e-001
         - 6.8740009469682103e-002
         - -5.6678504650832295e-001
         - -2.4587629261383137e-001
         - 2.9269478026069667e-001
         - 3.2292103217409601e-001
         - 1.7711135910004835e-001
         - 2.2778299192337487e-001
         - -4.5989967745642783e-002
         - -2.5118132666186327e-001
         - 1.2561172877168222e-001
         - 1.9966780539136444e-001
         - -1.9942714859374425e-001
         - 2.8362777881756677e-002
         - 1.5704363579477351e-001
         - -6.2115300703858151e-002
         - -2.2609794181958323e-001
         - 1.3431920866554395e-001
         - 2.8289653247456764e-001
         - 1.5742503285025752e-001
         - -3.0398136610113380e-001
         - 9.0638460016581037e-004
         - 1.1389053208920191e-001
         - -4.7518488515720936e-001
         - -2.2168848602852895e-001
         - -9.6182598489071361e-002
         - -5.2254793024315604e-001
         - 9.7370350797607641e-002
         - 3.1864566868623462e-001
         - 1.4541349550615518e-001
         - -4.1771179302489726e-002
         - 2.9788000399730126e-002
         - -5.4969452917298836e-002
         - -9.4361351266444488e-002
         - -3.7539138789383683e-002
         - 4.1539581519288299e-002
         - -4.6436220350278740e-001
         - -4.3012579167152190e-002
         - -1.3467060143617596e-001
         - -2.3447690085726536e-001
         - 1.8805688536791954e-001
         - -3.7782479201191504e-001
         - 1.3880206758175356e-001
         - 1.7679062108553528e-001
         - 3.3906696175542739e-001
         - -3.3371044239802994e-001
         - -1.9827340344477482e-001
         - 1.5633579486734842e-001
         - -1.3965667010469315e-001
         - 2.5697882269882327e-001
         - 1.6487698028300152e-001
         - 2.5064704765305729e-001
         - 1.5630860353407345e-002
         - 3.1097860912765257e-001
         - -2.6965328432685992e-001
         - 1.5661274533865951e-001
         - -2.6378004751963469e-001
         - 1.8400107343347002e-001
         - 9.3920636428885401e-002
         - -2.6058346430053836e-001
         - -5.2793531412863831e-002
         - -4.4273851519354444e-002
         - -3.2985231317581359e-001
         - -3.9809327459822956e-002
         - -4.0377311480599518e-002
         - -4.8912584417027016e-001
         - -7.1754872479262807e-002
         - -1.3737502094299864e-001
         - 3.7651372753520557e-001
         - 1.3882425456879688e-001
         - -4.3835770931165147e-001
         - 4.0947777175903305e-001
         - 1.9724716496983827e-001
         - -2.2339060251354748e-001
         - -1.2635643416750428e-001
         - 1.4761042087601056e-001
         - 4.4960658766813050e-001
         - -7.1904351838446789e-002
         - 5.7138969635549222e-002
         - -2.1829585100710133e-001
         - -2.6395721941633171e-001
         - 2.4958558781913681e-001
         - 2.5831465500752437e-001
         - -7.8414757147846778e-002
         - 1.1565002414467253e-001
         - -4.8292066315516217e-003
         - 3.2250339834672814e-001
         - 3.0924127492513520e-001
         - 1.0759952347459412e-001
         - -1.1720164269830910e-001
         - -1.8852723293383269e-001
         - 1.9564855294065311e-001
         - -1.6602888185025055e-001
         - 2.9373840379943056e-001
         - 2.1526604684940068e-001
         - -1.7639810681670920e-001
         - -2.5268781301887805e-001
         - 3.4089023141732469e-002
         - -1.4868321350290914e-001
         - -1.0069977363002248e-001
         - -2.5706407585722779e-001
         - -1.9081522852037242e-001
         - 2.3746863598888121e-001
         - 1.4635370837449602e-001
         - -6.7985079248957164e-002
         - 5.0847923492260329e-003
         - -3.0136057348265599e-001
         - 2.1771657692463936e-001
         - 9.3254155337216330e-003
         - 7.2399587125305101e-002
         - 2.3029365143399202e-001
         - -2.7992451011020986e-001
         - 3.7614141942674956e-002
         - -1.8283699900222057e-002
         - -6.7928852813104984e-002
         - -1.0203409620323588e-001
         - -3.0153929692791293e-001
         - 4.3286145150643707e-001
         - 3.4592406076824045e-001
         - 7.4735938436349514e-002
         - 6.1311142782313754e-001
         - -1.0795586105081154e-001
         - 1.2349240617295631e-001
         - -2.5201097809475120e-001
         - -2.9485111670707620e-001
         - -4.0653766256986815e-002
         - -2.0480746027848157e-001
         - -4.0818962217061883e-002
         - 6.3468005937557526e-002
         - 8.4903513631748737e-002
         - 2.9306010112359315e-001
         - 5.6130769796608040e-002
         - 6.7448064183547873e-002
         - -5.5845616178567233e-003
         - 3.8088909619058270e-001
         - -6.4456498149338848e-002
         - -4.5559089502075023e-001
         - 9.7638991201147551e-002
         - -1.4508171117882475e-002
         - -8.4668005278428882e-002
         - 2.6467694002334141e-001
         - -4.8317536455067261e-001
         - -5.6590406713028368e-002
         - 2.0660003364861698e-001
         - 1.1918591883409228e-001
         - -1.4628337834839056e-001
         - -3.2612854223592624e-001
         - 2.5308662637466184e-001
         - -2.5407597262172177e-001
         - -4.8792396418382372e-002
         - 2.2467373804325017e-001
         - -1.8780484161268057e-001
         - 3.7861239060035072e-002
         - 4.4078933065914083e-001
         - 2.4938892631213366e-001
         - 7.8350889434329218e-002
         - -8.3926149832909941e-002
         - -9.8851950176953043e-002
         - 5.4602613504541674e-002
         - 5.1592798982023569e-002
         - 1.7771327695094247e-001
         - -1.3836359854424943e-001
         - 4.3124472172433287e-002
         - -3.7736754025898345e-001
         - -1.0847899835751905e-001
         - 3.5971752687677944e-001
         - -3.9890619995644604e-002
         - 2.9136523717807333e-001
         - 2.2425515724251321e-001
         - 1.5012965603681994e-001
         - -1.0441625970750604e-001
         - 1.5104138847216464e-001
         - -1.3686801200800461e-001
         - -2.3731849232847863e-001
         - 8.2442873013872139e-002
         - -3.1590050376174385e-002
         - -2.0443407297785871e-001
         - 2.4398022408616388e-001
         - 7.0046588353068748e-002
         - 7.5804609010044877e-002
         - -4.5804215134840270e-001
         - -2.2145284843697353e-002
         - 2.0609878608511745e-001
         - 1.0371577147383279e-001
         - -9.2736187268534540e-002
         - -1.4156012007869322e-002
         - 1.3652315972743043e-001
         - 2.3874661869283692e-001
         - 3.2060958392474408e-002
         - -4.3550964141446810e-002
         - -1.1196874250859747e-002
         - -1.8225544061435112e-001
         - -2.7075030164568345e-002
         - 4.8836221260332158e-001
         - -1.1185255140700803e-001
         - 4.6953516696824987e-002
         - -3.1777407708815000e-002
         - -7.3756750604244987e-003
         - -6.4553669022468049e-002
         - 1.3331798088986940e-001
         - 2.1782616755886314e-003
         - -4.0139178649672751e-002
         - 2.9367092319296066e-002
         - -1.4104367610333829e-001
         - 6.0184086784071632e-002
         - 3.0450055714697472e-002
         - -3.4916300174201768e-002
         - -7.9901081563904641e-003
         - 2.0492551887008239e-002
         - -2.5481635804968406e-001
         - 3.1277814908707374e-001
         - -9.6897498192110507e-003
         - -6.2593110495413579e-002
         - -4.8968008569670665e-002
         - -1.6792915609536596e-001
         - 4.0827997821143826e-003
         - -1.6165645779914828e-001
         - 5.8200092191089225e-001
         - 1.8390409148726758e-001
         - 6.5101231967011355e-002
         - -1.3553648227906753e-001
         - -1.4941054026143916e-001
         - -2.4013020610316023e-002
         - 1.8911767267555585e-002
         - -6.9115046234103528e-002
         - -2.5895314865965735e-001
         - -2.0385961650291451e-001
         - 9.2679284812019327e-002
         - 1.2369624670243086e-001
         - 9.6769938139412565e-002
         - -1.4515230628376249e-001
         - -1.2378541307770431e-001
         - 3.2007106972038790e-001
         - -1.9736933028880469e-002
         - 2.8122301336044842e-001
         - -1.5683328177580089e-001
         - -3.2575838300118337e-001
         - 4.8400914262464928e-002
         - -6.8622381543019348e-002
         - 1.1062877358398761e-002
         - 9.5077969835817081e-002
         - -4.8980337796249002e-001
         - 7.5097327069643102e-002
         - 2.1624178523164622e-001
         - -9.0741494428763225e-002
         - -1.2858985167414424e-002
         - -3.9152957792221182e-001
         - 1.4734539971322025e-001
         - -2.7108261040861475e-002
         - -1.4142606484215789e-001
         - 1.1318186627253665e-001
         - -1.7086965762658154e-002
         - 7.1101432193557648e-002
         - 2.9151101023198673e-003
         - 2.3357172095220122e-002
         - 1.2330634987562404e-001
         - 1.6355724456113448e-002
         - -1.1317968701176583e-001
         - 1.2081030708168919e-001
         - -9.7177947484629559e-002
         - 1.2120188323415976e-001
         - -1.0932468045245747e-001
         - -2.1094950288424866e-001
         - -1.9960078553899074e-001
         - -5.5720575873171210e-002
         - 2.7850807234296204e-001
         - 4.5541404494631982e-002
         - 5.2867606383255869e-002
         - 1.3213551035399301e-001
         - -6.7253795965682567e-002
         - -3.3072739936626259e-002
         - 1.9753634865706896e-001
         - 2.4284125726824174e-002
         - -1.4793029308564598e-001
         - 1.2182830027285280e-001
         - 2.4121527806403486e-002
         - -6.9620108716172982e-002
         - -1.3961305490536538e-001
         - -1.0347626805793798e-001
         - -7.4665367033983063e-002
         - -1.5770858778075181e-001
         - 5.5121222536682384e-002
         - -2.1075690899795069e-002
         - -1.6982519877747998e-001
         - -8.3228048469375412e-002
         - 3.5957108710663467e-002
         - -5.7739992682842335e-002
         - 2.4537043517133947e-001
         - -5.7431693191071546e-002
         - -1.8631125153682671e-001
         - 1.7068824699257520e-001
         - -1.4579403228388643e-001
         - -1.6861910824347631e-001
         - 2.8739060576088782e-001
         - -2.7698310113253077e-001
         - -3.0756766326747120e-001
         - -3.2787855875607556e-002
         - 1.2910167412948653e-001
         - 4.5303092052790706e-002
         - 8.9497573364257940e-002
         - 6.8451411437565196e-002
         - -4.6310535694013520e-003
         - 1.1485823562746962e-001
         - -1.3799372069302066e-001
         - -3.5957585709567541e-001
         - -7.3507433088581394e-003
         - 1.3358284742494964e-001
         - 1.3411943730784018e-001
         - -7.7474513211803819e-002
         - -1.9566978159075357e-001
         - -1.2739128857376739e-001
         - -1.9121808413200425e-001
         - 2.4771790349501641e-001
         - -8.5064837982036567e-002
         - -4.0233492519627392e-002
         - -1.1031256925296246e-001
         - -1.4634792509824035e-001
         - 3.4218646090334204e-001
         - 1.3210832741114267e-001
         - -1.5962577369895450e-001
         - 1.9288797335937627e-001
         - 1.1776292464274270e-001
         - 1.5416098094738134e-001
         - -1.9657060291010383e-002
         - 3.8236752901227766e-001
         - -1.7249650274674444e-001
         - -9.2834599542001277e-003
         - -1.4553695053952637e-001
         - 2.6255026821836819e-001
         - -1.9261253484086208e-001
         - -7.8335204353814664e-002
         - 7.7510277898231866e-002
         - -1.9441254857313420e-002
         - -1.2585490289075116e-001
         - 6.4896897739880077e-001
         - 1.6877886288101052e-002
         - -4.3792082204957249e-002
         - 1.7161828207582935e-001
         - -1.2990402962374734e-002
         - -2.7634386115802886e-003
         - 1.2549087524950525e-001
         - -1.7682465862896732e-001
         - 1.6115552031747307e-001
         - -2.4239228143605857e-001
         - 1.1732487969806882e-001
         - -3.1022172298197492e-001
         - -5.7503552005803638e-001
         - 1.4686254110122626e-001
         - 8.2330255073595385e-002
         - -1.9295297828998553e-001
         - 4.1559902823627259e-001
         - -7.3264557278751447e-002
         - -1.6264815932421052e-002
         - -3.5628767225827869e-002
         - -1.0595655031745604e-001
         - 3.0499741037414624e-001
         - -1.2953562219564518e-001
         - 3.5649947206216342e-001
         - 1.0058581470359960e-001
         - 2.4367513582345848e-001
         - -7.2454003638266137e-003
         - 9.3490825169100268e-003
         - -3.1647148418170057e-001
         - 7.4176413560764098e-002
         - 1.2866375227505289e-001
         - -2.1914763689917469e-001
         - -2.2897509421003673e-001
         - -3.6655855696174761e-001
         - 3.2122835317306864e-001
         - 5.2490736897941738e-002
         - 1.6524030645786830e-001
         - 2.5219098317524130e-001
         - 3.5082668114087340e-001
         - -3.2099173730181102e-001
         - -1.5090050470634736e-001
         - 2.0312636572654107e-002
         - -2.4511366214740152e-001
         - -5.1199184467899861e-001
         - 1.2432227276804629e-001
         - -7.0026422217350198e-002
         - -7.1403481444139466e-002
         - 2.4912693897458690e-001
         - -3.4962970024230056e-001
         - -4.3335643467753600e-002
         - 1.8492276442313781e-002
         - -2.5208966587286423e-003
         - -2.2647258028236361e-002
         - -1.6163314249798277e-002
         - 6.7153706337075833e-002
         - -4.9888654796874564e-002
         - 6.3475060954872042e-002
         - -4.8491531945462130e-002
         - 1.5274531005785003e-001
         - -9.2840338714279866e-002
         - -2.7001797302582758e-002
         - -5.3221694220261316e-002
         - 6.8748554012873150e-002
         - 6.9589170578215107e-002
         - -1.6542626960591333e-002
         - 1.4034045796291550e-001
         - 4.6987365991216529e-001
         - -4.1230574477075364e-002
         - -1.6640523867276535e-001
         - 3.2194836943499305e-001
         - -1.5698671066917588e-001
         - 1.4975918340794789e-001
         - 4.0726350708483433e-002
         - -5.2954383549488511e-002
         - -8.9769982803599893e-002
         - 1.2475759388519475e-001
         - -1.9591624565365659e-001
         - -3.8478398214304821e-002
         - -1.4173052590458604e-001
         - 1.0627079609501229e-001
         - 9.7613540091502846e-002
         - -1.0319832083849116e-001
         - -3.3298695735759470e-001
         - -1.0965797701365861e-001
         - 1.6075957675795483e-001
         - 1.6228762012034664e-001
         - -5.7201446356018364e-002
         - -2.8068189204302069e-002
         - 2.7013435826033927e-001
         - -2.0984891730135558e-001
         - 4.0033157207713410e-001
         - -2.2632193313004545e-001
         - 2.3412889123775646e-001
         - 9.4865359488255599e-002
         - 1.0768329236679013e-001
         - 1.3362603970564718e-001
         - -3.5839431698682772e-001
         - -1.7967789532791978e-001
         - 2.5685243637195010e-001
         - -7.2003301400581268e-002
         - 1.8202589472524625e-001
         - 9.9122853720474982e-002
         - -2.8541830362127113e-001
         - -1.2306627594159308e-001
         - -4.5010163385450908e-001
         - 1.7857904933752530e-001
         - 1.9539967436122627e-001
         - -5.6948174550931319e-001
         - 1.6074240962861866e-001
         - 4.2422216640683008e-001
         - -1.9301624388418340e-001
         - -2.9335854724423637e-002
         - -4.0322996132657923e-001
         - 3.2361655555784692e-002
         - 2.8125329080422784e-001
         - -1.5597568510532916e-001
         - 1.1489912113517328e-001
         - 1.0195992221980139e-001
         - 1.4462593839136695e-001
         - -2.3741092039208658e-001
         - -7.9700550454794405e-002
         - 8.0815545938617228e-002
         - 6.0018484026380395e-002
         - -6.1844229985004731e-002
         - 1.1391135790825810e-001
         - -4.2770241178617585e-001
         - 2.8739073513831807e-002
         - -1.1288776464612059e-001
         - 2.6823042226533009e-002
         - -1.4155695644617633e-001
         - -1.7898968700882947e-002
         - 1.5268493212836842e-001
         - 2.7670932073609378e-001
         - -1.9336058046842530e-003
         - 1.5207539802418643e-001
         - -1.1013251580248237e-001
         - 3.7511102186939482e-001
         - 3.3201458798843836e-001
         - 1.1041812980246507e-001
         - 2.7193538529060479e-001
         - -9.3018524536796751e-002
         - -1.6429876869644691e-001
         - -2.6108789335947369e-001
         - -5.2968194997281157e-002
         - -1.2155529075459227e-001
         - 1.5330623904829158e-001
         - -2.4495885388543140e-001
         - 6.2202758083332588e-002
         - 5.4013109916387546e-002
         - -1.4462998642360633e-001
         - -1.3680634161241026e-001
         - -9.4319552926344044e-002
         - -2.2543790918279760e-001
         - -2.2160495076007586e-001
         - -5.7065215626180478e-002
         - -9.7753254546750309e-002
         - 5.0128382000006626e-002
         - -2.5404854991481535e-001
         - 2.5843999996797840e-001
         - -3.2543304896439218e-001
         - -1.0921815331990893e-001
         - 4.1072184585005660e-002
         - 1.9192042075428285e-002
         - 2.2425151291051557e-001
         - 1.1783828045258538e-001
         - 2.7870862386946377e-002
         - 1.2675907235576953e-001
         - -1.9639647137643660e-002
         - -1.1434635984308056e-001
         - -1.0390816122852985e-001
         - -3.6665895928498471e-001
         - -1.1006702882045773e-001
         - 1.6482291959615200e-001
         - -3.1583520716701959e-002
         - -2.2324324688402894e-001
         - 1.5286728486392164e-002
         - -4.4092369156645539e-001
         - -8.0698462721756445e-002
         - -7.8558672226778023e-002
         - -9.0031912347688023e-002
         - 1.0353856542207697e-001
         - 7.3314300332522010e-004
         - -3.4250915051083616e-002
         - -1.9692625193376953e-001
         - 9.6626352358718127e-003
         - 4.5730248582436774e-002
         - 7.5606057236362434e-002
         - 5.7914977988254783e-002
         - 3.2015088292527838e-001
         - -1.2409609926469399e-001
         - 3.1198897407267484e-001
         - -1.0282712742999514e-001
         - -7.3932939278035362e-002
         - -3.0349400697976165e-002
         - 1.0347517174283562e-001
         - 6.5706389542308896e-002
         - -7.3937170158773158e-002
         - -1.1560881996166257e-002
         - 3.1904680535273060e-002
         - 3.3083245813447294e-003
         - 1.1691091715314229e-001
         - 8.6507688956497672e-002
         - -2.8271624056111305e-001
         - -3.5511906907217741e-002
         - -8.5417968069662439e-002
         - 8.5238656854637634e-002
         - 1.9145981310575119e-001
         - -4.3390664661307127e-001
         - 3.1656751498192581e-002
         - 5.1025860603571516e-001
         - -8.9577856581280729e-002
         - -3.1799685111125814e-001
         - -3.0643172891123371e-001
         - 8.8925674822211309e-002
         - -3.1371569376357740e-003
         - 2.3687828548243722e-002
         - 2.3649109550833097e-001
         - 2.6983795504870386e-003
         - -2.2774292289590319e-002
         - 5.4700131867809455e-002
         - 2.4655733674595309e-001
         - 2.9702841800599122e-001
         - -1.0623695283957318e-001
         - -2.8794470424686902e-001
         - 1.1060180319953149e-001
         - -1.8642704762583404e-001
         - 1.8389179343776196e-001
         - -1.2590900527402586e-003
         - -4.5136503372198919e-002
         - -1.0332823128539191e-001
         - -1.5581407475083584e-002
         - 1.4372951862406172e-001
         - 1.1746546683455283e-001
         - 3.3998853297509296e-001
         - 1.9249737475011611e-001
         - -9.3082144695687846e-002
         - 4.0064143522272055e-001
         - 3.1274916486467474e-001
         - 3.8613815539350345e-002
         - 1.7169586066313865e-002
         - -1.4080717179809685e-001
         - 6.8259101025814881e-002
         - -4.9451212628413677e-002
         - 6.1551041927617206e-002
         - 8.8424432817092752e-002
         - -1.0894820631848557e-002
         - -3.5041868432447143e-001
         - 4.0105658454302411e-002
         - -2.2827049475255240e-001
         - -3.6899149964802348e-002
         - -1.2676536816161760e-001
         - -2.3181792806425278e-001
         - 1.5478222830810445e-001
         - -4.5066352290793086e-003
         - -1.2094132938071589e-001
         - 6.3488352589273780e-002
         - -1.4857028072739303e-001
         - 1.2394498382714932e-001
         - 1.2365252686413865e-001
         - -2.1323167405238130e-001
         - 2.5720284606463584e-001
         - 1.9760181083977246e-001
         - 1.8524806945771866e-001
         - -2.9860758342982235e-001
         - -1.1969317975734338e-001
         - 4.4262197883898668e-001
         - 1.1844682090958723e-001
         - 1.5996446344137680e-001
         - -1.0305702551094875e-001
         - 9.3166458197756721e-002
         - 3.2543894460401424e-001
         - -3.3827014445445586e-002
         - -2.8505227853758919e-001
         - -4.1907537764458608e-001
         - 9.7508851696643070e-002
         - -3.1108024802446332e-001
         - 2.3307641786829900e-001
         - -3.8330374532727668e-002
         - -5.7934437718076082e-001
         - 4.8018577441555382e-002
         - -3.1317017206283365e-001
         - -1.0946971153629700e-001
         - -1.7948775259065797e-001
         - -6.1638360155876438e-003
         - 1.0739845890055814e-001
         - 2.1053507868996818e-002
         - -6.4573686530876051e-001
         - -4.2056670105571466e-002
         - 1.3970526111345752e-003
         - 1.3998420548646923e-001
         - 3.1715671416568397e-001
         - 5.5980643119635616e-003
         - 3.8480108839713326e-002
         - 5.7835298710703711e-002
         - 1.4039657601590752e-001
         - 1.9299529771961141e-001
         - 1.1922982636132783e-001
         - -2.4862481852780754e-003
         - 1.1425729296547442e-001
         - 8.3719162793631646e-002
         - -2.8988652662462583e-001
         - 7.4007487574538674e-003
         - -3.7695383133652710e-001
         - 1.6518775080220277e-001
         - -2.8575532673349019e-001
         - 1.1723741733997886e-001
         - 6.1748031121450803e-002
         - -3.2696571543694757e-002
         - 1.0429572383627800e-001
         - 7.5954255525657002e-002
         - -1.6265676287754627e-001
         - 2.9788324772484065e-001
         - -6.0714157637152422e-003
         - -1.7019043736094019e-001
         - 8.2041531374308585e-002
         - -1.3974379719901137e-001
         - 9.0670962570176969e-002
         - -1.3680354517011845e-001
         - 2.8276758454804646e-001
         - -2.8629650856186289e-001
         - -1.4086402066064721e-001
         - -1.4380945131531564e-001
         - -9.3321931835352548e-002
         - -2.4504656034988076e-001
         - 9.6815285686561364e-002
         - 2.8769559995411814e-001
         - 2.4661168882645620e-001
         - -3.2921687901078567e-001
         - 1.0982408662763651e-001
         - -3.1218779690050640e-002
         - -1.5824986094520258e-001
         - -4.4470368654744220e-002
         - 1.0821473424316515e-001
         - -1.6650608863804045e-001
         - -1.3539766562965033e-001
         - 2.6892459763085036e-001
         - -1.2568676916846303e-001
         - -1.7432580260484695e-001
         - -2.8374154390360156e-002
         - 1.6936629844133083e-001
         - 1.8905186422896428e-001
         - 1.9571481285038050e-001
         - 1.3516322870864284e-001
         - -5.2179640437215896e-004
         - -7.8006677493949711e-002
         - -5.5378052173661298e-002
         - -1.5152127894447881e-001
         - -1.1071192351633345e-001
         - -6.0919966924719730e-002
         - -1.3173362153238874e-001
         - -4.3259079936156984e-002
         - -1.9282525359924621e-001
         - 1.5389044079944653e-001
         - 3.6284205365906175e-001
         - -2.0238075243350401e-001
         - -5.8850629195458151e-002
         - -1.2978405665764589e-001
         - 2.6168156355951548e-003
         - -1.8651276235723130e-001
         - 1.7113069572737072e-001
         - 1.9973425479601437e-001
         - -1.1595072804928375e-001
         - -1.2677362844771053e-001
         - -8.8917029874521464e-002
         - 1.1070128500740975e-001
         - 1.7942195623813453e-001
         - 1.7840985092170011e-002
         - 2.6284688631781983e-001
         - -2.1704796897700598e-001
         - -1.2604445957634144e-001
         - 1.7472989126071589e-001
         - -1.1018029242222940e-001
         - -3.3493785321910267e-002
         - -2.4428443707880096e-001
         - 9.1240138681450339e-002
         - -3.8620780746989336e-001
         - 1.7576820990235442e-001
         - -1.2288918607590005e-001
         - -3.8660170126055216e-001
         - 8.6463496227602403e-003
         - -2.3057358935965308e-001
         - 5.1844981673553808e-002
         - 1.0388648755370473e-001
         - 5.1969134013908666e-002
         - 1.3588227190288399e-001
         - -1.9067638951707791e-001
         - -3.0013641428046184e-001
         - -4.9221155703957041e-002
         - -4.9711163816823764e-002
         - 9.8343068347725451e-002
         - 1.9194173210693269e-001
         - -2.2040534540886533e-001
         - 1.2618053218514391e-001
         - -1.8699445783313701e-001
         - 8.3481546193384694e-003
         - 2.6646073138605714e-001
         - -1.6823143803044646e-001
         - -2.5075078197868572e-001
         - 5.9129159618883476e-001
         - 1.0693039867808989e-003
         - -2.0976675953046817e-001
         - -3.0483697667168896e-001
         - -1.5165664580360780e-001
         - 3.4740700429437227e-001
         - -1.1586775816588037e-001
         - -1.5332674068641022e-001
         - -3.8688968377566946e-004
         - -4.0359430939779686e-002
         - 1.8104162813194425e-002
         - -9.1483409155508469e-002
         - -2.0783909748363769e-001
         - 4.0354354070337578e-001
         - -1.1570294079135938e-001
         - -6.6527073781815119e-002
         - -6.4228993347128244e-003
         - -2.3385783689918008e-001
         - -2.6508188342888367e-001
         - 5.4649292343684694e-002
         - 1.6686627212027327e-001
         - 1.2509787224517319e-001
         - -2.8758144481831294e-001
         - -8.7365861411626222e-002
         - 2.1661654370630670e-003
         - -1.9418620341092097e-001
         - 1.4094071341727524e-001
         - 3.7891779780870397e-002
         - -1.4801214298591953e-001
         - -5.0702481061191662e-001
         - 1.5538941274579504e-001
         - -1.3617154371614914e-002
         - -1.7747965477272468e-001
         - 1.5099883693588370e-001
         - 2.5046688668946088e-001
         - -1.1120434056845921e-001
         - -2.0921869993717618e-001
         - 9.8340362026054784e-002
         - 5.9067848849150628e-001
         - -1.1663353262626010e-001
         - -6.9487780896156245e-002
         - -9.9848269221901514e-002
         - 3.0038557979690822e-001
         - 1.6770757002254791e-001
         - 4.6515551459630178e-001
         - -1.3787889175172021e-003
         - -8.1916777971744199e-003
         - -3.4100404934403489e-001
         - -1.0305509127870174e-001
         - 1.1153838547090664e-001
         - -1.9873331926406920e-001
         - -2.7003364478680586e-001
         - 1.9025224000456603e-001
         - 1.7226654681848749e-001
         - 3.1222913342434577e-001
         - 8.1140840444601431e-002
         - -1.7815132337639694e-001
         - 1.2774674887723975e-001
         - 3.0493236560427996e-002
         - 1.0209379431431267e-001
         - -2.0002307404207226e-001
         - -9.2291230316896636e-002
         - 2.5860260536336527e-001
         - -1.8284973007105715e-001
         - 6.8088128336840387e-002
         - 4.9053427225055540e-002
         - 3.3803617636345162e-001
         - 2.7242028355536605e-002
         - 1.0105170327990487e-001
         - 7.1894632339789960e-002
         - -5.0296702875442557e-002
         - -4.4112357317753315e-001
         - 1.7854960001393369e-001
         - 6.1265739842308146e-002
         - 1.8477387422768765e-001
         - -1.9366142069454706e-001
         - 7.2752330517993985e-002
         - -1.8641620994393643e-001
         - 2.5952683044699837e-001
         - 1.2518597127741270e-002
         - -2.6065840334974838e-001
         - -2.3587348106309924e-001
         - -3.1020873720700858e-002
         - 1.0928924202491978e-001
         - 1.3850394878034691e-001
         - -1.9589119573172165e-002
         - 9.6726867997541238e-003
         - -4.3646795668238553e-001
         - -1.6550963003882113e-001
         - -1.3427738923863685e-002
         - 1.8827555572539495e-001
         - 3.3289863705945150e-001
         - 2.5418449304161000e-001
         - -9.7947169092356123e-002
         - 5.0776402744668536e-001
         - -2.1258440958685296e-001
         - 1.1405482800311972e-001
         - -8.5356661775609494e-002
         - 1.1085269452174289e-001
         - 1.1041671998875255e-001
         - 1.9741995525980445e-002
         - -1.7706828519627402e-001
         - 3.6260412431799177e-001
         - -6.1041609746156633e-002
         - 3.6733646964883221e-001
         - 4.9137027960631430e-001
         - -3.3754979867672386e-001
         - 9.0130780565908591e-002
         - 2.3782724486581502e-002
         - 1.0388384218020767e-001
         - 1.5440798093946748e-001
         - -1.6989255288833102e-001
         - 6.2727935692295955e-002
         - -3.5929282555789734e-002
         - -1.4844190618391073e-001
         - -1.6136279650784677e-001
         - 2.5425978633693797e-001
         - -2.7352257849314499e-001
         - 1.2680079928819568e-001
         - -1.0242556351141842e-001
         - 1.3845366372289084e-001
         - -2.9948483805201093e-001
         - -3.9210898257271881e-001
         - -1.6774343775800660e-001
         - -2.6875504982881104e-001
         - 3.9747548665485799e-001
         - 2.8035810135706787e-002
         - 4.5190638531208227e-001
         - -8.0429211886042004e-002
         - -2.1430961342077451e-001
         - 1.6923053390842469e-001
         - 1.2326129545653619e-001
         - 1.2320899287725814e-001
         - -2.5055751845537472e-001
         - 1.9264530822123763e-001
         - -5.2050953587554338e-001
         - -2.3209304464483049e-001
         - 1.1773935860961039e-001
         - 6.2257622715966088e-001
         - 6.5702054775321858e-002
         - 1.6330639140828748e-001
         - -6.5208792959763007e-002
         - 3.3313768425475493e-001
         - -1.3512450877039472e-001
         - -1.6783718975866259e-002
         - -2.0382711612365603e-001
         - 3.3841603613397858e-002
         - -2.7230734656186978e-001
         - -3.2522899073798961e-001
         - 2.1334417140108572e-001
         - -9.4078120331592407e-002
         - -1.0739917581900726e-001
         - 2.8616956808886879e-001
         - 5.1473826068767450e-002
         - 1.7055518367288586e-001
         - -1.7159113569234061e-001
         - -5.3945822509716079e-002
         - 2.1663275132624593e-001
         - -8.8397958470319365e-002
         - 1.8454105444090055e-001
         - -1.8218290174109170e-002
         - -3.1431433006553133e-001
         - 4.4949588783969141e-001
         - 7.4604073134957011e-002
         - -2.4316821276062478e-001
         - 9.6719769222477062e-002
         - 3.8382126114220350e-001
         - -3.9904286701171282e-001
         - 1.4031335873393330e-001
         - -7.1933185113291678e-002
         - 1.4483384667321578e-001
         - -1.8988626025538427e-001
         - -1.3462148953786213e-001
         - -1.0392755456700950e-001
         - 2.4199076126073071e-001
         - 9.8204061605871393e-003
         - -3.4579341903709505e-003
         - 5.5635176594058443e-002
         - 5.7058258038407672e-001
         - -1.6896931071745128e-002
         - -2.7314229100769083e-001
         - -8.7862283268079558e-002
         - 1.6232363804253222e-001
         - 1.7924788194278335e-001
         - 7.8507575032130648e-003
         - -5.3778999989557076e-002
         - 2.7232103883835324e-001
         - -3.2608389417831096e-001
         - 1.9458804986530792e-001
         - -1.2969223840734856e-001
         - 3.7913832933830116e-001
         - 3.2563843454548730e-001
         - 1.7985053656530361e-001
         - -3.9835643311689878e-001
         - -7.6660547465847969e-003
         - 5.9008782917897067e-002
         - -5.7196735513062327e-002
         - 9.1501427588162858e-003
         - 1.1501159174371853e-001
         - -1.3028986449183097e-001
         - 7.4635735422359795e-002
         - -4.7681064266524943e-002
         - -4.5562819913222120e-002
         - 1.8492876450178977e-001
         - 2.4510402950679999e-001
         - 2.1570442221041361e-001
         - -2.8104721136010785e-002
         - -3.7662092110181331e-002
         - 1.0525241973884379e-001
         - 6.8088400258131912e-002
         - -1.8648718758300978e-001
         - -3.1927726209758478e-002
         - -8.8902594687498879e-002
         - 1.3709012685959401e-001
         - -2.6114829532158518e-002
         - 1.3849176906719018e-001
         - 9.8479138737708763e-002
         - 9.1818250999840274e-003
         - 2.8388480751912848e-001
         - -1.4468674430886400e-001
         - -4.4274697397442497e-002
         - -3.2811575139733978e-001
         - 2.5503897869002368e-001
         - 3.1598345010830496e-002
         - -1.1635290171373965e-002
         - 2.4359050262873273e-004
         - 2.6313610581827079e-001
         - 2.7776610364534654e-001
         - 2.4285556569139929e-001
         - 2.4704016464190025e-002
         - -7.1312852572364416e-002
         - -1.7352837950636152e-001
         - -1.4771683603149710e-001
         - 1.1436188050431163e-001
         - 1.9237327522785502e-001
         - -1.5166954460914445e-001
         - -2.8013014041197637e-001
         - 4.5555894513659892e-002
         - -2.7413545970227998e-001
         - -1.6812019012140059e-001
         - -6.3022661064698546e-002
         - 2.3437179052143062e-001
         - 2.7426548364657716e-001
         - 2.6303762181137585e-001
         - -3.4755533418909718e-002
         - -9.9400959478008644e-002
         - 6.5212298680549050e-002
         - -3.2208801442962509e-001
         - -2.6748160976722124e-001
         - 1.7326429242052913e-001
         - 5.6964881055750226e-002
         - -1.8077562424664159e-001
         - 3.7283195811321557e-001
         - -1.3048873802173783e-001
         - -9.5660262315585193e-002
         - -4.1083395804351108e-002
         - 3.9777441293801820e-002
         - -5.7757107982691618e-002
         - 5.6903689074328991e-003
         - 1.8668916449694314e-001
         - -3.4786393742221526e-002
         - -8.6406218121166695e-002
         - 2.9020733475756832e-001
         - -8.0579804210751296e-002
         - 1.1949853391816177e-001
         - -3.7594550606240514e-002
         - 2.0732461978502581e-001
         - 1.5683525848012655e-001
         - -4.8447522393025945e-002
         - -3.1605069046806988e-002
         - -2.5087477604601316e-001
         - -1.5593813545807485e-004
         - 4.0233485692057608e-001
         - 5.3262189755234390e-001
         - -4.2965935284534906e-002
         - -1.9697905519458611e-001
         - 5.1480888944251034e-002
         - -9.4241683385385855e-002
         - 4.1679283541067080e-001
         - 5.1085604283434990e-002
         - -5.8841072696120589e-001
         - -2.3051947377782839e-002
         - 9.4108855896122244e-003
         - -2.2654565611373048e-001
         - -1.3336589458739698e-001
         - -2.3857727264650855e-002
         - 2.3773616044227622e-001
         - -2.7279260912202519e-001
         - -1.7578630423046086e-002
         - -9.0255190703414603e-002
         - 2.6674326995462722e-001
         - 1.8099611266412283e-002
         - 5.2676959368324471e-002
         - -2.1546949171968702e-001
         - 1.3516741840131855e-001
         - 8.0061510816544029e-002
         - 1.7479006058301971e-001
         - -4.5109176711838631e-002
         - -1.2957247863721924e-002
         - 5.5373231412380250e-002
         - -1.7346842835848020e-001
         - 5.4395922008886200e-003
         - 8.3260092427672849e-002
         - 3.1795101031319128e-001
         - -4.7164548518265889e-002
         - 1.6919945473104386e-001
         - -2.2970354638869447e-001
         - 2.2077785139012318e-001
         - 1.5555130405167211e-001
         - 6.0324739550844463e-002
         - 2.3940841195840116e-002
         - -7.0009474138338246e-002
         - -2.5409551936974268e-002
         - 7.1008439566996581e-002
         - -9.4305474516613211e-002
         - -3.9388384714866914e-002
         - 2.0078189295061366e-001
         - -8.7292148349172580e-002
         - 3.6418479092137684e-001
         - -2.2170303511070752e-001
         - 1.2442501937678051e-001
         - -3.6481390131173247e-001
         - 1.8531910234410279e-001
         - -4.2298433210129337e-003
         - -1.9303718716802646e-002
         - 8.9312195296976041e-003
         - 1.7715734001117203e-001
         - 4.0349183587952825e-001
         - 1.8511398037204729e-001
         - -2.9625357027460737e-002
         - 7.4133150574261175e-002
         - -3.5624901600938112e-002
         - -4.4563944018456418e-002
         - 3.7079042593913508e-002
         - 1.3499737894064978e-001
         - -1.3070244152054408e-001
         - -2.0924622913257968e-001
         - 8.3538877484000504e-002
         - -3.5549176940506394e-001
         - -4.1728757177623678e-002
         - 3.2380563390970035e-002
         - 3.8384302360917866e-001
         - 2.5998303191611272e-001
         - 4.3965941630777861e-001
         - -1.3721455253064860e-001
         - -8.2680169563441749e-002
         - -8.3006170788149716e-002
         - 3.5075336951276369e-002
         - -1.1060439758889092e-001
         - -1.2807886622748429e-001
         - 1.7921056590739057e-001
         - -1.5871539096880308e-001
         - -1.5433320352555177e-001
         - -3.2545418517620306e-001
         - -1.4701729401779629e-001
         - 5.2633800228483807e-001
         - -7.7723118338079475e-002
         - -3.2981735524539491e-001
         - -1.9372075200940558e-002
         - -4.5498670689461162e-003
         - -2.5605036516560076e-001
         - -5.7044509425992380e-003
         - -1.2792448313475733e-002
         - -1.7297999391676483e-001
         - -1.8295351508604157e-001
         - -8.8095212317455110e-002
         - 7.4600026977994062e-003
         - 3.4197950819884576e-001
         - -3.1841596607823058e-001
         - 3.8420656601307585e-001
         - 6.9215863974347397e-002
         - 1.3718809429557030e-001
         - -4.9925887468617119e-002
         - 2.0507616991030087e-001
         - -4.2356304945857043e-002
         - -2.5836326872661841e-001
         - -1.2293023225281929e-002
         - -5.0392503890781037e-001
         - 1.9463961984329531e-001
         - -2.5265611769756430e-001
         - -3.8863033969188959e-001
         - 1.5611497683223147e-001
         - -2.6788336107127342e-001
         - -2.8814473895794340e-001
         - 1.0237854664057040e-001
         - 2.3701687610328881e-001
         - 9.2498016159806143e-002
         - -2.1975399504392004e-001
         - 2.2216925708778226e-002
         - 6.3871468230012579e-002
         - -3.5082116695439390e-002
         - -3.5919211607258211e-001
         - -4.8349585648307762e-003
         - -3.0123336510912196e-001
         - 2.0821219240433958e-001
         - 5.0259527722104406e-005
         - 7.9195826252680554e-002
         - 1.0134013100903419e-001
         - -1.5260318803300141e-001
         - -6.6284442127599333e-002
         - 2.6054564328340568e-001
         - -1.1318274242923931e-001
         - -2.0581371227104389e-001
         - 9.2403819367823216e-004
         - -4.5349478681681737e-001
         - 7.4797366657676043e-002
         - -2.1830583761319425e-001
         - 1.0297545034102513e-001
         - 5.0180105075701940e-003
         - -7.5985829011159953e-002
         - -2.2427685553988858e-002
         - -2.2231719972646466e-001
         - -3.0556350988246335e-002
         - 2.1796366228747202e-001
         - -3.2869614650195478e-001
         - -4.3020413457137245e-002
         - 1.0940787327331668e-001
         - -3.1815896406265259e-001
         - -7.6819688500020369e-002
         - -2.2008173501864364e-001
         - 1.4868840851680407e-001
         - -1.3040375108821295e-001
         - 1.3659429264650616e-001
         - -1.7127143925423888e-001
         - 6.2833570036961425e-002
         - -2.2314234278583917e-001
         - 8.4953667012653097e-002
         - 2.9833587260273109e-001
         - 6.1691100497464112e-003
         - -3.0803362023738928e-001
         - 6.6935191521151613e-002
         - -1.4824162449697759e-001
         - -1.0333741475654296e-001
         - 2.4117454065913455e-001
         - 7.6541420665241083e-002
         - -1.1714722852821061e-001
         - 1.8398503224249442e-002
         - -1.7940599333167542e-003
         - -3.2191191199810792e-001
         - 1.6196634809306509e-002
         - -2.8604295098338648e-002
         - 2.9262220967410696e-001
         - 5.9529532299020423e-002
         - -3.6738933893742021e-001
         - 5.4089306758159161e-001
         - 1.6764252774054952e-001
         - -8.0197476771773607e-002
         - -3.0021068880020079e-002
         - -3.1057316750372516e-001
         - -9.1203941815507755e-002
         - -1.0001601614646656e-001
         - -9.9431598326630427e-002
         - -7.4035659321021975e-003
         - 4.0830405319002998e-002
         - 5.9374899915108115e-001
         - -3.2327128479547884e-001
         - -1.7686476218660910e-001
         - -8.9413100639750054e-002
         - 1.2367497251109708e-002
         - 5.7214777810733267e-003
         - -5.2311479345573716e-002
         - 3.7619972013755172e-002
         - -6.2503749351508027e-003
         - -1.1107777217027720e-002
         - -2.2197617553969806e-001
         - 2.4498921538649360e-001
         - 2.0019497999295155e-001
         - -6.0422049182927699e-002
         - 1.4046375308565898e-001
         - -4.2149936158184409e-002
         - -1.7025894749806483e-001
         - -2.4146005253117742e-001
         - -3.1274570670661050e-001
         - -4.4177355560600019e-002
         - -5.2082076673607536e-001
         - 5.7485966683517298e-001
         - 6.6429168098418270e-002
         - 3.3408513024182596e-001
         - 3.1533493032020195e-002
         - 7.2293864064155999e-002
         - 1.0538150560219860e-001
         - 8.2579431285464161e-002
         - -3.3662692103164255e-001
         - -3.4513585293268761e-001
         - 3.2242951317794616e-001
         - -3.1291887561482495e-001
         - -1.3689226072869506e-001
         - 1.3567674902391816e-001
         - 9.5321979086529771e-002
         - 6.8494819305890381e-002
         - 3.6304248699319225e-002
         - -7.5308768878297405e-002
         - -1.0476416369452776e-001
         - -2.2600382314855605e-001
         - -1.5191304440001258e-001
         - -2.2552658380786675e-001
         - 1.1920141562294578e-002
         - -2.6012047519695114e-001
         - 1.3010804715633645e-001
         - 1.5647961094509102e-001
         - -3.1804102171603016e-001
         - -8.3829314111712294e-002
         - 1.8638181799585463e-001
         - 1.8996428731213841e-001
         - 8.1541585084436499e-003
         - 2.5034002569403258e-001
         - 1.2126479064963207e-001
         - 5.1559943200531005e-002
         - -1.2446825224608361e-001
         - 7.7515107660149463e-002
         - -1.2956869456664427e-001
         - -1.1150576690029279e-001
         - 2.4405975903367232e-002
         - -8.4505854442346262e-002
         - 2.9593170896491224e-002
         - -3.5188189781402611e-002
         - -2.7933841103521043e-002
         - 8.2088724856902648e-002
         - 2.6240721222327457e-001
         - -1.4519761747017562e-001
         - -5.4465102397287544e-002
         - -2.0338795592091305e-001
         - 3.0565338827958544e-001
         - 3.8402831756740780e-002
         - -5.7585265667510759e-002
         - -9.4058419193917150e-002
         - 1.5060691599053508e-001
         - 5.3133939626900295e-001
         - 7.0147830034653774e-002
         - -4.9023903512800705e-002
         - -1.8503191789599366e-001
         - -1.4402998809432754e-001
         - 5.7648406850203303e-002
         - 2.3948534986576578e-002
         - -4.8064238190681612e-002
         - -1.8712421684990765e-001
         - -1.7385303936744684e-001
         - 5.3038034706558386e-002
         - 2.3000638501972565e-002
         - -5.5256509866594569e-002
         - 3.9506026404894527e-002
         - -1.1558150561348998e-001
         - 1.9204481477782351e-001
         - 1.2833249587630965e-001
         - -3.5096081462289937e-002
         - 5.7357293824051317e-002
         - 1.0819336267310584e-001
         - 5.6719156815468970e-002
         - 2.3343301157987253e-001
         - 1.0282280469572287e-001
         - -2.8564330645514951e-001
         - 2.4046271199784770e-002
         - -1.3470731731051844e-001
         - 9.5011997217204991e-002
         - 7.8394465586760331e-002
         - -1.9719508185995768e-002
         - -2.3215582379160918e-001
         - 1.6033481527831053e-001
         - -7.6958590760243861e-002
         - -1.9151979543603706e-001
         - 3.8336247456213064e-002
         - 3.3094098044439690e-001
         - 5.9716322163794293e-002
         - -1.0210947618471120e-001
         - -8.2958068569121052e-002
         - 1.2296241190804405e-001
         - 1.3959175847334598e-001
         - -2.1731825304914451e-001
         - 4.0725659573547324e-001
         - -1.8957761725523894e-002
         - -1.1506627151809336e-001
         - 1.4915614374922007e-001
         - -2.9976090311016884e-001
         - -1.4101221676189105e-001
         - -3.6756312273863379e-001
         - 1.4812284376565629e-001
         - 1.5368338970090278e-001
         - 2.5893938191881610e-001
         - 5.8180353201816387e-002
         - 1.0086855276567559e-001
         - 2.6335723366881186e-001
         - -7.7587189761163369e-002
         - -3.1194102428100873e-001
         - 1.6121165622482879e-003
         - 3.1279447885293354e-001
         - -1.0412018371184671e-001
         - -1.6655954287848670e-001
         - 2.8650257146094366e-001
         - -1.9977253722692354e-001
         - 1.5160247614716193e-002
         - -2.0059113675698764e-001
         - -1.0859559194626082e-001
         - 1.2266935608354325e-001
         - -1.3375270461906275e-001
         - -2.8159471273248182e-001
         - -3.3691015919322786e-001
         - 1.2744905079133179e-001
         - -1.5585513164092540e-001
         - 5.7776113507443071e-002
         - 5.8991885385708175e-002
         - -2.7869106702037466e-001
         - 2.6514982094183435e-002
         - 2.6684239012736144e-001
         - 1.1921477884257861e-001
         - 1.6747476836023872e-001
         - 6.0152362449905217e-001
         - -1.3451484828255250e-001
         - 1.3495781520778857e-001
         - 9.4294374961799154e-003
         - 8.0914573014340477e-002
         - 6.9062145745648978e-002
         - 2.1000481831266488e-001
         - 8.0405827700655019e-003
         - 7.9718858178729063e-002
         - 4.0517261863868564e-001
         - -2.2221029167511935e-001
         - 9.0374893025720673e-002
         - 1.4460045539612554e-001
         - 3.0182292530419491e-001
         - 1.8818510576751118e-001
         - 7.2569673976005153e-002
         - -4.1746701339644710e-001
         - -1.6275374488269612e-001
         - 1.7691263274503381e-002
         - -1.4312153833571667e-001
         - 1.1185047252425072e-002
         - 1.5304083343196548e-001
         - 2.4881494173548399e-001
         - 9.0198138271343056e-002
         - 4.7290014396322584e-002
         - -4.7813700770648941e-002
         - 1.5320030858076311e-001
         - -1.8876331347026103e-004
         - -2.2607688475565915e-001
         - 1.4305475228957809e-001
         - -1.4370040377659271e-001
         - -4.2253188419014887e-001
         - 2.1948059043355872e-001
         - 5.5963742782302273e-001
         - -8.4481333700191966e-002
         - -4.9190377395120520e-002
         - -1.5327237363502050e-001
         - 3.9015394520274227e-001
         - -3.4645910753614190e-001
         - -6.3881929665307285e-002
         - 1.7896333117873964e-001
         - -1.4362302835534849e-001
         - 1.9627667153208031e-001
         - -2.5297100269567319e-001
         - -1.5079960514630103e-001
         - 7.6519597178602419e-002
         - 8.9449549540346063e-002
         - -3.2886970533093351e-001
         - 1.8743153378081259e-001
         - -1.2697445621560036e-002
         - -6.3415468606706693e-001
         - -1.8317754096696556e-001
         - 8.4134989205566377e-002
         - -5.7329124447405275e-002
         - -9.9269408893897751e-002
         - -4.0743286650283178e-002
         - 3.3437924742315071e-002
         - -2.0441685275333358e-002
         - 1.6035093863738767e-001
         - -1.2696275931792178e-001
         - 3.4596960394690801e-001
         - 3.6862377385153411e-001
         - -2.3447195497124340e-001
         - 2.3671536200716134e-001
         - -2.8936639636344016e-002
         - -8.0180804846442993e-002
         - -1.1358909013278856e-001
         - -3.0050142865527017e-002
         - -7.6579971552736714e-002
         - -1.1037905455382117e-001
         - 3.6751510160562689e-002
         - 1.9769523918370666e-001
         - 3.6068976856547620e-002
         - 2.3438870831621753e-001
         - 1.6714250003907316e-001
         - 2.4626655463757141e-001
         - -2.0216168297164686e-001
         - -3.3574142604893242e-001
         - 1.4128909209318444e-001
         - 4.8360403005827524e-001
         - -1.0729806676946070e-001
         - -2.9582673507152601e-002
         - 1.0357501693307943e-001
         - -3.6879371923548732e-001
         - -1.1235809460880194e-001
         - -3.3331628147496163e-002
         - 2.7564130863529096e-001
         - -1.4516830534852609e-001
         - -2.1889226310718937e-001
         - -4.5332323312773176e-001
         - -4.0879668065729541e-001
         - -1.3456650851642415e-001
         - -1.3378910006829620e-001
         - -2.5197253778323636e-001
         - -2.3402047706579096e-001
         - 1.3784487065206058e-001
         - -6.0908715618659098e-002
         - 8.0498428574936082e-002
         - -7.7873111740479010e-003
         - 6.8873180023248950e-002
         - 4.4960700760093925e-001
         - 5.1693147542914618e-002
         - -2.2479547159462021e-001
         - -2.5897940702837158e-002
         - 8.0989502445878631e-002
         - -1.3244739911002446e-001
         - -1.4130161946769158e-002
         - -6.4336206354924139e-002
         - 1.2562217324138469e-001
         - 1.9293892664479509e-001
         - -5.0754524278542879e-002
         - 2.0431173378140103e-002
         - 1.0306967354327158e-001
         - -3.6043527379608545e-002
         - 1.8844570614643380e-001
         - -3.0088342344053901e-002
         - -1.4119112966202763e-001
         - 5.3371277952757659e-002
         - 1.5548440631711585e-001
         - -1.8786762355189790e-001
         - -1.5060560570950332e-001
         - 1.6502077239435914e-001
         - 3.0499473135649963e-001
         - 4.5471246703764741e-002
         - -9.8488926587040573e-002
         - -1.1758674185748823e-001
         - 1.7962420327151765e-001
         - -7.6969020843506847e-002
         - -1.3071770761796905e-001
         - 1.5838687414438804e-001
         - -7.6298803372538512e-002
         - -3.4299889727680860e-001
         - 8.2217159646291504e-002
         - 6.1004532558669045e-001
         - -1.1370422203150839e-001
         - -3.1081082608309905e-003
         - -4.6192709657482478e-001
         - 1.1775878765003286e-001
         - -1.1753678834496463e-001
         - 1.3786769196701723e-001
         - -6.8181872633849006e-002
         - -1.2050704516711648e-001
         - 8.0786587797670562e-002
         - 1.7838228941669892e-001
         - -3.1339814826660206e-002
         - -2.9666892772333982e-002
         - 4.2486944269889563e-003
         - -4.1212449057181338e-001
         - 1.1274367681494814e-001
         - -3.5151535837709563e-001
         - -4.7240771643898483e-001
         - 4.0334118918945103e-002
         - -4.5710601191784432e-002
         - -3.2857686529688450e-002
         - -5.8923714394627319e-002
         - -2.3767176924328259e-001
         - 1.2725871104797701e-001
         - -1.8190940536059044e-001
         - -9.6487988497406155e-002
         - -2.7595568106027701e-001
         - 3.5273137310252622e-001
         - -2.5618643485345118e-002
         - -3.8812344552490335e-001
         - 1.7865686790901064e-001
         - -4.9228977492175585e-002
         - -4.6850764349409213e-002
         - 3.7688807137438834e-001
         - -3.3122541402608596e-001
         - -1.2918328459970130e-001
         - -1.5336411495516175e-001
         - -4.0655269395426985e-001
         - 1.7417200909225899e-001
         - 2.6486215965365539e-001
         - 5.7674342479089848e-002
         - -2.1872141851390506e-001
         - 3.2399031525414379e-001
         - -1.9790416586698514e-002
         - -2.9366926737693422e-001
         - 3.6003370377848376e-001
         - 1.7294366213905807e-001
         - -3.9559198705213391e-002
         - -4.5150213020210328e-002
         - -7.3944598052915252e-003
         - -4.1250224659120389e-003
         - -6.3742872990133606e-002
         - -8.9295266288085332e-002
         - 9.1615943281133302e-003
         - 3.6785968362011590e-001
         - -3.8919006575264098e-001
         - -5.9969227405551473e-001
         - -1.8689830384697392e-001
         - -1.4704680363371275e-001
         - -8.0610042463383089e-002
         - -2.5541179166658534e-001
         - -2.6656419752492483e-001
         - 6.4402249856364002e-002
         - 1.5058532954406232e-002
         - -1.9956927245800260e-001
         - 1.4475332579737266e-001
         - -1.1651441813946342e-001
         - 8.2969447785593120e-002
         - 1.9870494679599493e-001
         - -1.7778871152517431e-001
         - -9.5539991155237133e-002
         - 4.6112289389351024e-002
         - -2.5931096432621337e-001
         - -6.3227566758494197e-002
         - -1.4404765952505486e-001
         - 1.1063898511270576e-001
         - 1.0275742490484789e-001
         - 2.4081194239068602e-002
         - -5.0176325753875997e-003
         - 1.5002232453273423e-001
         - 8.0150251409501827e-002
         - 1.0130041506183894e-001
         - -1.9950388414900530e-002
         - -3.6577954229261223e-001
         - 3.5446980910197096e-001
         - 1.7385797412391152e-001
         - -2.2976453176668341e-001
         - -2.6767558592158547e-001
         - 1.9682300491206653e-001
         - 1.7414783160341726e-001
         - 1.8614431227154293e-001
         - -1.1054131958008379e-002
         - -1.5544503181951227e-001
         - 4.4550608828254928e-002
         - -1.9678431045751321e-001
         - -9.8595458752107137e-002
         - 4.7259373245295812e-002
         - -3.5527812358383454e-002
         - -2.4696400206436175e-001
         - 9.7539758568981089e-002
         - 1.6658565694317770e-001
