%YAML:1.0
opencv_ml_svm:
   format: 3
   svmType: C_SVC
   kernel:
      type: POLY
      degree: 1.0000000000000000e-002
      gamma: 1.0000000000000001e-005
      coef0: 1.0000000000000001e-001
   C: 1.0000000000000001e-001
   term_criteria: { epsilon:1.1920928955078125e-007, iterations:1000 }
   var_count: 51
   class_count: 2
   class_labels: !!opencv-matrix
      rows: 2
      cols: 1
      dt: i
      data: [ 0, 1 ]
   sv_total: 48
   support_vectors:
      - [ 5.46944976e-001, 5.43799996e-001, 4.95974004e-001,
          4.40600008e-001, 3.88597012e-001, 3.92711014e-001,
          4.46069986e-001, 5.05034029e-001, 5.54301023e-001,
          5.68395972e-001, 3.01743001e-001, 2.01161996e-001,
          1.00580998e-001, 0., 1.19958997e-001, 9.74619016e-002,
          9.67457965e-002, 1.01020999e-001, 1.31979004e-001,
          4.25918013e-001, 4.04500991e-001, 3.66048008e-001,
          2.99214005e-001, 3.32349002e-001, 3.71383011e-001,
          3.06921989e-001, 3.73227000e-001, 4.12694007e-001,
          4.39476013e-001, 3.83578002e-001, 3.40240002e-001,
          2.93150991e-001, 2.35745996e-001, 2.03876004e-001,
          2.09912002e-001, 2.04207003e-001, 2.45795995e-001,
          3.21729004e-001, 3.08564007e-001, 3.00761998e-001,
          2.98013002e-001, 2.95228988e-001, 2.93938994e-001,
          2.73743004e-001, 2.29359999e-001, 2.39203006e-001,
          2.37689003e-001, 2.99769998e-001, 2.33627006e-001,
          2.35274002e-001, 2.28723004e-001 ]
      - [ 5.76470017e-001, 5.72053015e-001, 5.38469970e-001,
          4.71583992e-001, 3.79045010e-001, 3.12287003e-001,
          3.54328990e-001, 3.76563013e-001, 3.69612008e-001,
          3.42956007e-001, 2.32179001e-001, 1.52939007e-001,
          7.89268985e-002, 0., 1.32360995e-001, 1.13190003e-001,
          1.13848999e-001, 1.06376998e-001, 1.15226001e-001,
          4.06432986e-001, 3.75568986e-001, 3.28635991e-001,
          2.60603994e-001, 2.84738004e-001, 3.31726015e-001,
          1.47312999e-001, 1.90749004e-001, 2.11510003e-001,
          2.16591001e-001, 1.71884000e-001, 1.44539997e-001,
          2.86294997e-001, 2.31170997e-001, 1.96263999e-001,
          2.10843995e-001, 2.01533005e-001, 2.40386993e-001,
          2.92355001e-001, 3.15708011e-001, 3.26606005e-001,
          3.27784002e-001, 3.13488007e-001, 2.93837011e-001,
          2.77832001e-001, 2.54846007e-001, 2.66959995e-001,
          2.67832011e-001, 2.77361006e-001, 2.42192000e-001,
          2.41977006e-001, 2.37579003e-001 ]
      - [ 5.48322022e-001, 5.58197975e-001, 5.11748016e-001,
          4.46328998e-001, 3.71524990e-001, 3.62645000e-001,
          4.19575006e-001, 4.70445007e-001, 5.02416015e-001,
          4.89169002e-001, 2.84348994e-001, 1.89566001e-001,
          9.92963985e-002, 0., 1.27463996e-001, 1.07487001e-001,
          1.03882998e-001, 1.01625003e-001, 1.20847002e-001,
          4.03710991e-001, 3.84777993e-001, 3.41863006e-001,
          2.71483988e-001, 2.92908013e-001, 3.39073986e-001,
          2.48271003e-001, 3.12772989e-001, 3.44767988e-001,
          3.62729013e-001, 3.06461006e-001, 2.62176991e-001,
          3.26131999e-001, 2.54063994e-001, 2.15663999e-001,
          2.26209000e-001, 2.19457000e-001, 2.55398989e-001,
          3.18316013e-001, 3.22975010e-001, 3.21610987e-001,
          3.21045995e-001, 3.22789997e-001, 3.31200987e-001,
          3.10660988e-001, 2.60304987e-001, 2.62243003e-001,
          2.54662991e-001, 3.02156001e-001, 2.54216999e-001,
          2.58002013e-001, 2.55925000e-001 ]
      - [ 4.59244013e-001, 4.58368987e-001, 4.13468987e-001,
          3.60267013e-001, 3.08898002e-001, 3.01631004e-001,
          3.50665003e-001, 3.94012004e-001, 4.27607000e-001,
          4.28995997e-001, 1.82126999e-001, 1.23135999e-001,
          5.90360016e-002, 0., 1.35885999e-001, 1.30441993e-001,
          1.29567996e-001, 1.29567996e-001, 1.40933007e-001,
          3.18686008e-001, 2.87972987e-001, 2.42953002e-001,
          1.77710995e-001, 2.06876993e-001, 2.58736014e-001,
          1.61458999e-001, 2.21239001e-001, 2.55026996e-001,
          2.77956009e-001, 2.28529006e-001, 1.85490996e-001,
          3.70689988e-001, 2.92488009e-001, 2.52674013e-001,
          2.64210999e-001, 2.50331014e-001, 3.06668013e-001,
          3.85262996e-001, 4.09895986e-001, 4.19187993e-001,
          4.15684998e-001, 4.09276009e-001, 3.93772006e-001,
          3.59674007e-001, 3.21770012e-001, 3.28361988e-001,
          3.26012999e-001, 3.75052989e-001, 3.31835002e-001,
          3.27812999e-001, 3.27459991e-001 ]
      - [ 5.92150986e-001, 6.04095995e-001, 5.68168998e-001,
          5.17527997e-001, 4.61564004e-001, 4.36569989e-001,
          4.96315986e-001, 5.37656009e-001, 5.51630974e-001,
          5.43097019e-001, 3.40719998e-001, 2.26713002e-001,
          1.13356002e-001, 0., 9.17873979e-002, 7.12478980e-002,
          7.75275007e-002, 7.86473006e-002, 1.04791000e-001,
          4.62428004e-001, 4.55617011e-001, 4.24248993e-001,
          3.58985007e-001, 3.70595992e-001, 4.03564006e-001,
          3.38393986e-001, 3.93678010e-001, 4.17093009e-001,
          4.09278989e-001, 3.61786991e-001, 3.39491993e-001,
          2.21122995e-001, 1.86423004e-001, 1.68055996e-001,
          1.85014993e-001, 1.78562999e-001, 2.19411999e-001,
          2.57351011e-001, 2.59927988e-001, 2.72361010e-001,
          2.71522999e-001, 2.61135012e-001, 2.35541999e-001,
          2.09916994e-001, 2.13835999e-001, 2.32582003e-001,
          2.30970994e-001, 2.47740000e-001, 1.89348996e-001,
          1.87459007e-001, 1.79636002e-001 ]
      - [ 4.56238985e-001, 4.50280994e-001, 4.02985990e-001,
          3.50544006e-001, 2.92943001e-001, 2.84292012e-001,
          3.56830001e-001, 4.19730991e-001, 4.73022014e-001,
          5.01972020e-001, 2.31958002e-001, 1.56619996e-001,
          8.13362971e-002, 0., 1.09858997e-001, 9.98729020e-002,
          9.86983031e-002, 9.91341993e-002, 1.17312998e-001,
          3.41026992e-001, 3.21729988e-001, 2.85777003e-001,
          2.28820994e-001, 2.48538002e-001, 2.85355985e-001,
          2.52876014e-001, 3.12368989e-001, 3.47754985e-001,
          3.78632993e-001, 3.25576991e-001, 2.77740002e-001,
          3.13041985e-001, 2.52730012e-001, 2.11965993e-001,
          2.20366001e-001, 2.19722003e-001, 2.57117987e-001,
          3.19873989e-001, 3.43125999e-001, 3.51087987e-001,
          3.47847015e-001, 3.50410014e-001, 3.39850008e-001,
          3.00040990e-001, 2.57759988e-001, 2.60939002e-001,
          2.59490013e-001, 3.02623004e-001, 2.75745004e-001,
          2.78328001e-001, 2.75745004e-001 ]
      - [ 5.17736971e-001, 5.18036008e-001, 4.75041986e-001,
          4.32904989e-001, 3.75220001e-001, 3.68414998e-001,
          4.12721992e-001, 4.59859014e-001, 4.92419988e-001,
          5.05311012e-001, 2.37517998e-001, 1.54386997e-001,
          7.71934986e-002, 0., 9.36947986e-002, 7.46966004e-002,
          7.14434013e-002, 7.23956972e-002, 9.42654982e-002,
          3.70254993e-001, 3.51222008e-001, 3.25067014e-001,
          2.70031989e-001, 2.86024004e-001, 3.20874006e-001,
          2.66627014e-001, 3.16902012e-001, 3.44457000e-001,
          3.60567987e-001, 3.15111011e-001, 2.78836012e-001,
          2.47606993e-001, 1.91085994e-001, 1.45857006e-001,
          1.48539007e-001, 1.44301996e-001, 1.90851003e-001,
          2.57903993e-001, 2.52756000e-001, 2.44250000e-001,
          2.43950993e-001, 2.50252992e-001, 2.57160991e-001,
          2.36989006e-001, 1.80010006e-001, 1.78439006e-001,
          1.78393006e-001, 2.37727001e-001, 1.85508996e-001,
          1.84731007e-001, 1.85238004e-001 ]
      - [ 5.40373027e-001, 5.44448972e-001, 5.02789021e-001,
          4.34354991e-001, 3.66822988e-001, 3.61640990e-001,
          4.18094993e-001, 4.73390013e-001, 5.07920027e-001,
          5.09404004e-001, 2.78263003e-001, 1.88980997e-001,
          9.44902971e-002, 0., 1.11919999e-001, 8.64958018e-002,
          8.92407969e-002, 9.06948969e-002, 1.16740003e-001,
          3.83951008e-001, 3.66245985e-001, 3.37062001e-001,
          2.84170985e-001, 3.01869005e-001, 3.34800005e-001,
          2.76861995e-001, 3.26296002e-001, 3.60597998e-001,
          3.81007999e-001, 3.30617994e-001, 2.95053005e-001,
          2.85373986e-001, 2.28723004e-001, 1.96310997e-001,
          2.10033998e-001, 2.03189999e-001, 2.42220998e-001,
          2.90962011e-001, 3.04473013e-001, 3.11558992e-001,
          3.10057014e-001, 3.10880005e-001, 3.02540004e-001,
          2.73710012e-001, 2.47253999e-001, 2.52020001e-001,
          2.49733999e-001, 2.80660003e-001, 2.38634005e-001,
          2.41668001e-001, 2.38141000e-001 ]
      - [ 4.81676996e-001, 4.93521988e-001, 4.60770011e-001,
          4.13924992e-001, 3.45351011e-001, 3.28103989e-001,
          3.64363015e-001, 3.90444010e-001, 4.08250004e-001,
          3.91259998e-001, 2.02341005e-001, 1.32118002e-001,
          6.60587996e-002, 0., 9.39673036e-002, 7.27221966e-002,
          7.03283027e-002, 7.97320977e-002, 1.03166997e-001,
          3.38488013e-001, 3.16958994e-001, 2.89871007e-001,
          2.42816001e-001, 2.66086012e-001, 2.96682000e-001,
          2.14642003e-001, 2.49216005e-001, 2.63505995e-001,
          2.75438011e-001, 2.46987000e-001, 2.24448994e-001,
          2.22091004e-001, 1.74199000e-001, 1.37656003e-001,
          1.46054998e-001, 1.48034006e-001, 1.96686000e-001,
          2.59649992e-001, 2.85420001e-001, 2.91263998e-001,
          2.86262989e-001, 2.78665006e-001, 2.55833000e-001,
          2.11884007e-001, 1.82877004e-001, 1.83731005e-001,
          1.88896000e-001, 2.47975007e-001, 2.21407995e-001,
          2.15942994e-001, 2.13043004e-001 ]
      - [ 4.84966993e-001, 5.03659010e-001, 4.79708999e-001,
          4.21875000e-001, 3.52030009e-001, 3.30006987e-001,
          3.72352988e-001, 3.99580002e-001, 3.97897989e-001,
          3.55455011e-001, 1.98788002e-001, 1.30792007e-001,
          6.80121034e-002, 0., 1.51675999e-001, 1.37814999e-001,
          1.31807998e-001, 1.30473003e-001, 1.39953002e-001,
          3.34484011e-001, 3.11773002e-001, 2.70783991e-001,
          2.04046994e-001, 2.30954006e-001, 2.77574003e-001,
          1.35242000e-001, 1.93623006e-001, 2.18457997e-001,
          2.21701995e-001, 1.77827999e-001, 1.46505997e-001,
          4.02974993e-001, 3.14181000e-001, 2.67542005e-001,
          2.76836991e-001, 2.70110011e-001, 3.14440995e-001,
          3.97576988e-001, 3.66899997e-001, 3.56983989e-001,
          3.59219998e-001, 3.63581002e-001, 3.79359990e-001,
          3.85991007e-001, 3.20223004e-001, 3.20423007e-001,
          3.18334013e-001, 3.72166991e-001, 2.99127996e-001,
          3.01266998e-001, 3.06073010e-001 ]
      - [ 4.86784995e-001, 4.87507999e-001, 4.45241988e-001,
          3.97765011e-001, 3.45946997e-001, 3.62773001e-001,
          4.22722995e-001, 4.80113000e-001, 5.30179024e-001,
          5.42209029e-001, 2.71643996e-001, 1.82641998e-001,
          8.90016034e-002, 0., 8.58146027e-002, 7.41600022e-002,
          7.97301009e-002, 9.32174996e-002, 1.21445000e-001,
          3.39859009e-001, 3.23729008e-001, 2.96725005e-001,
          2.60832995e-001, 2.67903000e-001, 2.97533989e-001,
          2.89626002e-001, 3.32271993e-001, 3.64921987e-001,
          3.89964998e-001, 3.43230009e-001, 3.04789990e-001,
          2.73970991e-001, 2.08626002e-001, 1.75200999e-001,
          1.86660007e-001, 1.84844002e-001, 2.26593003e-001,
          3.08578998e-001, 3.03346008e-001, 2.93031991e-001,
          2.89135009e-001, 2.86514014e-001, 2.83006012e-001,
          2.60159999e-001, 2.21239001e-001, 2.28573993e-001,
          2.25364000e-001, 2.90647000e-001, 2.24372000e-001,
          2.23915994e-001, 2.16624007e-001 ]
      - [ 5.00102997e-001, 4.94078010e-001, 4.50002998e-001,
          3.85553002e-001, 3.17449003e-001, 3.23740989e-001,
          4.00130987e-001, 4.75044012e-001, 5.33518016e-001,
          5.56294024e-001, 2.41120994e-001, 1.60901994e-001,
          8.49056020e-002, 0., 1.18584000e-001, 9.48795006e-002,
          9.91809964e-002, 1.17051996e-001, 1.52729005e-001,
          3.86667013e-001, 3.58249009e-001, 3.12393010e-001,
          2.47020006e-001, 2.82494009e-001, 3.32572997e-001,
          2.76073009e-001, 3.45239997e-001, 3.98113996e-001,
          4.37067986e-001, 3.70283008e-001, 3.15865993e-001,
          3.02455008e-001, 2.26030007e-001, 1.80717006e-001,
          1.97228998e-001, 1.92081004e-001, 2.53275007e-001,
          3.34825993e-001, 3.26940000e-001, 3.15946013e-001,
          3.12896997e-001, 3.05204988e-001, 3.06582987e-001,
          2.80658990e-001, 2.38172993e-001, 2.46536002e-001,
          2.46906996e-001, 3.11520994e-001, 2.45587006e-001,
          2.46126994e-001, 2.38784000e-001 ]
      - [ 6.45801008e-001, 6.58281028e-001, 6.13925993e-001,
          5.41099012e-001, 4.35505986e-001, 3.94713014e-001,
          4.29587990e-001, 4.44317013e-001, 4.40519005e-001,
          4.11657006e-001, 2.60417998e-001, 1.68090999e-001,
          8.17022994e-002, 0., 1.42124996e-001, 1.27471998e-001,
          1.29750997e-001, 1.34408996e-001, 1.47808000e-001,
          4.56086010e-001, 4.43733007e-001, 3.91386986e-001,
          2.97064006e-001, 3.20737988e-001, 3.78181994e-001,
          1.94763005e-001, 2.57784009e-001, 2.78118014e-001,
          2.70137995e-001, 2.22968996e-001, 1.89825997e-001,
          3.18823993e-001, 2.68233001e-001, 2.40456000e-001,
          2.67356008e-001, 2.71077991e-001, 3.17234010e-001,
          3.67256999e-001, 3.83316010e-001, 3.73946011e-001,
          3.67442995e-001, 3.46619993e-001, 3.32325995e-001,
          3.21920991e-001, 3.00128996e-001, 3.12298000e-001,
          3.26808989e-001, 3.54865998e-001, 2.91431010e-001,
          2.78944999e-001, 2.73979008e-001 ]
      - [ 5.09875000e-001, 5.21300018e-001, 4.90805000e-001,
          4.39567000e-001, 3.84709001e-001, 3.84032011e-001,
          4.41031009e-001, 4.86750007e-001, 5.23262978e-001,
          5.30789018e-001, 2.96869010e-001, 1.96390003e-001,
          1.00478999e-001, 0., 9.86071005e-002, 8.37849006e-002,
          8.71634036e-002, 8.67893994e-002, 1.04750000e-001,
          3.81821990e-001, 3.79002005e-001, 3.49292994e-001,
          2.85530001e-001, 2.97742993e-001, 3.31378996e-001,
          2.92885989e-001, 3.57143015e-001, 3.89863014e-001,
          4.00204986e-001, 3.46403003e-001, 3.08299989e-001,
          2.64257014e-001, 2.07835004e-001, 1.72966003e-001,
          1.82871997e-001, 1.77187994e-001, 2.08066002e-001,
          2.73429006e-001, 2.57441998e-001, 2.46382996e-001,
          2.47173995e-001, 2.48292997e-001, 2.56909996e-001,
          2.49443993e-001, 2.04315007e-001, 2.10252002e-001,
          2.04601005e-001, 2.56778002e-001, 2.05788001e-001,
          2.05891997e-001, 1.99109003e-001 ]
      - [ 6.04673982e-001, 6.38849020e-001, 6.20005012e-001,
          5.83703995e-001, 5.30839026e-001, 5.11274993e-001,
          5.50912976e-001, 5.78698993e-001, 5.86775005e-001,
          5.53876996e-001, 3.43315989e-001, 2.27273002e-001,
          1.16057999e-001, 0., 1.10007003e-001, 9.95547026e-002,
          9.72850993e-002, 9.31862965e-002, 9.75542963e-002,
          4.49939013e-001, 4.68075991e-001, 4.31048989e-001,
          3.45636010e-001, 3.46863002e-001, 3.90911996e-001,
          3.28011006e-001, 4.06129003e-001, 4.28512007e-001,
          4.10136998e-001, 3.53603989e-001, 3.20336014e-001,
          3.03925008e-001, 2.69374996e-001, 2.46454999e-001,
          2.64380991e-001, 2.52451003e-001, 2.87555993e-001,
          3.14942002e-001, 2.22238004e-001, 1.95345998e-001,
          1.94470003e-001, 1.93675995e-001, 2.24926993e-001,
          2.88890004e-001, 3.06764990e-001, 3.14942002e-001,
          3.13100010e-001, 3.03030014e-001, 1.29479006e-001,
          1.29613996e-001, 1.30151004e-001 ]
      - [ 5.48686028e-001, 5.53919017e-001, 5.14796972e-001,
          4.51810986e-001, 3.91180992e-001, 3.90735000e-001,
          4.47396010e-001, 5.06394982e-001, 5.41145027e-001,
          5.37213027e-001, 2.79159993e-001, 1.87534004e-001,
          9.59950984e-002, 0., 1.39519006e-001, 1.07409999e-001,
          1.04887001e-001, 1.00786999e-001, 1.26806006e-001,
          4.05483991e-001, 3.94331008e-001, 3.57950002e-001,
          2.75696009e-001, 2.93637991e-001, 3.37727010e-001,
          2.74924994e-001, 3.51875007e-001, 3.86186987e-001,
          4.02541995e-001, 3.42792988e-001, 2.96635985e-001,
          3.35720986e-001, 2.48530000e-001, 1.92609996e-001,
          2.01349005e-001, 1.84781000e-001, 2.35402003e-001,
          3.14738005e-001, 3.30220014e-001, 3.40570986e-001,
          3.45923990e-001, 3.48008990e-001, 3.43773007e-001,
          3.16679001e-001, 2.60675997e-001, 2.58129001e-001,
          2.54099011e-001, 3.00812006e-001, 2.49439001e-001,
          2.58439004e-001, 2.61548012e-001 ]
      - [ 2.96200991e-001, 2.82766014e-001, 2.66781986e-001,
          2.43066996e-001, 2.15859994e-001, 1.99365005e-001,
          2.40043998e-001, 2.71389991e-001, 2.86006987e-001,
          2.84565985e-001, 1.25299007e-001, 8.50628018e-002,
          4.47320007e-002, 0., 1.03702001e-001, 9.90646034e-002,
          9.84726995e-002, 1.01406001e-001, 9.80712026e-002,
          1.92809999e-001, 1.84918001e-001, 1.64057001e-001,
          1.35716006e-001, 1.45270005e-001, 1.65404007e-001,
          1.20711997e-001, 1.60418004e-001, 1.77540004e-001,
          1.87555999e-001, 1.54392004e-001, 1.32596001e-001,
          2.51022011e-001, 2.08918005e-001, 1.90489992e-001,
          1.97099999e-001, 1.97317004e-001, 2.17539996e-001,
          2.58280009e-001, 1.99319005e-001, 1.74594998e-001,
          1.70877993e-001, 1.69916004e-001, 1.93893000e-001,
          2.33465001e-001, 2.21432999e-001, 2.28561997e-001,
          2.23905995e-001, 2.37698004e-001, 1.43313006e-001,
          1.43823996e-001, 1.43006995e-001 ]
      - [ 5.05786002e-001, 5.32172024e-001, 5.02009988e-001,
          4.48828012e-001, 3.77431989e-001, 3.73604000e-001,
          4.37599003e-001, 4.90060985e-001, 5.06228983e-001,
          4.82170999e-001, 2.55989999e-001, 1.73269004e-001,
          8.66347030e-002, 0., 1.46723002e-001, 1.33965999e-001,
          1.30707994e-001, 1.30809993e-001, 1.37850001e-001,
          3.69217992e-001, 3.45849991e-001, 3.02884996e-001,
          2.32580006e-001, 2.56765008e-001, 3.10023010e-001,
          2.16912001e-001, 2.83217013e-001, 3.25028986e-001,
          3.48008007e-001, 2.88641006e-001, 2.38512993e-001,
          4.28310007e-001, 3.34452987e-001, 2.81316996e-001,
          2.95866013e-001, 2.85286009e-001, 3.45158994e-001,
          4.38207000e-001, 4.12891001e-001, 3.94356996e-001,
          3.94560009e-001, 3.95516992e-001, 4.07707006e-001,
          4.06957000e-001, 3.52248996e-001, 3.55040014e-001,
          3.55524987e-001, 4.15239006e-001, 3.27771008e-001,
          3.27526987e-001, 3.29032004e-001 ]
      - [ 5.24672985e-001, 5.26677012e-001, 4.90974009e-001,
          4.28063989e-001, 3.56635988e-001, 3.50374997e-001,
          4.15335000e-001, 4.73931998e-001, 5.11868000e-001,
          5.11282027e-001, 2.48726994e-001, 1.67320997e-001,
          8.59156027e-002, 0., 1.29454002e-001, 1.12543002e-001,
          1.17413998e-001, 1.12543002e-001, 1.29912004e-001,
          3.90408993e-001, 3.75288993e-001, 3.31184000e-001,
          2.52400011e-001, 2.87012011e-001, 3.37797999e-001,
          2.49175996e-001, 3.23231012e-001, 3.63514006e-001,
          3.74421000e-001, 3.22542012e-001, 2.78717995e-001,
          3.31999987e-001, 2.51621991e-001, 2.01253995e-001,
          2.07779005e-001, 2.03747004e-001, 2.52400011e-001,
          3.38303000e-001, 3.19505006e-001, 3.10671002e-001,
          3.07208985e-001, 3.07152003e-001, 3.11879009e-001,
          3.09735000e-001, 2.53941000e-001, 2.48414993e-001,
          2.52656996e-001, 3.21350992e-001, 2.52656996e-001,
          2.48531997e-001, 2.48629004e-001 ]
      - [ 5.92764974e-001, 5.87813020e-001, 5.39587975e-001,
          4.62853998e-001, 3.87930989e-001, 3.76639992e-001,
          4.38614011e-001, 4.99716997e-001, 5.32944977e-001,
          5.11677027e-001, 2.80844003e-001, 1.88583001e-001,
          9.66375023e-002, 0., 1.36544004e-001, 1.08190998e-001,
          1.00997001e-001, 9.33293030e-002, 1.09978996e-001,
          4.49382007e-001, 4.32494998e-001, 3.82441998e-001,
          2.95632005e-001, 3.28918010e-001, 3.86812985e-001,
          2.66292006e-001, 3.50091010e-001, 3.87008011e-001,
          3.89845014e-001, 3.38301003e-001, 2.89635003e-001,
          3.19831014e-001, 2.59005010e-001, 2.12917998e-001,
          2.19153002e-001, 2.07788005e-001, 2.33827993e-001,
          2.63911992e-001, 2.92414010e-001, 3.08169991e-001,
          3.15304995e-001, 3.16294014e-001, 3.13331991e-001,
          3.03048998e-001, 2.52126992e-001, 2.54355013e-001,
          2.46829003e-001, 2.62023985e-001, 2.47374997e-001,
          2.54355013e-001, 2.56381989e-001 ]
      - [ 4.14243013e-001, 4.33701992e-001, 4.10883993e-001,
          3.67006987e-001, 3.00269991e-001, 2.71658003e-001,
          3.12189013e-001, 3.42287987e-001, 3.64683986e-001,
          3.79749000e-001, 1.35829002e-001, 9.48297009e-002,
          4.87142988e-002, 0., 7.04713985e-002, 8.10839981e-002,
          9.48133022e-002, 1.09552003e-001, 1.33386999e-001,
          2.59570986e-001, 2.54842013e-001, 2.19894007e-001,
          1.59762993e-001, 1.81107998e-001, 2.13609993e-001,
          1.76540002e-001, 2.14283004e-001, 2.46839002e-001,
          2.72051990e-001, 2.30768993e-001, 1.91213995e-001,
          2.35339001e-001, 2.26309001e-001, 2.25378007e-001,
          2.48996004e-001, 2.60354996e-001, 3.19896996e-001,
          3.87374997e-001, 2.66321987e-001, 1.97676003e-001,
          1.75311998e-001, 1.59222007e-001, 1.70683995e-001,
          2.26309001e-001, 2.73393989e-001, 2.91072011e-001,
          3.08077008e-001, 3.43807995e-001, 1.54613003e-001,
          1.25942007e-001, 1.09552003e-001 ]
      - [ 5.76470017e-001, 5.62843978e-001, 5.04445016e-001,
          4.40158993e-001, 3.86195004e-001, 3.95754009e-001,
          4.44357008e-001, 4.96585995e-001, 5.53092003e-001,
          5.61007023e-001, 3.00152987e-001, 2.01594993e-001,
          9.85578001e-002, 0., 1.22239999e-001, 8.10728967e-002,
          7.61583000e-002, 8.45210999e-002, 1.25185996e-001,
          4.25114989e-001, 4.06964004e-001, 3.71367007e-001,
          3.19160998e-001, 3.34885001e-001, 3.70700985e-001,
          3.15014988e-001, 3.67428005e-001, 3.99699003e-001,
          4.15665001e-001, 3.70700985e-001, 3.31117988e-001,
          2.44834006e-001, 1.78152993e-001, 1.36822000e-001,
          1.43933997e-001, 1.43003002e-001, 1.82853997e-001,
          2.49350995e-001, 2.61238992e-001, 2.72329003e-001,
          2.74114996e-001, 2.71555007e-001, 2.60551989e-001,
          2.31093004e-001, 1.92987993e-001, 1.88595995e-001,
          1.93480000e-001, 2.32435003e-001, 1.99259996e-001,
          1.97861999e-001, 1.92080006e-001 ]
      - [ 6.53140008e-001, 6.53074026e-001, 6.18219018e-001,
          5.54184973e-001, 4.41100001e-001, 4.02139008e-001,
          4.29015994e-001, 4.38964993e-001, 4.38596010e-001,
          4.17984992e-001, 2.61871994e-001, 1.76018000e-001,
          9.44854990e-002, 0., 1.04410000e-001, 7.79815018e-002,
          7.93977007e-002, 8.67410973e-002, 1.05080999e-001,
          4.65925008e-001, 4.44543988e-001, 3.94445002e-001,
          3.25388014e-001, 3.43353003e-001, 3.95666987e-001,
          2.41730005e-001, 2.87097007e-001, 3.05070996e-001,
          3.04147989e-001, 2.64221013e-001, 2.36381993e-001,
          2.25280002e-001, 1.84827000e-001, 1.71450004e-001,
          1.91493005e-001, 1.99361995e-001, 2.51529008e-001,
          2.89323986e-001, 2.39234000e-001, 2.03041002e-001,
          1.91792995e-001, 1.88216999e-001, 1.93797007e-001,
          2.08043993e-001, 2.12182999e-001, 2.29471996e-001,
          2.44907007e-001, 2.66326994e-001, 1.46985993e-001,
          1.38574004e-001, 1.31417006e-001 ]
      - [ 5.42344987e-001, 5.25395989e-001, 5.03814995e-001,
          4.66131002e-001, 4.07485992e-001, 3.86314005e-001,
          4.32092994e-001, 4.52908993e-001, 4.58512008e-001,
          4.46868002e-001, 2.52710015e-001, 1.66676998e-001,
          8.60479027e-002, 0., 9.35705975e-002, 6.98333979e-002,
          6.18603006e-002, 6.14252985e-002, 7.02563003e-002,
          3.64021987e-001, 3.55244994e-001, 3.26155007e-001,
          2.74145991e-001, 3.02231014e-001, 3.33030999e-001,
          2.42525995e-001, 2.83320010e-001, 2.97003001e-001,
          2.91343987e-001, 2.71616995e-001, 2.51145005e-001,
          2.06569001e-001, 1.62240997e-001, 1.39671996e-001,
          1.42082006e-001, 1.36226997e-001, 1.49261996e-001,
          1.78931996e-001, 1.60046995e-001, 1.61356002e-001,
          1.62083000e-001, 1.64875001e-001, 1.81677997e-001,
          1.92633003e-001, 1.87682003e-001, 1.87125996e-001,
          1.86497003e-001, 1.73140004e-001, 1.00792997e-001,
          1.02241002e-001, 1.11856997e-001 ]
      - [ 3.01853001e-001, 2.78937012e-001, 2.55459011e-001,
          2.18432993e-001, 1.71030000e-001, 1.65349007e-001,
          2.02971995e-001, 2.24815995e-001, 2.29847997e-001,
          2.45648995e-001, 1.04491003e-001, 7.32681975e-002,
          4.09408994e-002, 0., 1.17853999e-001, 1.04316004e-001,
          9.50722992e-002, 8.88966992e-002, 9.45091024e-002,
          2.21732005e-001, 1.91685006e-001, 1.59804001e-001,
          1.16393000e-001, 1.52755007e-001, 1.85848996e-001,
          7.18180016e-002, 1.14042997e-001, 1.44428000e-001,
          1.77873001e-001, 1.36124000e-001, 1.01989999e-001,
          2.78537989e-001, 1.92789003e-001, 1.47378996e-001,
          1.40368998e-001, 1.35714993e-001, 1.70844004e-001,
          2.44268999e-001, 2.68970013e-001, 2.76809007e-001,
          2.81394005e-001, 2.85506994e-001, 2.86585987e-001,
          2.62748986e-001, 1.71478003e-001, 1.65349007e-001,
          1.60949007e-001, 2.29173005e-001, 2.36844003e-001,
          2.41139993e-001, 2.35531002e-001 ]
      - [ 4.99700993e-001, 5.01353979e-001, 4.72669005e-001,
          4.21460986e-001, 3.34127009e-001, 2.83026010e-001,
          3.02442014e-001, 3.11892986e-001, 3.11814010e-001,
          2.84839004e-001, 1.84578001e-001, 1.25970006e-001,
          6.32489026e-002, 0., 1.30601004e-001, 1.29985005e-001,
          1.36291996e-001, 1.41016006e-001, 1.47789001e-001,
          3.38797987e-001, 3.15871000e-001, 2.75079012e-001,
          2.16732994e-001, 2.37699002e-001, 2.83024997e-001,
          1.33340001e-001, 1.64186001e-001, 1.85719997e-001,
          1.91228002e-001, 1.60238996e-001, 1.27195001e-001,
          3.12189996e-001, 2.84622014e-001, 2.70197988e-001,
          2.97793001e-001, 3.05314988e-001, 3.60861003e-001,
          4.07276988e-001, 3.48499000e-001, 3.18969011e-001,
          3.04163992e-001, 2.91157007e-001, 2.93567002e-001,
          3.06959003e-001, 3.29061985e-001, 3.46433014e-001,
          3.58824015e-001, 3.93076003e-001, 2.53941000e-001,
          2.44207993e-001, 2.29837000e-001 ]
      - [ 3.64778012e-001, 3.97020012e-001, 3.83379996e-001,
          3.48042995e-001, 2.92562008e-001, 2.75916010e-001,
          3.11879992e-001, 3.33952010e-001, 3.27726007e-001,
          2.91864991e-001, 1.51936993e-001, 9.97086987e-002,
          5.22283986e-002, 0., 1.35792002e-001, 1.28638998e-001,
          1.33201003e-001, 1.36053994e-001, 1.42391995e-001,
          2.31130004e-001, 2.15067998e-001, 1.73547998e-001,
          1.33190006e-001, 1.47175997e-001, 1.90606996e-001,
          9.71724987e-002, 1.37273997e-001, 1.70708001e-001,
          1.82729006e-001, 1.51444003e-001, 1.10055000e-001,
          3.77057999e-001, 3.13849986e-001, 2.69746006e-001,
          2.81623006e-001, 2.80407995e-001, 3.32592994e-001,
          4.01416004e-001, 3.32464993e-001, 2.99582005e-001,
          2.96227992e-001, 2.93843001e-001, 3.13849986e-001,
          3.61669987e-001, 3.21348011e-001, 3.24158996e-001,
          3.27849001e-001, 3.80941987e-001, 2.56926000e-001,
          2.53302008e-001, 2.51046002e-001 ]
      - [ 4.90545988e-001, 5.01825988e-001, 4.71572995e-001,
          4.10061985e-001, 3.34064990e-001, 3.37415010e-001,
          3.91097009e-001, 4.25350010e-001, 4.32558000e-001,
          4.18489009e-001, 2.31401995e-001, 1.54225007e-001,
          8.19026008e-002, 0., 9.19634029e-002, 6.89942986e-002,
          6.79527000e-002, 6.87227994e-002, 8.60332996e-002,
          3.48949999e-001, 3.39570999e-001, 3.08405012e-001,
          2.60468990e-001, 2.72680998e-001, 3.02971005e-001,
          2.35055998e-001, 2.83221006e-001, 3.03122014e-001,
          3.14873010e-001, 2.74690002e-001, 2.43933007e-001,
          2.32082993e-001, 2.09654003e-001, 1.95408002e-001,
          2.14540005e-001, 2.02726007e-001, 2.36217007e-001,
          2.51500010e-001, 1.88076004e-001, 1.52960002e-001,
          1.49669006e-001, 1.54009998e-001, 1.77598998e-001,
          2.17058003e-001, 2.33695999e-001, 2.38977998e-001,
          2.41208002e-001, 2.37834007e-001, 9.94886979e-002,
          1.04083002e-001, 1.09010004e-001 ]
      - [ 6.33314013e-001, 6.37588024e-001, 5.95125973e-001,
          5.16309023e-001, 4.26548004e-001, 3.70151013e-001,
          3.96759987e-001, 4.15455014e-001, 4.22863007e-001,
          4.09855992e-001, 2.59528011e-001, 1.74623996e-001,
          8.49049017e-002, 0., 1.06145002e-001, 7.94572979e-002,
          8.21283981e-002, 8.86090994e-002, 1.16746001e-001,
          4.73432004e-001, 4.48978007e-001, 3.95628005e-001,
          3.17373991e-001, 3.51776987e-001, 4.04444993e-001,
          2.20853001e-001, 2.71762997e-001, 2.88313001e-001,
          2.94955999e-001, 2.52640992e-001, 2.25305006e-001,
          2.42415994e-001, 1.84717998e-001, 1.74297005e-001,
          2.00664997e-001, 2.02454999e-001, 2.50032991e-001,
          2.79549986e-001, 2.42387995e-001, 2.15310007e-001,
          2.07818002e-001, 2.01813996e-001, 2.10701004e-001,
          2.24215001e-001, 2.20850006e-001, 2.41732001e-001,
          2.43612006e-001, 2.56065995e-001, 1.51662007e-001,
          1.49351001e-001, 1.47071004e-001 ]
      - [ 3.38600010e-001, 3.41053993e-001, 3.14482003e-001,
          2.75851995e-001, 2.33293995e-001, 2.06380993e-001,
          2.28084996e-001, 2.57786006e-001, 2.90713996e-001,
          3.07182997e-001, 1.42181993e-001, 9.64685008e-002,
          5.07555008e-002, 0., 1.11576997e-001, 1.19763002e-001,
          1.26485005e-001, 1.39509007e-001, 1.57278001e-001,
          2.18147993e-001, 2.05979005e-001, 1.80188000e-001,
          1.37278005e-001, 1.49517000e-001, 1.76958993e-001,
          1.26822993e-001, 1.64980993e-001, 1.89815000e-001,
          2.15269998e-001, 1.76613003e-001, 1.42054006e-001,
          3.41769993e-001, 2.96220988e-001, 2.68635988e-001,
          2.88414001e-001, 2.88839012e-001, 3.41888994e-001,
          4.16958988e-001, 3.50991994e-001, 3.13708007e-001,
          3.03995013e-001, 2.95224994e-001, 3.08086991e-001,
          3.33041012e-001, 3.19382995e-001, 3.28884989e-001,
          3.39365989e-001, 3.93108010e-001, 2.68269986e-001,
          2.53261000e-001, 2.49096006e-001 ]
      - [ 3.91613007e-001, 3.93896997e-001, 3.75194997e-001,
          3.39235008e-001, 2.74518996e-001, 2.42025003e-001,
          2.79045999e-001, 2.90302008e-001, 2.72596985e-001,
          2.44305998e-001, 1.55267999e-001, 1.07210003e-001,
          5.42741008e-002, 0., 1.14984997e-001, 9.07180011e-002,
          7.90119022e-002, 6.80515990e-002, 6.47810027e-002,
          2.86677003e-001, 2.68050998e-001, 2.36833006e-001,
          1.83641002e-001, 2.12406993e-001, 2.46735007e-001,
          1.07942998e-001, 1.40554994e-001, 1.61791995e-001,
          1.47092000e-001, 1.28334001e-001, 1.06990002e-001,
          2.40823999e-001, 1.67936996e-001, 1.28602996e-001,
          1.21022999e-001, 1.13329999e-001, 1.26009002e-001,
          1.75814003e-001, 1.71287000e-001, 1.80610999e-001,
          1.90836996e-001, 1.93488002e-001, 2.06204996e-001,
          2.18163997e-001, 1.46980003e-001, 1.41146004e-001,
          1.33821994e-001, 1.56370997e-001, 1.49522007e-001,
          1.60716996e-001, 1.64293006e-001 ]
      - [ 3.79518986e-001, 3.89815986e-001, 3.75355989e-001,
          3.36378992e-001, 2.77702004e-001, 2.72886008e-001,
          3.09976012e-001, 3.31117988e-001, 3.28132004e-001,
          3.13221008e-001, 1.28191993e-001, 8.55183005e-002,
          4.74530011e-002, 0., 1.40616998e-001, 1.34812996e-001,
          1.37869000e-001, 1.39896005e-001, 1.49617001e-001,
          2.50961006e-001, 2.07165003e-001, 1.62642002e-001,
          1.15649998e-001, 1.50288999e-001, 1.99867994e-001,
          8.31461027e-002, 1.30135000e-001, 1.76728994e-001,
          2.15213999e-001, 1.68835998e-001, 1.21629998e-001,
          3.70936990e-001, 2.64941007e-001, 2.07509995e-001,
          2.13703007e-001, 2.15015993e-001, 2.75135994e-001,
          3.84698987e-001, 4.08894986e-001, 4.18112993e-001,
          4.17923003e-001, 4.15897995e-001, 3.93837988e-001,
          3.50769997e-001, 2.73714989e-001, 2.75514990e-001,
          2.76024997e-001, 3.64710003e-001, 3.42586994e-001,
          3.41764003e-001, 3.39516997e-001 ]
      - [ 4.05261010e-001, 3.99053991e-001, 3.81336004e-001,
          3.36632013e-001, 2.77260989e-001, 2.54575998e-001,
          2.99248993e-001, 3.32715988e-001, 3.23980004e-001,
          3.09074998e-001, 1.25885993e-001, 8.22840035e-002,
          4.36073989e-002, 0., 1.41455993e-001, 1.25403002e-001,
          1.16352998e-001, 1.04690999e-001, 9.87363011e-002,
          2.66678989e-001, 2.39794999e-001, 2.09270999e-001,
          1.65377006e-001, 1.85981005e-001, 2.25900993e-001,
          9.86535996e-002, 1.27410993e-001, 1.41185001e-001,
          1.42330006e-001, 1.18897997e-001, 9.51007977e-002,
          3.23404014e-001, 2.32275993e-001, 1.85671002e-001,
          1.88797995e-001, 1.76538005e-001, 2.08443999e-001,
          2.77458012e-001, 2.34321997e-001, 2.33695000e-001,
          2.39868000e-001, 2.43753001e-001, 2.69371003e-001,
          2.97062010e-001, 2.34549001e-001, 2.29997993e-001,
          2.28460997e-001, 2.60217011e-001, 1.86922997e-001,
          1.99084997e-001, 2.03220993e-001 ]
      - [ 4.39199001e-001, 4.29484010e-001, 3.90163004e-001,
          3.39794993e-001, 2.80986995e-001, 2.87667990e-001,
          3.44258994e-001, 4.04282004e-001, 4.56690997e-001,
          4.81251001e-001, 2.01465994e-001, 1.38058007e-001,
          6.91822022e-002, 0., 1.33116007e-001, 1.17206000e-001,
          1.20828003e-001, 1.23891003e-001, 1.44424006e-001,
          3.27679992e-001, 3.08396012e-001, 2.65855998e-001,
          2.10288003e-001, 2.34432995e-001, 2.78679997e-001,
          2.28832006e-001, 2.90437996e-001, 3.35938007e-001,
          3.66609991e-001, 3.09309989e-001, 2.61943996e-001,
          3.54945004e-001, 2.75599986e-001, 2.20577002e-001,
          2.29986995e-001, 2.29105994e-001, 2.89362997e-001,
          3.90691012e-001, 4.18918014e-001, 4.26165998e-001,
          4.25395012e-001, 4.23671007e-001, 4.01993006e-001,
          3.41342002e-001, 2.70806015e-001, 2.70215005e-001,
          2.78865010e-001, 3.71551007e-001, 3.57385010e-001,
          3.56424004e-001, 3.55480999e-001 ]
      - [ 5.50342023e-001, 5.49813986e-001, 5.10517001e-001,
          4.45822001e-001, 3.54882985e-001, 3.03907990e-001,
          3.37770998e-001, 3.54824990e-001, 3.52155000e-001,
          3.09947997e-001, 2.00255007e-001, 1.32980004e-001,
          7.18932003e-002, 0., 1.55807003e-001, 1.20298997e-001,
          1.10114999e-001, 9.55604985e-002, 1.01479001e-001,
          4.12600011e-001, 3.77032995e-001, 3.25527996e-001,
          2.54761010e-001, 2.98224002e-001, 3.50490004e-001,
          1.38349995e-001, 1.82496995e-001, 2.04239994e-001,
          2.00758994e-001, 1.65691003e-001, 1.32249996e-001,
          3.47088009e-001, 2.69670993e-001, 2.13847995e-001,
          2.12013006e-001, 2.06869006e-001, 2.45614007e-001,
          2.79444993e-001, 3.39913994e-001, 3.69931012e-001,
          3.74586999e-001, 3.75966012e-001, 3.68405014e-001,
          3.37282985e-001, 2.49968007e-001, 2.49573007e-001,
          2.43626997e-001, 2.71658003e-001, 3.05209011e-001,
          3.13758999e-001, 3.09655994e-001 ]
      - [ 5.83530009e-001, 5.84747016e-001, 5.36055982e-001,
          4.84326988e-001, 4.19945002e-001, 4.20922011e-001,
          4.88943994e-001, 5.44822991e-001, 5.88303983e-001,
          5.91253996e-001, 3.28723013e-001, 2.20535994e-001,
          1.12347998e-001, 0., 1.18234999e-001, 7.56257996e-002,
          7.07378015e-002, 8.13438967e-002, 1.26897007e-001,
          4.53543007e-001, 4.37705010e-001, 3.95841986e-001,
          3.21653008e-001, 3.56000006e-001, 4.02197987e-001,
          3.21417004e-001, 3.95042002e-001, 4.38778996e-001,
          4.57044989e-001, 3.98734003e-001, 3.53119999e-001,
          2.76722997e-001, 1.95125997e-001, 1.33034006e-001,
          1.29054993e-001, 1.39246002e-001, 2.16258004e-001,
          3.09341013e-001, 3.30915987e-001, 3.38380992e-001,
          3.37069005e-001, 3.31656009e-001, 3.09511989e-001,
          2.61112988e-001, 1.64603993e-001, 1.66490003e-001,
          1.71809003e-001, 2.89205998e-001, 2.70184010e-001,
          2.66337007e-001, 2.62834013e-001 ]
      - [ 2.91819990e-001, 2.94582009e-001, 2.88531005e-001,
          2.68023998e-001, 2.33216003e-001, 2.34899998e-001,
          2.92872995e-001, 3.16664994e-001, 3.38842988e-001,
          3.52046013e-001, 1.00409999e-001, 6.67871982e-002,
          3.36872004e-002, 0., 1.12608999e-001, 1.09825999e-001,
          1.11455999e-001, 1.10018998e-001, 1.16838001e-001,
          1.99726000e-001, 1.77531004e-001, 1.39513001e-001,
          8.74143988e-002, 1.17551997e-001, 1.62310004e-001,
          1.30935997e-001, 1.86415002e-001, 2.25961000e-001,
          2.43500993e-001, 2.06000000e-001, 1.61642998e-001,
          3.33126992e-001, 2.84166008e-001, 2.44647995e-001,
          2.49766007e-001, 2.39493996e-001, 2.68765986e-001,
          3.25509995e-001, 2.46785000e-001, 2.17387006e-001,
          2.16661006e-001, 2.27574006e-001, 2.67149001e-001,
          3.17795008e-001, 2.99831003e-001, 2.94151992e-001,
          2.94820994e-001, 3.09478015e-001, 1.83767006e-001,
          1.83194995e-001, 1.94288999e-001 ]
      - [ 2.93763012e-001, 3.01436007e-001, 3.04208010e-001,
          2.94681013e-001, 2.59963006e-001, 2.86601990e-001,
          3.27872008e-001, 3.35817009e-001, 3.21146011e-001,
          3.01436007e-001, 1.52373001e-001, 9.82649028e-002,
          4.91323993e-002, 0., 7.18187988e-002, 5.37527986e-002,
          4.93260995e-002, 5.55785000e-002, 7.40493983e-002,
          1.90366998e-001, 1.66737005e-001, 1.50543004e-001,
          1.31120995e-001, 1.47538006e-001, 1.63330004e-001,
          1.28475994e-001, 1.52087003e-001, 1.66734993e-001,
          1.93015993e-001, 1.73297003e-001, 1.52087003e-001,
          1.57747000e-001, 9.30211991e-002, 6.90352991e-002,
          6.89238980e-002, 6.85281977e-002, 9.14798006e-002,
          1.46970004e-001, 1.19262002e-001, 1.13807999e-001,
          1.09493002e-001, 1.08882003e-001, 1.20118998e-001,
          1.42810002e-001, 1.00659996e-001, 9.34536979e-002,
          9.50857997e-002, 1.30565003e-001, 8.99221972e-002,
          8.45459029e-002, 8.05284008e-002 ]
      - [ 2.87070990e-001, 2.68500000e-001, 2.47900993e-001,
          2.10371003e-001, 1.69062003e-001, 1.72144994e-001,
          2.14387000e-001, 2.40439996e-001, 2.60937989e-001,
          2.96525985e-001, 9.16856006e-002, 6.31470978e-002,
          3.06435991e-002, 0., 1.19002998e-001, 1.16585001e-001,
          1.18354000e-001, 1.19317003e-001, 1.33589998e-001,
          2.25300997e-001, 1.91292003e-001, 1.43460006e-001,
          9.97940004e-002, 1.46101996e-001, 1.90454006e-001,
          9.22273993e-002, 1.29094005e-001, 1.79395005e-001,
          2.20790997e-001, 1.77987993e-001, 1.22547999e-001,
          3.42691988e-001, 2.66178012e-001, 2.19920993e-001,
          2.18126997e-001, 2.03698993e-001, 2.43800998e-001,
          3.25572997e-001, 2.76995003e-001, 2.59972006e-001,
          2.64901012e-001, 2.67347991e-001, 2.87101001e-001,
          3.27111989e-001, 2.72523999e-001, 2.65578002e-001,
          2.56709009e-001, 2.98615009e-001, 2.23637000e-001,
          2.28295997e-001, 2.24720001e-001 ]
      - [ 4.03506011e-001, 4.02657986e-001, 3.67684007e-001,
          3.25255990e-001, 2.73939997e-001, 2.95619011e-001,
          3.27239990e-001, 3.51260990e-001, 3.62830013e-001,
          3.67410988e-001, 2.00294003e-001, 1.31997004e-001,
          6.82983994e-002, 0., 8.00362974e-002, 6.78168982e-002,
          6.63508028e-002, 5.75142987e-002, 6.16265014e-002,
          2.71591008e-001, 2.55798995e-001, 2.33276993e-001,
          1.84391007e-001, 2.00121999e-001, 2.28677005e-001,
          1.86424002e-001, 2.33496994e-001, 2.47301996e-001,
          2.55672991e-001, 2.17253000e-001, 1.91389993e-001,
          1.80115998e-001, 1.58061996e-001, 1.42698005e-001,
          1.47421002e-001, 1.37612998e-001, 1.43159002e-001,
          1.42394006e-001, 1.28304005e-001, 1.28057003e-001,
          1.31062999e-001, 1.32762998e-001, 1.46775007e-001,
          1.71921000e-001, 1.80277005e-001, 1.80821002e-001,
          1.76332995e-001, 1.32369995e-001, 9.20578018e-002,
          9.22947004e-002, 9.51320007e-002 ]
      - [ 5.26323974e-001, 5.21184027e-001, 4.83947992e-001,
          4.34807003e-001, 3.81987005e-001, 3.70433986e-001,
          4.21395004e-001, 4.66565996e-001, 5.01780987e-001,
          4.93449986e-001, 2.64165998e-001, 1.74778000e-001,
          8.95166993e-002, 0., 1.48319006e-001, 1.25474006e-001,
          1.19765997e-001, 1.19689003e-001, 1.27461001e-001,
          3.97745997e-001, 3.80519003e-001, 3.37570012e-001,
          2.64070004e-001, 2.84967005e-001, 3.35465014e-001,
          2.46713996e-001, 3.22739005e-001, 3.54393989e-001,
          3.62423986e-001, 3.06843996e-001, 2.64349014e-001,
          3.72808993e-001, 2.88475007e-001, 2.37437993e-001,
          2.48372003e-001, 2.34713003e-001, 2.78272986e-001,
          3.41989994e-001, 3.60379994e-001, 3.62096995e-001,
          3.63894999e-001, 3.69457990e-001, 3.80264014e-001,
          3.50443989e-001, 2.92163014e-001, 2.99250990e-001,
          2.89992988e-001, 3.27609986e-001, 2.89828986e-001,
          2.91115999e-001, 2.92977005e-001 ]
      - [ 5.76200008e-001, 5.77579975e-001, 5.43118000e-001,
          4.96897012e-001, 4.40833986e-001, 4.39345002e-001,
          5.08839011e-001, 5.70571005e-001, 6.16005003e-001,
          6.03487015e-001, 3.30256999e-001, 2.18641996e-001,
          1.06977001e-001, 0., 9.83444005e-002, 8.06635022e-002,
          8.38188007e-002, 8.12430978e-002, 9.92273986e-002,
          4.32283998e-001, 4.21274006e-001, 3.89429986e-001,
          3.24645013e-001, 3.43281001e-001, 3.79669994e-001,
          3.34789991e-001, 3.99547011e-001, 4.35034007e-001,
          4.48612005e-001, 3.96537006e-001, 3.57223004e-001,
          2.81094015e-001, 2.14025006e-001, 1.67750001e-001,
          1.76929995e-001, 1.66667998e-001, 2.16077000e-001,
          2.89819986e-001, 2.82608002e-001, 2.78409004e-001,
          2.74895996e-001, 2.76322991e-001, 2.80993998e-001,
          2.68202990e-001, 2.13182002e-001, 2.18755007e-001,
          2.12355003e-001, 2.72053987e-001, 2.04570994e-001,
          2.05010995e-001, 2.03291997e-001 ]
      - [ 5.42997003e-001, 5.63780010e-001, 5.26098013e-001,
          4.67534989e-001, 3.95886004e-001, 3.91187996e-001,
          4.57037985e-001, 5.09325027e-001, 5.52802980e-001,
          5.45651019e-001, 2.77978987e-001, 1.86894000e-001,
          9.58430991e-002, 0., 1.31656006e-001, 1.15653001e-001,
          1.15011998e-001, 1.17495999e-001, 1.34810999e-001,
          4.01271999e-001, 3.93404990e-001, 3.56400996e-001,
          2.81347007e-001, 2.93033987e-001, 3.37018996e-001,
          2.80912995e-001, 3.60882014e-001, 3.98876011e-001,
          4.07830000e-001, 3.46659005e-001, 2.94790000e-001,
          3.89584988e-001, 3.18648994e-001, 2.75332987e-001,
          2.87562013e-001, 2.71820009e-001, 3.13304991e-001,
          3.88298005e-001, 3.86783004e-001, 3.76800001e-001,
          3.78679007e-001, 3.79788011e-001, 3.92998993e-001,
          3.72002006e-001, 3.27695996e-001, 3.30686986e-001,
          3.24575990e-001, 3.70171994e-001, 3.10362011e-001,
          3.11610013e-001, 3.12956005e-001 ]
      - [ 5.59993982e-001, 5.62906981e-001, 5.29235005e-001,
          4.64123011e-001, 3.96701992e-001, 3.92488003e-001,
          4.42676991e-001, 4.95429993e-001, 5.17814994e-001,
          5.05125999e-001, 2.44235992e-001, 1.62824005e-001,
          8.14118981e-002, 0., 1.58952996e-001, 1.24041997e-001,
          1.13568000e-001, 1.12773001e-001, 1.31577998e-001,
          4.11594003e-001, 3.89313012e-001, 3.44803005e-001,
          2.68209010e-001, 2.93487996e-001, 3.47878009e-001,
          2.40327001e-001, 3.14456999e-001, 3.51116002e-001,
          3.64717007e-001, 3.10837001e-001, 2.60821998e-001,
          3.55948001e-001, 2.65864015e-001, 2.02105999e-001,
          2.12917998e-001, 1.95717007e-001, 2.40146995e-001,
          3.17045987e-001, 3.44758987e-001, 3.61748993e-001,
          3.66977006e-001, 3.67693990e-001, 3.64881992e-001,
          3.34122002e-001, 2.73153007e-001, 2.76284993e-001,
          2.67601013e-001, 2.98999012e-001, 2.58264989e-001,
          2.72100985e-001, 2.74053007e-001 ]
      - [ 3.84288996e-001, 3.74354988e-001, 3.48964006e-001,
          3.16561013e-001, 2.86478013e-001, 2.85237014e-001,
          3.20560992e-001, 3.49159002e-001, 3.68703991e-001,
          3.71591002e-001, 1.65763006e-001, 1.11860000e-001,
          5.83440997e-002, 0., 1.05681002e-001, 1.05774000e-001,
          1.11566000e-001, 1.14184998e-001, 1.17703997e-001,
          2.45321006e-001, 2.30912000e-001, 2.01157004e-001,
          1.62294000e-001, 1.73515007e-001, 2.02840000e-001,
          1.57765001e-001, 2.02212006e-001, 2.28242993e-001,
          2.48013005e-001, 2.02996001e-001, 1.68788001e-001,
          2.65432000e-001, 2.40584001e-001, 2.16230005e-001,
          2.32021004e-001, 2.27144003e-001, 2.55484998e-001,
          2.96721995e-001, 2.50037998e-001, 2.18478993e-001,
          2.11829007e-001, 2.11941004e-001, 2.28145003e-001,
          2.52819002e-001, 2.65228987e-001, 2.67807990e-001,
          2.71647006e-001, 2.79505014e-001, 1.69377998e-001,
          1.62918001e-001, 1.62829995e-001 ]
      - [ 4.93809015e-001, 4.79611993e-001, 4.27762002e-001,
          3.64881009e-001, 3.04437995e-001, 3.07678998e-001,
          3.71170014e-001, 4.31436002e-001, 4.87343013e-001,
          4.91865009e-001, 1.97936997e-001, 1.31987005e-001,
          6.60718009e-002, 0., 1.32144004e-001, 1.11652002e-001,
          1.04158998e-001, 1.11652002e-001, 1.26790002e-001,
          3.53879005e-001, 3.33988011e-001, 2.84469008e-001,
          2.12459996e-001, 2.42595002e-001, 3.00002009e-001,
          2.14620993e-001, 2.84469008e-001, 3.33988011e-001,
          3.53879005e-001, 3.00002009e-001, 2.42595002e-001,
          3.68054986e-001, 2.62899011e-001, 2.03700006e-001,
          2.04980999e-001, 2.00701997e-001, 2.56482989e-001,
          3.55875999e-001, 4.58959013e-001, 5.04803002e-001,
          5.10433972e-001, 5.06927013e-001, 4.68667001e-001,
          3.57286006e-001, 2.51188010e-001, 2.46621996e-001,
          2.48762995e-001, 3.44725996e-001, 4.31818992e-001,
          4.41002995e-001, 4.37097013e-001 ]
      - [ 4.48199004e-001, 4.38704997e-001, 4.01149988e-001,
          3.42370987e-001, 2.84458995e-001, 2.84413010e-001,
          3.49503994e-001, 4.06309009e-001, 4.59107995e-001,
          4.71296996e-001, 1.81852996e-001, 1.22510999e-001,
          5.93653992e-002, 0., 1.18712001e-001, 1.08364999e-001,
          1.04217999e-001, 1.13669999e-001, 1.33276999e-001,
          3.19714010e-001, 3.05346012e-001, 2.56754011e-001,
          1.91117004e-001, 2.16745004e-001, 2.74482995e-001,
          1.98865995e-001, 2.65096009e-001, 3.20699990e-001,
          3.43591005e-001, 2.85548002e-001, 2.26790994e-001,
          3.81397009e-001, 2.75866002e-001, 2.11847007e-001,
          2.18949005e-001, 2.17223004e-001, 2.87786007e-001,
          3.97866011e-001, 4.90832001e-001, 5.25906980e-001,
          5.30578017e-001, 5.25906980e-001, 4.82612997e-001,
          3.68488997e-001, 2.62989014e-001, 2.59755999e-001,
          2.68058985e-001, 3.84160012e-001, 4.51680005e-001,
          4.52661008e-001, 4.43863004e-001 ]
      - [ 4.22863007e-001, 4.21636999e-001, 3.91059011e-001,
          3.36804986e-001, 2.77529001e-001, 2.75180012e-001,
          3.43787014e-001, 4.13185000e-001, 4.56050009e-001,
          4.67954010e-001, 1.55046999e-001, 1.04820997e-001,
          5.44498004e-002, 0., 1.25456005e-001, 1.16685003e-001,
          1.18153997e-001, 1.24767996e-001, 1.41941994e-001,
          2.95533001e-001, 2.66452014e-001, 2.15621993e-001,
          1.38753995e-001, 1.85140997e-001, 2.46241003e-001,
          1.65468007e-001, 2.40117997e-001, 3.03624004e-001,
          3.39002997e-001, 2.83708990e-001, 2.12662995e-001,
          3.91422004e-001, 2.72875994e-001, 2.11385995e-001,
          2.14093998e-001, 2.14834005e-001, 2.92293996e-001,
          4.10748005e-001, 5.18739998e-001, 5.57527006e-001,
          5.53622007e-001, 5.49208999e-001, 5.01706004e-001,
          3.80573988e-001, 2.64566988e-001, 2.64566988e-001,
          2.72309005e-001, 3.97828013e-001, 4.89250004e-001,
          4.86449987e-001, 4.82053012e-001 ]
   decision_functions:
      -
         sv_count: 48
         rho: -5.2076520041263707e+000
         alpha: [ 1.4071848450724570e-004, 2.7908341533121565e-005,
             2.7351739501439670e-005, 1.3469200058588261e-004,
             3.8093534483581244e-005, 4.5945217813139874e-006,
             3.5150709972673396e-004, 2.3135426364218573e-005,
             1.2552733932749059e-004, 1.4699892473001496e-004,
             3.2595049863640041e-005, 2.1309104339479550e-005,
             7.7702404275523698e-005, 1.4898358401348535e-004,
             6.5752932811824071e-005, 1.2479586820462131e-004,
             6.4327852256039497e-004, 3.5865552717156545e-004,
             -2.6052521884118383e-005, -2.3874295292872794e-005,
             -3.5268606569465361e-006, -3.8122287591827996e-005,
             -1.1558176099155850e-005, -1.7347141489192553e-005,
             -4.0532790092660890e-005, -1.1787868352526135e-004,
             -5.0401890177433433e-006, -4.4511270697776878e-005,
             -4.0907294399388609e-005, -2.7460249013134728e-004,
             -1.0499772848001631e-004, -1.8433207649058748e-006,
             -1.7555136288461884e-004, -1.1145091754996397e-005,
             -2.6800700007707754e-006, -5.6856360632486539e-005,
             -2.2974535982251573e-005, -1.4880612651651235e-004,
             -2.4082485370901380e-005, -3.9060936065798240e-005,
             -1.0101174042736289e-004, -4.2221161298545371e-004,
             -3.9724501359030624e-004, -1.5173710037162939e-005,
             -2.6617993880336498e-004, -1.6107246231835397e-006,
             -3.2608709374438405e-005, -2.5606936608753647e-005 ]
