%YAML:1.0
opencv_ml_svm:
   format: 3
   svmType: C_SVC
   kernel:
      type: POLY
      degree: 3.4300000000000002e+000
      gamma: 1.5000000000000001e-004
      coef0: 1.0000000000000001e-001
   C: 1.2500000000000000e+001
   term_criteria: { epsilon:1.1920928955078125e-007, iterations:1000 }
   var_count: 48
   class_count: 7
   class_labels: !!opencv-matrix
      rows: 7
      cols: 1
      dt: i
      data: [ 0, 1, 2, 3, 4, 5, 6 ]
   sv_total: 208
   support_vectors:
      - [ 5.46944976e-001, 5.43799996e-001, 4.95974004e-001,
          4.40600008e-001, 3.88597012e-001, 3.92711014e-001,
          4.46069986e-001, 5.05034029e-001, 5.54301023e-001,
          5.68395972e-001, 0., 1.19958997e-001, 9.74619016e-002,
          9.67457965e-002, 1.01020999e-001, 1.31979004e-001,
          4.25918013e-001, 4.04500991e-001, 3.66048008e-001,
          2.99214005e-001, 3.32349002e-001, 3.71383011e-001,
          3.06921989e-001, 3.73227000e-001, 4.12694007e-001,
          4.39476013e-001, 3.83578002e-001, 3.40240002e-001,
          2.93150991e-001, 2.35745996e-001, 2.03876004e-001,
          2.09912002e-001, 2.04207003e-001, 2.45795995e-001,
          3.21729004e-001, 3.08564007e-001, 3.00761998e-001,
          2.98013002e-001, 2.95228988e-001, 2.93938994e-001,
          2.73743004e-001, 2.29359999e-001, 2.39203006e-001,
          2.37689003e-001, 2.99769998e-001, 2.33627006e-001,
          2.35274002e-001, 2.28723004e-001 ]
      - [ 5.76470017e-001, 5.72053015e-001, 5.38469970e-001,
          4.71583992e-001, 3.79045010e-001, 3.12287003e-001,
          3.54328990e-001, 3.76563013e-001, 3.69612008e-001,
          3.42956007e-001, 0., 1.32360995e-001, 1.13190003e-001,
          1.13848999e-001, 1.06376998e-001, 1.15226001e-001,
          4.06432986e-001, 3.75568986e-001, 3.28635991e-001,
          2.60603994e-001, 2.84738004e-001, 3.31726015e-001,
          1.47312999e-001, 1.90749004e-001, 2.11510003e-001,
          2.16591001e-001, 1.71884000e-001, 1.44539997e-001,
          2.86294997e-001, 2.31170997e-001, 1.96263999e-001,
          2.10843995e-001, 2.01533005e-001, 2.40386993e-001,
          2.92355001e-001, 3.15708011e-001, 3.26606005e-001,
          3.27784002e-001, 3.13488007e-001, 2.93837011e-001,
          2.77832001e-001, 2.54846007e-001, 2.66959995e-001,
          2.67832011e-001, 2.77361006e-001, 2.42192000e-001,
          2.41977006e-001, 2.37579003e-001 ]
      - [ 5.23470998e-001, 5.02937973e-001, 4.42995012e-001,
          3.72096002e-001, 3.16314995e-001, 3.17115992e-001,
          3.78796995e-001, 4.45630997e-001, 4.98392999e-001,
          5.17005980e-001, 0., 1.42974004e-001, 1.19900003e-001,
          1.19883001e-001, 1.24251999e-001, 1.46560997e-001,
          3.79074007e-001, 3.53985012e-001, 3.09114993e-001,
          2.39387006e-001, 2.61175007e-001, 3.12994987e-001,
          2.37375006e-001, 3.12031001e-001, 3.53859007e-001,
          3.80149007e-001, 3.17905009e-001, 2.64620006e-001,
          3.48113000e-001, 2.83205003e-001, 2.47908995e-001,
          2.60394990e-001, 2.48734996e-001, 2.91595012e-001,
          3.55123997e-001, 3.61829013e-001, 3.62690002e-001,
          3.64686012e-001, 3.60987991e-001, 3.57497990e-001,
          3.36116999e-001, 2.94281006e-001, 3.02098006e-001,
          2.94977009e-001, 3.38301986e-001, 2.95753986e-001,
          2.96891004e-001, 2.88493007e-001 ]
      - [ 4.59244013e-001, 4.58368987e-001, 4.13468987e-001,
          3.60267013e-001, 3.08898002e-001, 3.01631004e-001,
          3.50665003e-001, 3.94012004e-001, 4.27607000e-001,
          4.28995997e-001, 0., 1.35885999e-001, 1.30441993e-001,
          1.29567996e-001, 1.29567996e-001, 1.40933007e-001,
          3.18686008e-001, 2.87972987e-001, 2.42953002e-001,
          1.77710995e-001, 2.06876993e-001, 2.58736014e-001,
          1.61458999e-001, 2.21239001e-001, 2.55026996e-001,
          2.77956009e-001, 2.28529006e-001, 1.85490996e-001,
          3.70689988e-001, 2.92488009e-001, 2.52674013e-001,
          2.64210999e-001, 2.50331014e-001, 3.06668013e-001,
          3.85262996e-001, 4.09895986e-001, 4.19187993e-001,
          4.15684998e-001, 4.09276009e-001, 3.93772006e-001,
          3.59674007e-001, 3.21770012e-001, 3.28361988e-001,
          3.26012999e-001, 3.75052989e-001, 3.31835002e-001,
          3.27812999e-001, 3.27459991e-001 ]
      - [ 5.92150986e-001, 6.04095995e-001, 5.68168998e-001,
          5.17527997e-001, 4.61564004e-001, 4.36569989e-001,
          4.96315986e-001, 5.37656009e-001, 5.51630974e-001,
          5.43097019e-001, 0., 9.17873979e-002, 7.12478980e-002,
          7.75275007e-002, 7.86473006e-002, 1.04791000e-001,
          4.62428004e-001, 4.55617011e-001, 4.24248993e-001,
          3.58985007e-001, 3.70595992e-001, 4.03564006e-001,
          3.38393986e-001, 3.93678010e-001, 4.17093009e-001,
          4.09278989e-001, 3.61786991e-001, 3.39491993e-001,
          2.21122995e-001, 1.86423004e-001, 1.68055996e-001,
          1.85014993e-001, 1.78562999e-001, 2.19411999e-001,
          2.57351011e-001, 2.59927988e-001, 2.72361010e-001,
          2.71522999e-001, 2.61135012e-001, 2.35541999e-001,
          2.09916994e-001, 2.13835999e-001, 2.32582003e-001,
          2.30970994e-001, 2.47740000e-001, 1.89348996e-001,
          1.87459007e-001, 1.79636002e-001 ]
      - [ 5.00818014e-001, 4.91878986e-001, 4.39821005e-001,
          3.76358002e-001, 3.14152986e-001, 3.17117006e-001,
          3.79029989e-001, 4.53092992e-001, 5.03973007e-001,
          5.13258994e-001, 0., 1.22363001e-001, 9.72092003e-002,
          8.60646963e-002, 9.44757983e-002, 1.18110001e-001,
          3.69360000e-001, 3.36836994e-001, 3.02040994e-001,
          2.50939995e-001, 2.77940989e-001, 3.12467009e-001,
          2.56058007e-001, 3.10954005e-001, 3.47231001e-001,
          3.77245992e-001, 3.20039988e-001, 2.80265987e-001,
          3.10568988e-001, 2.34300002e-001, 1.93201005e-001,
          2.00541005e-001, 1.92230001e-001, 2.30217993e-001,
          3.00678998e-001, 3.33128989e-001, 3.51152003e-001,
          3.55170012e-001, 3.52286994e-001, 3.41435999e-001,
          2.93754011e-001, 2.56009012e-001, 2.57806987e-001,
          2.54444987e-001, 2.89476007e-001, 2.65796989e-001,
          2.74987996e-001, 2.72163987e-001 ]
      - [ 4.56238985e-001, 4.50280994e-001, 4.02985990e-001,
          3.50544006e-001, 2.92943001e-001, 2.84292012e-001,
          3.56830001e-001, 4.19730991e-001, 4.73022014e-001,
          5.01972020e-001, 0., 1.09858997e-001, 9.98729020e-002,
          9.86983031e-002, 9.91341993e-002, 1.17312998e-001,
          3.41026992e-001, 3.21729988e-001, 2.85777003e-001,
          2.28820994e-001, 2.48538002e-001, 2.85355985e-001,
          2.52876014e-001, 3.12368989e-001, 3.47754985e-001,
          3.78632993e-001, 3.25576991e-001, 2.77740002e-001,
          3.13041985e-001, 2.52730012e-001, 2.11965993e-001,
          2.20366001e-001, 2.19722003e-001, 2.57117987e-001,
          3.19873989e-001, 3.43125999e-001, 3.51087987e-001,
          3.47847015e-001, 3.50410014e-001, 3.39850008e-001,
          3.00040990e-001, 2.57759988e-001, 2.60939002e-001,
          2.59490013e-001, 3.02623004e-001, 2.75745004e-001,
          2.78328001e-001, 2.75745004e-001 ]
      - [ 5.17736971e-001, 5.18036008e-001, 4.75041986e-001,
          4.32904989e-001, 3.75220001e-001, 3.68414998e-001,
          4.12721992e-001, 4.59859014e-001, 4.92419988e-001,
          5.05311012e-001, 0., 9.36947986e-002, 7.46966004e-002,
          7.14434013e-002, 7.23956972e-002, 9.42654982e-002,
          3.70254993e-001, 3.51222008e-001, 3.25067014e-001,
          2.70031989e-001, 2.86024004e-001, 3.20874006e-001,
          2.66627014e-001, 3.16902012e-001, 3.44457000e-001,
          3.60567987e-001, 3.15111011e-001, 2.78836012e-001,
          2.47606993e-001, 1.91085994e-001, 1.45857006e-001,
          1.48539007e-001, 1.44301996e-001, 1.90851003e-001,
          2.57903993e-001, 2.52756000e-001, 2.44250000e-001,
          2.43950993e-001, 2.50252992e-001, 2.57160991e-001,
          2.36989006e-001, 1.80010006e-001, 1.78439006e-001,
          1.78393006e-001, 2.37727001e-001, 1.85508996e-001,
          1.84731007e-001, 1.85238004e-001 ]
      - [ 5.40373027e-001, 5.44448972e-001, 5.02789021e-001,
          4.34354991e-001, 3.66822988e-001, 3.61640990e-001,
          4.18094993e-001, 4.73390013e-001, 5.07920027e-001,
          5.09404004e-001, 0., 1.11919999e-001, 8.64958018e-002,
          8.92407969e-002, 9.06948969e-002, 1.16740003e-001,
          3.83951008e-001, 3.66245985e-001, 3.37062001e-001,
          2.84170985e-001, 3.01869005e-001, 3.34800005e-001,
          2.76861995e-001, 3.26296002e-001, 3.60597998e-001,
          3.81007999e-001, 3.30617994e-001, 2.95053005e-001,
          2.85373986e-001, 2.28723004e-001, 1.96310997e-001,
          2.10033998e-001, 2.03189999e-001, 2.42220998e-001,
          2.90962011e-001, 3.04473013e-001, 3.11558992e-001,
          3.10057014e-001, 3.10880005e-001, 3.02540004e-001,
          2.73710012e-001, 2.47253999e-001, 2.52020001e-001,
          2.49733999e-001, 2.80660003e-001, 2.38634005e-001,
          2.41668001e-001, 2.38141000e-001 ]
      - [ 4.90915000e-001, 4.82358992e-001, 4.44844007e-001,
          3.87560010e-001, 3.27015996e-001, 3.12541991e-001,
          3.76271993e-001, 4.23458993e-001, 4.62053001e-001,
          4.65999007e-001, 0., 1.49706006e-001, 1.36778995e-001,
          1.33111998e-001, 1.33451998e-001, 1.43575996e-001,
          3.55480999e-001, 3.29355985e-001, 2.90136993e-001,
          2.23392993e-001, 2.46028006e-001, 2.89465010e-001,
          2.07846001e-001, 2.76612014e-001, 3.14530998e-001,
          3.32405001e-001, 2.73826987e-001, 2.31196001e-001,
          3.48076999e-001, 2.64757007e-001, 2.13146999e-001,
          2.19980001e-001, 2.12148994e-001, 2.62816995e-001,
          3.38474989e-001, 3.62756997e-001, 3.67372990e-001,
          3.70397985e-001, 3.67372990e-001, 3.68301004e-001,
          3.34019989e-001, 2.75703013e-001, 2.77797997e-001,
          2.74931997e-001, 3.24533999e-001, 2.98566997e-001,
          3.00947994e-001, 2.98566997e-001 ]
      - [ 4.94746000e-001, 4.97646004e-001, 4.47876006e-001,
          3.78405988e-001, 3.17286015e-001, 3.16731989e-001,
          3.87032986e-001, 4.56070989e-001, 5.09256005e-001,
          5.26166022e-001, 0., 1.17903002e-001, 1.09987997e-001,
          1.12076998e-001, 1.13229997e-001, 1.29776001e-001,
          3.72034997e-001, 3.55946004e-001, 3.14496994e-001,
          2.39969999e-001, 2.59950012e-001, 3.09745014e-001,
          2.51877010e-001, 3.34134012e-001, 3.76448989e-001,
          4.00395006e-001, 3.34500998e-001, 2.80876011e-001,
          3.25414002e-001, 2.82014996e-001, 2.53955007e-001,
          2.68985987e-001, 2.59052008e-001, 2.93415010e-001,
          3.48641008e-001, 3.56923997e-001, 3.60684991e-001,
          3.58673006e-001, 3.57241988e-001, 3.47099990e-001,
          3.13520998e-001, 2.93904990e-001, 3.00397992e-001,
          2.98925996e-001, 3.33225995e-001, 3.07244986e-001,
          3.09363008e-001, 3.07803988e-001 ]
      - [ 5.01568019e-001, 4.93898988e-001, 4.46235001e-001,
          3.85571003e-001, 3.21945012e-001, 3.17898005e-001,
          3.82602990e-001, 4.39604014e-001, 4.78511006e-001,
          4.83776003e-001, 0., 1.30171999e-001, 1.21712998e-001,
          1.17262997e-001, 1.15947999e-001, 1.25228003e-001,
          3.60459000e-001, 3.34710985e-001, 2.90412009e-001,
          2.20896006e-001, 2.48317003e-001, 2.99977988e-001,
          2.04395995e-001, 2.75862992e-001, 3.15512985e-001,
          3.29468012e-001, 2.79166013e-001, 2.28744999e-001,
          3.49294990e-001, 2.74931014e-001, 2.29751006e-001,
          2.39595994e-001, 2.34525993e-001, 2.82240987e-001,
          3.54212999e-001, 3.45333993e-001, 3.45840007e-001,
          3.46718997e-001, 3.41073990e-001, 3.44595999e-001,
          3.32729995e-001, 2.79496998e-001, 2.80483991e-001,
          2.80178010e-001, 3.41800988e-001, 2.79940009e-001,
          2.80483991e-001, 2.80346006e-001 ]
      - [ 5.76252997e-001, 5.89200020e-001, 5.40579975e-001,
          4.79413986e-001, 4.14829999e-001, 3.68945986e-001,
          4.12265986e-001, 4.60115999e-001, 4.80839998e-001,
          4.79905993e-001, 0., 9.77111980e-002, 8.54993984e-002,
          9.03804004e-002, 8.80206972e-002, 1.03292003e-001,
          4.10708994e-001, 3.86301011e-001, 3.50569993e-001,
          2.94342011e-001, 3.03189009e-001, 3.45156997e-001,
          2.46726006e-001, 2.89584011e-001, 3.11224997e-001,
          3.25100005e-001, 2.72036999e-001, 2.45552003e-001,
          2.37757996e-001, 1.90824002e-001, 1.74844995e-001,
          1.90660000e-001, 1.90228000e-001, 2.23912001e-001,
          2.55982012e-001, 2.89566994e-001, 2.89577007e-001,
          2.80101001e-001, 2.69852012e-001, 2.53255010e-001,
          2.29405001e-001, 2.21781999e-001, 2.32976004e-001,
          2.31718004e-001, 2.46719003e-001, 2.21406996e-001,
          2.16447994e-001, 2.05433995e-001 ]
      - [ 5.22794008e-001, 5.12715995e-001, 4.64570999e-001,
          4.06332999e-001, 3.40364009e-001, 3.33382010e-001,
          3.80414009e-001, 4.32642013e-001, 4.60444987e-001,
          4.45032001e-001, 0., 1.32301003e-001, 1.03900999e-001,
          9.65825990e-002, 9.59493965e-002, 1.10454999e-001,
          3.95953000e-001, 3.79518002e-001, 3.37255001e-001,
          2.68781990e-001, 2.94643998e-001, 3.42126995e-001,
          2.31082007e-001, 2.95978993e-001, 3.30006003e-001,
          3.34383011e-001, 2.88969010e-001, 2.48454005e-001,
          3.28364998e-001, 2.60055006e-001, 2.15143993e-001,
          2.19831005e-001, 2.01841995e-001, 2.37440005e-001,
          2.83892989e-001, 3.19207996e-001, 3.32114995e-001,
          3.35667014e-001, 3.38663995e-001, 3.33290994e-001,
          3.10658008e-001, 2.50689000e-001, 2.52593011e-001,
          2.39710003e-001, 2.73954988e-001, 2.65082985e-001,
          2.77577996e-001, 2.77684987e-001 ]
      - [ 4.81676996e-001, 4.93521988e-001, 4.60770011e-001,
          4.13924992e-001, 3.45351011e-001, 3.28103989e-001,
          3.64363015e-001, 3.90444010e-001, 4.08250004e-001,
          3.91259998e-001, 0., 9.39673036e-002, 7.27221966e-002,
          7.03283027e-002, 7.97320977e-002, 1.03166997e-001,
          3.38488013e-001, 3.16958994e-001, 2.89871007e-001,
          2.42816001e-001, 2.66086012e-001, 2.96682000e-001,
          2.14642003e-001, 2.49216005e-001, 2.63505995e-001,
          2.75438011e-001, 2.46987000e-001, 2.24448994e-001,
          2.22091004e-001, 1.74199000e-001, 1.37656003e-001,
          1.46054998e-001, 1.48034006e-001, 1.96686000e-001,
          2.59649992e-001, 2.85420001e-001, 2.91263998e-001,
          2.86262989e-001, 2.78665006e-001, 2.55833000e-001,
          2.11884007e-001, 1.82877004e-001, 1.83731005e-001,
          1.88896000e-001, 2.47975007e-001, 2.21407995e-001,
          2.15942994e-001, 2.13043004e-001 ]
      - [ 4.84966993e-001, 5.03659010e-001, 4.79708999e-001,
          4.21875000e-001, 3.52030009e-001, 3.30006987e-001,
          3.72352988e-001, 3.99580002e-001, 3.97897989e-001,
          3.55455011e-001, 0., 1.51675999e-001, 1.37814999e-001,
          1.31807998e-001, 1.30473003e-001, 1.39953002e-001,
          3.34484011e-001, 3.11773002e-001, 2.70783991e-001,
          2.04046994e-001, 2.30954006e-001, 2.77574003e-001,
          1.35242000e-001, 1.93623006e-001, 2.18457997e-001,
          2.21701995e-001, 1.77827999e-001, 1.46505997e-001,
          4.02974993e-001, 3.14181000e-001, 2.67542005e-001,
          2.76836991e-001, 2.70110011e-001, 3.14440995e-001,
          3.97576988e-001, 3.66899997e-001, 3.56983989e-001,
          3.59219998e-001, 3.63581002e-001, 3.79359990e-001,
          3.85991007e-001, 3.20223004e-001, 3.20423007e-001,
          3.18334013e-001, 3.72166991e-001, 2.99127996e-001,
          3.01266998e-001, 3.06073010e-001 ]
      - [ 4.86784995e-001, 4.87507999e-001, 4.45241988e-001,
          3.97765011e-001, 3.45946997e-001, 3.62773001e-001,
          4.22722995e-001, 4.80113000e-001, 5.30179024e-001,
          5.42209029e-001, 0., 8.58146027e-002, 7.41600022e-002,
          7.97301009e-002, 9.32174996e-002, 1.21445000e-001,
          3.39859009e-001, 3.23729008e-001, 2.96725005e-001,
          2.60832995e-001, 2.67903000e-001, 2.97533989e-001,
          2.89626002e-001, 3.32271993e-001, 3.64921987e-001,
          3.89964998e-001, 3.43230009e-001, 3.04789990e-001,
          2.73970991e-001, 2.08626002e-001, 1.75200999e-001,
          1.86660007e-001, 1.84844002e-001, 2.26593003e-001,
          3.08578998e-001, 3.03346008e-001, 2.93031991e-001,
          2.89135009e-001, 2.86514014e-001, 2.83006012e-001,
          2.60159999e-001, 2.21239001e-001, 2.28573993e-001,
          2.25364000e-001, 2.90647000e-001, 2.24372000e-001,
          2.23915994e-001, 2.16624007e-001 ]
      - [ 5.00102997e-001, 4.94078010e-001, 4.50002998e-001,
          3.85553002e-001, 3.17449003e-001, 3.23740989e-001,
          4.00130987e-001, 4.75044012e-001, 5.33518016e-001,
          5.56294024e-001, 0., 1.18584000e-001, 9.48795006e-002,
          9.91809964e-002, 1.17051996e-001, 1.52729005e-001,
          3.86667013e-001, 3.58249009e-001, 3.12393010e-001,
          2.47020006e-001, 2.82494009e-001, 3.32572997e-001,
          2.76073009e-001, 3.45239997e-001, 3.98113996e-001,
          4.37067986e-001, 3.70283008e-001, 3.15865993e-001,
          3.02455008e-001, 2.26030007e-001, 1.80717006e-001,
          1.97228998e-001, 1.92081004e-001, 2.53275007e-001,
          3.34825993e-001, 3.26940000e-001, 3.15946013e-001,
          3.12896997e-001, 3.05204988e-001, 3.06582987e-001,
          2.80658990e-001, 2.38172993e-001, 2.46536002e-001,
          2.46906996e-001, 3.11520994e-001, 2.45587006e-001,
          2.46126994e-001, 2.38784000e-001 ]
      - [ 5.04077017e-001, 4.99244988e-001, 4.59201008e-001,
          3.97854000e-001, 3.43685001e-001, 3.47972006e-001,
          3.96120012e-001, 4.50805008e-001, 4.93124008e-001,
          4.97184992e-001, 0., 1.07804000e-001, 7.99520016e-002,
          7.43542016e-002, 7.99518973e-002, 1.05819002e-001,
          3.92789006e-001, 3.74294013e-001, 3.41109008e-001,
          2.86339998e-001, 3.05613995e-001, 3.42815995e-001,
          2.82467991e-001, 3.36450011e-001, 3.68662000e-001,
          3.86694014e-001, 3.36656988e-001, 3.00404996e-001,
          2.64039010e-001, 2.04612002e-001, 1.64357007e-001,
          1.70791999e-001, 1.64584994e-001, 2.02698007e-001,
          2.62755990e-001, 2.67758012e-001, 2.64133990e-001,
          2.62566000e-001, 2.63123989e-001, 2.68070996e-001,
          2.43946999e-001, 1.98131993e-001, 2.01376006e-001,
          1.99091002e-001, 2.45600998e-001, 1.99091002e-001,
          2.01376006e-001, 1.98131993e-001 ]
      - [ 6.45801008e-001, 6.58281028e-001, 6.13925993e-001,
          5.41099012e-001, 4.35505986e-001, 3.94713014e-001,
          4.29587990e-001, 4.44317013e-001, 4.40519005e-001,
          4.11657006e-001, 0., 1.42124996e-001, 1.27471998e-001,
          1.29750997e-001, 1.34408996e-001, 1.47808000e-001,
          4.56086010e-001, 4.43733007e-001, 3.91386986e-001,
          2.97064006e-001, 3.20737988e-001, 3.78181994e-001,
          1.94763005e-001, 2.57784009e-001, 2.78118014e-001,
          2.70137995e-001, 2.22968996e-001, 1.89825997e-001,
          3.18823993e-001, 2.68233001e-001, 2.40456000e-001,
          2.67356008e-001, 2.71077991e-001, 3.17234010e-001,
          3.67256999e-001, 3.83316010e-001, 3.73946011e-001,
          3.67442995e-001, 3.46619993e-001, 3.32325995e-001,
          3.21920991e-001, 3.00128996e-001, 3.12298000e-001,
          3.26808989e-001, 3.54865998e-001, 2.91431010e-001,
          2.78944999e-001, 2.73979008e-001 ]
      - [ 4.86153990e-001, 4.85909998e-001, 4.43659008e-001,
          3.83338988e-001, 3.23201001e-001, 3.21568012e-001,
          3.75672996e-001, 4.37444985e-001, 4.79665011e-001,
          4.88660008e-001, 0., 1.24626003e-001, 1.03784002e-001,
          1.06941000e-001, 1.07766002e-001, 1.24626003e-001,
          3.54131997e-001, 3.33568007e-001, 2.99024999e-001,
          2.35825002e-001, 2.56599009e-001, 2.99376994e-001,
          2.43936002e-001, 3.10411990e-001, 3.43623996e-001,
          3.62960011e-001, 3.08472991e-001, 2.66330004e-001,
          3.02796006e-001, 2.44782999e-001, 2.13385999e-001,
          2.23181993e-001, 2.14248002e-001, 2.48341992e-001,
          3.00345987e-001, 3.11226994e-001, 3.16249013e-001,
          3.20850998e-001, 3.18937987e-001, 3.14101994e-001,
          2.90757000e-001, 2.45382994e-001, 2.51080006e-001,
          2.46950999e-001, 2.87198991e-001, 2.51504987e-001,
          2.55764008e-001, 2.53895015e-001 ]
      - [ 4.82724994e-001, 5.06043017e-001, 4.77353990e-001,
          4.21990007e-001, 3.61640006e-001, 3.71232003e-001,
          4.30923998e-001, 4.84331012e-001, 5.23334980e-001,
          5.24990976e-001, 0., 1.02385998e-001, 9.28606987e-002,
          9.61953029e-002, 1.02320999e-001, 1.22863002e-001,
          3.43814999e-001, 3.32765996e-001, 3.08225989e-001,
          2.60785997e-001, 2.82355011e-001, 3.08957011e-001,
          2.89243996e-001, 3.37060004e-001, 3.69253993e-001,
          3.95498008e-001, 3.49352986e-001, 3.14745009e-001,
          2.72132009e-001, 2.30970994e-001, 2.12819993e-001,
          2.21507996e-001, 2.15560004e-001, 2.42586002e-001,
          3.04167002e-001, 2.97778994e-001, 2.93877989e-001,
          2.92620987e-001, 2.88273007e-001, 2.79235005e-001,
          2.59938002e-001, 2.41601005e-001, 2.46575996e-001,
          2.48660997e-001, 2.86011010e-001, 2.48165995e-001,
          2.46575996e-001, 2.42311999e-001 ]
      - [ 4.93061006e-001, 5.00724018e-001, 4.58920002e-001,
          3.95366997e-001, 3.38423997e-001, 3.59573007e-001,
          4.28438008e-001, 4.90072995e-001, 5.39821982e-001,
          5.48783004e-001, 0., 9.16320011e-002, 7.74578005e-002,
          8.22561979e-002, 9.06279013e-002, 1.19773000e-001,
          3.63058001e-001, 3.62774014e-001, 3.34737986e-001,
          2.69782007e-001, 2.85284013e-001, 3.12649012e-001,
          2.96489000e-001, 3.61923993e-001, 4.00016993e-001,
          4.15035009e-001, 3.62527013e-001, 3.19233000e-001,
          2.57055998e-001, 2.05194995e-001, 1.73979998e-001,
          1.85973004e-001, 1.83441997e-001, 2.33131006e-001,
          3.06167006e-001, 2.90915012e-001, 2.80524999e-001,
          2.76813000e-001, 2.68225998e-001, 2.61965990e-001,
          2.41833001e-001, 2.07784995e-001, 2.20660001e-001,
          2.21438006e-001, 2.87660986e-001, 2.17332006e-001,
          2.12075993e-001, 2.03495994e-001 ]
      - [ 5.09875000e-001, 5.21300018e-001, 4.90805000e-001,
          4.39567000e-001, 3.84709001e-001, 3.84032011e-001,
          4.41031009e-001, 4.86750007e-001, 5.23262978e-001,
          5.30789018e-001, 0., 9.86071005e-002, 8.37849006e-002,
          8.71634036e-002, 8.67893994e-002, 1.04750000e-001,
          3.81821990e-001, 3.79002005e-001, 3.49292994e-001,
          2.85530001e-001, 2.97742993e-001, 3.31378996e-001,
          2.92885989e-001, 3.57143015e-001, 3.89863014e-001,
          4.00204986e-001, 3.46403003e-001, 3.08299989e-001,
          2.64257014e-001, 2.07835004e-001, 1.72966003e-001,
          1.82871997e-001, 1.77187994e-001, 2.08066002e-001,
          2.73429006e-001, 2.57441998e-001, 2.46382996e-001,
          2.47173995e-001, 2.48292997e-001, 2.56909996e-001,
          2.49443993e-001, 2.04315007e-001, 2.10252002e-001,
          2.04601005e-001, 2.56778002e-001, 2.05788001e-001,
          2.05891997e-001, 1.99109003e-001 ]
      - [ 4.90141004e-001, 4.94830012e-001, 4.51792985e-001,
          3.93711001e-001, 3.31818014e-001, 3.29434991e-001,
          3.99235010e-001, 4.53303993e-001, 4.91881013e-001,
          4.73192990e-001, 0., 1.18886001e-001, 9.20938030e-002,
          9.01694968e-002, 9.06419009e-002, 1.13357000e-001,
          3.53783011e-001, 3.21518004e-001, 2.88827002e-001,
          2.41185993e-001, 2.68723011e-001, 3.03151011e-001,
          2.38956004e-001, 2.88827002e-001, 3.18322986e-001,
          3.43995988e-001, 3.03151011e-001, 2.65343994e-001,
          2.89640993e-001, 2.18946993e-001, 1.83428004e-001,
          1.89335003e-001, 1.84448004e-001, 2.24689007e-001,
          2.90450007e-001, 2.74417013e-001, 2.64180005e-001,
          2.61326998e-001, 2.63006002e-001, 2.71122992e-001,
          2.69324988e-001, 2.13800997e-001, 2.16327995e-001,
          2.15338007e-001, 2.71183014e-001, 2.15338007e-001,
          2.16327995e-001, 2.13800997e-001 ]
      - [ 5.23204982e-001, 5.33930004e-001, 4.89084989e-001,
          4.26411986e-001, 3.57084006e-001, 3.55246991e-001,
          4.21306014e-001, 4.82014000e-001, 5.18616021e-001,
          5.06336987e-001, 0., 1.16042003e-001, 1.03753999e-001,
          9.89243016e-002, 1.03837997e-001, 1.15601003e-001,
          3.79882991e-001, 3.56476992e-001, 3.16459000e-001,
          2.59236008e-001, 2.87104011e-001, 3.27632010e-001,
          2.55046993e-001, 3.11311007e-001, 3.46982986e-001,
          3.70638996e-001, 3.20989013e-001, 2.77815998e-001,
          3.03900987e-001, 2.51695007e-001, 2.20875993e-001,
          2.30763003e-001, 2.23305002e-001, 2.51120001e-001,
          3.03187996e-001, 3.18221003e-001, 3.26166004e-001,
          3.24835986e-001, 3.28954995e-001, 3.24950010e-001,
          2.86195010e-001, 2.58666009e-001, 2.58980989e-001,
          2.55973995e-001, 2.90354997e-001, 2.65320987e-001,
          2.68388003e-001, 2.63289988e-001 ]
      - [ 5.41128993e-001, 5.31454980e-001, 4.88364995e-001,
          4.21218008e-001, 3.62010002e-001, 3.61027986e-001,
          4.10661012e-001, 4.56725001e-001, 4.73201990e-001,
          4.60101008e-001, 0., 1.33794993e-001, 1.05622999e-001,
          9.90267992e-002, 9.01814997e-002, 1.08111002e-001,
          4.15726990e-001, 3.81523997e-001, 3.36887985e-001,
          2.70671993e-001, 2.95179009e-001, 3.46177995e-001,
          2.32871994e-001, 2.98173994e-001, 3.27172011e-001,
          3.34452987e-001, 2.83973992e-001, 2.44442001e-001,
          3.02381009e-001, 2.36598998e-001, 1.92415997e-001,
          1.96894005e-001, 1.87289000e-001, 2.13816002e-001,
          2.62612998e-001, 2.81475991e-001, 2.94914007e-001,
          3.00339013e-001, 3.05781007e-001, 3.12325001e-001,
          2.89555013e-001, 2.30449006e-001, 2.29421005e-001,
          2.24456996e-001, 2.51700997e-001, 2.29870006e-001,
          2.40271002e-001, 2.41007000e-001 ]
      - [ 4.94684994e-001, 4.95925993e-001, 4.65683997e-001,
          4.14665997e-001, 3.49009007e-001, 3.37386996e-001,
          3.78071994e-001, 4.23749000e-001, 4.50524002e-001,
          4.41745996e-001, 0., 1.47933006e-001, 1.33495003e-001,
          1.33320004e-001, 1.32594004e-001, 1.32455006e-001,
          3.65516007e-001, 3.47788990e-001, 3.05476010e-001,
          2.40618005e-001, 2.67989010e-001, 3.08750004e-001,
          2.25354999e-001, 2.89640993e-001, 3.24685007e-001,
          3.38878006e-001, 2.88839996e-001, 2.44926006e-001,
          3.59986007e-001, 3.03597987e-001, 2.64573008e-001,
          2.86567986e-001, 2.73422003e-001, 3.14242989e-001,
          3.70157003e-001, 3.42759997e-001, 3.28889012e-001,
          3.27730000e-001, 3.26575994e-001, 3.40305001e-001,
          3.48378003e-001, 3.30967009e-001, 3.37729990e-001,
          3.34412009e-001, 3.61097991e-001, 2.52570987e-001,
          2.50869989e-001, 2.50245988e-001 ]
      - [ 6.04673982e-001, 6.38849020e-001, 6.20005012e-001,
          5.83703995e-001, 5.30839026e-001, 5.11274993e-001,
          5.50912976e-001, 5.78698993e-001, 5.86775005e-001,
          5.53876996e-001, 0., 1.10007003e-001, 9.95547026e-002,
          9.72850993e-002, 9.31862965e-002, 9.75542963e-002,
          4.49939013e-001, 4.68075991e-001, 4.31048989e-001,
          3.45636010e-001, 3.46863002e-001, 3.90911996e-001,
          3.28011006e-001, 4.06129003e-001, 4.28512007e-001,
          4.10136998e-001, 3.53603989e-001, 3.20336014e-001,
          3.03925008e-001, 2.69374996e-001, 2.46454999e-001,
          2.64380991e-001, 2.52451003e-001, 2.87555993e-001,
          3.14942002e-001, 2.22238004e-001, 1.95345998e-001,
          1.94470003e-001, 1.93675995e-001, 2.24926993e-001,
          2.88890004e-001, 3.06764990e-001, 3.14942002e-001,
          3.13100010e-001, 3.03030014e-001, 1.29479006e-001,
          1.29613996e-001, 1.30151004e-001 ]
      - [ 5.48686028e-001, 5.53919017e-001, 5.14796972e-001,
          4.51810986e-001, 3.91180992e-001, 3.90735000e-001,
          4.47396010e-001, 5.06394982e-001, 5.41145027e-001,
          5.37213027e-001, 0., 1.39519006e-001, 1.07409999e-001,
          1.04887001e-001, 1.00786999e-001, 1.26806006e-001,
          4.05483991e-001, 3.94331008e-001, 3.57950002e-001,
          2.75696009e-001, 2.93637991e-001, 3.37727010e-001,
          2.74924994e-001, 3.51875007e-001, 3.86186987e-001,
          4.02541995e-001, 3.42792988e-001, 2.96635985e-001,
          3.35720986e-001, 2.48530000e-001, 1.92609996e-001,
          2.01349005e-001, 1.84781000e-001, 2.35402003e-001,
          3.14738005e-001, 3.30220014e-001, 3.40570986e-001,
          3.45923990e-001, 3.48008990e-001, 3.43773007e-001,
          3.16679001e-001, 2.60675997e-001, 2.58129001e-001,
          2.54099011e-001, 3.00812006e-001, 2.49439001e-001,
          2.58439004e-001, 2.61548012e-001 ]
      - [ 5.43902993e-001, 5.59213996e-001, 5.26215017e-001,
          4.66531992e-001, 3.98003012e-001, 3.84043992e-001,
          4.42357004e-001, 4.91304994e-001, 5.23036003e-001,
          5.04350007e-001, 0., 1.44003004e-001, 1.17060997e-001,
          1.11120000e-001, 1.06703997e-001, 1.17156997e-001,
          4.02345002e-001, 3.86159986e-001, 3.45138013e-001,
          2.67183006e-001, 2.87254006e-001, 3.40119004e-001,
          2.47329995e-001, 3.21615010e-001, 3.56752992e-001,
          3.62446994e-001, 3.07823002e-001, 2.63420999e-001,
          3.24474990e-001, 2.50694007e-001, 2.07007006e-001,
          2.19121993e-001, 2.02949002e-001, 2.39069000e-001,
          2.89790004e-001, 3.12260002e-001, 3.20760995e-001,
          3.25758010e-001, 3.27872992e-001, 3.30875009e-001,
          3.08447003e-001, 2.60248989e-001, 2.64652997e-001,
          2.56058991e-001, 2.82171994e-001, 2.59871006e-001,
          2.64652997e-001, 2.67645001e-001 ]
      - [ 2.96200991e-001, 2.82766014e-001, 2.66781986e-001,
          2.43066996e-001, 2.15859994e-001, 1.99365005e-001,
          2.40043998e-001, 2.71389991e-001, 2.86006987e-001,
          2.84565985e-001, 0., 1.03702001e-001, 9.90646034e-002,
          9.84726995e-002, 1.01406001e-001, 9.80712026e-002,
          1.92809999e-001, 1.84918001e-001, 1.64057001e-001,
          1.35716006e-001, 1.45270005e-001, 1.65404007e-001,
          1.20711997e-001, 1.60418004e-001, 1.77540004e-001,
          1.87555999e-001, 1.54392004e-001, 1.32596001e-001,
          2.51022011e-001, 2.08918005e-001, 1.90489992e-001,
          1.97099999e-001, 1.97317004e-001, 2.17539996e-001,
          2.58280009e-001, 1.99319005e-001, 1.74594998e-001,
          1.70877993e-001, 1.69916004e-001, 1.93893000e-001,
          2.33465001e-001, 2.21432999e-001, 2.28561997e-001,
          2.23905995e-001, 2.37698004e-001, 1.43313006e-001,
          1.43823996e-001, 1.43006995e-001 ]
      - [ 5.13584018e-001, 5.07890999e-001, 4.60929990e-001,
          3.91241997e-001, 3.31377000e-001, 3.28395993e-001,
          3.94084007e-001, 4.62956995e-001, 5.15599012e-001,
          5.25592029e-001, 0., 1.46816999e-001, 1.13403998e-001,
          1.03942998e-001, 1.06596999e-001, 1.31916001e-001,
          3.88646990e-001, 3.62581998e-001, 3.16284001e-001,
          2.44617000e-001, 2.78302014e-001, 3.31247985e-001,
          2.37561002e-001, 3.11186999e-001, 3.59957010e-001,
          3.87621999e-001, 3.26258987e-001, 2.70588011e-001,
          3.59151989e-001, 2.83611000e-001, 2.33114004e-001,
          2.41666004e-001, 2.28652999e-001, 2.75200993e-001,
          3.45867008e-001, 3.39509010e-001, 3.30830991e-001,
          3.30549985e-001, 3.35004985e-001, 3.46338004e-001,
          3.37725997e-001, 2.94615000e-001, 2.93354005e-001,
          2.90621996e-001, 3.28485996e-001, 2.57102996e-001,
          2.60118991e-001, 2.61512011e-001 ]
      - [ 5.05786002e-001, 5.32172024e-001, 5.02009988e-001,
          4.48828012e-001, 3.77431989e-001, 3.73604000e-001,
          4.37599003e-001, 4.90060985e-001, 5.06228983e-001,
          4.82170999e-001, 0., 1.46723002e-001, 1.33965999e-001,
          1.30707994e-001, 1.30809993e-001, 1.37850001e-001,
          3.69217992e-001, 3.45849991e-001, 3.02884996e-001,
          2.32580006e-001, 2.56765008e-001, 3.10023010e-001,
          2.16912001e-001, 2.83217013e-001, 3.25028986e-001,
          3.48008007e-001, 2.88641006e-001, 2.38512993e-001,
          4.28310007e-001, 3.34452987e-001, 2.81316996e-001,
          2.95866013e-001, 2.85286009e-001, 3.45158994e-001,
          4.38207000e-001, 4.12891001e-001, 3.94356996e-001,
          3.94560009e-001, 3.95516992e-001, 4.07707006e-001,
          4.06957000e-001, 3.52248996e-001, 3.55040014e-001,
          3.55524987e-001, 4.15239006e-001, 3.27771008e-001,
          3.27526987e-001, 3.29032004e-001 ]
      - [ 5.24672985e-001, 5.26677012e-001, 4.90974009e-001,
          4.28063989e-001, 3.56635988e-001, 3.50374997e-001,
          4.15335000e-001, 4.73931998e-001, 5.11868000e-001,
          5.11282027e-001, 0., 1.29454002e-001, 1.12543002e-001,
          1.17413998e-001, 1.12543002e-001, 1.29912004e-001,
          3.90408993e-001, 3.75288993e-001, 3.31184000e-001,
          2.52400011e-001, 2.87012011e-001, 3.37797999e-001,
          2.49175996e-001, 3.23231012e-001, 3.63514006e-001,
          3.74421000e-001, 3.22542012e-001, 2.78717995e-001,
          3.31999987e-001, 2.51621991e-001, 2.01253995e-001,
          2.07779005e-001, 2.03747004e-001, 2.52400011e-001,
          3.38303000e-001, 3.19505006e-001, 3.10671002e-001,
          3.07208985e-001, 3.07152003e-001, 3.11879009e-001,
          3.09735000e-001, 2.53941000e-001, 2.48414993e-001,
          2.52656996e-001, 3.21350992e-001, 2.52656996e-001,
          2.48531997e-001, 2.48629004e-001 ]
      - [ 5.69517016e-001, 5.69500983e-001, 5.30580997e-001,
          4.68661010e-001, 3.99605989e-001, 3.90776992e-001,
          4.53253001e-001, 5.07119000e-001, 5.39202988e-001,
          5.32765985e-001, 0., 1.18444003e-001, 9.86315012e-002,
          9.58473012e-002, 9.28291008e-002, 1.12010002e-001,
          4.13194001e-001, 3.97273988e-001, 3.56034011e-001,
          2.80618012e-001, 3.06571990e-001, 3.54427010e-001,
          2.70855993e-001, 3.38936001e-001, 3.77564996e-001,
          3.84566009e-001, 3.35705012e-001, 2.90610999e-001,
          2.96624988e-001, 2.30131999e-001, 1.86847001e-001,
          1.96096003e-001, 1.84505999e-001, 2.30286002e-001,
          2.90610999e-001, 2.96990007e-001, 3.05534005e-001,
          3.05085003e-001, 3.02980989e-001, 2.97955990e-001,
          2.85625994e-001, 2.42583007e-001, 2.48366997e-001,
          2.44865000e-001, 2.81980991e-001, 2.44865000e-001,
          2.48366997e-001, 2.46887997e-001 ]
      - [ 5.92764974e-001, 5.87813020e-001, 5.39587975e-001,
          4.62853998e-001, 3.87930989e-001, 3.76639992e-001,
          4.38614011e-001, 4.99716997e-001, 5.32944977e-001,
          5.11677027e-001, 0., 1.36544004e-001, 1.08190998e-001,
          1.00997001e-001, 9.33293030e-002, 1.09978996e-001,
          4.49382007e-001, 4.32494998e-001, 3.82441998e-001,
          2.95632005e-001, 3.28918010e-001, 3.86812985e-001,
          2.66292006e-001, 3.50091010e-001, 3.87008011e-001,
          3.89845014e-001, 3.38301003e-001, 2.89635003e-001,
          3.19831014e-001, 2.59005010e-001, 2.12917998e-001,
          2.19153002e-001, 2.07788005e-001, 2.33827993e-001,
          2.63911992e-001, 2.92414010e-001, 3.08169991e-001,
          3.15304995e-001, 3.16294014e-001, 3.13331991e-001,
          3.03048998e-001, 2.52126992e-001, 2.54355013e-001,
          2.46829003e-001, 2.62023985e-001, 2.47374997e-001,
          2.54355013e-001, 2.56381989e-001 ]
      - [ 4.98614997e-001, 4.90092009e-001, 4.50064003e-001,
          3.94612998e-001, 3.34564000e-001, 3.31685990e-001,
          3.91173005e-001, 4.43008989e-001, 4.78121996e-001,
          4.78753000e-001, 0., 1.31614998e-001, 1.15282997e-001,
          1.18421003e-001, 1.19300999e-001, 1.28597006e-001,
          3.75315994e-001, 3.58168989e-001, 3.13816011e-001,
          2.34569997e-001, 2.66317993e-001, 3.18300009e-001,
          2.24428996e-001, 2.98112988e-001, 3.43463004e-001,
          3.55392009e-001, 2.98628002e-001, 2.48418003e-001,
          3.32884014e-001, 2.48085007e-001, 1.99680001e-001,
          2.06139997e-001, 1.98624998e-001, 2.43928000e-001,
          3.22405010e-001, 3.15701008e-001, 3.10595989e-001,
          3.11432987e-001, 3.16320002e-001, 3.24633986e-001,
          3.14925998e-001, 2.42330000e-001, 2.45614007e-001,
          2.46619001e-001, 3.01800996e-001, 2.63006985e-001,
          2.58807003e-001, 2.64667988e-001 ]
      - [ 5.25840998e-001, 5.22614002e-001, 4.79438007e-001,
          4.10934001e-001, 3.38631004e-001, 3.48315001e-001,
          4.30319995e-001, 4.98492986e-001, 5.42132020e-001,
          5.52326977e-001, 0., 1.44453004e-001, 1.14215001e-001,
          1.10693999e-001, 1.17765002e-001, 1.49485007e-001,
          3.84869993e-001, 3.56137007e-001, 3.01028997e-001,
          2.27176994e-001, 2.66182005e-001, 3.25316995e-001,
          2.39418000e-001, 3.20555985e-001, 3.73120010e-001,
          4.08996999e-001, 3.45984012e-001, 2.86480993e-001,
          3.35170001e-001, 2.56823987e-001, 1.99898005e-001,
          2.09129006e-001, 2.05156997e-001, 2.70343006e-001,
          3.55596006e-001, 3.67774993e-001, 3.69459987e-001,
          3.65090996e-001, 3.61259013e-001, 3.52753997e-001,
          3.21577013e-001, 2.75633007e-001, 2.74809003e-001,
          2.76730001e-001, 3.40072989e-001, 2.80739993e-001,
          2.74809003e-001, 2.71672010e-001 ]
      - [ 5.10315001e-001, 5.15892982e-001, 4.79072005e-001,
          4.19230014e-001, 3.52562994e-001, 3.51639003e-001,
          4.10598010e-001, 4.62370992e-001, 4.98358995e-001,
          4.94753987e-001, 0., 1.21214002e-001, 1.05598003e-001,
          1.06418997e-001, 1.07233003e-001, 1.27811998e-001,
          3.69736999e-001, 3.51574987e-001, 3.10288012e-001,
          2.46850997e-001, 2.74643987e-001, 3.14381003e-001,
          2.46702999e-001, 3.06737006e-001, 3.43304992e-001,
          3.61663997e-001, 3.13921988e-001, 2.69048989e-001,
          3.23940009e-001, 2.60219991e-001, 2.23346993e-001,
          2.36173004e-001, 2.29622006e-001, 2.73593009e-001,
          3.30821007e-001, 3.39991987e-001, 3.46060991e-001,
          3.46852988e-001, 3.42588991e-001, 3.35177004e-001,
          3.09486002e-001, 2.73301989e-001, 2.82144010e-001,
          2.78026998e-001, 3.17974001e-001, 2.78026998e-001,
          2.82144010e-001, 2.73723006e-001 ]
      - [ 5.04712999e-001, 4.91917014e-001, 4.45230007e-001,
          3.83192003e-001, 3.21833998e-001, 3.21833998e-001,
          3.78908992e-001, 4.33618009e-001, 4.78365004e-001,
          4.93737012e-001, 0., 1.42379001e-001, 1.30502000e-001,
          1.34079993e-001, 1.35179996e-001, 1.47055000e-001,
          3.66328001e-001, 3.48095000e-001, 2.99356014e-001,
          2.26529002e-001, 2.57030010e-001, 3.09760988e-001,
          2.26529002e-001, 3.03108007e-001, 3.41585994e-001,
          3.59997988e-001, 3.06077003e-001, 2.57030010e-001,
          3.54894996e-001, 2.85288990e-001, 2.41530001e-001,
          2.53587008e-001, 2.46861994e-001, 2.92454988e-001,
          3.59935999e-001, 3.63409996e-001, 3.59798014e-001,
          3.58601004e-001, 3.60110998e-001, 3.61496001e-001,
          3.42956007e-001, 3.03106993e-001, 3.06084991e-001,
          3.03638011e-001, 3.46047997e-001, 2.98979014e-001,
          3.01312000e-001, 2.98361987e-001 ]
      - [ 5.65177977e-001, 5.71200013e-001, 5.36952972e-001,
          4.83381987e-001, 4.15867001e-001, 4.15867001e-001,
          4.83381987e-001, 5.34748971e-001, 5.73233008e-001,
          5.68325996e-001, 0., 1.16576999e-001, 9.40138027e-002,
          9.52283964e-002, 9.40138027e-002, 1.13038003e-001,
          4.01472002e-001, 3.78174007e-001, 3.39859009e-001,
          2.81892985e-001, 3.01694989e-001, 3.46771002e-001,
          2.81892985e-001, 3.39859009e-001, 3.77478987e-001,
          3.98382008e-001, 3.46722990e-001, 3.04468989e-001,
          2.82806993e-001, 2.19679996e-001, 1.83734000e-001,
          1.85745999e-001, 1.77956000e-001, 2.13336006e-001,
          2.76365995e-001, 2.65432000e-001, 2.63253987e-001,
          2.66640007e-001, 2.67022997e-001, 2.69710988e-001,
          2.62174994e-001, 2.15900004e-001, 2.14264005e-001,
          2.11282000e-001, 2.62174994e-001, 2.11282000e-001,
          2.14264005e-001, 2.11282000e-001 ]
      - [ 5.60168982e-001, 5.48075020e-001, 5.00585020e-001,
          4.42236006e-001, 3.80174994e-001, 3.79141986e-001,
          4.41118985e-001, 4.94812012e-001, 5.37285984e-001,
          5.37895024e-001, 0., 1.29715994e-001, 1.09906003e-001,
          1.07556999e-001, 1.03730999e-001, 1.23026997e-001,
          4.11509991e-001, 3.88603002e-001, 3.44543993e-001,
          2.72807002e-001, 3.01216990e-001, 3.51619989e-001,
          2.71672994e-001, 3.41870010e-001, 3.83094996e-001,
          3.96016985e-001, 3.43638986e-001, 2.92438000e-001,
          3.20926011e-001, 2.55409002e-001, 2.09371999e-001,
          2.15302005e-001, 2.07052007e-001, 2.53152996e-001,
          3.14446002e-001, 3.05041999e-001, 3.08696985e-001,
          3.08674991e-001, 3.09511006e-001, 3.15414995e-001,
          3.10395002e-001, 2.50068992e-001, 2.52566010e-001,
          2.48129994e-001, 3.00289005e-001, 2.43549004e-001,
          2.47889996e-001, 2.45524004e-001 ]
      - [ 5.62835991e-001, 5.66245973e-001, 5.19671023e-001,
          4.63084012e-001, 3.93397003e-001, 3.94138992e-001,
          4.67148006e-001, 5.33055007e-001, 5.83067000e-001,
          5.89061975e-001, 0., 1.09764002e-001, 9.94039029e-002,
          1.07358001e-001, 1.05126001e-001, 1.25153005e-001,
          4.17421997e-001, 4.10387009e-001, 3.61858994e-001,
          2.75296986e-001, 2.91532993e-001, 3.46347988e-001,
          2.91886002e-001, 3.86121988e-001, 4.35474008e-001,
          4.41491008e-001, 3.76565009e-001, 3.17658991e-001,
          2.80726999e-001, 2.30498999e-001, 1.94800004e-001,
          2.05668002e-001, 1.98961005e-001, 2.41216004e-001,
          3.03559005e-001, 3.07094008e-001, 3.04567993e-001,
          2.99609005e-001, 3.01607996e-001, 2.97152996e-001,
          2.74580985e-001, 2.39020005e-001, 2.45988995e-001,
          2.42422998e-001, 2.92625993e-001, 2.38056004e-001,
          2.41521999e-001, 2.35155001e-001 ]
      - [ 4.91584003e-001, 4.92262989e-001, 4.59062010e-001,
          4.18125987e-001, 3.59692991e-001, 3.69334012e-001,
          4.20195997e-001, 4.62594986e-001, 4.95047987e-001,
          5.01166999e-001, 0., 1.28656998e-001, 1.17238998e-001,
          1.14886001e-001, 1.16447002e-001, 1.33895993e-001,
          3.54330003e-001, 3.31205994e-001, 2.87081003e-001,
          2.21286997e-001, 2.46722996e-001, 2.97760010e-001,
          2.36150995e-001, 2.99997002e-001, 3.46047997e-001,
          3.67172986e-001, 3.12209994e-001, 2.62006998e-001,
          3.57396007e-001, 2.80497015e-001, 2.27908999e-001,
          2.38597006e-001, 2.26965994e-001, 2.80362010e-001,
          3.59292001e-001, 3.75461012e-001, 3.72348011e-001,
          3.66903991e-001, 3.67428005e-001, 3.71544003e-001,
          3.41926008e-001, 2.84761995e-001, 2.82896012e-001,
          2.83115000e-001, 3.41324002e-001, 2.97825992e-001,
          2.96355993e-001, 2.92607993e-001 ]
      - [ 3.88305992e-001, 3.94730985e-001, 3.81397009e-001,
          3.60442013e-001, 3.29383999e-001, 3.47458005e-001,
          3.86159986e-001, 4.02013004e-001, 4.02392000e-001,
          3.97772998e-001, 0., 7.52334967e-002, 5.94782010e-002,
          6.00587018e-002, 6.17628992e-002, 8.22267979e-002,
          2.38267004e-001, 2.28925005e-001, 2.06605002e-001,
          1.64995000e-001, 1.77588001e-001, 2.05670998e-001,
          1.73375994e-001, 2.18156993e-001, 2.45469004e-001,
          2.63159990e-001, 2.24351004e-001, 1.93272993e-001,
          1.63931996e-001, 1.18956998e-001, 9.04354006e-002,
          9.85542983e-002, 9.45004970e-002, 1.23525999e-001,
          1.77318007e-001, 1.71578005e-001, 1.70903996e-001,
          1.71281993e-001, 1.69508994e-001, 1.66073993e-001,
          1.48359999e-001, 1.26754999e-001, 1.28462002e-001,
          1.27533004e-001, 1.60940006e-001, 1.24273002e-001,
          1.24179997e-001, 1.26754999e-001 ]
      - [ 5.04279017e-001, 5.09016991e-001, 4.74074990e-001,
          4.19360012e-001, 3.54216009e-001, 3.58292013e-001,
          4.17798012e-001, 4.78220999e-001, 5.14488995e-001,
          5.08489013e-001, 0., 1.47842005e-001, 1.13836996e-001,
          1.08539000e-001, 1.16030999e-001, 1.46594003e-001,
          3.63155991e-001, 3.34313005e-001, 2.84550995e-001,
          2.17411995e-001, 2.52811998e-001, 3.10764998e-001,
          2.14780003e-001, 2.84610003e-001, 3.37862998e-001,
          3.70918989e-001, 3.12119007e-001, 2.56310999e-001,
          3.53027999e-001, 2.64678001e-001, 2.09848002e-001,
          2.10648999e-001, 2.05100000e-001, 2.56624997e-001,
          3.50178003e-001, 3.37576985e-001, 3.25746000e-001,
          3.25747997e-001, 3.27793002e-001, 3.38566989e-001,
          3.33043993e-001, 2.61359006e-001, 2.58024991e-001,
          2.58911997e-001, 3.27264011e-001, 2.61613011e-001,
          2.61409998e-001, 2.65603006e-001 ]
      - [ 5.31148970e-001, 5.40178001e-001, 5.01154006e-001,
          4.42824006e-001, 3.78993005e-001, 3.77719998e-001,
          4.36922997e-001, 4.94623989e-001, 5.36207974e-001,
          5.21516025e-001, 0., 1.21726997e-001, 9.78948027e-002,
          9.27368999e-002, 9.45587978e-002, 1.15107998e-001,
          3.85082006e-001, 3.61600012e-001, 3.21696013e-001,
          2.63810009e-001, 2.85041004e-001, 3.27519000e-001,
          2.65538990e-001, 3.27405989e-001, 3.63431990e-001,
          3.84577990e-001, 3.32762986e-001, 2.89393008e-001,
          3.09105009e-001, 2.38272995e-001, 1.99206993e-001,
          2.04896003e-001, 1.96291998e-001, 2.31527001e-001,
          2.98646003e-001, 3.04118007e-001, 3.02576005e-001,
          3.05534005e-001, 3.06645989e-001, 3.12067002e-001,
          2.92277008e-001, 2.41335005e-001, 2.39767000e-001,
          2.33786002e-001, 2.84554005e-001, 2.34523997e-001,
          2.39767000e-001, 2.41335005e-001 ]
      - [ 4.94062006e-001, 4.89832014e-001, 4.49669003e-001,
          3.96095991e-001, 3.32940996e-001, 3.19169015e-001,
          3.78551990e-001, 4.25931007e-001, 4.66223001e-001,
          4.63180006e-001, 0., 1.36677995e-001, 1.14698000e-001,
          1.06827997e-001, 1.04447998e-001, 1.17752999e-001,
          3.79427999e-001, 3.53738993e-001, 3.06162000e-001,
          2.37479001e-001, 2.70857006e-001, 3.20326000e-001,
          2.13974997e-001, 2.85039991e-001, 3.26545000e-001,
          3.44231009e-001, 2.88810998e-001, 2.40888998e-001,
          3.50347996e-001, 2.71945000e-001, 2.25696996e-001,
          2.33331993e-001, 2.20384002e-001, 2.55537987e-001,
          3.13939005e-001, 3.22254002e-001, 3.26205999e-001,
          3.32240999e-001, 3.38485986e-001, 3.43275994e-001,
          3.30013990e-001, 2.72408009e-001, 2.68916994e-001,
          2.62750000e-001, 3.00541997e-001, 2.63527989e-001,
          2.72944003e-001, 2.72408009e-001 ]
      - [ 5.19652009e-001, 5.19877017e-001, 4.94931012e-001,
          4.30317998e-001, 3.56433004e-001, 3.24506998e-001,
          3.92100990e-001, 4.44878012e-001, 4.69150990e-001,
          4.59333003e-001, 0., 1.55359998e-001, 1.40150994e-001,
          1.33937001e-001, 1.31950006e-001, 1.38399005e-001,
          3.81518006e-001, 3.45108986e-001, 2.98958987e-001,
          2.36320004e-001, 2.73636013e-001, 3.24840993e-001,
          1.94377005e-001, 2.54956990e-001, 2.94661999e-001,
          3.24840993e-001, 2.71115988e-001, 2.24218994e-001,
          3.64573002e-001, 2.88161010e-001, 2.40526006e-001,
          2.48842999e-001, 2.40024999e-001, 2.82449007e-001,
          3.53385001e-001, 3.54083002e-001, 3.45708996e-001,
          3.46616000e-001, 3.49768013e-001, 3.56059998e-001,
          3.47171992e-001, 2.91767001e-001, 2.88911998e-001,
          2.88549006e-001, 3.38782012e-001, 2.92443007e-001,
          2.93742001e-001, 2.92840987e-001 ]
      - [ 4.40710008e-001, 4.47773010e-001, 4.21950996e-001,
          3.71697992e-001, 3.12689990e-001, 3.07458997e-001,
          3.54595006e-001, 3.87383014e-001, 4.05326009e-001,
          4.05983001e-001, 0., 1.32370993e-001, 1.24109000e-001,
          1.26862004e-001, 1.20016001e-001, 1.26041993e-001,
          2.95558006e-001, 2.57239997e-001, 2.14367002e-001,
          1.71360999e-001, 1.95852995e-001, 2.40309998e-001,
          1.47617996e-001, 1.88540995e-001, 2.23361000e-001,
          2.56157011e-001, 2.07714006e-001, 1.68889999e-001,
          3.63799989e-001, 2.71026999e-001, 2.20878005e-001,
          2.29993001e-001, 2.19504997e-001, 2.75927991e-001,
          3.54252994e-001, 3.93970996e-001, 4.03652996e-001,
          4.07860011e-001, 4.04922009e-001, 3.91317010e-001,
          3.51399988e-001, 2.79383987e-001, 2.81897008e-001,
          2.78205991e-001, 3.41771990e-001, 3.22331995e-001,
          3.26418996e-001, 3.19961011e-001 ]
      - [ 3.18361014e-001, 3.53991002e-001, 3.56961012e-001,
          3.36704999e-001, 2.98074007e-001, 3.19817990e-001,
          3.66838008e-001, 3.83549988e-001, 3.82499993e-001,
          3.61021012e-001, 0., 9.05079022e-002, 7.92974010e-002,
          9.10189971e-002, 9.37473029e-002, 1.11374997e-001,
          1.92589998e-001, 1.86084002e-001, 1.68686002e-001,
          1.37143001e-001, 1.45912006e-001, 1.68190002e-001,
          1.64474994e-001, 2.03713998e-001, 2.30044007e-001,
          2.47652993e-001, 2.14981005e-001, 1.87099993e-001,
          2.51307994e-001, 1.89901993e-001, 1.69497997e-001,
          1.81768999e-001, 1.80546001e-001, 2.19059005e-001,
          2.79168993e-001, 2.66128987e-001, 2.59452999e-001,
          2.55102009e-001, 2.51538008e-001, 2.45001003e-001,
          2.31481001e-001, 2.08551005e-001, 2.11955994e-001,
          2.21386001e-001, 2.59995997e-001, 2.18043000e-001,
          2.11955994e-001, 2.08551005e-001 ]
      - [ 5.00375986e-001, 4.94910985e-001, 4.46112007e-001,
          3.78771007e-001, 3.13906014e-001, 3.09848011e-001,
          3.78771007e-001, 4.54553008e-001, 5.02111971e-001,
          5.08928001e-001, 0., 1.37266994e-001, 1.14197999e-001,
          1.13029003e-001, 1.12581000e-001, 1.34450004e-001,
          3.65936995e-001, 3.31337988e-001, 2.93808997e-001,
          2.35357001e-001, 2.67127991e-001, 3.15560997e-001,
          2.40685001e-001, 3.00215006e-001, 3.42137009e-001,
          3.79842013e-001, 3.19516987e-001, 2.77745008e-001,
          3.36510986e-001, 2.59808987e-001, 2.16356993e-001,
          2.26058006e-001, 2.17537999e-001, 2.55248010e-001,
          3.32208008e-001, 3.56043011e-001, 3.70382011e-001,
          3.75180006e-001, 3.73194993e-001, 3.62482011e-001,
          3.21384013e-001, 2.76739001e-001, 2.77478009e-001,
          2.73654014e-001, 3.16875994e-001, 2.83693999e-001,
          2.92888999e-001, 2.86047012e-001 ]
      - [ 3.75247002e-001, 3.90466005e-001, 3.65128994e-001,
          3.28460008e-001, 2.79220998e-001, 2.84599006e-001,
          3.47833008e-001, 3.99387985e-001, 4.31802005e-001,
          4.32121992e-001, 0., 1.14426002e-001, 1.04702003e-001,
          1.04015999e-001, 1.11514002e-001, 1.33469000e-001,
          2.49388993e-001, 2.27824003e-001, 1.90550998e-001,
          1.42230004e-001, 1.68792993e-001, 2.06846997e-001,
          1.68997005e-001, 2.19999000e-001, 2.63044000e-001,
          2.94557989e-001, 2.50732988e-001, 2.00685993e-001,
          3.09222013e-001, 2.33631000e-001, 1.93370000e-001,
          2.01242998e-001, 1.98672995e-001, 2.48719007e-001,
          3.36961001e-001, 3.86227012e-001, 4.07478005e-001,
          4.02485996e-001, 3.98375005e-001, 3.63710999e-001,
          3.02313000e-001, 2.38640994e-001, 2.41465002e-001,
          2.42958993e-001, 3.22286010e-001, 3.45194012e-001,
          3.45032007e-001, 3.35485011e-001 ]
      - [ 4.14243013e-001, 4.33701992e-001, 4.10883993e-001,
          3.67006987e-001, 3.00269991e-001, 2.71658003e-001,
          3.12189013e-001, 3.42287987e-001, 3.64683986e-001,
          3.79749000e-001, 0., 7.04713985e-002, 8.10839981e-002,
          9.48133022e-002, 1.09552003e-001, 1.33386999e-001,
          2.59570986e-001, 2.54842013e-001, 2.19894007e-001,
          1.59762993e-001, 1.81107998e-001, 2.13609993e-001,
          1.76540002e-001, 2.14283004e-001, 2.46839002e-001,
          2.72051990e-001, 2.30768993e-001, 1.91213995e-001,
          2.35339001e-001, 2.26309001e-001, 2.25378007e-001,
          2.48996004e-001, 2.60354996e-001, 3.19896996e-001,
          3.87374997e-001, 2.66321987e-001, 1.97676003e-001,
          1.75311998e-001, 1.59222007e-001, 1.70683995e-001,
          2.26309001e-001, 2.73393989e-001, 2.91072011e-001,
          3.08077008e-001, 3.43807995e-001, 1.54613003e-001,
          1.25942007e-001, 1.09552003e-001 ]
      - [ 3.82048994e-001, 3.72909009e-001, 3.50073010e-001,
          3.10267001e-001, 2.56606013e-001, 2.39205003e-001,
          2.75808007e-001, 3.06232989e-001, 3.26525986e-001,
          3.40209991e-001, 0., 1.08842000e-001, 1.00290000e-001,
          9.64977965e-002, 9.46611017e-002, 1.05802000e-001,
          2.35789001e-001, 2.22489998e-001, 1.94826007e-001,
          1.44859999e-001, 1.66502997e-001, 1.98009998e-001,
          1.22624002e-001, 1.71506003e-001, 1.98484004e-001,
          2.15354994e-001, 1.77699998e-001, 1.43195003e-001,
          2.41843000e-001, 1.91517994e-001, 1.60658002e-001,
          1.68466002e-001, 1.69966996e-001, 1.97623000e-001,
          2.45247006e-001, 2.40325004e-001, 2.37836003e-001,
          2.39260003e-001, 2.37629995e-001, 2.41780996e-001,
          2.28385001e-001, 1.99174002e-001, 2.06725001e-001,
          2.05322996e-001, 2.30976999e-001, 2.06755996e-001,
          2.01038003e-001, 1.99094996e-001 ]
      - [ 3.97953004e-001, 4.02242005e-001, 3.72339994e-001,
          3.28108996e-001, 2.66086012e-001, 2.73535997e-001,
          3.08068007e-001, 3.27367991e-001, 3.38333011e-001,
          3.45061988e-001, 0., 1.16645999e-001, 1.26119003e-001,
          1.42640993e-001, 1.61475003e-001, 1.82788000e-001,
          2.19821006e-001, 2.09833995e-001, 1.71746999e-001,
          1.10363998e-001, 1.27223998e-001, 1.65749997e-001,
          1.39671996e-001, 1.86482996e-001, 2.30354995e-001,
          2.64324993e-001, 2.22237006e-001, 1.71553999e-001,
          3.18421990e-001, 2.83957988e-001, 2.67645001e-001,
          2.90345013e-001, 2.95641989e-001, 3.55926007e-001,
          4.36206996e-001, 3.72458011e-001, 3.21069002e-001,
          3.07137012e-001, 2.86125988e-001, 2.89963007e-001,
          3.11439991e-001, 3.33362997e-001, 3.49660993e-001,
          3.66578013e-001, 4.09355015e-001, 2.55383015e-001,
          2.40517005e-001, 2.25223005e-001 ]
      - [ 5.47818005e-001, 5.41769981e-001, 4.88893986e-001,
          4.20300990e-001, 3.53706002e-001, 3.55919003e-001,
          4.27902013e-001, 4.90675002e-001, 5.34295022e-001,
          5.43878019e-001, 0., 1.03896998e-001, 8.41415972e-002,
          8.59647989e-002, 8.29541981e-002, 1.10547997e-001,
          4.02702987e-001, 3.86375010e-001, 3.45604002e-001,
          2.82348007e-001, 3.15465987e-001, 3.56294990e-001,
          2.75052011e-001, 3.33864003e-001, 3.74954998e-001,
          3.95265013e-001, 3.48821014e-001, 3.07981014e-001,
          2.87066013e-001, 2.09629998e-001, 1.67728007e-001,
          1.71610996e-001, 1.67728007e-001, 2.12678999e-001,
          2.93671012e-001, 2.88769007e-001, 2.81843007e-001,
          2.78916001e-001, 2.79500008e-001, 2.84177989e-001,
          2.70195007e-001, 2.13248998e-001, 2.14513004e-001,
          2.13248998e-001, 2.73270011e-001, 2.18379006e-001,
          2.14513004e-001, 2.11766005e-001 ]
      - [ 5.62429011e-001, 5.44861972e-001, 4.90705013e-001,
          4.20738012e-001, 3.52328002e-001, 3.56339991e-001,
          4.09155011e-001, 4.69731987e-001, 5.13198972e-001,
          5.14949024e-001, 0., 1.39097005e-001, 1.00573003e-001,
          8.85626972e-002, 8.86859968e-002, 1.23484999e-001,
          4.22349989e-001, 3.87331009e-001, 3.49034011e-001,
          2.90264010e-001, 3.18156987e-001, 3.62910002e-001,
          2.70736009e-001, 3.25457007e-001, 3.62850010e-001,
          3.86976004e-001, 3.35608006e-001, 2.98135012e-001,
          3.17671001e-001, 2.24822000e-001, 1.67157993e-001,
          1.68551996e-001, 1.60414994e-001, 1.99836999e-001,
          2.72810996e-001, 3.06107998e-001, 3.26184005e-001,
          3.31975996e-001, 3.34151000e-001, 3.31221014e-001,
          2.92528987e-001, 2.25720003e-001, 2.21516997e-001,
          2.16432005e-001, 2.56693006e-001, 2.42521003e-001,
          2.52433985e-001, 2.56664991e-001 ]
      - [ 4.96286988e-001, 4.91149008e-001, 4.45704997e-001,
          3.87872994e-001, 3.22337985e-001, 3.07121009e-001,
          3.69616985e-001, 4.25779998e-001, 4.68089998e-001,
          4.75071996e-001, 0., 1.11619003e-001, 9.16623995e-002,
          9.03261006e-002, 9.13475975e-002, 1.04387000e-001,
          3.62327993e-001, 3.37494999e-001, 2.95619994e-001,
          2.40898997e-001, 2.60944992e-001, 3.05092007e-001,
          2.28368998e-001, 2.83380002e-001, 3.16633999e-001,
          3.38739991e-001, 2.85867989e-001, 2.46638000e-001,
          3.05359006e-001, 2.27272004e-001, 1.79842994e-001,
          1.85725003e-001, 1.74670994e-001, 2.27017999e-001,
          3.01977992e-001, 3.53946000e-001, 3.75593990e-001,
          3.79792988e-001, 3.78381014e-001, 3.51327002e-001,
          2.88105994e-001, 2.30972007e-001, 2.35525995e-001,
          2.32504994e-001, 2.85984010e-001, 2.81239003e-001,
          2.84990013e-001, 2.79873013e-001 ]
      - [ 3.67172003e-001, 3.93050998e-001, 3.91718000e-001,
          3.63669991e-001, 2.96894997e-001, 3.00444990e-001,
          3.61561000e-001, 3.80598009e-001, 3.59259993e-001,
          3.12878996e-001, 0., 1.33575007e-001, 1.15762003e-001,
          1.01666003e-001, 1.01648003e-001, 1.13619000e-001,
          2.53738999e-001, 2.43160993e-001, 2.06872001e-001,
          1.45707995e-001, 1.74709007e-001, 2.15387002e-001,
          1.11639000e-001, 1.78055003e-001, 2.06401005e-001,
          1.91275001e-001, 1.64132997e-001, 1.34318992e-001,
          3.09610993e-001, 2.34064996e-001, 1.90920994e-001,
          1.93379998e-001, 1.85124993e-001, 2.21991003e-001,
          2.91934013e-001, 2.92670012e-001, 2.95002997e-001,
          2.98474014e-001, 2.97630996e-001, 3.04942995e-001,
          2.86664993e-001, 2.34493002e-001, 2.29975998e-001,
          2.35250995e-001, 2.71932989e-001, 2.58080006e-001,
          2.61804014e-001, 2.60764986e-001 ]
      - [ 5.76470017e-001, 5.62843978e-001, 5.04445016e-001,
          4.40158993e-001, 3.86195004e-001, 3.95754009e-001,
          4.44357008e-001, 4.96585995e-001, 5.53092003e-001,
          5.61007023e-001, 0., 1.22239999e-001, 8.10728967e-002,
          7.61583000e-002, 8.45210999e-002, 1.25185996e-001,
          4.25114989e-001, 4.06964004e-001, 3.71367007e-001,
          3.19160998e-001, 3.34885001e-001, 3.70700985e-001,
          3.15014988e-001, 3.67428005e-001, 3.99699003e-001,
          4.15665001e-001, 3.70700985e-001, 3.31117988e-001,
          2.44834006e-001, 1.78152993e-001, 1.36822000e-001,
          1.43933997e-001, 1.43003002e-001, 1.82853997e-001,
          2.49350995e-001, 2.61238992e-001, 2.72329003e-001,
          2.74114996e-001, 2.71555007e-001, 2.60551989e-001,
          2.31093004e-001, 1.92987993e-001, 1.88595995e-001,
          1.93480000e-001, 2.32435003e-001, 1.99259996e-001,
          1.97861999e-001, 1.92080006e-001 ]
      - [ 5.53717017e-001, 5.73607028e-001, 5.35306990e-001,
          4.68423009e-001, 3.94365996e-001, 3.93528014e-001,
          4.53321993e-001, 5.09383976e-001, 5.37782013e-001,
          5.24875998e-001, 0., 1.01962999e-001, 7.43568987e-002,
          7.38980994e-002, 7.73238018e-002, 1.03497997e-001,
          4.09606993e-001, 3.98809999e-001, 3.62928987e-001,
          3.03279996e-001, 3.17488998e-001, 3.53253990e-001,
          3.01194996e-001, 3.53626013e-001, 3.88309985e-001,
          3.93586993e-001, 3.42902005e-001, 3.08030009e-001,
          2.62023002e-001, 1.98477998e-001, 1.58507004e-001,
          1.72481000e-001, 1.66999996e-001, 2.19899997e-001,
          3.08982998e-001, 3.09980005e-001, 3.02935004e-001,
          3.00549001e-001, 2.93745995e-001, 2.80557007e-001,
          2.47622997e-001, 2.16048002e-001, 2.21735001e-001,
          2.24959001e-001, 2.84195989e-001, 2.24959001e-001,
          2.21735001e-001, 2.15255007e-001 ]
      - [ 5.74084997e-001, 5.62161028e-001, 5.12427986e-001,
          4.35391009e-001, 3.55976999e-001, 3.41697007e-001,
          4.16092008e-001, 4.85835999e-001, 5.31794012e-001,
          5.33434987e-001, 0., 1.12715997e-001, 8.04821029e-002,
          7.22709969e-002, 7.14652017e-002, 9.84152034e-002,
          4.28995013e-001, 3.93079996e-001, 3.47167999e-001,
          2.92344987e-001, 3.23004007e-001, 3.68568987e-001,
          2.74183989e-001, 3.25881988e-001, 3.62603009e-001,
          3.94403994e-001, 3.40366989e-001, 2.96941012e-001,
          3.01627994e-001, 2.14396000e-001, 1.50937006e-001,
          1.53035998e-001, 1.46776006e-001, 2.03465998e-001,
          2.91617006e-001, 3.35900009e-001, 3.61885995e-001,
          3.63705993e-001, 3.63519996e-001, 3.47782999e-001,
          2.81996012e-001, 2.10300997e-001, 2.06718996e-001,
          2.02873006e-001, 2.68240005e-001, 2.68058002e-001,
          2.78609008e-001, 2.75584996e-001 ]
      - [ 4.98104990e-001, 4.97251004e-001, 4.52333003e-001,
          3.86534989e-001, 3.08555990e-001, 3.05518001e-001,
          3.60558003e-001, 3.99414986e-001, 4.20284003e-001,
          4.07252997e-001, 0., 1.47649005e-001, 1.31902993e-001,
          1.27141997e-001, 1.22060999e-001, 1.30817994e-001,
          3.60222012e-001, 3.27780008e-001, 2.67688006e-001,
          1.89587995e-001, 2.30991006e-001, 2.99522012e-001,
          1.46190003e-001, 2.16553003e-001, 2.61622995e-001,
          2.78719991e-001, 2.27495000e-001, 1.72811002e-001,
          3.67978990e-001, 2.87173003e-001, 2.34715998e-001,
          2.39788994e-001, 2.32621998e-001, 2.77153999e-001,
          3.56215000e-001, 3.49334002e-001, 3.59061003e-001,
          3.61842006e-001, 3.60015988e-001, 3.62823009e-001,
          3.50897998e-001, 2.94878006e-001, 2.96148986e-001,
          2.88545996e-001, 3.42985004e-001, 2.89050996e-001,
          2.96061993e-001, 2.94265985e-001 ]
      - [ 6.53140008e-001, 6.53074026e-001, 6.18219018e-001,
          5.54184973e-001, 4.41100001e-001, 4.02139008e-001,
          4.29015994e-001, 4.38964993e-001, 4.38596010e-001,
          4.17984992e-001, 0., 1.04410000e-001, 7.79815018e-002,
          7.93977007e-002, 8.67410973e-002, 1.05080999e-001,
          4.65925008e-001, 4.44543988e-001, 3.94445002e-001,
          3.25388014e-001, 3.43353003e-001, 3.95666987e-001,
          2.41730005e-001, 2.87097007e-001, 3.05070996e-001,
          3.04147989e-001, 2.64221013e-001, 2.36381993e-001,
          2.25280002e-001, 1.84827000e-001, 1.71450004e-001,
          1.91493005e-001, 1.99361995e-001, 2.51529008e-001,
          2.89323986e-001, 2.39234000e-001, 2.03041002e-001,
          1.91792995e-001, 1.88216999e-001, 1.93797007e-001,
          2.08043993e-001, 2.12182999e-001, 2.29471996e-001,
          2.44907007e-001, 2.66326994e-001, 1.46985993e-001,
          1.38574004e-001, 1.31417006e-001 ]
      - [ 4.54775006e-001, 4.48870003e-001, 4.14631009e-001,
          3.53056014e-001, 2.80088991e-001, 2.60711014e-001,
          3.23796988e-001, 3.71791005e-001, 3.90846014e-001,
          3.84335011e-001, 0., 1.45487994e-001, 1.37078002e-001,
          1.35095000e-001, 1.34644002e-001, 1.38699993e-001,
          3.21579009e-001, 2.95170009e-001, 2.40378007e-001,
          1.66702002e-001, 2.01714993e-001, 2.67365009e-001,
          1.28439993e-001, 1.99353993e-001, 2.41724998e-001,
          2.70649999e-001, 2.18080997e-001, 1.58866003e-001,
          3.71767998e-001, 2.82065988e-001, 2.24464998e-001,
          2.36335993e-001, 2.29231998e-001, 2.92019993e-001,
          3.81715000e-001, 4.00397003e-001, 4.13118005e-001,
          4.05443996e-001, 4.01084989e-001, 3.88702989e-001,
          3.58765990e-001, 2.91368991e-001, 2.94198006e-001,
          2.91904002e-001, 3.62776011e-001, 3.36068988e-001,
          3.37677002e-001, 3.28929991e-001 ]
      - [ 5.42344987e-001, 5.25395989e-001, 5.03814995e-001,
          4.66131002e-001, 4.07485992e-001, 3.86314005e-001,
          4.32092994e-001, 4.52908993e-001, 4.58512008e-001,
          4.46868002e-001, 0., 9.35705975e-002, 6.98333979e-002,
          6.18603006e-002, 6.14252985e-002, 7.02563003e-002,
          3.64021987e-001, 3.55244994e-001, 3.26155007e-001,
          2.74145991e-001, 3.02231014e-001, 3.33030999e-001,
          2.42525995e-001, 2.83320010e-001, 2.97003001e-001,
          2.91343987e-001, 2.71616995e-001, 2.51145005e-001,
          2.06569001e-001, 1.62240997e-001, 1.39671996e-001,
          1.42082006e-001, 1.36226997e-001, 1.49261996e-001,
          1.78931996e-001, 1.60046995e-001, 1.61356002e-001,
          1.62083000e-001, 1.64875001e-001, 1.81677997e-001,
          1.92633003e-001, 1.87682003e-001, 1.87125996e-001,
          1.86497003e-001, 1.73140004e-001, 1.00792997e-001,
          1.02241002e-001, 1.11856997e-001 ]
      - [ 5.03376007e-001, 5.10809004e-001, 4.69422996e-001,
          4.15307999e-001, 3.59683990e-001, 3.73239011e-001,
          4.31688011e-001, 4.85605985e-001, 5.19670010e-001,
          5.14768004e-001, 0., 1.21131003e-001, 9.38427001e-002,
          9.32843983e-002, 9.63608995e-002, 1.28939003e-001,
          3.65619004e-001, 3.41571003e-001, 2.98938006e-001,
          2.44798005e-001, 2.62515008e-001, 3.12599003e-001,
          2.50669986e-001, 3.16410989e-001, 3.58617991e-001,
          3.80183011e-001, 3.26730996e-001, 2.78867006e-001,
          2.95165986e-001, 2.10624993e-001, 1.53941005e-001,
          1.58792004e-001, 1.54688999e-001, 2.16444999e-001,
          3.11259985e-001, 3.28197002e-001, 3.24921012e-001,
          3.21934015e-001, 3.22230011e-001, 3.20933998e-001,
          2.79266000e-001, 2.21970007e-001, 2.24030003e-001,
          2.27541000e-001, 2.91478008e-001, 2.28302002e-001,
          2.28690997e-001, 2.25494996e-001 ]
      - [ 5.26148975e-001, 5.15628994e-001, 4.75957990e-001,
          4.16224986e-001, 3.56328994e-001, 3.44686002e-001,
          3.97197008e-001, 4.48650002e-001, 4.83397990e-001,
          4.75448012e-001, 0., 1.34443000e-001, 1.02766998e-001,
          9.64296982e-002, 9.74920020e-002, 1.24100998e-001,
          4.00662988e-001, 3.77267987e-001, 3.29409003e-001,
          2.50147998e-001, 2.86332011e-001, 3.37536007e-001,
          2.29833007e-001, 3.05918008e-001, 3.45225006e-001,
          3.65162998e-001, 3.06874007e-001, 2.60785013e-001,
          3.19081008e-001, 2.23592997e-001, 1.50360003e-001,
          1.57224998e-001, 1.53773993e-001, 2.21172005e-001,
          3.13688010e-001, 3.32331985e-001, 3.33238989e-001,
          3.34630996e-001, 3.38943005e-001, 3.37054998e-001,
          2.98559010e-001, 2.29530007e-001, 2.28181005e-001,
          2.27574006e-001, 2.96202987e-001, 2.37520993e-001,
          2.43386999e-001, 2.39394993e-001 ]
      - [ 5.32966018e-001, 5.32335997e-001, 5.08391023e-001,
          4.48449999e-001, 3.57753009e-001, 3.23657006e-001,
          3.72801006e-001, 4.01329994e-001, 4.13246006e-001,
          4.02723998e-001, 0., 1.32624000e-001, 1.18198998e-001,
          1.22358002e-001, 1.23056002e-001, 1.40166000e-001,
          3.76359999e-001, 3.53024989e-001, 2.99255997e-001,
          2.29436994e-001, 2.49706000e-001, 3.10303003e-001,
          1.71843007e-001, 2.31939003e-001, 2.66342998e-001,
          2.80589998e-001, 2.32636005e-001, 1.86711997e-001,
          3.39103997e-001, 2.97068000e-001, 2.51875013e-001,
          2.78391987e-001, 2.67479002e-001, 3.35889012e-001,
          3.99208993e-001, 3.34441006e-001, 3.07843000e-001,
          2.99760014e-001, 2.94981003e-001, 2.96636999e-001,
          3.32807988e-001, 3.17959011e-001, 3.29039991e-001,
          3.38088989e-001, 3.78376007e-001, 2.37206995e-001,
          2.28579000e-001, 2.19396994e-001 ]
      - [ 3.01853001e-001, 2.78937012e-001, 2.55459011e-001,
          2.18432993e-001, 1.71030000e-001, 1.65349007e-001,
          2.02971995e-001, 2.24815995e-001, 2.29847997e-001,
          2.45648995e-001, 0., 1.17853999e-001, 1.04316004e-001,
          9.50722992e-002, 8.88966992e-002, 9.45091024e-002,
          2.21732005e-001, 1.91685006e-001, 1.59804001e-001,
          1.16393000e-001, 1.52755007e-001, 1.85848996e-001,
          7.18180016e-002, 1.14042997e-001, 1.44428000e-001,
          1.77873001e-001, 1.36124000e-001, 1.01989999e-001,
          2.78537989e-001, 1.92789003e-001, 1.47378996e-001,
          1.40368998e-001, 1.35714993e-001, 1.70844004e-001,
          2.44268999e-001, 2.68970013e-001, 2.76809007e-001,
          2.81394005e-001, 2.85506994e-001, 2.86585987e-001,
          2.62748986e-001, 1.71478003e-001, 1.65349007e-001,
          1.60949007e-001, 2.29173005e-001, 2.36844003e-001,
          2.41139993e-001, 2.35531002e-001 ]
      - [ 4.23483998e-001, 4.46507990e-001, 4.51738000e-001,
          4.21995997e-001, 3.63617986e-001, 3.65743995e-001,
          4.05680001e-001, 4.20603007e-001, 4.07938004e-001,
          3.79422992e-001, 0., 9.96994972e-002, 8.70653018e-002,
          8.89953002e-002, 8.70653018e-002, 1.02278002e-001,
          2.69744992e-001, 2.55466998e-001, 2.29764998e-001,
          1.85899004e-001, 2.01042995e-001, 2.33797997e-001,
          1.72324002e-001, 2.11619005e-001, 2.31261998e-001,
          2.41096005e-001, 2.07002997e-001, 1.80720001e-001,
          2.31564000e-001, 1.84366003e-001, 1.54883996e-001,
          1.61083996e-001, 1.53154001e-001, 1.90882996e-001,
          2.48449996e-001, 2.66274989e-001, 2.75061011e-001,
          2.71331012e-001, 2.68319011e-001, 2.52202004e-001,
          2.17655003e-001, 1.96762994e-001, 1.99217007e-001,
          2.02118993e-001, 2.29764998e-001, 2.28495002e-001,
          2.24737003e-001, 2.21554995e-001 ]
      - [ 5.55908978e-001, 5.60074985e-001, 5.09149015e-001,
          4.39309001e-001, 3.59732985e-001, 3.67639989e-001,
          4.24937010e-001, 4.80325997e-001, 5.09711027e-001,
          4.95424002e-001, 0., 1.04881003e-001, 9.89679024e-002,
          9.97038037e-002, 9.30413976e-002, 9.98073965e-002,
          4.01596010e-001, 3.84418011e-001, 3.37487012e-001,
          2.68411011e-001, 2.88060009e-001, 3.38524014e-001,
          2.35434994e-001, 2.96898991e-001, 3.35099995e-001,
          3.44480008e-001, 2.93381006e-001, 2.46346995e-001,
          3.67785990e-001, 3.02120000e-001, 2.57809013e-001,
          2.68528998e-001, 2.64919996e-001, 3.10948998e-001,
          3.85850012e-001, 3.51273000e-001, 3.30047011e-001,
          3.25343996e-001, 3.28891993e-001, 3.40591997e-001,
          3.57890993e-001, 3.18939000e-001, 3.20443988e-001,
          3.21206987e-001, 3.67639989e-001, 2.73930997e-001,
          2.68698007e-001, 2.63179004e-001 ]
      - [ 5.32934010e-001, 5.25731027e-001, 4.81013000e-001,
          4.21090990e-001, 3.58967990e-001, 3.61144006e-001,
          4.30265009e-001, 4.92989004e-001, 5.40477991e-001,
          5.46763003e-001, 0., 1.01902001e-001, 7.90607035e-002,
          8.05675983e-002, 8.55783001e-002, 1.13921002e-001,
          3.95366013e-001, 3.74917001e-001, 3.34237993e-001,
          2.72850990e-001, 2.94972003e-001, 3.39572012e-001,
          2.83248007e-001, 3.45351011e-001, 3.85753006e-001,
          4.09588009e-001, 3.56317014e-001, 3.08236003e-001,
          2.66939998e-001, 1.96581006e-001, 1.52105004e-001,
          1.61135003e-001, 1.58155993e-001, 2.06937999e-001,
          2.86487013e-001, 2.87633002e-001, 2.90322006e-001,
          2.84355998e-001, 2.81044990e-001, 2.81441987e-001,
          2.50957996e-001, 2.06257001e-001, 2.13266999e-001,
          2.12034002e-001, 2.67783999e-001, 2.15418994e-001,
          2.13266999e-001, 2.06257001e-001 ]
      - [ 4.99700993e-001, 5.01353979e-001, 4.72669005e-001,
          4.21460986e-001, 3.34127009e-001, 2.83026010e-001,
          3.02442014e-001, 3.11892986e-001, 3.11814010e-001,
          2.84839004e-001, 0., 1.30601004e-001, 1.29985005e-001,
          1.36291996e-001, 1.41016006e-001, 1.47789001e-001,
          3.38797987e-001, 3.15871000e-001, 2.75079012e-001,
          2.16732994e-001, 2.37699002e-001, 2.83024997e-001,
          1.33340001e-001, 1.64186001e-001, 1.85719997e-001,
          1.91228002e-001, 1.60238996e-001, 1.27195001e-001,
          3.12189996e-001, 2.84622014e-001, 2.70197988e-001,
          2.97793001e-001, 3.05314988e-001, 3.60861003e-001,
          4.07276988e-001, 3.48499000e-001, 3.18969011e-001,
          3.04163992e-001, 2.91157007e-001, 2.93567002e-001,
          3.06959003e-001, 3.29061985e-001, 3.46433014e-001,
          3.58824015e-001, 3.93076003e-001, 2.53941000e-001,
          2.44207993e-001, 2.29837000e-001 ]
      - [ 5.32857001e-001, 5.31608999e-001, 4.81395990e-001,
          4.17163998e-001, 3.48675996e-001, 3.69231999e-001,
          4.39994007e-001, 5.02753973e-001, 5.47008991e-001,
          5.49135983e-001, 0., 1.15364999e-001, 8.97888988e-002,
          8.75751004e-002, 8.45647976e-002, 1.11584000e-001,
          3.80596995e-001, 3.42660993e-001, 3.09489995e-001,
          2.76820004e-001, 2.89582014e-001, 3.24277014e-001,
          2.83730000e-001, 3.26644987e-001, 3.55814993e-001,
          3.93649012e-001, 3.39338005e-001, 3.01434010e-001,
          2.78322011e-001, 2.08036005e-001, 1.68051004e-001,
          1.75150007e-001, 1.64735004e-001, 1.98338002e-001,
          2.71086991e-001, 2.89375007e-001, 2.98826993e-001,
          3.06419998e-001, 3.02177995e-001, 3.02139014e-001,
          2.60594994e-001, 2.19647005e-001, 2.23703995e-001,
          2.17120007e-001, 2.54830986e-001, 2.21908003e-001,
          2.28560001e-001, 2.25354001e-001 ]
      - [ 5.14755011e-001, 5.13572991e-001, 4.60617989e-001,
          4.04816002e-001, 3.39154005e-001, 3.43546003e-001,
          4.07005996e-001, 4.69765991e-001, 5.24897993e-001,
          5.41202009e-001, 0., 8.65532979e-002, 7.64115974e-002,
          8.28322023e-002, 8.21729004e-002, 1.04231998e-001,
          3.81006002e-001, 3.66079986e-001, 3.31122011e-001,
          2.76672989e-001, 2.92883009e-001, 3.29641014e-001,
          2.88581014e-001, 3.47678989e-001, 3.83120000e-001,
          4.07377988e-001, 3.54988009e-001, 3.12815011e-001,
          2.52588987e-001, 1.93402007e-001, 1.63708001e-001,
          1.69800997e-001, 1.63774997e-001, 1.94040999e-001,
          2.68990010e-001, 2.80422986e-001, 2.89683014e-001,
          2.91525990e-001, 2.87066013e-001, 2.72100002e-001,
          2.35958993e-001, 2.06505999e-001, 2.08517998e-001,
          2.06707001e-001, 2.52521992e-001, 2.12598994e-001,
          2.13901997e-001, 2.05803007e-001 ]
      - [ 3.41001004e-001, 3.59762996e-001, 3.52028996e-001,
          3.29306006e-001, 2.85176009e-001, 3.11215997e-001,
          3.68358999e-001, 4.10757989e-001, 4.37151998e-001,
          4.43648010e-001, 0., 1.23590998e-001, 1.17614001e-001,
          1.20534003e-001, 1.16604000e-001, 1.38951004e-001,
          2.35872999e-001, 2.17730001e-001, 1.87296003e-001,
          1.47772998e-001, 1.64232999e-001, 1.94028005e-001,
          2.08933994e-001, 2.55520999e-001, 2.93516010e-001,
          3.23742002e-001, 2.85968989e-001, 2.42965996e-001,
          3.48082989e-001, 2.62879014e-001, 2.11872995e-001,
          2.14142993e-001, 2.05456004e-001, 2.61388004e-001,
          3.36109012e-001, 3.73908013e-001, 3.94452006e-001,
          3.99931014e-001, 3.98968995e-001, 3.81440997e-001,
          3.34573001e-001, 2.64297992e-001, 2.62861013e-001,
          2.57131010e-001, 3.23785007e-001, 3.28269988e-001,
          3.35400999e-001, 3.36174011e-001 ]
      - [ 3.64778012e-001, 3.97020012e-001, 3.83379996e-001,
          3.48042995e-001, 2.92562008e-001, 2.75916010e-001,
          3.11879992e-001, 3.33952010e-001, 3.27726007e-001,
          2.91864991e-001, 0., 1.35792002e-001, 1.28638998e-001,
          1.33201003e-001, 1.36053994e-001, 1.42391995e-001,
          2.31130004e-001, 2.15067998e-001, 1.73547998e-001,
          1.33190006e-001, 1.47175997e-001, 1.90606996e-001,
          9.71724987e-002, 1.37273997e-001, 1.70708001e-001,
          1.82729006e-001, 1.51444003e-001, 1.10055000e-001,
          3.77057999e-001, 3.13849986e-001, 2.69746006e-001,
          2.81623006e-001, 2.80407995e-001, 3.32592994e-001,
          4.01416004e-001, 3.32464993e-001, 2.99582005e-001,
          2.96227992e-001, 2.93843001e-001, 3.13849986e-001,
          3.61669987e-001, 3.21348011e-001, 3.24158996e-001,
          3.27849001e-001, 3.80941987e-001, 2.56926000e-001,
          2.53302008e-001, 2.51046002e-001 ]
      - [ 4.90545988e-001, 5.01825988e-001, 4.71572995e-001,
          4.10061985e-001, 3.34064990e-001, 3.37415010e-001,
          3.91097009e-001, 4.25350010e-001, 4.32558000e-001,
          4.18489009e-001, 0., 9.19634029e-002, 6.89942986e-002,
          6.79527000e-002, 6.87227994e-002, 8.60332996e-002,
          3.48949999e-001, 3.39570999e-001, 3.08405012e-001,
          2.60468990e-001, 2.72680998e-001, 3.02971005e-001,
          2.35055998e-001, 2.83221006e-001, 3.03122014e-001,
          3.14873010e-001, 2.74690002e-001, 2.43933007e-001,
          2.32082993e-001, 2.09654003e-001, 1.95408002e-001,
          2.14540005e-001, 2.02726007e-001, 2.36217007e-001,
          2.51500010e-001, 1.88076004e-001, 1.52960002e-001,
          1.49669006e-001, 1.54009998e-001, 1.77598998e-001,
          2.17058003e-001, 2.33695999e-001, 2.38977998e-001,
          2.41208002e-001, 2.37834007e-001, 9.94886979e-002,
          1.04083002e-001, 1.09010004e-001 ]
      - [ 5.04477978e-001, 5.02699018e-001, 4.46319014e-001,
          3.71684998e-001, 2.96936005e-001, 3.04089993e-001,
          3.82676005e-001, 4.58182991e-001, 5.16133010e-001,
          5.29266000e-001, 0., 1.35844007e-001, 9.81329009e-002,
          9.47953016e-002, 1.04791000e-001, 1.44830003e-001,
          3.88572991e-001, 3.48574013e-001, 2.97854006e-001,
          2.27833003e-001, 2.79648006e-001, 3.30725998e-001,
          2.42145002e-001, 3.15964013e-001, 3.70864004e-001,
          4.14162993e-001, 3.50764990e-001, 2.96638995e-001,
          3.20959002e-001, 2.27026001e-001, 1.73821002e-001,
          1.80625007e-001, 1.79368004e-001, 2.32901007e-001,
          3.27080011e-001, 3.26377004e-001, 3.26119006e-001,
          3.20639014e-001, 3.21949989e-001, 3.24083000e-001,
          2.97661990e-001, 2.29631007e-001, 2.30266005e-001,
          2.33857006e-001, 2.99591005e-001, 2.59624004e-001,
          2.52965003e-001, 2.51444012e-001 ]
      - [ 5.48327982e-001, 5.53883016e-001, 4.96385008e-001,
          4.14566010e-001, 3.48340005e-001, 3.51848006e-001,
          4.14566010e-001, 4.90857005e-001, 5.49615979e-001,
          5.45567989e-001, 0., 1.01209998e-001, 7.63420984e-002,
          7.44685978e-002, 8.24320018e-002, 1.10724002e-001,
          3.99042994e-001, 3.77409995e-001, 3.39493006e-001,
          2.86172003e-001, 3.03059012e-001, 3.44244987e-001,
          2.89911985e-001, 3.44009995e-001, 3.79447013e-001,
          3.96293998e-001, 3.44163001e-001, 3.07247013e-001,
          2.88365990e-001, 2.27791995e-001, 1.98754996e-001,
          2.10435003e-001, 2.06823006e-001, 2.47757003e-001,
          3.15367013e-001, 3.42687011e-001, 3.49184006e-001,
          3.46085995e-001, 3.38997990e-001, 3.24487001e-001,
          2.73337990e-001, 2.42745996e-001, 2.49832004e-001,
          2.49697000e-001, 2.97147006e-001, 2.79879987e-001,
          2.80384004e-001, 2.68851995e-001 ]
      - [ 6.33314013e-001, 6.37588024e-001, 5.95125973e-001,
          5.16309023e-001, 4.26548004e-001, 3.70151013e-001,
          3.96759987e-001, 4.15455014e-001, 4.22863007e-001,
          4.09855992e-001, 0., 1.06145002e-001, 7.94572979e-002,
          8.21283981e-002, 8.86090994e-002, 1.16746001e-001,
          4.73432004e-001, 4.48978007e-001, 3.95628005e-001,
          3.17373991e-001, 3.51776987e-001, 4.04444993e-001,
          2.20853001e-001, 2.71762997e-001, 2.88313001e-001,
          2.94955999e-001, 2.52640992e-001, 2.25305006e-001,
          2.42415994e-001, 1.84717998e-001, 1.74297005e-001,
          2.00664997e-001, 2.02454999e-001, 2.50032991e-001,
          2.79549986e-001, 2.42387995e-001, 2.15310007e-001,
          2.07818002e-001, 2.01813996e-001, 2.10701004e-001,
          2.24215001e-001, 2.20850006e-001, 2.41732001e-001,
          2.43612006e-001, 2.56065995e-001, 1.51662007e-001,
          1.49351001e-001, 1.47071004e-001 ]
      - [ 5.39668024e-001, 5.37994981e-001, 4.96845007e-001,
          4.43421990e-001, 3.75099003e-001, 3.66806000e-001,
          4.27973002e-001, 4.83283997e-001, 5.29399991e-001,
          5.38627982e-001, 0., 1.00501999e-001, 7.22632036e-002,
          6.93745017e-002, 7.80616030e-002, 1.01608999e-001,
          3.99464995e-001, 3.93712997e-001, 3.59501988e-001,
          2.93399990e-001, 3.13001990e-001, 3.50932986e-001,
          2.88269997e-001, 3.51473987e-001, 3.86271000e-001,
          3.96723986e-001, 3.45322996e-001, 3.08227986e-001,
          2.76944011e-001, 1.98138997e-001, 1.50771007e-001,
          1.61158994e-001, 1.52654007e-001, 1.99965999e-001,
          2.73824006e-001, 3.07687998e-001, 3.23940992e-001,
          3.21754992e-001, 3.17741990e-001, 3.12678993e-001,
          2.62874991e-001, 2.04144999e-001, 2.06946999e-001,
          2.06156999e-001, 2.58327991e-001, 2.54913986e-001,
          2.53026992e-001, 2.54202992e-001 ]
      - [ 4.69318002e-001, 4.95299011e-001, 4.81592000e-001,
          4.27500993e-001, 3.55127007e-001, 3.64331007e-001,
          4.41258013e-001, 5.00751972e-001, 5.16358972e-001,
          5.07624984e-001, 0., 1.03238001e-001, 9.84482020e-002,
          1.04878999e-001, 1.00349002e-001, 1.16474003e-001,
          3.42640013e-001, 3.23161006e-001, 2.87878990e-001,
          2.31565997e-001, 2.58816004e-001, 2.93386012e-001,
          2.42935002e-001, 3.12626004e-001, 3.45984012e-001,
          3.73317003e-001, 3.23776990e-001, 2.79651999e-001,
          2.81287014e-001, 2.14222997e-001, 1.79345995e-001,
          1.89833000e-001, 1.86363995e-001, 2.26631001e-001,
          3.04304987e-001, 3.01077992e-001, 2.94566989e-001,
          2.94795007e-001, 2.86897987e-001, 2.82685012e-001,
          2.68260002e-001, 2.33214006e-001, 2.39765003e-001,
          2.39800006e-001, 2.89846987e-001, 2.34913006e-001,
          2.34898999e-001, 2.27553993e-001 ]
      - [ 4.80372012e-001, 4.79615986e-001, 4.37314987e-001,
          3.81897002e-001, 3.25827003e-001, 3.32646996e-001,
          3.96818995e-001, 4.54403013e-001, 5.01770020e-001,
          5.15408993e-001, 0., 1.11643001e-001, 8.77059996e-002,
          9.25009027e-002, 1.01085998e-001, 1.31284997e-001,
          3.63411009e-001, 3.45670998e-001, 3.05191994e-001,
          2.48372003e-001, 2.69176990e-001, 3.12148005e-001,
          2.65489995e-001, 3.28375012e-001, 3.72054011e-001,
          3.95177007e-001, 3.38919997e-001, 2.93601990e-001,
          3.35770011e-001, 2.34715998e-001, 1.74768001e-001,
          1.88994005e-001, 1.80819005e-001, 2.52039999e-001,
          3.55863988e-001, 3.45883995e-001, 3.42352986e-001,
          3.40999991e-001, 3.38395000e-001, 3.39323997e-001,
          3.15436989e-001, 2.42592007e-001, 2.48996004e-001,
          2.48083994e-001, 3.33492994e-001, 2.46987998e-001,
          2.44397998e-001, 2.41935998e-001 ]
      - [ 3.38600010e-001, 3.41053993e-001, 3.14482003e-001,
          2.75851995e-001, 2.33293995e-001, 2.06380993e-001,
          2.28084996e-001, 2.57786006e-001, 2.90713996e-001,
          3.07182997e-001, 0., 1.11576997e-001, 1.19763002e-001,
          1.26485005e-001, 1.39509007e-001, 1.57278001e-001,
          2.18147993e-001, 2.05979005e-001, 1.80188000e-001,
          1.37278005e-001, 1.49517000e-001, 1.76958993e-001,
          1.26822993e-001, 1.64980993e-001, 1.89815000e-001,
          2.15269998e-001, 1.76613003e-001, 1.42054006e-001,
          3.41769993e-001, 2.96220988e-001, 2.68635988e-001,
          2.88414001e-001, 2.88839012e-001, 3.41888994e-001,
          4.16958988e-001, 3.50991994e-001, 3.13708007e-001,
          3.03995013e-001, 2.95224994e-001, 3.08086991e-001,
          3.33041012e-001, 3.19382995e-001, 3.28884989e-001,
          3.39365989e-001, 3.93108010e-001, 2.68269986e-001,
          2.53261000e-001, 2.49096006e-001 ]
      - [ 3.91613007e-001, 3.93896997e-001, 3.75194997e-001,
          3.39235008e-001, 2.74518996e-001, 2.42025003e-001,
          2.79045999e-001, 2.90302008e-001, 2.72596985e-001,
          2.44305998e-001, 0., 1.14984997e-001, 9.07180011e-002,
          7.90119022e-002, 6.80515990e-002, 6.47810027e-002,
          2.86677003e-001, 2.68050998e-001, 2.36833006e-001,
          1.83641002e-001, 2.12406993e-001, 2.46735007e-001,
          1.07942998e-001, 1.40554994e-001, 1.61791995e-001,
          1.47092000e-001, 1.28334001e-001, 1.06990002e-001,
          2.40823999e-001, 1.67936996e-001, 1.28602996e-001,
          1.21022999e-001, 1.13329999e-001, 1.26009002e-001,
          1.75814003e-001, 1.71287000e-001, 1.80610999e-001,
          1.90836996e-001, 1.93488002e-001, 2.06204996e-001,
          2.18163997e-001, 1.46980003e-001, 1.41146004e-001,
          1.33821994e-001, 1.56370997e-001, 1.49522007e-001,
          1.60716996e-001, 1.64293006e-001 ]
      - [ 3.79518986e-001, 3.89815986e-001, 3.75355989e-001,
          3.36378992e-001, 2.77702004e-001, 2.72886008e-001,
          3.09976012e-001, 3.31117988e-001, 3.28132004e-001,
          3.13221008e-001, 0., 1.40616998e-001, 1.34812996e-001,
          1.37869000e-001, 1.39896005e-001, 1.49617001e-001,
          2.50961006e-001, 2.07165003e-001, 1.62642002e-001,
          1.15649998e-001, 1.50288999e-001, 1.99867994e-001,
          8.31461027e-002, 1.30135000e-001, 1.76728994e-001,
          2.15213999e-001, 1.68835998e-001, 1.21629998e-001,
          3.70936990e-001, 2.64941007e-001, 2.07509995e-001,
          2.13703007e-001, 2.15015993e-001, 2.75135994e-001,
          3.84698987e-001, 4.08894986e-001, 4.18112993e-001,
          4.17923003e-001, 4.15897995e-001, 3.93837988e-001,
          3.50769997e-001, 2.73714989e-001, 2.75514990e-001,
          2.76024997e-001, 3.64710003e-001, 3.42586994e-001,
          3.41764003e-001, 3.39516997e-001 ]
      - [ 4.63104993e-001, 4.76096988e-001, 4.46397007e-001,
          4.02249008e-001, 3.54443997e-001, 3.53098005e-001,
          4.21609014e-001, 4.81579006e-001, 5.24580002e-001,
          5.25472999e-001, 0., 1.02075003e-001, 8.40722024e-002,
          9.33507010e-002, 9.72919017e-002, 1.22071996e-001,
          3.47204000e-001, 3.36472005e-001, 2.99771994e-001,
          2.44508997e-001, 2.54712999e-001, 2.97033995e-001,
          2.68215001e-001, 3.29037994e-001, 3.67556989e-001,
          3.92183006e-001, 3.34580004e-001, 2.87672997e-001,
          2.89501011e-001, 2.37939999e-001, 2.17504993e-001,
          2.25107998e-001, 2.20928997e-001, 2.46335000e-001,
          3.12539995e-001, 3.16215992e-001, 3.28128994e-001,
          3.23006004e-001, 3.24295014e-001, 3.07083994e-001,
          2.80912012e-001, 2.51410991e-001, 2.59310991e-001,
          2.54379004e-001, 2.93363988e-001, 2.74455011e-001,
          2.78858006e-001, 2.65967011e-001 ]
      - [ 4.78444993e-001, 4.69550014e-001, 4.37231988e-001,
          3.90174985e-001, 3.27333987e-001, 3.16365987e-001,
          3.53085011e-001, 3.80780995e-001, 4.04226005e-001,
          3.94048005e-001, 0., 1.39376000e-001, 1.22732997e-001,
          1.21119998e-001, 1.17725000e-001, 1.30669996e-001,
          3.46998006e-001, 3.14054996e-001, 2.62412995e-001,
          1.96455002e-001, 2.32132003e-001, 2.86433995e-001,
          1.53438002e-001, 2.11901993e-001, 2.47767001e-001,
          2.77736008e-001, 2.28389993e-001, 1.75156996e-001,
          3.32657009e-001, 2.45465994e-001, 1.90708995e-001,
          2.01783001e-001, 1.93839997e-001, 2.51352012e-001,
          3.30264002e-001, 3.60909998e-001, 3.78928006e-001,
          3.83520991e-001, 3.79866987e-001, 3.63467991e-001,
          3.16794008e-001, 2.50239015e-001, 2.57360995e-001,
          2.48665005e-001, 3.16794008e-001, 3.03790003e-001,
          3.07770997e-001, 3.04618001e-001 ]
      - [ 5.49085975e-001, 5.47944009e-001, 4.93149996e-001,
          4.28443998e-001, 3.71636003e-001, 3.74536008e-001,
          4.39033002e-001, 5.08002996e-001, 5.53295970e-001,
          5.61474979e-001, 0., 1.07763998e-001, 8.11880007e-002,
          8.34662020e-002, 8.40836018e-002, 1.13839000e-001,
          3.97870004e-001, 3.72556001e-001, 3.37576002e-001,
          2.87892014e-001, 3.15214992e-001, 3.52719009e-001,
          2.98361003e-001, 3.45779985e-001, 3.86215001e-001,
          4.14494991e-001, 3.61153990e-001, 3.24752003e-001,
          2.56666988e-001, 1.90583006e-001, 1.55605003e-001,
          1.66995004e-001, 1.60260007e-001, 1.97163001e-001,
          2.72585005e-001, 2.82308996e-001, 2.94802994e-001,
          2.94586986e-001, 2.89153993e-001, 2.77289003e-001,
          2.42151007e-001, 2.07460001e-001, 2.11119995e-001,
          2.12227002e-001, 2.53313005e-001, 2.22856998e-001,
          2.25850001e-001, 2.21781000e-001 ]
      - [ 5.43945014e-001, 5.42406976e-001, 5.00392973e-001,
          4.38412994e-001, 3.73970002e-001, 3.77034992e-001,
          4.33495998e-001, 4.95912999e-001, 5.37793994e-001,
          5.37119985e-001, 0., 1.15111001e-001, 8.61899033e-002,
          7.91274011e-002, 8.33024979e-002, 1.11042000e-001,
          3.98710996e-001, 3.72063011e-001, 3.33153009e-001,
          2.80304998e-001, 3.05074990e-001, 3.46653998e-001,
          2.82628000e-001, 3.33153009e-001, 3.65433991e-001,
          3.92120004e-001, 3.43154997e-001, 3.05074990e-001,
          2.89106011e-001, 2.18272001e-001, 1.78394005e-001,
          1.87685996e-001, 1.77349001e-001, 2.22749993e-001,
          3.04084003e-001, 2.82362014e-001, 2.64712006e-001,
          2.61736989e-001, 2.60545999e-001, 2.73056000e-001,
          2.71820992e-001, 2.41105005e-001, 2.41989002e-001,
          2.40333006e-001, 2.80647010e-001, 1.96645007e-001,
          1.97558999e-001, 1.92780003e-001 ]
      - [ 5.00409007e-001, 5.06874979e-001, 4.61840004e-001,
          3.98918986e-001, 3.35390002e-001, 3.37125987e-001,
          4.05452996e-001, 4.78836000e-001, 5.27342975e-001,
          5.33632994e-001, 0., 1.05985001e-001, 8.65287036e-002,
          8.50844011e-002, 9.24846977e-002, 1.26783997e-001,
          3.73429000e-001, 3.54496002e-001, 3.19629014e-001,
          2.55816996e-001, 2.69344002e-001, 3.13055009e-001,
          2.66146004e-001, 3.32381010e-001, 3.73854011e-001,
          3.90569001e-001, 3.32753986e-001, 2.85369992e-001,
          2.66146004e-001, 2.10454002e-001, 1.75889000e-001,
          1.88895002e-001, 1.84001997e-001, 2.36907005e-001,
          3.10009986e-001, 3.09201986e-001, 3.03140014e-001,
          3.01477998e-001, 2.92712003e-001, 2.86823988e-001,
          2.53235996e-001, 2.22523004e-001, 2.31080994e-001,
          2.33532995e-001, 2.90663987e-001, 2.42636994e-001,
          2.45152995e-001, 2.31868997e-001 ]
      - [ 5.24722993e-001, 5.32679975e-001, 5.21461010e-001,
          4.82629001e-001, 4.25810009e-001, 3.90679985e-001,
          4.12757009e-001, 4.18155015e-001, 4.18186009e-001,
          4.12366986e-001, 0., 9.21543017e-002, 6.69953004e-002,
          7.31910989e-002, 8.06765035e-002, 9.70925018e-002,
          3.60459000e-001, 3.63043994e-001, 3.25228989e-001,
          2.55062997e-001, 2.68427998e-001, 3.10719013e-001,
          2.10043997e-001, 2.71663010e-001, 2.98269987e-001,
          2.99127996e-001, 2.47113004e-001, 2.10990995e-001,
          2.17714995e-001, 1.68800995e-001, 1.40841007e-001,
          1.52797997e-001, 1.61138996e-001, 2.03035995e-001,
          2.65643001e-001, 2.62495011e-001, 2.54476994e-001,
          2.47849002e-001, 2.38204002e-001, 2.21686006e-001,
          2.05700994e-001, 1.85071006e-001, 1.94475994e-001,
          2.02470005e-001, 2.50102997e-001, 2.02470005e-001,
          1.95215002e-001, 1.86774999e-001 ]
      - [ 4.05261010e-001, 3.99053991e-001, 3.81336004e-001,
          3.36632013e-001, 2.77260989e-001, 2.54575998e-001,
          2.99248993e-001, 3.32715988e-001, 3.23980004e-001,
          3.09074998e-001, 0., 1.41455993e-001, 1.25403002e-001,
          1.16352998e-001, 1.04690999e-001, 9.87363011e-002,
          2.66678989e-001, 2.39794999e-001, 2.09270999e-001,
          1.65377006e-001, 1.85981005e-001, 2.25900993e-001,
          9.86535996e-002, 1.27410993e-001, 1.41185001e-001,
          1.42330006e-001, 1.18897997e-001, 9.51007977e-002,
          3.23404014e-001, 2.32275993e-001, 1.85671002e-001,
          1.88797995e-001, 1.76538005e-001, 2.08443999e-001,
          2.77458012e-001, 2.34321997e-001, 2.33695000e-001,
          2.39868000e-001, 2.43753001e-001, 2.69371003e-001,
          2.97062010e-001, 2.34549001e-001, 2.29997993e-001,
          2.28460997e-001, 2.60217011e-001, 1.86922997e-001,
          1.99084997e-001, 2.03220993e-001 ]
      - [ 5.06968021e-001, 5.02268016e-001, 4.60303992e-001,
          4.03261006e-001, 3.43890011e-001, 3.39129001e-001,
          3.82171988e-001, 4.15024996e-001, 4.36627001e-001,
          4.30516988e-001, 0., 1.22093998e-001, 9.53176022e-002,
          9.17870030e-002, 8.24678019e-002, 9.63360965e-002,
          3.86132985e-001, 3.60224009e-001, 3.23307991e-001,
          2.61772007e-001, 2.90170997e-001, 3.30805987e-001,
          2.30529994e-001, 2.86442012e-001, 3.13082993e-001,
          3.28386992e-001, 2.85194010e-001, 2.48435006e-001,
          3.00152004e-001, 2.19358996e-001, 1.68769002e-001,
          1.68950006e-001, 1.61249995e-001, 2.02251002e-001,
          2.74331987e-001, 3.11872989e-001, 3.32448006e-001,
          3.38229001e-001, 3.41086000e-001, 3.29935014e-001,
          2.84987986e-001, 2.09139004e-001, 2.07544997e-001,
          2.03512996e-001, 2.57652014e-001, 2.56729990e-001,
          2.65720993e-001, 2.64838994e-001 ]
      - [ 4.98398989e-001, 4.90009993e-001, 4.51353997e-001,
          4.07072991e-001, 3.53855014e-001, 3.53112012e-001,
          4.03277010e-001, 4.44424987e-001, 4.82856989e-001,
          4.81027991e-001, 0., 1.47823006e-001, 1.25974998e-001,
          1.20938003e-001, 1.20716996e-001, 1.39634997e-001,
          3.67226005e-001, 3.50436985e-001, 3.06152999e-001,
          2.34383002e-001, 2.60244995e-001, 3.08957994e-001,
          2.28872001e-001, 3.03140014e-001, 3.45580995e-001,
          3.63914996e-001, 3.07651997e-001, 2.57732004e-001,
          3.69679004e-001, 2.83814013e-001, 2.29607999e-001,
          2.29903996e-001, 2.23860994e-001, 2.80164987e-001,
          3.59757006e-001, 3.79303008e-001, 3.83046001e-001,
          3.83044004e-001, 3.84838998e-001, 3.84835005e-001,
          3.52425009e-001, 2.72671998e-001, 2.74152011e-001,
          2.71138012e-001, 3.41004997e-001, 3.10793012e-001,
          3.10497999e-001, 3.12866986e-001 ]
      - [ 4.39199001e-001, 4.29484010e-001, 3.90163004e-001,
          3.39794993e-001, 2.80986995e-001, 2.87667990e-001,
          3.44258994e-001, 4.04282004e-001, 4.56690997e-001,
          4.81251001e-001, 0., 1.33116007e-001, 1.17206000e-001,
          1.20828003e-001, 1.23891003e-001, 1.44424006e-001,
          3.27679992e-001, 3.08396012e-001, 2.65855998e-001,
          2.10288003e-001, 2.34432995e-001, 2.78679997e-001,
          2.28832006e-001, 2.90437996e-001, 3.35938007e-001,
          3.66609991e-001, 3.09309989e-001, 2.61943996e-001,
          3.54945004e-001, 2.75599986e-001, 2.20577002e-001,
          2.29986995e-001, 2.29105994e-001, 2.89362997e-001,
          3.90691012e-001, 4.18918014e-001, 4.26165998e-001,
          4.25395012e-001, 4.23671007e-001, 4.01993006e-001,
          3.41342002e-001, 2.70806015e-001, 2.70215005e-001,
          2.78865010e-001, 3.71551007e-001, 3.57385010e-001,
          3.56424004e-001, 3.55480999e-001 ]
      - [ 5.31154990e-001, 5.40400982e-001, 5.03583014e-001,
          4.42510009e-001, 3.79417986e-001, 3.84180993e-001,
          4.49326992e-001, 5.09135008e-001, 5.44993997e-001,
          5.33773005e-001, 0., 1.21683002e-001, 9.28751007e-002,
          9.05141979e-002, 9.56709012e-002, 1.21683002e-001,
          3.99832010e-001, 3.85996014e-001, 3.49043012e-001,
          2.83217013e-001, 3.11580986e-001, 3.52483004e-001,
          2.78625011e-001, 3.41639996e-001, 3.82120997e-001,
          3.96593004e-001, 3.48966986e-001, 3.07597011e-001,
          3.41080010e-001, 2.44330004e-001, 1.85653001e-001,
          1.81105003e-001, 1.83624998e-001, 2.44330004e-001,
          3.44518989e-001, 3.49325001e-001, 3.43445003e-001,
          3.40759009e-001, 3.43445003e-001, 3.46893996e-001,
          3.19664001e-001, 2.20355004e-001, 2.18362004e-001,
          2.18649000e-001, 3.26534003e-001, 2.80043006e-001,
          2.76917011e-001, 2.81376988e-001 ]
      - [ 4.52589005e-001, 4.61603999e-001, 4.40369010e-001,
          3.84734988e-001, 3.17842990e-001, 3.17979991e-001,
          3.87261003e-001, 4.42144990e-001, 4.64832991e-001,
          4.54910994e-001, 0., 1.49515003e-001, 1.35370001e-001,
          1.32613003e-001, 1.35370001e-001, 1.49515003e-001,
          3.17447990e-001, 2.99266994e-001, 2.47751996e-001,
          1.68745995e-001, 2.11005002e-001, 2.67650008e-001,
          1.68745995e-001, 2.47751996e-001, 2.93651015e-001,
          3.23107004e-001, 2.65747011e-001, 2.08462000e-001,
          3.83607000e-001, 2.91601002e-001, 2.37387002e-001,
          2.34677002e-001, 2.35011995e-001, 2.84563005e-001,
          3.77981991e-001, 3.78697991e-001, 3.70691001e-001,
          3.72370005e-001, 3.78078997e-001, 3.88761014e-001,
          3.67305994e-001, 2.77034998e-001, 2.70372987e-001,
          2.75002003e-001, 3.57829005e-001, 3.25275004e-001,
          3.26469988e-001, 3.32008004e-001 ]
      - [ 5.21890998e-001, 5.12691975e-001, 4.59443986e-001,
          3.96640003e-001, 3.41506004e-001, 3.43145996e-001,
          4.01542991e-001, 4.62574005e-001, 5.17409027e-001,
          5.30390024e-001, 0., 1.21330999e-001, 9.68912020e-002,
          1.03237003e-001, 1.08315997e-001, 1.30005002e-001,
          3.90267015e-001, 3.77332002e-001, 3.33178014e-001,
          2.64084995e-001, 2.88780987e-001, 3.36661011e-001,
          2.62762994e-001, 3.33723992e-001, 3.81366014e-001,
          3.96144003e-001, 3.41010988e-001, 2.92643994e-001,
          3.49849999e-001, 2.62284011e-001, 1.99984998e-001,
          2.06313998e-001, 2.04054996e-001, 2.75209010e-001,
          3.68815988e-001, 3.86444002e-001, 3.92957985e-001,
          3.91157001e-001, 3.88727009e-001, 3.82528007e-001,
          3.32661986e-001, 2.57634997e-001, 2.57892013e-001,
          2.61795998e-001, 3.52441996e-001, 3.07819009e-001,
          3.05198997e-001, 3.04515004e-001 ]
      - [ 5.50342023e-001, 5.49813986e-001, 5.10517001e-001,
          4.45822001e-001, 3.54882985e-001, 3.03907990e-001,
          3.37770998e-001, 3.54824990e-001, 3.52155000e-001,
