%YAML:1.0
opencv_ml_svm:
   format: 3
   svmType: C_SVC
   kernel:
      type: POLY
      degree: 1.0000000000000000e-002
      gamma: 1.0000000000000001e-005
      coef0: 1.0000000000000001e-001
   C: 1.0000000000000001e-001
   term_criteria: { epsilon:1.1920928955078125e-007, iterations:1000 }
   var_count: 96
   class_count: 7
   class_labels: !!opencv-matrix
      rows: 7
      cols: 1
      dt: i
      data: [ 0, 1, 2, 3, 4, 5, 6 ]
   sv_total: 193
   support_vectors:
      - [ 5.38785011e-002, 7.96265006e-002, 1.16045997e-001,
          2.09544003e-002, 2.07224995e-001, 1.25725996e-002,
          3.02547991e-001, 2.51451991e-002, 3.97872001e-001,
          5.02903983e-002, 5.47074020e-001, 4.60995995e-002,
          6.46542013e-001, 2.09544003e-002, 7.54298985e-001,
          1.25725996e-002, 8.53766978e-001, 2.93361004e-002,
          9.28367019e-001, 9.21991989e-002, 4.72472996e-001,
          4.31659997e-001, 3.73005003e-001, 4.98714000e-001,
          4.22738999e-001, 5.15477002e-001, 4.80762005e-001,
          5.28050005e-001, 5.34640014e-001, 5.11286020e-001,
          5.88518977e-001, 4.94522989e-001, 1.45056993e-001,
          1.59253001e-001, 2.03079998e-001, 1.29916996e-001,
          2.65248001e-001, 1.29916996e-001, 3.39848995e-001,
          1.63443998e-001, 2.65248001e-001, 1.71826005e-001,
          2.03079998e-001, 1.76017001e-001, 6.21675014e-001,
          1.63443998e-001, 6.92130983e-001, 1.29916996e-001,
          7.58442998e-001, 1.34108007e-001, 8.20611000e-001,
          1.63443998e-001, 7.58442998e-001, 1.76017001e-001,
          6.92130983e-001, 1.71826005e-001, 3.02547991e-001,
          6.70539021e-001, 3.73005003e-001, 6.45394027e-001,
          4.39316988e-001, 6.32821023e-001, 4.84905988e-001,
          6.41202986e-001, 5.26350975e-001, 6.28630996e-001,
          6.00952029e-001, 6.41202986e-001, 6.87986970e-001,
          6.70539021e-001, 6.09241009e-001, 7.08257020e-001,
          5.38784981e-001, 7.25021005e-001, 4.89051014e-001,
          7.29210973e-001, 4.39316988e-001, 7.25021005e-001,
          3.73005003e-001, 7.08257020e-001, 3.31559986e-001,
          6.66347980e-001, 4.35171992e-001, 6.57966971e-001,
          4.84905988e-001, 6.70539021e-001, 5.30496001e-001,
          6.62158012e-001, 6.58975005e-001, 6.66347980e-001,
          5.30496001e-001, 6.57966971e-001, 4.89051014e-001,
          6.66347980e-001, 4.39316988e-001, 6.57966971e-001 ]
      - [ 1.33314997e-001, 6.00894988e-002, 2.11081997e-001,
          2.31113993e-002, 2.96256006e-001, 2.77335998e-002,
          3.77725989e-001, 7.85785988e-002, 4.40679997e-001,
          1.66401997e-001, 5.29556990e-001, 2.44979993e-001,
          5.88808000e-001, 2.21869007e-001, 6.51763022e-001,
          2.31114000e-001, 7.03607023e-001, 2.81958997e-001,
          7.33232975e-001, 3.60536993e-001, 4.44384009e-001,
          5.45427978e-001, 3.22178006e-001, 5.96273005e-001,
          3.62913013e-001, 6.24006987e-001, 4.03647989e-001,
          6.51740015e-001, 4.48087007e-001, 6.51740015e-001,
          4.88822013e-001, 6.51740015e-001, 2.11081997e-001,
          2.12624997e-001, 2.70332992e-001, 2.12624997e-001,
          3.22178006e-001, 2.40357995e-001, 3.55506986e-001,
          3.00448000e-001, 3.07365000e-001, 2.95825005e-001,
          2.55520999e-001, 2.72713989e-001, 5.14743984e-001,
          4.16004986e-001, 5.70291996e-001, 4.02137995e-001,
          6.18434012e-001, 4.25249010e-001, 6.44356012e-001,
          4.62226987e-001, 6.03621006e-001, 4.80715990e-001,
          5.59183002e-001, 4.57605004e-001, 2.14784995e-001,
          7.16452003e-001, 2.88848996e-001, 7.16452003e-001,
          3.48100007e-001, 7.16452003e-001, 3.74022990e-001,
          7.44185984e-001, 4.11054999e-001, 7.44185984e-001,
          4.40679997e-001, 7.85785973e-001, 4.70306009e-001,
          8.36631000e-001, 4.14757997e-001, 8.59742999e-001,
          3.74022990e-001, 8.64364982e-001, 3.36991012e-001,
          8.55120003e-001, 3.07365000e-001, 8.27386975e-001,
          2.62926996e-001, 7.76542008e-001, 2.37004995e-001,
          7.30319023e-001, 3.36991012e-001, 7.76542008e-001,
          3.62913013e-001, 7.99652994e-001, 3.96241993e-001,
          8.08897972e-001, 4.48087007e-001, 8.22764993e-001,
          3.88835996e-001, 7.81163990e-001, 3.59210014e-001,
          7.71920025e-001, 3.29584002e-001, 7.53430009e-001 ]
      - [ 9.33722034e-002, 5.20789996e-002, 1.72001004e-001, 0.,
          2.65374005e-001, 5.20789996e-003, 3.58745992e-001,
          3.64552997e-002, 4.52118009e-001, 6.77027032e-002,
          5.55319011e-001, 6.77027032e-002, 6.48690999e-001,
          3.12473997e-002, 7.42062986e-001, 5.20789996e-003,
          8.35435987e-001, 1.04157999e-002, 9.09150004e-001,
          6.24947995e-002, 5.01260996e-001, 3.80176991e-001,
          3.98059994e-001, 4.79126990e-001, 4.52118009e-001,
          4.89542991e-001, 5.06175995e-001, 4.99958992e-001,
          5.60232997e-001, 4.89542991e-001, 6.09377027e-001,
          4.79126990e-001, 1.91659003e-001, 1.61445007e-001,
          2.50631005e-001, 1.30198002e-001, 3.19431007e-001,
          1.30198002e-001, 3.83318007e-001, 1.71860993e-001,
          3.19431007e-001, 1.92691997e-001, 2.50631005e-001,
          1.92691997e-001, 6.24119997e-001, 1.77068993e-001,
          6.88005984e-001, 1.30198002e-001, 7.56806016e-001,
          1.35405004e-001, 8.15778017e-001, 1.66653007e-001,
          7.61721015e-001, 1.97899997e-001, 6.88005984e-001,
          1.92691997e-001, 3.19431007e-001, 6.77026987e-001,
          4.02974993e-001, 6.45780027e-001, 4.61946994e-001,
          6.24948025e-001, 5.01260996e-001, 6.40572011e-001,
          5.45490026e-001, 6.24948025e-001, 6.09377027e-001,
          6.50987983e-001, 6.88005984e-001, 6.82235003e-001,
          6.14291012e-001, 7.23899007e-001, 5.50405025e-001,
          7.39521980e-001, 5.11089981e-001, 7.44729996e-001,
          4.66861010e-001, 7.39521980e-001, 4.02974993e-001,
          7.23899007e-001, 3.53832006e-001, 6.82235003e-001,
          4.61946994e-001, 6.71819985e-001, 5.06175995e-001,
          6.82235003e-001, 5.45490026e-001, 6.71819985e-001,
          6.53604984e-001, 6.82235003e-001, 5.50405025e-001,
          6.71819985e-001, 5.06175995e-001, 6.77026987e-001,
          4.66861010e-001, 6.66612029e-001 ]
      - [ 1.56823993e-001, 4.07515988e-002, 2.30335996e-001,
          -1.74649991e-002, 3.13648999e-001, -1.16432998e-002,
          3.92060995e-001, 1.74649991e-002, 4.65572000e-001,
          5.82166016e-002, 5.78289986e-001, 8.15033019e-002,
          6.46900058e-001, 5.82166016e-002, 7.25313008e-001,
          5.82166016e-002, 7.98824012e-001, 8.15033019e-002,
          8.47832024e-001, 1.45541996e-001, 4.80275005e-001,
          3.66764992e-001, 3.87160003e-001, 4.65732992e-001,
          4.21465009e-001, 4.83197987e-001, 4.60671991e-001,
          4.94841009e-001, 4.99877989e-001, 4.94841009e-001,
          5.39084017e-001, 4.94841009e-001, 2.35237002e-001,
          1.63007006e-001, 2.89144993e-001, 1.51363000e-001,
          3.47954005e-001, 1.63007006e-001, 3.87160003e-001,
          2.15402007e-001, 3.33252013e-001, 2.21222997e-001,
          2.79343009e-001, 2.03758001e-001, 5.97893000e-001,
          2.56152987e-001, 6.46900058e-001, 2.21222997e-001,
          7.00809002e-001, 2.38688007e-001, 7.40014970e-001,
          2.67796010e-001, 6.95908010e-001, 2.91083008e-001,
          6.46900058e-001, 2.85261005e-001, 3.03846985e-001,
          6.92777991e-001, 3.62655997e-001, 6.34561002e-001,
          4.16565001e-001, 6.11275017e-001, 4.45968986e-001,
          6.28740013e-001, 4.80275005e-001, 6.17096007e-001,
          5.29281974e-001, 6.69490993e-001, 5.78289986e-001,
          7.39350975e-001, 5.24380982e-001, 7.74281025e-001,
          4.75374013e-001, 7.85924017e-001, 4.36167985e-001,
          7.80103028e-001, 4.01861995e-001, 7.68459022e-001,
          3.52854997e-001, 7.39350975e-001, 3.28350991e-001,
          6.92777991e-001, 4.11664009e-001, 6.81134999e-001,
          4.41069007e-001, 6.92777991e-001, 4.80275005e-001,
          6.92777991e-001, 5.58686972e-001, 7.33529985e-001,
          4.80275005e-001, 6.98599994e-001, 4.45968986e-001,
          6.92777991e-001, 4.11664009e-001, 6.86955988e-001 ]
      - [ 8.99095014e-002, 6.30078018e-002, 1.59839004e-001,
          5.72797982e-003, 2.49749005e-001, 5.72797982e-003,
          3.34663004e-001, 3.43679003e-002, 4.19577986e-001,
          7.44637027e-002, 5.44452012e-001, 7.44637027e-002,
          6.34361029e-001, 4.00958993e-002, 7.24270999e-001,
          5.72797982e-003, 8.14180017e-001, 1.14559997e-002,
          8.84109974e-001, 7.44637027e-002, 4.74521995e-001,
          3.83774996e-001, 3.69628012e-001, 4.46781993e-001,
          4.19577986e-001, 4.63966012e-001, 4.69527006e-001,
          4.69693989e-001, 5.24471998e-001, 4.63966012e-001,
          5.74422002e-001, 4.46781993e-001, 1.84814006e-001,
          1.54654995e-001, 2.44754001e-001, 1.37471005e-001,
          2.99697995e-001, 1.37471005e-001, 3.49647999e-001,
          1.66111007e-001, 2.94703007e-001, 1.71838999e-001,
          2.39758998e-001, 1.77567005e-001, 6.09386027e-001,
          1.66111007e-001, 6.64331019e-001, 1.37471005e-001,
          7.19276011e-001, 1.37471005e-001, 7.74219990e-001,
          1.54654995e-001, 7.19276011e-001, 1.77567005e-001,
          6.64331019e-001, 1.77567005e-001, 3.19678009e-001,
          6.52989984e-001, 3.74623001e-001, 5.95709980e-001,
          4.34561998e-001, 5.72798014e-001, 4.69527006e-001,
          5.84254026e-001, 5.09486973e-001, 5.72798014e-001,
          5.64432025e-001, 5.95709980e-001, 6.19376004e-001,
          6.47261977e-001, 5.64432025e-001, 7.04541028e-001,
          5.09486973e-001, 7.33181000e-001, 4.69527006e-001,
          7.38909006e-001, 4.29567009e-001, 7.33181000e-001,
          3.74623001e-001, 7.10268974e-001, 3.44653010e-001,
          6.47261977e-001, 4.29567009e-001, 6.35806024e-001,
          4.69527006e-001, 6.41533971e-001, 5.09486973e-001,
          6.35806024e-001, 5.94401002e-001, 6.47261977e-001,
          5.09486973e-001, 6.47261977e-001, 4.69527006e-001,
          6.58717990e-001, 4.34561998e-001, 6.52989984e-001 ]
      - [ 7.40363970e-002, 8.11642036e-002, 1.32208005e-001,
          2.31897999e-002, 2.22109005e-001, 1.15948999e-002,
          3.12011003e-001, 2.31897999e-002, 4.01912004e-001,
          5.79744987e-002, 5.02390027e-001, 6.95692971e-002,
          5.92290998e-001, 2.31897999e-002, 6.87480986e-001,
          5.79744019e-003, 7.82670975e-001, 1.73923001e-002,
          8.61994982e-001, 6.95692971e-002, 4.44218010e-001,
          3.47847015e-001, 3.70182008e-001, 4.29010987e-001,
          4.07200009e-001, 4.40605998e-001, 4.49506998e-001,
          4.46402997e-001, 4.91813004e-001, 4.34807986e-001,
          5.34120023e-001, 4.23213005e-001, 1.74513996e-001,
          1.39138997e-001, 2.27397993e-001, 1.10151000e-001,
          2.85569012e-001, 1.10151000e-001, 3.38452011e-001,
          1.44935995e-001, 2.85569012e-001, 1.56531006e-001,
          2.27397993e-001, 1.62328005e-001, 5.87002993e-001,
          1.39138997e-001, 6.39886022e-001, 1.04354002e-001,
          6.98058009e-001, 1.10151000e-001, 7.56228983e-001,
          1.33340999e-001, 7.03346014e-001, 1.50734007e-001,
          6.39886022e-001, 1.50734007e-001, 2.80281007e-001,
          6.14529014e-001, 3.43739986e-001, 5.79744995e-001,
          4.07200009e-001, 5.56554973e-001, 4.49506998e-001,
          5.68149984e-001, 4.91813004e-001, 5.62352002e-001,
          5.55272996e-001, 5.79744995e-001, 6.29308999e-001,
          6.08731985e-001, 5.55272996e-001, 6.72504008e-001,
          4.91813004e-001, 6.95693016e-001, 4.44218010e-001,
          6.95693016e-001, 4.01912004e-001, 6.95693016e-001,
          3.43739986e-001, 6.72504008e-001, 3.06721985e-001,
          6.14529014e-001, 4.07200009e-001, 6.02934003e-001,
          4.49506998e-001, 6.08731985e-001, 4.91813004e-001,
          6.02934003e-001, 5.97580016e-001, 6.08731985e-001,
          4.86524999e-001, 6.20326996e-001, 4.49506998e-001,
          6.26124024e-001, 4.01912004e-001, 6.20326996e-001 ]
      - [ 1.24245003e-001, 1.66262999e-001, 1.81189999e-001,
          1.24697000e-001, 2.48488992e-001, 1.36573002e-001,
          3.15789014e-001, 1.54386997e-001, 3.83087993e-001,
          1.95952997e-001, 5.22862971e-001, 2.01891005e-001,
          5.84985018e-001, 1.72200993e-001, 6.52284980e-001,
          1.48449004e-001, 7.19583988e-001, 1.48449004e-001,
          7.81705976e-001, 1.78139001e-001, 4.55563992e-001,
          5.64105988e-001, 3.83087993e-001, 6.23485982e-001,
          4.19326007e-001, 6.29423976e-001, 4.60741013e-001,
          6.35362029e-001, 4.96978998e-001, 6.23485982e-001,
          5.33217013e-001, 6.17547989e-001, 2.12250993e-001,
          2.85021991e-001, 2.58843005e-001, 2.73146003e-001,
          3.10611993e-001, 2.73146003e-001, 3.52026999e-001,
          3.14711988e-001, 3.05435002e-001, 3.20650011e-001,
          2.53666013e-001, 3.14711988e-001, 5.64278007e-001,
          3.20650011e-001, 6.05692983e-001, 2.85021991e-001,
          6.57460988e-001, 2.85021991e-001, 7.04052985e-001,
          3.02836001e-001, 6.62638009e-001, 3.26588005e-001,
          6.10870004e-001, 3.32525998e-001, 3.20964992e-001,
          7.71934986e-001, 3.72734010e-001, 7.36307025e-001,
          4.24502999e-001, 7.06616998e-001, 4.60741013e-001,
          7.12554991e-001, 5.02156019e-001, 7.00679004e-001,
          5.59100986e-001, 7.24430978e-001, 6.16046011e-001,
          7.65996993e-001, 5.69455028e-001, 7.89749026e-001,
          5.12508988e-001, 8.01625013e-001, 4.71094012e-001,
          8.07563007e-001, 4.34855998e-001, 8.13501000e-001,
          3.72734010e-001, 8.07563007e-001, 3.41672987e-001,
          7.71934986e-001, 4.29679006e-001, 7.42245018e-001,
          4.65918005e-001, 7.42245018e-001, 5.02156019e-001,
          7.36307025e-001, 5.90161979e-001, 7.60058999e-001,
          5.07332027e-001, 7.42245018e-001, 4.71094012e-001,
          7.48183012e-001, 4.34855998e-001, 7.48183012e-001 ]
      - [ 1.01458997e-001, 4.72452007e-002, 1.69098005e-001,
          -2.09977999e-002, 2.60895014e-001, -3.14968005e-002,
          3.57522011e-001, 0., 4.44487005e-001, 4.72452007e-002,
          5.60440004e-001, 5.24946004e-002, 6.57068014e-001,
          2.09977999e-002, 7.48863995e-001, 5.24946023e-003,
          8.35829020e-001, 2.62473002e-002, 8.98636997e-001,
          8.92407969e-002, 5.02463996e-001, 4.09458011e-001,
          4.01005000e-001, 4.56703007e-001, 4.49319005e-001,
          4.77701008e-001, 5.02463996e-001, 4.98699009e-001,
          5.55608988e-001, 4.82950002e-001, 6.03923023e-001,
          4.67202008e-001, 2.17411995e-001, 1.52234003e-001,
          2.70556986e-001, 1.25986993e-001, 3.28534007e-001,
          1.20738000e-001, 3.81678998e-001, 1.52234003e-001,
          3.28534007e-001, 1.62733003e-001, 2.70556986e-001,
          1.67982996e-001, 6.28080010e-001, 1.62733003e-001,
          6.81225002e-001, 1.36485994e-001, 7.44032979e-001,
          1.41735002e-001, 7.97177970e-001, 1.67982996e-001,
          7.44032979e-001, 1.83731005e-001, 6.86056018e-001,
          1.78481996e-001, 3.09208989e-001, 6.19436026e-001,
          3.81678998e-001, 6.03688002e-001, 4.49319005e-001,
          5.98438978e-001, 4.97631997e-001, 6.19436026e-001,
          5.41114986e-001, 6.08937979e-001, 6.13586009e-001,
          6.24686003e-001, 6.86056018e-001, 6.35185003e-001,
          6.13586009e-001, 6.92928970e-001, 5.36284029e-001,
          7.19175994e-001, 4.87969995e-001, 7.19175994e-001,
          4.39655989e-001, 7.13926971e-001, 3.72016996e-001,
          6.82430029e-001, 3.33364993e-001, 6.24686003e-001,
          4.49319005e-001, 6.50933027e-001, 4.97631997e-001,
          6.61432028e-001, 5.41114986e-001, 6.56183004e-001,
          6.61899984e-001, 6.40434027e-001, 5.36284029e-001,
          6.45684004e-001, 4.92801011e-001, 6.50933027e-001,
          4.44487005e-001, 6.40434027e-001 ]
      - [ 8.49483982e-002, 5.20871989e-002, 1.54906005e-001,
          -1.73624009e-002, 2.34856993e-001, -3.47248018e-002,
          3.29800010e-001, -2.31497996e-002, 4.14748013e-001,
          1.15748998e-002, 5.49665987e-001, 2.31497996e-002,
          6.34615004e-001, -1.73624009e-002, 7.14565992e-001,
          -2.89373007e-002, 7.94516981e-001, -1.73624009e-002,
          8.59477997e-001, 4.62996997e-002, 4.89703000e-001,
          3.29885006e-001, 3.94760013e-001, 4.45634991e-001,
          4.39732999e-001, 4.57208991e-001, 4.89703000e-001,
          4.62996989e-001, 5.29677987e-001, 4.57208991e-001,
          5.74651003e-001, 4.45634991e-001, 1.89885005e-001,
          1.38898998e-001, 2.49847993e-001, 1.04174003e-001,
          3.14808995e-001, 9.83868018e-002, 3.64778012e-001,
          1.44686997e-001, 3.09812009e-001, 1.62048995e-001,
          2.49847993e-001, 1.67835996e-001, 5.94639003e-001,
          1.50473997e-001, 6.49604976e-001, 1.04174003e-001,
          7.14565992e-001, 1.09962001e-001, 7.69532979e-001,
          1.50473997e-001, 7.14565992e-001, 1.73623994e-001,
          6.54601991e-001, 1.67835996e-001, 3.14808995e-001,
          6.30832970e-001, 3.84766012e-001, 5.72959006e-001,
          4.44730014e-001, 5.38233995e-001, 4.84706014e-001,
          5.49808979e-001, 5.29677987e-001, 5.38233995e-001,
          5.89641988e-001, 5.72959006e-001, 6.44608021e-001,
          6.30832970e-001, 5.94639003e-001, 6.77133024e-001,
          5.34675002e-001, 6.94495022e-001, 4.89703000e-001,
          7.00282991e-001, 4.44730014e-001, 6.94495022e-001,
          3.84766012e-001, 6.82919979e-001, 3.44790995e-001,
          6.30832970e-001, 4.44730014e-001, 6.01895988e-001,
          4.89703000e-001, 6.07683003e-001, 5.29677987e-001,
          6.01895988e-001, 6.24620974e-001, 6.25046015e-001,
          5.34675002e-001, 6.25046015e-001, 4.89703000e-001,
          6.30832970e-001, 4.44730014e-001, 6.25046015e-001 ]
      - [ 1.00876004e-001, 1.18749999e-001, 1.66665003e-001,
          2.47396007e-002, 2.67540991e-001, -1.97916999e-002,
          3.68416995e-001, 0., 4.60521013e-001, 5.44270985e-002,
          6.18413985e-001, 4.94792014e-002, 7.10519016e-001,
          9.89583973e-003, 8.07008982e-001, 0., 8.90340984e-001,
          3.95833999e-002, 9.38585997e-001, 1.33594006e-001,
          5.61397016e-001, 3.90886009e-001, 4.56135005e-001,
          4.79948014e-001, 5.04379988e-001, 4.84896004e-001,
          5.52626014e-001, 4.89843994e-001, 6.00871027e-001,
          4.79948014e-001, 6.35958016e-001, 4.70052004e-001,
          2.32454002e-001, 1.68228999e-001, 2.85084993e-001,
          1.18749999e-001, 3.46486986e-001, 1.13802001e-001,
          4.03504014e-001, 1.63280994e-001, 3.50872993e-001,
          1.78124994e-001, 2.85084993e-001, 1.83072999e-001,
          6.53501987e-001, 1.63280994e-001, 7.10519016e-001,
          1.18749999e-001, 7.71920979e-001, 1.23698004e-001,
          8.20165992e-001, 1.68228999e-001, 7.71920979e-001,
          1.83072999e-001, 7.10519016e-001, 1.78124994e-001,
          3.59645009e-001, 6.43230021e-001, 4.38591987e-001,
          6.13542020e-001, 5.04379988e-001, 5.88802993e-001,
          5.43853998e-001, 6.03645980e-001, 5.87713003e-001,
          5.88802993e-001, 6.49115980e-001, 6.13542020e-001,
          7.10519016e-001, 6.48177981e-001, 6.49115980e-001,
          6.77865028e-001, 5.87713003e-001, 6.92709029e-001,
          5.43853998e-001, 6.97656989e-001, 4.99994993e-001,
          6.97656989e-001, 4.38591987e-001, 6.82812989e-001,
          3.85960996e-001, 6.43230021e-001, 4.99994993e-001,
          6.33333981e-001, 5.43853998e-001, 6.43230021e-001,
          5.87713003e-001, 6.33333981e-001, 6.88588977e-001,
          6.43230021e-001, 5.87713003e-001, 6.33333981e-001,
          5.43853998e-001, 6.43230021e-001, 4.99994993e-001,
          6.33333981e-001 ]
      - [ 8.80922973e-002, 6.67017996e-002, 1.58565998e-001,
          9.52882972e-003, 2.51062989e-001, 4.76441998e-003,
          3.43560010e-001, 1.90577004e-002, 4.36057001e-001,
          5.71729988e-002, 5.72600007e-001, 6.19373992e-002,
          6.60692990e-001, 2.38221008e-002, 7.53189981e-001,
          4.76441998e-003, 8.50090981e-001, 0., 9.24969971e-001,
          5.24085984e-002, 5.10936022e-001, 3.85917991e-001,
          4.22843009e-001, 4.71677005e-001, 4.66888994e-001,
          4.81206000e-001, 5.10936022e-001, 4.85971004e-001,
          5.59386015e-001, 4.81206000e-001, 5.99027991e-001,
          4.71677005e-001, 1.89399004e-001, 1.38168007e-001,
          2.46658996e-001, 1.04817003e-001, 3.17131996e-001,
          1.04817003e-001, 3.78796995e-001, 1.47697002e-001,
          3.12727988e-001, 1.61990002e-001, 2.46658996e-001,
          1.61990002e-001, 6.34265006e-001, 1.47697002e-001,
          7.00334013e-001, 1.00052997e-001, 7.66403019e-001,
          1.04817003e-001, 8.23662996e-001, 1.38168007e-001,
          7.66403019e-001, 1.61990002e-001, 7.00334013e-001,
          1.61990002e-001, 3.34751010e-001, 6.38432026e-001,
          4.00819987e-001, 5.95552027e-001, 4.66888994e-001,
          5.76493979e-001, 5.10936022e-001, 5.95552027e-001,
          5.59386015e-001, 5.81259012e-001, 6.25455976e-001,
          6.00317001e-001, 6.87120020e-001, 6.43195987e-001,
          6.25455976e-001, 6.81312025e-001, 5.59386015e-001,
          7.00369000e-001, 5.10936022e-001, 7.05133975e-001,
          4.62484986e-001, 7.05133975e-001, 3.96416008e-001,
          6.86075985e-001, 3.61178994e-001, 6.33666992e-001,
          4.66888994e-001, 6.19373977e-001, 5.10936022e-001,
          6.28902972e-001, 5.59386015e-001, 6.19373977e-001,
          6.60692990e-001, 6.38432026e-001, 5.59386015e-001,
          6.24139011e-001, 5.10936022e-001, 6.33666992e-001,
          4.62484986e-001, 6.24139011e-001 ]
      - [ 6.38016984e-002, 8.51788968e-002, 1.23350002e-001,
          1.34493001e-002, 2.21178994e-001, 0., 3.19007993e-001,
          2.68986002e-002, 4.16837990e-001, 6.27634004e-002,
          5.31679988e-001, 6.72464967e-002, 6.29509985e-001,
          2.68986002e-002, 7.27339029e-001, 4.48310003e-003,
          8.25168014e-001, 1.79324001e-002, 9.01730001e-001,
          8.51788968e-002, 4.63625014e-001, 3.76580000e-001,
          3.87062997e-001, 4.66241986e-001, 4.25343990e-001,
          4.79692012e-001, 4.63625014e-001, 4.88658011e-001,
          5.10412991e-001, 4.79692012e-001, 5.52947998e-001,
          4.70725000e-001, 1.70138001e-001, 1.47942007e-001,
          2.25433007e-001, 1.12076998e-001, 2.93487996e-001,
          1.12076998e-001, 3.48782003e-001, 1.65875003e-001,
          2.89234012e-001, 1.83807001e-001, 2.21178994e-001,
          1.83807001e-001, 6.08241975e-001, 1.70358002e-001,
          6.67791009e-001, 1.12076998e-001, 7.35845983e-001,
          1.16561003e-001, 7.95394003e-001, 1.52425006e-001,
          7.40099013e-001, 1.88290000e-001, 6.72043979e-001,
          1.88290000e-001, 3.01995009e-001, 6.59015000e-001,
          3.65796000e-001, 6.41083002e-001, 4.25343990e-001,
          6.27633989e-001, 4.63625014e-001, 6.45565987e-001,
          5.06160021e-001, 6.32116973e-001, 5.69961011e-001,
          6.50048971e-001, 6.55030012e-001, 6.67981982e-001,
          5.69961011e-001, 7.17296004e-001, 5.01905978e-001,
          7.35228002e-001, 4.59372014e-001, 7.35228002e-001,
          4.16837990e-001, 7.30745018e-001, 3.61543000e-001,
          7.08329022e-001, 3.27515006e-001, 6.59015000e-001,
          4.25343990e-001, 6.67981982e-001, 4.67878997e-001,
          6.76948011e-001, 5.06160021e-001, 6.72465026e-001,
          6.25256002e-001, 6.67981982e-001, 5.01905978e-001,
          6.81430995e-001, 4.59372014e-001, 6.85913980e-001,
          4.21090990e-001, 6.81430995e-001 ]
      - [ 9.61501002e-002, 1.17205001e-001, 1.65378004e-001,
          3.76731008e-002, 2.61527985e-001, 1.25577003e-002,
          3.61523986e-001, 1.67436004e-002, 4.53828007e-001,
          5.02309017e-002, 5.92284977e-001, 4.60450016e-002,
          6.84589028e-001, 2.09295005e-002, 7.76893020e-001,
          8.37181043e-003, 8.61504972e-001, 3.76731008e-002,
          9.11503017e-001, 1.17205001e-001, 5.49978971e-001,
          3.76731008e-001, 4.38443989e-001, 4.47892010e-001,
          4.88442987e-001, 4.60449994e-001, 5.42286992e-001,
          4.73006994e-001, 5.88438988e-001, 4.64635015e-001,
          6.30744994e-001, 4.52078015e-001, 2.19221994e-001,
          1.59063995e-001, 2.73066014e-001, 1.17205001e-001,
          3.34601998e-001, 1.17205001e-001, 3.92291993e-001,
          1.59063995e-001, 3.38447988e-001, 1.71621993e-001,
          2.73066014e-001, 1.75807998e-001, 6.38436973e-001,
          1.63249999e-001, 6.92281008e-001, 1.17205001e-001,
          7.53817022e-001, 1.17205001e-001, 8.03815007e-001,
          1.59063995e-001, 7.57663012e-001, 1.75807998e-001,
          6.96126997e-001, 1.75807998e-001, 3.38447988e-001,
          6.27885997e-001, 4.07676011e-001, 5.94398975e-001,
          4.73057985e-001, 5.77655017e-001, 5.19210994e-001,
          5.94398975e-001, 5.69208980e-001, 5.77655017e-001,
          6.34590983e-001, 5.98583996e-001, 7.03818977e-001,
          6.15328014e-001, 6.42283022e-001, 6.82303011e-001,
          5.80747008e-001, 7.07418025e-001, 5.26902974e-001,
          7.11603999e-001, 4.76904005e-001, 7.07418025e-001,
          4.07676011e-001, 6.78116977e-001, 3.61523986e-001,
          6.23700023e-001, 4.73057985e-001, 6.15328014e-001,
          5.23056984e-001, 6.27885997e-001, 5.73055029e-001,
          6.15328014e-001, 6.76896989e-001, 6.19513988e-001,
          5.76901019e-001, 6.40443981e-001, 5.23056984e-001,
          6.53001010e-001, 4.76904005e-001, 6.44629002e-001 ]
      - [ 2.43594006e-001, 1.63807005e-001, 2.93992013e-001,
          1.21684998e-001, 3.56990993e-001, 1.31044999e-001,
          4.11588997e-001, 1.63807005e-001, 4.57787991e-001,
          2.24648997e-001, 5.87984025e-001, 2.48050004e-001,
          6.46782994e-001, 2.29329005e-001, 6.97182000e-001,
          2.24648997e-001, 7.51779974e-001, 2.38690004e-001,
          7.85378993e-001, 2.90172011e-001, 5.08186996e-001,
          5.66303015e-001, 4.24189001e-001, 6.08424008e-001,
          4.61988002e-001, 6.22465014e-001, 5.03987014e-001,
          6.36505008e-001, 5.45985997e-001, 6.36505008e-001,
          5.83784997e-001, 6.36505008e-001, 3.19191992e-001,
          2.85490990e-001, 3.61189991e-001, 2.85490990e-001,
          3.94789994e-001, 2.99531996e-001, 4.28389013e-001,
          3.36973011e-001, 3.90590012e-001, 3.27612996e-001,
          3.52791011e-001, 3.13573003e-001, 6.13183975e-001,
          3.79094988e-001, 6.55183017e-001, 3.65054995e-001,
          6.88781977e-001, 3.74415010e-001, 7.22380996e-001,
          3.93135995e-001, 6.88781977e-001, 3.97816002e-001,
          6.50982976e-001, 3.93135995e-001, 3.48591000e-001,
          7.20749021e-001, 3.98988992e-001, 7.02027977e-001,
          4.53588009e-001, 6.92668021e-001, 4.91387010e-001,
          7.11387992e-001, 5.37585974e-001, 7.11387992e-001,
          5.92184007e-001, 7.44149983e-001, 6.38382971e-001,
          7.90952027e-001, 5.96383989e-001, 8.37752998e-001,
          5.33385992e-001, 8.56473982e-001, 4.87186998e-001,
          8.51794004e-001, 4.45187986e-001, 8.37752998e-001,
          3.94789994e-001, 7.95632005e-001, 3.73789996e-001,
          7.30108976e-001, 4.49387997e-001, 7.39470005e-001,
          4.87186998e-001, 7.48830020e-001, 5.33385992e-001,
          7.53509998e-001, 6.13183975e-001, 7.90952027e-001,
          5.33385992e-001, 7.86270976e-001, 4.91387010e-001,
          7.81590998e-001, 4.53588009e-001, 7.72230983e-001 ]
      - [ 1.30694002e-001, 9.64569002e-002, 1.91955999e-001, 0.,
          2.77723998e-001, -3.37598994e-002, 3.67576003e-001,
          -1.44685004e-002, 4.45176005e-001, 3.37598994e-002,
          5.63616991e-001, 4.82284017e-002, 6.33047998e-001,
          1.92914009e-002, 7.06562996e-001, 1.92914009e-002,
          7.71910012e-001, 6.26970008e-002, 8.04583013e-001,
          1.54330999e-001, 5.26858985e-001, 3.76181990e-001,
          4.28838998e-001, 4.91930008e-001, 4.69680995e-001,
          5.01576006e-001, 5.06438017e-001, 5.06398976e-001,
          5.35027027e-001, 5.06398976e-001, 5.63616991e-001,
          5.11220992e-001, 2.40967005e-001, 2.02558994e-001,
          2.94061005e-001, 1.68799996e-001, 3.47155005e-001,
          1.73621997e-001, 3.87997001e-001, 2.26674005e-001,
          3.43071014e-001, 2.36319005e-001, 2.89977014e-001,
          2.31497005e-001, 5.88122010e-001, 2.55611002e-001,
          6.37131989e-001, 2.17028007e-001, 6.86142027e-001,
          2.26674005e-001, 7.18815982e-001, 2.65255988e-001,
          6.82057977e-001, 2.89371014e-001, 6.37131989e-001,
          2.79724985e-001, 3.59407991e-001, 7.42717981e-001,
          4.16586012e-001, 6.70374990e-001, 4.65595990e-001,
          6.36614978e-001, 4.94186014e-001, 6.51084006e-001,
          5.22774994e-001, 6.46260977e-001, 5.51364005e-001,
          6.89666986e-001, 5.67700982e-001, 7.71655023e-001,
          5.43196023e-001, 7.42717981e-001, 5.18691003e-001,
          7.33071983e-001, 4.86016989e-001, 7.33071983e-001,
          4.57428008e-001, 7.33071983e-001, 4.12501991e-001,
          7.37895012e-001, 3.79828990e-001, 7.33071983e-001,
          4.61511999e-001, 6.89666986e-001, 4.90101010e-001,
          6.94490016e-001, 5.22774994e-001, 6.94490016e-001,
          5.51364005e-001, 7.47541010e-001, 5.18691003e-001,
          6.75198019e-001, 4.90101010e-001, 6.75198019e-001,
          4.61511999e-001, 6.75198019e-001 ]
      - [ 3.78752984e-002, 9.36969966e-002, 9.94225964e-002,
          2.67705992e-002, 1.98844999e-001, 0., 2.98267990e-001,
          1.78471003e-002, 3.97689998e-001, 5.80029003e-002,
          5.39722979e-001, 5.80029003e-002, 6.43878996e-001,
          1.78471003e-002, 7.57505000e-001, 4.46176017e-003,
          8.66397023e-001, 3.12322993e-002, 9.42147017e-001,
          1.02620997e-001, 4.54503000e-001, 3.70326012e-001,
          3.59815001e-001, 4.41715002e-001, 4.11893010e-001,
          4.55100000e-001, 4.68706012e-001, 4.68484998e-001,
          5.30254006e-001, 4.59562004e-001, 5.87067008e-001,
          4.46175992e-001, 1.32562995e-001, 1.56161994e-001,
          1.89375997e-001, 1.29391000e-001, 2.55658001e-001,
          1.29391000e-001, 3.31409007e-001, 1.56161994e-001,
          2.60392010e-001, 1.65085003e-001, 1.89375997e-001,
          1.69547006e-001, 6.39145017e-001, 1.65085003e-001,
          7.10160971e-001, 1.38315007e-001, 7.81176984e-001,
          1.42775998e-001, 8.42724979e-001, 1.69547006e-001,
          7.76443005e-001, 1.87393993e-001, 7.05426991e-001,
          1.78470999e-001, 2.84063995e-001, 6.20185018e-001,
          3.59815001e-001, 5.75567007e-001, 4.26097006e-001,
          5.48797011e-001, 4.73441005e-001, 5.66644013e-001,
          5.25519013e-001, 5.48797011e-001, 5.96535027e-001,
          5.80029011e-001, 6.72285974e-001, 6.24647021e-001,
          5.96535027e-001, 6.64803028e-001, 5.25519013e-001,
          6.78188026e-001, 4.73441005e-001, 6.82649970e-001,
          4.21362013e-001, 6.73726022e-001, 3.55080992e-001,
          6.60341024e-001, 3.26674014e-001, 6.20185018e-001,
          4.26097006e-001, 6.06800020e-001, 4.78175014e-001,
          6.15723014e-001, 5.25519013e-001, 6.06800020e-001,
          6.34410977e-001, 6.24647021e-001, 5.20784974e-001,
          6.06800020e-001, 4.73441005e-001, 6.15723014e-001,
          4.21362013e-001, 6.06800020e-001 ]
      - [ 9.42491964e-002, 8.74755010e-002, 1.58510000e-001,
          2.18688995e-002, 2.44191006e-001, 4.37377999e-003,
          3.38440001e-001, 2.18688995e-002, 4.32689995e-001,
          4.81114984e-002, 5.69778979e-001, 4.37377989e-002,
          6.59744978e-001, 2.18688995e-002, 7.49710023e-001,
          8.74754973e-003, 8.39675009e-001, 2.62426995e-002,
          8.99652004e-001, 8.74755010e-002, 5.01235008e-001,
          3.84891987e-001, 4.02700990e-001, 4.28629994e-001,
          4.49826002e-001, 4.46125001e-001, 5.01235008e-001,
          4.59246010e-001, 5.52643001e-001, 4.46125001e-001,
          5.95484018e-001, 4.33003992e-001, 2.01351002e-001,
          1.31212994e-001, 2.52759010e-001, 1.04970999e-001,
          3.12736005e-001, 1.00597002e-001, 3.68429005e-001,
          1.31212994e-001, 3.12736005e-001, 1.44335002e-001,
          2.52759010e-001, 1.48708001e-001, 6.25472009e-001,
          1.31212994e-001, 6.81164980e-001, 1.00597002e-001,
          7.41141975e-001, 1.04970999e-001, 7.96833992e-001,
          1.35587007e-001, 7.41141975e-001, 1.48708001e-001,
          6.81164980e-001, 1.44335002e-001, 3.47007990e-001,
          5.99206984e-001, 4.02700990e-001, 5.64216971e-001,
          4.54109997e-001, 5.42348027e-001, 4.92666006e-001,
          5.55468976e-001, 5.31222999e-001, 5.46721995e-001,
          5.86916029e-001, 5.68590999e-001, 6.46892011e-001,
          6.03581011e-001, 5.86916029e-001, 6.38571024e-001,
          5.31222999e-001, 6.47319019e-001, 4.92666006e-001,
          6.47319019e-001, 4.49826002e-001, 6.42944992e-001,
          4.02700990e-001, 6.34196997e-001, 3.76996994e-001,
          5.94833016e-001, 4.54109997e-001, 5.77337980e-001,
          4.92666006e-001, 5.86085975e-001, 5.31222999e-001,
          5.81712008e-001, 6.21187985e-001, 5.99206984e-001,
          5.31222999e-001, 5.81712008e-001, 4.92666006e-001,
          5.86085975e-001, 4.54109997e-001, 5.77337980e-001 ]
      - [ 1.48471996e-001, -3.22581008e-002, 2.31441006e-001,
          -8.60214978e-002, 3.27511013e-001, -6.98925033e-002,
          4.10479993e-001, -1.07527003e-002, 4.75982994e-001,
          9.13978964e-002, 5.72052002e-001, 1.45161003e-001,
          6.46287978e-001, 1.34408996e-001, 7.16157019e-001,
          1.55913994e-001, 7.77293026e-001, 2.09676996e-001,
          8.12227011e-001, 2.95699000e-001, 4.71616000e-001,
          5.26881993e-001, 3.44978005e-001, 5.91398001e-001,
          3.88646007e-001, 6.23655975e-001, 4.32314008e-001,
          6.50538027e-001, 4.71616000e-001, 6.61289990e-001,
          5.19650996e-001, 6.66666985e-001, 2.13973999e-001,
          1.50537997e-001, 2.75108993e-001, 1.29032001e-001,
          3.31878006e-001, 1.61290005e-001, 3.71179014e-001,
          2.47311994e-001, 3.14410001e-001, 2.47311994e-001,
          2.57642001e-001, 2.15054005e-001, 5.80785990e-001,
          3.65590990e-001, 6.28821015e-001, 3.22580993e-001,
          6.81222975e-001, 3.44085991e-001, 7.11790025e-001,
          4.03225988e-001, 6.72488987e-001, 4.30108011e-001,
          6.20087028e-001, 4.08601999e-001, 2.31441006e-001,
          7.36558974e-001, 3.18776995e-001, 7.47312009e-001,
          3.75546008e-001, 7.47312009e-001, 4.01746988e-001,
          7.84946024e-001, 4.36681002e-001, 7.95699000e-001,
          4.67249006e-001, 8.44085991e-001, 5.06550014e-001,
          8.92472982e-001, 4.36681002e-001, 9.08601999e-001,
          3.93013000e-001, 8.92472982e-001, 3.58078986e-001,
          8.76344025e-001, 3.31878006e-001, 8.44085991e-001,
          2.83843011e-001, 8.01074982e-001, 2.53275007e-001,
          7.63441026e-001, 3.62444997e-001, 8.06451976e-001,
          3.88646007e-001, 8.27956975e-001, 4.19214010e-001,
          8.49461973e-001, 4.75982994e-001, 8.81720006e-001,
          4.10479993e-001, 8.11828017e-001, 3.79913002e-001,
          7.90323019e-001, 3.53711993e-001, 7.74194002e-001 ]
      - [ 8.37851018e-002, 1.06941000e-001, 1.46623999e-001,
          2.78977007e-002, 2.38787994e-001, 4.64962004e-003,
          3.35139990e-001, 1.85985006e-002, 4.27304000e-001,
          5.11459000e-002, 5.52981973e-001, 5.11459000e-002,
          6.45144999e-001, 2.32481007e-002, 7.45687008e-001,
          9.29925032e-003, 8.37850988e-001, 3.25473994e-002,
          9.04878974e-001, 1.02292001e-001, 4.94331986e-001,
          3.67320001e-001, 3.97978991e-001, 4.46363986e-001,
          4.48249996e-001, 4.60312992e-001, 4.94331986e-001,
          4.74261999e-001, 5.48792005e-001, 4.60312992e-001,
          5.90685010e-001, 4.46363986e-001, 2.05273002e-001,
          1.62736997e-001, 2.59734005e-001, 1.30189002e-001,
          3.18383008e-001, 1.25540003e-001, 3.77032995e-001,
          1.62736997e-001, 3.22573006e-001, 1.76686004e-001,
          2.59734005e-001, 1.81335002e-001, 6.11630976e-001,
          1.53438002e-001, 6.70280993e-001, 1.11590996e-001,
          7.28929996e-001, 1.16241001e-001, 7.87580013e-001,
          1.53438002e-001, 7.33120024e-001, 1.72036007e-001,
          6.70280993e-001, 1.67385995e-001, 3.18383008e-001,
          6.13749981e-001, 3.93790007e-001, 5.90502024e-001,
          4.52439010e-001, 5.76552987e-001, 4.94331986e-001,
          5.90502024e-001, 5.40413976e-001, 5.76552987e-001,
          6.03253007e-001, 5.90502024e-001, 6.78659022e-001,
          6.04451001e-001, 6.11630976e-001, 6.55596972e-001,
          5.48792005e-001, 6.78844988e-001, 4.98521000e-001,
          6.88144028e-001, 4.52439010e-001, 6.83494985e-001,
          3.93790007e-001, 6.64896011e-001, 3.47707987e-001,
          6.18399978e-001, 4.52439010e-001, 6.09100997e-001,
          4.94331986e-001, 6.18399978e-001, 5.44602990e-001,
          6.09100997e-001, 6.49334013e-001, 6.09100997e-001,
          5.44602990e-001, 6.13749981e-001, 4.98521000e-001,
          6.23049974e-001, 4.56629008e-001, 6.18399978e-001 ]
      - [ 1.01942003e-001, 6.03337996e-002, 1.64674997e-001,
          -8.61911010e-003, 2.54853994e-001, -1.72381997e-002,
          3.45034003e-001, 1.29287001e-002, 4.31291997e-001,
          5.17145991e-002, 5.56759000e-001, 3.87860015e-002,
          6.43016994e-001, -4.30954993e-003, 7.33196020e-001,
          -2.58572996e-002, 8.27296972e-001, -1.72381997e-002,
          8.93950999e-001, 3.87860015e-002, 4.70499992e-001,
          3.87860000e-001, 3.92084002e-001, 4.35265005e-001,
          4.35213000e-001, 4.56813008e-001, 4.78341997e-001,
          4.69740987e-001, 5.29313028e-001, 4.56813008e-001,
          5.76363027e-001, 4.43883985e-001, 2.15645999e-001,
          1.29287004e-001, 2.62695998e-001, 9.05006006e-002,
          3.25428993e-001, 8.61911029e-002, 3.80320996e-001,
          1.33596003e-001, 3.25428993e-001, 1.42214999e-001,
          2.66617000e-001, 1.50833994e-001, 6.15571022e-001,
          1.29287004e-001, 6.70463026e-001, 8.61911029e-002,
          7.33196020e-001, 8.61911029e-002, 7.88088024e-001,
          1.20668001e-001, 7.37116992e-001, 1.42214999e-001,
          6.74383998e-001, 1.42214999e-001, 3.37191999e-001,
          6.07647002e-001, 3.92084002e-001, 5.77480018e-001,
          4.46974993e-001, 5.60241997e-001, 4.86184001e-001,
          5.73171020e-001, 5.33234000e-001, 5.60241997e-001,
          5.99888027e-001, 5.81789970e-001, 6.74383998e-001,
          6.16266012e-001, 6.03808999e-001, 6.46432996e-001,
          5.41074991e-001, 6.59362018e-001, 4.94024992e-001,
          6.63671017e-001, 4.46974993e-001, 6.55052006e-001,
          3.92084002e-001, 6.37813985e-001, 3.60716999e-001,
          6.03338003e-001, 4.50895995e-001, 5.94717979e-001,
          4.90105003e-001, 6.07647002e-001, 5.37154973e-001,
          5.99027991e-001, 6.50858998e-001, 6.11957014e-001,
          5.37154973e-001, 5.94717979e-001, 4.90105003e-001,
          5.99027991e-001, 4.50895995e-001, 5.90408981e-001 ]
      - [ 1.10307999e-001, 1.12576999e-001, 1.67668000e-001,
          3.15214992e-002, 2.64739007e-001, 4.50306991e-003,
          3.66223007e-001, 1.35092000e-002, 4.54468995e-001,
          4.95337993e-002, 6.04488015e-001, 5.40369004e-002,
          6.97147012e-001, 1.35092000e-002, 7.94218004e-001,
          9.00615007e-003, 8.86877000e-001, 4.05277014e-002,
          9.30999994e-001, 1.30588993e-001, 5.25066018e-001,
          3.73755008e-001, 4.19171005e-001, 4.27792013e-001,
          4.67705995e-001, 4.45804000e-001, 5.20654023e-001,
          4.63817000e-001, 5.73602021e-001, 4.50307012e-001,
          6.22137010e-001, 4.32294995e-001, 2.38264993e-001,
          1.66613996e-001, 2.91213006e-001, 1.53104007e-001,
          3.44161004e-001, 1.48600996e-001, 4.01520997e-001,
          1.66613996e-001, 3.48572999e-001, 1.71116993e-001,
          2.95626014e-001, 1.75620005e-001, 6.44199014e-001,
          1.66613996e-001, 7.05972016e-001, 1.48600996e-001,
          7.54507005e-001, 1.53104007e-001, 8.03043008e-001,
          1.71116993e-001, 7.54507005e-001, 1.75620005e-001,
          7.01559007e-001, 1.75620005e-001, 3.48572999e-001,
          6.03411973e-001, 4.14757997e-001, 5.62883973e-001,
          4.72117990e-001, 5.49374998e-001, 5.16242027e-001,
          5.62883973e-001, 5.64777017e-001, 5.53878009e-001,
          6.22137010e-001, 5.76393008e-001, 6.83910012e-001,
          6.16921008e-001, 6.22137010e-001, 6.30429983e-001,
          5.64777017e-001, 6.34932995e-001, 5.16242027e-001,
          6.34932995e-001, 4.67705995e-001, 6.30429983e-001,
          4.14757997e-001, 6.21424019e-001, 3.70635003e-001,
          5.94406009e-001, 4.72117990e-001, 5.80896020e-001,
          5.16242027e-001, 5.89902997e-001, 5.64777017e-001,
          5.85399985e-001, 6.61848009e-001, 6.07914984e-001,
          5.64777017e-001, 5.85399985e-001, 5.16242027e-001,
          5.89902997e-001, 4.72117990e-001, 5.80896020e-001 ]
      - [ 7.95994028e-002, 5.86224012e-002, 1.41509995e-001,
          -1.95407998e-002, 2.34375998e-001, -3.41963992e-002,
          3.36086988e-001, -4.88519995e-003, 4.24529999e-001,
          4.39668000e-002, 5.57196021e-001, 3.90815996e-002,
          6.41218007e-001, -4.88519995e-003, 7.38506019e-001,
          -2.44260002e-002, 8.31372023e-001, -1.46556003e-002,
          8.97705019e-001, 4.88520004e-002, 4.68751997e-001,
          3.81045997e-001, 3.84730995e-001, 4.54324007e-001,
          4.28952992e-001, 4.68979001e-001, 4.77596998e-001,
          4.78749990e-001, 5.26241004e-001, 4.68979001e-001,
          5.74885011e-001, 4.49438989e-001, 1.94575995e-001,
          1.27014995e-001, 2.47642994e-001, 9.77040976e-002,
          3.09552997e-001, 9.77040976e-002, 3.67042005e-001,
          1.36785999e-001, 3.09552997e-001, 1.46556005e-001,
          2.47642994e-001, 1.51440993e-001, 6.10261977e-001,
          1.36785999e-001, 6.72173023e-001, 9.28189009e-002,
          7.29662001e-001, 9.77040976e-002, 7.82728016e-001,
          1.22129999e-001, 7.29662001e-001, 1.46556005e-001,
          6.67751014e-001, 1.46556005e-001, 3.27241987e-001,
          6.54617012e-001, 3.89153004e-001, 6.05764985e-001,
          4.42218989e-001, 5.76453984e-001, 4.77596998e-001,
          5.86224020e-001, 5.21818995e-001, 5.71569026e-001,
          5.74885011e-001, 6.00880027e-001, 6.41218007e-001,
          6.49731994e-001, 5.79307020e-001, 6.83928013e-001,
          5.26241004e-001, 7.03468978e-001, 4.82019007e-001,
          7.08353996e-001, 4.37797010e-001, 7.03468978e-001,
          3.89153004e-001, 6.93699002e-001, 3.58197987e-001,
          6.44846976e-001, 4.37797010e-001, 6.25306010e-001,
          4.82019007e-001, 6.25306010e-001, 5.21818995e-001,
          6.20420992e-001, 6.14684999e-001, 6.39962018e-001,
          5.21818995e-001, 6.30191028e-001, 4.82019007e-001,
          6.35075986e-001, 4.42218989e-001, 6.30191028e-001 ]
      - [ 7.45584965e-002, 1.03533000e-001, 1.31574005e-001,
          2.35303007e-002, 2.28061005e-001, 4.70604980e-003,
          3.24548990e-001, 2.35303007e-002, 4.16651011e-001,
          6.58847019e-002, 5.65768003e-001, 6.58847019e-002,
          6.53482974e-001, 2.35303007e-002, 7.49970973e-001,
          4.70604980e-003, 8.42073023e-001, 2.82362998e-002,
          8.99088025e-001, 1.08239003e-001, 4.95595008e-001,
          4.14131999e-001, 4.03492987e-001, 4.84723002e-001,
          4.42965001e-001, 5.03547013e-001, 4.91209000e-001,
          5.12959003e-001, 5.39452970e-001, 5.08252978e-001,
          5.83311021e-001, 4.89428997e-001, 1.97361007e-001,
          1.78829998e-001, 2.45605007e-001, 1.60006002e-001,
          3.07006001e-001, 1.60006002e-001, 3.68407011e-001,
          1.88242003e-001, 3.07006001e-001, 1.97653994e-001,
          2.45605007e-001, 2.02360004e-001, 6.14010990e-001,
          1.88242003e-001, 6.75411999e-001, 1.60006002e-001,
          7.36813009e-001, 1.64711997e-001, 7.89443016e-001,
          1.88242003e-001, 7.36813009e-001, 2.02360004e-001,
          6.75411999e-001, 2.02360004e-001, 3.28934997e-001,
          6.68259025e-001, 3.94722015e-001, 6.44729018e-001,
          4.51736987e-001, 6.30611002e-001, 4.86822993e-001,
          6.44729018e-001, 5.26295006e-001, 6.35317028e-001,
          5.83311021e-001, 6.49434984e-001, 6.53482974e-001,
          6.72964990e-001, 5.83311021e-001, 7.20026016e-001,
          5.26295006e-001, 7.38849998e-001, 4.86822993e-001,
          7.38849998e-001, 4.42965001e-001, 7.38849998e-001,
          3.85949999e-001, 7.20026016e-001, 3.55248988e-001,
          6.63552999e-001, 4.47351009e-001, 6.68259025e-001,
          4.86822993e-001, 6.72964990e-001, 5.26295006e-001,
          6.68259025e-001, 6.27169013e-001, 6.72964990e-001,
          5.26295006e-001, 6.77671015e-001, 4.86822993e-001,
          6.82376981e-001, 4.47351009e-001, 6.72964990e-001 ]
      - [ 1.19648002e-001, 8.70937034e-002, 1.96224004e-001,
          1.63301006e-002, 2.87155986e-001, 0., 3.87661010e-001,
          2.17733998e-002, 4.78594005e-001, 5.44334985e-002,
          6.26958013e-001, 5.44334985e-002, 7.08319008e-001,
          2.72167996e-002, 7.89680004e-001, 1.63301006e-002,
          8.56683016e-001, 4.35467996e-002, 9.04542983e-001,
          1.08866997e-001, 5.55168986e-001, 4.08252001e-001,
          4.35519993e-001, 4.68127996e-001, 4.88166004e-001,
          4.89901990e-001, 5.40811002e-001, 5.06232023e-001,
          5.93456984e-001, 4.89901990e-001, 6.41315997e-001,
          4.73571986e-001, 2.15367004e-001, 1.68743998e-001,
          2.82370001e-001, 1.41526997e-001, 3.49373996e-001,
          1.41526997e-001, 4.02018994e-001, 1.85074002e-001,
          3.44588012e-001, 2.01404005e-001, 2.77583987e-001,
          2.01404005e-001, 6.50888026e-001, 1.95960999e-001,
          7.08319008e-001, 1.52413994e-001, 7.65749991e-001,
          1.57857001e-001, 8.13610017e-001, 1.95960999e-001,
          7.65749991e-001, 2.17733994e-001, 7.08319008e-001,
          2.17733994e-001, 3.63730997e-001, 6.42315984e-001,
          4.40306008e-001, 6.15099013e-001, 5.02524018e-001,
          5.93325973e-001, 5.36024988e-001, 6.04211986e-001,
          5.83885014e-001, 5.93325973e-001, 6.26958013e-001,
          6.09655976e-001, 6.84388995e-001, 6.36871994e-001,
          6.26958013e-001, 6.80419028e-001, 5.79099000e-001,
          7.02193022e-001, 5.31238973e-001, 7.07635999e-001,
          4.92951989e-001, 7.07635999e-001, 4.35519993e-001,
          6.96748972e-001, 3.92446995e-001, 6.47759020e-001,
          4.97738004e-001, 6.31429017e-001, 5.36024988e-001,
          6.36871994e-001, 5.79099000e-001, 6.31429017e-001,
          6.60459995e-001, 6.36871994e-001, 5.79099000e-001,
          6.36871994e-001, 5.36024988e-001, 6.47759020e-001,
          4.97738004e-001, 6.42315984e-001 ]
      - [ 1.17798001e-001, 6.65170029e-002, 1.83241993e-001, 0.,
          2.66137004e-001, -2.04668008e-002, 3.53394985e-001,
          -5.11668995e-003, 4.31926996e-001, 4.09336016e-002,
          5.54089010e-001, 5.11668995e-002, 6.32620990e-001,
          3.07001993e-002, 7.15515971e-001, 2.04668008e-002,
          7.89685011e-001, 4.09336016e-002, 8.42040002e-001,
          1.07450999e-001, 4.97370988e-001, 3.83751988e-001,
          4.01387006e-001, 4.96318996e-001, 4.45015997e-001,
          5.06552994e-001, 4.88644987e-001, 5.16785979e-001,
          5.32274008e-001, 5.11668980e-001, 5.67176998e-001,
          4.96318996e-001, 2.09418997e-001, 1.58618003e-001,
          2.61774004e-001, 1.27917007e-001, 3.22854996e-001,
          1.33034006e-001, 3.70846987e-001, 1.79084003e-001,
          3.18491995e-001, 1.84201002e-001, 2.61774004e-001,
          1.84201002e-001, 6.02081001e-001, 1.84201002e-001,
          6.58797979e-001, 1.43267006e-001, 7.15515971e-001,
          1.43267006e-001, 7.63508022e-001, 1.73968002e-001,
          7.15515971e-001, 1.94434002e-001, 6.58797979e-001,
          1.99551001e-001, 3.27217996e-001, 7.00986981e-001,
          3.97024006e-001, 6.70287013e-001, 4.53741997e-001,
          6.44702971e-001, 4.93007988e-001, 6.70287013e-001,
          5.32274008e-001, 6.54937029e-001, 5.84628999e-001,
          6.85636997e-001, 6.36983991e-001, 7.26571023e-001,
          5.80265999e-001, 7.16337025e-001, 5.27911007e-001,
          7.11220980e-001, 4.84281987e-001, 7.11220980e-001,
          4.45015997e-001, 7.06103981e-001, 3.88298005e-001,
          7.06103981e-001, 3.53394985e-001, 7.00986981e-001,
          4.49378997e-001, 7.11220980e-001, 4.93007988e-001,
          7.21454024e-001, 5.32274008e-001, 7.16337025e-001,
          6.10805988e-001, 7.26571023e-001, 5.27911007e-001,
          6.34469986e-001, 4.88644987e-001, 6.34469986e-001,
          4.49378997e-001, 6.29352987e-001 ]
      - [ 1.26548007e-001, 1.05896004e-001, 1.94040000e-001,
          2.01706998e-002, 2.82624006e-001, 0., 3.75425994e-001,
          1.00852996e-002, 4.64008987e-001, 5.04266992e-002,
          5.86338997e-001, 7.56400004e-002, 6.70704007e-001,
          5.54693006e-002, 7.46632993e-001, 5.54693006e-002,
          8.18343997e-001, 8.57253000e-002, 8.64745021e-001,
          1.61365002e-001, 5.01973987e-001, 5.79907000e-001,
          4.17607993e-001, 6.50503993e-001, 4.51353997e-001,
          6.65632010e-001, 4.85101014e-001, 6.75716996e-001,
          5.23064971e-001, 6.70674980e-001, 5.56810975e-001,
          6.60588980e-001, 2.36222997e-001, 2.16835007e-001,
          2.82624006e-001, 1.66408002e-001, 3.50116014e-001,
          1.76493004e-001, 3.92298996e-001, 2.52133012e-001,
          3.41679990e-001, 2.72303998e-001, 2.74186999e-001,
          2.62219012e-001, 6.15867019e-001, 2.72303998e-001,
          6.62267983e-001, 2.06749007e-001, 7.21323013e-001,
          2.11792007e-001, 7.55069971e-001, 2.57176012e-001,
          7.21323013e-001, 3.02560002e-001, 6.62267983e-001,
          3.02560002e-001, 3.66988987e-001, 8.52210999e-001,
          4.21826988e-001, 8.37082982e-001, 4.55572993e-001,
          8.21955025e-001, 4.68228012e-001, 8.42124999e-001,
          4.89318997e-001, 8.32040012e-001, 5.10410011e-001,
          8.67339015e-001, 5.39937973e-001, 8.92552018e-001,
          4.89318997e-001, 8.01783979e-001, 4.64008987e-001,
          7.71528006e-001, 4.47135985e-001, 7.66484976e-001,
          4.34480995e-001, 7.61443019e-001, 4.13390011e-001,
          7.86656022e-001, 3.92298996e-001, 8.47168028e-001,
          4.51353997e-001, 8.82466972e-001, 4.64008987e-001,
          8.92552018e-001, 4.85101014e-001, 8.92552018e-001,
          5.18846989e-001, 8.82466972e-001, 4.72445995e-001,
          7.05973029e-001, 4.55572993e-001, 7.00931013e-001,
          4.42918003e-001, 6.95887983e-001 ]
      - [ 8.07017982e-002, 4.79655005e-002, 1.54385999e-001,
          -1.74419992e-002, 2.42105007e-001, -2.18024999e-002,
          3.26315999e-001, 1.30815003e-002, 4.10526991e-001,
          5.66864982e-002, 5.33334017e-001, 6.10469989e-002,
          6.17543995e-001, 2.61630006e-002, 7.01754987e-001, 0.,
          7.85965979e-001, 1.30815003e-002, 8.52631986e-001,
          7.84889981e-002, 4.59650010e-001, 4.44770992e-001,
          3.54386002e-001, 5.36341012e-001, 4.03508991e-001,
          5.36341012e-001, 4.52632010e-001, 5.49422979e-001,
          5.01754999e-001, 5.36341012e-001, 5.47369003e-001,
          5.36341012e-001, 1.61403999e-001, 1.70059994e-001,
          2.21053004e-001, 1.30814999e-001, 2.87719995e-001,
          1.30814999e-001, 3.40350986e-001, 1.96222007e-001,
          2.84211010e-001, 2.09304005e-001, 2.17544004e-001,
          2.09304005e-001, 5.85964978e-001, 2.00582996e-001,
          6.42105997e-001, 1.43896997e-001, 7.01754987e-001,
          1.43896997e-001, 7.57894993e-001, 1.74419999e-001,
          7.08773017e-001, 2.09304005e-001, 6.45614982e-001,
          2.13664994e-001, 2.66667008e-001, 7.19482005e-001,
          3.40350986e-001, 6.62796021e-001, 4.00000006e-001,
          6.27911985e-001, 4.42106009e-001, 6.45353973e-001,
          4.84210998e-001, 6.27911985e-001, 5.36843002e-001,
          6.67156994e-001, 5.96491992e-001, 7.28202999e-001,
          5.29824972e-001, 7.67448008e-001, 4.77192998e-001,
          7.84889996e-001, 4.28070992e-001, 7.89250016e-001,
          3.85964990e-001, 7.84889996e-001, 3.29825014e-001,
          7.63087988e-001, 2.94737011e-001, 7.15121984e-001,
          3.96492004e-001, 6.97679996e-001, 4.38596994e-001,
          7.02040017e-001, 4.84210998e-001, 6.97679996e-001,
          5.71929991e-001, 7.23842978e-001, 4.80702013e-001,
          6.93319023e-001, 4.35088009e-001, 7.02040017e-001,
          3.92982990e-001, 6.97679996e-001 ]
      - [ 9.80392024e-002, 6.48854971e-002, 1.63398996e-001,
          -1.52671998e-002, 2.54902005e-001, -3.43510993e-002,
          3.52941006e-001, -1.14503996e-002, 4.37909007e-001,
          3.81679013e-002, 5.68627000e-001, 5.34350984e-002,
          6.50327027e-001, 1.52671998e-002, 7.35293984e-001, 0.,
          8.16992998e-001, 1.52671998e-002, 8.69280994e-001,
          8.77863020e-002, 5.00000000e-001, 4.31297988e-001,
          3.88888985e-001, 5.22900999e-001, 4.37909007e-001,
          5.30534029e-001, 4.90195990e-001, 5.41984975e-001,
          5.39215982e-001, 5.30534029e-001, 5.81699014e-001,
          5.15267015e-001, 1.86275005e-001, 1.79389000e-001,
          2.45097995e-001, 1.41221002e-001, 3.07190001e-001,
          1.45037994e-001, 3.56209010e-001, 2.06107005e-001,
          3.03921998e-001, 2.21374005e-001, 2.38562003e-001,
          2.13740006e-001, 6.17646992e-001, 2.13740006e-001,
          6.73202991e-001, 1.60304993e-001, 7.32025981e-001,
          1.60304993e-001, 7.77777970e-001, 1.98473006e-001,
          7.35293984e-001, 2.32823998e-001, 6.73202991e-001,
          2.32823998e-001, 3.10458004e-001, 6.94656014e-001,
          3.82353008e-001, 6.52671993e-001, 4.41175997e-001,
          6.29770994e-001, 4.73856002e-001, 6.48854971e-001,
          5.16340017e-001, 6.33588016e-001, 5.68627000e-001,
          6.60305023e-001, 6.20914996e-001, 6.94656014e-001,
          5.65358996e-001, 7.36640990e-001, 5.09804010e-001,
          7.51908004e-001, 4.70587999e-001, 7.55725026e-001,
          4.31373000e-001, 7.51908004e-001, 3.72548997e-001,
          7.36640990e-001, 3.33332986e-001, 6.90840006e-001,
          4.34641004e-001, 6.83206022e-001, 4.73856002e-001,
          6.94656014e-001, 5.13072014e-001, 6.87022984e-001,
          6.01306975e-001, 6.94656014e-001, 5.13072014e-001,
          6.90840006e-001, 4.73856002e-001, 6.94656014e-001,
          4.34641004e-001, 6.90840006e-001 ]
      - [ 2.20201001e-001, 3.48910004e-001, 2.58648008e-001,
          3.35491002e-001, 2.97096014e-001, 3.31016988e-001,
          3.35543990e-001, 3.39964002e-001, 3.70496005e-001,
          3.57856989e-001, 4.71857995e-001, 3.75748992e-001,
          5.17297029e-001, 3.48910004e-001, 5.59239984e-001,
          3.35491002e-001, 5.97687006e-001, 3.44437003e-001,
          6.29144013e-001, 3.75748992e-001, 4.19429988e-001,
          5.68096995e-001, 3.60009998e-001, 6.53087974e-001,
          3.87971997e-001, 6.62034988e-001, 4.15933996e-001,
          6.66508019e-001, 4.43895996e-001, 6.66508019e-001,
          4.68362987e-001, 6.53087974e-001, 2.69133985e-001,
          4.47320998e-001, 2.97096014e-001, 4.29428011e-001,
          3.25058013e-001, 4.33901012e-001, 3.42534006e-001,
          4.56266999e-001, 3.21563005e-001, 4.60740000e-001,
          2.93601006e-001, 4.60740000e-001, 4.89335001e-001,
          4.69686985e-001, 5.13800979e-001, 4.38374013e-001,
          5.45258999e-001, 4.42847997e-001, 5.73220015e-001,
          4.60740000e-001, 5.45258999e-001, 4.78632987e-001,
          5.17297029e-001, 4.78632987e-001, 3.25058013e-001,
          8.00704002e-001, 3.63505989e-001, 7.69392014e-001,
          3.87971997e-001, 7.55972028e-001, 4.08944011e-001,
          7.64918983e-001, 4.33411002e-001, 7.64918983e-001,
          4.54382002e-001, 7.82810986e-001, 4.82344002e-001,
          8.18597019e-001, 4.50886995e-001, 7.64918983e-001,
          4.26420003e-001, 7.42551982e-001, 4.01953012e-001,
          7.38079011e-001, 3.80982012e-001, 7.33605981e-001,
          3.56514990e-001, 7.51498997e-001, 3.39038998e-001,
          7.87284970e-001, 3.87971997e-001, 7.87284970e-001,
          4.05449003e-001, 7.96230972e-001, 4.29915011e-001,
          7.91758001e-001, 4.68362987e-001, 8.00704002e-001,
          4.26420003e-001, 7.11239994e-001, 4.05449003e-001,
          7.11239994e-001, 3.84476990e-001, 7.06767023e-001 ]
      - [ 6.69014007e-002, 1.03703998e-001, 1.33802995e-001,
          2.96295993e-002, 2.32393995e-001, 7.40741007e-003,
          3.41549009e-001, 2.59259008e-002, 4.36619997e-001,
          5.92592992e-002, 5.59858978e-001, 6.29630014e-002,
          6.58451021e-001, 2.59259008e-002, 7.64084995e-001,
          7.40741007e-003, 8.62676024e-001, 2.22222004e-002,
          9.33098972e-001, 9.25925970e-002, 4.96479005e-001,
          3.85185003e-001, 3.69717985e-001, 4.59259003e-001,
          4.26055998e-001, 4.74074006e-001, 4.89437014e-001,
          4.88889009e-001, 5.49296021e-001, 4.77777988e-001,
          6.05633974e-001, 4.59259003e-001, 1.65492997e-001,
          1.81481004e-001, 2.25352004e-001, 1.44444004e-001,
          2.95774996e-001, 1.40741006e-001, 3.55634004e-001,
          1.85185000e-001, 2.88731992e-001, 2.00000003e-001,
          2.21830994e-001, 2.00000003e-001, 6.30281985e-001,
          1.88888997e-001, 6.93661988e-001, 1.44444004e-001,
          7.64084995e-001, 1.44444004e-001, 8.23943973e-001,
          1.77778006e-001, 7.67606020e-001, 2.03704000e-001,
          6.97183013e-001, 2.03704000e-001, 2.78169006e-001,
          6.70369983e-001, 3.59154999e-001, 6.33333027e-001,
          4.26055998e-001, 6.07406974e-001, 4.75351989e-001,
          6.25926018e-001, 5.31690001e-001, 6.11110985e-001,
          5.98591983e-001, 6.40740991e-001, 6.61971986e-001,
          6.88889027e-001, 5.91548979e-001, 7.11111009e-001,
          5.24648011e-001, 7.14815021e-001, 4.71830994e-001,
          7.14815021e-001, 4.19014007e-001, 7.11111009e-001,
          3.52113008e-001, 6.99999988e-001, 3.09859008e-001,
          6.66666985e-001, 4.22535002e-001, 6.70369983e-001,
          4.75351989e-001, 6.77778006e-001, 5.28168976e-001,
          6.74073994e-001, 6.30281985e-001, 6.85185015e-001,
          5.24648011e-001, 6.40740991e-001, 4.75351989e-001,
          6.44443989e-001, 4.26055998e-001, 6.37036979e-001 ]
      - [ 8.42252970e-002, 7.08829984e-002, 1.36866003e-001,
          -2.75656004e-002, 2.28110000e-001, -5.90691008e-002,
          3.29881996e-001, -5.11932001e-002, 4.21126008e-001,
          -3.93794011e-003, 5.86067021e-001, 3.93794011e-003,
          6.77311003e-001, -3.15034986e-002, 7.75574028e-001,
          -3.54414992e-002, 8.56289983e-001, 1.18137999e-002,
          8.98402989e-001, 1.02385998e-001, 4.94823009e-001,
          3.66228998e-001, 3.86031985e-001, 4.64677006e-001,
          4.31654006e-001, 4.84367013e-001, 4.80785996e-001,
          4.96181011e-001, 5.29917002e-001, 4.92242992e-001,
          5.72030008e-001, 4.80428994e-001, 1.82487994e-001,
          1.69331998e-001, 2.38637999e-001, 1.33890003e-001,
          3.05317014e-001, 1.29951999e-001, 3.64975989e-001,
          1.73269004e-001, 3.01806986e-001, 1.96897000e-001,
          2.35128999e-001, 1.96897000e-001, 6.14142001e-001,
          1.85083002e-001, 6.77311003e-001, 1.49642006e-001,
          7.43990004e-001, 1.57517999e-001, 7.96630979e-001,
          1.92958996e-001, 7.43990004e-001, 2.20524997e-001,
          6.77311003e-001, 2.12649003e-001, 3.26373011e-001,
          7.60022998e-001, 3.82523000e-001, 6.81263983e-001,
          4.38672990e-001, 6.41884983e-001, 4.77275997e-001,
          6.61574006e-001, 5.26408017e-001, 6.49760008e-001,
          5.79048991e-001, 7.00954020e-001, 6.28180027e-001,
          7.83650994e-001, 5.72030008e-001, 7.71836996e-001,
          5.15879989e-001, 7.60022998e-001, 4.70257998e-001,
          7.60022998e-001, 4.28144991e-001, 7.56084979e-001,
          3.75503987e-001, 7.56084979e-001, 3.54447991e-001,
          7.48209000e-001, 4.31654006e-001, 7.12768018e-001,
          4.73767012e-001, 7.20642984e-001, 5.22898018e-001,
          7.20642984e-001, 6.00104988e-001, 7.67898977e-001,
          5.19388974e-001, 6.93077981e-001, 4.73767012e-001,
          6.93077981e-001, 4.31654006e-001, 6.89140022e-001 ]
      - [ 7.49033019e-002, 1.03866003e-001, 1.32182002e-001,
          3.16114016e-002, 2.24710003e-001, 0., 3.17238003e-001,
          1.80636998e-002, 4.09765005e-001, 5.87069988e-002,
          5.77196002e-001, 5.87069988e-002, 6.65318012e-001,
          1.80636998e-002, 7.57844985e-001, 0., 8.50372970e-001,
          2.25795992e-002, 9.12057996e-001, 9.03183967e-002,
          5.06699026e-001, 4.01917011e-001, 4.09765005e-001,
          4.87718999e-001, 4.53826010e-001, 5.01267016e-001,
          5.06699026e-001, 5.19330978e-001, 5.59571981e-001,
          5.01267016e-001, 6.08039021e-001, 4.83204007e-001,
          1.85055003e-001, 1.80637002e-001, 2.37928003e-001,
          1.39993995e-001, 3.04019004e-001, 1.39993995e-001,
          3.70110989e-001, 1.89668998e-001, 3.04019004e-001,
          1.98700994e-001, 2.33521998e-001, 2.03216001e-001,
          6.21257007e-001, 1.80637002e-001, 6.82941973e-001,
          1.30961999e-001, 7.49032974e-001, 1.30961999e-001,
          8.01905990e-001, 1.71605006e-001, 7.53439009e-001,
          1.94185004e-001, 6.87348008e-001, 1.89668998e-001,
          2.86395013e-001, 6.50292993e-001, 3.78922999e-001,
          6.18681014e-001, 4.53826010e-001, 5.96101999e-001,
          5.11105001e-001, 6.09649003e-001, 5.68383992e-001,
          5.96101999e-001, 6.43287003e-001, 6.14165008e-001,
          7.31409013e-001, 6.54808998e-001, 6.52099013e-001,
          6.86420023e-001, 5.77196002e-001, 7.04483986e-001,
          5.15510976e-001, 7.08999991e-001, 4.53826010e-001,
          7.04483986e-001, 3.78922999e-001, 6.86420023e-001,
          3.21644008e-001, 6.50292993e-001, 4.53826010e-001,
          6.50292993e-001, 5.11105001e-001, 6.50292993e-001,
          5.72790027e-001, 6.45776987e-001, 7.04972029e-001,
          6.54808998e-001, 5.72790027e-001, 6.45776987e-001,
          5.15510976e-001, 6.50292993e-001, 4.58231986e-001,
          6.45776987e-001 ]
      - [ 8.82292986e-002, 1.00203998e-001, 1.55451998e-001,
          2.61402000e-002, 2.52083987e-001, 0., 3.48715991e-001,
          1.74268000e-002, 4.45347995e-001, 5.66371009e-002,
          6.17604971e-001, 6.09938018e-002, 7.05834985e-001,
          2.17835009e-002, 7.94063985e-001, 4.35670000e-003,
          8.82292986e-001, 2.61402000e-002, 9.41112995e-001,
          9.14905965e-002, 5.41980028e-001, 4.44382995e-001,
          4.49548990e-001, 5.18446982e-001, 4.95765001e-001,
          5.31517029e-001, 5.41980028e-001, 5.40229976e-001,
          5.83993971e-001, 5.27159989e-001, 6.26007974e-001,
          5.18446982e-001, 2.18473002e-001, 1.87337995e-001,
          2.77292013e-001, 1.48128003e-001, 3.44514996e-001,
          1.48128003e-001, 4.03333992e-001, 2.00407997e-001,
          3.40312988e-001, 2.13477999e-001, 2.73090988e-001,
          2.13477999e-001, 6.59618974e-001, 2.00407997e-001,
          7.14236975e-001, 1.52484000e-001, 7.81459987e-001,
          1.52484000e-001, 8.31876993e-001, 1.91695005e-001,
          7.85660982e-001, 2.13477999e-001, 7.18438983e-001,
          2.13477999e-001, 3.61319989e-001, 6.79645002e-001,
          4.36944991e-001, 6.49147987e-001, 5.04167974e-001,
          6.27363980e-001, 5.46181977e-001, 6.40434980e-001,
          5.88195980e-001, 6.23008013e-001, 6.55417979e-001,
          6.44791007e-001, 7.18438983e-001, 6.75288022e-001,
          6.55417979e-001, 7.18855023e-001, 5.96598029e-001,
          7.44994998e-001, 5.50382972e-001, 7.49351978e-001,
          5.04167974e-001, 7.44994998e-001, 4.36944991e-001,
          7.23212004e-001, 3.86527985e-001, 6.84001029e-001,
          5.04167974e-001, 6.84001029e-001, 5.46181977e-001,
          6.92714989e-001, 5.92396975e-001, 6.84001029e-001,
          6.97431982e-001, 6.79645002e-001, 5.92396975e-001,
          6.84001029e-001, 5.46181977e-001, 6.92714989e-001,
          5.04167974e-001, 6.88358009e-001 ]
      - [ 8.90583023e-002, 1.05016001e-001, 1.61153004e-001,
          2.62540001e-002, 2.67174989e-001, 0., 3.73196989e-001,
          2.62540001e-002, 4.66495991e-001, 7.00106025e-002,
          6.36130989e-001, 7.00106025e-002, 7.16706991e-001,
          2.62540001e-002, 8.10006976e-001, 0., 8.99065018e-001,
          1.75027009e-002, 9.49954987e-001, 9.18888971e-002,
          5.76758981e-001, 4.41942006e-001, 4.62255001e-001,
          5.16327977e-001, 5.13145983e-001, 5.29455006e-001,
          5.68277001e-001, 5.42581975e-001, 6.19166970e-001,
          5.25080025e-001, 6.61575973e-001, 5.11952996e-001,
          2.12044001e-001, 1.79401994e-001, 2.71416008e-001,
          1.35646001e-001, 3.47752005e-001, 1.35646001e-001,
          4.11365002e-001, 1.96905002e-001, 3.43510985e-001,
          2.10032001e-001, 2.67174989e-001, 2.10032001e-001,
          6.70058012e-001, 1.92528993e-001, 7.29430020e-001,
          1.26893997e-001, 8.01524997e-001, 1.26893997e-001,
          8.52415025e-001, 1.66274995e-001, 8.10006976e-001,
          1.96905002e-001, 7.37911999e-001, 2.01280996e-001,
          3.51992011e-001, 6.69475973e-001, 4.45291996e-001,
          6.65100992e-001, 5.21627009e-001, 6.47598028e-001,
          5.64036012e-001, 6.60724998e-001, 6.06445014e-001,
          6.47598028e-001, 6.70058012e-001, 6.56349003e-001,
          7.42152989e-001, 6.47598028e-001, 6.74299002e-001,
          7.17608988e-001, 6.10686004e-001, 7.48238027e-001,
          5.64036012e-001, 7.56990016e-001, 5.17386019e-001,
          7.52614021e-001, 4.45291996e-001, 7.26360023e-001,
          3.81678998e-001, 6.73852026e-001, 5.17386019e-001,
          6.86978996e-001, 5.59795022e-001, 6.95729971e-001,
          6.06445014e-001, 6.86978996e-001, 7.20947981e-001,
          6.60724998e-001, 6.10686004e-001, 6.86978996e-001,
          5.59795022e-001, 6.95729971e-001, 5.17386019e-001,
          6.91354990e-001 ]
      - [ 1.06838003e-001, 8.77192989e-002, 1.75213993e-001,
          2.19298005e-002, 2.60684013e-001, 4.38595982e-003,
          3.50427002e-001, 1.75439008e-002, 4.31623995e-001,
          5.26316017e-002, 5.81197023e-001, 5.26316017e-002,
          6.66666985e-001, 1.75439008e-002, 7.52137005e-001,
          4.38595982e-003, 8.37607026e-001, 2.63158008e-002,
          8.97436023e-001, 9.21052992e-002, 5.12821019e-001,
          3.77193004e-001, 4.18803006e-001, 4.69298005e-001,
          4.65811998e-001, 4.82455999e-001, 5.12821019e-001,
          4.95613992e-001, 5.59828997e-001, 4.86842006e-001,
          6.02563977e-001, 4.69298005e-001, 2.05127999e-001,
          1.62281007e-001, 2.60684013e-001, 1.22807004e-001,
          3.29059988e-001, 1.22807004e-001, 3.93162012e-001,
          1.75439000e-001, 3.24786007e-001, 1.88595995e-001,
          2.56410003e-001, 1.88595995e-001, 6.19657993e-001,
          1.79824993e-001, 6.75213993e-001, 1.27193004e-001,
          7.43589997e-001, 1.22807004e-001, 7.99144983e-001,
          1.66666999e-001, 7.47862995e-001, 1.92982003e-001,
          6.79486990e-001, 1.92982003e-001, 3.03418994e-001,
          6.35964990e-001, 3.88888985e-001, 5.92104971e-001,
          4.61537987e-001, 5.70174992e-001, 5.12821019e-001,
          5.83333015e-001, 5.59828997e-001, 5.70174992e-001,
          6.28205001e-001, 5.92104971e-001, 7.05128014e-001,
          6.35964990e-001, 6.28205001e-001, 6.71052992e-001,
          5.59828997e-001, 6.84211016e-001, 5.08547008e-001,
          6.88596010e-001, 4.57264990e-001, 6.88596010e-001,
          3.84615004e-001, 6.75439000e-001, 3.33332986e-001,
          6.35964990e-001, 4.61537987e-001, 6.14035010e-001,
          5.12821019e-001, 6.22807026e-001, 5.64103007e-001,
          6.18421018e-001, 6.75213993e-001, 6.31578982e-001,
          5.59828997e-001, 6.35964990e-001, 5.08547008e-001,
          6.35964990e-001, 4.57264990e-001, 6.35964990e-001 ]
      - [ 7.87089989e-002, 8.60951021e-002, 1.49132997e-001,
          1.63991004e-002, 2.44412005e-001, 0., 3.39691997e-001,
          2.86983997e-002, 4.26685989e-001, 7.78955966e-002,
          5.84104002e-001, 7.37958029e-002, 6.66956007e-001,
          1.63991004e-002, 7.70519972e-001, -4.09976998e-003,
          8.65799010e-001, 1.63991004e-002, 9.40365970e-001,
          8.60951021e-002, 4.92967010e-001, 4.09976989e-001,
          3.76975000e-001, 4.96071994e-001, 4.34971005e-001,
          5.08370996e-001, 4.92967010e-001, 5.20669997e-001,
          5.50962985e-001, 5.12471020e-001, 6.08959019e-001,
          5.04270971e-001, 1.69845998e-001, 2.00889006e-001,
          2.27842003e-001, 1.72189996e-001, 2.98265994e-001,
          1.80390000e-001, 3.60404998e-001, 2.25486994e-001,
          2.89981008e-001, 2.37785995e-001, 2.19557002e-001,
          2.33686998e-001, 6.50385022e-001, 2.29587004e-001,
          7.20808983e-001, 1.84488997e-001, 7.87090003e-001,
          1.80390000e-001, 8.49228978e-001, 2.09087998e-001,
          7.95376003e-001, 2.41886005e-001, 7.24951982e-001,
          2.41886005e-001, 2.52696991e-001, 6.43662989e-001,
          3.43834013e-001, 6.19064987e-001, 4.26685989e-001,
          5.98565996e-001, 4.88824993e-001, 6.19064987e-001,
          5.50962985e-001, 6.06764972e-001, 6.42100036e-001,
          6.35464013e-001, 7.37379014e-001, 6.68262005e-001,
          6.42100036e-001, 7.46156991e-001, 5.50962985e-001,
          7.74855971e-001, 4.80538994e-001, 7.74855971e-001,
          4.14258003e-001, 7.62556970e-001, 3.35548997e-001,
          7.25659013e-001, 2.85838008e-001, 6.55963004e-001,
          4.22542989e-001, 6.76460981e-001, 4.84681994e-001,
          6.84660971e-001, 5.50962985e-001, 6.80561006e-001,
          7.04239011e-001, 6.76460981e-001, 5.50962985e-001,
          6.84660971e-001, 4.84681994e-001, 6.84660971e-001,
          4.22542989e-001, 6.72361970e-001 ]
      - [ 5.88777997e-002, 1.29149005e-001, 1.17756002e-001,
          4.15120982e-002, 2.14484006e-001, 4.61245980e-003,
          3.15416992e-001, 1.38373999e-002, 4.07938987e-001,
          5.07370010e-002, 5.59340000e-001, 4.61245999e-002,
          6.56067014e-001, 1.38373999e-002, 7.48589993e-001,
          4.61245980e-003, 8.41112018e-001, 3.22871991e-002,
          8.99990022e-001, 1.06086001e-001, 4.96255994e-001,
          3.92058998e-001, 4.07938987e-001, 4.75082994e-001,
          4.54201013e-001, 4.88920003e-001, 5.04666984e-001,
          4.98145014e-001, 5.50927997e-001, 4.84308004e-001,
          5.97190022e-001, 4.70470995e-001, 1.93455994e-001,
          1.79885998e-001, 2.48127997e-001, 1.42986000e-001,
          3.11210990e-001, 1.42986000e-001, 3.70088995e-001,
          1.79885998e-001, 3.11210990e-001, 1.89110994e-001,
          2.52333999e-001, 1.93722993e-001, 6.14012003e-001,
          1.75273001e-001, 6.68684006e-001, 1.38374001e-001,
          7.27562010e-001, 1.38374001e-001, 7.82234013e-001,
          1.70661002e-001, 7.31768012e-001, 1.84497997e-001,
          6.72890007e-001, 1.89110994e-001, 3.07006001e-001,
          6.54968977e-001, 3.95323008e-001, 6.31906986e-001,
          4.66816992e-001, 6.13457024e-001, 5.17283976e-001,
          6.27294004e-001, 5.71955979e-001, 6.08843982e-001,
          6.43450975e-001, 6.22681975e-001, 7.19151020e-001,
          6.36519015e-001, 6.47656024e-001, 6.96480989e-001,
          5.76161981e-001, 7.28767991e-001, 5.21489978e-001,
          7.37993002e-001, 4.66816992e-001, 7.33380020e-001,
          3.91117007e-001, 7.10318029e-001, 3.40649992e-001,
          6.59581006e-001, 4.71022993e-001, 6.64193988e-001,
          5.17283976e-001, 6.73418999e-001, 5.71955979e-001,
          6.59581006e-001, 6.93917990e-001, 6.41130984e-001,
          5.71955979e-001, 6.59581006e-001, 5.17283976e-001,
          6.73418999e-001, 4.66816992e-001, 6.64193988e-001 ]
      - [ 7.37823993e-002, 9.27214026e-002, 1.35268003e-001,
          2.20765006e-002, 2.21347004e-001, 4.41530021e-003,
          3.11526000e-001, 1.76612008e-002, 4.01704013e-001,
          4.85683009e-002, 5.49269021e-001, 4.41530012e-002,
          6.47644997e-001, 8.83060973e-003, 7.46021986e-001,
          4.41530021e-003, 8.32100987e-001, 3.53224017e-002,
          8.97686005e-001, 1.05967000e-001, 4.75486994e-001,
          3.92962009e-001, 3.77110004e-001, 4.81267989e-001,
          4.26297992e-001, 4.98928994e-001, 4.75486994e-001,
          5.12175024e-001, 5.24675012e-001, 5.03345013e-001,
          5.73863029e-001, 4.90099013e-001, 1.76257998e-001,
          1.76612005e-001, 2.33643994e-001, 1.32459000e-001,
          3.03328007e-001, 1.36874005e-001, 3.60713989e-001,
          1.89858004e-001, 2.99228996e-001, 2.03104004e-001,
          2.29544997e-001, 2.03104004e-001, 6.02555990e-001,
          1.94272995e-001, 6.64041996e-001, 1.41289994e-001,
          7.33725011e-001, 1.45705000e-001, 7.91110992e-001,
          1.89858004e-001, 7.37824023e-001, 2.11934999e-001,
          6.68141007e-001, 2.11934999e-001, 2.74634004e-001,
          6.44634008e-001, 3.56615007e-001, 6.13726974e-001,
          4.22199011e-001, 5.91651022e-001, 4.67287987e-001,
          6.09311998e-001, 5.16476989e-001, 5.96065998e-001,
          5.86160004e-001, 6.18142009e-001, 6.76338971e-001,
          6.49049997e-001, 5.90259016e-001, 6.97618008e-001,
          5.20576000e-001, 7.19694018e-001, 4.71388012e-001,
          7.19694018e-001, 4.22199011e-001, 7.15278983e-001,
          3.56615007e-001, 6.97618008e-001, 3.03328007e-001,
          6.49049997e-001, 4.22199011e-001, 6.49049997e-001,
          4.67287987e-001, 6.53464973e-001, 5.16476989e-001,
          6.49049997e-001, 6.43545985e-001, 6.53464973e-001,
          5.16476989e-001, 6.53464973e-001, 4.71388012e-001,
          6.57880008e-001, 4.22199011e-001, 6.53464973e-001 ]
      - [ 9.32739973e-002, 6.21146001e-002, 1.59897998e-001,
          4.77804989e-003, 2.44288996e-001, -4.77804989e-003,
          3.33121002e-001, 1.43341003e-002, 4.17512000e-001,
          4.77804989e-002, 5.86292982e-001, 4.77804989e-002,
          6.70683980e-001, 1.91121995e-002, 7.59516001e-001,
          9.55608953e-003, 8.43906999e-001, 2.38901991e-002,
          9.10530984e-001, 8.12268034e-002, 5.01902997e-001,
          3.58352989e-001, 4.17512000e-001, 4.73026007e-001,
          4.61928010e-001, 4.82582986e-001, 5.10785997e-001,
          4.92139012e-001, 5.55202007e-001, 4.82582986e-001,
          5.99618018e-001, 4.68248010e-001, 1.95430994e-001,
          1.57675996e-001, 2.48731002e-001, 1.19451001e-001,
          3.15355003e-001, 1.24228999e-001, 3.73095989e-001,
          1.72010005e-001, 3.10912997e-001, 1.86343998e-001,
          2.44288996e-001, 1.86343998e-001, 6.30710006e-001,
          1.72010005e-001, 6.88450992e-001, 1.19451001e-001,
          7.50633001e-001, 1.24228999e-001, 8.03933024e-001,
          1.62453994e-001, 7.55074978e-001, 1.86343998e-001,
          6.92892015e-001, 1.86343998e-001, 3.06472003e-001,
          6.54591978e-001, 3.90861988e-001, 6.21146023e-001,
          4.66369987e-001, 5.97256005e-001, 5.15227973e-001,
          6.11590028e-001, 5.64085007e-001, 5.97256005e-001,
          6.39593005e-001, 6.16367996e-001, 7.19542027e-001,
          6.45035982e-001, 6.44034028e-001, 6.92816973e-001,
          5.68526983e-001, 7.11929023e-001, 5.15227973e-001,
          7.16706991e-001, 4.66369987e-001, 7.16706991e-001,
          3.90861988e-001, 7.02373028e-001, 3.37563008e-001,
          6.59370005e-001, 4.66369987e-001, 6.59370005e-001,
          5.15227973e-001, 6.64147973e-001, 5.68526983e-001,
          6.54591978e-001, 6.88450992e-001, 6.49814010e-001,
          5.68526983e-001, 6.49814010e-001, 5.15227973e-001,
          6.59370005e-001, 4.66369987e-001, 6.54591978e-001 ]
      - [ 7.39018023e-002, 9.52283964e-002, 1.39109001e-001,
          2.38070991e-002, 2.26052999e-001, 4.76142019e-003,
          3.17342997e-001, 1.90456994e-002, 4.04287010e-001,
          6.18984997e-002, 5.95561981e-001, 6.18984997e-002,
          6.82505012e-001, 1.90456994e-002, 7.69448996e-001,
          4.76142019e-003, 8.52045000e-001, 1.42842997e-002,
          9.12904978e-001, 7.61827007e-002, 4.99924004e-001,
          4.66618985e-001, 4.04287010e-001, 5.33279002e-001,
          4.52104986e-001, 5.47563016e-001, 4.99924004e-001,
          5.61847985e-001, 5.47743022e-001, 5.47563016e-001,
          5.91215014e-001, 5.33279002e-001, 1.95622995e-001,
          2.04741001e-001, 2.52135992e-001, 1.80933997e-001,
          3.08649004e-001, 1.85694993e-001, 3.65161985e-001,
          2.19025001e-001, 3.08649004e-001, 2.33309999e-001,
          2.47788996e-001, 2.28548005e-001, 6.34685993e-001,
          2.19025001e-001, 6.91200018e-001, 1.85694993e-001,
          7.52059996e-001, 1.85694993e-001, 8.04225981e-001,
          2.09502995e-001, 7.56407022e-001, 2.33309999e-001,
          6.95546985e-001, 2.33309999e-001, 2.99955010e-001,
          6.66598976e-001, 3.82551014e-001, 6.52315021e-001,
          4.47757989e-001, 6.42791986e-001, 4.95577008e-001,
          6.52315021e-001, 5.47743022e-001, 6.38029993e-001,
          6.12950981e-001, 6.47553027e-001, 6.95546985e-001,
          6.61836982e-001, 6.17298007e-001, 7.04689980e-001,
          5.56437016e-001, 7.23735988e-001, 4.99924004e-001,
          7.33259022e-001, 4.47757989e-001, 7.28497028e-001,
          3.82551014e-001, 7.09451973e-001, 3.30385000e-001,
          6.66598976e-001, 4.47757989e-001, 6.76122010e-001,
          4.99924004e-001, 6.80882990e-001, 5.52089989e-001,
          6.71360016e-001, 6.69463992e-001, 6.66598976e-001,
          5.52089989e-001, 6.71360016e-001, 4.99924004e-001,
          6.80882990e-001, 4.47757989e-001, 6.71360016e-001 ]
      - [ 6.71513006e-002, 7.59939030e-002, 1.38253003e-001,
          8.94046016e-003, 2.33053997e-001, 4.47023008e-003,
          3.23906004e-001, 2.68213991e-002, 4.14757997e-001,
          7.59939030e-002, 5.60911000e-001, 8.04641023e-002,
          6.47812009e-001, 3.12916003e-002, 7.42613971e-001,
          4.47023008e-003, 8.37415993e-001, 8.94046016e-003,
          9.12467003e-001, 7.15235993e-002, 4.74009007e-001,
          4.64904010e-001, 3.87107015e-001, 5.31956971e-001,
          4.30557996e-001, 5.54307997e-001, 4.77959007e-001,
          5.72188973e-001, 5.29309988e-001, 5.54307997e-001,
          5.76710999e-001, 5.36427021e-001, 1.65903002e-001,
          1.83278993e-001, 2.25153998e-001, 1.38576999e-001,
          3.00206006e-001, 1.47517994e-001, 3.59456986e-001,
          2.14570999e-001, 2.92306006e-001, 2.36921996e-001,
          2.17253998e-001, 2.32452005e-001, 6.24112010e-001,
          2.14570999e-001, 6.87313020e-001, 1.43047005e-001,
          7.62363970e-001, 1.38576999e-001, 8.17665994e-001,
          1.87749997e-001, 7.70264983e-001, 2.32452005e-001,
          6.95213020e-001, 2.36921996e-001, 3.04156005e-001,
          6.88414991e-001, 3.79206985e-001, 6.75004005e-001,
          4.42407995e-001, 6.57123983e-001, 4.77959007e-001,
          6.70534015e-001, 5.25359988e-001, 6.57123983e-001,
          5.92510998e-001, 6.75004005e-001, 6.79413021e-001,
          6.88414991e-001, 5.96460998e-001, 7.46527970e-001,
          5.29309988e-001, 7.64409006e-001, 4.81909007e-001,
          7.64409006e-001, 4.38457996e-001, 7.64409006e-001,
          3.79206985e-001, 7.46527970e-001, 3.27856004e-001,
          6.97355986e-001, 4.42407995e-001, 7.01825976e-001,
          4.81909007e-001, 7.10766017e-001, 5.25359988e-001,
          7.01825976e-001, 6.51762009e-001, 6.97355986e-001,
          5.25359988e-001, 6.97355986e-001, 4.81909007e-001,
          7.06296027e-001, 4.38457996e-001, 6.97355986e-001 ]
      - [ 7.45993033e-002, 1.32464007e-001, 1.27258003e-001,
          6.18164986e-002, 2.15021998e-001, 2.64928006e-002,
          3.07173997e-001, 1.76618993e-002, 4.03714001e-001,
          4.41545993e-002, 5.83630025e-001, 3.53237018e-002,
          6.71393991e-001, 1.32464003e-002, 7.67934024e-001,
          2.20772997e-002, 8.51310015e-001, 5.29856011e-002,
          9.08357024e-001, 1.14802003e-001, 4.91477996e-001,
          3.92975986e-001, 4.12490010e-001, 4.94531989e-001,
          4.51983988e-001, 5.03363013e-001, 4.95866001e-001,
          5.07777989e-001, 5.39748013e-001, 4.98948008e-001,
          5.83630025e-001, 4.90117013e-001, 1.84303999e-001,
          2.16358006e-001, 2.36963004e-001, 1.81033999e-001,
          3.02785993e-001, 1.76618993e-001, 3.64219993e-001,
          2.11942002e-001, 3.02785993e-001, 2.34019995e-001,
          2.36963004e-001, 2.38435000e-001, 6.31899953e-001,
          2.03110993e-001, 6.84558988e-001, 1.63371995e-001,
          7.50382006e-001, 1.63371995e-001, 8.03040028e-001,
          1.98696002e-001, 7.54769981e-001, 2.25189000e-001,
          6.88947022e-001, 2.20772997e-001, 3.46666992e-001,
          7.19721019e-001, 3.99325997e-001, 6.57904029e-001,
          4.56371993e-001, 6.18165016e-001, 5.00253975e-001,
          6.31411016e-001, 5.44135988e-001, 6.13749981e-001,
          6.05570972e-001, 6.49073005e-001, 6.67006016e-001,
          7.06474006e-001, 6.18736029e-001, 7.46213973e-001,
          5.57300985e-001, 7.59459972e-001, 5.09030998e-001,
          7.59459972e-001, 4.65148985e-001, 7.59459972e-001,
          4.08102006e-001, 7.55043983e-001, 3.77384990e-001,
          7.15304971e-001, 4.56371993e-001, 6.75566018e-001,
          5.04643023e-001, 6.75566018e-001, 5.44135988e-001,
          6.71150982e-001, 6.36287987e-001, 7.02058971e-001,
          5.52913010e-001, 6.84396982e-001, 5.09030998e-001,
          6.88812017e-001, 4.65148985e-001, 6.84396982e-001 ]
      - [ 9.67741981e-002, 9.50570032e-002, 1.61290005e-001,
          2.28137001e-002, 2.41935000e-001, 7.60455988e-003,
          3.29032004e-001, 1.90114006e-002, 4.12903011e-001,
          4.56274003e-002, 5.51612973e-001, 4.56274003e-002,
          6.41934991e-001, 1.52091002e-002, 7.32258022e-001,
          7.60455988e-003, 8.19355011e-001, 2.66159996e-002,
          8.80644977e-001, 9.12548006e-002, 4.70968008e-001,
          4.22053009e-001, 3.70968014e-001, 5.17109990e-001,
          4.16128993e-001, 5.28517008e-001, 4.61290002e-001,
          5.39924026e-001, 5.12902975e-001, 5.36122024e-001,
          5.54839015e-001, 5.28517008e-001, 1.90322995e-001,
          2.01520994e-001, 2.48386994e-001, 1.71103001e-001,
          3.03225994e-001, 1.74905002e-001, 3.51612985e-001,
          2.20532000e-001, 3.00000012e-001, 2.28137001e-001,
          2.41935000e-001, 2.20532000e-001, 6.12902999e-001,
          2.20532000e-001, 6.67742014e-001, 1.78707004e-001,
          7.25805998e-001, 1.78707004e-001, 7.80645013e-001,
          2.05322996e-001, 7.29031980e-001, 2.28137001e-001,
          6.70967996e-001, 2.31939003e-001, 2.61290014e-001,
          6.84410989e-001, 3.32257986e-001, 6.46387994e-001,
          3.90323013e-001, 6.27376020e-001, 4.32258010e-001,
          6.42585993e-001, 4.74193990e-001, 6.31178975e-001,
          5.35484016e-001, 6.65399015e-001, 6.06451988e-001,
          7.03422010e-001, 5.29031992e-001, 7.37643003e-001,
          4.64516014e-001, 7.45247006e-001, 4.16128993e-001,
          7.49049008e-001, 3.74193996e-001, 7.41445005e-001,
          3.19355011e-001, 7.26235986e-001, 2.80645013e-001,
          6.84410989e-001, 3.87097001e-001, 6.84410989e-001,
          4.29031998e-001, 6.95816994e-001, 4.74193990e-001,
          6.92014992e-001, 5.80645025e-001, 7.03422010e-001,
          4.67741996e-001, 6.84410989e-001, 4.22580987e-001,
          6.92014992e-001, 3.80645007e-001, 6.84410989e-001 ]
      - [ 2.25171998e-001, 3.04026008e-001, 2.65121996e-001,
          2.69769996e-001, 3.12335998e-001, 2.61206001e-001,
          3.63180995e-001, 2.65487999e-001, 4.10394996e-001,
          2.86897987e-001, 5.19348979e-001, 2.69769996e-001,
          5.77458024e-001, 2.44076997e-001, 6.31935000e-001,
          2.48358995e-001, 6.79148972e-001, 2.74051994e-001,
          7.22730994e-001, 3.12590003e-001, 4.61239994e-001,
          6.12334013e-001, 3.92235994e-001, 6.42309010e-001,
          4.24921989e-001, 6.59437001e-001, 4.64872003e-001,
          6.72282994e-001, 5.01190007e-001, 6.59437001e-001,
          5.33876002e-001, 6.50873005e-001, 2.83280998e-001,
          4.53898013e-001, 3.19599003e-001, 4.32487994e-001,
          3.59548986e-001, 4.32487994e-001, 3.92235994e-001,
          4.62462008e-001, 3.59548986e-001, 4.66744006e-001,
          3.15968007e-001, 4.66744006e-001, 5.48403978e-001,
          4.62462008e-001, 5.84721982e-001, 4.32487994e-001,
          6.28302991e-001, 4.32487994e-001, 6.64622009e-001,
          4.45333987e-001, 6.31935000e-001, 4.66744006e-001,
          5.88353992e-001, 4.66744006e-001, 3.45021993e-001,
          7.27949977e-001, 3.88603985e-001, 7.06539989e-001,
          4.32186007e-001, 6.97974980e-001, 4.57608014e-001,
          7.10821986e-001, 4.90294993e-001, 7.02257991e-001,
          5.41140020e-001, 7.06539989e-001, 5.99249005e-001,
          7.23667979e-001, 5.44772029e-001, 7.62206018e-001,
          4.97557998e-001, 7.79335022e-001, 4.61239994e-001,
          7.83617020e-001, 4.32186007e-001, 7.79335022e-001,
          3.81339997e-001, 7.57924020e-001, 3.63180995e-001,
          7.23667979e-001, 4.35817003e-001, 7.36513972e-001,
          4.61239994e-001, 7.40795970e-001, 4.90294993e-001,
          7.36513972e-001, 5.77458024e-001, 7.23667979e-001,
          4.93925989e-001, 7.32231975e-001, 4.61239994e-001,
          7.36513972e-001, 4.35817003e-001, 7.36513972e-001 ]
      - [ 6.63286000e-002, 1.25432998e-001, 1.22184001e-001,
          4.40712012e-002, 2.16441005e-001, 6.78018993e-003,
          3.17678988e-001, 1.01702996e-002, 4.18917000e-001,
          4.40712012e-002, 5.76011002e-001, 4.06811014e-002,
          6.77249014e-001, 1.35604003e-002, 7.81979024e-001,
          6.78018993e-003, 8.79725993e-001, 4.74613011e-002,
          9.32090998e-001, 1.28823996e-001, 4.95718986e-001,
          3.89860988e-001, 3.77025008e-001, 4.78002995e-001,
          4.32880998e-001, 4.84782994e-001, 4.92228001e-001,
          4.98344004e-001, 5.51573992e-001, 4.91564006e-001,
          6.07429981e-001, 4.84782994e-001, 1.74548998e-001,
          2.20356002e-001, 2.30404004e-001, 1.86454996e-001,
          2.96732992e-001, 1.86454996e-001, 3.59571010e-001,
          2.20356002e-001, 2.96732992e-001, 2.33916000e-001,
          2.26913005e-001, 2.33916000e-001, 6.31866992e-001,
          2.23746002e-001, 6.98194981e-001, 1.89844996e-001,
          7.68015027e-001, 1.89844996e-001, 8.27360988e-001,
          2.23746002e-001, 7.68015027e-001, 2.37306997e-001,
          7.01686025e-001, 2.37306997e-001, 2.61822999e-001,
          6.54287994e-001, 3.49097997e-001, 6.10216975e-001,
          4.22408015e-001, 5.86485982e-001, 4.81754988e-001,
          6.00046992e-001, 5.41100979e-001, 5.89875996e-001,
          6.21393979e-001, 6.13606989e-001, 7.08667994e-001,
          6.67847991e-001, 6.24885023e-001, 7.01749027e-001,
          5.44592023e-001, 7.11920023e-001, 4.81754988e-001,
          7.15309978e-001, 4.18917000e-001, 7.08530009e-001,
          3.42115998e-001, 6.91578984e-001, 2.93242007e-001,
          6.54287994e-001, 4.22408015e-001, 6.40727997e-001,
          4.81754988e-001, 6.47508025e-001, 5.44592023e-001,
          6.44118011e-001, 6.73758984e-001, 6.64457977e-001,
          5.41100979e-001, 6.47508025e-001, 4.81754988e-001,
          6.50897980e-001, 4.18917000e-001, 6.44118011e-001 ]
      - [ 8.09129030e-002, 9.27369967e-002, 1.45642996e-001,
          1.93201993e-002, 2.33028993e-001, 7.72807980e-003,
          3.20414990e-001, 3.09123006e-002, 4.01327997e-001,
          7.34167993e-002, 5.50207973e-001, 7.34167993e-002,
          6.31120980e-001, 3.47764008e-002, 7.18506992e-001,
          1.15921004e-002, 8.05893004e-001, 1.93201993e-002,
          8.64149988e-001, 9.27369967e-002, 4.79005009e-001,
          4.44364995e-001, 3.81909013e-001, 5.17781019e-001,
          4.30456996e-001, 5.29374003e-001, 4.79005009e-001,
          5.37101984e-001, 5.27552009e-001, 5.25509000e-001,
          5.76100051e-001, 5.06188989e-001, 1.71535000e-001,
          2.12522000e-001, 2.26556003e-001, 1.85473993e-001,
          2.88049996e-001, 1.85473993e-001, 3.39834005e-001,
          2.20249996e-001, 2.84814000e-001, 2.35706002e-001,
          2.26556003e-001, 2.35706002e-001, 6.08465016e-001,
          2.12522000e-001, 6.63486004e-001, 1.73881993e-001,
          7.21742988e-001, 1.73881993e-001, 7.73527980e-001,
          1.97065994e-001, 7.24979997e-001, 2.20249996e-001,
          6.66723013e-001, 2.24114001e-001, 3.36598009e-001,
          7.18711019e-001, 3.98092002e-001, 6.68479025e-001,
          4.49876010e-001, 6.41430974e-001, 4.85478014e-001,
          6.49159014e-001, 5.30789018e-001, 6.33702993e-001,
          5.79337001e-001, 6.53023005e-001, 6.27883971e-001,
          7.03254998e-001, 5.82572997e-001, 7.30304003e-001,
          5.34025013e-001, 7.41895974e-001, 4.91950989e-001,
          7.49624014e-001, 4.49876010e-001, 7.49624014e-001,
          3.98092002e-001, 7.45760024e-001, 3.59252989e-001,
          7.10982978e-001, 4.49876010e-001, 6.83934987e-001,
          4.88714010e-001, 6.83934987e-001, 5.30789018e-001,
          6.72343016e-001, 6.05229020e-001, 6.99391007e-001,
          5.34025013e-001, 6.72343016e-001, 4.88714010e-001,
          6.83934987e-001, 4.49876010e-001, 6.83934987e-001 ]
      - [ 8.72422978e-002, 1.18629001e-001, 1.49039000e-001,
          3.95430997e-002, 2.36280993e-001, 1.18629001e-002,
          3.34428996e-001, 1.18629001e-002, 4.25305992e-001,
          4.34973985e-002, 5.81614971e-001, 5.14059998e-002,
          6.65223002e-001, 1.58172008e-002, 7.56100059e-001,
          1.18629001e-002, 8.43342006e-001, 3.16344015e-002,
          9.01503980e-001, 1.06766000e-001, 5.16183972e-001,
          3.63795996e-001, 4.10766006e-001, 4.50791001e-001,
          4.58021998e-001, 4.62653995e-001, 5.12548983e-001,
          4.70562011e-001, 5.59804976e-001, 4.58698988e-001,
          6.03425980e-001, 4.42882001e-001, 1.85389996e-001,
          1.77944005e-001, 2.43551001e-001, 1.38401002e-001,
          3.08982998e-001, 1.38401002e-001, 3.63510013e-001,
          1.81897998e-001, 3.05348009e-001, 1.93761006e-001,
          2.39915997e-001, 2.01670006e-001, 6.28871977e-001,
          1.81897998e-001, 6.90667987e-001, 1.38401002e-001,
          7.52465010e-001, 1.38401002e-001, 8.03355992e-001,
          1.73988998e-001, 7.52465010e-001, 1.97714999e-001,
          6.90667987e-001, 1.97714999e-001, 3.23523998e-001,
          6.56414986e-001, 4.07130986e-001, 6.12917006e-001,
          4.72562999e-001, 5.85237026e-001, 5.19819021e-001,
          5.97099960e-001, 5.70710003e-001, 5.77328980e-001,
          6.28871977e-001, 5.93146026e-001, 6.90667987e-001,
          6.24779999e-001, 6.32507026e-001, 6.64322972e-001,
          5.77979982e-001, 6.84095025e-001, 5.23454010e-001,
          6.95958018e-001, 4.76197988e-001, 6.99912012e-001,
          4.03495997e-001, 6.88049018e-001, 3.56238991e-001,
          6.52459979e-001, 4.72562999e-001, 6.32688999e-001,
          5.19819021e-001, 6.32688999e-001, 5.70710003e-001,
          6.20826006e-001, 6.65223002e-001, 6.24779999e-001,
          5.74344993e-001, 6.20826006e-001, 5.23454010e-001,
          6.36642992e-001, 4.72562999e-001, 6.32688999e-001 ]
      - [ 7.85107017e-002, 9.73834991e-002, 1.35213003e-001,
          1.77060999e-002, 2.22446993e-001, -3.09857000e-002,
          3.27127993e-001, -2.21325997e-002, 4.09999996e-001,
          2.21325997e-002, 5.88829994e-001, 3.98387015e-002,
          6.76065028e-001, -4.42651985e-003, 7.72022009e-001,
          -1.32796001e-002, 8.59256029e-001, 2.65590996e-002,
          9.11597013e-001, 1.06237002e-001, 5.27767003e-001,
          3.58547986e-001, 4.18724000e-001, 4.69211012e-001,
          4.62341011e-001, 4.82490987e-001, 5.10320008e-001,
          4.91344005e-001, 5.58299005e-001, 4.86918002e-001,
          5.97554028e-001, 4.78065014e-001, 1.83192000e-001,
          1.94766998e-001, 2.39894003e-001, 1.68208003e-001,
          3.00958008e-001, 1.63781002e-001, 3.66382986e-001,
          1.85913995e-001, 3.05319995e-001, 1.99193999e-001,
          2.39894003e-001, 2.08047003e-001, 6.32448018e-001,
          1.94766998e-001, 7.02234983e-001, 1.72634006e-001,
          7.63298988e-001, 1.81486994e-001, 8.15639019e-001,
          2.08047003e-001, 7.58937001e-001, 2.16900006e-001,
          6.97872996e-001, 2.12473005e-001, 3.09680998e-001,
          6.50699019e-001, 3.96914989e-001, 6.15287006e-001,
          4.57978994e-001, 5.88728011e-001, 5.05958021e-001,
          6.06433988e-001, 5.49574971e-001, 5.97581029e-001,
          6.10638976e-001, 6.28566027e-001, 6.80426002e-001,
          6.77258015e-001, 6.06276989e-001, 7.03817010e-001,
          5.45212984e-001, 7.03817010e-001, 4.97235000e-001,
          7.03817010e-001, 4.49256003e-001, 6.99391007e-001,
          3.88191998e-001, 6.86110973e-001, 3.40213001e-001,
          6.50699019e-001, 4.57978994e-001, 6.41846001e-001,
          5.01595974e-001, 6.46272004e-001, 5.49574971e-001,
          6.46272004e-001, 6.54255986e-001, 6.72832012e-001,
          5.40852010e-001, 6.50699019e-001, 4.97235000e-001,
          6.50699019e-001, 4.53617990e-001, 6.41846001e-001 ]
      - [ 1.86102003e-001, 7.03039020e-002, 2.44871005e-001,
          7.40040978e-003, 3.16700011e-001, -7.40040978e-003,
          3.91793996e-001, 1.48008000e-002, 4.53828007e-001,
          5.92033006e-002, 5.81161022e-001, 6.66036978e-002,
          6.52989984e-001, 4.07022983e-002, 7.28084028e-001,
          4.44024988e-002, 7.93383002e-001, 7.40040988e-002,
          8.42356980e-001, 1.29507005e-001, 5.12597024e-001,
          3.66320997e-001, 4.17914003e-001, 4.58826005e-001,
          4.57093000e-001, 4.77326989e-001, 4.96273011e-001,
          4.92128015e-001, 5.32186985e-001, 4.84726995e-001,
          5.64836979e-001, 4.81027007e-001, 2.61195987e-001,
          2.10912004e-001, 3.13434988e-001, 2.03511000e-001,
          3.68939012e-001, 2.07212001e-001, 4.14649010e-001,
          2.25713000e-001, 3.65675002e-001, 2.36812994e-001,
          3.10169995e-001, 2.36812994e-001, 6.00750983e-001,
          2.47914001e-001, 6.56255007e-001, 2.44213998e-001,
          7.08494008e-001, 2.59014994e-001, 7.54203975e-001,
          2.81215996e-001, 7.05228984e-001, 2.88616002e-001,
          6.56255007e-001, 2.77516007e-001, 3.29759985e-001,
          6.80837989e-001, 3.95058990e-001, 6.10534012e-001,
          4.60357994e-001, 5.80932975e-001, 4.96273011e-001,
          5.95732987e-001, 5.35452008e-001, 5.84632993e-001,
          5.84425986e-001, 6.32735014e-001, 6.33400023e-001,
          6.99338973e-001, 5.77895999e-001, 7.54841983e-001,
          5.28922021e-001, 7.69643009e-001, 4.86478001e-001,
          7.73343027e-001, 4.47297990e-001, 7.65942991e-001,
          3.85264009e-001, 7.36341000e-001, 3.55879992e-001,
          6.80837989e-001, 4.57093000e-001, 6.40136003e-001,
          4.93007988e-001, 6.47535980e-001, 5.32186985e-001,
          6.43836021e-001, 6.04016006e-001, 6.95639014e-001,
          5.28922021e-001, 6.88238978e-001, 4.89742994e-001,
          6.91938996e-001, 4.53828007e-001, 6.80837989e-001 ]
      - [ 2.54393011e-001, 2.76452005e-001, 2.84321994e-001,
          2.15977997e-001, 3.40438008e-001, 1.90061003e-001,
          3.92812997e-001, 1.98699996e-001, 4.41446990e-001,
          2.33256996e-001, 5.61160982e-001, 2.33256996e-001,
          6.17277026e-001, 2.07339004e-001, 6.69651985e-001,
          2.20298007e-001, 7.18285978e-001, 2.63494015e-001,
          7.40733027e-001, 3.23967993e-001, 4.45187986e-001,
          5.31306982e-001, 3.77847999e-001, 5.91781020e-001,
          4.15259004e-001, 6.04739010e-001, 4.52670008e-001,
          6.22017980e-001, 4.97563004e-001, 6.09058976e-001,
          5.38715005e-001, 5.91781020e-001, 3.06768000e-001,
          3.97399992e-001, 3.36697012e-001, 3.80122006e-001,
          3.70366007e-001, 3.80122006e-001, 4.00294989e-001,
          4.01719987e-001, 3.70366007e-001, 4.06039000e-001,
          3.32955986e-001, 4.06039000e-001, 5.61160982e-001,
          4.14678007e-001, 5.94830990e-001, 3.93081009e-001,
          6.32241011e-001, 3.97399992e-001, 6.65911019e-001,
          4.18998003e-001, 6.28500044e-001, 4.18998003e-001,
          5.94830990e-001, 4.18998003e-001, 3.51660997e-001,
          7.64563024e-001, 3.89072001e-001, 7.12728977e-001,
          4.26481992e-001, 6.99769974e-001, 4.56411004e-001,
          7.12728977e-001, 4.97563004e-001, 7.04089999e-001,
          5.46196997e-001, 7.25687027e-001, 5.98572016e-001,
          7.64563024e-001, 5.46196997e-001, 7.77522027e-001,
          4.93822008e-001, 7.86161005e-001, 4.56411004e-001,
          7.86161005e-001, 4.22740996e-001, 7.81841993e-001,
          3.85331005e-001, 7.68882990e-001, 3.74107003e-001,
          7.51604974e-001, 4.22740996e-001, 7.38645971e-001,
          4.56411004e-001, 7.42965996e-001, 4.93822008e-001,
          7.47285008e-001, 5.76125026e-001, 7.55923986e-001,
          4.97563004e-001, 7.42965996e-001, 4.56411004e-001,
          7.42965996e-001, 4.22740996e-001, 7.38645971e-001 ]
      - [ 6.91431984e-002, 8.73404965e-002, 1.33348003e-001,
          1.54130002e-002, 2.32124001e-001, -5.13766985e-003,
          3.30900013e-001, 1.54130002e-002, 4.29675996e-001,
          5.13767004e-002, 5.53146005e-001, 5.65144010e-002,
          6.46983027e-001, 1.54130002e-002, 7.45759010e-001,
          -1.54130002e-002, 8.44534993e-001, 5.13766985e-003,
          9.08739984e-001, 7.19273984e-002, 4.88941014e-001,
          3.59636992e-001, 3.75348985e-001, 4.36702013e-001,
          4.29675996e-001, 4.57253009e-001, 4.88941014e-001,
          4.72665995e-001, 5.53146005e-001, 4.52114999e-001,
          6.02533996e-001, 4.31564987e-001, 1.82735994e-001,
          1.59268007e-001, 2.42000997e-001, 1.38716996e-001,
          3.01266998e-001, 1.33579999e-001, 3.65471005e-001,
          1.59268007e-001, 3.01266998e-001, 1.69542998e-001,
          2.37063006e-001, 1.69542998e-001, 6.22289002e-001,
          1.59268007e-001, 6.86493993e-001, 1.33579999e-001,
          7.45759010e-001, 1.33579999e-001, 8.05024981e-001,
          1.48993000e-001, 7.45759010e-001, 1.69542998e-001,
          6.86493993e-001, 1.64406002e-001, 3.06205988e-001,
          6.42208993e-001, 3.70409995e-001, 5.90833008e-001,
          4.39552993e-001, 5.70281982e-001, 4.88941014e-001,
          5.85695028e-001, 5.43268025e-001, 5.70281982e-001,
          6.07473016e-001, 5.85695028e-001, 6.71676993e-001,
          6.37072027e-001, 6.12411022e-001, 6.93585992e-001,
          5.53146005e-001, 7.24412024e-001, 4.98818994e-001,
          7.34686971e-001, 4.39552993e-001, 7.29550004e-001,
          3.75348985e-001, 7.03860998e-001, 3.35839003e-001,
          6.42208993e-001, 4.39552993e-001, 6.31933987e-001,
          4.93880004e-001, 6.37072027e-001, 5.48206985e-001,
          6.26796007e-001, 6.42044008e-001, 6.37072027e-001,
          5.48206985e-001, 6.37072027e-001, 4.93880004e-001,
          6.52485013e-001, 4.44492012e-001, 6.42208993e-001 ]
      - [ 1.34345993e-001, 9.19639990e-002, 1.77335992e-001,
