%YAML:1.0
opencv_ml_svm:
   format: 3
   svmType: C_SVC
   kernel:
      type: POLY
      degree: 1.0000000000000000e-002
      gamma: 1.0000000000000001e-005
      coef0: 1.0000000000000001e-001
   C: 1.0000000000000001e-001
   term_criteria: { epsilon:1.1920928955078125e-007, iterations:1000 }
   var_count: 37
   class_count: 7
   class_labels: !!opencv-matrix
      rows: 7
      cols: 1
      dt: i
      data: [ 0, 1, 2, 3, 4, 5, 6 ]
   sv_total: 626
   support_vectors:
      - [ 1.94837093e-001, 4.61000055e-002, 4.19090092e-002,
          1.98935986e-001, 4.19090092e-002, 4.19089943e-002,
          1.39455244e-001, 1.11213394e-001, 1.67531714e-001,
          1.21606037e-001, 1.17417581e-001, 1.54691696e-001,
          1.18115209e-001, 1.41646788e-001, 1.44468024e-001,
          2.94025958e-001, 1.32795200e-001, 1.75015777e-001,
          1.57449096e-001, 1.75015777e-001, 4.14499640e-003,
          5.89457946e-003, 4.19104099e-003, 0., 6.28629923e-002,
          1.19958825e-001, 9.21999812e-002, 9.74615812e-002,
          8.81055444e-002, 9.67457592e-002, 9.71886739e-002,
          1.01020008e-001, 6.75644204e-002, 1.31978884e-001, 0.,
          4.25918788e-001, 3.27415019e-001 ]
      - [ 1.94837093e-001, 4.61000055e-002, 4.19090092e-002,
          1.98935986e-001, 4.19090092e-002, 4.19089943e-002,
          1.39455244e-001, 1.11213394e-001, 1.67531714e-001,
          1.21606037e-001, 1.17417581e-001, 1.54691696e-001,
          1.18115209e-001, 1.41646788e-001, 1.44468024e-001,
          2.94025958e-001, 1.32795200e-001, 1.75015777e-001,
          1.57449096e-001, 1.75015777e-001, 4.14499640e-003,
          5.89457946e-003, 4.19104099e-003, 0., 6.28629923e-002,
          1.19958825e-001, 9.21999812e-002, 9.74615812e-002,
          8.81055444e-002, 9.67457592e-002, 9.71886739e-002,
          1.01020008e-001, 6.75644204e-002, 1.31978884e-001, 0.,
          4.25918788e-001, 3.27415019e-001 ]
      - [ 1.94837093e-001, 4.61000055e-002, 4.19090092e-002,
          1.98935986e-001, 4.19090092e-002, 4.19089943e-002,
          1.39455244e-001, 1.11213394e-001, 1.67531714e-001,
          1.21606037e-001, 1.17417581e-001, 1.54691696e-001,
          1.18115209e-001, 1.41646788e-001, 1.44468024e-001,
          2.94025958e-001, 1.32795200e-001, 1.75015777e-001,
          1.57449096e-001, 1.75015777e-001, 4.14499640e-003,
          5.89457946e-003, 4.19104099e-003, 0., 6.28629923e-002,
          1.19958825e-001, 9.21999812e-002, 9.74615812e-002,
          8.81055444e-002, 9.67457592e-002, 9.71886739e-002,
          1.01020008e-001, 6.75644204e-002, 1.31978884e-001, 0.,
          4.25918788e-001, 3.27415019e-001 ]
      - [ 1.94837093e-001, 4.61000055e-002, 4.19090092e-002,
          1.98935986e-001, 4.19090092e-002, 4.19089943e-002,
          1.39455244e-001, 1.11213394e-001, 1.67531714e-001,
          1.21606037e-001, 1.17417581e-001, 1.54691696e-001,
          1.18115209e-001, 1.41646788e-001, 1.44468024e-001,
          2.94025958e-001, 1.32795200e-001, 1.75015777e-001,
          1.57449096e-001, 1.75015777e-001, 4.14499640e-003,
          5.89457946e-003, 4.19104099e-003, 0., 6.28629923e-002,
          1.19958825e-001, 9.21999812e-002, 9.74615812e-002,
          8.81055444e-002, 9.67457592e-002, 9.71886739e-002,
          1.01020008e-001, 6.75644204e-002, 1.31978884e-001, 0.,
          4.25918788e-001, 3.27415019e-001 ]
      - [ 1.94837093e-001, 4.61000055e-002, 4.19090092e-002,
          1.98935986e-001, 4.19090092e-002, 4.19089943e-002,
          1.39455244e-001, 1.11213394e-001, 1.67531714e-001,
          1.21606037e-001, 1.17417581e-001, 1.54691696e-001,
          1.18115209e-001, 1.41646788e-001, 1.44468024e-001,
          2.94025958e-001, 1.32795200e-001, 1.75015777e-001,
          1.57449096e-001, 1.75015777e-001, 4.14499640e-003,
          5.89457946e-003, 4.19104099e-003, 0., 6.28629923e-002,
          1.19958825e-001, 9.21999812e-002, 9.74615812e-002,
          8.81055444e-002, 9.67457592e-002, 9.71886739e-002,
          1.01020008e-001, 6.75644204e-002, 1.31978884e-001, 0.,
          4.25918788e-001, 3.27415019e-001 ]
      - [ 1.94837093e-001, 4.61000055e-002, 4.19090092e-002,
          1.98935986e-001, 4.19090092e-002, 4.19089943e-002,
          1.39455244e-001, 1.11213394e-001, 1.67531714e-001,
          1.21606037e-001, 1.17417581e-001, 1.54691696e-001,
          1.18115209e-001, 1.41646788e-001, 1.44468024e-001,
          2.94025958e-001, 1.32795200e-001, 1.75015777e-001,
          1.57449096e-001, 1.75015777e-001, 4.14499640e-003,
          5.89457946e-003, 4.19104099e-003, 0., 6.28629923e-002,
          1.19958825e-001, 9.21999812e-002, 9.74615812e-002,
          8.81055444e-002, 9.67457592e-002, 9.71886739e-002,
          1.01020008e-001, 6.75644204e-002, 1.31978884e-001, 0.,
          4.25918788e-001, 3.27415019e-001 ]
      - [ 1.94837093e-001, 4.61000055e-002, 4.19090092e-002,
          1.98935986e-001, 4.19090092e-002, 4.19089943e-002,
          1.39455244e-001, 1.11213394e-001, 1.67531714e-001,
          1.21606037e-001, 1.17417581e-001, 1.54691696e-001,
          1.18115209e-001, 1.41646788e-001, 1.44468024e-001,
          2.94025958e-001, 1.32795200e-001, 1.75015777e-001,
          1.57449096e-001, 1.75015777e-001, 4.14499640e-003,
          5.89457946e-003, 4.19104099e-003, 0., 6.28629923e-002,
          1.19958825e-001, 9.21999812e-002, 9.74615812e-002,
          8.81055444e-002, 9.67457592e-002, 9.71886739e-002,
          1.01020008e-001, 6.75644204e-002, 1.31978884e-001, 0.,
          4.25918788e-001, 3.27415019e-001 ]
      - [ 1.94837093e-001, 4.61000055e-002, 4.19090092e-002,
          1.98935986e-001, 4.19090092e-002, 4.19089943e-002,
          1.39455244e-001, 1.11213394e-001, 1.67531714e-001,
          1.21606037e-001, 1.17417581e-001, 1.54691696e-001,
          1.18115209e-001, 1.41646788e-001, 1.44468024e-001,
          2.94025958e-001, 1.32795200e-001, 1.75015777e-001,
          1.57449096e-001, 1.75015777e-001, 4.14499640e-003,
          5.89457946e-003, 4.19104099e-003, 0., 6.28629923e-002,
          1.19958825e-001, 9.21999812e-002, 9.74615812e-002,
          8.81055444e-002, 9.67457592e-002, 9.71886739e-002,
          1.01020008e-001, 6.75644204e-002, 1.31978884e-001, 0.,
          4.25918788e-001, 3.27415019e-001 ]
      - [ 1.94837093e-001, 4.61000055e-002, 4.19090092e-002,
          1.98935986e-001, 4.19090092e-002, 4.19089943e-002,
          1.39455244e-001, 1.11213394e-001, 1.67531714e-001,
          1.21606037e-001, 1.17417581e-001, 1.54691696e-001,
          1.18115209e-001, 1.41646788e-001, 1.44468024e-001,
          2.94025958e-001, 1.32795200e-001, 1.75015777e-001,
          1.57449096e-001, 1.75015777e-001, 4.14499640e-003,
          5.89457946e-003, 4.19104099e-003, 0., 6.28629923e-002,
          1.19958825e-001, 9.21999812e-002, 9.74615812e-002,
          8.81055444e-002, 9.67457592e-002, 9.71886739e-002,
          1.01020008e-001, 6.75644204e-002, 1.31978884e-001, 0.,
          4.25918788e-001, 3.27415019e-001 ]
      - [ 1.94837093e-001, 4.61000055e-002, 4.19090092e-002,
          1.98935986e-001, 4.19090092e-002, 4.19089943e-002,
          1.39455244e-001, 1.11213394e-001, 1.67531714e-001,
          1.21606037e-001, 1.17417581e-001, 1.54691696e-001,
          1.18115209e-001, 1.41646788e-001, 1.44468024e-001,
          2.94025958e-001, 1.32795200e-001, 1.75015777e-001,
          1.57449096e-001, 1.75015777e-001, 4.14499640e-003,
          5.89457946e-003, 4.19104099e-003, 0., 6.28629923e-002,
          1.19958825e-001, 9.21999812e-002, 9.74615812e-002,
          8.81055444e-002, 9.67457592e-002, 9.71886739e-002,
          1.01020008e-001, 6.75644204e-002, 1.31978884e-001, 0.,
          4.25918788e-001, 3.27415019e-001 ]
      - [ 1.94837093e-001, 4.61000055e-002, 4.19090092e-002,
          1.98935986e-001, 4.19090092e-002, 4.19089943e-002,
          1.39455244e-001, 1.11213394e-001, 1.67531714e-001,
          1.21606037e-001, 1.17417581e-001, 1.54691696e-001,
          1.18115209e-001, 1.41646788e-001, 1.44468024e-001,
          2.94025958e-001, 1.32795200e-001, 1.75015777e-001,
          1.57449096e-001, 1.75015777e-001, 4.14499640e-003,
          5.89457946e-003, 4.19104099e-003, 0., 6.28629923e-002,
          1.19958825e-001, 9.21999812e-002, 9.74615812e-002,
          8.81055444e-002, 9.67457592e-002, 9.71886739e-002,
          1.01020008e-001, 6.75644204e-002, 1.31978884e-001, 0.,
          4.25918788e-001, 3.27415019e-001 ]
      - [ 1.94837093e-001, 4.61000055e-002, 4.19090092e-002,
          1.98935986e-001, 4.19090092e-002, 4.19089943e-002,
          1.39455244e-001, 1.11213394e-001, 1.67531714e-001,
          1.21606037e-001, 1.17417581e-001, 1.54691696e-001,
          1.18115209e-001, 1.41646788e-001, 1.44468024e-001,
          2.94025958e-001, 1.32795200e-001, 1.75015777e-001,
          1.57449096e-001, 1.75015777e-001, 4.14499640e-003,
          5.89457946e-003, 4.19104099e-003, 0., 6.28629923e-002,
          1.19958825e-001, 9.21999812e-002, 9.74615812e-002,
          8.81055444e-002, 9.67457592e-002, 9.71886739e-002,
          1.01020008e-001, 6.75644204e-002, 1.31978884e-001, 0.,
          4.25918788e-001, 3.27415019e-001 ]
      - [ 1.94837093e-001, 4.61000055e-002, 4.19090092e-002,
          1.98935986e-001, 4.19090092e-002, 4.19089943e-002,
          1.39455244e-001, 1.11213394e-001, 1.67531714e-001,
          1.21606037e-001, 1.17417581e-001, 1.54691696e-001,
          1.18115209e-001, 1.41646788e-001, 1.44468024e-001,
          2.94025958e-001, 1.32795200e-001, 1.75015777e-001,
          1.57449096e-001, 1.75015777e-001, 4.14499640e-003,
          5.89457946e-003, 4.19104099e-003, 0., 6.28629923e-002,
          1.19958825e-001, 9.21999812e-002, 9.74615812e-002,
          8.81055444e-002, 9.67457592e-002, 9.71886739e-002,
          1.01020008e-001, 6.75644204e-002, 1.31978884e-001, 0.,
          4.25918788e-001, 3.27415019e-001 ]
      - [ 1.94837093e-001, 4.61000055e-002, 4.19090092e-002,
          1.98935986e-001, 4.19090092e-002, 4.19089943e-002,
          1.39455244e-001, 1.11213394e-001, 1.67531714e-001,
          1.21606037e-001, 1.17417581e-001, 1.54691696e-001,
          1.18115209e-001, 1.41646788e-001, 1.44468024e-001,
          2.94025958e-001, 1.32795200e-001, 1.75015777e-001,
          1.57449096e-001, 1.75015777e-001, 4.14499640e-003,
          5.89457946e-003, 4.19104099e-003, 0., 6.28629923e-002,
          1.19958825e-001, 9.21999812e-002, 9.74615812e-002,
          8.81055444e-002, 9.67457592e-002, 9.71886739e-002,
          1.01020008e-001, 6.75644204e-002, 1.31978884e-001, 0.,
          4.25918788e-001, 3.27415019e-001 ]
      - [ 1.94837093e-001, 4.61000055e-002, 4.19090092e-002,
          1.98935986e-001, 4.19090092e-002, 4.19089943e-002,
          1.39455244e-001, 1.11213394e-001, 1.67531714e-001,
          1.21606037e-001, 1.17417581e-001, 1.54691696e-001,
          1.18115209e-001, 1.41646788e-001, 1.44468024e-001,
          2.94025958e-001, 1.32795200e-001, 1.75015777e-001,
          1.57449096e-001, 1.75015777e-001, 4.14499640e-003,
          5.89457946e-003, 4.19104099e-003, 0., 6.28629923e-002,
          1.19958825e-001, 9.21999812e-002, 9.74615812e-002,
          8.81055444e-002, 9.67457592e-002, 9.71886739e-002,
          1.01020008e-001, 6.75644204e-002, 1.31978884e-001, 0.,
          4.25918788e-001, 3.27415019e-001 ]
      - [ 1.94837093e-001, 4.61000055e-002, 4.19090092e-002,
          1.98935986e-001, 4.19090092e-002, 4.19089943e-002,
          1.39455244e-001, 1.11213394e-001, 1.67531714e-001,
          1.21606037e-001, 1.17417581e-001, 1.54691696e-001,
          1.18115209e-001, 1.41646788e-001, 1.44468024e-001,
          2.94025958e-001, 1.32795200e-001, 1.75015777e-001,
          1.57449096e-001, 1.75015777e-001, 4.14499640e-003,
          5.89457946e-003, 4.19104099e-003, 0., 6.28629923e-002,
          1.19958825e-001, 9.21999812e-002, 9.74615812e-002,
          8.81055444e-002, 9.67457592e-002, 9.71886739e-002,
          1.01020008e-001, 6.75644204e-002, 1.31978884e-001, 0.,
          4.25918788e-001, 3.27415019e-001 ]
      - [ 1.94837093e-001, 4.61000055e-002, 4.19090092e-002,
          1.98935986e-001, 4.19090092e-002, 4.19089943e-002,
          1.39455244e-001, 1.11213394e-001, 1.67531714e-001,
          1.21606037e-001, 1.17417581e-001, 1.54691696e-001,
          1.18115209e-001, 1.41646788e-001, 1.44468024e-001,
          2.94025958e-001, 1.32795200e-001, 1.75015777e-001,
          1.57449096e-001, 1.75015777e-001, 4.14499640e-003,
          5.89457946e-003, 4.19104099e-003, 0., 6.28629923e-002,
          1.19958825e-001, 9.21999812e-002, 9.74615812e-002,
          8.81055444e-002, 9.67457592e-002, 9.71886739e-002,
          1.01020008e-001, 6.75644204e-002, 1.31978884e-001, 0.,
          4.25918788e-001, 3.27415019e-001 ]
      - [ 1.94837093e-001, 4.61000055e-002, 4.19090092e-002,
          1.98935986e-001, 4.19090092e-002, 4.19089943e-002,
          1.39455244e-001, 1.11213394e-001, 1.67531714e-001,
          1.21606037e-001, 1.17417581e-001, 1.54691696e-001,
          1.18115209e-001, 1.41646788e-001, 1.44468024e-001,
          2.94025958e-001, 1.32795200e-001, 1.75015777e-001,
          1.57449096e-001, 1.75015777e-001, 4.14499640e-003,
          5.89457946e-003, 4.19104099e-003, 0., 6.28629923e-002,
          1.19958825e-001, 9.21999812e-002, 9.74615812e-002,
          8.81055444e-002, 9.67457592e-002, 9.71886739e-002,
          1.01020008e-001, 6.75644204e-002, 1.31978884e-001, 0.,
          4.25918788e-001, 3.27415019e-001 ]
      - [ 1.94837093e-001, 4.61000055e-002, 4.19090092e-002,
          1.98935986e-001, 4.19090092e-002, 4.19089943e-002,
          1.39455244e-001, 1.11213394e-001, 1.67531714e-001,
          1.21606037e-001, 1.17417581e-001, 1.54691696e-001,
          1.18115209e-001, 1.41646788e-001, 1.44468024e-001,
          2.94025958e-001, 1.32795200e-001, 1.75015777e-001,
          1.57449096e-001, 1.75015777e-001, 4.14499640e-003,
          5.89457946e-003, 4.19104099e-003, 0., 6.28629923e-002,
          1.19958825e-001, 9.21999812e-002, 9.74615812e-002,
          8.81055444e-002, 9.67457592e-002, 9.71886739e-002,
          1.01020008e-001, 6.75644204e-002, 1.31978884e-001, 0.,
          4.25918788e-001, 3.27415019e-001 ]
      - [ 1.94837093e-001, 4.61000055e-002, 4.19090092e-002,
          1.98935986e-001, 4.19090092e-002, 4.19089943e-002,
          1.39455244e-001, 1.11213394e-001, 1.67531714e-001,
          1.21606037e-001, 1.17417581e-001, 1.54691696e-001,
          1.18115209e-001, 1.41646788e-001, 1.44468024e-001,
          2.94025958e-001, 1.32795200e-001, 1.75015777e-001,
          1.57449096e-001, 1.75015777e-001, 4.14499640e-003,
          5.89457946e-003, 4.19104099e-003, 0., 6.28629923e-002,
          1.19958825e-001, 9.21999812e-002, 9.74615812e-002,
          8.81055444e-002, 9.67457592e-002, 9.71886739e-002,
          1.01020008e-001, 6.75644204e-002, 1.31978884e-001, 0.,
          4.25918788e-001, 3.27415019e-001 ]
      - [ 1.94837093e-001, 4.61000055e-002, 4.19090092e-002,
          1.98935986e-001, 4.19090092e-002, 4.19089943e-002,
          1.39455244e-001, 1.11213394e-001, 1.67531714e-001,
          1.21606037e-001, 1.17417581e-001, 1.54691696e-001,
          1.18115209e-001, 1.41646788e-001, 1.44468024e-001,
          2.94025958e-001, 1.32795200e-001, 1.75015777e-001,
          1.57449096e-001, 1.75015777e-001, 4.14499640e-003,
          5.89457946e-003, 4.19104099e-003, 0., 6.28629923e-002,
          1.19958825e-001, 9.21999812e-002, 9.74615812e-002,
          8.81055444e-002, 9.67457592e-002, 9.71886739e-002,
          1.01020008e-001, 6.75644204e-002, 1.31978884e-001, 0.,
          4.25918788e-001, 3.27415019e-001 ]
      - [ 1.94837093e-001, 4.61000055e-002, 4.19090092e-002,
          1.98935986e-001, 4.19090092e-002, 4.19089943e-002,
          1.39455244e-001, 1.11213394e-001, 1.67531714e-001,
          1.21606037e-001, 1.17417581e-001, 1.54691696e-001,
          1.18115209e-001, 1.41646788e-001, 1.44468024e-001,
          2.94025958e-001, 1.32795200e-001, 1.75015777e-001,
          1.57449096e-001, 1.75015777e-001, 4.14499640e-003,
          5.89457946e-003, 4.19104099e-003, 0., 6.28629923e-002,
          1.19958825e-001, 9.21999812e-002, 9.74615812e-002,
          8.81055444e-002, 9.67457592e-002, 9.71886739e-002,
          1.01020008e-001, 6.75644204e-002, 1.31978884e-001, 0.,
          4.25918788e-001, 3.27415019e-001 ]
      - [ 1.94837093e-001, 4.61000055e-002, 4.19090092e-002,
          1.98935986e-001, 4.19090092e-002, 4.19089943e-002,
          1.39455244e-001, 1.11213394e-001, 1.67531714e-001,
          1.21606037e-001, 1.17417581e-001, 1.54691696e-001,
          1.18115209e-001, 1.41646788e-001, 1.44468024e-001,
          2.94025958e-001, 1.32795200e-001, 1.75015777e-001,
          1.57449096e-001, 1.75015777e-001, 4.14499640e-003,
          5.89457946e-003, 4.19104099e-003, 0., 6.28629923e-002,
          1.19958825e-001, 9.21999812e-002, 9.74615812e-002,
          8.81055444e-002, 9.67457592e-002, 9.71886739e-002,
          1.01020008e-001, 6.75644204e-002, 1.31978884e-001, 0.,
          4.25918788e-001, 3.27415019e-001 ]
      - [ 1.94837093e-001, 4.61000055e-002, 4.19090092e-002,
          1.98935986e-001, 4.19090092e-002, 4.19089943e-002,
          1.39455244e-001, 1.11213394e-001, 1.67531714e-001,
          1.21606037e-001, 1.17417581e-001, 1.54691696e-001,
          1.18115209e-001, 1.41646788e-001, 1.44468024e-001,
          2.94025958e-001, 1.32795200e-001, 1.75015777e-001,
          1.57449096e-001, 1.75015777e-001, 4.14499640e-003,
          5.89457946e-003, 4.19104099e-003, 0., 6.28629923e-002,
          1.19958825e-001, 9.21999812e-002, 9.74615812e-002,
          8.81055444e-002, 9.67457592e-002, 9.71886739e-002,
          1.01020008e-001, 6.75644204e-002, 1.31978884e-001, 0.,
          4.25918788e-001, 3.27415019e-001 ]
      - [ 1.94837093e-001, 4.61000055e-002, 4.19090092e-002,
          1.98935986e-001, 4.19090092e-002, 4.19089943e-002,
          1.39455244e-001, 1.11213394e-001, 1.67531714e-001,
          1.21606037e-001, 1.17417581e-001, 1.54691696e-001,
          1.18115209e-001, 1.41646788e-001, 1.44468024e-001,
          2.94025958e-001, 1.32795200e-001, 1.75015777e-001,
          1.57449096e-001, 1.75015777e-001, 4.14499640e-003,
          5.89457946e-003, 4.19104099e-003, 0., 6.28629923e-002,
          1.19958825e-001, 9.21999812e-002, 9.74615812e-002,
          8.81055444e-002, 9.67457592e-002, 9.71886739e-002,
          1.01020008e-001, 6.75644204e-002, 1.31978884e-001, 0.,
          4.25918788e-001, 3.27415019e-001 ]
      - [ 1.94837093e-001, 4.61000055e-002, 4.19090092e-002,
          1.98935986e-001, 4.19090092e-002, 4.19089943e-002,
          1.39455244e-001, 1.11213394e-001, 1.67531714e-001,
          1.21606037e-001, 1.17417581e-001, 1.54691696e-001,
          1.18115209e-001, 1.41646788e-001, 1.44468024e-001,
          2.94025958e-001, 1.32795200e-001, 1.75015777e-001,
          1.57449096e-001, 1.75015777e-001, 4.14499640e-003,
          5.89457946e-003, 4.19104099e-003, 0., 6.28629923e-002,
          1.19958825e-001, 9.21999812e-002, 9.74615812e-002,
          8.81055444e-002, 9.67457592e-002, 9.71886739e-002,
          1.01020008e-001, 6.75644204e-002, 1.31978884e-001, 0.,
          4.25918788e-001, 3.27415019e-001 ]
      - [ 1.94837093e-001, 4.61000055e-002, 4.19090092e-002,
          1.98935986e-001, 4.19090092e-002, 4.19089943e-002,
          1.39455244e-001, 1.11213394e-001, 1.67531714e-001,
          1.21606037e-001, 1.17417581e-001, 1.54691696e-001,
          1.18115209e-001, 1.41646788e-001, 1.44468024e-001,
          2.94025958e-001, 1.32795200e-001, 1.75015777e-001,
          1.57449096e-001, 1.75015777e-001, 4.14499640e-003,
          5.89457946e-003, 4.19104099e-003, 0., 6.28629923e-002,
          1.19958825e-001, 9.21999812e-002, 9.74615812e-002,
          8.81055444e-002, 9.67457592e-002, 9.71886739e-002,
          1.01020008e-001, 6.75644204e-002, 1.31978884e-001, 0.,
          4.25918788e-001, 3.27415019e-001 ]
      - [ 1.94837093e-001, 4.61000055e-002, 4.19090092e-002,
          1.98935986e-001, 4.19090092e-002, 4.19089943e-002,
          1.39455244e-001, 1.11213394e-001, 1.67531714e-001,
          1.21606037e-001, 1.17417581e-001, 1.54691696e-001,
          1.18115209e-001, 1.41646788e-001, 1.44468024e-001,
          2.94025958e-001, 1.32795200e-001, 1.75015777e-001,
          1.57449096e-001, 1.75015777e-001, 4.14499640e-003,
          5.89457946e-003, 4.19104099e-003, 0., 6.28629923e-002,
          1.19958825e-001, 9.21999812e-002, 9.74615812e-002,
          8.81055444e-002, 9.67457592e-002, 9.71886739e-002,
          1.01020008e-001, 6.75644204e-002, 1.31978884e-001, 0.,
          4.25918788e-001, 3.27415019e-001 ]
      - [ 1.94837093e-001, 4.61000055e-002, 4.19090092e-002,
          1.98935986e-001, 4.19090092e-002, 4.19089943e-002,
          1.39455244e-001, 1.11213394e-001, 1.67531714e-001,
          1.21606037e-001, 1.17417581e-001, 1.54691696e-001,
          1.18115209e-001, 1.41646788e-001, 1.44468024e-001,
          2.94025958e-001, 1.32795200e-001, 1.75015777e-001,
          1.57449096e-001, 1.75015777e-001, 4.14499640e-003,
          5.89457946e-003, 4.19104099e-003, 0., 6.28629923e-002,
          1.19958825e-001, 9.21999812e-002, 9.74615812e-002,
          8.81055444e-002, 9.67457592e-002, 9.71886739e-002,
          1.01020008e-001, 6.75644204e-002, 1.31978884e-001, 0.,
          4.25918788e-001, 3.27415019e-001 ]
      - [ 1.94837093e-001, 4.61000055e-002, 4.19090092e-002,
          1.98935986e-001, 4.19090092e-002, 4.19089943e-002,
          1.39455244e-001, 1.11213394e-001, 1.67531714e-001,
          1.21606037e-001, 1.17417581e-001, 1.54691696e-001,
          1.18115209e-001, 1.41646788e-001, 1.44468024e-001,
          2.94025958e-001, 1.32795200e-001, 1.75015777e-001,
          1.57449096e-001, 1.75015777e-001, 4.14499640e-003,
          5.89457946e-003, 4.19104099e-003, 0., 6.28629923e-002,
          1.19958825e-001, 9.21999812e-002, 9.74615812e-002,
          8.81055444e-002, 9.67457592e-002, 9.71886739e-002,
          1.01020008e-001, 6.75644204e-002, 1.31978884e-001, 0.,
          4.25918788e-001, 3.27415019e-001 ]
      - [ 1.94837093e-001, 4.61000055e-002, 4.19090092e-002,
          1.98935986e-001, 4.19090092e-002, 4.19089943e-002,
          1.39455244e-001, 1.11213394e-001, 1.67531714e-001,
          1.21606037e-001, 1.17417581e-001, 1.54691696e-001,
          1.18115209e-001, 1.41646788e-001, 1.44468024e-001,
          2.94025958e-001, 1.32795200e-001, 1.75015777e-001,
          1.57449096e-001, 1.75015777e-001, 4.14499640e-003,
          5.89457946e-003, 4.19104099e-003, 0., 6.28629923e-002,
          1.19958825e-001, 9.21999812e-002, 9.74615812e-002,
          8.81055444e-002, 9.67457592e-002, 9.71886739e-002,
          1.01020008e-001, 6.75644204e-002, 1.31978884e-001, 0.,
          4.25918788e-001, 3.27415019e-001 ]
      - [ 1.94837093e-001, 4.61000055e-002, 4.19090092e-002,
          1.98935986e-001, 4.19090092e-002, 4.19089943e-002,
          1.39455244e-001, 1.11213394e-001, 1.67531714e-001,
          1.21606037e-001, 1.17417581e-001, 1.54691696e-001,
          1.18115209e-001, 1.41646788e-001, 1.44468024e-001,
          2.94025958e-001, 1.32795200e-001, 1.75015777e-001,
          1.57449096e-001, 1.75015777e-001, 4.14499640e-003,
          5.89457946e-003, 4.19104099e-003, 0., 6.28629923e-002,
          1.19958825e-001, 9.21999812e-002, 9.74615812e-002,
          8.81055444e-002, 9.67457592e-002, 9.71886739e-002,
          1.01020008e-001, 6.75644204e-002, 1.31978884e-001, 0.,
          4.25918788e-001, 3.27415019e-001 ]
      - [ 1.94837093e-001, 4.61000055e-002, 4.19090092e-002,
          1.98935986e-001, 4.19090092e-002, 4.19089943e-002,
          1.39455244e-001, 1.11213394e-001, 1.67531714e-001,
          1.21606037e-001, 1.17417581e-001, 1.54691696e-001,
          1.18115209e-001, 1.41646788e-001, 1.44468024e-001,
          2.94025958e-001, 1.32795200e-001, 1.75015777e-001,
          1.57449096e-001, 1.75015777e-001, 4.14499640e-003,
          5.89457946e-003, 4.19104099e-003, 0., 6.28629923e-002,
          1.19958825e-001, 9.21999812e-002, 9.74615812e-002,
          8.81055444e-002, 9.67457592e-002, 9.71886739e-002,
          1.01020008e-001, 6.75644204e-002, 1.31978884e-001, 0.,
          4.25918788e-001, 3.27415019e-001 ]
      - [ 1.94837093e-001, 4.61000055e-002, 4.19090092e-002,
          1.98935986e-001, 4.19090092e-002, 4.19089943e-002,
          1.39455244e-001, 1.11213394e-001, 1.67531714e-001,
          1.21606037e-001, 1.17417581e-001, 1.54691696e-001,
          1.18115209e-001, 1.41646788e-001, 1.44468024e-001,
          2.94025958e-001, 1.32795200e-001, 1.75015777e-001,
          1.57449096e-001, 1.75015777e-001, 4.14499640e-003,
          5.89457946e-003, 4.19104099e-003, 0., 6.28629923e-002,
          1.19958825e-001, 9.21999812e-002, 9.74615812e-002,
          8.81055444e-002, 9.67457592e-002, 9.71886739e-002,
          1.01020008e-001, 6.75644204e-002, 1.31978884e-001, 0.,
          4.25918788e-001, 3.27415019e-001 ]
      - [ 1.94837093e-001, 4.61000055e-002, 4.19090092e-002,
          1.98935986e-001, 4.19090092e-002, 4.19089943e-002,
          1.39455244e-001, 1.11213394e-001, 1.67531714e-001,
          1.21606037e-001, 1.17417581e-001, 1.54691696e-001,
          1.18115209e-001, 1.41646788e-001, 1.44468024e-001,
          2.94025958e-001, 1.32795200e-001, 1.75015777e-001,
          1.57449096e-001, 1.75015777e-001, 4.14499640e-003,
          5.89457946e-003, 4.19104099e-003, 0., 6.28629923e-002,
          1.19958825e-001, 9.21999812e-002, 9.74615812e-002,
          8.81055444e-002, 9.67457592e-002, 9.71886739e-002,
          1.01020008e-001, 6.75644204e-002, 1.31978884e-001, 0.,
          4.25918788e-001, 3.27415019e-001 ]
      - [ 1.94837093e-001, 4.61000055e-002, 4.19090092e-002,
          1.98935986e-001, 4.19090092e-002, 4.19089943e-002,
          1.39455244e-001, 1.11213394e-001, 1.67531714e-001,
          1.21606037e-001, 1.17417581e-001, 1.54691696e-001,
          1.18115209e-001, 1.41646788e-001, 1.44468024e-001,
          2.94025958e-001, 1.32795200e-001, 1.75015777e-001,
          1.57449096e-001, 1.75015777e-001, 4.14499640e-003,
          5.89457946e-003, 4.19104099e-003, 0., 6.28629923e-002,
          1.19958825e-001, 9.21999812e-002, 9.74615812e-002,
          8.81055444e-002, 9.67457592e-002, 9.71886739e-002,
          1.01020008e-001, 6.75644204e-002, 1.31978884e-001, 0.,
          4.25918788e-001, 3.27415019e-001 ]
      - [ 1.94837093e-001, 4.61000055e-002, 4.19090092e-002,
          1.98935986e-001, 4.19090092e-002, 4.19089943e-002,
          1.39455244e-001, 1.11213394e-001, 1.67531714e-001,
          1.21606037e-001, 1.17417581e-001, 1.54691696e-001,
          1.18115209e-001, 1.41646788e-001, 1.44468024e-001,
          2.94025958e-001, 1.32795200e-001, 1.75015777e-001,
          1.57449096e-001, 1.75015777e-001, 4.14499640e-003,
          5.89457946e-003, 4.19104099e-003, 0., 6.28629923e-002,
          1.19958825e-001, 9.21999812e-002, 9.74615812e-002,
          8.81055444e-002, 9.67457592e-002, 9.71886739e-002,
          1.01020008e-001, 6.75644204e-002, 1.31978884e-001, 0.,
          4.25918788e-001, 3.27415019e-001 ]
      - [ 1.94837093e-001, 4.61000055e-002, 4.19090092e-002,
          1.98935986e-001, 4.19090092e-002, 4.19089943e-002,
          1.39455244e-001, 1.11213394e-001, 1.67531714e-001,
          1.21606037e-001, 1.17417581e-001, 1.54691696e-001,
          1.18115209e-001, 1.41646788e-001, 1.44468024e-001,
          2.94025958e-001, 1.32795200e-001, 1.75015777e-001,
          1.57449096e-001, 1.75015777e-001, 4.14499640e-003,
          5.89457946e-003, 4.19104099e-003, 0., 6.28629923e-002,
          1.19958825e-001, 9.21999812e-002, 9.74615812e-002,
          8.81055444e-002, 9.67457592e-002, 9.71886739e-002,
          1.01020008e-001, 6.75644204e-002, 1.31978884e-001, 0.,
          4.25918788e-001, 3.27415019e-001 ]
      - [ 1.94837093e-001, 4.61000055e-002, 4.19090092e-002,
          1.98935986e-001, 4.19090092e-002, 4.19089943e-002,
          1.39455244e-001, 1.11213394e-001, 1.67531714e-001,
          1.21606037e-001, 1.17417581e-001, 1.54691696e-001,
          1.18115209e-001, 1.41646788e-001, 1.44468024e-001,
          2.94025958e-001, 1.32795200e-001, 1.75015777e-001,
          1.57449096e-001, 1.75015777e-001, 4.14499640e-003,
          5.89457946e-003, 4.19104099e-003, 0., 6.28629923e-002,
          1.19958825e-001, 9.21999812e-002, 9.74615812e-002,
          8.81055444e-002, 9.67457592e-002, 9.71886739e-002,
          1.01020008e-001, 6.75644204e-002, 1.31978884e-001, 0.,
          4.25918788e-001, 3.27415019e-001 ]
      - [ 1.94837093e-001, 4.61000055e-002, 4.19090092e-002,
          1.98935986e-001, 4.19090092e-002, 4.19089943e-002,
          1.39455244e-001, 1.11213394e-001, 1.67531714e-001,
          1.21606037e-001, 1.17417581e-001, 1.54691696e-001,
          1.18115209e-001, 1.41646788e-001, 1.44468024e-001,
          2.94025958e-001, 1.32795200e-001, 1.75015777e-001,
          1.57449096e-001, 1.75015777e-001, 4.14499640e-003,
          5.89457946e-003, 4.19104099e-003, 0., 6.28629923e-002,
          1.19958825e-001, 9.21999812e-002, 9.74615812e-002,
          8.81055444e-002, 9.67457592e-002, 9.71886739e-002,
          1.01020008e-001, 6.75644204e-002, 1.31978884e-001, 0.,
          4.25918788e-001, 3.27415019e-001 ]
      - [ 1.94837093e-001, 4.61000055e-002, 4.19090092e-002,
          1.98935986e-001, 4.19090092e-002, 4.19089943e-002,
          1.39455244e-001, 1.11213394e-001, 1.67531714e-001,
          1.21606037e-001, 1.17417581e-001, 1.54691696e-001,
          1.18115209e-001, 1.41646788e-001, 1.44468024e-001,
          2.94025958e-001, 1.32795200e-001, 1.75015777e-001,
          1.57449096e-001, 1.75015777e-001, 4.14499640e-003,
          5.89457946e-003, 4.19104099e-003, 0., 6.28629923e-002,
          1.19958825e-001, 9.21999812e-002, 9.74615812e-002,
          8.81055444e-002, 9.67457592e-002, 9.71886739e-002,
          1.01020008e-001, 6.75644204e-002, 1.31978884e-001, 0.,
          4.25918788e-001, 3.27415019e-001 ]
      - [ 1.94837093e-001, 4.61000055e-002, 4.19090092e-002,
          1.98935986e-001, 4.19090092e-002, 4.19089943e-002,
          1.39455244e-001, 1.11213394e-001, 1.67531714e-001,
          1.21606037e-001, 1.17417581e-001, 1.54691696e-001,
          1.18115209e-001, 1.41646788e-001, 1.44468024e-001,
          2.94025958e-001, 1.32795200e-001, 1.75015777e-001,
          1.57449096e-001, 1.75015777e-001, 4.14499640e-003,
          5.89457946e-003, 4.19104099e-003, 0., 6.28629923e-002,
          1.19958825e-001, 9.21999812e-002, 9.74615812e-002,
          8.81055444e-002, 9.67457592e-002, 9.71886739e-002,
          1.01020008e-001, 6.75644204e-002, 1.31978884e-001, 0.,
          4.25918788e-001, 3.27415019e-001 ]
      - [ 1.94837093e-001, 4.61000055e-002, 4.19090092e-002,
          1.98935986e-001, 4.19090092e-002, 4.19089943e-002,
          1.39455244e-001, 1.11213394e-001, 1.67531714e-001,
          1.21606037e-001, 1.17417581e-001, 1.54691696e-001,
          1.18115209e-001, 1.41646788e-001, 1.44468024e-001,
          2.94025958e-001, 1.32795200e-001, 1.75015777e-001,
          1.57449096e-001, 1.75015777e-001, 4.14499640e-003,
          5.89457946e-003, 4.19104099e-003, 0., 6.28629923e-002,
          1.19958825e-001, 9.21999812e-002, 9.74615812e-002,
          8.81055444e-002, 9.67457592e-002, 9.71886739e-002,
          1.01020008e-001, 6.75644204e-002, 1.31978884e-001, 0.,
          4.25918788e-001, 3.27415019e-001 ]
      - [ 1.94837093e-001, 4.61000055e-002, 4.19090092e-002,
          1.98935986e-001, 4.19090092e-002, 4.19089943e-002,
          1.39455244e-001, 1.11213394e-001, 1.67531714e-001,
          1.21606037e-001, 1.17417581e-001, 1.54691696e-001,
          1.18115209e-001, 1.41646788e-001, 1.44468024e-001,
          2.94025958e-001, 1.32795200e-001, 1.75015777e-001,
          1.57449096e-001, 1.75015777e-001, 4.14499640e-003,
          5.89457946e-003, 4.19104099e-003, 0., 6.28629923e-002,
          1.19958825e-001, 9.21999812e-002, 9.74615812e-002,
          8.81055444e-002, 9.67457592e-002, 9.71886739e-002,
          1.01020008e-001, 6.75644204e-002, 1.31978884e-001, 0.,
          4.25918788e-001, 3.27415019e-001 ]
      - [ 1.94837093e-001, 4.61000055e-002, 4.19090092e-002,
          1.98935986e-001, 4.19090092e-002, 4.19089943e-002,
          1.39455244e-001, 1.11213394e-001, 1.67531714e-001,
          1.21606037e-001, 1.17417581e-001, 1.54691696e-001,
          1.18115209e-001, 1.41646788e-001, 1.44468024e-001,
          2.94025958e-001, 1.32795200e-001, 1.75015777e-001,
          1.57449096e-001, 1.75015777e-001, 4.14499640e-003,
          5.89457946e-003, 4.19104099e-003, 0., 6.28629923e-002,
          1.19958825e-001, 9.21999812e-002, 9.74615812e-002,
          8.81055444e-002, 9.67457592e-002, 9.71886739e-002,
          1.01020008e-001, 6.75644204e-002, 1.31978884e-001, 0.,
          4.25918788e-001, 3.27415019e-001 ]
      - [ 1.94837093e-001, 4.61000055e-002, 4.19090092e-002,
          1.98935986e-001, 4.19090092e-002, 4.19089943e-002,
          1.39455244e-001, 1.11213394e-001, 1.67531714e-001,
          1.21606037e-001, 1.17417581e-001, 1.54691696e-001,
          1.18115209e-001, 1.41646788e-001, 1.44468024e-001,
          2.94025958e-001, 1.32795200e-001, 1.75015777e-001,
          1.57449096e-001, 1.75015777e-001, 4.14499640e-003,
          5.89457946e-003, 4.19104099e-003, 0., 6.28629923e-002,
          1.19958825e-001, 9.21999812e-002, 9.74615812e-002,
          8.81055444e-002, 9.67457592e-002, 9.71886739e-002,
          1.01020008e-001, 6.75644204e-002, 1.31978884e-001, 0.,
          4.25918788e-001, 3.27415019e-001 ]
      - [ 1.94837093e-001, 4.61000055e-002, 4.19090092e-002,
          1.98935986e-001, 4.19090092e-002, 4.19089943e-002,
          1.39455244e-001, 1.11213394e-001, 1.67531714e-001,
          1.21606037e-001, 1.17417581e-001, 1.54691696e-001,
          1.18115209e-001, 1.41646788e-001, 1.44468024e-001,
          2.94025958e-001, 1.32795200e-001, 1.75015777e-001,
          1.57449096e-001, 1.75015777e-001, 4.14499640e-003,
          5.89457946e-003, 4.19104099e-003, 0., 6.28629923e-002,
          1.19958825e-001, 9.21999812e-002, 9.74615812e-002,
          8.81055444e-002, 9.67457592e-002, 9.71886739e-002,
          1.01020008e-001, 6.75644204e-002, 1.31978884e-001, 0.,
          4.25918788e-001, 3.27415019e-001 ]
      - [ 1.94837093e-001, 4.61000055e-002, 4.19090092e-002,
          1.98935986e-001, 4.19090092e-002, 4.19089943e-002,
          1.39455244e-001, 1.11213394e-001, 1.67531714e-001,
          1.21606037e-001, 1.17417581e-001, 1.54691696e-001,
          1.18115209e-001, 1.41646788e-001, 1.44468024e-001,
          2.94025958e-001, 1.32795200e-001, 1.75015777e-001,
          1.57449096e-001, 1.75015777e-001, 4.14499640e-003,
          5.89457946e-003, 4.19104099e-003, 0., 6.28629923e-002,
          1.19958825e-001, 9.21999812e-002, 9.74615812e-002,
          8.81055444e-002, 9.67457592e-002, 9.71886739e-002,
          1.01020008e-001, 6.75644204e-002, 1.31978884e-001, 0.,
          4.25918788e-001, 3.27415019e-001 ]
      - [ 1.94837093e-001, 4.61000055e-002, 4.19090092e-002,
          1.98935986e-001, 4.19090092e-002, 4.19089943e-002,
          1.39455244e-001, 1.11213394e-001, 1.67531714e-001,
          1.21606037e-001, 1.17417581e-001, 1.54691696e-001,
          1.18115209e-001, 1.41646788e-001, 1.44468024e-001,
          2.94025958e-001, 1.32795200e-001, 1.75015777e-001,
          1.57449096e-001, 1.75015777e-001, 4.14499640e-003,
          5.89457946e-003, 4.19104099e-003, 0., 6.28629923e-002,
          1.19958825e-001, 9.21999812e-002, 9.74615812e-002,
          8.81055444e-002, 9.67457592e-002, 9.71886739e-002,
          1.01020008e-001, 6.75644204e-002, 1.31978884e-001, 0.,
          4.25918788e-001, 3.27415019e-001 ]
      - [ 1.94837093e-001, 4.61000055e-002, 4.19090092e-002,
          1.98935986e-001, 4.19090092e-002, 4.19089943e-002,
          1.39455244e-001, 1.11213394e-001, 1.67531714e-001,
          1.21606037e-001, 1.17417581e-001, 1.54691696e-001,
          1.18115209e-001, 1.41646788e-001, 1.44468024e-001,
          2.94025958e-001, 1.32795200e-001, 1.75015777e-001,
          1.57449096e-001, 1.75015777e-001, 4.14499640e-003,
          5.89457946e-003, 4.19104099e-003, 0., 6.28629923e-002,
          1.19958825e-001, 9.21999812e-002, 9.74615812e-002,
          8.81055444e-002, 9.67457592e-002, 9.71886739e-002,
          1.01020008e-001, 6.75644204e-002, 1.31978884e-001, 0.,
          4.25918788e-001, 3.27415019e-001 ]
      - [ 1.94837093e-001, 4.61000055e-002, 4.19090092e-002,
          1.98935986e-001, 4.19090092e-002, 4.19089943e-002,
          1.39455244e-001, 1.11213394e-001, 1.67531714e-001,
          1.21606037e-001, 1.17417581e-001, 1.54691696e-001,
          1.18115209e-001, 1.41646788e-001, 1.44468024e-001,
          2.94025958e-001, 1.32795200e-001, 1.75015777e-001,
          1.57449096e-001, 1.75015777e-001, 4.14499640e-003,
          5.89457946e-003, 4.19104099e-003, 0., 6.28629923e-002,
          1.19958825e-001, 9.21999812e-002, 9.74615812e-002,
          8.81055444e-002, 9.67457592e-002, 9.71886739e-002,
          1.01020008e-001, 6.75644204e-002, 1.31978884e-001, 0.,
          4.25918788e-001, 3.27415019e-001 ]
      - [ 1.94837093e-001, 4.61000055e-002, 4.19090092e-002,
          1.98935986e-001, 4.19090092e-002, 4.19089943e-002,
          1.39455244e-001, 1.11213394e-001, 1.67531714e-001,
          1.21606037e-001, 1.17417581e-001, 1.54691696e-001,
          1.18115209e-001, 1.41646788e-001, 1.44468024e-001,
          2.94025958e-001, 1.32795200e-001, 1.75015777e-001,
          1.57449096e-001, 1.75015777e-001, 4.14499640e-003,
          5.89457946e-003, 4.19104099e-003, 0., 6.28629923e-002,
          1.19958825e-001, 9.21999812e-002, 9.74615812e-002,
          8.81055444e-002, 9.67457592e-002, 9.71886739e-002,
          1.01020008e-001, 6.75644204e-002, 1.31978884e-001, 0.,
          4.25918788e-001, 3.27415019e-001 ]
      - [ 1.94837093e-001, 4.61000055e-002, 4.19090092e-002,
          1.98935986e-001, 4.19090092e-002, 4.19089943e-002,
          1.39455244e-001, 1.11213394e-001, 1.67531714e-001,
          1.21606037e-001, 1.17417581e-001, 1.54691696e-001,
          1.18115209e-001, 1.41646788e-001, 1.44468024e-001,
          2.94025958e-001, 1.32795200e-001, 1.75015777e-001,
          1.57449096e-001, 1.75015777e-001, 4.14499640e-003,
          5.89457946e-003, 4.19104099e-003, 0., 6.28629923e-002,
          1.19958825e-001, 9.21999812e-002, 9.74615812e-002,
          8.81055444e-002, 9.67457592e-002, 9.71886739e-002,
          1.01020008e-001, 6.75644204e-002, 1.31978884e-001, 0.,
          4.25918788e-001, 3.27415019e-001 ]
      - [ 1.94837093e-001, 4.61000055e-002, 4.19090092e-002,
          1.98935986e-001, 4.19090092e-002, 4.19089943e-002,
          1.39455244e-001, 1.11213394e-001, 1.67531714e-001,
          1.21606037e-001, 1.17417581e-001, 1.54691696e-001,
          1.18115209e-001, 1.41646788e-001, 1.44468024e-001,
          2.94025958e-001, 1.32795200e-001, 1.75015777e-001,
          1.57449096e-001, 1.75015777e-001, 4.14499640e-003,
          5.89457946e-003, 4.19104099e-003, 0., 6.28629923e-002,
          1.19958825e-001, 9.21999812e-002, 9.74615812e-002,
          8.81055444e-002, 9.67457592e-002, 9.71886739e-002,
          1.01020008e-001, 6.75644204e-002, 1.31978884e-001, 0.,
          4.25918788e-001, 3.27415019e-001 ]
      - [ 1.94837093e-001, 4.61000055e-002, 4.19090092e-002,
          1.98935986e-001, 4.19090092e-002, 4.19089943e-002,
          1.39455244e-001, 1.11213394e-001, 1.67531714e-001,
          1.21606037e-001, 1.17417581e-001, 1.54691696e-001,
          1.18115209e-001, 1.41646788e-001, 1.44468024e-001,
          2.94025958e-001, 1.32795200e-001, 1.75015777e-001,
          1.57449096e-001, 1.75015777e-001, 4.14499640e-003,
          5.89457946e-003, 4.19104099e-003, 0., 6.28629923e-002,
          1.19958825e-001, 9.21999812e-002, 9.74615812e-002,
          8.81055444e-002, 9.67457592e-002, 9.71886739e-002,
          1.01020008e-001, 6.75644204e-002, 1.31978884e-001, 0.,
          4.25918788e-001, 3.27415019e-001 ]
      - [ 1.94837093e-001, 4.61000055e-002, 4.19090092e-002,
          1.98935986e-001, 4.19090092e-002, 4.19089943e-002,
          1.39455244e-001, 1.11213394e-001, 1.67531714e-001,
          1.21606037e-001, 1.17417581e-001, 1.54691696e-001,
          1.18115209e-001, 1.41646788e-001, 1.44468024e-001,
          2.94025958e-001, 1.32795200e-001, 1.75015777e-001,
          1.57449096e-001, 1.75015777e-001, 4.14499640e-003,
          5.89457946e-003, 4.19104099e-003, 0., 6.28629923e-002,
          1.19958825e-001, 9.21999812e-002, 9.74615812e-002,
          8.81055444e-002, 9.67457592e-002, 9.71886739e-002,
          1.01020008e-001, 6.75644204e-002, 1.31978884e-001, 0.,
          4.25918788e-001, 3.27415019e-001 ]
      - [ 1.94837093e-001, 4.61000055e-002, 4.19090092e-002,
          1.98935986e-001, 4.19090092e-002, 4.19089943e-002,
          1.39455244e-001, 1.11213394e-001, 1.67531714e-001,
          1.21606037e-001, 1.17417581e-001, 1.54691696e-001,
          1.18115209e-001, 1.41646788e-001, 1.44468024e-001,
          2.94025958e-001, 1.32795200e-001, 1.75015777e-001,
          1.57449096e-001, 1.75015777e-001, 4.14499640e-003,
          5.89457946e-003, 4.19104099e-003, 0., 6.28629923e-002,
          1.19958825e-001, 9.21999812e-002, 9.74615812e-002,
          8.81055444e-002, 9.67457592e-002, 9.71886739e-002,
          1.01020008e-001, 6.75644204e-002, 1.31978884e-001, 0.,
          4.25918788e-001, 3.27415019e-001 ]
      - [ 1.94837093e-001, 4.61000055e-002, 4.19090092e-002,
          1.98935986e-001, 4.19090092e-002, 4.19089943e-002,
          1.39455244e-001, 1.11213394e-001, 1.67531714e-001,
          1.21606037e-001, 1.17417581e-001, 1.54691696e-001,
          1.18115209e-001, 1.41646788e-001, 1.44468024e-001,
          2.94025958e-001, 1.32795200e-001, 1.75015777e-001,
          1.57449096e-001, 1.75015777e-001, 4.14499640e-003,
          5.89457946e-003, 4.19104099e-003, 0., 6.28629923e-002,
          1.19958825e-001, 9.21999812e-002, 9.74615812e-002,
          8.81055444e-002, 9.67457592e-002, 9.71886739e-002,
          1.01020008e-001, 6.75644204e-002, 1.31978884e-001, 0.,
          4.25918788e-001, 3.27415019e-001 ]
      - [ 1.94837093e-001, 4.61000055e-002, 4.19090092e-002,
          1.98935986e-001, 4.19090092e-002, 4.19089943e-002,
          1.39455244e-001, 1.11213394e-001, 1.67531714e-001,
          1.21606037e-001, 1.17417581e-001, 1.54691696e-001,
          1.18115209e-001, 1.41646788e-001, 1.44468024e-001,
          2.94025958e-001, 1.32795200e-001, 1.75015777e-001,
          1.57449096e-001, 1.75015777e-001, 4.14499640e-003,
          5.89457946e-003, 4.19104099e-003, 0., 6.28629923e-002,
          1.19958825e-001, 9.21999812e-002, 9.74615812e-002,
          8.81055444e-002, 9.67457592e-002, 9.71886739e-002,
          1.01020008e-001, 6.75644204e-002, 1.31978884e-001, 0.,
          4.25918788e-001, 3.27415019e-001 ]
      - [ 1.94837093e-001, 4.61000055e-002, 4.19090092e-002,
          1.98935986e-001, 4.19090092e-002, 4.19089943e-002,
          1.39455244e-001, 1.11213394e-001, 1.67531714e-001,
          1.21606037e-001, 1.17417581e-001, 1.54691696e-001,
          1.18115209e-001, 1.41646788e-001, 1.44468024e-001,
          2.94025958e-001, 1.32795200e-001, 1.75015777e-001,
          1.57449096e-001, 1.75015777e-001, 4.14499640e-003,
          5.89457946e-003, 4.19104099e-003, 0., 6.28629923e-002,
          1.19958825e-001, 9.21999812e-002, 9.74615812e-002,
          8.81055444e-002, 9.67457592e-002, 9.71886739e-002,
          1.01020008e-001, 6.75644204e-002, 1.31978884e-001, 0.,
          4.25918788e-001, 3.27415019e-001 ]
      - [ 1.94837093e-001, 4.61000055e-002, 4.19090092e-002,
          1.98935986e-001, 4.19090092e-002, 4.19089943e-002,
          1.39455244e-001, 1.11213394e-001, 1.67531714e-001,
          1.21606037e-001, 1.17417581e-001, 1.54691696e-001,
          1.18115209e-001, 1.41646788e-001, 1.44468024e-001,
          2.94025958e-001, 1.32795200e-001, 1.75015777e-001,
          1.57449096e-001, 1.75015777e-001, 4.14499640e-003,
          5.89457946e-003, 4.19104099e-003, 0., 6.28629923e-002,
          1.19958825e-001, 9.21999812e-002, 9.74615812e-002,
          8.81055444e-002, 9.67457592e-002, 9.71886739e-002,
          1.01020008e-001, 6.75644204e-002, 1.31978884e-001, 0.,
          4.25918788e-001, 3.27415019e-001 ]
      - [ 1.94837093e-001, 4.61000055e-002, 4.19090092e-002,
          1.98935986e-001, 4.19090092e-002, 4.19089943e-002,
          1.39455244e-001, 1.11213394e-001, 1.67531714e-001,
          1.21606037e-001, 1.17417581e-001, 1.54691696e-001,
          1.18115209e-001, 1.41646788e-001, 1.44468024e-001,
          2.94025958e-001, 1.32795200e-001, 1.75015777e-001,
          1.57449096e-001, 1.75015777e-001, 4.14499640e-003,
          5.89457946e-003, 4.19104099e-003, 0., 6.28629923e-002,
          1.19958825e-001, 9.21999812e-002, 9.74615812e-002,
          8.81055444e-002, 9.67457592e-002, 9.71886739e-002,
          1.01020008e-001, 6.75644204e-002, 1.31978884e-001, 0.,
          4.25918788e-001, 3.27415019e-001 ]
      - [ 1.94837093e-001, 4.61000055e-002, 4.19090092e-002,
          1.98935986e-001, 4.19090092e-002, 4.19089943e-002,
          1.39455244e-001, 1.11213394e-001, 1.67531714e-001,
          1.21606037e-001, 1.17417581e-001, 1.54691696e-001,
          1.18115209e-001, 1.41646788e-001, 1.44468024e-001,
          2.94025958e-001, 1.32795200e-001, 1.75015777e-001,
          1.57449096e-001, 1.75015777e-001, 4.14499640e-003,
          5.89457946e-003, 4.19104099e-003, 0., 6.28629923e-002,
          1.19958825e-001, 9.21999812e-002, 9.74615812e-002,
          8.81055444e-002, 9.67457592e-002, 9.71886739e-002,
          1.01020008e-001, 6.75644204e-002, 1.31978884e-001, 0.,
          4.25918788e-001, 3.27415019e-001 ]
      - [ 1.94837093e-001, 4.61000055e-002, 4.19090092e-002,
          1.98935986e-001, 4.19090092e-002, 4.19089943e-002,
          1.39455244e-001, 1.11213394e-001, 1.67531714e-001,
          1.21606037e-001, 1.17417581e-001, 1.54691696e-001,
          1.18115209e-001, 1.41646788e-001, 1.44468024e-001,
          2.94025958e-001, 1.32795200e-001, 1.75015777e-001,
          1.57449096e-001, 1.75015777e-001, 4.14499640e-003,
          5.89457946e-003, 4.19104099e-003, 0., 6.28629923e-002,
          1.19958825e-001, 9.21999812e-002, 9.74615812e-002,
          8.81055444e-002, 9.67457592e-002, 9.71886739e-002,
          1.01020008e-001, 6.75644204e-002, 1.31978884e-001, 0.,
          4.25918788e-001, 3.27415019e-001 ]
      - [ 1.94837093e-001, 4.61000055e-002, 4.19090092e-002,
          1.98935986e-001, 4.19090092e-002, 4.19089943e-002,
          1.39455244e-001, 1.11213394e-001, 1.67531714e-001,
          1.21606037e-001, 1.17417581e-001, 1.54691696e-001,
          1.18115209e-001, 1.41646788e-001, 1.44468024e-001,
          2.94025958e-001, 1.32795200e-001, 1.75015777e-001,
          1.57449096e-001, 1.75015777e-001, 4.14499640e-003,
          5.89457946e-003, 4.19104099e-003, 0., 6.28629923e-002,
          1.19958825e-001, 9.21999812e-002, 9.74615812e-002,
          8.81055444e-002, 9.67457592e-002, 9.71886739e-002,
          1.01020008e-001, 6.75644204e-002, 1.31978884e-001, 0.,
          4.25918788e-001, 3.27415019e-001 ]
      - [ 1.94837093e-001, 4.61000055e-002, 4.19090092e-002,
          1.98935986e-001, 4.19090092e-002, 4.19089943e-002,
          1.39455244e-001, 1.11213394e-001, 1.67531714e-001,
          1.21606037e-001, 1.17417581e-001, 1.54691696e-001,
          1.18115209e-001, 1.41646788e-001, 1.44468024e-001,
          2.94025958e-001, 1.32795200e-001, 1.75015777e-001,
          1.57449096e-001, 1.75015777e-001, 4.14499640e-003,
          5.89457946e-003, 4.19104099e-003, 0., 6.28629923e-002,
          1.19958825e-001, 9.21999812e-002, 9.74615812e-002,
          8.81055444e-002, 9.67457592e-002, 9.71886739e-002,
          1.01020008e-001, 6.75644204e-002, 1.31978884e-001, 0.,
          4.25918788e-001, 3.27415019e-001 ]
      - [ 1.94837093e-001, 4.61000055e-002, 4.19090092e-002,
          1.98935986e-001, 4.19090092e-002, 4.19089943e-002,
          1.39455244e-001, 1.11213394e-001, 1.67531714e-001,
          1.21606037e-001, 1.17417581e-001, 1.54691696e-001,
          1.18115209e-001, 1.41646788e-001, 1.44468024e-001,
          2.94025958e-001, 1.32795200e-001, 1.75015777e-001,
          1.57449096e-001, 1.75015777e-001, 4.14499640e-003,
          5.89457946e-003, 4.19104099e-003, 0., 6.28629923e-002,
          1.19958825e-001, 9.21999812e-002, 9.74615812e-002,
          8.81055444e-002, 9.67457592e-002, 9.71886739e-002,
          1.01020008e-001, 6.75644204e-002, 1.31978884e-001, 0.,
          4.25918788e-001, 3.27415019e-001 ]
      - [ 1.94837093e-001, 4.61000055e-002, 4.19090092e-002,
          1.98935986e-001, 4.19090092e-002, 4.19089943e-002,
          1.39455244e-001, 1.11213394e-001, 1.67531714e-001,
          1.21606037e-001, 1.17417581e-001, 1.54691696e-001,
          1.18115209e-001, 1.41646788e-001, 1.44468024e-001,
          2.94025958e-001, 1.32795200e-001, 1.75015777e-001,
          1.57449096e-001, 1.75015777e-001, 4.14499640e-003,
          5.89457946e-003, 4.19104099e-003, 0., 6.28629923e-002,
          1.19958825e-001, 9.21999812e-002, 9.74615812e-002,
          8.81055444e-002, 9.67457592e-002, 9.71886739e-002,
          1.01020008e-001, 6.75644204e-002, 1.31978884e-001, 0.,
          4.25918788e-001, 3.27415019e-001 ]
      - [ 1.94837093e-001, 4.61000055e-002, 4.19090092e-002,
          1.98935986e-001, 4.19090092e-002, 4.19089943e-002,
          1.39455244e-001, 1.11213394e-001, 1.67531714e-001,
          1.21606037e-001, 1.17417581e-001, 1.54691696e-001,
          1.18115209e-001, 1.41646788e-001, 1.44468024e-001,
          2.94025958e-001, 1.32795200e-001, 1.75015777e-001,
          1.57449096e-001, 1.75015777e-001, 4.14499640e-003,
          5.89457946e-003, 4.19104099e-003, 0., 6.28629923e-002,
          1.19958825e-001, 9.21999812e-002, 9.74615812e-002,
          8.81055444e-002, 9.67457592e-002, 9.71886739e-002,
          1.01020008e-001, 6.75644204e-002, 1.31978884e-001, 0.,
          4.25918788e-001, 3.27415019e-001 ]
      - [ 1.94837093e-001, 4.61000055e-002, 4.19090092e-002,
          1.98935986e-001, 4.19090092e-002, 4.19089943e-002,
          1.39455244e-001, 1.11213394e-001, 1.67531714e-001,
          1.21606037e-001, 1.17417581e-001, 1.54691696e-001,
          1.18115209e-001, 1.41646788e-001, 1.44468024e-001,
          2.94025958e-001, 1.32795200e-001, 1.75015777e-001,
          1.57449096e-001, 1.75015777e-001, 4.14499640e-003,
          5.89457946e-003, 4.19104099e-003, 0., 6.28629923e-002,
          1.19958825e-001, 9.21999812e-002, 9.74615812e-002,
          8.81055444e-002, 9.67457592e-002, 9.71886739e-002,
          1.01020008e-001, 6.75644204e-002, 1.31978884e-001, 0.,
          4.25918788e-001, 3.27415019e-001 ]
      - [ 1.94837093e-001, 4.61000055e-002, 4.19090092e-002,
          1.98935986e-001, 4.19090092e-002, 4.19089943e-002,
          1.39455244e-001, 1.11213394e-001, 1.67531714e-001,
          1.21606037e-001, 1.17417581e-001, 1.54691696e-001,
          1.18115209e-001, 1.41646788e-001, 1.44468024e-001,
          2.94025958e-001, 1.32795200e-001, 1.75015777e-001,
          1.57449096e-001, 1.75015777e-001, 4.14499640e-003,
          5.89457946e-003, 4.19104099e-003, 0., 6.28629923e-002,
          1.19958825e-001, 9.21999812e-002, 9.74615812e-002,
          8.81055444e-002, 9.67457592e-002, 9.71886739e-002,
          1.01020008e-001, 6.75644204e-002, 1.31978884e-001, 0.,
          4.25918788e-001, 3.27415019e-001 ]
      - [ 1.94837093e-001, 4.61000055e-002, 4.19090092e-002,
          1.98935986e-001, 4.19090092e-002, 4.19089943e-002,
          1.39455244e-001, 1.11213394e-001, 1.67531714e-001,
          1.21606037e-001, 1.17417581e-001, 1.54691696e-001,
          1.18115209e-001, 1.41646788e-001, 1.44468024e-001,
          2.94025958e-001, 1.32795200e-001, 1.75015777e-001,
          1.57449096e-001, 1.75015777e-001, 4.14499640e-003,
          5.89457946e-003, 4.19104099e-003, 0., 6.28629923e-002,
          1.19958825e-001, 9.21999812e-002, 9.74615812e-002,
          8.81055444e-002, 9.67457592e-002, 9.71886739e-002,
          1.01020008e-001, 6.75644204e-002, 1.31978884e-001, 0.,
          4.25918788e-001, 3.27415019e-001 ]
      - [ 1.94837093e-001, 4.61000055e-002, 4.19090092e-002,
          1.98935986e-001, 4.19090092e-002, 4.19089943e-002,
          1.39455244e-001, 1.11213394e-001, 1.67531714e-001,
          1.21606037e-001, 1.17417581e-001, 1.54691696e-001,
          1.18115209e-001, 1.41646788e-001, 1.44468024e-001,
          2.94025958e-001, 1.32795200e-001, 1.75015777e-001,
          1.57449096e-001, 1.75015777e-001, 4.14499640e-003,
          5.89457946e-003, 4.19104099e-003, 0., 6.28629923e-002,
          1.19958825e-001, 9.21999812e-002, 9.74615812e-002,
          8.81055444e-002, 9.67457592e-002, 9.71886739e-002,
          1.01020008e-001, 6.75644204e-002, 1.31978884e-001, 0.,
          4.25918788e-001, 3.27415019e-001 ]
      - [ 1.94837093e-001, 4.61000055e-002, 4.19090092e-002,
          1.98935986e-001, 4.19090092e-002, 4.19089943e-002,
          1.39455244e-001, 1.11213394e-001, 1.67531714e-001,
          1.21606037e-001, 1.17417581e-001, 1.54691696e-001,
          1.18115209e-001, 1.41646788e-001, 1.44468024e-001,
          2.94025958e-001, 1.32795200e-001, 1.75015777e-001,
          1.57449096e-001, 1.75015777e-001, 4.14499640e-003,
          5.89457946e-003, 4.19104099e-003, 0., 6.28629923e-002,
          1.19958825e-001, 9.21999812e-002, 9.74615812e-002,
          8.81055444e-002, 9.67457592e-002, 9.71886739e-002,
          1.01020008e-001, 6.75644204e-002, 1.31978884e-001, 0.,
          4.25918788e-001, 3.27415019e-001 ]
      - [ 1.94837093e-001, 4.61000055e-002, 4.19090092e-002,
          1.98935986e-001, 4.19090092e-002, 4.19089943e-002,
          1.39455244e-001, 1.11213394e-001, 1.67531714e-001,
          1.21606037e-001, 1.17417581e-001, 1.54691696e-001,
          1.18115209e-001, 1.41646788e-001, 1.44468024e-001,
          2.94025958e-001, 1.32795200e-001, 1.75015777e-001,
          1.57449096e-001, 1.75015777e-001, 4.14499640e-003,
          5.89457946e-003, 4.19104099e-003, 0., 6.28629923e-002,
          1.19958825e-001, 9.21999812e-002, 9.74615812e-002,
          8.81055444e-002, 9.67457592e-002, 9.71886739e-002,
          1.01020008e-001, 6.75644204e-002, 1.31978884e-001, 0.,
          4.25918788e-001, 3.27415019e-001 ]
      - [ 1.94837093e-001, 4.61000055e-002, 4.19090092e-002,
          1.98935986e-001, 4.19090092e-002, 4.19089943e-002,
          1.39455244e-001, 1.11213394e-001, 1.67531714e-001,
          1.21606037e-001, 1.17417581e-001, 1.54691696e-001,
          1.18115209e-001, 1.41646788e-001, 1.44468024e-001,
          2.94025958e-001, 1.32795200e-001, 1.75015777e-001,
          1.57449096e-001, 1.75015777e-001, 4.14499640e-003,
          5.89457946e-003, 4.19104099e-003, 0., 6.28629923e-002,
          1.19958825e-001, 9.21999812e-002, 9.74615812e-002,
          8.81055444e-002, 9.67457592e-002, 9.71886739e-002,
          1.01020008e-001, 6.75644204e-002, 1.31978884e-001, 0.,
          4.25918788e-001, 3.27415019e-001 ]
      - [ 1.94837093e-001, 4.61000055e-002, 4.19090092e-002,
          1.98935986e-001, 4.19090092e-002, 4.19089943e-002,
          1.39455244e-001, 1.11213394e-001, 1.67531714e-001,
          1.21606037e-001, 1.17417581e-001, 1.54691696e-001,
          1.18115209e-001, 1.41646788e-001, 1.44468024e-001,
          2.94025958e-001, 1.32795200e-001, 1.75015777e-001,
          1.57449096e-001, 1.75015777e-001, 4.14499640e-003,
          5.89457946e-003, 4.19104099e-003, 0., 6.28629923e-002,
          1.19958825e-001, 9.21999812e-002, 9.74615812e-002,
          8.81055444e-002, 9.67457592e-002, 9.71886739e-002,
          1.01020008e-001, 6.75644204e-002, 1.31978884e-001, 0.,
          4.25918788e-001, 3.27415019e-001 ]
      - [ 1.94837093e-001, 4.61000055e-002, 4.19090092e-002,
          1.98935986e-001, 4.19090092e-002, 4.19089943e-002,
          1.39455244e-001, 1.11213394e-001, 1.67531714e-001,
          1.21606037e-001, 1.17417581e-001, 1.54691696e-001,
          1.18115209e-001, 1.41646788e-001, 1.44468024e-001,
          2.94025958e-001, 1.32795200e-001, 1.75015777e-001,
          1.57449096e-001, 1.75015777e-001, 4.14499640e-003,
          5.89457946e-003, 4.19104099e-003, 0., 6.28629923e-002,
          1.19958825e-001, 9.21999812e-002, 9.74615812e-002,
          8.81055444e-002, 9.67457592e-002, 9.71886739e-002,
          1.01020008e-001, 6.75644204e-002, 1.31978884e-001, 0.,
          4.25918788e-001, 3.27415019e-001 ]
      - [ 1.94837093e-001, 4.61000055e-002, 4.19090092e-002,
          1.98935986e-001, 4.19090092e-002, 4.19089943e-002,
          1.39455244e-001, 1.11213394e-001, 1.67531714e-001,
          1.21606037e-001, 1.17417581e-001, 1.54691696e-001,
          1.18115209e-001, 1.41646788e-001, 1.44468024e-001,
          2.94025958e-001, 1.32795200e-001, 1.75015777e-001,
          1.57449096e-001, 1.75015777e-001, 4.14499640e-003,
          5.89457946e-003, 4.19104099e-003, 0., 6.28629923e-002,
          1.19958825e-001, 9.21999812e-002, 9.74615812e-002,
          8.81055444e-002, 9.67457592e-002, 9.71886739e-002,
          1.01020008e-001, 6.75644204e-002, 1.31978884e-001, 0.,
          4.25918788e-001, 3.27415019e-001 ]
      - [ 1.94837093e-001, 4.61000055e-002, 4.19090092e-002,
          1.98935986e-001, 4.19090092e-002, 4.19089943e-002,
          1.39455244e-001, 1.11213394e-001, 1.67531714e-001,
          1.21606037e-001, 1.17417581e-001, 1.54691696e-001,
          1.18115209e-001, 1.41646788e-001, 1.44468024e-001,
          2.94025958e-001, 1.32795200e-001, 1.75015777e-001,
          1.57449096e-001, 1.75015777e-001, 4.14499640e-003,
          5.89457946e-003, 4.19104099e-003, 0., 6.28629923e-002,
          1.19958825e-001, 9.21999812e-002, 9.74615812e-002,
          8.81055444e-002, 9.67457592e-002, 9.71886739e-002,
          1.01020008e-001, 6.75644204e-002, 1.31978884e-001, 0.,
          4.25918788e-001, 3.27415019e-001 ]
      - [ 1.94837093e-001, 4.61000055e-002, 4.19090092e-002,
          1.98935986e-001, 4.19090092e-002, 4.19089943e-002,
          1.39455244e-001, 1.11213394e-001, 1.67531714e-001,
          1.21606037e-001, 1.17417581e-001, 1.54691696e-001,
          1.18115209e-001, 1.41646788e-001, 1.44468024e-001,
          2.94025958e-001, 1.32795200e-001, 1.75015777e-001,
          1.57449096e-001, 1.75015777e-001, 4.14499640e-003,
          5.89457946e-003, 4.19104099e-003, 0., 6.28629923e-002,
          1.19958825e-001, 9.21999812e-002, 9.74615812e-002,
          8.81055444e-002, 9.67457592e-002, 9.71886739e-002,
          1.01020008e-001, 6.75644204e-002, 1.31978884e-001, 0.,
          4.25918788e-001, 3.27415019e-001 ]
      - [ 1.94837093e-001, 4.61000055e-002, 4.19090092e-002,
          1.98935986e-001, 4.19090092e-002, 4.19089943e-002,
          1.39455244e-001, 1.11213394e-001, 1.67531714e-001,
          1.21606037e-001, 1.17417581e-001, 1.54691696e-001,
          1.18115209e-001, 1.41646788e-001, 1.44468024e-001,
          2.94025958e-001, 1.32795200e-001, 1.75015777e-001,
          1.57449096e-001, 1.75015777e-001, 4.14499640e-003,
          5.89457946e-003, 4.19104099e-003, 0., 6.28629923e-002,
          1.19958825e-001, 9.21999812e-002, 9.74615812e-002,
          8.81055444e-002, 9.67457592e-002, 9.71886739e-002,
          1.01020008e-001, 6.75644204e-002, 1.31978884e-001, 0.,
          4.25918788e-001, 3.27415019e-001 ]
      - [ 1.94837093e-001, 4.61000055e-002, 4.19090092e-002,
          1.98935986e-001, 4.19090092e-002, 4.19089943e-002,
          1.39455244e-001, 1.11213394e-001, 1.67531714e-001,
          1.21606037e-001, 1.17417581e-001, 1.54691696e-001,
          1.18115209e-001, 1.41646788e-001, 1.44468024e-001,
          2.94025958e-001, 1.32795200e-001, 1.75015777e-001,
          1.57449096e-001, 1.75015777e-001, 4.14499640e-003,
          5.89457946e-003, 4.19104099e-003, 0., 6.28629923e-002,
          1.19958825e-001, 9.21999812e-002, 9.74615812e-002,
          8.81055444e-002, 9.67457592e-002, 9.71886739e-002,
          1.01020008e-001, 6.75644204e-002, 1.31978884e-001, 0.,
          4.25918788e-001, 3.27415019e-001 ]
      - [ 1.94837093e-001, 4.61000055e-002, 4.19090092e-002,
          1.98935986e-001, 4.19090092e-002, 4.19089943e-002,
          1.39455244e-001, 1.11213394e-001, 1.67531714e-001,
          1.21606037e-001, 1.17417581e-001, 1.54691696e-001,
          1.18115209e-001, 1.41646788e-001, 1.44468024e-001,
          2.94025958e-001, 1.32795200e-001, 1.75015777e-001,
          1.57449096e-001, 1.75015777e-001, 4.14499640e-003,
          5.89457946e-003, 4.19104099e-003, 0., 6.28629923e-002,
          1.19958825e-001, 9.21999812e-002, 9.74615812e-002,
          8.81055444e-002, 9.67457592e-002, 9.71886739e-002,
          1.01020008e-001, 6.75644204e-002, 1.31978884e-001, 0.,
          4.25918788e-001, 3.27415019e-001 ]
      - [ 1.94837093e-001, 4.61000055e-002, 4.19090092e-002,
          1.98935986e-001, 4.19090092e-002, 4.19089943e-002,
          1.39455244e-001, 1.11213394e-001, 1.67531714e-001,
          1.21606037e-001, 1.17417581e-001, 1.54691696e-001,
          1.18115209e-001, 1.41646788e-001, 1.44468024e-001,
          2.94025958e-001, 1.32795200e-001, 1.75015777e-001,
          1.57449096e-001, 1.75015777e-001, 4.14499640e-003,
          5.89457946e-003, 4.19104099e-003, 0., 6.28629923e-002,
          1.19958825e-001, 9.21999812e-002, 9.74615812e-002,
          8.81055444e-002, 9.67457592e-002, 9.71886739e-002,
          1.01020008e-001, 6.75644204e-002, 1.31978884e-001, 0.,
          4.25918788e-001, 3.27415019e-001 ]
      - [ 1.94837093e-001, 4.61000055e-002, 4.19090092e-002,
          1.98935986e-001, 4.19090092e-002, 4.19089943e-002,
          1.39455244e-001, 1.11213394e-001, 1.67531714e-001,
          1.21606037e-001, 1.17417581e-001, 1.54691696e-001,
          1.18115209e-001, 1.41646788e-001, 1.44468024e-001,
          2.94025958e-001, 1.32795200e-001, 1.75015777e-001,
          1.57449096e-001, 1.75015777e-001, 4.14499640e-003,
          5.89457946e-003, 4.19104099e-003, 0., 6.28629923e-002,
          1.19958825e-001, 9.21999812e-002, 9.74615812e-002,
          8.81055444e-002, 9.67457592e-002, 9.71886739e-002,
          1.01020008e-001, 6.75644204e-002, 1.31978884e-001, 0.,
          4.25918788e-001, 3.27415019e-001 ]
      - [ 1.94837093e-001, 4.61000055e-002, 4.19090092e-002,
          1.98935986e-001, 4.19090092e-002, 4.19089943e-002,
          1.39455244e-001, 1.11213394e-001, 1.67531714e-001,
          1.21606037e-001, 1.17417581e-001, 1.54691696e-001,
          1.18115209e-001, 1.41646788e-001, 1.44468024e-001,
          2.94025958e-001, 1.32795200e-001, 1.75015777e-001,
          1.57449096e-001, 1.75015777e-001, 4.14499640e-003,
          5.89457946e-003, 4.19104099e-003, 0., 6.28629923e-002,
          1.19958825e-001, 9.21999812e-002, 9.74615812e-002,
          8.81055444e-002, 9.67457592e-002, 9.71886739e-002,
          1.01020008e-001, 6.75644204e-002, 1.31978884e-001, 0.,
          4.25918788e-001, 3.27415019e-001 ]
      - [ 1.94837093e-001, 4.61000055e-002, 4.19090092e-002,
          1.98935986e-001, 4.19090092e-002, 4.19089943e-002,
          1.39455244e-001, 1.11213394e-001, 1.67531714e-001,
          1.21606037e-001, 1.17417581e-001, 1.54691696e-001,
          1.18115209e-001, 1.41646788e-001, 1.44468024e-001,
          2.94025958e-001, 1.32795200e-001, 1.75015777e-001,
          1.57449096e-001, 1.75015777e-001, 4.14499640e-003,
          5.89457946e-003, 4.19104099e-003, 0., 6.28629923e-002,
          1.19958825e-001, 9.21999812e-002, 9.74615812e-002,
          8.81055444e-002, 9.67457592e-002, 9.71886739e-002,
          1.01020008e-001, 6.75644204e-002, 1.31978884e-001, 0.,
          4.25918788e-001, 3.27415019e-001 ]
      - [ 1.94837093e-001, 4.61000055e-002, 4.19090092e-002,
          1.98935986e-001, 4.19090092e-002, 4.19089943e-002,
          1.39455244e-001, 1.11213394e-001, 1.67531714e-001,
          1.21606037e-001, 1.17417581e-001, 1.54691696e-001,
          1.18115209e-001, 1.41646788e-001, 1.44468024e-001,
          2.94025958e-001, 1.32795200e-001, 1.75015777e-001,
          1.57449096e-001, 1.75015777e-001, 4.14499640e-003,
          5.89457946e-003, 4.19104099e-003, 0., 6.28629923e-002,
          1.19958825e-001, 9.21999812e-002, 9.74615812e-002,
          8.81055444e-002, 9.67457592e-002, 9.71886739e-002,
          1.01020008e-001, 6.75644204e-002, 1.31978884e-001, 0.,
          4.25918788e-001, 3.27415019e-001 ]
      - [ 1.94837093e-001, 4.61000055e-002, 4.19090092e-002,
          1.98935986e-001, 4.19090092e-002, 4.19089943e-002,
          1.39455244e-001, 1.11213394e-001, 1.67531714e-001,
          1.21606037e-001, 1.17417581e-001, 1.54691696e-001,
          1.18115209e-001, 1.41646788e-001, 1.44468024e-001,
          2.94025958e-001, 1.32795200e-001, 1.75015777e-001,
          1.57449096e-001, 1.75015777e-001, 4.14499640e-003,
          5.89457946e-003, 4.19104099e-003, 0., 6.28629923e-002,
          1.19958825e-001, 9.21999812e-002, 9.74615812e-002,
          8.81055444e-002, 9.67457592e-002, 9.71886739e-002,
          1.01020008e-001, 6.75644204e-002, 1.31978884e-001, 0.,
          4.25918788e-001, 3.27415019e-001 ]
      - [ 1.94837093e-001, 4.61000055e-002, 4.19090092e-002,
          1.98935986e-001, 4.19090092e-002, 4.19089943e-002,
          1.39455244e-001, 1.11213394e-001, 1.67531714e-001,
          1.21606037e-001, 1.17417581e-001, 1.54691696e-001,
          1.18115209e-001, 1.41646788e-001, 1.44468024e-001,
          2.94025958e-001, 1.32795200e-001, 1.75015777e-001,
          1.57449096e-001, 1.75015777e-001, 4.14499640e-003,
          5.89457946e-003, 4.19104099e-003, 0., 6.28629923e-002,
          1.19958825e-001, 9.21999812e-002, 9.74615812e-002,
          8.81055444e-002, 9.67457592e-002, 9.71886739e-002,
          1.01020008e-001, 6.75644204e-002, 1.31978884e-001, 0.,
          4.25918788e-001, 3.27415019e-001 ]
      - [ 1.94837093e-001, 4.61000055e-002, 4.19090092e-002,
          1.98935986e-001, 4.19090092e-002, 4.19089943e-002,
          1.39455244e-001, 1.11213394e-001, 1.67531714e-001,
          1.21606037e-001, 1.17417581e-001, 1.54691696e-001,
          1.18115209e-001, 1.41646788e-001, 1.44468024e-001,
          2.94025958e-001, 1.32795200e-001, 1.75015777e-001,
          1.57449096e-001, 1.75015777e-001, 4.14499640e-003,
          5.89457946e-003, 4.19104099e-003, 0., 6.28629923e-002,
          1.19958825e-001, 9.21999812e-002, 9.74615812e-002,
          8.81055444e-002, 9.67457592e-002, 9.71886739e-002,
          1.01020008e-001, 6.75644204e-002, 1.31978884e-001, 0.,
          4.25918788e-001, 3.27415019e-001 ]
      - [ 1.94837093e-001, 4.61000055e-002, 4.19090092e-002,
          1.98935986e-001, 4.19090092e-002, 4.19089943e-002,
          1.39455244e-001, 1.11213394e-001, 1.67531714e-001,
          1.21606037e-001, 1.17417581e-001, 1.54691696e-001,
          1.18115209e-001, 1.41646788e-001, 1.44468024e-001,
          2.94025958e-001, 1.32795200e-001, 1.75015777e-001,
          1.57449096e-001, 1.75015777e-001, 4.14499640e-003,
          5.89457946e-003, 4.19104099e-003, 0., 6.28629923e-002,
          1.19958825e-001, 9.21999812e-002, 9.74615812e-002,
          8.81055444e-002, 9.67457592e-002, 9.71886739e-002,
          1.01020008e-001, 6.75644204e-002, 1.31978884e-001, 0.,
          4.25918788e-001, 3.27415019e-001 ]
      - [ 1.94837093e-001, 4.61000055e-002, 4.19090092e-002,
          1.98935986e-001, 4.19090092e-002, 4.19089943e-002,
          1.39455244e-001, 1.11213394e-001, 1.67531714e-001,
          1.21606037e-001, 1.17417581e-001, 1.54691696e-001,
          1.18115209e-001, 1.41646788e-001, 1.44468024e-001,
          2.94025958e-001, 1.32795200e-001, 1.75015777e-001,
          1.57449096e-001, 1.75015777e-001, 4.14499640e-003,
          5.89457946e-003, 4.19104099e-003, 0., 6.28629923e-002,
          1.19958825e-001, 9.21999812e-002, 9.74615812e-002,
          8.81055444e-002, 9.67457592e-002, 9.71886739e-002,
          1.01020008e-001, 6.75644204e-002, 1.31978884e-001, 0.,
          4.25918788e-001, 3.27415019e-001 ]
      - [ 1.94837093e-001, 4.61000055e-002, 4.19090092e-002,
          1.98935986e-001, 4.19090092e-002, 4.19089943e-002,
          1.39455244e-001, 1.11213394e-001, 1.67531714e-001,
          1.21606037e-001, 1.17417581e-001, 1.54691696e-001,
          1.18115209e-001, 1.41646788e-001, 1.44468024e-001,
          2.94025958e-001, 1.32795200e-001, 1.75015777e-001,
          1.57449096e-001, 1.75015777e-001, 4.14499640e-003,
          5.89457946e-003, 4.19104099e-003, 0., 6.28629923e-002,
          1.19958825e-001, 9.21999812e-002, 9.74615812e-002,
          8.81055444e-002, 9.67457592e-002, 9.71886739e-002,
          1.01020008e-001, 6.75644204e-002, 1.31978884e-001, 0.,
          4.25918788e-001, 3.27415019e-001 ]
      - [ 1.94837093e-001, 4.61000055e-002, 4.19090092e-002,
          1.98935986e-001, 4.19090092e-002, 4.19089943e-002,
          1.39455244e-001, 1.11213394e-001, 1.67531714e-001,
          1.21606037e-001, 1.17417581e-001, 1.54691696e-001,
          1.18115209e-001, 1.41646788e-001, 1.44468024e-001,
          2.94025958e-001, 1.32795200e-001, 1.75015777e-001,
          1.57449096e-001, 1.75015777e-001, 4.14499640e-003,
          5.89457946e-003, 4.19104099e-003, 0., 6.28629923e-002,
          1.19958825e-001, 9.21999812e-002, 9.74615812e-002,
          8.81055444e-002, 9.67457592e-002, 9.71886739e-002,
          1.01020008e-001, 6.75644204e-002, 1.31978884e-001, 0.,
          4.25918788e-001, 3.27415019e-001 ]
      - [ 1.94837093e-001, 4.61000055e-002, 4.19090092e-002,
          1.98935986e-001, 4.19090092e-002, 4.19089943e-002,
          1.39455244e-001, 1.11213394e-001, 1.67531714e-001,
          1.21606037e-001, 1.17417581e-001, 1.54691696e-001,
          1.18115209e-001, 1.41646788e-001, 1.44468024e-001,
          2.94025958e-001, 1.32795200e-001, 1.75015777e-001,
          1.57449096e-001, 1.75015777e-001, 4.14499640e-003,
          5.89457946e-003, 4.19104099e-003, 0., 6.28629923e-002,
          1.19958825e-001, 9.21999812e-002, 9.74615812e-002,
          8.81055444e-002, 9.67457592e-002, 9.71886739e-002,
          1.01020008e-001, 6.75644204e-002, 1.31978884e-001, 0.,
          4.25918788e-001, 3.27415019e-001 ]
      - [ 1.94837093e-001, 4.61000055e-002, 4.19090092e-002,
          1.98935986e-001, 4.19090092e-002, 4.19089943e-002,
          1.39455244e-001, 1.11213394e-001, 1.67531714e-001,
          1.21606037e-001, 1.17417581e-001, 1.54691696e-001,
          1.18115209e-001, 1.41646788e-001, 1.44468024e-001,
          2.94025958e-001, 1.32795200e-001, 1.75015777e-001,
          1.57449096e-001, 1.75015777e-001, 4.14499640e-003,
          5.89457946e-003, 4.19104099e-003, 0., 6.28629923e-002,
          1.19958825e-001, 9.21999812e-002, 9.74615812e-002,
          8.81055444e-002, 9.67457592e-002, 9.71886739e-002,
          1.01020008e-001, 6.75644204e-002, 1.31978884e-001, 0.,
          4.25918788e-001, 3.27415019e-001 ]
      - [ 1.94837093e-001, 4.61000055e-002, 4.19090092e-002,
          1.98935986e-001, 4.19090092e-002, 4.19089943e-002,
          1.39455244e-001, 1.11213394e-001, 1.67531714e-001,
          1.21606037e-001, 1.17417581e-001, 1.54691696e-001,
          1.18115209e-001, 1.41646788e-001, 1.44468024e-001,
          2.94025958e-001, 1.32795200e-001, 1.75015777e-001,
          1.57449096e-001, 1.75015777e-001, 4.14499640e-003,
          5.89457946e-003, 4.19104099e-003, 0., 6.28629923e-002,
          1.19958825e-001, 9.21999812e-002, 9.74615812e-002,
          8.81055444e-002, 9.67457592e-002, 9.71886739e-002,
          1.01020008e-001, 6.75644204e-002, 1.31978884e-001, 0.,
          4.25918788e-001, 3.27415019e-001 ]
      - [ 1.94837093e-001, 4.61000055e-002, 4.19090092e-002,
          1.98935986e-001, 4.19090092e-002, 4.19089943e-002,
          1.39455244e-001, 1.11213394e-001, 1.67531714e-001,
          1.21606037e-001, 1.17417581e-001, 1.54691696e-001,
          1.18115209e-001, 1.41646788e-001, 1.44468024e-001,
          2.94025958e-001, 1.32795200e-001, 1.75015777e-001,
          1.57449096e-001, 1.75015777e-001, 4.14499640e-003,
          5.89457946e-003, 4.19104099e-003, 0., 6.28629923e-002,
          1.19958825e-001, 9.21999812e-002, 9.74615812e-002,
          8.81055444e-002, 9.67457592e-002, 9.71886739e-002,
          1.01020008e-001, 6.75644204e-002, 1.31978884e-001, 0.,
          4.25918788e-001, 3.27415019e-001 ]
      - [ 1.94837093e-001, 4.61000055e-002, 4.19090092e-002,
          1.98935986e-001, 4.19090092e-002, 4.19089943e-002,
          1.39455244e-001, 1.11213394e-001, 1.67531714e-001,
          1.21606037e-001, 1.17417581e-001, 1.54691696e-001,
          1.18115209e-001, 1.41646788e-001, 1.44468024e-001,
          2.94025958e-001, 1.32795200e-001, 1.75015777e-001,
          1.57449096e-001, 1.75015777e-001, 4.14499640e-003,
          5.89457946e-003, 4.19104099e-003, 0., 6.28629923e-002,
          1.19958825e-001, 9.21999812e-002, 9.74615812e-002,
          8.81055444e-002, 9.67457592e-002, 9.71886739e-002,
          1.01020008e-001, 6.75644204e-002, 1.31978884e-001, 0.,
          4.25918788e-001, 3.27415019e-001 ]
      - [ 1.94837093e-001, 4.61000055e-002, 4.19090092e-002,
          1.98935986e-001, 4.19090092e-002, 4.19089943e-002,
          1.39455244e-001, 1.11213394e-001, 1.67531714e-001,
          1.21606037e-001, 1.17417581e-001, 1.54691696e-001,
          1.18115209e-001, 1.41646788e-001, 1.44468024e-001,
          2.94025958e-001, 1.32795200e-001, 1.75015777e-001,
          1.57449096e-001, 1.75015777e-001, 4.14499640e-003,
          5.89457946e-003, 4.19104099e-003, 0., 6.28629923e-002,
          1.19958825e-001, 9.21999812e-002, 9.74615812e-002,
          8.81055444e-002, 9.67457592e-002, 9.71886739e-002,
          1.01020008e-001, 6.75644204e-002, 1.31978884e-001, 0.,
          4.25918788e-001, 3.27415019e-001 ]
      - [ 1.94837093e-001, 4.61000055e-002, 4.19090092e-002,
          1.98935986e-001, 4.19090092e-002, 4.19089943e-002,
          1.39455244e-001, 1.11213394e-001, 1.67531714e-001,
          1.21606037e-001, 1.17417581e-001, 1.54691696e-001,
          1.18115209e-001, 1.41646788e-001, 1.44468024e-001,
          2.94025958e-001, 1.32795200e-001, 1.75015777e-001,
          1.57449096e-001, 1.75015777e-001, 4.14499640e-003,
          5.89457946e-003, 4.19104099e-003, 0., 6.28629923e-002,
          1.19958825e-001, 9.21999812e-002, 9.74615812e-002,
          8.81055444e-002, 9.67457592e-002, 9.71886739e-002,
          1.01020008e-001, 6.75644204e-002, 1.31978884e-001, 0.,
          4.25918788e-001, 3.27415019e-001 ]
      - [ 1.94837093e-001, 4.61000055e-002, 4.19090092e-002,
          1.98935986e-001, 4.19090092e-002, 4.19089943e-002,
          1.39455244e-001, 1.11213394e-001, 1.67531714e-001,
          1.21606037e-001, 1.17417581e-001, 1.54691696e-001,
          1.18115209e-001, 1.41646788e-001, 1.44468024e-001,
          2.94025958e-001, 1.32795200e-001, 1.75015777e-001,
          1.57449096e-001, 1.75015777e-001, 4.14499640e-003,
          5.89457946e-003, 4.19104099e-003, 0., 6.28629923e-002,
          1.19958825e-001, 9.21999812e-002, 9.74615812e-002,
          8.81055444e-002, 9.67457592e-002, 9.71886739e-002,
          1.01020008e-001, 6.75644204e-002, 1.31978884e-001, 0.,
          4.25918788e-001, 3.27415019e-001 ]
      - [ 1.94837093e-001, 4.61000055e-002, 4.19090092e-002,
          1.98935986e-001, 4.19090092e-002, 4.19089943e-002,
          1.39455244e-001, 1.11213394e-001, 1.67531714e-001,
          1.21606037e-001, 1.17417581e-001, 1.54691696e-001,
          1.18115209e-001, 1.41646788e-001, 1.44468024e-001,
          2.94025958e-001, 1.32795200e-001, 1.75015777e-001,
          1.57449096e-001, 1.75015777e-001, 4.14499640e-003,
          5.89457946e-003, 4.19104099e-003, 0., 6.28629923e-002,
          1.19958825e-001, 9.21999812e-002, 9.74615812e-002,
          8.81055444e-002, 9.67457592e-002, 9.71886739e-002,
          1.01020008e-001, 6.75644204e-002, 1.31978884e-001, 0.,
          4.25918788e-001, 3.27415019e-001 ]
      - [ 1.94837093e-001, 4.61000055e-002, 4.19090092e-002,
          1.98935986e-001, 4.19090092e-002, 4.19089943e-002,
          1.39455244e-001, 1.11213394e-001, 1.67531714e-001,
          1.21606037e-001, 1.17417581e-001, 1.54691696e-001,
          1.18115209e-001, 1.41646788e-001, 1.44468024e-001,
          2.94025958e-001, 1.32795200e-001, 1.75015777e-001,
          1.57449096e-001, 1.75015777e-001, 4.14499640e-003,
          5.89457946e-003, 4.19104099e-003, 0., 6.28629923e-002,
          1.19958825e-001, 9.21999812e-002, 9.74615812e-002,
          8.81055444e-002, 9.67457592e-002, 9.71886739e-002,
          1.01020008e-001, 6.75644204e-002, 1.31978884e-001, 0.,
          4.25918788e-001, 3.27415019e-001 ]
      - [ 1.94837093e-001, 4.61000055e-002, 4.19090092e-002,
          1.98935986e-001, 4.19090092e-002, 4.19089943e-002,
          1.39455244e-001, 1.11213394e-001, 1.67531714e-001,
          1.21606037e-001, 1.17417581e-001, 1.54691696e-001,
          1.18115209e-001, 1.41646788e-001, 1.44468024e-001,
          2.94025958e-001, 1.32795200e-001, 1.75015777e-001,
          1.57449096e-001, 1.75015777e-001, 4.14499640e-003,
          5.89457946e-003, 4.19104099e-003, 0., 6.28629923e-002,
          1.19958825e-001, 9.21999812e-002, 9.74615812e-002,
          8.81055444e-002, 9.67457592e-002, 9.71886739e-002,
          1.01020008e-001, 6.75644204e-002, 1.31978884e-001, 0.,
          4.25918788e-001, 3.27415019e-001 ]
      - [ 1.94837093e-001, 4.61000055e-002, 4.19090092e-002,
          1.98935986e-001, 4.19090092e-002, 4.19089943e-002,
          1.39455244e-001, 1.11213394e-001, 1.67531714e-001,
          1.21606037e-001, 1.17417581e-001, 1.54691696e-001,
          1.18115209e-001, 1.41646788e-001, 1.44468024e-001,
          2.94025958e-001, 1.32795200e-001, 1.75015777e-001,
          1.57449096e-001, 1.75015777e-001, 4.14499640e-003,
          5.89457946e-003, 4.19104099e-003, 0., 6.28629923e-002,
          1.19958825e-001, 9.21999812e-002, 9.74615812e-002,
          8.81055444e-002, 9.67457592e-002, 9.71886739e-002,
          1.01020008e-001, 6.75644204e-002, 1.31978884e-001, 0.,
          4.25918788e-001, 3.27415019e-001 ]
      - [ 1.94837093e-001, 4.61000055e-002, 4.19090092e-002,
          1.98935986e-001, 4.19090092e-002, 4.19089943e-002,
          1.39455244e-001, 1.11213394e-001, 1.67531714e-001,
          1.21606037e-001, 1.17417581e-001, 1.54691696e-001,
          1.18115209e-001, 1.41646788e-001, 1.44468024e-001,
          2.94025958e-001, 1.32795200e-001, 1.75015777e-001,
          1.57449096e-001, 1.75015777e-001, 4.14499640e-003,
          5.89457946e-003, 4.19104099e-003, 0., 6.28629923e-002,
          1.19958825e-001, 9.21999812e-002, 9.74615812e-002,
          8.81055444e-002, 9.67457592e-002, 9.71886739e-002,
          1.01020008e-001, 6.75644204e-002, 1.31978884e-001, 0.,
          4.25918788e-001, 3.27415019e-001 ]
      - [ 1.94837093e-001, 4.61000055e-002, 4.19090092e-002,
          1.98935986e-001, 4.19090092e-002, 4.19089943e-002,
          1.39455244e-001, 1.11213394e-001, 1.67531714e-001,
          1.21606037e-001, 1.17417581e-001, 1.54691696e-001,
          1.18115209e-001, 1.41646788e-001, 1.44468024e-001,
          2.94025958e-001, 1.32795200e-001, 1.75015777e-001,
          1.57449096e-001, 1.75015777e-001, 4.14499640e-003,
          5.89457946e-003, 4.19104099e-003, 0., 6.28629923e-002,
          1.19958825e-001, 9.21999812e-002, 9.74615812e-002,
          8.81055444e-002, 9.67457592e-002, 9.71886739e-002,
          1.01020008e-001, 6.75644204e-002, 1.31978884e-001, 0.,
          4.25918788e-001, 3.27415019e-001 ]
      - [ 1.94837093e-001, 4.61000055e-002, 4.19090092e-002,
          1.98935986e-001, 4.19090092e-002, 4.19089943e-002,
          1.39455244e-001, 1.11213394e-001, 1.67531714e-001,
          1.21606037e-001, 1.17417581e-001, 1.54691696e-001,
          1.18115209e-001, 1.41646788e-001, 1.44468024e-001,
          2.94025958e-001, 1.32795200e-001, 1.75015777e-001,
          1.57449096e-001, 1.75015777e-001, 4.14499640e-003,
          5.89457946e-003, 4.19104099e-003, 0., 6.28629923e-002,
          1.19958825e-001, 9.21999812e-002, 9.74615812e-002,
          8.81055444e-002, 9.67457592e-002, 9.71886739e-002,
          1.01020008e-001, 6.75644204e-002, 1.31978884e-001, 0.,
          4.25918788e-001, 3.27415019e-001 ]
      - [ 1.94837093e-001, 4.61000055e-002, 4.19090092e-002,
          1.98935986e-001, 4.19090092e-002, 4.19089943e-002,
          1.39455244e-001, 1.11213394e-001, 1.67531714e-001,
          1.21606037e-001, 1.17417581e-001, 1.54691696e-001,
          1.18115209e-001, 1.41646788e-001, 1.44468024e-001,
          2.94025958e-001, 1.32795200e-001, 1.75015777e-001,
          1.57449096e-001, 1.75015777e-001, 4.14499640e-003,
          5.89457946e-003, 4.19104099e-003, 0., 6.28629923e-002,
          1.19958825e-001, 9.21999812e-002, 9.74615812e-002,
          8.81055444e-002, 9.67457592e-002, 9.71886739e-002,
          1.01020008e-001, 6.75644204e-002, 1.31978884e-001, 0.,
          4.25918788e-001, 3.27415019e-001 ]
      - [ 1.94837093e-001, 4.61000055e-002, 4.19090092e-002,
          1.98935986e-001, 4.19090092e-002, 4.19089943e-002,
          1.39455244e-001, 1.11213394e-001, 1.67531714e-001,
          1.21606037e-001, 1.17417581e-001, 1.54691696e-001,
          1.18115209e-001, 1.41646788e-001, 1.44468024e-001,
          2.94025958e-001, 1.32795200e-001, 1.75015777e-001,
          1.57449096e-001, 1.75015777e-001, 4.14499640e-003,
          5.89457946e-003, 4.19104099e-003, 0., 6.28629923e-002,
          1.19958825e-001, 9.21999812e-002, 9.74615812e-002,
          8.81055444e-002, 9.67457592e-002, 9.71886739e-002,
          1.01020008e-001, 6.75644204e-002, 1.31978884e-001, 0.,
          4.25918788e-001, 3.27415019e-001 ]
      - [ 1.94837093e-001, 4.61000055e-002, 4.19090092e-002,
          1.98935986e-001, 4.19090092e-002, 4.19089943e-002,
          1.39455244e-001, 1.11213394e-001, 1.67531714e-001,
          1.21606037e-001, 1.17417581e-001, 1.54691696e-001,
          1.18115209e-001, 1.41646788e-001, 1.44468024e-001,
          2.94025958e-001, 1.32795200e-001, 1.75015777e-001,
          1.57449096e-001, 1.75015777e-001, 4.14499640e-003,
          5.89457946e-003, 4.19104099e-003, 0., 6.28629923e-002,
          1.19958825e-001, 9.21999812e-002, 9.74615812e-002,
          8.81055444e-002, 9.67457592e-002, 9.71886739e-002,
          1.01020008e-001, 6.75644204e-002, 1.31978884e-001, 0.,
          4.25918788e-001, 3.27415019e-001 ]
      - [ 1.94837093e-001, 4.61000055e-002, 4.19090092e-002,
          1.98935986e-001, 4.19090092e-002, 4.19089943e-002,
          1.39455244e-001, 1.11213394e-001, 1.67531714e-001,
          1.21606037e-001, 1.17417581e-001, 1.54691696e-001,
          1.18115209e-001, 1.41646788e-001, 1.44468024e-001,
          2.94025958e-001, 1.32795200e-001, 1.75015777e-001,
          1.57449096e-001, 1.75015777e-001, 4.14499640e-003,
          5.89457946e-003, 4.19104099e-003, 0., 6.28629923e-002,
          1.19958825e-001, 9.21999812e-002, 9.74615812e-002,
          8.81055444e-002, 9.67457592e-002, 9.71886739e-002,
          1.01020008e-001, 6.75644204e-002, 1.31978884e-001, 0.,
          4.25918788e-001, 3.27415019e-001 ]
      - [ 1.94837093e-001, 4.61000055e-002, 4.19090092e-002,
          1.98935986e-001, 4.19090092e-002, 4.19089943e-002,
          1.39455244e-001, 1.11213394e-001, 1.67531714e-001,
          1.21606037e-001, 1.17417581e-001, 1.54691696e-001,
          1.18115209e-001, 1.41646788e-001, 1.44468024e-001,
          2.94025958e-001, 1.32795200e-001, 1.75015777e-001,
          1.57449096e-001, 1.75015777e-001, 4.14499640e-003,
          5.89457946e-003, 4.19104099e-003, 0., 6.28629923e-002,
          1.19958825e-001, 9.21999812e-002, 9.74615812e-002,
          8.81055444e-002, 9.67457592e-002, 9.71886739e-002,
          1.01020008e-001, 6.75644204e-002, 1.31978884e-001, 0.,
          4.25918788e-001, 3.27415019e-001 ]
      - [ 1.94837093e-001, 4.61000055e-002, 4.19090092e-002,
          1.98935986e-001, 4.19090092e-002, 4.19089943e-002,
          1.39455244e-001, 1.11213394e-001, 1.67531714e-001,
          1.21606037e-001, 1.17417581e-001, 1.54691696e-001,
          1.18115209e-001, 1.41646788e-001, 1.44468024e-001,
          2.94025958e-001, 1.32795200e-001, 1.75015777e-001,
          1.57449096e-001, 1.75015777e-001, 4.14499640e-003,
          5.89457946e-003, 4.19104099e-003, 0., 6.28629923e-002,
          1.19958825e-001, 9.21999812e-002, 9.74615812e-002,
          8.81055444e-002, 9.67457592e-002, 9.71886739e-002,
          1.01020008e-001, 6.75644204e-002, 1.31978884e-001, 0.,
          4.25918788e-001, 3.27415019e-001 ]
      - [ 1.94837093e-001, 4.61000055e-002, 4.19090092e-002,
          1.98935986e-001, 4.19090092e-002, 4.19089943e-002,
          1.39455244e-001, 1.11213394e-001, 1.67531714e-001,
          1.21606037e-001, 1.17417581e-001, 1.54691696e-001,
          1.18115209e-001, 1.41646788e-001, 1.44468024e-001,
          2.94025958e-001, 1.32795200e-001, 1.75015777e-001,
          1.57449096e-001, 1.75015777e-001, 4.14499640e-003,
          5.89457946e-003, 4.19104099e-003, 0., 6.28629923e-002,
          1.19958825e-001, 9.21999812e-002, 9.74615812e-002,
          8.81055444e-002, 9.67457592e-002, 9.71886739e-002,
          1.01020008e-001, 6.75644204e-002, 1.31978884e-001, 0.,
          4.25918788e-001, 3.27415019e-001 ]
      - [ 1.94837093e-001, 4.61000055e-002, 4.19090092e-002,
          1.98935986e-001, 4.19090092e-002, 4.19089943e-002,
          1.39455244e-001, 1.11213394e-001, 1.67531714e-001,
          1.21606037e-001, 1.17417581e-001, 1.54691696e-001,
          1.18115209e-001, 1.41646788e-001, 1.44468024e-001,
          2.94025958e-001, 1.32795200e-001, 1.75015777e-001,
          1.57449096e-001, 1.75015777e-001, 4.14499640e-003,
          5.89457946e-003, 4.19104099e-003, 0., 6.28629923e-002,
          1.19958825e-001, 9.21999812e-002, 9.74615812e-002,
          8.81055444e-002, 9.67457592e-002, 9.71886739e-002,
          1.01020008e-001, 6.75644204e-002, 1.31978884e-001, 0.,
          4.25918788e-001, 3.27415019e-001 ]
      - [ 1.94837093e-001, 4.61000055e-002, 4.19090092e-002,
          1.98935986e-001, 4.19090092e-002, 4.19089943e-002,
          1.39455244e-001, 1.11213394e-001, 1.67531714e-001,
          1.21606037e-001, 1.17417581e-001, 1.54691696e-001,
          1.18115209e-001, 1.41646788e-001, 1.44468024e-001,
          2.94025958e-001, 1.32795200e-001, 1.75015777e-001,
          1.57449096e-001, 1.75015777e-001, 4.14499640e-003,
          5.89457946e-003, 4.19104099e-003, 0., 6.28629923e-002,
          1.19958825e-001, 9.21999812e-002, 9.74615812e-002,
          8.81055444e-002, 9.67457592e-002, 9.71886739e-002,
          1.01020008e-001, 6.75644204e-002, 1.31978884e-001, 0.,
          4.25918788e-001, 3.27415019e-001 ]
      - [ 1.94837093e-001, 4.61000055e-002, 4.19090092e-002,
          1.98935986e-001, 4.19090092e-002, 4.19089943e-002,
          1.39455244e-001, 1.11213394e-001, 1.67531714e-001,
          1.21606037e-001, 1.17417581e-001, 1.54691696e-001,
          1.18115209e-001, 1.41646788e-001, 1.44468024e-001,
          2.94025958e-001, 1.32795200e-001, 1.75015777e-001,
          1.57449096e-001, 1.75015777e-001, 4.14499640e-003,
          5.89457946e-003, 4.19104099e-003, 0., 6.28629923e-002,
          1.19958825e-001, 9.21999812e-002, 9.74615812e-002,
          8.81055444e-002, 9.67457592e-002, 9.71886739e-002,
          1.01020008e-001, 6.75644204e-002, 1.31978884e-001, 0.,
          4.25918788e-001, 3.27415019e-001 ]
      - [ 1.94837093e-001, 4.61000055e-002, 4.19090092e-002,
          1.98935986e-001, 4.19090092e-002, 4.19089943e-002,
          1.39455244e-001, 1.11213394e-001, 1.67531714e-001,
          1.21606037e-001, 1.17417581e-001, 1.54691696e-001,
          1.18115209e-001, 1.41646788e-001, 1.44468024e-001,
          2.94025958e-001, 1.32795200e-001, 1.75015777e-001,
          1.57449096e-001, 1.75015777e-001, 4.14499640e-003,
          5.89457946e-003, 4.19104099e-003, 0., 6.28629923e-002,
          1.19958825e-001, 9.21999812e-002, 9.74615812e-002,
          8.81055444e-002, 9.67457592e-002, 9.71886739e-002,
          1.01020008e-001, 6.75644204e-002, 1.31978884e-001, 0.,
          4.25918788e-001, 3.27415019e-001 ]
      - [ 1.94837093e-001, 4.61000055e-002, 4.19090092e-002,
          1.98935986e-001, 4.19090092e-002, 4.19089943e-002,
          1.39455244e-001, 1.11213394e-001, 1.67531714e-001,
          1.21606037e-001, 1.17417581e-001, 1.54691696e-001,
          1.18115209e-001, 1.41646788e-001, 1.44468024e-001,
          2.94025958e-001, 1.32795200e-001, 1.75015777e-001,
          1.57449096e-001, 1.75015777e-001, 4.14499640e-003,
          5.89457946e-003, 4.19104099e-003, 0., 6.28629923e-002,
          1.19958825e-001, 9.21999812e-002, 9.74615812e-002,
          8.81055444e-002, 9.67457592e-002, 9.71886739e-002,
          1.01020008e-001, 6.75644204e-002, 1.31978884e-001, 0.,
          4.25918788e-001, 3.27415019e-001 ]
      - [ 1.94837093e-001, 4.61000055e-002, 4.19090092e-002,
          1.98935986e-001, 4.19090092e-002, 4.19089943e-002,
          1.39455244e-001, 1.11213394e-001, 1.67531714e-001,
          1.21606037e-001, 1.17417581e-001, 1.54691696e-001,
          1.18115209e-001, 1.41646788e-001, 1.44468024e-001,
          2.94025958e-001, 1.32795200e-001, 1.75015777e-001,
          1.57449096e-001, 1.75015777e-001, 4.14499640e-003,
          5.89457946e-003, 4.19104099e-003, 0., 6.28629923e-002,
          1.19958825e-001, 9.21999812e-002, 9.74615812e-002,
          8.81055444e-002, 9.67457592e-002, 9.71886739e-002,
          1.01020008e-001, 6.75644204e-002, 1.31978884e-001, 0.,
          4.25918788e-001, 3.27415019e-001 ]
      - [ 1.94837093e-001, 4.61000055e-002, 4.19090092e-002,
          1.98935986e-001, 4.19090092e-002, 4.19089943e-002,
          1.39455244e-001, 1.11213394e-001, 1.67531714e-001,
          1.21606037e-001, 1.17417581e-001, 1.54691696e-001,
          1.18115209e-001, 1.41646788e-001, 1.44468024e-001,
          2.94025958e-001, 1.32795200e-001, 1.75015777e-001,
          1.57449096e-001, 1.75015777e-001, 4.14499640e-003,
          5.89457946e-003, 4.19104099e-003, 0., 6.28629923e-002,
          1.19958825e-001, 9.21999812e-002, 9.74615812e-002,
          8.81055444e-002, 9.67457592e-002, 9.71886739e-002,
          1.01020008e-001, 6.75644204e-002, 1.31978884e-001, 0.,
          4.25918788e-001, 3.27415019e-001 ]
      - [ 1.94837093e-001, 4.61000055e-002, 4.19090092e-002,
          1.98935986e-001, 4.19090092e-002, 4.19089943e-002,
          1.39455244e-001, 1.11213394e-001, 1.67531714e-001,
          1.21606037e-001, 1.17417581e-001, 1.54691696e-001,
          1.18115209e-001, 1.41646788e-001, 1.44468024e-001,
          2.94025958e-001, 1.32795200e-001, 1.75015777e-001,
          1.57449096e-001, 1.75015777e-001, 4.14499640e-003,
          5.89457946e-003, 4.19104099e-003, 0., 6.28629923e-002,
          1.19958825e-001, 9.21999812e-002, 9.74615812e-002,
          8.81055444e-002, 9.67457592e-002, 9.71886739e-002,
          1.01020008e-001, 6.75644204e-002, 1.31978884e-001, 0.,
          4.25918788e-001, 3.27415019e-001 ]
      - [ 1.94837093e-001, 4.61000055e-002, 4.19090092e-002,
          1.98935986e-001, 4.19090092e-002, 4.19089943e-002,
          1.39455244e-001, 1.11213394e-001, 1.67531714e-001,
          1.21606037e-001, 1.17417581e-001, 1.54691696e-001,
          1.18115209e-001, 1.41646788e-001, 1.44468024e-001,
          2.94025958e-001, 1.32795200e-001, 1.75015777e-001,
          1.57449096e-001, 1.75015777e-001, 4.14499640e-003,
          5.89457946e-003, 4.19104099e-003, 0., 6.28629923e-002,
          1.19958825e-001, 9.21999812e-002, 9.74615812e-002,
          8.81055444e-002, 9.67457592e-002, 9.71886739e-002,
          1.01020008e-001, 6.75644204e-002, 1.31978884e-001, 0.,
          4.25918788e-001, 3.27415019e-001 ]
      - [ 1.94837093e-001, 4.61000055e-002, 4.19090092e-002,
          1.98935986e-001, 4.19090092e-002, 4.19089943e-002,
          1.39455244e-001, 1.11213394e-001, 1.67531714e-001,
          1.21606037e-001, 1.17417581e-001, 1.54691696e-001,
          1.18115209e-001, 1.41646788e-001, 1.44468024e-001,
          2.94025958e-001, 1.32795200e-001, 1.75015777e-001,
          1.57449096e-001, 1.75015777e-001, 4.14499640e-003,
          5.89457946e-003, 4.19104099e-003, 0., 6.28629923e-002,
          1.19958825e-001, 9.21999812e-002, 9.74615812e-002,
          8.81055444e-002, 9.67457592e-002, 9.71886739e-002,
          1.01020008e-001, 6.75644204e-002, 1.31978884e-001, 0.,
          4.25918788e-001, 3.27415019e-001 ]
      - [ 1.94837093e-001, 4.61000055e-002, 4.19090092e-002,
          1.98935986e-001, 4.19090092e-002, 4.19089943e-002,
          1.39455244e-001, 1.11213394e-001, 1.67531714e-001,
          1.21606037e-001, 1.17417581e-001, 1.54691696e-001,
          1.18115209e-001, 1.41646788e-001, 1.44468024e-001,
          2.94025958e-001, 1.32795200e-001, 1.75015777e-001,
          1.57449096e-001, 1.75015777e-001, 4.14499640e-003,
          5.89457946e-003, 4.19104099e-003, 0., 6.28629923e-002,
          1.19958825e-001, 9.21999812e-002, 9.74615812e-002,
          8.81055444e-002, 9.67457592e-002, 9.71886739e-002,
          1.01020008e-001, 6.75644204e-002, 1.31978884e-001, 0.,
          4.25918788e-001, 3.27415019e-001 ]
      - [ 1.94837093e-001, 4.61000055e-002, 4.19090092e-002,
          1.98935986e-001, 4.19090092e-002, 4.19089943e-002,
          1.39455244e-001, 1.11213394e-001, 1.67531714e-001,
          1.21606037e-001, 1.17417581e-001, 1.54691696e-001,
          1.18115209e-001, 1.41646788e-001, 1.44468024e-001,
          2.94025958e-001, 1.32795200e-001, 1.75015777e-001,
          1.57449096e-001, 1.75015777e-001, 4.14499640e-003,
          5.89457946e-003, 4.19104099e-003, 0., 6.28629923e-002,
          1.19958825e-001, 9.21999812e-002, 9.74615812e-002,
          8.81055444e-002, 9.67457592e-002, 9.71886739e-002,
          1.01020008e-001, 6.75644204e-002, 1.31978884e-001, 0.,
          4.25918788e-001, 3.27415019e-001 ]
      - [ 1.94837093e-001, 4.61000055e-002, 4.19090092e-002,
          1.98935986e-001, 4.19090092e-002, 4.19089943e-002,
          1.39455244e-001, 1.11213394e-001, 1.67531714e-001,
          1.21606037e-001, 1.17417581e-001, 1.54691696e-001,
          1.18115209e-001, 1.41646788e-001, 1.44468024e-001,
          2.94025958e-001, 1.32795200e-001, 1.75015777e-001,
          1.57449096e-001, 1.75015777e-001, 4.14499640e-003,
          5.89457946e-003, 4.19104099e-003, 0., 6.28629923e-002,
          1.19958825e-001, 9.21999812e-002, 9.74615812e-002,
          8.81055444e-002, 9.67457592e-002, 9.71886739e-002,
          1.01020008e-001, 6.75644204e-002, 1.31978884e-001, 0.,
          4.25918788e-001, 3.27415019e-001 ]
      - [ 1.94837093e-001, 4.61000055e-002, 4.19090092e-002,
          1.98935986e-001, 4.19090092e-002, 4.19089943e-002,
          1.39455244e-001, 1.11213394e-001, 1.67531714e-001,
          1.21606037e-001, 1.17417581e-001, 1.54691696e-001,
          1.18115209e-001, 1.41646788e-001, 1.44468024e-001,
          2.94025958e-001, 1.32795200e-001, 1.75015777e-001,
          1.57449096e-001, 1.75015777e-001, 4.14499640e-003,
          5.89457946e-003, 4.19104099e-003, 0., 6.28629923e-002,
          1.19958825e-001, 9.21999812e-002, 9.74615812e-002,
          8.81055444e-002, 9.67457592e-002, 9.71886739e-002,
          1.01020008e-001, 6.75644204e-002, 1.31978884e-001, 0.,
          4.25918788e-001, 3.27415019e-001 ]
      - [ 1.94837093e-001, 4.61000055e-002, 4.19090092e-002,
          1.98935986e-001, 4.19090092e-002, 4.19089943e-002,
          1.39455244e-001, 1.11213394e-001, 1.67531714e-001,
          1.21606037e-001, 1.17417581e-001, 1.54691696e-001,
          1.18115209e-001, 1.41646788e-001, 1.44468024e-001,
          2.94025958e-001, 1.32795200e-001, 1.75015777e-001,
          1.57449096e-001, 1.75015777e-001, 4.14499640e-003,
          5.89457946e-003, 4.19104099e-003, 0., 6.28629923e-002,
          1.19958825e-001, 9.21999812e-002, 9.74615812e-002,
          8.81055444e-002, 9.67457592e-002, 9.71886739e-002,
          1.01020008e-001, 6.75644204e-002, 1.31978884e-001, 0.,
          4.25918788e-001, 3.27415019e-001 ]
      - [ 1.94837093e-001, 4.61000055e-002, 4.19090092e-002,
          1.98935986e-001, 4.19090092e-002, 4.19089943e-002,
          1.39455244e-001, 1.11213394e-001, 1.67531714e-001,
          1.21606037e-001, 1.17417581e-001, 1.54691696e-001,
          1.18115209e-001, 1.41646788e-001, 1.44468024e-001,
          2.94025958e-001, 1.32795200e-001, 1.75015777e-001,
          1.57449096e-001, 1.75015777e-001, 4.14499640e-003,
          5.89457946e-003, 4.19104099e-003, 0., 6.28629923e-002,
          1.19958825e-001, 9.21999812e-002, 9.74615812e-002,
          8.81055444e-002, 9.67457592e-002, 9.71886739e-002,
          1.01020008e-001, 6.75644204e-002, 1.31978884e-001, 0.,
          4.25918788e-001, 3.27415019e-001 ]
      - [ 1.94837093e-001, 4.61000055e-002, 4.19090092e-002,
          1.98935986e-001, 4.19090092e-002, 4.19089943e-002,
          1.39455244e-001, 1.11213394e-001, 1.67531714e-001,
          1.21606037e-001, 1.17417581e-001, 1.54691696e-001,
          1.18115209e-001, 1.41646788e-001, 1.44468024e-001,
          2.94025958e-001, 1.32795200e-001, 1.75015777e-001,
          1.57449096e-001, 1.75015777e-001, 4.14499640e-003,
          5.89457946e-003, 4.19104099e-003, 0., 6.28629923e-002,
          1.19958825e-001, 9.21999812e-002, 9.74615812e-002,
          8.81055444e-002, 9.67457592e-002, 9.71886739e-002,
          1.01020008e-001, 6.75644204e-002, 1.31978884e-001, 0.,
          4.25918788e-001, 3.27415019e-001 ]
      - [ 1.94837093e-001, 4.61000055e-002, 4.19090092e-002,
          1.98935986e-001, 4.19090092e-002, 4.19089943e-002,
          1.39455244e-001, 1.11213394e-001, 1.67531714e-001,
          1.21606037e-001, 1.17417581e-001, 1.54691696e-001,
          1.18115209e-001, 1.41646788e-001, 1.44468024e-001,
          2.94025958e-001, 1.32795200e-001, 1.75015777e-001,
          1.57449096e-001, 1.75015777e-001, 4.14499640e-003,
          5.89457946e-003, 4.19104099e-003, 0., 6.28629923e-002,
          1.19958825e-001, 9.21999812e-002, 9.74615812e-002,
          8.81055444e-002, 9.67457592e-002, 9.71886739e-002,
          1.01020008e-001, 6.75644204e-002, 1.31978884e-001, 0.,
          4.25918788e-001, 3.27415019e-001 ]
      - [ 1.94837093e-001, 4.61000055e-002, 4.19090092e-002,
          1.98935986e-001, 4.19090092e-002, 4.19089943e-002,
          1.39455244e-001, 1.11213394e-001, 1.67531714e-001,
          1.21606037e-001, 1.17417581e-001, 1.54691696e-001,
          1.18115209e-001, 1.41646788e-001, 1.44468024e-001,
          2.94025958e-001, 1.32795200e-001, 1.75015777e-001,
          1.57449096e-001, 1.75015777e-001, 4.14499640e-003,
          5.89457946e-003, 4.19104099e-003, 0., 6.28629923e-002,
          1.19958825e-001, 9.21999812e-002, 9.74615812e-002,
          8.81055444e-002, 9.67457592e-002, 9.71886739e-002,
          1.01020008e-001, 6.75644204e-002, 1.31978884e-001, 0.,
          4.25918788e-001, 3.27415019e-001 ]
      - [ 1.94837093e-001, 4.61000055e-002, 4.19090092e-002,
          1.98935986e-001, 4.19090092e-002, 4.19089943e-002,
          1.39455244e-001, 1.11213394e-001, 1.67531714e-001,
          1.21606037e-001, 1.17417581e-001, 1.54691696e-001,
          1.18115209e-001, 1.41646788e-001, 1.44468024e-001,
