%YAML:1.0
opencv_ml_svm:
   format: 3
   svmType: C_SVC
   kernel:
      type: POLY
      degree: 1.0000000000000000e-002
      gamma: 5.0625000000000009e-001
      coef0: 1.4000000000000001e+000
   C: 6.2500000000000000e+001
   term_criteria: { epsilon:1.1920928955078125e-007, iterations:1000 }
   var_count: 144
   class_count: 7
   class_labels: !!opencv-matrix
      rows: 7
      cols: 1
      dt: i
      data: [ 0, 1, 2, 3, 4, 5, 6 ]
   sv_total: 245
   support_vectors:
      - [ 5.46944976e-001, 5.43799996e-001, 4.95974004e-001,
          4.40600008e-001, 3.88597012e-001, 3.92711014e-001,
          4.46069986e-001, 5.05034029e-001, 5.54301023e-001,
          5.68395972e-001, 0., 1.19958997e-001, 9.74619016e-002,
          9.67457965e-002, 1.01020999e-001, 1.31979004e-001,
          4.25918013e-001, 4.04500991e-001, 3.66048008e-001,
          2.99214005e-001, 3.32349002e-001, 3.71383011e-001,
          3.06921989e-001, 3.73227000e-001, 4.12694007e-001,
          4.39476013e-001, 3.83578002e-001, 3.40240002e-001,
          2.93150991e-001, 2.35745996e-001, 2.03876004e-001,
          2.09912002e-001, 2.04207003e-001, 2.45795995e-001,
          3.21729004e-001, 3.08564007e-001, 3.00761998e-001,
          2.98013002e-001, 2.95228988e-001, 2.93938994e-001,
          2.73743004e-001, 2.29359999e-001, 2.39203006e-001,
          2.37689003e-001, 2.99769998e-001, 2.33627006e-001,
          2.35274002e-001, 2.28723004e-001, 5.38785011e-002,
          7.96265006e-002, 1.16045997e-001, 2.09544003e-002,
          2.07224995e-001, 1.25725996e-002, 3.02547991e-001,
          2.51451991e-002, 3.97872001e-001, 5.02903983e-002,
          5.47074020e-001, 4.60995995e-002, 6.46542013e-001,
          2.09544003e-002, 7.54298985e-001, 1.25725996e-002,
          8.53766978e-001, 2.93361004e-002, 9.28367019e-001,
          9.21991989e-002, 4.72472996e-001, 4.31659997e-001,
          3.73005003e-001, 4.98714000e-001, 4.22738999e-001,
          5.15477002e-001, 4.80762005e-001, 5.28050005e-001,
          5.34640014e-001, 5.11286020e-001, 5.88518977e-001,
          4.94522989e-001, 1.45056993e-001, 1.59253001e-001,
          2.03079998e-001, 1.29916996e-001, 2.65248001e-001,
          1.29916996e-001, 3.39848995e-001, 1.63443998e-001,
          2.65248001e-001, 1.71826005e-001, 2.03079998e-001,
          1.76017001e-001, 6.21675014e-001, 1.63443998e-001,
          6.92130983e-001, 1.29916996e-001, 7.58442998e-001,
          1.34108007e-001, 8.20611000e-001, 1.63443998e-001,
          7.58442998e-001, 1.76017001e-001, 6.92130983e-001,
          1.71826005e-001, 3.02547991e-001, 6.70539021e-001,
          3.73005003e-001, 6.45394027e-001, 4.39316988e-001,
          6.32821023e-001, 4.84905988e-001, 6.41202986e-001,
          5.26350975e-001, 6.28630996e-001, 6.00952029e-001,
          6.41202986e-001, 6.87986970e-001, 6.70539021e-001,
          6.09241009e-001, 7.08257020e-001, 5.38784981e-001,
          7.25021005e-001, 4.89051014e-001, 7.29210973e-001,
          4.39316988e-001, 7.25021005e-001, 3.73005003e-001,
          7.08257020e-001, 3.31559986e-001, 6.66347980e-001,
          4.35171992e-001, 6.57966971e-001, 4.84905988e-001,
          6.70539021e-001, 5.30496001e-001, 6.62158012e-001,
          6.58975005e-001, 6.66347980e-001, 5.30496001e-001,
          6.57966971e-001, 4.89051014e-001, 6.66347980e-001,
          4.39316988e-001, 6.57966971e-001 ]
      - [ 5.76470017e-001, 5.72053015e-001, 5.38469970e-001,
          4.71583992e-001, 3.79045010e-001, 3.12287003e-001,
          3.54328990e-001, 3.76563013e-001, 3.69612008e-001,
          3.42956007e-001, 0., 1.32360995e-001, 1.13190003e-001,
          1.13848999e-001, 1.06376998e-001, 1.15226001e-001,
          4.06432986e-001, 3.75568986e-001, 3.28635991e-001,
          2.60603994e-001, 2.84738004e-001, 3.31726015e-001,
          1.47312999e-001, 1.90749004e-001, 2.11510003e-001,
          2.16591001e-001, 1.71884000e-001, 1.44539997e-001,
          2.86294997e-001, 2.31170997e-001, 1.96263999e-001,
          2.10843995e-001, 2.01533005e-001, 2.40386993e-001,
          2.92355001e-001, 3.15708011e-001, 3.26606005e-001,
          3.27784002e-001, 3.13488007e-001, 2.93837011e-001,
          2.77832001e-001, 2.54846007e-001, 2.66959995e-001,
          2.67832011e-001, 2.77361006e-001, 2.42192000e-001,
          2.41977006e-001, 2.37579003e-001, 1.01020999e-001,
          1.31979004e-001, 4.25918013e-001, 4.04500991e-001,
          3.66048008e-001, 2.99214005e-001, 3.32349002e-001,
          3.71383011e-001, 3.06921989e-001, 3.73227000e-001,
          4.12694007e-001, 4.39476013e-001, 3.83578002e-001,
          3.40240002e-001, 2.93150991e-001, 2.35745996e-001,
          2.03876004e-001, 2.09912002e-001, 2.04207003e-001,
          2.45795995e-001, 2.73743004e-001, 2.29359999e-001,
          2.39203006e-001, 2.37689003e-001, 2.99769998e-001,
          2.33627006e-001, 2.35274002e-001, 2.28723004e-001,
          2.01161996e-001, 1.00580998e-001, 0., 1.19958997e-001,
          9.74619016e-002, 9.67457965e-002, 1.01020999e-001,
          1.31979004e-001, 4.25918013e-001, 4.04500991e-001,
          3.66048008e-001, 2.99214005e-001, 3.32349002e-001,
          3.71383011e-001, 3.06921989e-001, 3.73227000e-001,
          4.12694007e-001, 4.39476013e-001, 3.83578002e-001,
          3.40240002e-001, 2.93150991e-001, 2.35745996e-001,
          2.03876004e-001, 2.09912002e-001, 2.04207003e-001,
          2.45795995e-001, 2.73743004e-001, 2.29359999e-001,
          2.39203006e-001, 2.37689003e-001, 2.99769998e-001,
          2.33627006e-001, 2.35274002e-001, 2.28723004e-001,
          2.39203006e-001, 2.37689003e-001, 2.99769998e-001,
          2.33627006e-001, 2.35274002e-001, 2.28723004e-001,
          6.87986970e-001, 6.70539021e-001, 6.09241009e-001,
          7.08257020e-001, 5.38784981e-001, 7.25021005e-001,
          4.89051014e-001, 7.29210973e-001, 4.39316988e-001,
          7.25021005e-001, 3.73005003e-001, 7.08257020e-001,
          3.31559986e-001, 6.66347980e-001, 4.35171992e-001,
          6.57966971e-001, 4.84905988e-001, 6.70539021e-001,
          5.30496001e-001, 6.62158012e-001, 6.58975005e-001,
          6.66347980e-001, 5.30496001e-001, 6.57966971e-001,
          4.89051014e-001, 6.66347980e-001, 4.39316988e-001,
          6.57966971e-001 ]
      - [ 5.48322022e-001, 5.58197975e-001, 5.11748016e-001,
          4.46328998e-001, 3.71524990e-001, 3.62645000e-001,
          4.19575006e-001, 4.70445007e-001, 5.02416015e-001,
          4.89169002e-001, 0., 1.27463996e-001, 1.07487001e-001,
          1.03882998e-001, 1.01625003e-001, 1.20847002e-001,
          4.03710991e-001, 3.84777993e-001, 3.41863006e-001,
          2.71483988e-001, 2.92908013e-001, 3.39073986e-001,
          2.48271003e-001, 3.12772989e-001, 3.44767988e-001,
          3.62729013e-001, 3.06461006e-001, 2.62176991e-001,
          3.26131999e-001, 2.54063994e-001, 2.15663999e-001,
          2.26209000e-001, 2.19457000e-001, 2.55398989e-001,
          3.18316013e-001, 3.22975010e-001, 3.21610987e-001,
          3.21045995e-001, 3.22789997e-001, 3.31200987e-001,
          3.10660988e-001, 2.60304987e-001, 2.62243003e-001,
          2.54662991e-001, 3.02156001e-001, 2.54216999e-001,
          2.58002013e-001, 2.55925000e-001, 1.33314997e-001,
          6.00894988e-002, 2.11081997e-001, 2.31113993e-002,
          2.96256006e-001, 2.77335998e-002, 3.77725989e-001,
          7.85785988e-002, 4.40679997e-001, 1.66401997e-001,
          5.29556990e-001, 2.44979993e-001, 5.88808000e-001,
          2.21869007e-001, 6.51763022e-001, 2.31114000e-001,
          7.03607023e-001, 2.81958997e-001, 7.33232975e-001,
          3.60536993e-001, 4.44384009e-001, 5.45427978e-001,
          3.22178006e-001, 5.96273005e-001, 3.62913013e-001,
          6.24006987e-001, 4.03647989e-001, 6.51740015e-001,
          4.48087007e-001, 6.51740015e-001, 4.88822013e-001,
          6.51740015e-001, 2.11081997e-001, 2.12624997e-001,
          2.70332992e-001, 2.12624997e-001, 3.22178006e-001,
          2.40357995e-001, 3.55506986e-001, 3.00448000e-001,
          3.07365000e-001, 2.95825005e-001, 2.55520999e-001,
          2.72713989e-001, 5.14743984e-001, 4.16004986e-001,
          5.70291996e-001, 4.02137995e-001, 6.18434012e-001,
          4.25249010e-001, 6.44356012e-001, 4.62226987e-001,
          6.03621006e-001, 4.80715990e-001, 5.59183002e-001,
          4.57605004e-001, 2.14784995e-001, 7.16452003e-001,
          2.88848996e-001, 7.16452003e-001, 3.48100007e-001,
          7.16452003e-001, 3.74022990e-001, 7.44185984e-001,
          4.11054999e-001, 7.44185984e-001, 4.40679997e-001,
          7.85785973e-001, 4.70306009e-001, 8.36631000e-001,
          4.14757997e-001, 8.59742999e-001, 3.74022990e-001,
          8.64364982e-001, 3.36991012e-001, 8.55120003e-001,
          3.07365000e-001, 8.27386975e-001, 2.62926996e-001,
          7.76542008e-001, 2.37004995e-001, 7.30319023e-001,
          3.36991012e-001, 7.76542008e-001, 3.62913013e-001,
          7.99652994e-001, 3.96241993e-001, 8.08897972e-001,
          4.48087007e-001, 8.22764993e-001, 3.88835996e-001,
          7.81163990e-001, 3.59210014e-001, 7.71920025e-001,
          3.29584002e-001, 7.53430009e-001 ]
      - [ 5.23470998e-001, 5.02937973e-001, 4.42995012e-001,
          3.72096002e-001, 3.16314995e-001, 3.17115992e-001,
          3.78796995e-001, 4.45630997e-001, 4.98392999e-001,
          5.17005980e-001, 0., 1.42974004e-001, 1.19900003e-001,
          1.19883001e-001, 1.24251999e-001, 1.46560997e-001,
          3.79074007e-001, 3.53985012e-001, 3.09114993e-001,
          2.39387006e-001, 2.61175007e-001, 3.12994987e-001,
          2.37375006e-001, 3.12031001e-001, 3.53859007e-001,
          3.80149007e-001, 3.17905009e-001, 2.64620006e-001,
          3.48113000e-001, 2.83205003e-001, 2.47908995e-001,
          2.60394990e-001, 2.48734996e-001, 2.91595012e-001,
          3.55123997e-001, 3.61829013e-001, 3.62690002e-001,
          3.64686012e-001, 3.60987991e-001, 3.57497990e-001,
          3.36116999e-001, 2.94281006e-001, 3.02098006e-001,
          2.94977009e-001, 3.38301986e-001, 2.95753986e-001,
          2.96891004e-001, 2.88493007e-001, 1.06376998e-001,
          1.15226001e-001, 4.06432986e-001, 3.75568986e-001,
          3.28635991e-001, 2.60603994e-001, 2.84738004e-001,
          3.31726015e-001, 1.47312999e-001, 1.90749004e-001,
          2.11510003e-001, 2.16591001e-001, 1.71884000e-001,
          1.44539997e-001, 2.86294997e-001, 2.31170997e-001,
          1.96263999e-001, 2.10843995e-001, 2.01533005e-001,
          2.40386993e-001, 2.77832001e-001, 2.54846007e-001,
          2.66959995e-001, 2.67832011e-001, 2.77361006e-001,
          2.42192000e-001, 2.41977006e-001, 2.37579003e-001,
          1.52939007e-001, 7.89268985e-002, 0., 1.32360995e-001,
          1.13190003e-001, 1.13848999e-001, 1.06376998e-001,
          1.15226001e-001, 4.06432986e-001, 3.75568986e-001,
          3.28635991e-001, 2.60603994e-001, 2.84738004e-001,
          3.31726015e-001, 1.47312999e-001, 1.90749004e-001,
          2.11510003e-001, 2.16591001e-001, 1.71884000e-001,
          1.44539997e-001, 2.86294997e-001, 2.31170997e-001,
          1.96263999e-001, 2.10843995e-001, 2.01533005e-001,
          2.40386993e-001, 2.77832001e-001, 2.54846007e-001,
          2.66959995e-001, 2.67832011e-001, 2.77361006e-001,
          2.42192000e-001, 2.41977006e-001, 2.37579003e-001,
          2.66959995e-001, 2.67832011e-001, 2.77361006e-001,
          2.42192000e-001, 2.41977006e-001, 2.37579003e-001,
          4.70306009e-001, 8.36631000e-001, 4.14757997e-001,
          8.59742999e-001, 3.74022990e-001, 8.64364982e-001,
          3.36991012e-001, 8.55120003e-001, 3.07365000e-001,
          8.27386975e-001, 2.62926996e-001, 7.76542008e-001,
          2.37004995e-001, 7.30319023e-001, 3.36991012e-001,
          7.76542008e-001, 3.62913013e-001, 7.99652994e-001,
          3.96241993e-001, 8.08897972e-001, 4.48087007e-001,
          8.22764993e-001, 3.88835996e-001, 7.81163990e-001,
          3.59210014e-001, 7.71920025e-001, 3.29584002e-001,
          7.53430009e-001 ]
      - [ 4.59244013e-001, 4.58368987e-001, 4.13468987e-001,
          3.60267013e-001, 3.08898002e-001, 3.01631004e-001,
          3.50665003e-001, 3.94012004e-001, 4.27607000e-001,
          4.28995997e-001, 0., 1.35885999e-001, 1.30441993e-001,
          1.29567996e-001, 1.29567996e-001, 1.40933007e-001,
          3.18686008e-001, 2.87972987e-001, 2.42953002e-001,
          1.77710995e-001, 2.06876993e-001, 2.58736014e-001,
          1.61458999e-001, 2.21239001e-001, 2.55026996e-001,
          2.77956009e-001, 2.28529006e-001, 1.85490996e-001,
          3.70689988e-001, 2.92488009e-001, 2.52674013e-001,
          2.64210999e-001, 2.50331014e-001, 3.06668013e-001,
          3.85262996e-001, 4.09895986e-001, 4.19187993e-001,
          4.15684998e-001, 4.09276009e-001, 3.93772006e-001,
          3.59674007e-001, 3.21770012e-001, 3.28361988e-001,
          3.26012999e-001, 3.75052989e-001, 3.31835002e-001,
          3.27812999e-001, 3.27459991e-001, 8.16925988e-002,
          4.51347008e-002, 1.51714996e-001, -3.15942988e-002,
          2.45077997e-001, -3.61078009e-002, 3.34551007e-001,
          -4.51346999e-003, 4.20132995e-001, 4.96481992e-002,
          5.52397013e-001, 5.86751997e-002, 6.34090006e-001,
          2.25674007e-002, 7.23563015e-001, 9.02695023e-003,
          8.05254996e-001, 2.70808004e-002, 8.59717011e-001,
          9.92963985e-002, 4.86265004e-001, 4.15239990e-001,
          3.81231993e-001, 4.87455010e-001, 4.27913010e-001,
          5.05509019e-001, 4.82374996e-001, 5.19048989e-001,
          5.32947004e-001, 5.05509019e-001, 5.79627991e-001,
          4.91968989e-001, 1.82835996e-001, 1.48945004e-001,
          2.37296999e-001, 1.21863998e-001, 3.03429991e-001,
          1.26377001e-001, 3.57890993e-001, 1.76025003e-001,
          2.99539000e-001, 1.89566001e-001, 2.37296999e-001,
          1.85051993e-001, 5.99079013e-001, 1.94078997e-001,
          6.57431006e-001, 1.53457999e-001, 7.15783000e-001,
          1.57971993e-001, 7.70244002e-001, 1.89566001e-001,
          7.19672978e-001, 2.16646999e-001, 6.57431006e-001,
          2.16646999e-001, 2.91759014e-001, 6.77021027e-001,
          3.69562000e-001, 6.40913010e-001, 4.27913010e-001,
          6.22859001e-001, 4.70705003e-001, 6.40913010e-001,
          5.21275997e-001, 6.31886005e-001, 5.75738013e-001,
          6.54453993e-001, 6.37979984e-001, 6.95074975e-001,
          5.71847975e-001, 7.26669014e-001, 5.13495982e-001,
          7.35696018e-001, 4.66814995e-001, 7.35696018e-001,
          4.20132995e-001, 7.31182992e-001, 3.61781001e-001,
          7.22155988e-001, 3.18989992e-001, 6.77021027e-001,
          4.24023002e-001, 6.67994022e-001, 4.70705003e-001,
          6.77021027e-001, 5.17386019e-001, 6.67994022e-001,
          6.10749006e-001, 6.90560997e-001, 5.13495982e-001,
          6.67994022e-001, 4.66814995e-001, 6.72508001e-001,
          4.24023002e-001, 6.63480997e-001 ]
      - [ 5.92150986e-001, 6.04095995e-001, 5.68168998e-001,
          5.17527997e-001, 4.61564004e-001, 4.36569989e-001,
          4.96315986e-001, 5.37656009e-001, 5.51630974e-001,
          5.43097019e-001, 0., 9.17873979e-002, 7.12478980e-002,
          7.75275007e-002, 7.86473006e-002, 1.04791000e-001,
          4.62428004e-001, 4.55617011e-001, 4.24248993e-001,
          3.58985007e-001, 3.70595992e-001, 4.03564006e-001,
          3.38393986e-001, 3.93678010e-001, 4.17093009e-001,
          4.09278989e-001, 3.61786991e-001, 3.39491993e-001,
          2.21122995e-001, 1.86423004e-001, 1.68055996e-001,
          1.85014993e-001, 1.78562999e-001, 2.19411999e-001,
          2.57351011e-001, 2.59927988e-001, 2.72361010e-001,
          2.71522999e-001, 2.61135012e-001, 2.35541999e-001,
          2.09916994e-001, 2.13835999e-001, 2.32582003e-001,
          2.30970994e-001, 2.47740000e-001, 1.89348996e-001,
          1.87459007e-001, 1.79636002e-001, 1.01625003e-001,
          1.20847002e-001, 4.03710991e-001, 3.84777993e-001,
          3.41863006e-001, 2.71483988e-001, 2.92908013e-001,
          3.39073986e-001, 2.48271003e-001, 3.12772989e-001,
          3.44767988e-001, 3.62729013e-001, 3.06461006e-001,
          2.62176991e-001, 3.26131999e-001, 2.54063994e-001,
          2.15663999e-001, 2.26209000e-001, 2.19457000e-001,
          2.55398989e-001, 3.10660988e-001, 2.60304987e-001,
          2.62243003e-001, 2.54662991e-001, 3.02156001e-001,
          2.54216999e-001, 2.58002013e-001, 2.55925000e-001,
          1.89566001e-001, 9.92963985e-002, 0., 1.27463996e-001,
          1.07487001e-001, 1.03882998e-001, 1.01625003e-001,
          1.20847002e-001, 4.03710991e-001, 3.84777993e-001,
          3.41863006e-001, 2.71483988e-001, 2.92908013e-001,
          3.39073986e-001, 2.48271003e-001, 3.12772989e-001,
          3.44767988e-001, 3.62729013e-001, 3.06461006e-001,
          2.62176991e-001, 3.26131999e-001, 2.54063994e-001,
          2.15663999e-001, 2.26209000e-001, 2.19457000e-001,
          2.55398989e-001, 3.10660988e-001, 2.60304987e-001,
          2.62243003e-001, 2.54662991e-001, 3.02156001e-001,
          2.54216999e-001, 2.58002013e-001, 2.55925000e-001,
          2.62243003e-001, 2.54662991e-001, 3.02156001e-001,
          2.54216999e-001, 2.58002013e-001, 2.55925000e-001,
          6.37979984e-001, 6.95074975e-001, 5.71847975e-001,
          7.26669014e-001, 5.13495982e-001, 7.35696018e-001,
          4.66814995e-001, 7.35696018e-001, 4.20132995e-001,
          7.31182992e-001, 3.61781001e-001, 7.22155988e-001,
          3.18989992e-001, 6.77021027e-001, 4.24023002e-001,
          6.67994022e-001, 4.70705003e-001, 6.77021027e-001,
          5.17386019e-001, 6.67994022e-001, 6.10749006e-001,
          6.90560997e-001, 5.13495982e-001, 6.67994022e-001,
          4.66814995e-001, 6.72508001e-001, 4.24023002e-001,
          6.63480997e-001 ]
      - [ 5.00818014e-001, 4.91878986e-001, 4.39821005e-001,
          3.76358002e-001, 3.14152986e-001, 3.17117006e-001,
          3.79029989e-001, 4.53092992e-001, 5.03973007e-001,
          5.13258994e-001, 0., 1.22363001e-001, 9.72092003e-002,
          8.60646963e-002, 9.44757983e-002, 1.18110001e-001,
          3.69360000e-001, 3.36836994e-001, 3.02040994e-001,
          2.50939995e-001, 2.77940989e-001, 3.12467009e-001,
          2.56058007e-001, 3.10954005e-001, 3.47231001e-001,
          3.77245992e-001, 3.20039988e-001, 2.80265987e-001,
          3.10568988e-001, 2.34300002e-001, 1.93201005e-001,
          2.00541005e-001, 1.92230001e-001, 2.30217993e-001,
          3.00678998e-001, 3.33128989e-001, 3.51152003e-001,
          3.55170012e-001, 3.52286994e-001, 3.41435999e-001,
          2.93754011e-001, 2.56009012e-001, 2.57806987e-001,
          2.54444987e-001, 2.89476007e-001, 2.65796989e-001,
          2.74987996e-001, 2.72163987e-001, 9.33722034e-002,
          5.20789996e-002, 1.72001004e-001, 0., 2.65374005e-001,
          5.20789996e-003, 3.58745992e-001, 3.64552997e-002,
          4.52118009e-001, 6.77027032e-002, 5.55319011e-001,
          6.77027032e-002, 6.48690999e-001, 3.12473997e-002,
          7.42062986e-001, 5.20789996e-003, 8.35435987e-001,
          1.04157999e-002, 9.09150004e-001, 6.24947995e-002,
          5.01260996e-001, 3.80176991e-001, 3.98059994e-001,
          4.79126990e-001, 4.52118009e-001, 4.89542991e-001,
          5.06175995e-001, 4.99958992e-001, 5.60232997e-001,
          4.89542991e-001, 6.09377027e-001, 4.79126990e-001,
          1.91659003e-001, 1.61445007e-001, 2.50631005e-001,
          1.30198002e-001, 3.19431007e-001, 1.30198002e-001,
          3.83318007e-001, 1.71860993e-001, 3.19431007e-001,
          1.92691997e-001, 2.50631005e-001, 1.92691997e-001,
          6.24119997e-001, 1.77068993e-001, 6.88005984e-001,
          1.30198002e-001, 7.56806016e-001, 1.35405004e-001,
          8.15778017e-001, 1.66653007e-001, 7.61721015e-001,
          1.97899997e-001, 6.88005984e-001, 1.92691997e-001,
          3.19431007e-001, 6.77026987e-001, 4.02974993e-001,
          6.45780027e-001, 4.61946994e-001, 6.24948025e-001,
          5.01260996e-001, 6.40572011e-001, 5.45490026e-001,
          6.24948025e-001, 6.09377027e-001, 6.50987983e-001,
          6.88005984e-001, 6.82235003e-001, 6.14291012e-001,
          7.23899007e-001, 5.50405025e-001, 7.39521980e-001,
          5.11089981e-001, 7.44729996e-001, 4.66861010e-001,
          7.39521980e-001, 4.02974993e-001, 7.23899007e-001,
          3.53832006e-001, 6.82235003e-001, 4.61946994e-001,
          6.71819985e-001, 5.06175995e-001, 6.82235003e-001,
          5.45490026e-001, 6.71819985e-001, 6.53604984e-001,
          6.82235003e-001, 5.50405025e-001, 6.71819985e-001,
          5.06175995e-001, 6.77026987e-001, 4.66861010e-001,
          6.66612029e-001 ]
      - [ 4.56238985e-001, 4.50280994e-001, 4.02985990e-001,
          3.50544006e-001, 2.92943001e-001, 2.84292012e-001,
          3.56830001e-001, 4.19730991e-001, 4.73022014e-001,
          5.01972020e-001, 0., 1.09858997e-001, 9.98729020e-002,
          9.86983031e-002, 9.91341993e-002, 1.17312998e-001,
          3.41026992e-001, 3.21729988e-001, 2.85777003e-001,
          2.28820994e-001, 2.48538002e-001, 2.85355985e-001,
          2.52876014e-001, 3.12368989e-001, 3.47754985e-001,
          3.78632993e-001, 3.25576991e-001, 2.77740002e-001,
          3.13041985e-001, 2.52730012e-001, 2.11965993e-001,
          2.20366001e-001, 2.19722003e-001, 2.57117987e-001,
          3.19873989e-001, 3.43125999e-001, 3.51087987e-001,
          3.47847015e-001, 3.50410014e-001, 3.39850008e-001,
          3.00040990e-001, 2.57759988e-001, 2.60939002e-001,
          2.59490013e-001, 3.02623004e-001, 2.75745004e-001,
          2.78328001e-001, 2.75745004e-001, 1.24251999e-001,
          1.46560997e-001, 3.79074007e-001, 3.53985012e-001,
          3.09114993e-001, 2.39387006e-001, 2.61175007e-001,
          3.12994987e-001, 2.37375006e-001, 3.12031001e-001,
          3.53859007e-001, 3.80149007e-001, 3.17905009e-001,
          2.64620006e-001, 3.48113000e-001, 2.83205003e-001,
          2.47908995e-001, 2.60394990e-001, 2.48734996e-001,
          2.91595012e-001, 3.36116999e-001, 2.94281006e-001,
          3.02098006e-001, 2.94977009e-001, 3.38301986e-001,
          2.95753986e-001, 2.96891004e-001, 2.88493007e-001,
          1.61445007e-001, 8.33263993e-002, 0., 1.42974004e-001,
          1.19900003e-001, 1.19883001e-001, 1.24251999e-001,
          1.46560997e-001, 3.79074007e-001, 3.53985012e-001,
          3.09114993e-001, 2.39387006e-001, 2.61175007e-001,
          3.12994987e-001, 2.37375006e-001, 3.12031001e-001,
          3.53859007e-001, 3.80149007e-001, 3.17905009e-001,
          2.64620006e-001, 3.48113000e-001, 2.83205003e-001,
          2.47908995e-001, 2.60394990e-001, 2.48734996e-001,
          2.91595012e-001, 3.36116999e-001, 2.94281006e-001,
          3.02098006e-001, 2.94977009e-001, 3.38301986e-001,
          2.95753986e-001, 2.96891004e-001, 2.88493007e-001,
          3.02098006e-001, 2.94977009e-001, 3.38301986e-001,
          2.95753986e-001, 2.96891004e-001, 2.88493007e-001,
          6.88005984e-001, 6.82235003e-001, 6.14291012e-001,
          7.23899007e-001, 5.50405025e-001, 7.39521980e-001,
          5.11089981e-001, 7.44729996e-001, 4.66861010e-001,
          7.39521980e-001, 4.02974993e-001, 7.23899007e-001,
          3.53832006e-001, 6.82235003e-001, 4.61946994e-001,
          6.71819985e-001, 5.06175995e-001, 6.82235003e-001,
          5.45490026e-001, 6.71819985e-001, 6.53604984e-001,
          6.82235003e-001, 5.50405025e-001, 6.71819985e-001,
          5.06175995e-001, 6.77026987e-001, 4.66861010e-001,
          6.66612029e-001 ]
      - [ 5.17736971e-001, 5.18036008e-001, 4.75041986e-001,
          4.32904989e-001, 3.75220001e-001, 3.68414998e-001,
          4.12721992e-001, 4.59859014e-001, 4.92419988e-001,
          5.05311012e-001, 0., 9.36947986e-002, 7.46966004e-002,
          7.14434013e-002, 7.23956972e-002, 9.42654982e-002,
          3.70254993e-001, 3.51222008e-001, 3.25067014e-001,
          2.70031989e-001, 2.86024004e-001, 3.20874006e-001,
          2.66627014e-001, 3.16902012e-001, 3.44457000e-001,
          3.60567987e-001, 3.15111011e-001, 2.78836012e-001,
          2.47606993e-001, 1.91085994e-001, 1.45857006e-001,
          1.48539007e-001, 1.44301996e-001, 1.90851003e-001,
          2.57903993e-001, 2.52756000e-001, 2.44250000e-001,
          2.43950993e-001, 2.50252992e-001, 2.57160991e-001,
          2.36989006e-001, 1.80010006e-001, 1.78439006e-001,
          1.78393006e-001, 2.37727001e-001, 1.85508996e-001,
          1.84731007e-001, 1.85238004e-001, 1.56823993e-001,
          4.07515988e-002, 2.30335996e-001, -1.74649991e-002,
          3.13648999e-001, -1.16432998e-002, 3.92060995e-001,
          1.74649991e-002, 4.65572000e-001, 5.82166016e-002,
          5.78289986e-001, 8.15033019e-002, 6.46900058e-001,
          5.82166016e-002, 7.25313008e-001, 5.82166016e-002,
          7.98824012e-001, 8.15033019e-002, 8.47832024e-001,
          1.45541996e-001, 4.80275005e-001, 3.66764992e-001,
          3.87160003e-001, 4.65732992e-001, 4.21465009e-001,
          4.83197987e-001, 4.60671991e-001, 4.94841009e-001,
          4.99877989e-001, 4.94841009e-001, 5.39084017e-001,
          4.94841009e-001, 2.35237002e-001, 1.63007006e-001,
          2.89144993e-001, 1.51363000e-001, 3.47954005e-001,
          1.63007006e-001, 3.87160003e-001, 2.15402007e-001,
          3.33252013e-001, 2.21222997e-001, 2.79343009e-001,
          2.03758001e-001, 5.97893000e-001, 2.56152987e-001,
          6.46900058e-001, 2.21222997e-001, 7.00809002e-001,
          2.38688007e-001, 7.40014970e-001, 2.67796010e-001,
          6.95908010e-001, 2.91083008e-001, 6.46900058e-001,
          2.85261005e-001, 3.03846985e-001, 6.92777991e-001,
          3.62655997e-001, 6.34561002e-001, 4.16565001e-001,
          6.11275017e-001, 4.45968986e-001, 6.28740013e-001,
          4.80275005e-001, 6.17096007e-001, 5.29281974e-001,
          6.69490993e-001, 5.78289986e-001, 7.39350975e-001,
          5.24380982e-001, 7.74281025e-001, 4.75374013e-001,
          7.85924017e-001, 4.36167985e-001, 7.80103028e-001,
          4.01861995e-001, 7.68459022e-001, 3.52854997e-001,
          7.39350975e-001, 3.28350991e-001, 6.92777991e-001,
          4.11664009e-001, 6.81134999e-001, 4.41069007e-001,
          6.92777991e-001, 4.80275005e-001, 6.92777991e-001,
          5.58686972e-001, 7.33529985e-001, 4.80275005e-001,
          6.98599994e-001, 4.45968986e-001, 6.92777991e-001,
          4.11664009e-001, 6.86955988e-001 ]
      - [ 5.40373027e-001, 5.44448972e-001, 5.02789021e-001,
          4.34354991e-001, 3.66822988e-001, 3.61640990e-001,
          4.18094993e-001, 4.73390013e-001, 5.07920027e-001,
          5.09404004e-001, 0., 1.11919999e-001, 8.64958018e-002,
          8.92407969e-002, 9.06948969e-002, 1.16740003e-001,
          3.83951008e-001, 3.66245985e-001, 3.37062001e-001,
          2.84170985e-001, 3.01869005e-001, 3.34800005e-001,
          2.76861995e-001, 3.26296002e-001, 3.60597998e-001,
          3.81007999e-001, 3.30617994e-001, 2.95053005e-001,
          2.85373986e-001, 2.28723004e-001, 1.96310997e-001,
          2.10033998e-001, 2.03189999e-001, 2.42220998e-001,
          2.90962011e-001, 3.04473013e-001, 3.11558992e-001,
          3.10057014e-001, 3.10880005e-001, 3.02540004e-001,
          2.73710012e-001, 2.47253999e-001, 2.52020001e-001,
          2.49733999e-001, 2.80660003e-001, 2.38634005e-001,
          2.41668001e-001, 2.38141000e-001, 1.29567996e-001,
          1.40933007e-001, 3.18686008e-001, 2.87972987e-001,
          2.42953002e-001, 1.77710995e-001, 2.06876993e-001,
          2.58736014e-001, 1.61458999e-001, 2.21239001e-001,
          2.55026996e-001, 2.77956009e-001, 2.28529006e-001,
          1.85490996e-001, 3.70689988e-001, 2.92488009e-001,
          2.52674013e-001, 2.64210999e-001, 2.50331014e-001,
          3.06668013e-001, 3.59674007e-001, 3.21770012e-001,
          3.28361988e-001, 3.26012999e-001, 3.75052989e-001,
          3.31835002e-001, 3.27812999e-001, 3.27459991e-001,
          1.23135999e-001, 5.90360016e-002, 0., 1.35885999e-001,
          1.30441993e-001, 1.29567996e-001, 1.29567996e-001,
          1.40933007e-001, 3.18686008e-001, 2.87972987e-001,
          2.42953002e-001, 1.77710995e-001, 2.06876993e-001,
          2.58736014e-001, 1.61458999e-001, 2.21239001e-001,
          2.55026996e-001, 2.77956009e-001, 2.28529006e-001,
          1.85490996e-001, 3.70689988e-001, 2.92488009e-001,
          2.52674013e-001, 2.64210999e-001, 2.50331014e-001,
          3.06668013e-001, 3.59674007e-001, 3.21770012e-001,
          3.28361988e-001, 3.26012999e-001, 3.75052989e-001,
          3.31835002e-001, 3.27812999e-001, 3.27459991e-001,
          3.28361988e-001, 3.26012999e-001, 3.75052989e-001,
          3.31835002e-001, 3.27812999e-001, 3.27459991e-001,
          5.78289986e-001, 7.39350975e-001, 5.24380982e-001,
          7.74281025e-001, 4.75374013e-001, 7.85924017e-001,
          4.36167985e-001, 7.80103028e-001, 4.01861995e-001,
          7.68459022e-001, 3.52854997e-001, 7.39350975e-001,
          3.28350991e-001, 6.92777991e-001, 4.11664009e-001,
          6.81134999e-001, 4.41069007e-001, 6.92777991e-001,
          4.80275005e-001, 6.92777991e-001, 5.58686972e-001,
          7.33529985e-001, 4.80275005e-001, 6.98599994e-001,
          4.45968986e-001, 6.92777991e-001, 4.11664009e-001,
          6.86955988e-001 ]
      - [ 5.08186996e-001, 4.96641010e-001, 4.41641986e-001,
          3.83231997e-001, 3.29218000e-001, 3.28233004e-001,
          3.92791003e-001, 4.67166990e-001, 5.19172013e-001,
          5.31857014e-001, 0., 1.27309993e-001, 9.37108994e-002,
          9.03955027e-002, 9.70856026e-002, 1.31953001e-001,
          3.94122988e-001, 3.65141004e-001, 3.30152005e-001,
          2.71712989e-001, 2.97771007e-001, 3.39915007e-001,
          2.81827986e-001, 3.40766996e-001, 3.78852010e-001,
          4.03207988e-001, 3.51628989e-001, 3.11015010e-001,
          3.23071986e-001, 2.39776000e-001, 1.88373998e-001,
          1.97810993e-001, 1.91615999e-001, 2.45544001e-001,
          3.26476991e-001, 3.24398011e-001, 3.16137999e-001,
          3.16383988e-001, 3.16137999e-001, 3.20053995e-001,
          3.03779989e-001, 2.43114993e-001, 2.48587996e-001,
          2.44322002e-001, 3.09982985e-001, 2.44322002e-001,
          2.42937997e-001, 2.43114993e-001, 1.40097007e-001,
          1.77515000e-002, 1.98067993e-001, -1.77515000e-002,
          2.70530999e-001, 0., 3.33332986e-001, 4.14200984e-002,
          3.91303986e-001, 9.46746022e-002, 5.41063011e-001,
          1.47928998e-001, 6.08695984e-001, 1.12425998e-001,
          6.81159019e-001, 1.06509000e-001, 7.43960977e-001,
          1.36095002e-001, 7.92271018e-001, 1.95265993e-001,
          3.86473000e-001, 5.56213021e-001, 2.94685990e-001,
          5.56213021e-001, 3.28501999e-001, 5.97633004e-001,
          3.76812011e-001, 6.33135974e-001, 4.20289993e-001,
          6.27219021e-001, 4.68598992e-001, 6.21302009e-001,
          1.93237007e-001, 1.36095002e-001, 2.41546005e-001,
          1.24260001e-001, 2.94685990e-001, 1.42012000e-001,
          3.33332986e-001, 2.01183006e-001, 2.80193001e-001,
          2.01183006e-001, 2.31884003e-001, 1.83431998e-001,
          5.50724983e-001, 2.60354996e-001, 5.99034011e-001,
          2.24851996e-001, 6.47342980e-001, 2.30768993e-001,
          6.81159019e-001, 2.72188991e-001, 6.37681007e-001,
          2.95857996e-001, 5.89371979e-001, 2.84024000e-001,
          2.07728997e-001, 6.86390996e-001, 2.65700012e-001,
          6.98225021e-001, 3.18841010e-001, 7.10058987e-001,
          3.62318993e-001, 7.39645004e-001, 4.05797005e-001,
          7.33727992e-001, 4.58936989e-001, 7.63314009e-001,
          5.21739006e-001, 7.75147974e-001, 4.39613998e-001,
          8.10651004e-001, 3.76812011e-001, 8.28401983e-001,
          3.33332986e-001, 8.22484970e-001, 2.89855003e-001,
          7.98816979e-001, 2.46377006e-001, 7.45562017e-001,
          2.31884003e-001, 6.98225021e-001, 3.14009994e-001,
          7.57395983e-001, 3.57488006e-001, 7.86982000e-001,
          3.96135002e-001, 7.86982000e-001, 5.02415001e-001,
          7.75147974e-001, 3.86473000e-001, 7.45562017e-001,
          3.47826004e-001, 7.39645004e-001, 3.04347992e-001,
          7.15976000e-001 ]
      - [ 5.32786012e-001, 5.38529992e-001, 4.93952990e-001,
          4.33346003e-001, 3.67583007e-001, 3.53653014e-001,
          3.99571002e-001, 4.66564000e-001, 5.20521998e-001,
          5.24286985e-001, 0., 1.12268001e-001, 9.87420976e-002,
          1.02907002e-001, 1.01258002e-001, 1.16355002e-001,
          3.91342998e-001, 3.75905991e-001, 3.45587999e-001,
          2.95255005e-001, 3.11830014e-001, 3.45126987e-001,
          2.95255005e-001, 3.40682000e-001, 3.66930008e-001,
          3.90895009e-001, 3.40885997e-001, 3.09964001e-001,
          2.91274995e-001, 2.41584003e-001, 2.21670002e-001,
          2.34450996e-001, 2.26377994e-001, 2.52175987e-001,
          3.03620994e-001, 3.16956013e-001, 3.16868007e-001,
          3.14476997e-001, 3.06932986e-001, 3.02152008e-001,
          2.74607003e-001, 2.50660002e-001, 2.57315010e-001,
          2.54581004e-001, 2.92160004e-001, 2.60230988e-001,
          2.63031006e-001, 2.49750003e-001, 7.86473006e-002,
          1.04791000e-001, 4.62428004e-001, 4.55617011e-001,
          4.24248993e-001, 3.58985007e-001, 3.70595992e-001,
          4.03564006e-001, 3.38393986e-001, 3.93678010e-001,
          4.17093009e-001, 4.09278989e-001, 3.61786991e-001,
          3.39491993e-001, 2.21122995e-001, 1.86423004e-001,
          1.68055996e-001, 1.85014993e-001, 1.78562999e-001,
          2.19411999e-001, 2.09916994e-001, 2.13835999e-001,
          2.32582003e-001, 2.30970994e-001, 2.47740000e-001,
          1.89348996e-001, 1.87459007e-001, 1.79636002e-001,
          2.26713002e-001, 1.13356002e-001, 0., 9.17873979e-002,
          7.12478980e-002, 7.75275007e-002, 7.86473006e-002,
          1.04791000e-001, 4.62428004e-001, 4.55617011e-001,
          4.24248993e-001, 3.58985007e-001, 3.70595992e-001,
          4.03564006e-001, 3.38393986e-001, 3.93678010e-001,
          4.17093009e-001, 4.09278989e-001, 3.61786991e-001,
          3.39491993e-001, 2.21122995e-001, 1.86423004e-001,
          1.68055996e-001, 1.85014993e-001, 1.78562999e-001,
          2.19411999e-001, 2.09916994e-001, 2.13835999e-001,
          2.32582003e-001, 2.30970994e-001, 2.47740000e-001,
          1.89348996e-001, 1.87459007e-001, 1.79636002e-001,
          2.32582003e-001, 2.30970994e-001, 2.47740000e-001,
          1.89348996e-001, 1.87459007e-001, 1.79636002e-001,
          5.21739006e-001, 7.75147974e-001, 4.39613998e-001,
          8.10651004e-001, 3.76812011e-001, 8.28401983e-001,
          3.33332986e-001, 8.22484970e-001, 2.89855003e-001,
          7.98816979e-001, 2.46377006e-001, 7.45562017e-001,
          2.31884003e-001, 6.98225021e-001, 3.14009994e-001,
          7.57395983e-001, 3.57488006e-001, 7.86982000e-001,
          3.96135002e-001, 7.86982000e-001, 5.02415001e-001,
          7.75147974e-001, 3.86473000e-001, 7.45562017e-001,
          3.47826004e-001, 7.39645004e-001, 3.04347992e-001,
          7.15976000e-001 ]
      - [ 4.90915000e-001, 4.82358992e-001, 4.44844007e-001,
          3.87560010e-001, 3.27015996e-001, 3.12541991e-001,
          3.76271993e-001, 4.23458993e-001, 4.62053001e-001,
          4.65999007e-001, 0., 1.49706006e-001, 1.36778995e-001,
          1.33111998e-001, 1.33451998e-001, 1.43575996e-001,
          3.55480999e-001, 3.29355985e-001, 2.90136993e-001,
          2.23392993e-001, 2.46028006e-001, 2.89465010e-001,
          2.07846001e-001, 2.76612014e-001, 3.14530998e-001,
          3.32405001e-001, 2.73826987e-001, 2.31196001e-001,
          3.48076999e-001, 2.64757007e-001, 2.13146999e-001,
          2.19980001e-001, 2.12148994e-001, 2.62816995e-001,
          3.38474989e-001, 3.62756997e-001, 3.67372990e-001,
          3.70397985e-001, 3.67372990e-001, 3.68301004e-001,
          3.34019989e-001, 2.75703013e-001, 2.77797997e-001,
          2.74931997e-001, 3.24533999e-001, 2.98566997e-001,
          3.00947994e-001, 2.98566997e-001, 8.99095014e-002,
          6.30078018e-002, 1.59839004e-001, 5.72797982e-003,
          2.49749005e-001, 5.72797982e-003, 3.34663004e-001,
          3.43679003e-002, 4.19577986e-001, 7.44637027e-002,
          5.44452012e-001, 7.44637027e-002, 6.34361029e-001,
          4.00958993e-002, 7.24270999e-001, 5.72797982e-003,
          8.14180017e-001, 1.14559997e-002, 8.84109974e-001,
          7.44637027e-002, 4.74521995e-001, 3.83774996e-001,
          3.69628012e-001, 4.46781993e-001, 4.19577986e-001,
          4.63966012e-001, 4.69527006e-001, 4.69693989e-001,
          5.24471998e-001, 4.63966012e-001, 5.74422002e-001,
          4.46781993e-001, 1.84814006e-001, 1.54654995e-001,
          2.44754001e-001, 1.37471005e-001, 2.99697995e-001,
          1.37471005e-001, 3.49647999e-001, 1.66111007e-001,
          2.94703007e-001, 1.71838999e-001, 2.39758998e-001,
          1.77567005e-001, 6.09386027e-001, 1.66111007e-001,
          6.64331019e-001, 1.37471005e-001, 7.19276011e-001,
          1.37471005e-001, 7.74219990e-001, 1.54654995e-001,
          7.19276011e-001, 1.77567005e-001, 6.64331019e-001,
          1.77567005e-001, 3.19678009e-001, 6.52989984e-001,
          3.74623001e-001, 5.95709980e-001, 4.34561998e-001,
          5.72798014e-001, 4.69527006e-001, 5.84254026e-001,
          5.09486973e-001, 5.72798014e-001, 5.64432025e-001,
          5.95709980e-001, 6.19376004e-001, 6.47261977e-001,
          5.64432025e-001, 7.04541028e-001, 5.09486973e-001,
          7.33181000e-001, 4.69527006e-001, 7.38909006e-001,
          4.29567009e-001, 7.33181000e-001, 3.74623001e-001,
          7.10268974e-001, 3.44653010e-001, 6.47261977e-001,
          4.29567009e-001, 6.35806024e-001, 4.69527006e-001,
          6.41533971e-001, 5.09486973e-001, 6.35806024e-001,
          5.94401002e-001, 6.47261977e-001, 5.09486973e-001,
          6.47261977e-001, 4.69527006e-001, 6.58717990e-001,
          4.34561998e-001, 6.52989984e-001 ]
      - [ 5.34918010e-001, 5.38402021e-001, 5.04983008e-001,
          4.35927987e-001, 3.51255000e-001, 3.46134990e-001,
          4.09134001e-001, 4.61645991e-001, 4.81265992e-001,
          4.56586003e-001, 0., 1.37885004e-001, 1.09949999e-001,
          9.93463993e-002, 9.74180028e-002, 1.08750001e-001,
          3.97215009e-001, 3.87822986e-001, 3.50659013e-001,
          2.77009010e-001, 2.99311996e-001, 3.45737994e-001,
          2.45534003e-001, 3.10314000e-001, 3.40160996e-001,
          3.41376007e-001, 2.95814991e-001, 2.59815991e-001,
          3.23080987e-001, 2.54278004e-001, 2.05965996e-001,
          2.13483006e-001, 1.99659005e-001, 2.39311993e-001,
          2.97381997e-001, 3.00085992e-001, 3.02967995e-001,
          3.07271987e-001, 3.12855989e-001, 3.16706002e-001,
          3.07336003e-001, 2.50102997e-001, 2.52952993e-001,
          2.43872002e-001, 2.82586992e-001, 2.43872002e-001,
          2.52952993e-001, 2.50102997e-001, 9.44757983e-002,
          1.18110001e-001, 3.69360000e-001, 3.36836994e-001,
          3.02040994e-001, 2.50939995e-001, 2.77940989e-001,
          3.12467009e-001, 2.56058007e-001, 3.10954005e-001,
          3.47231001e-001, 3.77245992e-001, 3.20039988e-001,
          2.80265987e-001, 3.10568988e-001, 2.34300002e-001,
          1.93201005e-001, 2.00541005e-001, 1.92230001e-001,
          2.30217993e-001, 2.93754011e-001, 2.56009012e-001,
          2.57806987e-001, 2.54444987e-001, 2.89476007e-001,
          2.65796989e-001, 2.74987996e-001, 2.72163987e-001,
          1.66186005e-001, 8.59197006e-002, 0., 1.22363001e-001,
          9.72092003e-002, 8.60646963e-002, 9.44757983e-002,
          1.18110001e-001, 3.69360000e-001, 3.36836994e-001,
          3.02040994e-001, 2.50939995e-001, 2.77940989e-001,
          3.12467009e-001, 2.56058007e-001, 3.10954005e-001,
          3.47231001e-001, 3.77245992e-001, 3.20039988e-001,
          2.80265987e-001, 3.10568988e-001, 2.34300002e-001,
          1.93201005e-001, 2.00541005e-001, 1.92230001e-001,
          2.30217993e-001, 2.93754011e-001, 2.56009012e-001,
          2.57806987e-001, 2.54444987e-001, 2.89476007e-001,
          2.65796989e-001, 2.74987996e-001, 2.72163987e-001,
          2.57806987e-001, 2.54444987e-001, 2.89476007e-001,
          2.65796989e-001, 2.74987996e-001, 2.72163987e-001,
          6.19376004e-001, 6.47261977e-001, 5.64432025e-001,
          7.04541028e-001, 5.09486973e-001, 7.33181000e-001,
          4.69527006e-001, 7.38909006e-001, 4.29567009e-001,
          7.33181000e-001, 3.74623001e-001, 7.10268974e-001,
          3.44653010e-001, 6.47261977e-001, 4.29567009e-001,
          6.35806024e-001, 4.69527006e-001, 6.41533971e-001,
          5.09486973e-001, 6.35806024e-001, 5.94401002e-001,
          6.47261977e-001, 5.09486973e-001, 6.47261977e-001,
          4.69527006e-001, 6.58717990e-001, 4.34561998e-001,
          6.52989984e-001 ]
      - [ 5.45014977e-001, 5.42122006e-001, 4.81323004e-001,
          4.03272986e-001, 3.38133991e-001, 3.28929007e-001,
          3.87968987e-001, 4.34188992e-001, 4.70137000e-001,
          4.55431014e-001, 0., 1.25210002e-001, 1.06115997e-001,
          1.00327998e-001, 9.90348980e-002, 1.09141000e-001,
          4.07831997e-001, 3.88909012e-001, 3.50124002e-001,
          2.76975006e-001, 3.01326990e-001, 3.45477998e-001,
          2.35586002e-001, 3.02661002e-001, 3.31005991e-001,
          3.36438000e-001, 2.86541998e-001, 2.48486996e-001,
          3.14327985e-001, 2.53435999e-001, 2.12218001e-001,
          2.18652993e-001, 2.13165998e-001, 2.52570003e-001,
          2.86540985e-001, 3.08402985e-001, 3.21543008e-001,
          3.23478013e-001, 3.21348011e-001, 3.21918011e-001,
          3.03707004e-001, 2.60421008e-001, 2.64099985e-001,
          2.62915999e-001, 2.79233009e-001, 2.58240998e-001,
          2.60046989e-001, 2.62331009e-001, 7.40363970e-002,
          8.11642036e-002, 1.32208005e-001, 2.31897999e-002,
          2.22109005e-001, 1.15948999e-002, 3.12011003e-001,
          2.31897999e-002, 4.01912004e-001, 5.79744987e-002,
          5.02390027e-001, 6.95692971e-002, 5.92290998e-001,
          2.31897999e-002, 6.87480986e-001, 5.79744019e-003,
          7.82670975e-001, 1.73923001e-002, 8.61994982e-001,
          6.95692971e-002, 4.44218010e-001, 3.47847015e-001,
          3.70182008e-001, 4.29010987e-001, 4.07200009e-001,
          4.40605998e-001, 4.49506998e-001, 4.46402997e-001,
          4.91813004e-001, 4.34807986e-001, 5.34120023e-001,
          4.23213005e-001, 1.74513996e-001, 1.39138997e-001,
          2.27397993e-001, 1.10151000e-001, 2.85569012e-001,
          1.10151000e-001, 3.38452011e-001, 1.44935995e-001,
          2.85569012e-001, 1.56531006e-001, 2.27397993e-001,
          1.62328005e-001, 5.87002993e-001, 1.39138997e-001,
          6.39886022e-001, 1.04354002e-001, 6.98058009e-001,
          1.10151000e-001, 7.56228983e-001, 1.33340999e-001,
          7.03346014e-001, 1.50734007e-001, 6.39886022e-001,
          1.50734007e-001, 2.80281007e-001, 6.14529014e-001,
          3.43739986e-001, 5.79744995e-001, 4.07200009e-001,
          5.56554973e-001, 4.49506998e-001, 5.68149984e-001,
          4.91813004e-001, 5.62352002e-001, 5.55272996e-001,
          5.79744995e-001, 6.29308999e-001, 6.08731985e-001,
          5.55272996e-001, 6.72504008e-001, 4.91813004e-001,
          6.95693016e-001, 4.44218010e-001, 6.95693016e-001,
          4.01912004e-001, 6.95693016e-001, 3.43739986e-001,
          6.72504008e-001, 3.06721985e-001, 6.14529014e-001,
          4.07200009e-001, 6.02934003e-001, 4.49506998e-001,
          6.08731985e-001, 4.91813004e-001, 6.02934003e-001,
          5.97580016e-001, 6.08731985e-001, 4.86524999e-001,
          6.20326996e-001, 4.49506998e-001, 6.26124024e-001,
          4.01912004e-001, 6.20326996e-001 ]
      - [ 5.29806972e-001, 5.15590012e-001, 4.61315006e-001,
          4.03237998e-001, 3.37164998e-001, 3.29797000e-001,
          3.91842008e-001, 4.51624990e-001, 5.13768971e-001,
          5.31651020e-001, 0., 1.22942999e-001, 1.04975998e-001,
          1.00052997e-001, 1.06899001e-001, 1.22942999e-001,
          4.05914009e-001, 3.85823995e-001, 3.41434002e-001,
          2.72415012e-001, 2.99048007e-001, 3.46390009e-001,
          2.68251985e-001, 3.42914999e-001, 3.79844010e-001,
          3.98972005e-001, 3.39717001e-001, 2.93283999e-001,
          3.07902992e-001, 2.36794993e-001, 1.95600003e-001,
          2.09634006e-001, 2.01260000e-001, 2.43066996e-001,
          3.11821997e-001, 3.16816002e-001, 3.18161994e-001,
          3.19216013e-001, 3.22872013e-001, 3.21262985e-001,
          2.89494991e-001, 2.37574995e-001, 2.42984995e-001,
          2.38431007e-001, 2.93581992e-001, 2.43098006e-001,
          2.47749999e-001, 2.43098006e-001, 9.91341993e-002,
          1.17312998e-001, 3.41026992e-001, 3.21729988e-001,
          2.85777003e-001, 2.28820994e-001, 2.48538002e-001,
          2.85355985e-001, 2.52876014e-001, 3.12368989e-001,
          3.47754985e-001, 3.78632993e-001, 3.25576991e-001,
          2.77740002e-001, 3.13041985e-001, 2.52730012e-001,
          2.11965993e-001, 2.20366001e-001, 2.19722003e-001,
          2.57117987e-001, 3.00040990e-001, 2.57759988e-001,
          2.60939002e-001, 2.59490013e-001, 3.02623004e-001,
          2.75745004e-001, 2.78328001e-001, 2.75745004e-001,
          1.56619996e-001, 8.13362971e-002, 0., 1.09858997e-001,
          9.98729020e-002, 9.86983031e-002, 9.91341993e-002,
          1.17312998e-001, 3.41026992e-001, 3.21729988e-001,
          2.85777003e-001, 2.28820994e-001, 2.48538002e-001,
          2.85355985e-001, 2.52876014e-001, 3.12368989e-001,
          3.47754985e-001, 3.78632993e-001, 3.25576991e-001,
          2.77740002e-001, 3.13041985e-001, 2.52730012e-001,
          2.11965993e-001, 2.20366001e-001, 2.19722003e-001,
          2.57117987e-001, 3.00040990e-001, 2.57759988e-001,
          2.60939002e-001, 2.59490013e-001, 3.02623004e-001,
          2.75745004e-001, 2.78328001e-001, 2.75745004e-001,
          2.60939002e-001, 2.59490013e-001, 3.02623004e-001,
          2.75745004e-001, 2.78328001e-001, 2.75745004e-001,
          6.29308999e-001, 6.08731985e-001, 5.55272996e-001,
          6.72504008e-001, 4.91813004e-001, 6.95693016e-001,
          4.44218010e-001, 6.95693016e-001, 4.01912004e-001,
          6.95693016e-001, 3.43739986e-001, 6.72504008e-001,
          3.06721985e-001, 6.14529014e-001, 4.07200009e-001,
          6.02934003e-001, 4.49506998e-001, 6.08731985e-001,
          4.91813004e-001, 6.02934003e-001, 5.97580016e-001,
          6.08731985e-001, 4.86524999e-001, 6.20326996e-001,
          4.49506998e-001, 6.26124024e-001, 4.01912004e-001,
          6.20326996e-001 ]
      - [ 4.94746000e-001, 4.97646004e-001, 4.47876006e-001,
          3.78405988e-001, 3.17286015e-001, 3.16731989e-001,
          3.87032986e-001, 4.56070989e-001, 5.09256005e-001,
          5.26166022e-001, 0., 1.17903002e-001, 1.09987997e-001,
          1.12076998e-001, 1.13229997e-001, 1.29776001e-001,
          3.72034997e-001, 3.55946004e-001, 3.14496994e-001,
          2.39969999e-001, 2.59950012e-001, 3.09745014e-001,
          2.51877010e-001, 3.34134012e-001, 3.76448989e-001,
          4.00395006e-001, 3.34500998e-001, 2.80876011e-001,
          3.25414002e-001, 2.82014996e-001, 2.53955007e-001,
          2.68985987e-001, 2.59052008e-001, 2.93415010e-001,
          3.48641008e-001, 3.56923997e-001, 3.60684991e-001,
          3.58673006e-001, 3.57241988e-001, 3.47099990e-001,
          3.13520998e-001, 2.93904990e-001, 3.00397992e-001,
          2.98925996e-001, 3.33225995e-001, 3.07244986e-001,
          3.09363008e-001, 3.07803988e-001, 1.24245003e-001,
          1.66262999e-001, 1.81189999e-001, 1.24697000e-001,
          2.48488992e-001, 1.36573002e-001, 3.15789014e-001,
          1.54386997e-001, 3.83087993e-001, 1.95952997e-001,
          5.22862971e-001, 2.01891005e-001, 5.84985018e-001,
          1.72200993e-001, 6.52284980e-001, 1.48449004e-001,
          7.19583988e-001, 1.48449004e-001, 7.81705976e-001,
          1.78139001e-001, 4.55563992e-001, 5.64105988e-001,
          3.83087993e-001, 6.23485982e-001, 4.19326007e-001,
          6.29423976e-001, 4.60741013e-001, 6.35362029e-001,
          4.96978998e-001, 6.23485982e-001, 5.33217013e-001,
          6.17547989e-001, 2.12250993e-001, 2.85021991e-001,
          2.58843005e-001, 2.73146003e-001, 3.10611993e-001,
          2.73146003e-001, 3.52026999e-001, 3.14711988e-001,
          3.05435002e-001, 3.20650011e-001, 2.53666013e-001,
          3.14711988e-001, 5.64278007e-001, 3.20650011e-001,
          6.05692983e-001, 2.85021991e-001, 6.57460988e-001,
          2.85021991e-001, 7.04052985e-001, 3.02836001e-001,
          6.62638009e-001, 3.26588005e-001, 6.10870004e-001,
          3.32525998e-001, 3.20964992e-001, 7.71934986e-001,
          3.72734010e-001, 7.36307025e-001, 4.24502999e-001,
          7.06616998e-001, 4.60741013e-001, 7.12554991e-001,
          5.02156019e-001, 7.00679004e-001, 5.59100986e-001,
          7.24430978e-001, 6.16046011e-001, 7.65996993e-001,
          5.69455028e-001, 7.89749026e-001, 5.12508988e-001,
          8.01625013e-001, 4.71094012e-001, 8.07563007e-001,
          4.34855998e-001, 8.13501000e-001, 3.72734010e-001,
          8.07563007e-001, 3.41672987e-001, 7.71934986e-001,
          4.29679006e-001, 7.42245018e-001, 4.65918005e-001,
          7.42245018e-001, 5.02156019e-001, 7.36307025e-001,
          5.90161979e-001, 7.60058999e-001, 5.07332027e-001,
          7.42245018e-001, 4.71094012e-001, 7.48183012e-001,
          4.34855998e-001, 7.48183012e-001 ]
      - [ 5.01568019e-001, 4.93898988e-001, 4.46235001e-001,
          3.85571003e-001, 3.21945012e-001, 3.17898005e-001,
          3.82602990e-001, 4.39604014e-001, 4.78511006e-001,
          4.83776003e-001, 0., 1.30171999e-001, 1.21712998e-001,
          1.17262997e-001, 1.15947999e-001, 1.25228003e-001,
          3.60459000e-001, 3.34710985e-001, 2.90412009e-001,
          2.20896006e-001, 2.48317003e-001, 2.99977988e-001,
          2.04395995e-001, 2.75862992e-001, 3.15512985e-001,
          3.29468012e-001, 2.79166013e-001, 2.28744999e-001,
          3.49294990e-001, 2.74931014e-001, 2.29751006e-001,
          2.39595994e-001, 2.34525993e-001, 2.82240987e-001,
          3.54212999e-001, 3.45333993e-001, 3.45840007e-001,
          3.46718997e-001, 3.41073990e-001, 3.44595999e-001,
          3.32729995e-001, 2.79496998e-001, 2.80483991e-001,
          2.80178010e-001, 3.41800988e-001, 2.79940009e-001,
          2.80483991e-001, 2.80346006e-001, 7.23956972e-002,
          9.42654982e-002, 3.70254993e-001, 3.51222008e-001,
          3.25067014e-001, 2.70031989e-001, 2.86024004e-001,
          3.20874006e-001, 2.66627014e-001, 3.16902012e-001,
          3.44457000e-001, 3.60567987e-001, 3.15111011e-001,
          2.78836012e-001, 2.47606993e-001, 1.91085994e-001,
          1.45857006e-001, 1.48539007e-001, 1.44301996e-001,
          1.90851003e-001, 2.36989006e-001, 1.80010006e-001,
          1.78439006e-001, 1.78393006e-001, 2.37727001e-001,
          1.85508996e-001, 1.84731007e-001, 1.85238004e-001,
          1.54386997e-001, 7.71934986e-002, 0., 9.36947986e-002,
          7.46966004e-002, 7.14434013e-002, 7.23956972e-002,
          9.42654982e-002, 3.70254993e-001, 3.51222008e-001,
          3.25067014e-001, 2.70031989e-001, 2.86024004e-001,
          3.20874006e-001, 2.66627014e-001, 3.16902012e-001,
          3.44457000e-001, 3.60567987e-001, 3.15111011e-001,
          2.78836012e-001, 2.47606993e-001, 1.91085994e-001,
          1.45857006e-001, 1.48539007e-001, 1.44301996e-001,
          1.90851003e-001, 2.36989006e-001, 1.80010006e-001,
          1.78439006e-001, 1.78393006e-001, 2.37727001e-001,
          1.85508996e-001, 1.84731007e-001, 1.85238004e-001,
          1.78439006e-001, 1.78393006e-001, 2.37727001e-001,
          1.85508996e-001, 1.84731007e-001, 1.85238004e-001,
          6.16046011e-001, 7.65996993e-001, 5.69455028e-001,
          7.89749026e-001, 5.12508988e-001, 8.01625013e-001,
          4.71094012e-001, 8.07563007e-001, 4.34855998e-001,
          8.13501000e-001, 3.72734010e-001, 8.07563007e-001,
          3.41672987e-001, 7.71934986e-001, 4.29679006e-001,
          7.42245018e-001, 4.65918005e-001, 7.42245018e-001,
          5.02156019e-001, 7.36307025e-001, 5.90161979e-001,
          7.60058999e-001, 5.07332027e-001, 7.42245018e-001,
          4.71094012e-001, 7.48183012e-001, 4.34855998e-001,
          7.48183012e-001 ]
      - [ 5.76252997e-001, 5.89200020e-001, 5.40579975e-001,
          4.79413986e-001, 4.14829999e-001, 3.68945986e-001,
          4.12265986e-001, 4.60115999e-001, 4.80839998e-001,
          4.79905993e-001, 0., 9.77111980e-002, 8.54993984e-002,
          9.03804004e-002, 8.80206972e-002, 1.03292003e-001,
          4.10708994e-001, 3.86301011e-001, 3.50569993e-001,
          2.94342011e-001, 3.03189009e-001, 3.45156997e-001,
          2.46726006e-001, 2.89584011e-001, 3.11224997e-001,
          3.25100005e-001, 2.72036999e-001, 2.45552003e-001,
          2.37757996e-001, 1.90824002e-001, 1.74844995e-001,
          1.90660000e-001, 1.90228000e-001, 2.23912001e-001,
          2.55982012e-001, 2.89566994e-001, 2.89577007e-001,
          2.80101001e-001, 2.69852012e-001, 2.53255010e-001,
          2.29405001e-001, 2.21781999e-001, 2.32976004e-001,
          2.31718004e-001, 2.46719003e-001, 2.21406996e-001,
          2.16447994e-001, 2.05433995e-001, 1.01458997e-001,
          4.72452007e-002, 1.69098005e-001, -2.09977999e-002,
          2.60895014e-001, -3.14968005e-002, 3.57522011e-001, 0.,
          4.44487005e-001, 4.72452007e-002, 5.60440004e-001,
          5.24946004e-002, 6.57068014e-001, 2.09977999e-002,
          7.48863995e-001, 5.24946023e-003, 8.35829020e-001,
          2.62473002e-002, 8.98636997e-001, 8.92407969e-002,
          5.02463996e-001, 4.09458011e-001, 4.01005000e-001,
          4.56703007e-001, 4.49319005e-001, 4.77701008e-001,
          5.02463996e-001, 4.98699009e-001, 5.55608988e-001,
          4.82950002e-001, 6.03923023e-001, 4.67202008e-001,
          2.17411995e-001, 1.52234003e-001, 2.70556986e-001,
          1.25986993e-001, 3.28534007e-001, 1.20738000e-001,
          3.81678998e-001, 1.52234003e-001, 3.28534007e-001,
          1.62733003e-001, 2.70556986e-001, 1.67982996e-001,
          6.28080010e-001, 1.62733003e-001, 6.81225002e-001,
          1.36485994e-001, 7.44032979e-001, 1.41735002e-001,
          7.97177970e-001, 1.67982996e-001, 7.44032979e-001,
          1.83731005e-001, 6.86056018e-001, 1.78481996e-001,
          3.09208989e-001, 6.19436026e-001, 3.81678998e-001,
          6.03688002e-001, 4.49319005e-001, 5.98438978e-001,
          4.97631997e-001, 6.19436026e-001, 5.41114986e-001,
          6.08937979e-001, 6.13586009e-001, 6.24686003e-001,
          6.86056018e-001, 6.35185003e-001, 6.13586009e-001,
          6.92928970e-001, 5.36284029e-001, 7.19175994e-001,
          4.87969995e-001, 7.19175994e-001, 4.39655989e-001,
          7.13926971e-001, 3.72016996e-001, 6.82430029e-001,
          3.33364993e-001, 6.24686003e-001, 4.49319005e-001,
          6.50933027e-001, 4.97631997e-001, 6.61432028e-001,
          5.41114986e-001, 6.56183004e-001, 6.61899984e-001,
          6.40434027e-001, 5.36284029e-001, 6.45684004e-001,
          4.92801011e-001, 6.50933027e-001, 4.44487005e-001,
          6.40434027e-001 ]
      - [ 5.22794008e-001, 5.12715995e-001, 4.64570999e-001,
          4.06332999e-001, 3.40364009e-001, 3.33382010e-001,
          3.80414009e-001, 4.32642013e-001, 4.60444987e-001,
          4.45032001e-001, 0., 1.32301003e-001, 1.03900999e-001,
          9.65825990e-002, 9.59493965e-002, 1.10454999e-001,
          3.95953000e-001, 3.79518002e-001, 3.37255001e-001,
          2.68781990e-001, 2.94643998e-001, 3.42126995e-001,
          2.31082007e-001, 2.95978993e-001, 3.30006003e-001,
          3.34383011e-001, 2.88969010e-001, 2.48454005e-001,
          3.28364998e-001, 2.60055006e-001, 2.15143993e-001,
          2.19831005e-001, 2.01841995e-001, 2.37440005e-001,
          2.83892989e-001, 3.19207996e-001, 3.32114995e-001,
          3.35667014e-001, 3.38663995e-001, 3.33290994e-001,
          3.10658008e-001, 2.50689000e-001, 2.52593011e-001,
          2.39710003e-001, 2.73954988e-001, 2.65082985e-001,
          2.77577996e-001, 2.77684987e-001, 9.06948969e-002,
          1.16740003e-001, 3.83951008e-001, 3.66245985e-001,
          3.37062001e-001, 2.84170985e-001, 3.01869005e-001,
          3.34800005e-001, 2.76861995e-001, 3.26296002e-001,
          3.60597998e-001, 3.81007999e-001, 3.30617994e-001,
          2.95053005e-001, 2.85373986e-001, 2.28723004e-001,
          1.96310997e-001, 2.10033998e-001, 2.03189999e-001,
          2.42220998e-001, 2.73710012e-001, 2.47253999e-001,
          2.52020001e-001, 2.49733999e-001, 2.80660003e-001,
          2.38634005e-001, 2.41668001e-001, 2.38141000e-001,
          1.88980997e-001, 9.44902971e-002, 0., 1.11919999e-001,
          8.64958018e-002, 8.92407969e-002, 9.06948969e-002,
          1.16740003e-001, 3.83951008e-001, 3.66245985e-001,
          3.37062001e-001, 2.84170985e-001, 3.01869005e-001,
          3.34800005e-001, 2.76861995e-001, 3.26296002e-001,
          3.60597998e-001, 3.81007999e-001, 3.30617994e-001,
          2.95053005e-001, 2.85373986e-001, 2.28723004e-001,
          1.96310997e-001, 2.10033998e-001, 2.03189999e-001,
          2.42220998e-001, 2.73710012e-001, 2.47253999e-001,
          2.52020001e-001, 2.49733999e-001, 2.80660003e-001,
          2.38634005e-001, 2.41668001e-001, 2.38141000e-001,
          2.52020001e-001, 2.49733999e-001, 2.80660003e-001,
          2.38634005e-001, 2.41668001e-001, 2.38141000e-001,
          6.86056018e-001, 6.35185003e-001, 6.13586009e-001,
          6.92928970e-001, 5.36284029e-001, 7.19175994e-001,
          4.87969995e-001, 7.19175994e-001, 4.39655989e-001,
          7.13926971e-001, 3.72016996e-001, 6.82430029e-001,
          3.33364993e-001, 6.24686003e-001, 4.49319005e-001,
          6.50933027e-001, 4.97631997e-001, 6.61432028e-001,
          5.41114986e-001, 6.56183004e-001, 6.61899984e-001,
          6.40434027e-001, 5.36284029e-001, 6.45684004e-001,
          4.92801011e-001, 6.50933027e-001, 4.44487005e-001,
          6.40434027e-001 ]
      - [ 4.81676996e-001, 4.93521988e-001, 4.60770011e-001,
          4.13924992e-001, 3.45351011e-001, 3.28103989e-001,
          3.64363015e-001, 3.90444010e-001, 4.08250004e-001,
          3.91259998e-001, 0., 9.39673036e-002, 7.27221966e-002,
          7.03283027e-002, 7.97320977e-002, 1.03166997e-001,
          3.38488013e-001, 3.16958994e-001, 2.89871007e-001,
          2.42816001e-001, 2.66086012e-001, 2.96682000e-001,
          2.14642003e-001, 2.49216005e-001, 2.63505995e-001,
          2.75438011e-001, 2.46987000e-001, 2.24448994e-001,
          2.22091004e-001, 1.74199000e-001, 1.37656003e-001,
          1.46054998e-001, 1.48034006e-001, 1.96686000e-001,
          2.59649992e-001, 2.85420001e-001, 2.91263998e-001,
          2.86262989e-001, 2.78665006e-001, 2.55833000e-001,
          2.11884007e-001, 1.82877004e-001, 1.83731005e-001,
          1.88896000e-001, 2.47975007e-001, 2.21407995e-001,
          2.15942994e-001, 2.13043004e-001, 7.93650970e-002,
          7.34463036e-002, 1.53439000e-001, 1.12993997e-002,
          2.53968000e-001, 5.64971985e-003, 3.54496986e-001,
          2.25988999e-002, 4.49734986e-001, 5.64972013e-002,
          5.44974029e-001, 6.21468984e-002, 6.34921014e-001,
          2.25988999e-002, 7.30158985e-001, -1.12993997e-002,
          8.30688000e-001, 0., 9.04761970e-001, 6.21468984e-002,
          4.81481999e-001, 3.84180993e-001, 3.70370001e-001,
          4.46328014e-001, 4.23280001e-001, 4.57626998e-001,
          4.81481999e-001, 4.74575996e-001, 5.44974029e-001,
          4.57626998e-001, 5.97883999e-001, 4.46328014e-001,
          1.85185000e-001, 1.24293998e-001, 2.43386000e-001,
          1.07345000e-001, 3.01586986e-001, 1.07345000e-001,
          3.59788001e-001, 1.41242996e-001, 3.01586986e-001,
          1.46892995e-001, 2.38095000e-001, 1.46892995e-001,
          6.24338984e-001, 1.41242996e-001, 6.87830985e-001,
          1.12994000e-001, 7.46032000e-001, 1.12994000e-001,
          7.98941970e-001, 1.35592997e-001, 7.46032000e-001,
          1.52541995e-001, 6.82539999e-001, 1.46892995e-001,
          2.75132000e-001, 6.32767975e-001, 3.54496986e-001,
          5.87571025e-001, 4.28570986e-001, 5.64971983e-001,
          4.86773014e-001, 5.81920981e-001, 5.44974029e-001,
          5.64971983e-001, 6.19047999e-001, 5.87571025e-001,
          6.93122029e-001, 6.32767975e-001, 6.19047999e-001,
          6.77965999e-001, 5.39682984e-001, 6.94914997e-001,
          4.81481999e-001, 7.00564981e-001, 4.23280001e-001,
          6.94914997e-001, 3.54496986e-001, 6.77965999e-001,
          3.06878000e-001, 6.32767975e-001, 4.28570986e-001,
          6.21469021e-001, 4.81481999e-001, 6.32767975e-001,
          5.39682984e-001, 6.21469021e-001, 6.66666985e-001,
          6.32767975e-001, 5.39682984e-001, 6.21469021e-001,
          4.81481999e-001, 6.27119005e-001, 4.28570986e-001,
          6.21469021e-001 ]
      - [ 4.84966993e-001, 5.03659010e-001, 4.79708999e-001,
          4.21875000e-001, 3.52030009e-001, 3.30006987e-001,
          3.72352988e-001, 3.99580002e-001, 3.97897989e-001,
          3.55455011e-001, 0., 1.51675999e-001, 1.37814999e-001,
          1.31807998e-001, 1.30473003e-001, 1.39953002e-001,
          3.34484011e-001, 3.11773002e-001, 2.70783991e-001,
          2.04046994e-001, 2.30954006e-001, 2.77574003e-001,
          1.35242000e-001, 1.93623006e-001, 2.18457997e-001,
          2.21701995e-001, 1.77827999e-001, 1.46505997e-001,
          4.02974993e-001, 3.14181000e-001, 2.67542005e-001,
          2.76836991e-001, 2.70110011e-001, 3.14440995e-001,
          3.97576988e-001, 3.66899997e-001, 3.56983989e-001,
          3.59219998e-001, 3.63581002e-001, 3.79359990e-001,
          3.85991007e-001, 3.20223004e-001, 3.20423007e-001,
          3.18334013e-001, 3.72166991e-001, 2.99127996e-001,
          3.01266998e-001, 3.06073010e-001, 9.70856026e-002,
          1.31953001e-001, 3.94122988e-001, 3.65141004e-001,
          3.30152005e-001, 2.71712989e-001, 2.97771007e-001,
          3.39915007e-001, 2.81827986e-001, 3.40766996e-001,
          3.78852010e-001, 4.03207988e-001, 3.51628989e-001,
          3.11015010e-001, 3.23071986e-001, 2.39776000e-001,
          1.88373998e-001, 1.97810993e-001, 1.91615999e-001,
          2.45544001e-001, 3.03779989e-001, 2.43114993e-001,
          2.48587996e-001, 2.44322002e-001, 3.09982985e-001,
          2.44322002e-001, 2.42937997e-001, 2.43114993e-001,
          1.75220996e-001, 9.03955027e-002, 0., 1.27309993e-001,
          9.37108994e-002, 9.03955027e-002, 9.70856026e-002,
          1.31953001e-001, 3.94122988e-001, 3.65141004e-001,
          3.30152005e-001, 2.71712989e-001, 2.97771007e-001,
          3.39915007e-001, 2.81827986e-001, 3.40766996e-001,
          3.78852010e-001, 4.03207988e-001, 3.51628989e-001,
          3.11015010e-001, 3.23071986e-001, 2.39776000e-001,
          1.88373998e-001, 1.97810993e-001, 1.91615999e-001,
          2.45544001e-001, 3.03779989e-001, 2.43114993e-001,
          2.48587996e-001, 2.44322002e-001, 3.09982985e-001,
          2.44322002e-001, 2.42937997e-001, 2.43114993e-001,
          2.48587996e-001, 2.44322002e-001, 3.09982985e-001,
          2.44322002e-001, 2.42937997e-001, 2.43114993e-001,
          6.93122029e-001, 6.32767975e-001, 6.19047999e-001,
          6.77965999e-001, 5.39682984e-001, 6.94914997e-001,
          4.81481999e-001, 7.00564981e-001, 4.23280001e-001,
          6.94914997e-001, 3.54496986e-001, 6.77965999e-001,
          3.06878000e-001, 6.32767975e-001, 4.28570986e-001,
          6.21469021e-001, 4.81481999e-001, 6.32767975e-001,
          5.39682984e-001, 6.21469021e-001, 6.66666985e-001,
          6.32767975e-001, 5.39682984e-001, 6.21469021e-001,
          4.81481999e-001, 6.27119005e-001, 4.28570986e-001,
          6.21469021e-001 ]
      - [ 4.86784995e-001, 4.87507999e-001, 4.45241988e-001,
          3.97765011e-001, 3.45946997e-001, 3.62773001e-001,
          4.22722995e-001, 4.80113000e-001, 5.30179024e-001,
          5.42209029e-001, 0., 8.58146027e-002, 7.41600022e-002,
          7.97301009e-002, 9.32174996e-002, 1.21445000e-001,
          3.39859009e-001, 3.23729008e-001, 2.96725005e-001,
          2.60832995e-001, 2.67903000e-001, 2.97533989e-001,
          2.89626002e-001, 3.32271993e-001, 3.64921987e-001,
          3.89964998e-001, 3.43230009e-001, 3.04789990e-001,
          2.73970991e-001, 2.08626002e-001, 1.75200999e-001,
          1.86660007e-001, 1.84844002e-001, 2.26593003e-001,
          3.08578998e-001, 3.03346008e-001, 2.93031991e-001,
          2.89135009e-001, 2.86514014e-001, 2.83006012e-001,
          2.60159999e-001, 2.21239001e-001, 2.28573993e-001,
          2.25364000e-001, 2.90647000e-001, 2.24372000e-001,
          2.23915994e-001, 2.16624007e-001, 1.02790996e-001,
          4.00195010e-002, 1.66422993e-001, -2.28682999e-002,
          2.49634996e-001, -2.28682999e-002, 3.32845986e-001,
          5.71706984e-003, 4.11163002e-001, 5.14536016e-002,
          5.43322980e-001, 6.28878027e-002, 6.31429017e-001,
          4.00195010e-002, 7.24430978e-001, 1.14340996e-002,
          8.17431986e-001, 1.14340996e-002, 8.85959029e-001,
          7.43219033e-002, 4.84584987e-001, 4.11628991e-001,
          3.91584009e-001, 4.74516988e-001, 4.35636997e-001,
          4.97384995e-001, 4.84584987e-001, 5.14536023e-001,
          5.38428009e-001, 4.97384995e-001, 5.82481027e-001,
          4.74516988e-001, 2.05581993e-001, 1.37209997e-001,
          2.54530013e-001, 1.14340998e-001, 3.08371991e-001,
          1.14340998e-001, 3.62215012e-001, 1.42927006e-001,
          3.08371991e-001, 1.54360995e-001, 2.54530013e-001,
          1.54360995e-001, 6.06954992e-001, 1.42927006e-001,
          6.60798013e-001, 1.20058000e-001, 7.14640975e-001,
          1.25775993e-001, 7.68483996e-001, 1.42927006e-001,
          7.14640975e-001, 1.60078004e-001, 6.65692985e-001,
          1.60078004e-001, 3.37740988e-001, 6.63179994e-001,
          3.91584009e-001, 6.34594977e-001, 4.40531999e-001,
          6.28877997e-001, 4.79689986e-001, 6.46028996e-001,
          5.23743987e-001, 6.34594977e-001, 5.77585995e-001,
          6.46028996e-001, 6.36323988e-001, 6.74614012e-001,
          5.77585995e-001, 7.14634001e-001, 5.23743987e-001,
          7.26068020e-001, 4.79689986e-001, 7.26068020e-001,
          4.35636997e-001, 7.14634001e-001, 3.86689007e-001,
          6.97481990e-001, 3.62215012e-001, 6.57463014e-001,
          4.35636997e-001, 6.57463014e-001, 4.79689986e-001,
          6.68896973e-001, 5.23743987e-001, 6.63179994e-001,
          6.11850023e-001, 6.74614012e-001, 5.23743987e-001,
          6.68896973e-001, 4.79689986e-001, 6.74614012e-001,
          4.40531999e-001, 6.57463014e-001 ]
      - [ 5.00102997e-001, 4.94078010e-001, 4.50002998e-001,
          3.85553002e-001, 3.17449003e-001, 3.23740989e-001,
          4.00130987e-001, 4.75044012e-001, 5.33518016e-001,
          5.56294024e-001, 0., 1.18584000e-001, 9.48795006e-002,
          9.91809964e-002, 1.17051996e-001, 1.52729005e-001,
          3.86667013e-001, 3.58249009e-001, 3.12393010e-001,
          2.47020006e-001, 2.82494009e-001, 3.32572997e-001,
          2.76073009e-001, 3.45239997e-001, 3.98113996e-001,
          4.37067986e-001, 3.70283008e-001, 3.15865993e-001,
          3.02455008e-001, 2.26030007e-001, 1.80717006e-001,
          1.97228998e-001, 1.92081004e-001, 2.53275007e-001,
          3.34825993e-001, 3.26940000e-001, 3.15946013e-001,
          3.12896997e-001, 3.05204988e-001, 3.06582987e-001,
          2.80658990e-001, 2.38172993e-001, 2.46536002e-001,
          2.46906996e-001, 3.11520994e-001, 2.45587006e-001,
          2.46126994e-001, 2.38784000e-001, 1.01258002e-001,
          1.16355002e-001, 3.91342998e-001, 3.75905991e-001,
          3.45587999e-001, 2.95255005e-001, 3.11830014e-001,
          3.45126987e-001, 2.95255005e-001, 3.40682000e-001,
          3.66930008e-001, 3.90895009e-001, 3.40885997e-001,
          3.09964001e-001, 2.91274995e-001, 2.41584003e-001,
          2.21670002e-001, 2.34450996e-001, 2.26377994e-001,
          2.52175987e-001, 2.74607003e-001, 2.50660002e-001,
          2.57315010e-001, 2.54581004e-001, 2.92160004e-001,
          2.60230988e-001, 2.63031006e-001, 2.49750003e-001,
          1.94380000e-001, 9.71902013e-002, 0., 1.12268001e-001,
          9.87420976e-002, 1.02907002e-001, 1.01258002e-001,
          1.16355002e-001, 3.91342998e-001, 3.75905991e-001,
          3.45587999e-001, 2.95255005e-001, 3.11830014e-001,
          3.45126987e-001, 2.95255005e-001, 3.40682000e-001,
          3.66930008e-001, 3.90895009e-001, 3.40885997e-001,
          3.09964001e-001, 2.91274995e-001, 2.41584003e-001,
          2.21670002e-001, 2.34450996e-001, 2.26377994e-001,
          2.52175987e-001, 2.74607003e-001, 2.50660002e-001,
          2.57315010e-001, 2.54581004e-001, 2.92160004e-001,
          2.60230988e-001, 2.63031006e-001, 2.49750003e-001,
          2.57315010e-001, 2.54581004e-001, 2.92160004e-001,
          2.60230988e-001, 2.63031006e-001, 2.49750003e-001,
          6.36323988e-001, 6.74614012e-001, 5.77585995e-001,
          7.14634001e-001, 5.23743987e-001, 7.26068020e-001,
          4.79689986e-001, 7.26068020e-001, 4.35636997e-001,
          7.14634001e-001, 3.86689007e-001, 6.97481990e-001,
          3.62215012e-001, 6.57463014e-001, 4.35636997e-001,
          6.57463014e-001, 4.79689986e-001, 6.68896973e-001,
          5.23743987e-001, 6.63179994e-001, 6.11850023e-001,
          6.74614012e-001, 5.23743987e-001, 6.68896973e-001,
          4.79689986e-001, 6.74614012e-001, 4.40531999e-001,
          6.57463014e-001 ]
      - [ 5.04077017e-001, 4.99244988e-001, 4.59201008e-001,
          3.97854000e-001, 3.43685001e-001, 3.47972006e-001,
          3.96120012e-001, 4.50805008e-001, 4.93124008e-001,
          4.97184992e-001, 0., 1.07804000e-001, 7.99520016e-002,
          7.43542016e-002, 7.99518973e-002, 1.05819002e-001,
          3.92789006e-001, 3.74294013e-001, 3.41109008e-001,
          2.86339998e-001, 3.05613995e-001, 3.42815995e-001,
          2.82467991e-001, 3.36450011e-001, 3.68662000e-001,
          3.86694014e-001, 3.36656988e-001, 3.00404996e-001,
          2.64039010e-001, 2.04612002e-001, 1.64357007e-001,
          1.70791999e-001, 1.64584994e-001, 2.02698007e-001,
          2.62755990e-001, 2.67758012e-001, 2.64133990e-001,
          2.62566000e-001, 2.63123989e-001, 2.68070996e-001,
          2.43946999e-001, 1.98131993e-001, 2.01376006e-001,
          1.99091002e-001, 2.45600998e-001, 1.99091002e-001,
          2.01376006e-001, 1.98131993e-001, 8.49483982e-002,
          5.20871989e-002, 1.54906005e-001, -1.73624009e-002,
          2.34856993e-001, -3.47248018e-002, 3.29800010e-001,
          -2.31497996e-002, 4.14748013e-001, 1.15748998e-002,
          5.49665987e-001, 2.31497996e-002, 6.34615004e-001,
          -1.73624009e-002, 7.14565992e-001, -2.89373007e-002,
          7.94516981e-001, -1.73624009e-002, 8.59477997e-001,
          4.62996997e-002, 4.89703000e-001, 3.29885006e-001,
          3.94760013e-001, 4.45634991e-001, 4.39732999e-001,
          4.57208991e-001, 4.89703000e-001, 4.62996989e-001,
          5.29677987e-001, 4.57208991e-001, 5.74651003e-001,
          4.45634991e-001, 1.89885005e-001, 1.38898998e-001,
          2.49847993e-001, 1.04174003e-001, 3.14808995e-001,
          9.83868018e-002, 3.64778012e-001, 1.44686997e-001,
          3.09812009e-001, 1.62048995e-001, 2.49847993e-001,
          1.67835996e-001, 5.94639003e-001, 1.50473997e-001,
          6.49604976e-001, 1.04174003e-001, 7.14565992e-001,
          1.09962001e-001, 7.69532979e-001, 1.50473997e-001,
          7.14565992e-001, 1.73623994e-001, 6.54601991e-001,
          1.67835996e-001, 3.14808995e-001, 6.30832970e-001,
          3.84766012e-001, 5.72959006e-001, 4.44730014e-001,
          5.38233995e-001, 4.84706014e-001, 5.49808979e-001,
          5.29677987e-001, 5.38233995e-001, 5.89641988e-001,
          5.72959006e-001, 6.44608021e-001, 6.30832970e-001,
          5.94639003e-001, 6.77133024e-001, 5.34675002e-001,
          6.94495022e-001, 4.89703000e-001, 7.00282991e-001,
          4.44730014e-001, 6.94495022e-001, 3.84766012e-001,
          6.82919979e-001, 3.44790995e-001, 6.30832970e-001,
          4.44730014e-001, 6.01895988e-001, 4.89703000e-001,
          6.07683003e-001, 5.29677987e-001, 6.01895988e-001,
          6.24620974e-001, 6.25046015e-001, 5.34675002e-001,
          6.25046015e-001, 4.89703000e-001, 6.30832970e-001,
          4.44730014e-001, 6.25046015e-001 ]
      - [ 5.28747022e-001, 5.29218972e-001, 4.87208009e-001,
          4.12198007e-001, 3.28714997e-001, 3.20194989e-001,
          3.84290010e-001, 4.38376009e-001, 4.78863001e-001,
          4.68318999e-001, 0., 1.39226004e-001, 1.19801998e-001,
          1.14492998e-001, 1.09001003e-001, 1.20618001e-001,
          3.81145000e-001, 3.61927003e-001, 3.19413990e-001,
          2.51682013e-001, 2.74022996e-001, 3.17375004e-001,
          2.25637004e-001, 2.94436008e-001, 3.26660991e-001,
          3.35581005e-001, 2.81006992e-001, 2.41494998e-001,
          3.39471996e-001, 2.71658987e-001, 2.24148005e-001,
          2.33345002e-001, 2.23888993e-001, 2.63803989e-001,
          3.08025986e-001, 3.23323011e-001, 3.32264990e-001,
          3.33647996e-001, 3.34132999e-001, 3.46181989e-001,
          3.22697014e-001, 2.67527997e-001, 2.71503001e-001,
          2.66200006e-001, 2.99845010e-001, 2.61256993e-001,
          2.66775995e-001, 2.67527997e-001, 1.33451998e-001,
          1.43575996e-001, 3.55480999e-001, 3.29355985e-001,
          2.90136993e-001, 2.23392993e-001, 2.46028006e-001,
          2.89465010e-001, 2.07846001e-001, 2.76612014e-001,
          3.14530998e-001, 3.32405001e-001, 2.73826987e-001,
          2.31196001e-001, 3.48076999e-001, 2.64757007e-001,
          2.13146999e-001, 2.19980001e-001, 2.12148994e-001,
          2.62816995e-001, 3.34019989e-001, 2.75703013e-001,
          2.77797997e-001, 2.74931997e-001, 3.24533999e-001,
          2.98566997e-001, 3.00947994e-001, 2.98566997e-001,
          1.56341001e-001, 8.10244977e-002, 0., 1.49706006e-001,
          1.36778995e-001, 1.33111998e-001, 1.33451998e-001,
          1.43575996e-001, 3.55480999e-001, 3.29355985e-001,
          2.90136993e-001, 2.23392993e-001, 2.46028006e-001,
          2.89465010e-001, 2.07846001e-001, 2.76612014e-001,
          3.14530998e-001, 3.32405001e-001, 2.73826987e-001,
          2.31196001e-001, 3.48076999e-001, 2.64757007e-001,
          2.13146999e-001, 2.19980001e-001, 2.12148994e-001,
          2.62816995e-001, 3.34019989e-001, 2.75703013e-001,
          2.77797997e-001, 2.74931997e-001, 3.24533999e-001,
          2.98566997e-001, 3.00947994e-001, 2.98566997e-001,
          2.77797997e-001, 2.74931997e-001, 3.24533999e-001,
          2.98566997e-001, 3.00947994e-001, 2.98566997e-001,
          6.44608021e-001, 6.30832970e-001, 5.94639003e-001,
          6.77133024e-001, 5.34675002e-001, 6.94495022e-001,
          4.89703000e-001, 7.00282991e-001, 4.44730014e-001,
          6.94495022e-001, 3.84766012e-001, 6.82919979e-001,
          3.44790995e-001, 6.30832970e-001, 4.44730014e-001,
          6.01895988e-001, 4.89703000e-001, 6.07683003e-001,
          5.29677987e-001, 6.01895988e-001, 6.24620974e-001,
          6.25046015e-001, 5.34675002e-001, 6.25046015e-001,
          4.89703000e-001, 6.30832970e-001, 4.44730014e-001,
          6.25046015e-001 ]
      - [ 6.45801008e-001, 6.58281028e-001, 6.13925993e-001,
          5.41099012e-001, 4.35505986e-001, 3.94713014e-001,
          4.29587990e-001, 4.44317013e-001, 4.40519005e-001,
          4.11657006e-001, 0., 1.42124996e-001, 1.27471998e-001,
          1.29750997e-001, 1.34408996e-001, 1.47808000e-001,
          4.56086010e-001, 4.43733007e-001, 3.91386986e-001,
          2.97064006e-001, 3.20737988e-001, 3.78181994e-001,
          1.94763005e-001, 2.57784009e-001, 2.78118014e-001,
          2.70137995e-001, 2.22968996e-001, 1.89825997e-001,
          3.18823993e-001, 2.68233001e-001, 2.40456000e-001,
          2.67356008e-001, 2.71077991e-001, 3.17234010e-001,
          3.67256999e-001, 3.83316010e-001, 3.73946011e-001,
          3.67442995e-001, 3.46619993e-001, 3.32325995e-001,
          3.21920991e-001, 3.00128996e-001, 3.12298000e-001,
          3.26808989e-001, 3.54865998e-001, 2.91431010e-001,
          2.78944999e-001, 2.73979008e-001, 1.00876004e-001,
          1.18749999e-001, 1.66665003e-001, 2.47396007e-002,
          2.67540991e-001, -1.97916999e-002, 3.68416995e-001, 0.,
          4.60521013e-001, 5.44270985e-002, 6.18413985e-001,
          4.94792014e-002, 7.10519016e-001, 9.89583973e-003,
          8.07008982e-001, 0., 8.90340984e-001, 3.95833999e-002,
          9.38585997e-001, 1.33594006e-001, 5.61397016e-001,
          3.90886009e-001, 4.56135005e-001, 4.79948014e-001,
          5.04379988e-001, 4.84896004e-001, 5.52626014e-001,
          4.89843994e-001, 6.00871027e-001, 4.79948014e-001,
          6.35958016e-001, 4.70052004e-001, 2.32454002e-001,
          1.68228999e-001, 2.85084993e-001, 1.18749999e-001,
          3.46486986e-001, 1.13802001e-001, 4.03504014e-001,
          1.63280994e-001, 3.50872993e-001, 1.78124994e-001,
          2.85084993e-001, 1.83072999e-001, 6.53501987e-001,
          1.63280994e-001, 7.10519016e-001, 1.18749999e-001,
          7.71920979e-001, 1.23698004e-001, 8.20165992e-001,
          1.68228999e-001, 7.71920979e-001, 1.83072999e-001,
          7.10519016e-001, 1.78124994e-001, 3.59645009e-001,
          6.43230021e-001, 4.38591987e-001, 6.13542020e-001,
          5.04379988e-001, 5.88802993e-001, 5.43853998e-001,
          6.03645980e-001, 5.87713003e-001, 5.88802993e-001,
          6.49115980e-001, 6.13542020e-001, 7.10519016e-001,
          6.48177981e-001, 6.49115980e-001, 6.77865028e-001,
          5.87713003e-001, 6.92709029e-001, 5.43853998e-001,
          6.97656989e-001, 4.99994993e-001, 6.97656989e-001,
          4.38591987e-001, 6.82812989e-001, 3.85960996e-001,
          6.43230021e-001, 4.99994993e-001, 6.33333981e-001,
          5.43853998e-001, 6.43230021e-001, 5.87713003e-001,
          6.33333981e-001, 6.88588977e-001, 6.43230021e-001,
          5.87713003e-001, 6.33333981e-001, 5.43853998e-001,
          6.43230021e-001, 4.99994993e-001, 6.33333981e-001 ]
      - [ 4.86153990e-001, 4.85909998e-001, 4.43659008e-001,
          3.83338988e-001, 3.23201001e-001, 3.21568012e-001,
          3.75672996e-001, 4.37444985e-001, 4.79665011e-001,
          4.88660008e-001, 0., 1.24626003e-001, 1.03784002e-001,
          1.06941000e-001, 1.07766002e-001, 1.24626003e-001,
          3.54131997e-001, 3.33568007e-001, 2.99024999e-001,
          2.35825002e-001, 2.56599009e-001, 2.99376994e-001,
          2.43936002e-001, 3.10411990e-001, 3.43623996e-001,
          3.62960011e-001, 3.08472991e-001, 2.66330004e-001,
          3.02796006e-001, 2.44782999e-001, 2.13385999e-001,
          2.23181993e-001, 2.14248002e-001, 2.48341992e-001,
          3.00345987e-001, 3.11226994e-001, 3.16249013e-001,
          3.20850998e-001, 3.18937987e-001, 3.14101994e-001,
          2.90757000e-001, 2.45382994e-001, 2.51080006e-001,
          2.46950999e-001, 2.87198991e-001, 2.51504987e-001,
          2.55764008e-001, 2.53895015e-001, 9.74180028e-002,
          1.08750001e-001, 3.97215009e-001, 3.87822986e-001,
          3.50659013e-001, 2.77009010e-001, 2.99311996e-001,
          3.45737994e-001, 2.45534003e-001, 3.10314000e-001,
          3.40160996e-001, 3.41376007e-001, 2.95814991e-001,
          2.59815991e-001, 3.23080987e-001, 2.54278004e-001,
          2.05965996e-001, 2.13483006e-001, 1.99659005e-001,
          2.39311993e-001, 3.07336003e-001, 2.50102997e-001,
          2.52952993e-001, 2.43872002e-001, 2.82586992e-001,
          2.43872002e-001, 2.52952993e-001, 2.50102997e-001,
          1.78609997e-001, 8.91705006e-002, 0., 1.37885004e-001,
          1.09949999e-001, 9.93463993e-002, 9.74180028e-002,
          1.08750001e-001, 3.97215009e-001, 3.87822986e-001,
          3.50659013e-001, 2.77009010e-001, 2.99311996e-001,
          3.45737994e-001, 2.45534003e-001, 3.10314000e-001,
          3.40160996e-001, 3.41376007e-001, 2.95814991e-001,
          2.59815991e-001, 3.23080987e-001, 2.54278004e-001,
          2.05965996e-001, 2.13483006e-001, 1.99659005e-001,
          2.39311993e-001, 3.07336003e-001, 2.50102997e-001,
          2.52952993e-001, 2.43872002e-001, 2.82586992e-001,
          2.43872002e-001, 2.52952993e-001, 2.50102997e-001,
          2.52952993e-001, 2.43872002e-001, 2.82586992e-001,
          2.43872002e-001, 2.52952993e-001, 2.50102997e-001,
          7.10519016e-001, 6.48177981e-001, 6.49115980e-001,
          6.77865028e-001, 5.87713003e-001, 6.92709029e-001,
          5.43853998e-001, 6.97656989e-001, 4.99994993e-001,
          6.97656989e-001, 4.38591987e-001, 6.82812989e-001,
          3.85960996e-001, 6.43230021e-001, 4.99994993e-001,
          6.33333981e-001, 5.43853998e-001, 6.43230021e-001,
          5.87713003e-001, 6.33333981e-001, 6.88588977e-001,
          6.43230021e-001, 5.87713003e-001, 6.33333981e-001,
          5.43853998e-001, 6.43230021e-001, 4.99994993e-001,
          6.33333981e-001 ]
      - [ 4.82724994e-001, 5.06043017e-001, 4.77353990e-001,
          4.21990007e-001, 3.61640006e-001, 3.71232003e-001,
          4.30923998e-001, 4.84331012e-001, 5.23334980e-001,
          5.24990976e-001, 0., 1.02385998e-001, 9.28606987e-002,
          9.61953029e-002, 1.02320999e-001, 1.22863002e-001,
          3.43814999e-001, 3.32765996e-001, 3.08225989e-001,
          2.60785997e-001, 2.82355011e-001, 3.08957011e-001,
          2.89243996e-001, 3.37060004e-001, 3.69253993e-001,
          3.95498008e-001, 3.49352986e-001, 3.14745009e-001,
          2.72132009e-001, 2.30970994e-001, 2.12819993e-001,
          2.21507996e-001, 2.15560004e-001, 2.42586002e-001,
          3.04167002e-001, 2.97778994e-001, 2.93877989e-001,
          2.92620987e-001, 2.88273007e-001, 2.79235005e-001,
          2.59938002e-001, 2.41601005e-001, 2.46575996e-001,
          2.48660997e-001, 2.86011010e-001, 2.48165995e-001,
          2.46575996e-001, 2.42311999e-001, 1.26396999e-001,
          1.81137007e-002, 2.01445997e-001, -4.52843010e-002,
          2.92293996e-001, -3.16990018e-002, 3.79191995e-001,
          1.35853002e-002, 4.54239994e-001, 5.88694997e-002,
          5.68787992e-001, 6.33980036e-002, 6.51736021e-001,
          2.26421002e-002, 7.34683990e-001, 9.05685034e-003,
          8.13682973e-001, 1.81137007e-002, 8.68981004e-001,
          9.05684978e-002, 5.25339007e-001, 3.89445007e-001,
          4.26591009e-001, 4.66428012e-001, 4.70039994e-001,
          4.80013013e-001, 5.13489008e-001, 4.89069998e-001,
          5.52987993e-001, 4.84542012e-001, 5.92486978e-001,
          4.75484997e-001, 2.21194997e-001, 1.17738999e-001,
          2.76493996e-001, 9.05684978e-002, 3.35743010e-001,
          9.50969011e-002, 3.87091994e-001, 1.49437994e-001,
          3.31793010e-001, 1.58494994e-001, 2.72543997e-001,
          1.53965995e-001, 6.16186976e-001, 1.72079995e-001,
          6.67536020e-001, 1.22267000e-001, 7.26783991e-001,
          1.26796007e-001, 7.74182975e-001, 1.63022995e-001,
          7.26783991e-001, 1.85664997e-001, 6.67536020e-001,
          1.85664997e-001, 3.27843010e-001, 6.33979976e-001,
          4.02891010e-001, 6.11337006e-001, 4.66089994e-001,
          5.93223989e-001, 5.01639009e-001, 6.06809020e-001,
          5.37189007e-001, 6.02280974e-001, 5.88536978e-001,
          6.33979976e-001, 6.39886022e-001, 6.52092993e-001,
          5.80637991e-001, 6.92848980e-001, 5.29289007e-001,
          7.10963011e-001, 4.89789993e-001, 7.10963011e-001,
          4.50289994e-001, 7.01906025e-001, 3.94991994e-001,
          6.83791995e-001, 3.51541996e-001, 6.38508022e-001,
          4.66089994e-001, 6.43036008e-001, 4.97689009e-001,
          6.52092993e-001, 5.37189007e-001, 6.52092993e-001,
          6.20136976e-001, 6.52092993e-001, 5.33239007e-001,
          6.47565007e-001, 4.93739009e-001, 6.47565007e-001,
          4.58189994e-001, 6.43036008e-001 ]
      - [ 4.93061006e-001, 5.00724018e-001, 4.58920002e-001,
          3.95366997e-001, 3.38423997e-001, 3.59573007e-001,
          4.28438008e-001, 4.90072995e-001, 5.39821982e-001,
          5.48783004e-001, 0., 9.16320011e-002, 7.74578005e-002,
          8.22561979e-002, 9.06279013e-002, 1.19773000e-001,
          3.63058001e-001, 3.62774014e-001, 3.34737986e-001,
          2.69782007e-001, 2.85284013e-001, 3.12649012e-001,
          2.96489000e-001, 3.61923993e-001, 4.00016993e-001,
          4.15035009e-001, 3.62527013e-001, 3.19233000e-001,
          2.57055998e-001, 2.05194995e-001, 1.73979998e-001,
          1.85973004e-001, 1.83441997e-001, 2.33131006e-001,
          3.06167006e-001, 2.90915012e-001, 2.80524999e-001,
          2.76813000e-001, 2.68225998e-001, 2.61965990e-001,
          2.41833001e-001, 2.07784995e-001, 2.20660001e-001,
          2.21438006e-001, 2.87660986e-001, 2.17332006e-001,
          2.12075993e-001, 2.03495994e-001, 9.90348980e-002,
          1.09141000e-001, 4.07831997e-001, 3.88909012e-001,
          3.50124002e-001, 2.76975006e-001, 3.01326990e-001,
          3.45477998e-001, 2.35586002e-001, 3.02661002e-001,
          3.31005991e-001, 3.36438000e-001, 2.86541998e-001,
          2.48486996e-001, 3.14327985e-001, 2.53435999e-001,
          2.12218001e-001, 2.18652993e-001, 2.13165998e-001,
          2.52570003e-001, 3.03707004e-001, 2.60421008e-001,
          2.64099985e-001, 2.62915999e-001, 2.79233009e-001,
          2.58240998e-001, 2.60046989e-001, 2.62331009e-001,
          1.81309000e-001, 9.51789021e-002, 0., 1.25210002e-001,
          1.06115997e-001, 1.00327998e-001, 9.90348980e-002,
          1.09141000e-001, 4.07831997e-001, 3.88909012e-001,
          3.50124002e-001, 2.76975006e-001, 3.01326990e-001,
          3.45477998e-001, 2.35586002e-001, 3.02661002e-001,
          3.31005991e-001, 3.36438000e-001, 2.86541998e-001,
          2.48486996e-001, 3.14327985e-001, 2.53435999e-001,
          2.12218001e-001, 2.18652993e-001, 2.13165998e-001,
          2.52570003e-001, 3.03707004e-001, 2.60421008e-001,
          2.64099985e-001, 2.62915999e-001, 2.79233009e-001,
          2.58240998e-001, 2.60046989e-001, 2.62331009e-001,
          2.64099985e-001, 2.62915999e-001, 2.79233009e-001,
          2.58240998e-001, 2.60046989e-001, 2.62331009e-001,
          6.39886022e-001, 6.52092993e-001, 5.80637991e-001,
          6.92848980e-001, 5.29289007e-001, 7.10963011e-001,
          4.89789993e-001, 7.10963011e-001, 4.50289994e-001,
          7.01906025e-001, 3.94991994e-001, 6.83791995e-001,
          3.51541996e-001, 6.38508022e-001, 4.66089994e-001,
          6.43036008e-001, 4.97689009e-001, 6.52092993e-001,
          5.37189007e-001, 6.52092993e-001, 6.20136976e-001,
          6.52092993e-001, 5.33239007e-001, 6.47565007e-001,
          4.93739009e-001, 6.47565007e-001, 4.58189994e-001,
          6.43036008e-001 ]
      - [ 5.09875000e-001, 5.21300018e-001, 4.90805000e-001,
          4.39567000e-001, 3.84709001e-001, 3.84032011e-001,
          4.41031009e-001, 4.86750007e-001, 5.23262978e-001,
          5.30789018e-001, 0., 9.86071005e-002, 8.37849006e-002,
          8.71634036e-002, 8.67893994e-002, 1.04750000e-001,
          3.81821990e-001, 3.79002005e-001, 3.49292994e-001,
          2.85530001e-001, 2.97742993e-001, 3.31378996e-001,
          2.92885989e-001, 3.57143015e-001, 3.89863014e-001,
          4.00204986e-001, 3.46403003e-001, 3.08299989e-001,
          2.64257014e-001, 2.07835004e-001, 1.72966003e-001,
          1.82871997e-001, 1.77187994e-001, 2.08066002e-001,
          2.73429006e-001, 2.57441998e-001, 2.46382996e-001,
          2.47173995e-001, 2.48292997e-001, 2.56909996e-001,
          2.49443993e-001, 2.04315007e-001, 2.10252002e-001,
          2.04601005e-001, 2.56778002e-001, 2.05788001e-001,
          2.05891997e-001, 1.99109003e-001, 8.80922973e-002,
          6.67017996e-002, 1.58565998e-001, 9.52882972e-003,
          2.51062989e-001, 4.76441998e-003, 3.43560010e-001,
          1.90577004e-002, 4.36057001e-001, 5.71729988e-002,
          5.72600007e-001, 6.19373992e-002, 6.60692990e-001,
          2.38221008e-002, 7.53189981e-001, 4.76441998e-003,
          8.50090981e-001, 0., 9.24969971e-001, 5.24085984e-002,
          5.10936022e-001, 3.85917991e-001, 4.22843009e-001,
          4.71677005e-001, 4.66888994e-001, 4.81206000e-001,
          5.10936022e-001, 4.85971004e-001, 5.59386015e-001,
          4.81206000e-001, 5.99027991e-001, 4.71677005e-001,
          1.89399004e-001, 1.38168007e-001, 2.46658996e-001,
          1.04817003e-001, 3.17131996e-001, 1.04817003e-001,
          3.78796995e-001, 1.47697002e-001, 3.12727988e-001,
          1.61990002e-001, 2.46658996e-001, 1.61990002e-001,
          6.34265006e-001, 1.47697002e-001, 7.00334013e-001,
          1.00052997e-001, 7.66403019e-001, 1.04817003e-001,
          8.23662996e-001, 1.38168007e-001, 7.66403019e-001,
          1.61990002e-001, 7.00334013e-001, 1.61990002e-001,
          3.34751010e-001, 6.38432026e-001, 4.00819987e-001,
          5.95552027e-001, 4.66888994e-001, 5.76493979e-001,
          5.10936022e-001, 5.95552027e-001, 5.59386015e-001,
          5.81259012e-001, 6.25455976e-001, 6.00317001e-001,
          6.87120020e-001, 6.43195987e-001, 6.25455976e-001,
          6.81312025e-001, 5.59386015e-001, 7.00369000e-001,
          5.10936022e-001, 7.05133975e-001, 4.62484986e-001,
          7.05133975e-001, 3.96416008e-001, 6.86075985e-001,
          3.61178994e-001, 6.33666992e-001, 4.66888994e-001,
          6.19373977e-001, 5.10936022e-001, 6.28902972e-001,
          5.59386015e-001, 6.19373977e-001, 6.60692990e-001,
          6.38432026e-001, 5.59386015e-001, 6.24139011e-001,
          5.10936022e-001, 6.33666992e-001, 4.62484986e-001,
          6.24139011e-001 ]
      - [ 4.90141004e-001, 4.94830012e-001, 4.51792985e-001,
          3.93711001e-001, 3.31818014e-001, 3.29434991e-001,
          3.99235010e-001, 4.53303993e-001, 4.91881013e-001,
          4.73192990e-001, 0., 1.18886001e-001, 9.20938030e-002,
          9.01694968e-002, 9.06419009e-002, 1.13357000e-001,
          3.53783011e-001, 3.21518004e-001, 2.88827002e-001,
          2.41185993e-001, 2.68723011e-001, 3.03151011e-001,
          2.38956004e-001, 2.88827002e-001, 3.18322986e-001,
          3.43995988e-001, 3.03151011e-001, 2.65343994e-001,
          2.89640993e-001, 2.18946993e-001, 1.83428004e-001,
          1.89335003e-001, 1.84448004e-001, 2.24689007e-001,
          2.90450007e-001, 2.74417013e-001, 2.64180005e-001,
          2.61326998e-001, 2.63006002e-001, 2.71122992e-001,
          2.69324988e-001, 2.13800997e-001, 2.16327995e-001,
          2.15338007e-001, 2.71183014e-001, 2.15338007e-001,
          2.16327995e-001, 2.13800997e-001, 1.06899001e-001,
          1.22942999e-001, 4.05914009e-001, 3.85823995e-001,
          3.41434002e-001, 2.72415012e-001, 2.99048007e-001,
          3.46390009e-001, 2.68251985e-001, 3.42914999e-001,
          3.79844010e-001, 3.98972005e-001, 3.39717001e-001,
          2.93283999e-001, 3.07902992e-001, 2.36794993e-001,
          1.95600003e-001, 2.09634006e-001, 2.01260000e-001,
          2.43066996e-001, 2.89494991e-001, 2.37574995e-001,
          2.42984995e-001, 2.38431007e-001, 2.93581992e-001,
          2.43098006e-001, 2.47749999e-001, 2.43098006e-001,
          1.71575993e-001, 8.58725980e-002, 0., 1.22942999e-001,
          1.04975998e-001, 1.00052997e-001, 1.06899001e-001,
          1.22942999e-001, 4.05914009e-001, 3.85823995e-001,
          3.41434002e-001, 2.72415012e-001, 2.99048007e-001,
          3.46390009e-001, 2.68251985e-001, 3.42914999e-001,
          3.79844010e-001, 3.98972005e-001, 3.39717001e-001,
          2.93283999e-001, 3.07902992e-001, 2.36794993e-001,
          1.95600003e-001, 2.09634006e-001, 2.01260000e-001,
          2.43066996e-001, 2.89494991e-001, 2.37574995e-001,
          2.42984995e-001, 2.38431007e-001, 2.93581992e-001,
          2.43098006e-001, 2.47749999e-001, 2.43098006e-001,
          2.42984995e-001, 2.38431007e-001, 2.93581992e-001,
          2.43098006e-001, 2.47749999e-001, 2.43098006e-001,
          6.87120020e-001, 6.43195987e-001, 6.25455976e-001,
          6.81312025e-001, 5.59386015e-001, 7.00369000e-001,
          5.10936022e-001, 7.05133975e-001, 4.62484986e-001,
          7.05133975e-001, 3.96416008e-001, 6.86075985e-001,
          3.61178994e-001, 6.33666992e-001, 4.66888994e-001,
          6.19373977e-001, 5.10936022e-001, 6.28902972e-001,
          5.59386015e-001, 6.19373977e-001, 6.60692990e-001,
          6.38432026e-001, 5.59386015e-001, 6.24139011e-001,
          5.10936022e-001, 6.33666992e-001, 4.62484986e-001,
          6.24139011e-001 ]
      - [ 5.20402014e-001, 5.26268005e-001, 4.74249989e-001,
          4.07548010e-001, 3.53347003e-001, 3.53347003e-001,
          4.10288990e-001, 4.90074992e-001, 5.47770977e-001,
          5.57340980e-001, 0., 1.05236001e-001, 8.76502991e-002,
          9.08870995e-002, 9.68367979e-002, 1.20390996e-001,
          3.94468993e-001, 3.75055999e-001, 3.42685997e-001,
          2.90071994e-001, 3.10158998e-001, 3.40128988e-001,
          3.07024002e-001, 3.65006000e-001, 3.98665011e-001,
          4.18787003e-001, 3.70490998e-001, 3.29587996e-001,
          2.77469993e-001, 2.17247993e-001, 1.81403995e-001,
          1.90230995e-001, 1.86015993e-001, 2.25752994e-001,
          2.94135004e-001, 3.11693013e-001, 3.19373012e-001,
          3.21514010e-001, 3.18991005e-001, 3.03988010e-001,
          2.59027988e-001, 2.29383007e-001, 2.35443994e-001,
          2.33766004e-001, 2.76910007e-001, 2.38148004e-001,
          2.39966005e-001, 2.33847007e-001, 6.38016984e-002,
          8.51788968e-002, 1.23350002e-001, 1.34493001e-002,
          2.21178994e-001, 0., 3.19007993e-001, 2.68986002e-002,
          4.16837990e-001, 6.27634004e-002, 5.31679988e-001,
          6.72464967e-002, 6.29509985e-001, 2.68986002e-002,
          7.27339029e-001, 4.48310003e-003, 8.25168014e-001,
          1.79324001e-002, 9.01730001e-001, 8.51788968e-002,
          4.63625014e-001, 3.76580000e-001, 3.87062997e-001,
          4.66241986e-001, 4.25343990e-001, 4.79692012e-001,
          4.63625014e-001, 4.88658011e-001, 5.10412991e-001,
          4.79692012e-001, 5.52947998e-001, 4.70725000e-001,
          1.70138001e-001, 1.47942007e-001, 2.25433007e-001,
          1.12076998e-001, 2.93487996e-001, 1.12076998e-001,
          3.48782003e-001, 1.65875003e-001, 2.89234012e-001,
          1.83807001e-001, 2.21178994e-001, 1.83807001e-001,
          6.08241975e-001, 1.70358002e-001, 6.67791009e-001,
          1.12076998e-001, 7.35845983e-001, 1.16561003e-001,
          7.95394003e-001, 1.52425006e-001, 7.40099013e-001,
          1.88290000e-001, 6.72043979e-001, 1.88290000e-001,
          3.01995009e-001, 6.59015000e-001, 3.65796000e-001,
          6.41083002e-001, 4.25343990e-001, 6.27633989e-001,
          4.63625014e-001, 6.45565987e-001, 5.06160021e-001,
          6.32116973e-001, 5.69961011e-001, 6.50048971e-001,
          6.55030012e-001, 6.67981982e-001, 5.69961011e-001,
          7.17296004e-001, 5.01905978e-001, 7.35228002e-001,
          4.59372014e-001, 7.35228002e-001, 4.16837990e-001,
          7.30745018e-001, 3.61543000e-001, 7.08329022e-001,
          3.27515006e-001, 6.59015000e-001, 4.25343990e-001,
          6.67981982e-001, 4.67878997e-001, 6.76948011e-001,
          5.06160021e-001, 6.72465026e-001, 6.25256002e-001,
          6.67981982e-001, 5.01905978e-001, 6.81430995e-001,
          4.59372014e-001, 6.85913980e-001, 4.21090990e-001,
          6.81430995e-001 ]
      - [ 5.05367994e-001, 5.17259002e-001, 4.76821005e-001,
          4.08096999e-001, 3.39967012e-001, 3.53215992e-001,
          4.22713995e-001, 4.87006009e-001, 5.36723971e-001,
          5.42542994e-001, 0., 1.11487001e-001, 9.65211987e-002,
          9.81035009e-002, 1.05057999e-001, 1.26259997e-001,
          3.73769999e-001, 3.59405011e-001, 3.25002998e-001,
          2.64589995e-001, 2.83425003e-001, 3.18760008e-001,
          2.82290995e-001, 3.52782011e-001, 3.85170013e-001,
          4.06962007e-001, 3.50798011e-001, 3.07547987e-001,
          3.08003992e-001, 2.38400996e-001, 1.97200999e-001,
          2.05368996e-001, 1.97775006e-001, 2.44112998e-001,
          3.19274992e-001, 3.22429001e-001, 3.27508003e-001,
          3.27576995e-001, 3.23906004e-001, 3.22627008e-001,
          2.86029994e-001, 2.46214002e-001, 2.44619995e-001,
          2.45186001e-001, 2.97210008e-001, 2.54734010e-001,
          2.54377007e-001, 2.50553995e-001, 1.13229997e-001,
          1.29776001e-001, 3.72034997e-001, 3.55946004e-001,
          3.14496994e-001, 2.39969999e-001, 2.59950012e-001,
          3.09745014e-001, 2.51877010e-001, 3.34134012e-001,
          3.76448989e-001, 4.00395006e-001, 3.34500998e-001,
          2.80876011e-001, 3.25414002e-001, 2.82014996e-001,
          2.53955007e-001, 2.68985987e-001, 2.59052008e-001,
          2.93415010e-001, 3.13520998e-001, 2.93904990e-001,
          3.00397992e-001, 2.98925996e-001, 3.33225995e-001,
          3.07244986e-001, 3.09363008e-001, 3.07803988e-001,
          1.61615998e-001, 8.08077976e-002, 0., 1.17903002e-001,
          1.09987997e-001, 1.12076998e-001, 1.13229997e-001,
          1.29776001e-001, 3.72034997e-001, 3.55946004e-001,
          3.14496994e-001, 2.39969999e-001, 2.59950012e-001,
          3.09745014e-001, 2.51877010e-001, 3.34134012e-001,
          3.76448989e-001, 4.00395006e-001, 3.34500998e-001,
          2.80876011e-001, 3.25414002e-001, 2.82014996e-001,
          2.53955007e-001, 2.68985987e-001, 2.59052008e-001,
          2.93415010e-001, 3.13520998e-001, 2.93904990e-001,
          3.00397992e-001, 2.98925996e-001, 3.33225995e-001,
          3.07244986e-001, 3.09363008e-001, 3.07803988e-001,
          3.00397992e-001, 2.98925996e-001, 3.33225995e-001,
          3.07244986e-001, 3.09363008e-001, 3.07803988e-001,
          6.55030012e-001, 6.67981982e-001, 5.69961011e-001,
          7.17296004e-001, 5.01905978e-001, 7.35228002e-001,
          4.59372014e-001, 7.35228002e-001, 4.16837990e-001,
          7.30745018e-001, 3.61543000e-001, 7.08329022e-001,
          3.27515006e-001, 6.59015000e-001, 4.25343990e-001,
          6.67981982e-001, 4.67878997e-001, 6.76948011e-001,
          5.06160021e-001, 6.72465026e-001, 6.25256002e-001,
          6.67981982e-001, 5.01905978e-001, 6.81430995e-001,
          4.59372014e-001, 6.85913980e-001, 4.21090990e-001,
          6.81430995e-001 ]
      - [ 5.23204982e-001, 5.33930004e-001, 4.89084989e-001,
          4.26411986e-001, 3.57084006e-001, 3.55246991e-001,
          4.21306014e-001, 4.82014000e-001, 5.18616021e-001,
          5.06336987e-001, 0., 1.16042003e-001, 1.03753999e-001,
          9.89243016e-002, 1.03837997e-001, 1.15601003e-001,
          3.79882991e-001, 3.56476992e-001, 3.16459000e-001,
          2.59236008e-001, 2.87104011e-001, 3.27632010e-001,
          2.55046993e-001, 3.11311007e-001, 3.46982986e-001,
          3.70638996e-001, 3.20989013e-001, 2.77815998e-001,
          3.03900987e-001, 2.51695007e-001, 2.20875993e-001,
          2.30763003e-001, 2.23305002e-001, 2.51120001e-001,
